#ifndef __NET_PARAM_PARA_SPOOF_6157_H__
#define __NET_PARAM_PARA_SPOOF_6157_H__


static float para_conv3x3_weight[72] = {
    4.8015069962, -1.7428702116, -7.7272353172, 5.3641800880, -0.8900346160, -6.5650396347, 1.3526928425, 3.6765587330,
    0.6711685658, 2.1650645733, -7.1017808914, -8.3539428711, 0.4208589792, 0.7417791486, 2.7248723507, -0.8737795353,
    7.8167257309, 6.8917117119, -4.0406093597, 7.4252104759, 8.1079454422, -7.4812016487, 2.3813118935, 3.2961690426,
    -1.9509845972, -6.5234217644, -1.4163223505, -1.7756117582, -7.0348424911, -6.5180611610, 1.3949892521, 11.4932746887,
    8.3383932114, -2.8323512077, -5.5782461166, -6.2346415520, -2.1136519909, -14.0772609711, -6.3318572044, 7.1644687653,
    19.8749122620, 15.1330270767, -4.3769769669, -10.8519763947, -8.5008907318, 3.7330060005, 8.3664274216, -1.5072216988,
    4.5417385101, 1.6535102129, -6.6044549942, -0.3337423801, -4.7581601143, -5.3160262108, 7.2566323280, -15.8833189011,
    5.9150395393, -10.7056379318, 16.3250274658, -12.5466327667, 3.3700759411, -5.4954433441, 4.3030385971, -7.1647238731,
    -1.0923167467, 2.7222409248, -7.3640971184, 0.2761838734, 5.4081115723, -0.2364947498, 3.6994116306, 3.1861746311,
};

static float para_conv3x3_bias[8] = {
    0.8133131266, -0.6126475334, 0.9595419765, 9.1226253510, 7.6437273026, 0.8654026985, 7.2096853256, 0.5993102789,
};

static float para_conv1x1s1_di_1_weight[64] = {
    0.0701166242, 0.0678591207, 0.0800018832, -0.2696795762, 0.1681951135, 0.1042575613, 0.0599555224, 0.0438843295,
    0.0815042555, 0.0055500218, -0.1606019437, -0.2639575005, -0.3942143321, -0.1696866602, 0.2747090161, 0.0972327143,
    -0.0675477311, -0.1995244622, 0.1249751821, -0.0945824906, -0.0581846237, 0.1124066487, -0.0358096845, -0.0922197849,
    0.1457569599, 0.4236011505, -0.1626268476, 0.3670804203, 0.2946169376, -0.1257317662, -0.1402259618, 0.1347431093,
    -0.4712558091, -0.0947317258, -0.0536591038, 0.0033646270, -0.0845594630, -0.3516224027, -0.0624166094, -0.0668366849,
    0.0038641177, -0.0707519725, -0.3369937837, 0.0190570392, -0.0905832797, -0.0442203879, -0.0986073613, -0.4791460633,
    0.1032839343, 0.0351496004, 0.0612275675, -0.1317305267, 0.0363746174, 0.0460789502, 0.4277608097, 0.0889441818,
    -0.4076347947, -0.0886339322, -0.3198377490, 0.0085287513, -0.0478860848, -0.3166539967, -0.1992617100, -0.3669503629,
};

static float para_conv1x1s1_di_1_bias[8] = {
    1.7322385311, 4.3507013321, 1.3868736029, -2.5308170319, 1.8032515049, 2.0809977055, 0.5784853697, 2.6004233360,
};

static float para_convdw3x3s1_1_weight[72] = {
    0.0509954132, 0.1709935218, 0.1192366704, -0.0512233824, 0.3086947203, 0.1042212099, -0.0320545025, 0.1316044033,
    0.0213839076, 0.2054747641, -1.1733636856, -0.0336814001, -0.1541461051, 0.4282069504, -0.0140344556, 0.0757016242,
    -0.3532676101, -0.0106369751, -0.0516632274, 1.3722366095, 0.5031744242, 0.4220811427, -3.5921959877, -0.3842422664,
    0.2499709427, -0.7263723016, 0.3208444118, 0.2137897611, -1.1820852757, 0.0623821877, -0.0263531748, -0.0359467231,
    -0.0164757576, -0.0215706769, -0.0188885275, 0.0043901931, -0.0382723175, -0.7668786645, 1.1232980490, -0.0762059614,
    -1.3663724661, 1.6213749647, 0.1296250820, -0.0706984699, -0.2487579286, 0.0565179586, -1.2482404709, 1.0548719168,
    0.1605138481, -1.7010651827, 1.4152585268, -0.1358905584, 0.3788145781, -0.0547239557, 0.0600992665, -0.3179759979,
    -0.0031778433, 0.0109121185, -0.6685941219, -0.1157269254, -0.0163549483, -0.1050978079, 0.0115520526, -0.3098146915,
    1.4340991974, 0.8614016175, -0.3134838939, 0.1562887132, -0.1887263656, 0.5404071212, -2.1194691658, -1.2810038328,
};

static float para_convdw3x3s1_1_bias[8] = {
    0.5801752806, 3.2155835629, 2.7071282864, 2.1458308697, 2.7754166126, 2.7652945518, 3.9076018333, 1.9520839453,
};

static float para_conv1x1s1_dd_1_weight[64] = {
    -2.0775775909, 1.4270062447, 0.7195770144, -0.0020221090, 0.2962384820, 0.5882176757, 0.1998070925, -2.4961087704,
        0.0032410319, -0.6348267198, -2.6469933987, -1.8257174492, -0.3153082430, 0.6448572278, -0.1026700288, -0.6623806357,
        -0.7354665399, -0.0301320683, -0.7812181711, 1.5160627365, -0.3640271723, 1.2283865213, 1.9775714874, 1.0248136520,
        -1.2508802414, -0.0435920618, 0.2343085557, -0.3944776952, 0.1834934056, -2.4339737892, 0.8149301410, -0.4825530052,
        0.0548579693, -0.3376564980, -0.1470536143, -0.6235913634, -3.7590587139, 0.2717265785, -0.1970583498, -0.2935164273,
        2.4217319489, -1.5281300545, -0.1822925657, 0.5684983730, 0.1219566837, -0.0643741861, -0.2296707332, -1.2736327648,
        -0.8104330897, -1.6914290190, 0.3804807365, -2.8523511887, 0.0966574699, 1.2806515694, 0.5217003226, -0.0000281825,
        -2.6317501068, -1.6037873030, -0.6332496405, 1.0510208607, -0.1643000096, 0.1157918200, -2.5967032909, 0.2431878895,
    };

static float para_conv1x1s1_dd_1_bias[8] = {
    0.7801770568, 9.6042423248, -5.1657576561, 8.0910682678, 11.1084203720, 1.3344254494, 1.8396332264, 11.8689880371,
};

static float para_conv1x1s1_di_2_weight[256] = {
    0.0271994844, 0.2579407692, 0.1926675886, -0.0961925313, 0.2751585543, 0.0945019275, 0.3229402900, 0.1452318728,
    -0.6584601402, 0.1692162901, 0.7950575352, -0.2306519598, -0.1898035556, -0.4633237123, -0.6847342849, 0.4790019393,
    -0.0339164883, 0.4907521307, 0.3770543933, -0.6539452076, 0.8419867754, -0.2160698473, 0.7101935744, 0.1431379765,
    0.2393344939, -0.1658035219, 0.3146913052, -0.2032395452, -0.3101973236, -0.0303599592, 0.1798357666, -0.0115688518,
    -0.0107394364, 0.0118459528, 0.0042089322, -0.0025375620, 0.0073688542, 0.0064674239, 0.0076729385, -0.0028828976,
    0.0509016514, -0.0709190667, -0.1889008284, 0.4911314249, -0.5299035311, -0.0572343320, -0.2540822625, 0.0391388945,
    -0.0681559220, 0.2326576710, 0.0248273406, -0.0023779504, 0.0071381712, -0.0016205127, 0.0826874003, 0.0366040803,
    0.1684680283, 0.0508758016, -0.1017561778, 0.0460924432, -0.0208750311, 0.1362278014, 0.0554939620, 0.0682791546,
    -0.9407408834, 1.7026959658, 0.3284548223, 0.7578545213, -0.0588402562, 0.0610280484, 1.0151585340, 0.9553118348,
    -0.0165555552, 0.0164122563, 0.0679447949, -0.1576803327, 0.0926879793, 0.0850301012, -0.0561471768, -0.0921326876,
    -0.0899329111, 0.2550947666, 0.0609679855, 0.0400339141, 0.0662791505, -0.0388474800, 0.1319258213, 0.0296795834,
    -0.1938331574, -0.5674051642, -0.8389847875, -0.2008794248, 0.3336105943, -0.6557413936, 0.1198784336, 0.2544542849,
    0.0879762545, 0.0030239322, 0.1112897098, 0.0567578040, -0.1798138767, 0.0173578281, -0.1652370840, -0.1612821966,
    0.3195821643, -0.2897084653, 0.3423480093, -0.3100119233, 0.3629289269, -0.2809389532, 0.1406837553, -0.0473126136,
    0.0994298607, -0.0856203139, 0.0558054969, -0.0175929703, -0.0596419461, 0.0518411845, -0.1845579892, 0.0378277861,
    -0.0387340598, -0.0089169284, -0.0434403531, -0.0162413828, -0.0157273859, 0.0642748922, 0.0637075976, -0.0249368530,
    0.5777791739, 0.3508631587, -0.2136718631, 0.0267358962, 0.0911959037, -0.9112166762, -0.1050122157, -1.3139487505,
    0.0648479983, 0.0923921689, -0.0425206609, 0.1626998931, 0.0782621652, 0.0736832917, -0.0512225404, -0.0610676035,
    -0.0549895875, 0.0051125074, -0.1118962169, -0.1916711777, -0.0368740298, 0.0027076628, -0.0438354276, -0.0220295060,
    0.0272585023, -0.0027855346, -0.0050049066, -0.0081926025, 0.0231117681, 0.0060346886, 0.0136207202, -0.0094036059,
    0.1757581830, 0.0131009193, 0.0170793366, 0.1965049505, -0.1373029351, -1.2011677027, 0.5125853419, -1.1628947258,
    -0.0414584354, 0.1006788760, 0.0243673529, -0.0231963024, 0.0427171141, 0.0055800714, 0.0511167273, -0.0012437495,
    -0.0095584290, -0.0173975825, 0.2510921061, 0.0163534619, -0.2205584347, 0.2957599163, 0.0496698022, 0.0857224911,
    0.0416517444, -0.0582159013, 0.0530169457, -0.0177874696, -0.0079023913, -0.0116576953, -0.0213292539, -0.0164932813,
    -0.0910521746, -0.1376057714, 0.0279888380, 0.1042006686, 0.1327734143, -0.0549614467, 0.0586686581, 0.0389774106,
    0.2519221902, -0.0902581438, -0.2765907943, 0.3910857737, -0.3163258731, 0.2157528549, -0.1297472417, 0.1948344111,
    -1.3011791706, -0.6466643214, 0.6276274323, -0.1230648160, -0.2026164979, -0.1047081351, -0.3530576825, 0.6273522377,
    0.1358571649, 0.0607135147, 0.3164387941, 0.1786089838, 0.0398342758, -0.1007594466, 0.1217652410, 0.0592767671,
    0.0444352813, -0.0872429088, 0.0022834798, 0.1638633162, 0.0004118722, 0.3536420166, 0.1776239425, 0.5959475636,
    0.2798729837, -0.2959175408, -0.0631155968, 0.1897974759, -0.2223410904, 0.0693364441, -0.0503951088, 0.0396575853,
    -0.0674956217, 0.4240359664, 0.0403091609, -0.1700197607, 0.1874962002, -0.0454583094, 0.1460698545, 0.0436072573,
    0.0338943228, -0.0039715464, 0.0592637546, -0.0634554923, 0.0570715666, -0.0207978133, 0.0196040720, -0.0055739051,
};

static float para_conv1x1s1_di_2_bias[32] = {
    0.7977992892, -0.0465517044, 2.1911368370, 0.5042591691, -0.0318694189, -0.6876567602, 0.1995927691, 1.1470358372,
    -1.9087229967, 1.1989263296, -0.9724255204, -1.1542810202, 1.5671916008, 1.8776857853, 2.3210952282, 1.3450064659,
    2.4810595512, -0.5516353250, 0.4317252636, -0.1425043046, 1.9908111095, 1.3093498945, 0.1328183264, 2.0790493488,
    -0.7468884587, -2.0496592522, 4.4949588776, 0.3555096686, 1.5078835487, -1.5067747831, -2.1248738766, 0.0487035923,
};

static float para_convdw3x3s2_2_weight[288] = {
    -0.2211205810, -0.3558542430, -0.2740870118, -0.2190525234, -0.3326823711, -0.2549100816, 0.1984122843, 0.3390887976,
        0.1972520947, 0.1249450371, 0.1273963004, 0.1522292346, 0.1706825942, 0.2342194021, 0.2551098168, 0.0776775628,
        0.0932036266, 0.0888174996, -0.0396036096, -0.0698802918, -0.0418402441, -0.1269541085, -0.2090354860, -0.1308197081,
        -0.1061898544, -0.1520089656, -0.1190567240, -0.2434911877, -0.1107154712, 0.1884870678, -0.4735586345, -0.2361870110,
        0.4287580252, -0.4148028791, -0.2298768908, 0.1883751303, 7.1750812531, 45.3314590454, 9.9129543304, -4.7972450256,
        -5.0520610809, -4.4482684135, -17.1741867065, -37.6908760071, -19.1522769928, -0.1036328003, -0.1763112247, -0.1159172878,
        -0.1476990432, -0.2763935626, -0.1840046346, -0.1081548333, -0.2058491558, -0.1245965734, 0.6163251400, 0.9811916351,
        0.1324217319, 0.7164198756, 0.3137573302, -0.1866083592, 0.5710874200, 1.0216591358, 0.0048959511, 0.5678951144,
        0.8517338037, 0.3630882800, 0.1645215750, 0.1215152666, 0.1657544076, -0.3098767698, -0.6093947887, -0.3456911147,
        -0.0380018465, -0.0841473117, -0.0544215515, -0.0507042706, -0.0896668956, -0.0757157430, -0.0257886443, -0.0437061600,
        -0.0416780934, 0.1874772608, 0.3730989099, 0.2575631142, 0.2788704038, 1.0331760645, 0.8481692076, 0.3731023371,
        0.8579150438, 0.6502348185, 0.5004552007, 0.0654169992, -1.2469528913, 1.0219082832, 0.5368152857, -1.8865759373,
        0.5189670920, -0.2488040924, -1.3601071835, 0.0715908483, 0.2609226406, 0.1430694759, 0.0262926053, 0.3184652030,
        0.2146928459, -0.0508854762, 0.1928010434, 0.2309577763, 0.0955984816, 0.3146573305, 0.2215549201, 0.1527204216,
        0.3225712180, 0.3647701740, 0.1201609746, 0.1476741731, 0.1970108747, -0.2952869833, 0.3686656654, -0.3217084706,
        -0.3752448559, 0.6868367195, -0.3631539941, -0.2602383494, 0.5270762444, -0.2996262312, 0.0697661489, 0.5734432936,
        0.2549880743, 0.5590476394, 1.4944192171, 0.8036260605, -0.5872567892, -1.1530731916, -0.6337417364, -0.4002231061,
        0.1180808246, 0.1341268867, 0.7533909678, 2.4969651699, 1.7866792679, 0.7238045931, 2.2395520210, 1.6144700050,
        -0.3057919145, -0.4381352365, -0.2944066823, 0.0741107315, 0.0619842038, 0.0553082563, 0.1013760492, 0.0938563719,
        0.1078704447, 0.3969876170, 0.1217726022, -0.1412342340, 0.8061988354, 2.7162196636, 1.7949447632, 0.7452665567,
        2.2258181572, 2.1014947891, 0.2289323956, -0.1157840639, -0.1464797109, 0.3863401711, 0.4888869226, 0.0502146669,
        0.7005124092, 1.2570784092, 0.6992998719, -6.5931768417, -14.8023414612, -7.4382948875, 5.5951495171, 0.4484455884,
        2.0367965698, -1.1247079372, -7.0492892265, -3.8787379265, 0.0304654408, 0.0624158047, 0.0400607586, 0.1448224634,
        0.2136651278, 0.1590167135, 0.0721163154, 0.1461696625, 0.0946434662, -1.1864678860, -3.0661249161, -1.6368681192,
        1.5295021534, 4.5542206764, 1.7019960880, -0.2796676457, -0.2093597800, -0.2602273524, -0.2710778415, -0.3365305066,
        -0.0312085953, -0.5167400837, -0.4019058347, 0.0290723946, -0.2542978525, -0.1438900530, 0.0134596359, 0.3665693104,
        1.3276624680, 0.4149624407, -1.1810317039, -3.0663459301, -0.8170422316, 0.9487479329, 2.3035473824, 0.9317716956,
        -0.1847542673, -1.0142755508, -1.3786513805, 0.5614247322, 3.8874094486, 3.8182253838, 1.0214662552, 5.4381051064,
        3.9859228134, -0.3904739916, -0.5632860661, -0.3376510441, 0.6725929976, 0.7337741256, 0.6353772879, -0.2976898849,
        -0.4056207836, -0.2948172688, -0.0034738055, -0.0157561935, -0.0212857146, -0.0724404827, -0.1071883067, -0.0675053075,
        -0.0364567935, -0.0367472135, -0.0199003424, -0.4608793855, -0.8230880499, -0.5347669125, -0.1750448495, -0.4176203609,
        -0.5698667765, -0.4648094475, -0.8358977437, -0.4030291140, 0.0248022601, 0.1361833066, 0.1090244055, 0.0918171033,
        0.3473742604, 0.2623705566, 0.0667893216, 0.1967525184, 0.1866056621, -0.2856539488, 0.4234326184, -0.3463534713,
        -0.5045413375, 0.5502167940, -0.6726151109, -0.2820058465, 0.3348701894, -0.4464467168, 0.3769824207, 0.6302425265,
        0.4364956021, 0.5934873223, 1.1531540155, 0.7110478878, 0.4248351753, 0.8275085092, 0.5219039321, 3.4905033112,
        2.6109075546, 1.4504767656, 2.2928614616, -1.1480156183, -1.7543359995, 4.5534834862, 3.2026255131, 0.8104782104,
    };

static float para_convdw3x3s2_2_bias[32] = {
    2.3201549053, 2.5659790039, 3.1527652740, 2.9566750526, -0.3168471456, 2.8271951675, 1.7222673893, 1.8037531376,
    2.9161789417, 0.2372598648, 1.3113939762, -0.3730021119, -0.2584741116, 2.0554976463, -3.0870389938, -5.9335594177,
    0.3342095017, 4.6425681114, -0.1921320558, -1.0231689215, 1.8717696667, -0.6752293110, 2.6954948902, 0.3906645775,
    6.1983523369, 2.4625165462, 3.1707711220, 2.3795347214, -0.6648712158, 2.6979477406, 3.7027344704, 2.4542934895,
};

static float para_conv1x1s1_dd_2_weight[512] = {
    -0.0921835080, 0.3461993933, -0.1038982347, 0.0503928438, 0.1481746882, -0.0650971383, 0.1649251431, -0.2132791430,
        0.3664472699, -0.3066566288, 0.8203202486, 0.3182264268, -0.0447969250, 0.0436359048, -0.0379852578, 0.0084310705,
        0.9001110196, -0.1165929958, 0.1093452126, 0.2655228078, -0.1319984645, -0.0126873702, 0.1415745318, 0.1223364845,
        -0.3550904989, 0.0543053783, -0.2951864302, -0.5257093906, 0.1086359695, 0.1187115312, 0.1217973083, 0.0990331098,
        -0.0841673836, 0.1104605794, 0.8940849900, -0.8360375762, -0.1205191836, 1.1683151722, 0.2228681892, 0.5174431205,
        -0.2627914548, -0.4069966376, 0.4029478431, -0.3308306038, -0.5591240525, -0.2749721706, -0.0576323085, 0.1298689544,
        0.1305765510, -0.0586401820, 0.1393491477, -0.2984798551, 0.2404104024, -0.0533175990, -0.3676993251, 0.5431250334,
        0.3516241312, 0.5335465670, 0.1576483250, -0.3869364262, 0.2687933743, -0.2017361224, -0.4347661436, -0.2542599142,
        0.5600938797, -0.3031608164, -0.0744125471, 0.0717285201, -0.0909269974, -0.2956472039, 0.2139187753, 0.4231026769,
        0.2449697852, -0.1919877976, 0.0590036586, -0.0218632556, -0.8398514390, -0.1884633154, -0.3041475713, 0.1729024053,
        0.1053784862, -0.5038495660, -0.0835573897, -0.5677296519, -0.2238830477, 0.0195672605, -0.2984791100, -0.2192156911,
        -0.0462562330, -0.6347466707, -0.4364894629, -0.6184136868, 0.2136546820, 0.5285150409, -0.1438891590, 0.0382597037,
        0.1499244869, 0.1555077285, 0.2475399822, 0.0432822332, 0.1298894435, -0.3607158661, 0.4259472191, -0.0698813647,
        -0.3326483071, -0.4547761083, 0.0158415828, -0.0611718521, -0.1343437135, -0.1621203721, 0.5980582833, 0.7410848737,
        -0.6828996539, -0.3884370029, -0.2279775441, 0.2246973813, 0.3463223577, 0.0583927557, 0.2426058650, -0.8381178975,
        -0.2878092825, 0.5308313966, 0.2486207783, -0.1129671037, -0.2715649009, 0.5107266903, -0.2023303211, -0.0228407383,
        -0.4126236439, 0.1295739412, -0.4053708017, 0.0555286705, -0.5609790087, -0.8777228594, 0.2022014260, -0.2249601781,
        -0.0746064335, -0.2170678824, -0.2128617615, -0.2711233199, -0.5314890742, 0.1774142385, -0.4984743595, 0.0796429887,
        0.0445854366, 0.4097765088, -0.1524837762, 0.2418198287, 0.0155486595, -0.4505842626, 0.0586245842, -0.1020230651,
        0.0864802375, 0.4642874002, -0.4423221350, -0.2517093718, -0.1670500785, -0.5169931650, 0.0059698247, -0.2181341350,
        0.1568683088, 0.6139104366, 0.2104263306, 0.2599867880, 0.0288029239, -0.0171581637, -0.0246977117, 0.0026609206,
        0.5210713744, 0.0458990410, -0.3033526242, 0.3812412918, -0.2335245311, 0.1009302437, -0.0117617920, -0.5381273627,
        -0.4061834812, 0.1896538585, 0.1676590294, 0.0364531763, -0.0860099345, -0.0675514340, 0.0122564202, -0.1998767406,
        -0.3285753429, 0.0151813012, -0.2619804144, -0.0708843842, 0.0242810231, 0.1384847313, -0.8912754059, -0.1603338718,
        -0.2920980155, 0.0437067561, -0.2832380533, 0.4834667146, 0.2443676442, -0.5603373051, -0.5052871704, -0.2407741547,
        -0.2357114553, 0.1958833933, 0.0139460228, -0.0869631246, -0.2702832520, -0.1697250009, 0.0786769167, 0.3753904998,
        0.1556273550, -0.2188110054, -0.9055185914, 0.3037586808, -0.1906118691, 0.3018155992, 0.3641595542, 0.7409718037,
        -0.2371763140, 0.1533750445, 0.6275719404, -0.2452934533, -0.1446001679, 0.9421055913, -0.3053727746, -0.0564321093,
        -0.0852347836, 0.2739793956, 0.0847392455, -0.2937740982, 0.0230126232, -0.4246682227, 0.3939365745, 0.7670549154,
        -0.1127406955, 0.3610540330, -0.1876595169, -0.5409509540, -0.0760995299, -0.2368618548, 0.0394774303, -0.1763066947,
        0.0435872972, -0.1759576052, -0.3039156199, 0.1367888600, -0.5255844593, 0.0386274531, 0.0235248879, 0.0957422778,
        -0.1777552962, -0.1488117874, -0.0629468262, 0.2610255182, 0.1134210974, -0.0685788989, -0.4706505537, 0.5705347657,
        0.1128402725, 0.3353126645, 0.1769885272, 0.3299251795, 0.0010003229, 0.2460093349, 0.1355806887, 0.1146908998,
        0.0525371432, 0.6068707108, -0.1379354745, 0.1256086826, -0.3934575915, -0.2180340886, -0.1349003613, 0.6864222288,
        0.6218970418, 0.6276674271, 0.5021227598, -0.2425422370, -0.1437332034, -0.0242782570, -0.1906791776, -0.0620832369,
        0.1952062696, 0.1328587979, -0.3746081591, 0.2526382804, 0.4664550126, 0.4309502244, -0.2922608852, 0.2215251774,
        0.8350130320, -0.4622534811, -0.0216330756, 0.0550901853, -0.0454817861, 0.3800563812, -0.1155451015, -0.6538745761,
        0.0481280312, 0.2099425793, -0.1322421879, -0.3319860697, 0.3121028543, -0.3074733317, 0.0728414431, -0.5833108425,
        0.0197589584, -0.0150423422, 0.0604693592, 0.3989191949, 0.0060822777, 0.2400705069, -0.0178027321, -0.1435725540,
        0.1206734851, 0.5219458342, -0.6019145250, -0.6336959004, -0.5217717290, 0.4471328259, 0.1605766565, 0.2370993495,
        -0.6352215409, -0.4254450202, 0.2509481311, 0.1318180710, 0.1069693491, -0.1464235187, -0.1110127270, 0.2551398575,
        0.2852056623, -0.0149903009, 0.0202161185, 0.1283215433, -0.0465140902, -0.3255465627, 0.2605394721, -0.3111150563,
        -0.1317968220, 0.2468307167, -0.2721764743, 0.1336400509, -0.4932569563, -0.2034777105, -0.3289318085, -0.5629749298,
        0.2502652109, 0.2643399835, 0.4584326446, -0.1030154452, 0.4593266547, 0.7280521393, 0.5078825355, 0.0061857710,
        0.0154441353, -0.0906488001, -0.1114288419, -0.0473453999, -0.1115011200, -0.0291972645, -0.1585880965, 0.0703279004,
        -0.5407875180, -0.1705297232, -0.1601575166, 0.3930530846, -0.3374713659, 0.0045942320, 0.0460940227, -0.2092145830,
        0.3624030948, -0.1827543676, 0.1424945891, 0.3566423059, -0.4074029028, 0.1060164794, 0.2427105606, 0.3225390911,
        0.2713635266, 0.3750811815, -0.5802550912, 0.3236911297, 0.8641785979, -0.1639983654, 0.1912495047, 0.0608484708,
        0.3597398996, -0.1529794335, 0.3005598783, -0.0729799867, -0.0230641030, -0.4203895926, -0.6604948640, 0.3100239336,
        0.5198147297, -0.5359786749, 0.2151086628, -0.4412982464, 0.5589654446, 0.0170033500, -0.2993890047, 0.3940637708,
        0.1283449531, -0.0284595825, 0.2891334295, 0.1827256680, -0.2586912513, -0.0078032906, -0.9387741685, 0.0953119174,
        0.0898637623, -0.1251611710, -0.1391547769, 0.1035542339, 0.4305717945, -0.4287270904, 0.0095029762, -0.0192101281,
        0.0269367751, -0.4226169586, 0.1452803165, -0.1050572917, -0.0301622618, -0.0872149095, 0.1825233698, -0.0497312434,
        -0.3886514604, 0.4082262814, 0.2961665094, -0.0990940407, 0.2188032866, -0.0619233213, -0.0281136408, -0.0605723709,
        0.2898438573, -0.3192260265, 0.0431896672, 0.2667439580, -0.4416563511, -0.0643069595, -0.4913005829, 0.0341003947,
        -0.1288407147, -0.0763141215, -1.1319619417, 0.4627245963, -0.2480417341, 0.1977971196, 0.0272010285, -0.4147689939,
        -0.2614009082, -0.0396759808, -0.1811417192, -0.1619008332, -0.4075189233, -0.6092062593, -0.2970887423, 0.1761754304,
        1.0532490015, 0.4772201777, 0.5028525591, 0.0737421662, -0.1279685944, -0.1178577468, -0.4285838008, -0.1592215598,
        -0.5114597082, -0.3359220028, 0.3296369314, 0.2083490342, 0.5658574104, -0.3621058762, 0.0456899852, 0.1783903539,
        0.1701535434, 0.2985607684, 0.2087347806, 0.5784391761, -0.4232998192, 0.4420747161, 0.2355263233, 0.1339776963,
        -0.0353310779, -0.1723180711, -0.9397968650, 0.0955573991, -0.2297330052, 0.5773898363, 0.1181703135, 0.2681380510,
        0.1543202102, 0.3603427708, 0.3228395879, -0.0780698583, 0.1646056920, 0.4998696148, -0.1098495945, 0.0875438750,
        -0.1798512042, -0.4410260022, -0.1068951339, 0.3369702101, -0.5012229085, -0.0631222129, -0.1571963429, -0.2842232585,
        -0.4723393917, 0.5036978722, 0.4351305366, -0.3328147233, 0.4940776825, -0.1068705991, -0.0182849802, -0.1044117361,
    };

static float para_conv1x1s1_dd_2_bias[16] = {
    -1.0915549994, -0.3557139933, 6.3584804535, -1.2394069433, 6.3894977570, 3.0127224922, -2.0751781464, 1.0721195936,
        -10.0202856064, 1.4468607903, -0.4101456702, 1.9062902927, 3.3439862728, 5.3346543312, -4.9647212029, -1.1569745541,
    };

static float para_conv1x1s1_di_3_weight[1024] = {
    0.0122094089, -0.0699500665, -0.0206096359, -0.0456437431, -0.0221194681, 0.0557024106, 0.0419488735, -0.0020526049,
    -0.0247798581, 0.0310057439, 0.0820537582, -0.0535740405, 0.1786920577, -0.1311299801, -0.0092829913, 0.0354146883,
    0.0403435640, -0.0136593059, -0.0057742572, -0.0510117263, -0.0405356474, -0.0786587298, 0.0053604566, 0.0004369785,
    -0.0227456596, 0.0645250008, 0.0024523076, 0.0060289493, -0.0850332752, 0.0102744494, -0.0105018727, 0.0232620183,
    0.0033291010, 0.0007420627, -0.0056326096, -0.0250181984, -0.0133986929, -0.0087279845, 0.0231367480, 0.0014724520,
    -0.0008176058, -0.0036425418, -0.0136881499, 0.0043827691, 0.0137331076, -0.0044868393, 0.0055087330, -0.0034912382,
    0.0404803604, 0.1108062267, 0.0779230446, -0.0579313152, 0.0149031784, 0.0663889647, -0.0333183371, 0.0206911378,
    -0.0527607985, 0.0442593992, 0.0190861784, -0.0559460670, 0.0445420891, 0.0289941076, 0.0651639625, 0.0167719368,
    0.2628148496, -0.2657266557, 0.1028127894, -0.6320868731, -0.1848305911, -0.1688784808, 0.4818965197, 0.1145180017,
    0.0561233275, -0.3859755099, -0.3046005070, 0.0144604016, 0.2864837348, -0.0604395606, 0.2010813802, -0.3217447400,
    -0.0057093916, 0.0114828069, -0.0009444172, -0.0261453390, -0.0098379161, -0.0011374023, -0.0236665662, 0.0068319850,
    0.0306948237, 0.0226739254, 0.0026223173, -0.0207289197, 0.0069964249, -0.0087762456, 0.0050595691, 0.0070185941,
    -0.1159539819, 0.0210043136, 0.2717264593, 0.0333489142, -0.0766151696, -0.4212883711, 0.0340665244, -0.0367259905,
    -0.2820234895, 0.2883543670, -0.0329163037, 0.0222049989, -0.0986207873, 0.1689005792, -0.2885884345, 0.2035553455,
    0.0294859018, -0.0928183496, -0.1184009016, -0.1386768818, -0.0805900693, 0.0671430975, -0.1357262582, -0.1103941575,
    -0.1149418801, -0.1898794770, -0.1755089164, 0.0551840849, 0.1052706465, -0.1189729869, -0.3704423308, 0.4641818106,
    0.0243886393, -0.0269500501, -0.0455654897, 0.0593152568, -0.0309502035, 0.0128535097, -0.0239821542, -0.0133549962,
    0.0091344202, -0.0712111443, -0.0476603396, 0.1430221498, -0.0669859424, -0.0334277824, 0.0122703239, -0.0894926935,
    -0.0522315018, -0.0102117062, -0.0192817729, 0.2318147421, -0.3573786914, -0.0773555189, 0.2432245314, 0.0376476608,
    0.1248954460, 0.4300566912, 0.2489971370, 0.0099923359, 0.0046786126, -0.0847360566, -0.1227412894, -0.2746082842,
    -0.0230908114, 0.0135800121, -0.0076126782, -0.0576836318, -0.0407530405, -0.0405849628, -0.0148457754, 0.0416652560,
    0.1030582115, -0.1014075875, 0.0416833237, -0.0019564431, -0.0904586986, -0.0568099767, -0.0447646864, 0.0509314165,
    0.0496717989, 0.0774088651, 0.0873227417, 0.0248682015, -0.1369665116, -0.1320747137, -0.1809794903, -0.0443027094,
    -0.1900984049, 0.3807199299, -0.1519457698, 0.1256185919, 0.1342046112, 0.1560894847, 0.0230922736, -0.0566565096,
    0.0802108124, -0.0667376220, -0.0738937035, -0.1389006525, 0.0190549660, 0.0835698768, -0.0734929740, -0.0292310044,
    -0.1763536930, 0.0843192488, 0.1557244956, 0.0254931897, 0.0643659607, 0.0822374523, 0.0879862159, -0.1443999559,
    0.0087821623, 0.0517074876, 0.0674516261, 0.0463861749, 0.0399626717, -0.0212899223, 0.0407443158, -0.0178134535,
    -0.0442962907, -0.0547903478, 0.0169895831, 0.0199035183, 0.0003155948, -0.0712465569, -0.0481853858, -0.0012651281,
    0.1948900074, -0.1159306839, -0.0145439850, 0.0113405958, 0.0014040708, -0.1220724955, -0.1071451902, -0.1905915886,
    0.0353968590, 0.0502184518, -0.1069972143, 0.0811331421, -0.0476299487, 0.0878442451, 0.1827854812, -0.1462673694,
    0.0386084393, 0.0071382672, 0.0361992531, 0.0226811972, 0.0168402195, 0.0079893377, 0.0277260263, 0.0078908931,
    -0.0733259246, 0.0009695084, 0.0060022068, 0.0431228876, -0.0023891847, -0.0346692093, -0.0259360168, -0.0136135491,
    -0.0167930629, -0.0129212644, -0.0743052363, 0.0470619127, -0.0319109969, 0.0796280280, 0.0030134034, -0.1062669456,
    -0.0738054961, -0.0433586165, -0.0015480390, -0.0031460747, 0.0043624667, 0.0081545226, 0.0193375219, -0.1121201143,
    -0.0640652925, 0.2045627087, 0.0944402665, -0.1313897222, 0.0842309818, 0.0176253114, -0.3454527855, -0.0195243601,
    0.1423554420, 0.0771601349, -0.0536877774, 0.1479229480, 0.0548717752, 0.1280410886, 0.1237472296, -0.1613479555,
    0.0084287506, 0.1457116753, -0.0948699415, -0.0862449184, 0.1286721528, -0.0293088835, -0.3300296366, -0.0646108612,
    -0.1028987989, -0.0634084046, -0.1364651471, 0.0167526677, 0.1397003084, 0.0329516567, -0.1947004050, 0.0390120260,
    0.0137458732, -0.0179219302, 0.0006014781, -0.0087267524, 0.0072144209, 0.0121333953, 0.0006754468, -0.0036196569,
    0.0071906187, -0.0072339484, 0.0074684159, -0.0043219128, 0.0065258332, -0.0060841143, 0.0225463435, 0.0061582769,
    0.0245382022, 0.0120382728, 0.0069340840, -0.0304976404, -0.0038081615, -0.0009248960, 0.0121573536, 0.0223857481,
    -0.0033065295, 0.0045367181, -0.0014062962, 0.0255180914, 0.0090175057, 0.0238779727, -0.0164783653, 0.0030220845,
    -0.2971119285, 0.1760107279, -0.2553041279, 0.0365376845, -0.3769804835, 0.0395585708, -0.0337628983, -0.1390694380,
    -0.0214122366, 0.0388739333, -0.0869551748, -0.0535701402, -0.1396150142, -0.1256736070, -0.2423593849, -0.1241388470,
    -0.2261779308, 0.3234777749, 0.4640593231, -0.2427804619, -0.2217587531, 0.3754906058, -0.2506893873, -0.4068871737,
    0.4613487124, -0.1301370114, 0.0080766305, -0.1971738338, 0.2033141702, -0.2230934352, 0.5257029533, 0.0981330946,
    0.0947767273, -0.0519778542, 0.0428287759, -0.0095822541, 0.0159596559, 0.0294647664, 0.0130086131, 0.0035762319,
    -0.0022658715, 0.0000057802, 0.0406724028, 0.1414064616, -0.0111239236, 0.0264407359, 0.0032228890, 0.0248328224,
    -0.0188101958, 0.0635489076, 0.0353884324, -0.0017241939, 0.0112297479, 0.0692278966, 0.0046300804, 0.0594840944,
    0.0034173077, -0.0299771335, -0.0149158062, -0.0324857160, 0.0107977800, -0.0116392719, 0.0343258977, 0.0368419215,
    -0.1655285507, -0.0267095547, -0.0456304215, -0.0453608073, -0.0776809156, 0.0503293388, 0.0361926295, -0.1105072051,
    -0.0035390984, 0.0503555313, -0.0167532507, 0.0425156988, -0.0917161405, 0.0536081269, -0.1275359094, 0.0514397286,
    0.1481354833, -0.0964926034, -0.1519277990, -0.0649034902, -0.0043888213, 0.1502613425, -0.0293054711, 0.1282725334,
    -0.1182967648, 0.2331436574, -0.0798308775, -0.0503678024, -0.0400741696, 0.0766902044, -0.0059172553, -0.0637244284,
    -0.0740542784, 0.0478963368, 0.0052740285, -0.0817529634, 0.0813177526, -0.2396983504, -0.1015408710, -0.1883614659,
    -0.2059692889, 0.0156506412, 0.3403891027, -0.0691822395, 0.1846098006, -0.0646954253, 0.0090282997, -0.1272538602,
    -0.0216804817, -0.0096649705, 0.0027526573, -0.0556162819, -0.0404436477, 0.0763087049, -0.0542774834, 0.0283252057,
    -0.0775731578, 0.0973966047, -0.0004167765, 0.0201290566, -0.0199528299, 0.0322811343, 0.0467336550, 0.0346776694,
    -0.0007122917, -0.0077078044, -0.0002924663, 0.0197199136, 0.0062626316, 0.0081190215, -0.0197251197, 0.0008110547,
    0.0002194389, 0.0017985496, 0.0136233419, -0.0071166102, -0.0032773754, -0.0022559629, -0.0030365463, 0.0066771707,
    0.0279261433, -0.5003405809, -0.3255311251, 0.3381637931, 0.5643268824, -0.0677491203, 0.5157744884, 0.9891489148,
    -0.9221282601, 0.0314956643, -0.2046007663, -0.1981371492, -0.1546493173, 0.6882734299, -0.0580211170, -0.1783182472,
    0.6505398154, -0.0342850275, -0.1940151751, 0.1207059026, -0.3764619529, -0.3655907512, -0.0481117293, 0.1450562328,
    0.0791509226, -0.0304537974, -0.1349352002, -0.0592858791, -0.0520628504, -0.2325426787, -0.0576258525, 0.1827783585,
    0.0101477727, -0.0502693020, 0.1370104551, -0.1023277417, -0.1046009362, 0.0184842516, 0.0229329485, 0.0501339100,
    -0.0011940075, -0.1037567928, -0.0751499832, -0.0629941076, 0.0207709316, 0.0229829308, -0.0481800064, -0.1357298642,
    -0.0753007829, 0.1053101271, 0.0170190334, 0.0594233461, 0.0159827136, -0.1181978509, 0.0207800213, 0.0087203635,
    0.2223452628, -0.0905722305, 0.0048250137, -0.0313269831, 0.1387118697, -0.1543001384, -0.0431108736, 0.0143028740,
    -0.1173670217, -0.0015507647, 0.0375235043, -0.1355374157, 0.0984201208, -0.0753926933, -0.0151972855, 0.2495997250,
    -0.0855156109, 0.0185487475, -0.1262355745, 0.0728193820, -0.2864322066, 0.0436955243, 0.1083234027, 0.1567803472,
    0.6852672100, 0.4897866249, 0.3801726103, -0.2254412174, 0.0796150193, 0.5456074476, -0.3784271777, -0.0564894862,
    -0.0941356868, -0.0783234760, -0.2400370985, 0.0841771811, 0.0302321203, -0.2612230182, -0.2211467773, 0.0853201225,
    -0.0092752017, -0.0228601526, -0.0191528499, 0.0154353222, -0.0182678625, -0.0418263376, 0.0022561261, 0.0072726747,
    0.0118175345, -0.0032841195, -0.0204086956, 0.0176002663, 0.0087812245, 0.0510019101, 0.0105935745, -0.0017073707,
    -0.0349584483, 0.2101719677, -0.1183822528, 0.1670458615, -0.0724068657, -0.1849350184, 0.1320849508, 0.0508736521,
    -0.0228958745, -0.0543713868, -0.1648505628, 0.2007936537, -0.2431754023, -0.2294109315, -0.4578503668, -0.1556206048,
    0.0615804940, -0.0023746667, -0.0401409306, 0.0123396954, 0.0266410019, -0.0063484758, -0.0085993148, -0.1234212145,
    0.0341571867, 0.0475004874, -0.0531549416, -0.0798020363, -0.0445326939, -0.0783030540, 0.0166245922, -0.0801776499,
    -0.0382367633, -0.0291073769, -0.0620853752, 0.0254794359, -0.0444156863, -0.0023140647, -0.0350892842, -0.0209342483,
    0.0589166023, -0.0523223020, -0.0028013848, 0.0191242658, -0.0174295735, 0.0081777470, 0.0120351585, -0.0245355945,
    0.0894624144, 0.1483824402, 0.0290587805, -0.0629058033, -0.1084894091, 0.1452055722, -0.0634096116, 0.3911210001,
    0.3092622757, -0.0718223080, -0.1974308342, 0.0140343113, -0.3869657815, -0.0991551280, -0.1022721902, 0.0950583741,
    0.1528354287, 0.0722562000, -0.0446735173, 0.1191898957, 0.1460352242, 0.1028423086, 0.0696975738, 0.0163232479,
    -0.0601316951, -0.0438572653, -0.2024805099, 0.0688732639, -0.0779128149, -0.0248119198, -0.1357823163, -0.1629829854,
    0.0834748968, 0.0690595582, 0.0119620860, 0.0923230425, -0.1448105127, -0.0775067061, 0.0028301340, 0.1271010488,
    -0.1558803916, -0.0998562351, -0.0191390105, -0.0653644875, 0.0414316133, 0.0590371825, 0.0770089328, 0.1123450026,
    0.1798036844, -0.2941379845, 0.3687590957, -0.0827184767, 0.4877935052, -0.0219345279, 0.0756712183, -0.0081073102,
    -0.0083152996, -0.0180929676, 0.0050890669, 0.0866411552, 0.3104398549, 0.1082570404, 0.4507964253, 0.1450389624,
    -0.0080309846, -0.0290896967, -0.0066378489, 0.0068290010, 0.0221277252, -0.0325946771, 0.0208722316, 0.0130426511,
    0.0165951457, 0.0091381548, -0.0298620798, -0.0011662240, -0.0088609718, 0.0206725094, -0.0111525655, 0.0032253084,
    0.0013647056, -0.2156822085, 0.0434476137, -0.0328790881, 0.1815881878, -0.0456027985, 0.0864014253, 0.0627674907,
    -0.0158026256, -0.0422151610, 0.0272452552, 0.0056209466, 0.0345576257, 0.0074450127, 0.1785967350, 0.0590785183,
    0.1336501688, -0.2199455798, -0.0392571054, 0.0343126580, -0.2216821313, -0.0827206671, 0.0377234928, -0.1866017878,
    -0.0446787141, 0.0854562744, 0.0070708045, 0.1113646254, -0.1394150853, -0.0679523721, -0.1273870319, 0.2883482873,
    -0.4281643927, -0.4788900018, 0.3142983019, -0.2392651588, 0.4066420496, -0.3725935817, 0.0988133252, 0.7112754583,
    -0.0581482425, 0.4448055327, -0.1238875464, 0.2339193225, -0.1022842079, -0.0078365691, 0.3221985996, 0.6876356006,
    -0.1103717685, 0.0903157592, -0.1820030063, 0.0735475048, -0.0655871481, -0.0450239666, 0.0739066601, -0.2302894294,
    -0.2306035012, 0.2179428935, -0.2887454331, -0.7223558426, -0.0987037346, -0.4206613004, 0.2136475593, -0.2241762429,
    0.0078441529, 0.0406946652, 0.0492812321, 0.0030721077, -0.0311967861, 0.0046904790, 0.0391998589, -0.0529702716,
    -0.0169044621, 0.0091393311, 0.0331882797, -0.0513351746, -0.0146434158, 0.0673507378, 0.0075181634, 0.0423104316,
    -0.1282392740, 0.0124669680, 0.1355320513, 0.2397072315, -0.0565154925, -0.0715261847, 0.0379709341, 0.0427068472,
    0.0835380852, 0.1755809039, -0.1688717306, 0.0692846403, 0.0546865426, 0.0258214492, -0.1885846406, -0.1307057738,
    0.0480969809, -0.0088022118, 0.0133378105, -0.3102397025, 0.1878644824, 0.0278617889, 0.0324170478, 0.2892720699,
    -0.0071998206, 0.0319635421, 0.1976705641, -0.1719212979, -0.3149550259, 0.1374141872, 0.3348934948, -0.0321622156,
    -0.0558304414, -0.1162700877, 0.1406066567, 0.0671801120, -0.0125366813, 0.0712463558, -0.1759102494, 0.0439430363,
    -0.0074064438, -0.0114658866, 0.0050154990, -0.1081975549, -0.0379517004, 0.0060868827, -0.0425930135, -0.0280371327,
    -0.0648237914, 0.1443514526, 0.1632907391, -0.1252508461, 0.1283595711, 0.0342094600, -0.0849121138, 0.0873683393,
    -0.0416298397, 0.0975593105, 0.1310302466, -0.2363063395, 0.0815282464, -0.0178863499, 0.1811772436, -0.0825214908,
    -0.0601092987, 0.0138296029, -0.1555690169, -0.1504710019, -0.0679115728, 0.0080459788, -0.0273431968, 0.1104462370,
    -0.0949465409, -0.0446251035, 0.2760919631, 0.0076215016, -0.0323232114, -0.0418120511, -0.0308509748, 0.0043886146,
    -0.0413530841, 0.0065272008, 0.0298531130, -0.0764081776, 0.0034481972, -0.1193892285, 0.0106073739, 0.0726640746,
    0.0338878371, -0.0101720942, 0.0332444683, -0.0597458780, -0.1170430258, -0.1437565833, 0.0110549405, 0.1260004789,
    0.5537956357, 0.3338856101, -0.1880051941, 0.0308641791, -0.3847141564, -0.1170171574, -0.2738997936, -0.0040336857,
    0.2569327354, -0.0442277640, -0.0071105789, -0.0120054753, -0.1919735819, -0.3369435370, -0.2742185593, 0.0022833077,
    -0.0268625896, -0.0542001314, 0.0184503142, 0.0787160322, -0.0159171820, -0.1562561244, -0.1302790940, -0.0522354022,
    -0.1607070565, -0.0181645229, 0.1456625462, 0.0505542383, 0.2142229974, -0.0297396053, 0.0455705635, -0.1133048534,
    0.0395190567, 0.0034687021, 0.0416512415, 0.0603973269, -0.0157209896, -0.0528916232, -0.0887584314, -0.0244260207,
    -0.0093051493, 0.0144503294, -0.0001559441, 0.0319506302, 0.1458438635, 0.0144199161, -0.0148825534, -0.0558845438,
    -0.1190172210, 0.0899549499, -0.0804377571, -0.0725479051, -0.0059847217, 0.0426688232, 0.0285784733, 0.2739050388,
    0.0476697870, -0.0226229988, 0.2356668413, 0.3894756436, 0.4264400303, 0.4070046246, -0.3555563390, 0.0953216553,
    0.0740994364, 0.0233594850, -0.2369558066, -0.1760834455, 0.0414924026, -0.0437279381, 0.0745958611, 0.0592212304,
    -0.3635329008, -0.2610148191, 0.4044475257, -0.1023393422, 0.0383406058, 0.2546304464, 0.1030964479, -0.2148978561,
    -0.4355211258, 0.0527807921, -0.0429498553, 0.0688459650, -0.2767131031, 0.0221729446, -0.0076121017, -0.1906794310,
    -0.2889211774, 0.1962627023, 0.2036887556, -0.2405587435, 0.4099436402, -0.4250087738, 0.4355220795, -0.1670049131,
    0.0073624481, 0.0593981296, 0.1528951377, 0.1705178618, -0.1514816731, 0.0390739590, 0.2493540198, 0.1097792014,
    0.1072377264, 0.1789161563, 0.2238299251, 0.0110486196, -0.0081260372, 0.0537589267, 0.0212123543, -0.1627928317,
    -0.0296463594, -0.0551746637, -0.0404137410, 0.0193087291, -0.0231359508, -0.0518616363, 0.0038015060, 0.0236446392,
    0.0218814742, -0.0224624593, -0.0186964329, 0.0377758332, -0.0207574088, 0.0785646662, 0.0345866941, 0.0114342049,
};

static float para_conv1x1s1_di_3_bias[64] = {
    0.3546861708, 0.5183594227, 0.0557681099, -0.0035472438, 1.7216764688, 0.0358336009, 1.1608135700, 1.0937708616,
    1.2029216290, 1.2369638681, 0.9044530392, 0.0623912998, -1.5830093622, -0.0635833144, -0.6995812058, 0.5514467955,
    0.2195780873, -0.2929507494, -0.1165309921, -0.0683469251, -0.1188135073, 2.9997305870, -0.0196069777, -0.3425309956,
    -0.1011091694, 0.4083813429, 1.6706565619, -0.4162477255, -0.1309910268, -0.0019743266, 1.7970932722, 1.9560873508,
    -1.3629945517, 0.9552969933, 0.5979385376, -4.5375576019, 0.3768352568, 2.4535291195, -0.0475996882, 0.3352133036,
    0.6145099998, -0.0444795042, 0.0125062987, 1.1258201599, 0.1823490858, 2.1638293266, -0.2155326605, 0.5468159914,
    0.8082621098, 0.0088631622, 0.0517850742, -1.2815914154, -1.5265727043, 0.2314254791, 0.7739945650, 0.6221190691,
    -0.4552413523, -0.1254761666, -0.5728870630, 0.2047336847, 0.4836869240, 0.0965277851, 0.8953000903, 1.3149901628,
};

static float para_convdw3x3s1_3_weight[576] = {
    -0.0640634447, -2.9311068058, -0.8735892773, 0.6021155715, -1.6265218258, 0.0233981330, 1.9708068371, 1.8811916113,
        2.1102390289, -0.5883039236, -2.0750575066, -0.8216320872, -0.4016122818, -1.5400112867, -0.9504762292, -1.2563651800,
        -4.2732720375, -1.6083122492, 18.8073482513, -27.8076705933, 20.0525398254, 11.8578510284, -26.0296077728, 13.6776628494,
        -9.5772018433, 7.0518989563, -8.7830266953, 1.1595399380, 6.3886775970, 0.3621087968, -0.6654669046, -0.4941436648,
        -0.5608276725, 0.0993097648, -4.7183938026, 0.4628234804, 0.1785258353, 0.3228532076, 0.2088572979, 0.0538356490,
        0.3008579314, 0.0965547040, -0.2536506653, -0.7159254551, -0.3558837175, -8.5664825439, -4.2550754547, 11.8527927399,
        -11.7730674744, -1.4032094479, 15.0661115646, -9.1324167252, -2.5821154118, 8.9897251129, -0.1983138621, -0.5998250246,
        -0.2446619719, -0.2235515863, 0.5319226980, -0.1048146561, -0.0570064597, 1.1110897064, 0.0895673111, -0.1509169340,
        0.0824242532, -0.3162443340, 0.0039569302, 0.3762494624, -0.1662105918, 0.1194607243, 0.9684118032, 0.0460334159,
        1.3545548916, 2.5266759396, 0.8361507058, 0.0422324799, 0.3755270243, 0.1219461635, -1.8475303650, -1.8195738792,
        -0.9835345745, 0.1031022817, -0.3577332199, 0.2041909099, -0.2419049591, 0.4688551724, -0.5212897658, -0.2999694943,
        0.6488559842, -0.6098467112, 0.9423682094, 1.4927502871, 0.8347688317, 0.0718481913, -1.6772423983, -0.6425311565,
        -0.4081011415, -0.4564124048, -0.4169704020, 0.8569707274, -2.0001459122, 0.7613099813, -0.2666624784, 1.2703225613,
        -0.1749376059, -0.2949639261, 1.1168801785, -0.2445127815, 1.7054662704, 3.5527880192, 1.4758093357, 0.5042491555,
        -0.7442021966, 0.2132816017, -2.3567290306, -4.2701563835, -2.4102656841, -0.0314453281, 9.6084594727, 0.6998164058,
        1.0873357058, -3.0887522697, 1.5242036581, 2.0728302002, -13.2404003143, 1.1563464403, -0.4667418003, 0.2510798275,
        -0.1432970464, 0.4092344940, 1.8268954754, 0.1702111512, 0.2524695396, 1.1728062630, 0.0080796303, -2.1872735023,
        -8.8718175888, -3.3643133640, -0.0462591574, -2.8574509621, 0.5794847012, 3.7304766178, 6.9917750359, 4.1580085754,
        0.8059284091, -1.5455515385, 0.2744432986, -0.6467047930, -2.0326673985, -0.8631904125, -0.0754180029, -1.7807486057,
        -0.3116965890, -0.0071982406, 0.3703024685, 0.0404824354, 0.6474118233, 0.8400159478, 0.4110678434, 0.8381556273,
        -0.2840814590, 0.7082350850, 0.3101968169, 0.1754353344, -0.5318650603, -0.4224011004, -0.1153418720, 0.6814728379,
        -1.0553843975, -0.1327488869, 2.3884973526, -1.3652935028, 8.0633583069, -2.5179142952, 0.2192246616, 34.3733329773,
        1.3940241337, 1.5983859301, 32.2791252136, 3.3661601543, 3.6115119457, -1.6721841097, 3.9186782837, -12.2683925629,
        -1.3313317299, -10.5306739807, -4.8849358559, -4.9638967514, -4.2881798744, -0.0801806375, -0.0939354524, -0.0949061215,
        0.1431140006, 0.4938086867, 0.0366322696, 0.1252175868, 0.8200858235, 0.0370161235, 0.0694913343, 0.2640782297,
        0.0921806395, 0.2473173290, 0.8475955725, 0.2120340616, -0.1461848766, 0.0640914589, -0.1684202850, 1.7212096453,
        -0.5144460797, 0.9298018813, 0.0647983029, -5.1623153687, 0.0036568851, 0.7736948133, -4.7187643051, 0.3641355932,
        0.9144880772, -3.3180494308, 1.5975614786, -3.7197120190, 11.6540470123, -3.4870843887, -1.4217590094, 2.9252729416,
        -1.3997746706, -0.3197112381, -0.9308409095, 0.0028990433, 1.6136474609, -4.6308269501, 1.7773454189, 2.0630657673,
        -5.0151686668, 2.2498879433, -0.1294278353, -0.5692334175, -0.0649030581, -0.2169483751, -0.9641909003, -0.2507137656,
        0.1722279191, -0.4386579692, 0.1453776956, 0.0865326151, -0.7172387242, -0.3022324145, 0.8165487647, 0.7872816920,
        0.8391483426, 0.3706086874, 1.6603965759, 0.7582929730, -0.9959665537, -1.4283556938, -0.9877170324, 0.6120038033,
        0.2746701241, 0.9372664094, 2.2853419781, 6.3227267265, 1.6759912968, 5.7833838463, 10.3415689468, 5.9023633003,
        8.9678211212, 19.7208957672, 9.4450092316, 5.9054856300, 13.0542354584, 5.7935166359, 0.1176822707, -0.0666261092,
        0.1241860315, 0.1411569268, -0.2319740802, 0.1123300120, -0.0434435271, -0.3117780089, -0.0325711854, 0.0267206412,
        0.0593609065, 0.0330303758, 0.3355893493, -0.7696507573, 0.4826271832, 0.3327252865, -0.9326661825, 0.5616306663,
        -0.0638075545, -1.2621864080, 0.2296317965, -0.0210270099, -6.8411564827, -0.1923937500, -0.7350134254, -8.1880273819,
        -0.6574125290, -0.0383362286, -0.6850132346, -0.0126538249, -0.0331614763, -0.7653583884, -0.0256243851, -0.3979196846,
        2.0363712311, -0.1660302132, -0.0065855845, -0.1693232059, -0.0209011193, 0.2217232138, 0.3777894676, 0.2748458385,
        0.1881392002, 0.7067571282, 0.4658870697, 0.1246897206, 1.2437583208, 0.0744348243, 0.4423304796, 0.6607923508,
        0.3173009455, 0.3565462530, 0.4943754673, 0.8905810118, -1.4602262974, -8.2632246017, -3.3628880978, -0.3208394945,
        -7.8955621719, -1.2470105886, 3.4148499966, 10.8422107697, 4.5190243721, -0.2620107830, 0.0080455784, 0.2425690740,
        -0.4664006531, 0.0371879898, 0.5408557057, -0.3487315774, -0.1712919027, 0.4210520089, -1.3999733925, -0.1393094510,
        1.7908452749, 5.2051382065, -1.7202503681, -3.6852359772, 5.4257922173, 1.2469822168, -6.7141795158, -5.2199320793,
        -4.1272010803, -4.3680109978, -0.5646559000, 4.2363619804, -0.2064310461, 0.1106542647, 9.4931821823, 1.2264381647,
        -0.1058868542, -0.2710065544, -0.1006269082, -0.1048139259, -0.5946602225, -0.2398025990, -0.1139859855, -0.5076264739,
        -0.1436299831, 0.6408938169, -0.8682073951, -0.0022244523, 2.3542592525, -1.5621547699, 0.7679070830, 1.3148238659,
        -1.4744503498, 0.2412669063, 0.3484274447, 0.0121732308, 0.1198161319, 1.2334057093, 1.8748022318, -2.2969768047,
        0.7664767504, -0.1791137010, -1.5063261986, -0.1971890628, -0.2523086965, 0.0662268251, -0.3120497167, -0.7202914357,
        -0.0622398369, 0.2700650990, 0.7909292579, 0.4927324653, -2.4448473454, -3.3640589714, -2.8966236115, -7.1843805313,
        27.5279560089, -8.1051483154, 0.4790964127, -13.5979547501, 1.0005849600, -0.3361988664, 2.9344208241, 0.1306366920,
        0.0650251061, -0.5430275798, 0.0460760146, 0.4284422398, -2.4318180084, 0.0513833389, 1.0008286238, -1.9870671034,
        0.9675363302, -0.6583021283, 1.0429883003, -0.7003312707, -0.8644246459, 1.1555904150, -0.8221229911, -0.3149549961,
        -0.0739005283, -0.2608767748, -0.2721199691, -0.2532631159, -0.3276085854, -0.2819615901, 0.0130788591, -0.2700445056,
        0.5820061564, 0.0940754488, -0.7149436474, -0.5025774837, -0.2474308163, 0.7273166180, -0.5152549148, -0.0038257055,
        0.4876460135, -3.1991426945, 5.1655235291, -1.2148863077, 9.4714860916, -15.3506145477, 3.9588673115, 5.1739954948,
        -7.3084568977, 2.9151334763, 0.2256757617, -0.4397734404, 0.2954122424, 0.3008810878, -3.4044840336, 0.5122554898,
        0.4949422181, -2.1322622299, 0.5470101833, -0.5858687162, -0.3895729184, -0.5497013330, -0.2489915341, 0.3446945250,
        -0.2626079023, 0.4818512499, 0.8147013783, 0.5424225330, 0.2088401914, -0.8794270158, 0.2532488704, -1.9232687950,
        -7.6617932320, -2.5545125008, -0.5220161080, -3.6879217625, -0.4998660684, -0.5977685452, -0.3010361493, -0.4966257811,
        -0.5056647658, 1.1642886400, -0.2367276996, -0.3560025394, 2.2461390495, -0.1820122004, 0.2134986371, -0.7575210333,
        0.0721738636, -0.2759956419, 3.5314991474, -0.0555762276, -0.2640611827, -0.4029637873, -0.2698209584, -0.3729325831,
        -1.1580270529, -0.4810423553, -0.3919425905, -1.5617856979, -0.6119947433, -0.1772342622, -0.1649543643, -0.2118102610,
        0.1807450503, 0.0315724835, -0.0345916748, 0.1711075008, -0.5094321370, -0.2666118741, 0.1994102448, -0.7294600606,
        -0.2241179943, -0.1489498764, -0.6087571979, -0.1652955860, 1.0406023264, 1.9013344049, 1.0209949017, -0.6878669262,
        -1.0576984882, -0.7913274765, 1.4293949604, 0.9690366983, 1.6412867308, -1.3183866739, -5.0836343765, -0.9610439539,
        -2.7492928505, -5.9290256500, -2.3187520504, 0.0705211237, 0.2340099365, 0.1294098347, 0.1661379188, 0.1184963733,
        0.2009578347, 0.1158796623, 0.0622880124, 0.1061617881, 0.1728936881, 0.4861365557, 0.1761490107, -0.8134756088,
        -1.1716355085, -0.8166780472, 0.2487931401, 0.6532414556, 0.1815049350, -0.0846818164, -0.0668470562, -0.0644137785,
        -0.0775018483, -0.2421797365, -0.2980940938, -0.1077591330, -0.0342617482, -0.1216158494, 0.1393068582, -0.2473658472,
        -0.0783554167, -0.5578760505, 0.8771235943, 0.7371362448, -0.4342327118, 1.0906497240, 0.9677664638, 1.3043615818,
        2.8029358387, 2.6644642353, -0.6796947718, -1.3491692543, -1.6390864849, -1.7768032551, -1.3842389584, -2.5883986950,
    };

static float para_convdw3x3s1_3_bias[64] = {
    1.8223726749, 4.3633909225, -0.8141181469, 0.6131233573, -0.1881738007, -1.0705018044, 0.2842187285, -2.1301159859,
    2.1181533337, 0.4591391981, 1.2553788424, -0.5344564915, 0.4668086171, 2.1368076801, -0.1576252282, 3.6447210312,
    2.8130717278, 1.6949514151, -1.3772633076, 2.2088708878, -0.9915690422, -2.9814600945, -1.4151962996, 1.4551289082,
    0.6276807189, 0.4516318440, 6.0013113022, -0.9940263033, 1.4676352739, -1.8497133255, 2.6505861282, -0.4171402752,
    -3.6782772541, 1.5143157244, -0.5572672486, -1.2787747383, 2.7548868656, -0.7699990869, -1.1079536676, 2.2615103722,
    3.1443767548, -1.2156022787, 2.1639192104, -0.5547002554, -0.2068672180, -1.3129024506, -0.5206399560, 2.2138228416,
    -0.9259498715, -0.7830718160, 0.0133990645, 1.9877110720, -3.5259413719, -1.2406311035, -1.2493712902, 4.0811996460,
    1.5013121367, -0.8746263385, -0.8942509890, 0.7256067991, 0.1366225481, 1.5818669796, -3.1881406307, 3.0462701321,
};

static float para_conv1x1s1_dd_3_weight[1024] = {
    0.2784548104, 0.3220988810, 0.0917208344, 0.0005147352, -0.0943738371, 0.1411566734, -0.1926197559, -0.1355999261,
    -0.3789204657, 0.1810024530, -0.2235881537, 0.1914734393, -0.3274003565, 0.0445698164, -0.0631593466, 0.1082214266,
    0.1196101904, -0.1132728830, -0.2435563952, 0.1422106475, 0.1773328185, -0.0908670947, -0.1015187725, -0.2573865056,
    -0.2531506419, -0.3972299695, 0.0297137462, 0.1181299314, -0.0234593134, -0.5544319153, -0.3830754459, -0.3296658099,
    0.0343044475, 0.2126044482, 0.0697851703, 0.1677508503, 0.0301202331, 0.0675938800, -0.0316435695, 0.2029443085,
    -0.0246589854, -0.1873081923, -0.0853778645, 0.1480967402, 0.0756021440, 0.0650100112, -0.1762018651, -0.0168759953,
    -0.2156293839, 0.0141764330, 0.2577985823, 0.2710647881, 0.2408057153, -0.0231470093, 0.0837002173, 0.0279677790,
    0.0451462008, -0.0406134240, -0.1700719744, -0.0422529355, -0.1654855013, 0.1051823497, -0.0511934571, -0.3500932157,
    0.1727098227, -0.0488435812, -0.4707241356, -0.0340551883, 0.1949020624, 0.0369206592, 0.2351019531, 0.3405676782,
    0.0677152351, -0.1590999216, 0.3217357099, -0.0329474583, -0.0950238481, 0.0445181467, 0.3715310395, 0.1939134300,
    0.0651456118, 0.2360173464, 0.2530212998, 0.3815830946, -0.0137041546, 0.1039269269, 0.1367821544, -0.3114939630,
    -0.6257044077, 0.2922461033, -0.2161565870, 0.0655523911, -0.0458218306, 0.1270163804, -0.2998699844, 0.2902016938,
    0.1176400334, 0.1740082651, -0.2498160005, 0.2908429801, -0.2479124218, -0.2702941895, 0.5889217257, 0.0609129742,
    0.5370725989, -0.0110123893, -0.1376591772, -0.1388403922, 0.5833094120, -0.4028564394, -0.1569703817, -0.1142772734,
    0.4400402009, -0.3987346590, -0.3964707255, -0.0049592089, -0.1354070902, 0.3098565638, 0.2326620668, -0.0770977437,
    -0.3622291088, -0.2101892084, -0.1166879535, 0.0485711657, -0.1693987697, 0.2224090993, 0.2370626479, -0.1040039882,
    0.0365399383, 0.0752628818, -0.0123130521, -0.3007605374, 0.2579609156, -0.0323925093, -0.2398049980, 0.2570233047,
    0.0361856669, 0.3512078524, 0.0792568475, 0.0061365762, 0.0907945260, -0.1160923839, -0.1040313020, -0.1987420917,
    0.0241495464, 0.2120535523, 0.2978308201, 0.1352029443, -0.0713826567, -0.3916882873, 0.1545300931, -0.3187646866,
    0.1529152691, -0.0559531152, 0.3309627771, -0.0410724767, -0.3296366632, -0.1113748401, 0.3142609596, 0.0359980576,
    -0.2325198203, -0.2006539255, -0.2096726447, 0.5258987546, 0.0620412454, -0.0647919029, 0.3159089983, -0.2667246163,
    -0.0542171970, -0.1393494755, -0.0168062858, 0.0064464076, -0.3180259466, 0.0850089341, -0.1088535264, -0.4127306640,
    0.0078844372, 0.3585373759, 0.1090614647, -0.2183826268, 0.0533954911, -0.1619704813, -0.0608017705, 0.0100756511,
    0.4128780961, -0.0402810834, -0.0733426288, 0.5211637616, -0.0201820135, 0.1007857397, 0.5539425015, -0.1066543981,
    0.0025439381, -0.1458452493, 0.2059525996, -0.1614954472, -0.0947085992, -0.1422533691, -0.1489502043, 0.0011271627,
    0.5185890794, -0.1267097890, -0.1309187561, -0.0478946529, 0.0070229741, -0.0395430140, -0.0456953458, -0.1854324639,
    0.2451159954, 0.1729952991, -0.0230471790, 0.0413151607, -0.0055978866, -0.0285713654, -0.1641126722, -0.0051998934,
    -0.0141781978, -0.0633506477, 0.3933057487, 0.0456477180, -0.1631117612, 0.0099389413, -0.2881494462, -0.0958291218,
    -0.0834858567, 0.1661951989, -0.0020436947, -0.0994516909, -0.3793034256, -0.0169547237, -0.2852401733, -0.0734329149,
    0.3216010928, 0.0259893518, -0.2016837895, -0.2051344514, 0.0903398916, -0.1315962076, -0.0287218820, 0.2227370739,
    -0.5221087337, -0.2532531023, -0.0785499886, -0.0513785928, 0.2060054094, 0.0604429282, 0.0201847833, 0.0055105481,
    -0.3220248818, -0.4740239680, 0.0105733061, 0.0982776061, -0.4031352103, 0.2077514231, -0.1763104200, 0.2770871520,
    -0.2049649507, -0.3029621243, 0.1680400223, 0.0142522473, 0.2163497955, -0.3012815714, 0.0596267357, -0.1888241470,
    -0.1862436384, -0.1634609550, -0.0231991131, 0.3684642613, -0.2390807420, -0.1591050923, 0.2479066104, 0.1208032370,
    0.2206445038, -0.2597084045, -0.1172688231, -0.0157498252, 0.0751333609, -0.0129732825, -0.1276182383, 0.0416103899,
    0.0582074821, 0.2762095928, -0.0559217334, 0.1802592725, -0.0297617745, 0.2434712797, -0.2802436948, 0.3084094226,
    -0.2427285165, 0.0710748658, 0.2287683636, -0.1307466477, 0.2962415218, -0.0299716480, -0.2593206465, -0.0782948583,
    0.0861489847, 0.0555211082, 0.2497574091, 0.0918682516, -0.1032943577, 0.1697161943, 0.5330246091, -0.3028710783,
    -0.1627729982, -0.3453789055, -0.1641641557, 0.2890962064, 0.1644881666, -0.3624980450, -0.2250257730, -0.1143419221,
    -0.1141376868, -0.1177727357, -0.0884602517, 0.0844668746, -0.1389733106, 0.0201762430, -0.1779981703, 0.0583735369,
    0.1691403240, -0.3667191267, -0.0106818927, 0.4656784832, 0.2863057256, -0.0285766833, -0.1411556304, 0.0725229084,
    0.0981280729, -0.1736507714, 0.0575712249, 0.3541958630, -0.0731565058, 0.0423716344, 0.1768558770, 0.0514657870,
    0.0735320300, 0.2663352191, 0.0287093930, -0.2963271141, -0.5165397525, -0.1154882610, -0.0313166268, -0.4746658504,
    -0.1726466715, -0.0409460813, 0.0393836983, 0.1245563030, -0.1659661978, 1.1070833206, 0.0993444547, 0.0096392259,
    -0.0325899497, 0.1488197595, 0.1974763125, 0.2697561383, -0.0288845897, -0.1000850499, 0.1934386194, 0.3582436144,
    0.0179634020, -0.0205243416, 0.0412654579, 0.1522150785, 0.3375871480, 0.0594583079, 0.0637209862, -0.0749617368,
    0.0776272044, -0.2432406098, 0.2914620936, 0.0716967359, -0.3477746546, -0.2928233743, 0.1351511329, -0.0137202935,
    -0.2228469402, 0.0760913268, 0.0731438026, 0.0773826018, 0.0278305858, 0.2319372594, 0.2374434471, 0.1543521881,
    -0.1647850871, -0.2317971289, 0.1755258292, -0.0283854771, -0.0409423374, 0.3019646704, -0.0317614079, -0.0707508922,
    0.2895221114, -0.1048471332, 0.3167236447, 0.1032268927, 0.0460791029, 0.0236046780, 0.1386246383, 0.0212563071,
    -0.1039081588, 0.1910336465, -0.0117046740, 0.6160232425, 0.0822732076, 0.2076523304, 0.0221628807, -0.0239578709,
    0.2513622940, -0.2804204524, -0.3230505288, 0.2661129236, -0.2980750799, -0.0778241009, 0.4310104251, -0.2023748755,
    0.0600441284, 0.5128342509, 0.2224105895, 0.3564493954, 0.2208900303, 0.1196283177, -0.2556547225, 0.2115087360,
    -0.1778402776, 0.0720533356, 0.1320189536, -0.0725059733, -0.0346409716, -0.2272840291, -0.1476936638, 0.0298415720,
    -0.2216488719, 0.0856962055, 0.0081377737, -0.0908586010, 0.2162941545, 0.0776389688, 0.1687915027, -0.4799651206,
    -0.1138241217, -0.1787923872, -0.1929732114, -0.3251537681, -0.2112031728, 0.2491686642, -0.1221066788, 0.0644616857,
    -0.1578946412, 0.0307043437, 0.3631667495, 0.4000293016, -0.1507464796, 0.3485943377, 0.2091683000, 0.0933706462,
    0.1243286654, 0.1192535758, 0.0006232856, -0.0791870952, 0.1257582307, -0.2579059601, -0.2045487016, 0.6347301602,
    0.1181675866, 0.2534929514, -0.0110885985, -0.0796366259, 0.1408282220, -0.0132785644, 0.2674277425, -0.1509702653,
    0.3164499998, -0.0370426849, -0.3363904953, -0.2828337550, 0.1713379174, -0.4208489358, -0.0137652988, -0.0240495987,
    -0.1122308895, -0.1922577620, -0.0562112555, 0.0568549037, -0.1914224774, 0.1597743481, -0.2364736497, -0.0621308945,
    -0.3228208125, 0.0653890744, -0.0621288270, -0.0513503104, -0.0496164151, -0.1945346296, -0.1687960625, 0.0729659870,
    -0.4075911045, 0.2700632513, -0.1730489135, -0.3215909004, 0.0183265433, -0.0829816386, -0.1774216741, 0.4937451780,
    0.0628188103, -0.4694056809, 0.0144664543, 0.5419540405, -0.3124242127, 0.1658405513, 0.0650695115, 0.0538305789,
    -0.1753842235, -0.0714026615, -0.2972592711, -0.1310889274, -0.0983121470, -0.1007096618, 0.3695961535, 0.1497321278,
    -0.0990732536, 0.4417019188, -0.0946457312, -0.2080297917, 0.0785696879, 0.2391504049, 0.0036618514, 0.1833218634,
    0.4042179883, -0.0953492671, 0.3836120069, -0.0543423146, 0.0634536594, 0.1523628235, -0.0932052881, -0.1151405051,
    -0.3268177509, -0.4364567399, 0.1599879563, -0.3179473877, 0.3568910956, -0.5278007388, -0.1228100657, -0.4254858792,
    -0.2024176866, 0.3010449409, 0.5157324076, 0.2814688385, -0.0849914625, -0.1986278296, 0.1024998501, 0.1634299755,
    -0.0756717920, -0.0892290697, -0.2574952543, -0.4834535718, -0.0831017867, -0.5734773278, -0.5641081929, -0.0036477521,
    0.0803470835, 0.4728764594, -0.0341376588, -0.2291273475, -0.0997799858, -0.1189296767, 0.0186663643, -0.2302797884,
    -0.1099166200, -0.0257102195, 0.2321672440, -0.0008352532, -0.1044497564, 0.5227933526, 0.3914793134, 0.2237973362,
    0.1920430213, 0.1822813600, -0.2486635447, 0.0045736143, 0.0709141344, 0.2455337495, 0.0525392666, 0.1509410888,
    0.1595225632, 0.6291095018, 0.2280212492, -0.2851357758, 0.1860206127, 0.0315243006, 0.0242895018, 0.0310700126,
    -0.0691096410, 0.2201359868, 0.3137590289, -0.4302998483, 0.2153974026, -0.4600081742, -0.6741013527, 0.0682149678,
    -0.0153466137, 0.0629992038, -0.1479895860, -0.0960738957, 0.3259717524, -0.6905592084, 0.0650744662, 0.1588891447,
    -0.4090568423, 0.2175934911, -0.1166126132, -0.2715954185, 0.0476218052, -0.0582777672, 0.0054288097, -0.0135392165,
    0.2171973735, 0.2389128208, 0.1126526222, -0.0967796668, 0.1172430664, -0.0930887014, -0.2228937745, -0.2796846330,
    -0.1709477156, 0.5906395316, 0.1266309023, -0.3102623820, -0.0633294657, 0.2427759767, 0.3935925364, -0.4648637176,
    -0.3327343166, 0.0186072290, -0.1652751118, -0.0482648797, 0.0906974599, -0.0601144992, 0.4486028850, 0.2095910609,
    -0.2472719550, -0.1576244384, 0.0381644927, 0.5207839608, -0.1843549609, -0.0495850481, 0.3973652422, 0.0869428664,
    -0.0419380888, 0.1502358019, 0.0336732641, 0.0367560200, -0.0219227020, 0.0008230658, 0.3733352125, -0.3492156565,
    0.2433463633, 0.2518348694, 0.2392266095, -0.0655106381, 0.2295740843, 0.0714777559, 0.1362508684, -0.0029194418,
    -0.2921934426, 0.0661341399, 0.1966550052, -0.0425787419, -0.0658655018, -0.3700734675, 0.1129721478, 0.0566504560,
    -0.0113586364, 0.3883652687, -0.0513804294, 0.0106202681, 0.5544395447, -0.1181165725, -0.1512952745, 0.1935664713,
    0.4232088029, -0.0388002135, -0.0316450447, -0.2007936090, 0.1591430306, -0.0990379080, -0.1483435929, 0.1403651088,
    -0.1899934262, 0.0082664452, -0.2012137622, -0.0225299038, -0.2544766665, 0.3289347887, 0.0058854809, 0.1634995639,
    -0.2370364964, -0.2035141438, 0.1760564148, 0.0758200437, -0.0841532946, 0.0324572884, 0.0361419357, -0.5461597443,
    0.0736949071, -0.1116261259, 0.1420962662, 0.0879894868, 0.1094359234, -0.3485615253, 0.0535231791, -0.0928063542,
    -0.2245049775, 0.3267885149, 0.1524225771, 0.1592506170, 0.0469630659, -0.1872206330, -0.1153571084, 0.1081627682,
    0.2778416574, 0.0037120259, 0.2563793957, 0.0299244635, 0.0427747779, 0.0981648937, -0.0135196736, 0.4146380424,
    -0.1441352963, -0.4683740437, 0.0167908948, -0.1963625997, 0.0566160493, 0.4676369429, 0.0930421054, -0.3398939967,
    -0.2302047759, 0.0485172458, -0.0960275754, -0.0853808299, -0.0124989487, -0.2301207483, 0.3361866772, -0.2195371687,
    0.3038159013, -0.3068822026, 0.3308450282, -0.1783454269, 0.0363670290, -0.5073178411, -0.2034932822, 0.1763855368,
    0.5148319602, -0.0271331742, 0.1153390706, -0.2974599004, -0.0869272575, 0.0678783953, 0.0703787729, -0.1086089239,
    0.1214537248, -0.3861273527, -0.0196407251, -0.2662918270, -0.3466738164, -0.1388977468, 0.2916495204, 0.0077110748,
    -0.1681309938, -0.2531904876, 0.2269561291, -0.3902097642, -0.2581652403, 0.2378688902, -0.0397609323, -0.2812901437,
    -0.0957249254, -0.3547608256, 0.1179056391, 0.4790294766, 0.1758984923, 0.0867781937, -0.1335310936, 0.2761911452,
    0.2334114760, 0.1067782491, -0.3873963654, 0.1982641518, 0.1658755094, 0.1655989438, 0.2021422088, 0.0356852449,
    -0.1619656235, 0.0937666595, 0.2637808621, 0.2064843029, 0.3755583763, -0.5079025030, 0.3405426741, 0.0944675580,
    0.6018818021, -0.4135785103, -0.0400203317, 0.0710981339, -0.0128855398, 0.2578088045, -0.3987126648, -0.0661480874,
    0.0540443882, -0.0784991682, 0.4577574134, 0.1072986796, 0.4946239591, 0.4077701271, 0.2009158432, 0.0473859273,
    -0.4550889730, -0.4288643003, 0.0664643720, -0.2973441780, -0.2247771621, 0.3391062915, 0.5403373837, -0.1079109088,
    -0.0354087315, 0.3189908266, -0.2485633790, 0.0660379231, 0.0732038617, 0.0932402164, -0.5256756544, 0.2154039592,
    -0.4517516792, -0.1889994740, -0.6135984659, -0.1307862103, 0.3135632277, -0.2529849708, -0.1388154477, -0.0448379703,
    -0.1800377667, -0.0627162308, 0.0807592943, -0.1113810614, -0.4882333279, -0.0262807198, -0.2128236145, 0.0807739124,
    -0.0608644672, 0.0640161783, 0.4040054083, -0.0786588117, -0.4466321766, -0.1854911894, 0.1232337579, -0.0896530598,
    0.2315968722, -0.0266456138, 0.0554719716, -0.1121300906, 0.0326929800, 0.5954800248, 0.1929271519, 0.0872335508,
    -0.2023868859, -0.1213183850, -0.1308458447, 0.1455726922, 0.1421665698, -0.0300620571, 0.6816306114, -0.0405809060,
    -0.0577154569, 0.2735324502, 0.4183613658, -0.3349075019, 0.0127496570, -0.7023724914, -0.3434417546, -0.0135309966,
    0.6122653484, 0.0208570585, -0.1015032977, 0.3093203306, 0.5226504207, -0.2726359963, 0.1459061205, -0.0373009667,
    -0.0344935581, -0.3814015090, -0.5185726285, 0.1582964361, -0.2209702134, -0.2625417411, 0.3025556505, 0.2042354196,
    -0.1400158405, 0.1522829235, -0.0315454081, -0.0055467640, 0.3490886688, 0.0766849443, -0.3894363940, 0.1827810258,
    0.0308058318, 0.0434289277, -0.3648682833, -0.1105162725, -0.1610333025, 0.4484278560, 0.0215284880, 0.2215939760,
    0.4023207426, 0.3387757540, 0.0189385321, -0.0683418065, -0.4257277250, -0.2590214014, 0.3362194300, 0.1252896488,
    0.1968415976, 0.2287263274, 0.0749594495, -0.2843304276, 0.3664087951, 0.5421000719, 0.1339967251, 0.1489335001,
    -0.1177780256, -0.3288392127, 0.0160578359, -0.1848003417, 0.0558039397, 0.1488852203, 0.2212921381, 0.2128539383,
    -0.1941254735, 0.4423716664, 0.1130620316, 0.1094609648, 0.0216391869, 0.3593219519, 0.0784044191, 0.1937614083,
    0.2638856769, -0.0099859759, 0.0228896271, 0.2229257822, 0.1009691507, 0.1326876581, -0.0669897795, -0.2446383983,
    -0.1985340714, -0.1598942131, 0.3993768692, -0.2848854661, 0.0119191110, 0.2239149660, 0.0947260782, -0.0114153400,
    0.0101012588, -0.3163978159, 0.0684074908, -0.0452034920, 0.0403262749, -0.2578489184, -0.1607634723, 0.0068321712,
    -0.3307303488, 0.1285404861, -0.3167313039, 0.0071585826, -0.0475584120, -0.3299665153, 0.3323608339, 0.1134739295,
    -0.4195035100, 0.2726298273, 0.1050949246, 0.1191903949, -0.0432317555, -0.0610004589, -0.3733588755, -0.4455692470,
    0.1751841307, -0.1130235866, -0.4359665513, -0.0303659048, 0.2217833400, 0.0136587899, 0.1885741353, -0.1161281615,
    -0.0472502224, -0.0914982781, -0.0097674662, -0.0046899556, -0.1607610285, -0.0669661611, -0.1609372199, -0.0121038975,
    0.3945163488, -0.0641959608, -0.2169366628, -0.1487933546, -0.1874821335, 0.1827121973, 0.0210427865, 0.0349604301,
    -0.1630572677, -0.0241549741, 0.1417008042, -0.0398841947, 0.0129676219, 0.3126250803, -0.0620896183, 0.3583442867,
    0.0473676771, -0.0755305812, 0.2614948750, -0.0353137888, -0.0645842180, 0.0904801041, 0.1153481454, 0.2993053496,
};

static float para_conv1x1s1_dd_3_bias[16] = {
    0.8632411361, -0.1182884425, 0.9222125411, -0.7982997894, 0.8800194860, 0.0326924920, -0.9828518033, -1.4477331638,
    -0.1487194449, 1.1430273056, -2.1922802925, 0.2106205821, -4.0900478363, 0.5770543814, -3.9365990162, 3.3871207237,
};

static float para_conv1x1s1_di_4_weight[1024] = {
    -0.0031105008, 0.0176802259, -0.0513999052, 0.1757157147, -0.2386335880, 0.0496206842, -0.0681079626, 0.0981599316,
        0.0065913722, -0.0348866098, 0.1465127319, 0.1410681903, 0.0952880606, 0.0080663785, 0.1147563607, -0.0038642902,
        -0.0134726232, -0.0004723161, 0.0000921621, 0.0076945405, 0.0262338985, -0.0229120515, -0.0175970644, -0.0781175420,
        -0.0001579142, 0.0620330796, -0.0314085558, 0.0051094047, -0.0433709212, 0.0059522558, 0.0038058702, -0.0254224837,
        -0.0385780036, 0.0346513428, -0.1725742817, -0.0587577894, -0.0453273505, -0.0726395994, -0.0057954225, -0.0263339840,
        -0.0324496999, -0.0213630404, -0.0576418974, 0.1242417321, -0.0330567397, 0.0311022904, 0.1400762200, -0.0307927392,
        -0.2769602835, -0.0956631079, -0.0160178840, -0.0889496058, 0.1477641314, 0.1147596687, -0.1363942176, -0.0725435913,
        -0.3018069267, -0.1092931256, 0.1058543548, 0.2785534561, -0.3074877560, 0.1466618031, 0.0639161319, 0.0571072847,
        0.0871137381, -0.2467519939, -0.0006091238, 0.0297332425, -0.0572070479, -0.0349164456, -0.2713571191, -0.0441602021,
        0.0261466205, -0.0583419167, 0.0378087424, 0.3280490339, 0.0488752313, -0.2518242598, -0.0323962644, 0.1186650172,
        -0.0265175439, 0.0133560942, -0.1380035579, 0.1136515662, 0.0782424808, 0.1032010987, 0.1807460338, -0.0133754360,
        -0.0548954457, 0.0598057620, 0.0056527853, 0.2333678454, 0.1279918849, 0.0513882264, -0.0107340142, -0.1245562658,
        -0.0314327627, 0.0745952800, -0.0550241731, 0.0204324499, -0.0416111983, -0.0848363414, 0.0612457022, -0.0640697405,
        -0.0461322367, 0.1100968122, 0.0646969378, -0.0874574259, 0.0239950772, -0.1507785767, -0.0781075209, 0.0611269549,
        0.0374948867, 0.1076221541, -0.1354875863, 0.0920539647, 0.0845764428, 0.0158262923, 0.0480407923, -0.0399472080,
        0.1196934953, -0.0100150686, -0.0329797938, -0.0874646902, -0.0587910190, -0.0700334683, 0.0624876246, -0.0228630546,
        -0.3743867278, -0.1934214234, 0.1186610684, 0.9057402611, -0.2643108666, 0.0238922071, -0.2067791075, -0.8783472776,
        -0.0145592103, 0.1204397678, 0.2678777874, -0.0096552921, 0.1605496109, 0.1250206381, -0.2238355428, -0.3626473844,
        0.0406557694, 0.0040992042, 0.0389475785, 0.0246320851, 0.0568397082, -0.0130719189, 0.0171409491, 0.0155073246,
        0.0106107583, 0.0294644535, -0.0080390293, -0.0343828388, -0.0440772548, 0.0062115467, 0.0932808667, 0.0787856281,
        -0.0002767865, 0.0016960220, -0.0266178604, -0.0029555522, -0.0246269554, 0.0382938497, -0.0213199705, 0.0038612955,
        -0.0184381232, 0.0377909690, 0.0160415266, -0.0054583927, -0.0352154858, -0.0377439708, -0.0002375036, 0.0314060934,
        -0.0202604197, -0.1693839282, -0.0365316831, -0.0138345212, -0.0753790736, 0.1043502018, -0.0872519985, -0.0000493733,
        0.5034518838, 0.2424763888, 0.2189569324, 0.1439436376, -0.0218890142, -0.1524083018, -0.0315387212, -0.0021611534,
        -0.1284183413, 0.1114021391, -0.1937960833, -0.1126359552, 0.4375316203, -0.2680188119, -0.3786596954, -0.0484094173,
        -0.0613195561, 0.4972489476, -0.0555784926, 0.0038782891, 0.0082692010, -0.3102938235, -0.1088997796, 0.4568438232,
        -0.0532330461, -0.0875594243, 0.0364199430, 0.0454764441, 0.0277849194, 0.0559602529, 0.0691952258, 0.1543923169,
        0.0452209897, 0.1892440468, -0.0258654542, 0.0202299245, -0.1944139451, -0.0183427185, 0.1158915833, -0.0034991580,
        -0.1015653759, -0.3895542920, -0.1558641940, -0.3127296567, -0.0631694943, -0.2373737544, 0.0082953032, 0.0739259571,
        -0.0116671706, 0.2099096328, -0.1276323795, 0.0716351494, 0.2029560804, 0.1881042570, 0.2938040197, -0.2289273441,
        0.0061783912, 0.0572036952, 0.0415456332, -0.0073038922, 0.0694345385, 0.0160519704, 0.0333142392, 0.0127926283,
        0.0425350629, -0.0334747732, -0.0052243997, -0.0030128800, 0.0466723479, -0.0228358060, 0.0098614609, 0.0294924881,
        0.0185931455, 0.0704405978, -0.1478285789, 0.0933373943, -0.0070348084, 0.0872447863, 0.1013369039, -0.0283675194,
        0.1048379391, 0.0748753175, -0.0624660179, -0.1418157816, 0.0105641074, -0.0078093777, 0.1052749753, 0.0069826487,
        -0.0193400513, -0.2910132110, -0.0174743775, -0.0997933298, 0.0101923207, 0.0944715366, 0.0835308880, 0.1305864304,
        0.0604065694, 0.0724479705, 0.0244331807, -0.0028741125, 0.1289761513, 0.0680544674, 0.3132503033, -0.1409852803,
        0.0727206841, 0.0504377298, -0.0333391577, 0.0424327739, -0.1349942088, -0.0096203247, -0.0525195934, 0.0913228840,
        -0.1186705753, -0.0577153191, 0.0334408879, 0.0507276580, 0.1501889080, 0.1096748933, -0.0170416217, -0.1602702141,
        -0.1004840955, 0.0228198320, -0.0257956292, -0.0504301153, -0.1096121296, 0.0197836030, -0.0640749484, -0.0029100687,
        0.0097447122, 0.0813189894, -0.0127923703, -0.0123193022, -0.0383371226, 0.0856314972, -0.0229118727, -0.0555329025,
        0.0152994469, 0.0296011735, 0.0558027141, -0.0053762491, -0.0481563136, 0.0065732938, -0.0254751258, -0.0221797395,
        -0.0800918117, 0.0096151317, -0.0069999448, -0.0210778601, -0.0251182802, 0.0195981041, 0.0440658703, 0.0146924807,
        0.0174050052, 0.1979305297, 0.2005960047, -0.4603317976, -0.0757493749, -0.1110981479, 0.3942629695, -0.1960311532,
        -0.1332309693, 0.3012776375, -0.1598456353, 0.1851795465, 0.2417455167, 0.0021564518, -0.2718067169, 0.0033684564,
        -0.0105157709, -0.1013011560, 0.0211401656, 0.1578226089, 0.1655605286, -0.1001856104, -0.0068721548, 0.1866057366,
        -0.0740292221, -0.0206795298, 0.0355532579, 0.1293027252, 0.0149085252, 0.1291564107, -0.2601840794, 0.2458710819,
        0.0627628639, -0.0786512718, -0.1065639555, 0.4521638751, 0.1157334670, -0.1571517140, -0.1509606987, -0.5362066627,
        -0.0931441411, 0.1723604947, -0.0472645722, 0.1306651086, 0.2168882638, 0.1743094027, -0.1817670465, -0.0629595742,
        0.3785851300, 0.0889863893, -0.3675765097, -0.1970709711, 0.1740829796, 0.0835969374, -0.1758468747, 0.2795896232,
        0.1309624314, -0.0621783510, -0.2170040011, 0.2438849956, 0.0969746783, 0.0408947654, 0.1336091608, 0.3617214859,
        -0.1939855963, -0.1107806414, -0.0547946915, -0.1517667323, -0.3165988326, 0.1165052131, 0.2687951624, -0.0160252899,
        -0.0443853736, 0.1020690054, 0.0130439037, -0.1280108392, 0.1563842446, 0.1057336256, 0.4062855840, 0.1159301922,
        -0.3089426756, -0.0199636240, -0.1878518611, 0.1031960472, -0.1056772247, 0.1461005956, -0.3742619753, 0.1396450698,
        0.0388746560, -0.0967445299, 0.1594944745, -0.0197737720, 0.2152487487, 0.1330569088, -0.0237672813, -0.0635321811,
        -0.1104576811, -0.3684280515, -0.0389403999, -0.2160431743, -0.5693533421, 0.1523801833, -0.7913664579, 0.6145168543,
        0.0160629917, -0.3718667924, 0.2169767469, 0.0600905269, -0.0000552316, 0.0947350785, 0.0180490669, -0.4687030017,
        0.1251529306, 0.2259757966, -0.0276270919, -0.0844879001, 0.1137296632, -0.0185689740, 0.0342716835, 0.0777064115,
        -0.0078513958, 0.0604132712, -0.1555458307, 0.0027867202, -0.0688974932, -0.0118922936, -0.0741777793, 0.0503348745,
        -0.0102441423, -0.0999822244, -0.1170781106, 0.0330292471, 0.1112557799, -0.1448875070, -0.2131032050, -0.0395923592,
        0.2337604016, 0.1464011669, -0.0144693581, -0.0023246799, 0.0345857367, -0.0874243826, 0.3713960052, -0.0827155411,
        -0.0715874434, 0.0992934853, -0.0183796752, 0.1098138839, 0.0761742815, -0.0614653006, -0.0237437170, -0.1229164377,
        0.2539286911, -0.0088750832, 0.0712480843, 0.1801017523, 0.2340266705, 0.0277444534, 0.4883035719, 0.1021384448,
        -0.0854160935, -0.1727124155, 0.0380539708, 0.2931312621, 0.0391960219, 0.0513115041, 0.0436909050, -0.5113877058,
        -0.0267830230, 0.2030413747, 0.1493177563, 0.1298401654, -0.0219365507, -0.0334034674, 0.1681795716, -0.4965668321,
        -0.0212417729, -0.0769575313, -0.1123697013, 0.2847295105, 0.1249912307, -0.3030863702, 0.0783322304, -0.0059654796,
        0.0323038325, -0.0746612772, 0.3559527993, 0.0075061885, -0.2501421273, -0.0513491146, -0.2285992950, -0.1116560325,
        0.1027654037, -0.0786132514, 0.2633330226, 0.4115815461, -0.2779755890, 0.0771849155, -0.2123667747, -0.0037124569,
        -0.0403920002, -0.0754299387, -0.0997989401, 0.0135340029, 0.1513748467, -0.1731017679, -0.0513782799, -0.0544457100,
        0.0285819545, 0.0412842520, -0.0325656757, 0.0959790871, -0.1385535449, 0.0444702022, -0.0661194548, 0.1118891686,
        -0.3302750885, 0.0980062783, 0.0869680271, 0.1235792860, -0.0239976682, 0.0120505588, -0.0230198000, 0.1653043628,
        0.1018486023, -0.1251747012, -0.0122431749, 0.0075209108, 0.0647220910, 0.1469331086, -0.0967859030, -0.0299426541,
        0.0405592769, 0.3373773396, 0.0172315072, -0.0699952990, -0.3719622195, -0.2348254323, -0.3574535251, 0.0378303602,
        -0.5918756723, -0.1500509828, -1.1070567369, -0.6890383363, -0.3044398725, -0.7311527133, 0.0930351019, -0.6879785061,
        -0.5726547241, 0.0348496549, -0.0915314704, 1.1720819473, -0.5273013711, -0.3588445485, 0.0926608592, 0.1611688435,
        -0.0180913769, -0.0743333474, -0.2560176253, 0.0472040027, -0.3313018680, 0.1378028691, -0.0782035515, -0.0209407769,
        -0.0487382524, 0.0505385995, 0.2665190399, 0.1039590761, -0.3627849221, -0.2883282602, 0.3204153776, 0.3324272037,
        -0.0599440634, 0.0933215618, 0.1791131049, 0.1097441763, -0.1009069160, 0.0218758713, -0.0891436934, 0.1575571597,
        -0.3943484128, 0.2333225161, -0.0895438790, -0.1096194610, 0.1930438727, 0.0191877577, -0.1734741926, 0.0092592444,
        0.3223911524, -0.1830938011, -0.0231799576, 0.0492873676, 0.1938338280, 0.0359262377, -0.0977211446, -0.2884689569,
        -0.0369980186, -0.0631674528, 0.2635378838, -0.0529231392, -0.1374162287, 0.1787960827, -0.1573756933, -0.1968270689,
        -0.6987348199, -0.2887388766, -0.1229591668, -0.0931162834, -0.1254690289, -0.0091863815, -0.2085109055, 0.3007845581,
        0.1601730138, 0.0382497869, 0.2114341855, -0.1720311493, 0.0929834396, 0.0658792332, -0.0902992412, 0.0077262516,
        -0.0108450390, -0.0942424610, -0.2567332685, -0.0526937731, 0.2132512927, 0.0378953367, -0.2024975568, 0.0812043995,
        0.0771775767, 0.2159696221, 0.1752191931, 0.0711522102, 0.3395545483, 0.2507917583, 0.2518444657, 0.0671892166,
        0.0807392374, -0.2166691124, -0.4982289970, -0.3124432862, 0.0927421451, 0.0198545400, -0.0721500143, 0.4027844667,
        0.0914079323, -0.1104864404, -0.0700512603, 0.0283949263, 0.2245346159, 0.3563656509, 0.0377250165, 0.1709045023,
        -0.0125028668, 0.1189981923, -0.0022866521, 0.0125544984, -0.1348690689, 0.0186561719, -0.1014968455, 0.1550969929,
        -0.1862238497, -0.0505336560, -0.0379959568, 0.1111214533, 0.1440458000, 0.1167551354, -0.1138026863, 0.2004253417,
        0.3588890731, -0.0561887622, -0.1787604988, -0.3347080946, 0.0197921135, 0.2108893991, 0.0742106065, -0.1537394375,
        0.0693875402, -0.0442527533, 0.1620943695, -0.1290619224, -0.2952550352, 0.1123453751, -0.0071494607, 0.1963296235,
        -0.1691561490, -0.4395783544, 0.2372403145, -0.0776343718, 0.0057007493, -0.2393427044, -0.2302960157, 0.0100585921,
        -0.2040757835, 0.2010699958, -0.3350932002, -0.1080394313, 0.0735374093, 0.2156715244, 0.0301260296, 0.2402789593,
        0.2286071926, 0.1609541327, -0.2753635645, 0.2035922110, -0.1015939489, 0.1194771156, -0.0959416181, -0.1504583657,
        0.1556185931, 0.1679451615, -0.2125263214, 0.1367912591, 0.1199642345, -0.1358536929, 0.0895687044, -0.0033633779,
        -0.1975349784, 0.1227038056, -0.1823597401, 0.0060389386, 0.2903928757, 0.3078392744, -0.2408810258, 0.1375660002,
        -0.1412704289, 0.0584278181, 0.3890129030, -0.1640159935, 0.0273792669, -0.2933294773, -0.0042104237, -0.0375620797,
        -0.2332442701, -0.0057237213, 0.0880936161, -0.1405175477, 0.3117411435, -0.1216592118, 0.1020521969, -0.1158284098,
        -0.1212531999, 0.0889165029, 0.5360727906, 0.1415489465, 0.1481586546, -0.3476538062, 0.3335146010, 0.0980069563,
        -0.2228607088, -0.0600843616, -0.0456637107, 0.1946056336, -0.0624851510, 0.0727371275, -0.0588810146, 0.0499272346,
        0.1074598804, 0.1759865731, -0.3768302500, -0.0055779414, 0.0169654079, -0.0638920516, -0.1653609425, 0.1163389757,
        -0.1220730916, -0.1145424768, 0.3862649500, -0.0998009890, -0.1068143025, 0.1092114300, 0.3621362150, -0.2361065894,
        0.0577833168, 0.1044425890, -0.0424995422, -0.2056855857, 0.1328231245, -0.0142089371, 0.0227726456, 0.4060954750,
        0.0034185562, -0.0053197695, -0.0013883472, -0.0086157033, -0.0062480201, 0.0041454579, 0.0017252138, 0.0017719771,
        -0.0087301787, 0.0032098505, -0.0013456936, -0.0195356216, 0.0039490559, 0.0000093132, -0.0043366416, -0.0077219908,
        -0.3005203307, 0.1922734827, -0.0389436558, -0.0877670646, 0.2850870192, 0.0332458541, -0.1970791668, 0.1025669500,
        0.0273083448, -0.3249360323, 0.0835055485, -0.1666238904, 0.0421129242, 0.0394275822, 0.0058398941, -0.0633105785,
        -0.0306966640, -0.1566360742, -0.0863628387, -0.0780074820, 0.0270843003, 0.0520495698, 0.0326339826, 0.1341719478,
        0.0359270684, 0.1024805754, -0.1351383775, -0.0842165872, -0.0594979450, 0.0609077029, 0.0260640960, -0.0853018388,
        -0.0563996397, -0.0801885277, -0.1904571950, 0.1464858353, 0.0555003136, 0.2123779953, 0.2442043424, -0.0052614138,
        -0.0692754239, -0.0596877299, -0.1254109740, -0.2499265969, -0.1178817376, 0.0083442982, -0.1574570090, -0.0001410954,
        0.0818185657, 0.0047219931, -0.0066235433, 0.0537422784, 0.0664937571, -0.1163932309, -0.4690120518, 0.0116287330,
        0.0213151816, -0.0200721212, -0.0663253367, -0.1091249213, 0.0756139308, 0.1107407734, 0.2250009924, -0.0881190002,
        -0.1552245021, 0.0544002913, -0.1587887853, -0.0112770321, 0.1652902514, 0.3644479811, 0.0055388501, -0.1451311707,
        -0.1434031427, 0.0435824580, 0.0583641976, 0.0531334355, 0.1414554417, 0.2227220535, -0.2361622751, 0.2311407924,
        0.2798956335, 0.0212718900, -0.6562233567, -0.1237261593, 0.1166283861, -0.3265123367, -0.2793799043, 0.2226484120,
        -0.1561468393, 0.0313142762, -0.3619344532, 0.0456034206, -0.1959967166, 0.3055733740, -0.1586363465, 0.5465312004,
        -0.0573529042, 0.0320760272, -0.0672359392, 0.0350798629, 0.0447686911, -0.0361855961, -0.0184353851, -0.0114095435,
        -0.0378068537, -0.1750951111, 0.0344350040, -0.1552577764, -0.0345728509, 0.0254212040, 0.0548446365, -0.0884681121,
        -0.0059060175, -0.4409113228, 0.0581614859, -0.0057550613, 0.1135693863, 0.2163938284, -0.1630106866, -0.0513165966,
        0.1357025206, -0.0366625004, -0.3103320897, -0.1151961386, -0.2320149392, 0.0112907104, 0.0762119815, -0.0405547284,
        -0.0291639138, -0.1881920695, 0.1150359809, 0.2010024339, -0.0533165559, -0.6364286542, -0.0983730480, -0.0256487690,
        0.0540256873, -0.0075274850, -0.2082029730, 0.0192617383, 0.3573515713, 0.3838041127, 0.1245263517, -0.1871106178,
        0.0235510077, -0.0224554557, -0.0588689558, -0.0558321476, 0.0420571864, 0.0280481521, 0.0010745492, 0.0257342327,
        0.0614987463, 0.0751039088, -0.0112703908, 0.0243505072, 0.0389427990, -0.0018571060, 0.0955964178, -0.1715704352,
        -0.0680927485, -0.2402452230, 0.1443220675, -0.2444285154, 0.1766912341, 0.3105174005, -0.9188739657, -0.1482878327,
        -0.1791987270, 0.7349143624, -0.0074056657, 0.1619396508, -0.0649623424, -0.3887574375, -0.1253433079, -0.1399239749,
        0.2419558316, -0.2011008263, 0.4331859946, 0.1408533603, 0.2920130789, -0.2352491617, -0.1503929943, 0.2361959815,
        -0.2414134741, 0.4894842803, 0.0927126557, 0.1205396131, -0.1150221080, 0.2751063108, -0.0679046586, 0.0773734972,
    };

static float para_conv1x1s1_di_4_bias[64] = {
    -0.1975638270, -0.0549167767, 2.6151690483, 1.4355399609, 0.9217944145, 0.5188947320, 1.2184537649, 0.0091717914,
        1.1331071854, -0.2029546052, -1.0250737667, -0.5881586671, -0.3948587477, -0.1151179299, 0.7520475388, -0.0139842406,
        -0.0423940793, -2.0727827549, 1.0502451658, 0.2371177673, -0.1904709786, 0.5806956291, 0.5415613055, -0.7656614780,
        -0.6222515106, -1.4923689365, 0.7388703823, -1.5455125570, -1.3771009445, -0.9540811777, 1.4100259542, -0.5450066328,
        1.1292912960, 1.9814163446, -0.2149969488, -1.3036775589, 0.5330740213, -1.3882148266, -1.2561918497, -0.7694427967,
        -0.6080101132, 0.5002084970, -0.9025980234, 1.7894754410, -1.2826573849, -1.4375752211, -0.6152374744, 0.6832999587,
        3.7661759853, 0.2544442117, -1.4044389725, -0.0118539631, 3.8145875931, 1.1131768227, 0.1931745112, -0.9043473601,
        0.5782535076, 1.1008043289, 1.4578099251, -1.9693665504, -0.0725972652, 0.4569233954, -2.2883667946, -1.1336866617,
    };

static float para_convdw3x3s2_4_weight[576] = {
    0.3907116652, 0.4063857198, 0.5430909395, 0.7083553076, 1.4364081621, 0.8617948294, 0.7913002372, 2.1563689709,
    1.3127126694, 1.9684700966, 4.2059178352, 1.9495091438, 2.3657577038, 4.5762181282, 2.6571679115, 1.2440313101,
    2.4173142910, 1.1086058617, -0.5815833211, 0.6484486461, -0.5883848667, -0.4740554094, 1.0673712492, -0.4679555893,
    -0.2998949587, 0.9278769493, -0.3112397790, 0.1152866632, 0.1961514801, 0.1128270701, 0.2844705284, 0.5021575689,
    0.3268097937, 0.1959363818, 0.3427820206, 0.1744180471, -0.2698562741, -0.4011422694, -0.2353495359, -0.4055207074,
    -0.7248317003, -0.3947212100, -0.2098137289, -0.3597547412, -0.1704335511, -0.3309690952, -0.5160802007, -0.3804265559,
    -0.5274180174, -0.7693558931, -0.5303202868, -0.2569703758, -0.3682309389, -0.2177100331, 0.3021178544, 0.5403220654,
    0.3851619959, 0.5942974687, 1.2649742365, 0.7221159935, 0.3639899492, 0.7286626101, 0.3307846487, 0.4816773236,
    0.0396338105, -0.7469838262, 1.2909923792, -0.1589256525, -0.8604687452, 0.5752831697, -0.3265753686, -0.8980638981,
    0.2590012550, 0.0599769987, -0.2763176560, 0.3002729118, 0.0447261259, -0.3229272366, 0.2418530136, -0.0200616345,
    -0.2120840847, 0.8841947317, 0.9839725494, 0.8062158227, 1.6592118740, 3.2352600098, 2.5584249496, 1.9967442751,
    3.1829078197, 2.1815857887, 7.0168533325, 7.8591446877, 5.5684618950, 1.4275686741, 5.0775866508, 0.7879578471,
    -8.6727991104, -16.3255882263, -7.5483994484, 0.2366301417, 0.4166459739, 0.2341699004, 0.4561811388, 0.8221974373,
    0.4877429903, 0.2723168135, 0.5357303023, 0.2546298206, -0.0975324884, -0.1534041762, -0.0566461980, -0.1381226927,
    -0.3519152403, -0.1814604402, -0.1326935142, -0.1857375801, -0.1334562153, 0.6409366727, 1.1365338564, 0.4034114480,
    1.2692883015, 1.7791668177, 0.8298943639, 0.5760769248, 0.6643456817, 0.5375265479, -0.1749500036, -0.3355803788,
    -0.2221722305, -0.3228420019, -0.4834993780, -0.3461157084, -0.1697626412, -0.3179637492, -0.1947658509, -2.9271094799,
    -4.4701976776, -2.6147353649, -0.1611734480, -0.7005688548, -0.8130220175, 1.6101598740, 2.4418766499, 1.5578900576,
    0.2453468591, 0.7844445109, -0.7692394257, 1.0147174597, 1.2444344759, -0.7692781687, 1.1032254696, 1.0775090456,
    -0.6764454246, 0.7010881901, 1.0704317093, 0.8421641588, 1.1962802410, 1.4684145451, 1.0391963720, 0.8486453891,
    1.0070670843, 0.6285625100, -0.3815749288, -1.1127102375, -0.9948834181, 0.4631151557, -0.2711746693, -0.3737216294,
    0.9978665709, 0.5558400154, 0.4940320253, 0.5321330428, 1.8392734528, 1.0108273029, 1.8174133301, 3.1223056316,
    1.7571467161, 1.3152524233, 2.1651053429, 1.4062701464, 2.6675794125, 3.8702068329, 2.8719677925, 3.2340981960,
    5.9202041626, 2.5819985867, 0.4149996340, 1.9356315136, 0.7273547053, -0.1456746906, -0.2906841636, -0.1963144839,
    -0.2123283148, -0.4773587286, -0.2436703593, -0.1491665989, -0.2774989307, -0.1977862120, 0.0618499890, 0.1185951903,
    0.0412251949, 0.4561111927, 0.5607510805, 0.4034795463, 0.3596969843, 0.5206546783, 0.3331961930, 0.2897248864,
    0.5889063478, 0.3342537582, 0.4074307978, 0.8626961112, 0.5040603876, 0.3631352484, 0.5666637421, 0.3425384760,
    -0.0332585499, -0.0980140194, -0.0561574437, -0.1771215498, -0.3175273538, -0.2213053703, -0.2164645791, -0.3675397635,
    -0.2322039902, 0.9263244271, 1.0870311260, 0.3880304396, 0.7167812586, 1.1224716902, 0.7074718475, 0.3945209980,
    0.5789924264, 0.4027585983, 0.5735239983, 0.0670444667, -0.3048105240, -0.7042129040, 0.0967230871, 0.8301923871,
    0.6101512909, 0.0515271388, -0.3515364826, 0.2725695074, 0.4505000114, 0.3536486626, -0.3603042960, -0.9369196892,
    -0.5166347623, 0.0654527098, 0.4733889699, 0.1821189672, -0.6393125653, -1.5149364471, -0.6513428092, -0.7639040351,
    -1.8439331055, -1.0898792744, -0.3060534000, -0.7990361452, -0.7031846046, -0.6107788086, -0.9600756168, -0.6179307699,
    -1.1096042395, -1.3992897272, -1.0604896545, -0.6221429706, -1.1939547062, -0.7102019787, -0.3378507197, 0.0491186641,
    0.3654011786, -0.5651218295, 0.1895283610, 0.3811980784, -0.6173179150, 0.2604436874, 0.4028143585, 0.1207926273,
    0.4459258914, 0.2072810382, 0.1907801479, 0.4844161570, 0.2773488760, 0.0467313789, 0.2444683909, 0.1680092812,
    -0.1199695766, -0.1908314973, -0.1006263494, -0.2013151795, -0.3567516208, -0.1930143982, -0.1142611206, -0.1996597648,
    -0.1291556656, -0.0173172466, -0.0217701867, -0.0392132886, -0.1515849829, -0.3499034941, -0.2174859792, -0.2689808309,
    -0.4976757169, -0.2448741347, 0.3899230361, 0.8510001898, 0.3676321805, 0.6905257702, 1.4303542376, 0.8975191712,
    0.6927298903, 1.2443976402, 0.6527119279, -0.2808226943, -0.4853847027, -0.2889249027, -0.4251145124, -0.5891582370,
    -0.4442683160, -0.2208588123, -0.4809200168, -0.2005813569, -0.0691762641, -0.1674207598, -0.1161771789, -0.2403927147,
    -0.3544964790, -0.1737781316, -0.1473003477, -0.2067913115, -0.1054024249, 0.1268294752, 0.3211457133, 0.1600885689,
    0.4999339581, 0.7052981257, 0.3896006048, 0.3992210627, 0.5705724359, 0.2698874474, 0.5637628436, 1.0319875479,
    0.5519080162, 0.6043413877, 1.0447112322, 0.6589145660, 0.0373892598, 0.1086951792, 0.1157208532, 0.4005002975,
    0.5906546116, 0.3882351220, 0.4557876289, 0.6797767878, 0.4509488940, 0.2871277332, 0.5009484291, 0.3038789630,
    0.4913629293, 0.7532952428, 0.4100982547, 0.3921473622, 0.5660458207, 0.2669213712, -0.1900188923, -0.1809855700,
    0.0280098096, -0.1575565934, -0.2468247265, -0.2087137401, -0.2397855073, -0.3928041160, -0.3110028207, -0.1563208103,
    -0.3007527888, -0.2054049820, 0.2714871764, 0.4430158734, 0.2430146784, 0.3299004138, 0.5155861974, 0.2899274230,
    0.2289524972, 0.4294241071, 0.2025844455, 0.3887885213, 0.5620386004, 0.3626105785, 0.0616020858, 0.0638177916,
    0.0573730543, -0.3311307132, -0.4692965150, -0.3304654956, 0.1007930636, 0.2255855203, 0.1096031442, 0.3513753712,
    0.6695225239, 0.3018743694, 0.2804939747, 0.5357781649, 0.2014601082, 0.4138123393, 0.7872027755, 0.5112252831,
    0.6476832628, 1.2379117012, 0.7188771963, 0.2441824526, 0.4297168255, 0.2323528230, -0.2977356315, -0.5363216996,
    -0.2727029920, -0.5267946720, -0.7382679582, -0.4256287515, -0.4097504914, -0.5552547574, -0.2502056360, -0.1935228705,
    -0.3561114371, -0.1444328874, -0.2232233584, -0.4887813330, -0.2609176636, -0.1605461985, -0.2845558822, -0.1535775363,
    0.1162155569, 0.0383001380, 0.0788309574, -0.1712610573, -0.2518916726, -0.2046858519, -0.2687318623, -0.2897524834,
    -0.2674137354, 0.3452629745, 0.6487038136, 0.3270951211, 0.2729618251, 0.6308782697, 0.2773813605, 0.0908928216,
    0.2472499460, 0.1034199074, 0.2545276582, 0.5995831490, 0.2362895906, 0.4884190261, 0.7066490054, 0.2348735929,
    0.2282603383, 0.6446310282, 0.0883347392, -6.3636856079, -14.2081336975, -6.3617715836, -14.0733623505, -23.9575557709,
    -11.3049602509, -5.0791001320, -11.2883539200, -3.5205056667, -0.1631244421, -0.2787610292, -0.2236638963, 0.3425718248,
    0.5641847849, 0.1921943277, -0.1610854119, -0.2690467238, -0.0809864104, 0.5092479587, 0.9351821542, 0.5496687889,
    0.0746631846, 0.1918599606, -0.0203787070, -0.7133886814, -1.0570782423, -0.7060939074, -0.1000565439, -0.2524372935,
    -0.0841330215, -0.3058440089, -0.4969228208, -0.1553874165, -0.2826015353, -0.4318204820, -0.1386880875, 0.4909737408,
    0.6628382802, 0.4064371586, 0.7314736843, 1.1306318045, 0.7883651853, 0.8533558249, 1.1234344244, 0.7562430501,
    0.2081486434, 0.3556179106, 0.1662753373, 0.4803487360, 0.6251792312, 0.4133094549, 0.3731458783, 0.4940974414,
    0.2936414480, -0.1495268643, -0.2133098990, -0.1141729727, -0.1120514721, -0.1707783639, -0.1109347120, -0.0444764830,
    -0.0822946057, -0.0465164147, 0.2818658948, 0.6841131449, 0.2201474458, -0.8281677961, -1.8818627596, -1.1964337826,
    0.5055665374, 0.8836092353, 0.5193473101, 0.6098610759, 1.1712694168, 0.7594271302, 1.1130433083, 1.8686605692,
    1.2083272934, 0.4846873283, 0.9608670473, 0.5712969303, 0.2275144607, 0.4665540755, 0.2816994488, 0.3474430740,
    0.6332365870, 0.3562682569, 0.2192378491, 0.3048149347, 0.1961448044, 1.8619320393, -0.4356979132, -1.5189349651,
    1.4737745523, -0.0435544886, -0.9391888976, 1.6290737391, -0.6074737906, -1.4481562376, -0.1439779103, -0.2683471143,
    -0.2409620285, -0.2641884983, -0.3767053783, -0.2646462023, -0.1876418889, -0.2531430423, -0.1894630343, 0.1920724362,
    0.3673453331, 0.2345890105, 0.3878224790, 0.7883189321, 0.3931121826, 0.2031322271, 0.4614119232, 0.1463116854,
};

static float para_convdw3x3s2_4_bias[64] = {
    0.9052358866, 2.1754999161, -1.7957077026, -0.0966304541, 3.8335549831, 3.6075160503, -4.1111845970, 3.5322403908,
    -1.1163312197, 1.2065343857, -1.9352221489, 1.2818186283, 3.0154540539, 1.1324710846, 2.6728241444, 2.3303167820,
    -1.6064095497, 1.7765924931, 2.0452203751, -0.7268680930, 4.3311114311, 3.0529675484, 0.5118995905, 1.3216317892,
    2.8143870831, -1.1246775389, -1.5623941422, -1.1805781126, 0.0272978544, 0.2816929221, -1.0740021467, 2.3687553406,
    3.6611423492, 5.1858215332, -1.6121575832, 2.2190763950, 2.2844057083, 0.9405695200, 1.9361869097, 1.6869364977,
    0.4442590475, 3.7689857483, -0.0354499519, 2.1207535267, 2.3075819016, 1.7506217957, 1.8971198797, 3.0811893940,
    3.5211608410, 1.0618646145, -0.0932882428, 1.3213467598, -0.6971212626, 1.9837932587, 4.3312063217, -0.6486403942,
    -1.1011106968, 3.4812970161, 0.1100236773, 2.7097499371, -0.0871433616, -0.8996472955, -2.1303012371, 0.8669888377,
};

static float para_conv1x1s1_dd_4_weight[1536] = {
    0.0034000680, 0.2616572380, -0.0488654338, 0.0216867849, 0.0204800069, -0.1809026152, -0.0424653031, 0.0437173732,
    0.0138287274, 0.3101238906, -0.2977783978, 0.0683189183, 0.2257754207, 0.3212236166, 0.3501910865, 0.1886290908,
    -0.0770980492, -0.1864932775, -0.0487587713, 0.1116294339, -0.0327929817, 0.2171927691, -0.1588918120, 0.1176819280,
    -0.0672785193, 0.1355751306, 0.1007692963, -0.0682947338, -0.0043430538, 0.0735488087, 0.3763767779, 0.0085736308,
    -0.0029528171, 0.0311065149, -0.3982481658, -0.0097843036, 0.1217132732, 0.0292640906, 0.0482402146, 0.1389401853,
    -0.1235506684, 0.0625403449, -0.0260938294, -0.4799928963, 0.1529700607, -0.4308389723, 0.0132082487, 0.2343029976,
    0.1770289838, -0.1122622117, 0.0682201311, 0.3027957976, 0.1426755339, -0.1418123990, -0.0837423354, 0.0744108260,
    0.3429262638, 0.3383207917, 0.0432688743, -0.3152774274, -0.2478213459, 0.1569373012, -0.2062895298, 0.1951554120,
    -0.0122909443, 0.0394903608, -0.1285706013, 0.1742667258, 0.1540158093, -0.1808465719, -0.1652403772, -0.0859719440,
    0.2804475725, -0.2463001460, 0.0382927395, -0.1466109455, 0.1585404873, 0.1096929535, -0.1833627224, 0.0276137292,
    -0.1043847948, -0.3957917094, 0.3098508418, 0.2408644259, 0.3260358572, -0.1994886845, -0.0933653265, 0.0504082032,
    -0.1637810916, 0.2549703717, 0.0648076087, -0.0480786934, 0.3841311038, -0.1474328488, 0.2253442854, 0.2904502153,
    0.2448817492, 0.0076598036, 0.0701700076, -0.2902721167, 0.0270253271, 0.1327069849, -0.1345196515, -0.0429129936,
    0.1819613576, -0.3085635304, 0.0035062893, -0.1177086160, 0.1524454057, -0.1564788520, 0.5463124514, 0.0273341481,
    -0.0445882380, -0.1648609936, 0.1829146147, -0.2804873586, 0.3590480089, -0.1141562909, 0.0210237149, -0.1058115587,
    -0.1122313961, 0.1107328013, 0.1848365217, -0.0198698062, 0.1649885476, -0.0378458723, 0.1889112145, 0.1388702840,
    0.0419807062, 0.0474810973, 0.0643224493, -0.1452663690, 0.1706536263, 0.2806539834, 0.1966950595, 0.0978971198,
    0.0166488849, 0.1719533801, 0.1435990185, -0.1075945050, -0.1289835870, -0.0490931123, 0.0996767059, -0.2409636825,
    0.2078407705, -0.1183009967, -0.0744646639, 0.2119354457, 0.0577062666, -0.0682000071, -0.0375728570, -0.2151714563,
    -0.4912728965, 0.4814002812, -0.3060966730, -0.0185732283, 0.0994003117, 0.0181150604, 0.1438848525, -0.0025035772,
    0.2260319740, 0.0576507859, 0.2092550248, -0.2597765028, -0.5184761286, 0.1419474781, -0.0887062699, -0.2757019401,
    -0.0763014108, 0.1932009906, 0.0160196386, -0.2365490645, 0.3248372376, -0.0805935711, 0.1068132669, 0.1783621162,
    0.3111193776, -0.0390997566, 0.1429734826, 0.5395756364, -0.0524698608, -0.2283470035, -0.2421037257, -0.0437382758,
    0.0321599431, -0.7629981637, -0.0792846754, -0.2012994587, 0.0058296267, 0.1489962786, -0.2894100547, -0.1088072434,
    0.0609803535, -0.1383773386, -0.0407441370, -0.0445387624, -0.3052925169, 0.3015101254, 0.2154674083, 0.0741380081,
    -0.0846920013, -0.3070012927, -0.0342444554, 0.3158822954, 0.3766345084, -0.2037416548, 0.2312394828, 0.4534240961,
    -0.1492107213, -0.0053046374, -0.2139072567, 0.3076689541, -0.1258854568, -0.1676020473, 0.1630228013, 0.1886262447,
    0.3270725906, 0.0217822976, -0.0713542253, 0.2783928514, 0.0771098733, -0.2204983383, -0.1583185345, -0.0113316225,
    -0.3575417399, -0.1852603704, -0.0868007094, 0.0645291731, -0.4263883829, 0.0502575412, 0.1811495125, 0.1804033518,
    -0.0445803069, 0.3377242684, 0.1780770123, 0.3967459202, 0.0932692140, -0.1811713427, 0.0006362403, 0.4809873104,
    0.3860876262, -0.1474166363, -0.0979135260, 0.0037647714, -0.2655291259, 0.0157696605, 0.0405461229, 0.0065666749,
    -0.0352512561, -0.0884033665, -0.1381922066, 0.0407928005, -0.1427514404, 0.0829692557, 0.0741876587, 0.0285054557,
    -0.1062468365, 0.2511316538, -0.2596961260, -0.1403780878, 0.1514706910, -0.4735154510, -0.3230715990, 0.1221066490,
    0.0748794302, 0.0522883050, 0.2363677919, -0.2765428722, 0.6604691744, -0.1996828914, 0.1394132227, -0.2092300057,
    -0.1862404794, 0.1134875491, -0.1108892411, 0.0061407401, 0.2123138160, -0.0150555605, 0.2856064439, 0.3873190284,
    -0.2727835178, -0.1230544969, 0.2208505571, -0.0154201305, -0.4699200690, 0.0045242207, 0.0656744689, -0.1190507561,
    -0.1541657746, 0.0768896118, -0.2974550128, -0.4422318339, -0.1370111108, -0.0824801400, -0.0628282577, -0.1682972908,
    0.1577833444, -0.1222554520, 0.2397211790, -0.2313121706, 0.0696212724, -0.1387712657, -0.0860964507, 0.4338362813,
    0.0694090202, 0.0575120412, -0.0129827103, 0.1112153456, -0.0700166225, -0.2091167420, -0.3215238452, 0.1895970851,
    -0.1042140946, 0.0816235468, 0.0321369991, 0.0108924545, 0.0727658197, 0.0705734789, -1.8381497860, 0.0400901958,
    -0.1109183356, -0.0063765463, -0.0291394237, -0.2487898171, 0.1426403672, 0.1277133822, -0.2173091322, 0.0929729342,
    -0.2425471544, 0.2733397782, -0.2063930631, 0.1472599506, 0.0265773050, 0.1043414474, 0.0458310507, 0.0422679931,
    0.1392032355, -0.2583893239, -0.1645796895, 0.3109247684, -0.0741919875, -0.1567014307, -0.0980549455, -0.0190421157,
    0.0793722942, 0.0234866310, -0.2002188265, -0.0686887801, -0.1447501779, 0.2077869624, 0.1872979701, 0.1678279936,
    0.0967746153, 0.0947305858, 0.6487618089, -0.0216131173, 0.3016104400, -0.3967056572, -0.0310850944, 0.1895296723,
    -0.1954566538, 0.0931247175, 0.0756115988, 0.0187028795, -0.0348044150, 0.1507565230, 0.0829411149, 0.2615467310,
    0.0966462865, 0.0056585995, -0.1145032719, 0.0326254852, 0.0233363751, -0.0996982083, 0.4163027704, 0.0937823281,
    -0.2588376999, -0.0567897633, 0.0609180145, -0.2063631713, 0.0467942469, 0.3116705120, -0.8984968066, 0.3816242516,
    0.1172705293, -0.1215756088, -0.2007049024, 0.0762505904, 0.0842773467, -0.0278959814, -0.2878558040, 0.2333550602,
    -0.1463572830, 0.0839306861, 0.0015493865, 0.1258635521, -0.0221685134, 0.2151573598, 0.3454329073, -0.2467733622,
    0.1945445538, 0.1890201122, -0.0237804260, 0.2221117020, 0.3155424297, -0.0771470442, 0.0752825439, -0.2977904975,
    -0.1473013014, 0.1305067837, 0.0745685846, -0.2383774072, 0.0160110313, 0.0206514262, -0.0988211185, 0.1111713722,
    -0.0621894449, -0.1260010749, -0.0134717561, 0.0682209656, 0.3445238471, 0.1754720062, 0.0721857697, 0.0022362531,
    -0.0786955208, 0.4200489819, -0.0016113122, 0.1600486189, -0.0934110805, -0.2207674980, -0.1564537883, 0.1586376578,
    0.0638254806, 0.1073910967, 0.1371485442, -0.0367567092, 0.0059071365, -0.0548787415, -0.2980411351, 0.4511060417,
    0.3234783113, 0.0775156841, 0.1628508568, 0.1205239296, -0.0103765829, 0.0332784280, -0.0184534658, 0.2577953637,
    -0.1980166137, 0.0118274540, -0.0348263830, 0.0646205470, -0.0636993125, 0.0038960550, -0.0671502650, 0.4097438157,
    0.1434462667, -0.0200599339, 0.0508745648, 0.0385323726, -0.0872219205, -0.0511409678, -0.1364494264, 0.0296063758,
    -0.1081569940, -0.0167177804, -0.0210512578, 0.0233716462, -0.2452999204, 0.0005243276, 0.1270293742, 0.1310462356,
    -0.0644123256, -0.0276707280, -0.2881754935, -0.1349938810, -0.1643552184, -0.2430837303, 0.1348378807, 0.1483451873,
    -0.0826532096, -0.3797239363, -0.1049007475, -0.3109513521, 0.0574343391, 0.0355651975, -0.0609988086, -0.2780438066,
    0.0062650931, -0.0432834551, -0.1950831413, -0.1288693249, -0.0464998260, 0.1543758214, 0.0238345042, 0.0372650549,
    -0.0158608947, 0.4977207482, 0.3696615398, -0.0783028230, -0.0832482427, -0.4082863331, -0.2291985750, -0.2001693994,
    -0.2150722146, 0.1046262085, -0.0739942864, -0.2760580778, -0.0968857259, 0.3524724543, 0.1655016243, -0.0565536581,
    0.0117490888, 0.4121308625, -0.4509272277, -0.0466236062, 0.1985001713, -0.0797065720, -0.2572875321, -0.3580478728,
    -0.1865513176, -0.1672446728, -0.2074715346, 0.2884705365, -0.1024508998, 0.0661794618, 0.3196645975, -0.2250901461,
    0.3138015270, 0.0732278228, 0.1400012821, 0.3569779992, -0.2217845917, -0.2891477942, -0.0172638670, 0.0167349540,
    -0.1256501079, 0.1623896658, 0.4951790273, 0.2709341347, -0.2119054049, -0.1530745029, -0.3623046577, 0.0102443695,
    -0.2759321332, 0.0417142175, -0.0957329646, 0.0173188299, 0.1206270382, -0.2985385358, 0.0710662380, -0.0715323836,
    0.4817193449, -0.1615929753, -0.2069988102, 0.1442796141, 0.1582828611, 0.0122615527, -0.5206905007, 0.0606149472,
