#if 1
static short featrues_deconv1_weight[36] = { 
-1227, 2974, 1396, 1510,
318, -5911, 2260, -6202,
-12136, 9570, -15110, 7292,
1218, -16623, 9189, 8087,
-3393, 6271, 222, 3601,
1817, -6096, 3969, -4112,
-3657, 3285, 428, -1529,
1433, 8422, 3595, -4690,
-15425, -4380, 32714, -8586,
};

static short featrues_deconv1_bias[4] = { 
32743, -29121, -1329, -26960,
};

static short featrues_deconv2_1_weight[144] = { 
-5441, -8827, -2099, 8264, 13938, -5888, 662, 1697,
-3537, -2335, -2455, -2762, 3356, 116, 2347, -2920,
11055, -5160, 998, 1438, 1921, -5921, -2251, -17032,
3872, 4279, -4743, -3884, -1604, 3616, 2269, -11686,
-5662, -413, 85, -2829, -2203, 3133, -3311, -5061,
11369, -4859, -9039, 16477, -7558, 57, 1754, 1290,
1641, -5395, 10701, 2474, -18577, 32732, 1845, -6436,
250, 1324, -2580, -5746, -904, 1287, -3422, -318,
-7854, 3011, -3629, 5321, -5013, -9521, 4229, -8872,
-769, 1701, 264, 14199, -653, -233, -2334, -360,
-2135, 1996, -4911, 1914, 436, 441, 1707, -2216,
-1132, -340, 1712, 1481, 2831, -1899, 2587, -3622,
923, 283, -3730, -1022, 421, 2522, -1375, -2776,
641, -437, -1612, -644, 2292, 9365, -4483, -12589,
6968, -2040, -5517, 3, -6109, -8474, 5912, -6997,
-14309, 15910, -11233, 18310, -16186, 1053, -1173, 16220,
-8110, 11366, 10718, -2451, -9784, 7261, -6815, 31672,
14394, -3209, -14913, -16858, -6353, -8980, 9531, -8780,
};

static short featrues_deconv2_1_bias[4] = { 
32752, 18720, 1294, -21849,
};

static short featrues_deconv2_2_weight[144] = { 
3340, 15828, 7687, -6274, -15423, -21323, 4785, 5505,
16033, -16270, 5720, -11610, 13124, 5558, 5351, 1416,
-5580, 7521, 5494, -24135, 16459, -10898, -6678, -2173,
-1650, 12941, 1164, -4442, 4182, -24948, -4963, -12954,
12008, 4186, -20469, 16407, 7763, 9703, -3985, -2528,
-22061, 10945, 1943, 19999, -7153, -11756, 3796, -4047,
-10276, 7379, 3889, -8577, 642, 635, -1795, 13970,
6649, 3305, -8906, -7151, -883, 10989, -47, 1635,
-2975, -6221, -1563, -4943, 6432, 3048, -17468, 14014,
2902, -2767, 2102, 6492, 311, 9789, 13209, -5816,
-2055, -2677, 454, -4186, 26128, -32751, 1084, 190,
-7344, 4221, 12077, 8680, 10907, -4929, -6204, -21520,
5657, 14230, -23192, 3081, 6930, 10825, -5705, 1557,
3384, 1350, -19781, 15408, -8232, -8702, 12022, -680,
-9342, -7426, -1429, -10307, 3966, 14066, -1517, 567,
-2658, -6931, 7634, 24961, 8998, 5301, -4025, -15591,
-9677, 14930, 8640, 658, 4040, 7117, -4525, 2004,
-13673, 1520, 7913, 1481, -23715, 15878, 27229, -23241,
};

static short featrues_deconv2_2_bias[4] = { 
12673, -32755, 7292, 8874,
};

static short featrues_deconv3_weight[1152] = { 
-1580, -314, -1195, -3587, 11025, 739, -109, -1054,
5287, 4742, 4407, -3643, -200, 7676, -753, -693,
-1181, -4569, -2341, 711, 11935, 4332, 3638, 2146,
98, -4017, -4937, -14520, -4897, 2336, -458, -2233,
-3837, -1588, -3559, 8350, 3668, -6937, 8894, 321,
1624, -3013, -818, 6160, -7873, -2667, -2322, -1979,
3689, 222, -7638, -5698, 4377, 7460, 4681, -6071,
12206, 5427, -315, 7064, -955, -877, -3738, -8186,
-2017, 4961, 1654, -131, -524, -2747, 2890, -10253,
371, 18218, -7122, -6118, -452, 1397, 9170, -18984,
-2805, -6157, -4327, -7763, 1902, 4123, 6510, 9734,
10892, 4406, -2377, 3686, 10786, 4139, 7849, 5934,
11752, -6645, -12672, 13250, -3685, -1952, 16330, 9079,
17437, -6516, 14052, 8989, -8121, 787, 2369, 7779,
-8515, -4588, 2060, -3064, -4017, 1074, -4856, 2283,
11831, -18979, -3643, -3775, -3746, 4103, -6071, -2817,
2378, -3799, -6236, -10515, -448, -4317, 5741, -1473,
-3366, -3666, -1230, -3389, 4258, -2393, 73, 10460,
-10281, 2870, 7449, -6799, 15191, 5012, -5895, 5747,
4754, -1975, 2117, -3159, 6746, 5370, -4878, 732,
7471, 7230, -3520, 1017, -370, -2592, 8011, 2349,
989, 11350, -4301, 5278, -4264, -2912, -2393, -3158,
-1469, 14034, -3714, -3560, 3268, -9443, 4424, -2148,
-5213, -6414, -4528, 3313, -11528, -4109, -14589, 2858,
10800, -9949, -1535, 2746, -4494, 3902, 6095, -9142,
8260, -8456, -4965, 10321, 7021, 2551, 4423, -7872,
-153, 3357, -11361, -13782, -5293, 6397, -2616, -2608,
-2346, -5913, 1243, -3178, 69, -4404, -4339, -7854,
-7110, 2598, -405, 3173, 8895, -5296, -3, 3649,
775, -603, 6780, -7794, -5952, 1410, -7159, -1033,
-3703, 1551, 2403, 5794, 3583, 2215, -617, -9865,
3181, 4377, -6681, -7642, 2167, -1452, -4674, 1826,
-1453, 6539, 258, 2838, -1781, -2248, 2455, -3412,
-6536, -7235, -5473, 2724, -3460, -4362, 865, 178,
-9891, -3311, 3108, -13143, 2970, 1274, -862, 537,
-4230, -3351, -5149, -6258, -2067, 2210, -5305, 1032,
8159, 440, 1330, 7870, -15893, 3248, 15612, -4526,
3862, -1626, 9988, 1438, -6586, 281, 1609, 4369,
7435, -672, 10372, 2828, -3831, 6428, 7594, 3855,
15342, 10750, -3223, 8807, 8510, 2369, 8249, 4418,
2517, -4850, 6644, 3678, -3691, -2598, 7183, 13628,
-1147, -5939, -2122, 1784, -1074, 6906, 5554, 3367,
4287, -1039, -10190, -2764, 5535, 971, -4485, -2177,
1800, 7259, 4501, -4761, -3431, -4647, -2031, 3900,
6294, -4736, 5405, 11665, -3006, -1731, 1631, -7767,
3170, -4244, 3510, 7981, 733, 1370, 3908, 4404,
1344, -8113, -6632, -1458, 3621, -5332, -3891, -1858,
-2299, -1442, -632, -10124, -2319, 672, -5855, 609,
676, -3870, -1352, 2079, -4644, 16432, 1128, -10719,
369, 5339, -4561, 1303, -4043, -3609, 846, -1438,
-1145, 7716, -1261, 132, -744, 2804, 2683, 704,
-326, -4022, -2007, -958, 2165, 2320, -1777, 2775,
-7059, 805, 4893, -1033, -846, -157, -235, -3661,
-4043, -3931, -524, 4151, -4986, 2472, -5271, 2571,
11905, -5769, -340, -9056, 25251, 11396, 3709, 3807,
-3967, 7631, -16222, 2383, -1312, 2896, -8, -1355,
2761, -1325, 1890, 2819, -27623, -8635, -10486, 4768,
-354, -11221, 12069, -8206, 1610, -6607, 1039, -27383,
-10558, -7283, 8905, 8027, 4257, 4739, -1891, -6508,
-16988, 11424, 2659, 6355, -5516, -8686, 327, 21395,
16507, -4280, -8637, -13928, 2168, 11411, 13781, 10090,
6212, 798, 2136, 3891, 3494, -2077, 3349, -10936,
-2235, -6838, 4323, -120, -1, 565, -6955, 5710,
3554, 6284, -7064, -22487, -23479, -2126, 2161, 7668,
133, 6403, 5173, -3813, 3858, 3439, -899, 721,
3177, 6302, 1872, 6876, 7650, 1280, -9229, -2375,
7374, -1781, -1244, 3275, -5893, 9293, 7538, 11905,
3311, -20347, -14597, -1951, -15553, -12661, 1701, 13182,
4179, 2469, -13625, -3064, -1751, -4294, -132, 173,
1915, 1829, -3527, 2673, -9708, 4025, 4474, -1052,
-7619, -5362, 6434, 15003, 324, -3802, -4378, -10234,
3676, 4303, 4911, -2757, -8611, -7, 1033, 309,
14707, -6301, 1537, 260, 14475, -3514, -32750, -19137,
-1929, 4400, -1552, 7189, 8656, -11616, -5312, -9383,
6176, 2781, -7168, -6682, -4494, 9411, 17817, 8616,
-4079, -8333, 14927, -15163, 2110, 13342, 7689, -9307,
-4695, 2369, 4311, 15387, 1123, 6214, 1001, -4964,
-10066, -910, 4384, 1585, 4805, -1952, 3721, -9463,
-16484, 5564, -2835, 7498, -8509, 3525, 2716, 8294,
4968, 4725, -2480, -2447, 779, 2770, 10815, 1953,
-3096, -6831, -14265, 14480, 554, 7564, -9978, -9889,
-184, -1575, 1864, 1202, -9172, 320, -161, 244,
-383, 3186, -172, -1106, 1628, -1911, 954, -4543,
-491, -1721, -360, 11088, 7360, 7077, 10195, 6426,
-697, 14349, 13083, -8464, -8085, -1832, -15437, 8177,
6937, 10472, 3884, 5546, 4508, -2761, 1190, 252,
-1775, 2161, -2735, 345, 2142, -3369, -8179, -2109,
-15179, -4601, -157, 10479, 8055, -1760, 2600, 3897,
2317, -4148, -1005, 1246, 258, 2770, -248, -5926,
-1972, 4355, -1857, 190, -8733, 3359, 268, -611,
-7992, -4169, 5879, -12330, -145, -7151, 1242, 1732,
-4416, -3859, 8663, -4076, -4868, 5434, 2802, 770,
2597, 3172, 1879, -9636, 369, -3275, -14433, 4901,
-2010, -3041, 1371, 6008, 1410, 9120, -5012, -7616,
14191, -3599, -14450, 3307, 10161, -10225, 2190, -1364,
8533, -3236, -639, 4601, -2272, 1832, -1755, -1092,
-109, 3736, -8478, -4383, -3720, -1969, 13380, -9354,
6309, 2799, -3996, 5999, 898, 3217, 258, -3678,
-3955, 8992, -5411, -7582, -8723, -5119, -8798, -240,
2353, 6476, -1580, 12986, 4154, 240, 2191, -54,
-2176, 1555, -7375, 1803, -498, -10761, 8332, 3166,
4260, 4081, 7084, -13703, -5194, 9614, -1617, -4792,
4802, -4763, -2954, 1257, 521, 55, 2481, -9051,
127, 3499, -3812, 2024, 1377, 5323, -932, 475,
-9105, -1748, 2194, -8321, -1741, -1183, 6862, -7214,
-15115, 8439, -1300, -5327, 7079, 1176, -15178, -2222,
3731, -7011, 2780, 5959, 1056, -3468, 2594, 294,
-8383, -4707, 2121, -3151, -7830, -3709, -5090, -5112,
1961, 6705, 2056, 13722, -22742, -6352, 2990, -27925,
-15162, -5415, 4061, 1209, 14172, -16209, -6542, 5608,
-9210, 1486, 4587, 2504, 21580, -7869, -16985, 8734,
-184, -16792, 10413, -476, 483, 6544, 3386, 9996,
-5292, 1982, -15635, -12604, 1147, -3898, 11445, 388,
4314, 403, 10087, -5574, 2725, -3779, 10105, -2269,
-589, 644, -14191, -1980, -62, 4355, -124, 1648,
-7478, 380, 10679, -14288, -9001, 6031, -21680, 2032,
-4469, 11361, 8420, -7083, 9733, 8123, -8635, -4527,
244, 5099, 1038, 1258, 3591, 3221, -8741, -18666,
-6677, 1136, -2240, -6632, 10565, 2340, 1806, -3841,
10, 272, -5812, 661, 7732, 8913, 20789, 7118,
-5253, -16175, -1578, 4309, -554, -913, 3422, 3580,
15494, -468, 6358, 5420, 4624, -16, -1945, -5828,
-639, -2842, 12083, 12345, -3189, 4386, 4193, 6769,
1778, -1110, 3533, -2225, -569, -4041, 598, 2490,
1626, 3082, -3106, -5521, -553, 1017, 679, 5805,
-9172, -4648, -3487, -2854, 10387, -200, -7023, -13617,
6778, -12407, -644, 1343, -13936, -2833, -3255, -10534,
6232, -1057, -1368, 1231, -3470, 4801, 11000, -8141,
3253, -6394, -2772, -9595, 3488, -2026, 327, 4627,
5489, 343, 6862, -7286, -5090, 8997, 681, 1071,
-5486, -15088, 12876, 9811, 556, 1861, -1667, 7361,
1925, 5512, -2831, 11048, 2187, -4839, -3293, 723,
-4682, -6899, -2320, -4833, 5723, 317, -2865, -1335,
5969, 4791, -19708, 2549, 2766, -4912, -8660, -4118,
-4434, 1823, -1655, 921, 418, -1517, 11028, -18161,
1079, 2040, -1437, -9415, -8153, 115, -1806, -647,
-1174, 2397, -2251, 701, -2909, -1841, -94, 537,
1877, -2867, -8024, 4034, -1241, -2178, -4694, -5726,
-10234, -14501, -833, -1924, -3635, 3025, -8164, 7244,
3370, -2992, -10905, -7536, -3649, -98, 1595, 594,
-2680, -790, -3774, 153, 1445, 1115, -648, -783,
-3160, 2976, -267, -886, 1352, -178, 2416, 2335,
1499, 4252, -2492, -6222, 889, 4320, 1134, -3329,
-305, 3614, 330, 2797, 79, 374, -925, 1985,
};

static short featrues_deconv3_bias[16] = { 
-2293, 6455, -2790, 19868, -11744, 7404, -775, 12924,
5459, -6860, 24106, 3045, 11765, 9910, 10099, 32712,
};

static short featrues_deconv4_1_weight[144] = { 
3487, 2243, 1837, 5339, 14457, -3066, 412, -30714,
3505, -1435, -6, -3257, -1017, 2483, -26717, -2247,
-5014, 1461, -1410, -6189, -287, -3831, -17993, 536,
-2862, -2967, -1749, -5986, -5308, 3240, -14278, -1174,
11979, -10347, 6213, -553, -1436, -1368, -17943, -2550,
-393, 23837, -743, -5575, 7023, 1662, 5363, 4074,
-2156, -27517, -1305, 1756, -2300, -6281, -2070, -1736,
-1556, 4230, 6512, -2930, -2893, -27690, 802, 2814,
-3696, 1181, 1084, -28494, -1570, 391, -393, -326,
4734, -2698, 536, -290, -32739, 4471, -149, 1303,
1085, 636, -2662, 7590, 1664, -2329, 2704, 1754,
3713, -26227, 2570, 3806, 1577, -3001, -5176, -66,
-4025, -28178, -849, 1255, 11912, 6158, -87, 19886,
16754, -1123, 14124, -2983, -10675, 4291, -1925, -9470,
-13193, -3712, -1380, -3212, -892, -1470, 2178, -8982,
-1042, 6767, 31416, -1132, 3561, 4317, 2177, 6282,
-4054, -6721, 31187, 10795, 3176, 3469, 1327, -2280,
28352, 2139, 3293, -19866, 852, 1379, -58, -382,
};

static short featrues_deconv4_1_bias[16] = { 
32759, 4440, 11906, 4471, -6846, -7667, 2142, 1764,
638, 23270, -16980, -12323, 1947, 23058, 11258, 30154,
};

static short featrues_deconv4_11_weight[256] = { 
6588, 2536, 3882, 12193, 2314, -14866, 1302, -1938,
839, 12119, -9941, 3397, 9766, 1324, 2094, -1764,
3963, 11755, -12316, 13430, 3270, 13329, -6318, 3430,
849, 6003, 2412, -47, -8822, -26261, 1588, 9153,
2273, 5053, 9002, -9482, 11471, 1833, -1004, 5714,
1415, -14281, -2422, -5582, 2451, -10002, 1845, -2987,
4414, -1854, 1424, 5200, -3225, 3179, 3529, -7736,
-14380, 2349, -17167, -5623, -1227, 3779, 5352, -3484,
-24134, -3758, 754, 4373, 4292, 6749, -621, 2972,
-7516, 6375, 1516, -1797, 6981, -5590, 4872, -11797,
-3254, -18175, 618, -6226, 6286, -6278, -4392, -5292,
1409, 14546, -2475, 2349, -4961, 14506, -866, 2825,
3705, -11285, -12083, -2594, 20262, 7076, 32749, -2675,
-2050, 9179, -8427, 11509, 3508, -13989, 6164, -2918,
-8255, -2971, -7154, 121, 1141, 5821, 579, -5214,
6770, -2799, 8448, 15093, 496, -13736, -3998, -3712,
13812, 1107, 5031, -2248, -1525, -9929, -4574, -4581,
-5930, 6139, 11405, -3493, -7276, 6633, -1764, -137,
-275, -2861, -9363, -5052, 8456, 3460, 3014, 403,
1786, -8581, -7418, -322, -3152, -525, 16200, -1905,
3750, -9154, 6413, -1814, -4925, -6496, -5426, -14503,
7622, -2514, -7015, -3372, -1434, 1075, -1347, -12663,
4170, -5844, -11353, -968, -3410, 512, -745, -1917,
3367, 7424, 8598, 10521, -5049, 2774, -3330, 6948,
-5126, -2348, 7575, 709, -5076, -17664, -2726, 2563,
-3248, -16076, -2129, -707, 6586, -5462, 2749, 25231,
-4010, -3210, 13003, -15366, -14132, -4829, -3461, -3204,
1861, 1242, 930, -14544, -21583, -3004, -13497, 3557,
1382, -3196, -7716, 832, 2797, -4735, 706, 25007,
-8702, -4037, 4918, -1208, 1227, -1417, 145, 20698,
-925, -3785, -1023, 1171, 3786, 1082, -2941, -4098,
-15855, -4027, -10605, -290, 1477, -3101, 404, -7917,
};

static short featrues_deconv4_11_bias[16] = { 
6108, 32726, 12785, -16857, 16995, -20199, 14137, 22860,
6912, -21434, -1712, -5838, 3192, 7783, 293, -6717,
};

static short featrues_deconv4_2_weight[144] = { 
-5247, -9147, 859, -1423, -13663, 15743, 4763, 4159,
8682, -3719, -4636, -1371, -18194, -29315, -5821, 665,
139, -3951, 223, 2560, 2945, 6061, 24977, 9042,
22022, 8804, 3607, 3512, 20139, -8080, 16300, 12791,
8041, 576, 8307, 4755, -2612, -17221, 3277, -3797,
-21227, 4424, -1834, -14621, -4828, -10739, -2980, -278,
22407, 143, -6136, -6997, 1535, -4573, -5397, -14247,
-112, -17314, -11876, -2457, 751, 885, -3951, 3533,
4119, 3248, 9835, 20890, -4452, 3473, 7841, -1076,
4057, 12844, -8124, 17907, 23560, 1028, 6636, -3700,
-2513, 7760, 27796, 8824, 13404, 2474, 16882, 5044,
12471, 8338, -1055, -10427, -731, -16685, 32741, -8859,
1022, -20981, 1398, -8152, -19895, -13691, -9829, -16880,
-13207, -5764, -10241, -7193, 276, -4469, 1729, 1644,
15177, 15947, 18994, 17472, -7873, 2769, -9678, 740,
-2871, -16686, -2933, -3501, -7815, -11423, -3657, -5113,
-3958, -13936, -17542, -24344, -7361, -19285, -15288, -3450,
3904, 4558, -4336, -15034, -24709, -4647, 1117, 5955,
};

static short featrues_deconv4_2_bias[16] = { 
-22761, -8930, -32759, -30986, -19959, 14452, 17092, 9728,
-15914, 7962, -3708, -23502, 3222, -2186, -14301, 9776,
};

static short featrues_deconv4_12_weight[256] = { 
3079, 11331, 4908, -1639, 16617, 2367, 3875, 1299,
-7873, -9695, 4493, 13767, -3447, 18275, 6071, 25549,
-3059, -21268, 26307, -9736, -4658, -8369, -2845, 3311,
-6244, 3317, -18948, 6979, -7482, 761, -10934, 12263,
-552, -7324, -5808, 4830, -2816, 368, -4837, 6051,
5659, 4274, -1902, -10035, 245, -7224, -7719, -3422,
3405, 5035, 7375, 15080, 25497, 14715, 16777, -1776,
6931, 641, -12789, -13107, -7337, 14439, -19764, 1927,
3863, -19548, -2642, 18635, 4617, -12177, 17839, 12109,
21321, 7177, -6510, -15517, -10277, -11702, -8853, -14664,
-9246, -5174, -10005, -4105, -471, 4088, 11440, -9441,
-3355, 11222, -5362, -6537, -568, 844, 16368, 9584,
1844, 6185, -4115, -18773, 2551, -790, 2594, 1474,
-4426, -7883, -3445, 1020, 8693, 12725, 12888, 3555,
20459, -13095, 2425, 10849, -4598, 9463, 14589, -21632,
5044, 2655, -11011, -1752, -19626, -9130, -5675, -7634,
246, -2360, 8284, -5841, 76, -16225, -225, 4837,
2770, 6936, -23648, 23943, -4789, 273, 5837, 17110,
-9720, 3024, 3146, -1057, -5085, -9654, 8486, -3305,
-2072, -8905, -8370, 10576, 2188, -4097, 4734, 9120,
-11994, 826, -261, -10476, 20992, -12046, 5102, -23515,
-5954, 10745, 3551, 14467, -5136, 3410, 16854, 4704,
10141, 5635, -4654, -906, 3398, 12012, 8986, -11546,
719, -20357, -14073, -3764, 1415, 13798, -1742, -7415,
-2403, -5251, -598, -6657, -7983, -6474, -3007, -2699,
-10100, 12813, -3131, -10022, -10995, -5458, -6709, -273,
2706, -14001, -17885, -15123, -4228, 9551, 12464, -3254,
30424, 3250, -434, 10427, 8756, -55, 12397, -14523,
-14900, -9343, -695, -19265, -11178, 5259, -6647, 32755,
-20208, 14712, 1873, -2621, 7731, -12059, -1760, 6625,
-1378, -4998, -9702, 4407, 15957, -12270, -6214, -3233,
-11864, -3990, 8399, 13290, -1601, 1657, 1666, 5154,
};

static short featrues_deconv4_12_bias[16] = { 
32722, -705, -12168, 9430, -3683, 8563, 3138, 19425,
6256, 9481, 23470, 14225, 10310, -10404, -10037, 10261,
};

static short featrues_resnet1_1_weight[288] = { 
-2934, 6673, 2814, 1085, -12431, -2332, 7486, -7238,
16296, 3161, 6365, -467, 12259, -2353, 8500, -2771,
934, 3201, -14349, -12729, 1303, -9372, -13569, -7902,
-6723, -6094, -2638, 2864, 17422, -9484, 1655, 15678,
1798, 22, -870, -1600, -11279, -7306, -2040, -791,
-16154, -3809, -1306, -1291, 248, -2937, -11724, 3485,
11778, 6366, 367, -14234, 4327, 2287, -1694, 1931,
-4316, 3880, -13649, -168, 3183, 3491, -1464, 735,
1149, -3356, 2692, -21198, 16129, 5597, 2236, -3688,
-2203, 9316, 6742, -1936, 12261, 13101, 313, 1380,
5914, 69, -208, -1454, 2656, -13808, -12568, 470,
-6315, -4955, -1334, 6093, -177, 8352, 711, 6148,
1782, -3167, 5404, -15082, -2795, -5972, -4322, -4210,
-4544, -3911, -7229, -791, 1864, 7331, 1616, 10324,
-17559, 273, 3336, 3505, -3460, 395, 5917, 2651,
5377, 12394, 11270, 3291, -4232, 5863, -2178, -2930,
-1638, -2650, -28246, -3802, 32, -9762, -2, -11323,
5256, -4965, 3974, -17182, -7012, 474, 5513, 12912,
7125, 5543, -9425, 10107, 6901, -18453, 9064, 6774,
-12341, 1583, 8581, 2052, 2076, 19518, -3623, 797,
-1739, -2759, 15828, 23629, 15610, -4772, -16493, -885,
3967, 2510, 6108, 7609, 6075, 3874, 6685, 6006,
5105, 1567, 1425, 212, 5638, 665, 2406, 4290,
10414, 10108, 4770, 15092, 10027, 5058, 13415, 5574,
15889, -937, 10769, 8608, 6903, 6708, 1001, -2909,
-4703, -6054, -17585, -17325, 3444, -2571, 1250, 4420,
186, 3887, -17240, 15429, 6260, -5967, 17287, 4842,
48, 10018, 1901, 8577, 24201, 7556, 1230, 3452,
2465, -1419, 4104, 2933, 10318, -32735, 1483, 9564,
-1667, -8702, 7277, -5877, -2236, 2458, 9304, -12103,
5829, -2558, -3355, -4558, -3572, -3586, -4792, 18990,
1132, -2840, 10079, 817, 9021, -12489, 8905, -2299,
3922, 8597, 9016, 6999, 8854, -477, -18689, -11303,
-14493, 3317, -7693, -10572, -3498, -13605, 339, 677,
-2657, -6878, -9685, -10825, -120, -1781, -244, 1525,
4757, 818, 1145, 20198, 4742, -12390, -2963, -7326,
};

static short featrues_resnet1_1_bias[32] = { 
-15742, -13215, 6800, -7116, 6591, 10618, 12431, 626,
-6642, -10914, -31535, -1990, -7091, 7643, 6049, 65,
-10150, 2975, -3098, -14123, 26338, 7852, 16097, -4214,
-9908, 17484, 696, 19813, -1534, 11654, -1704, -32746,
};

static short featrues_resnet1_2_weight[1024] = { 
1643, -2409, 1486, 9351, -3473, -2057, 433, -1030,
5170, 2843, -676, 4066, -1416, 5082, 79, 853,
1816, 9897, 2903, 1872, 418, -732, -16655, -878,
-5503, 734, 6270, -27, -2131, 986, 4758, 1224,
4480, 555, 8879, 1422, 816, -1093, -4225, -1383,
4977, -2696, -2507, 425, -1802, 4544, 324, -893,
-1376, -1611, -7947, -1221, -3728, -472, 597, -1600,
-4734, 6792, -1515, -2283, 3676, 494, -5626, 715,
4888, -5833, 1246, -3515, 3175, -1449, 4122, 11928,
-4552, 3211, -3688, 9412, -883, 2457, -1917, -3558,
1569, 1083, 3592, -467, -325, 1881, -4451, 690,
599, 3873, -2359, 788, 1126, 268, 1386, 6945,
6605, -2087, 531, -5953, 9883, -653, -4284, -58,
2321, -939, 1121, 2089, 710, 6933, 557, 366,
-2330, 1657, 1397, -481, -3373, -6672, -9464, 5572,
-112, 9318, 6041, -4342, -5649, -2127, 2505, -8030,
2143, -545, -1025, -537, -2827, -1408, 486, -1188,
576, -4094, -4574, -5617, 4816, 3802, -6441, 380,
2780, -4299, 11693, -713, -785, 697, -5552, -2036,
2488, -1984, 1781, 3335, -3634, 2057, 1011, 2561,
-2818, 2152, -3104, 4946, -1629, 7898, 4901, -3510,
-114, -439, -5733, -120, 4738, -1244, -1192, 4743,
-1578, -6719, -843, 718, -239, -775, -1346, 3945,
1978, 5116, -1459, -431, -5311, -2384, -4748, 3233,
1371, -2481, -2173, -1169, 736, 3940, 380, -1121,
-397, -1610, -11312, 3001, 2, -2975, -9819, 609,
973, -2423, -3715, 3935, -2702, 5605, 216, 3857,
-4357, -11774, 2289, -7099, -1964, -2372, -4849, -2689,
-632, 353, -3851, 4903, -4275, -3119, 178, 1613,
3194, 4898, 4330, -865, 3142, -5273, -2247, -2606,
-3317, -1867, -582, -2255, -3179, 174, 4363, -77,
1510, 376, -3550, -239, 2145, 2067, 3206, 8071,
3407, 840, 8273, -1581, 1096, 1334, 554, 1930,
-11018, 10927, -1411, -1888, 36, -1657, 1557, -2253,
-2864, -3821, 860, 2243, 1058, -2216, -4263, -2762,
2944, -3718, -4532, 4783, 3966, -583, -2143, 2314,
8002, -2146, -128, 1781, 858, -3377, -2821, -1324,
-29, 1589, 5126, 2968, -267, 194, 606, 1136,
1668, 20, 2428, 8737, -2752, 7392, 1196, -1556,
421, 4751, -3967, 7493, 3426, -1094, -3503, 430,
2219, 1254, -1408, -3939, 956, 339, 455, -1040,
1106, -9083, -3379, 9004, 1899, -181, -5931, 3541,
3054, -1724, -5880, -3718, 1059, 4202, -226, -2067,
-9236, 457, -742, 2964, 4105, -4967, 740, 2281,
1941, -13085, -2744, 4304, -312, 2109, -1314, -313,
-4149, 3496, -2311, -4099, 1197, 1013, -956, 2265,
-1187, 1707, -4027, -3335, -26, 9330, 3865, -2938,
-6822, -7067, -1173, 3602, 3506, -1310, -4791, 7622,
-1438, 4244, 9564, 4783, 122, -2102, 743, 5565,
4334, 7330, -432, 6666, -2623, -8877, -826, -1073,
3310, 2974, -453, -10147, -5844, -5520, -2751, 473,
-5334, 5809, -10871, -6088, 2298, 524, 6186, 7246,
4242, 1652, 5269, 2699, 2522, -442, -2169, -1429,
4680, 2532, -5742, 2800, 227, -14, 3987, -774,
-930, 4482, -6196, 1236, -4199, -8053, -844, 560,
362, 1292, 1180, -9681, 5142, -3818, 3085, -3424,
-4414, -6848, -2655, 1951, -4932, 572, -4834, 734,
2177, 5944, -5182, 4945, -9872, 3279, -539, 601,
359, -646, 3984, 6745, -3841, 6584, 109, -3553,
1094, -66, -5867, -1472, -1508, -363, -1073, 751,
4471, 1562, -3126, -776, 3670, -2338, 941, 5082,
-1087, 3186, 1398, 1359, 4120, -3288, -1079, -1390,
-7470, -7747, 7754, 661, 2275, -942, -10029, -2572,
5072, -4765, -7317, -225, 5546, 737, 6625, 6540,
2791, 4562, -9067, 5999, 1678, -1177, -3206, -5271,
1062, 886, 8405, -10165, 502, -4242, -2121, 4392,
808, -556, -2389, -3219, -1751, 3706, -1200, 1863,
-4722, -4650, -3059, -935, 1746, -1584, 2188, -2794,
-891, 3713, 1657, -6130, 2531, 390, 2837, 700,
-5634, -5649, 4463, -5354, 2303, -2622, -637, -5255,
3805, -6100, -242, 252, -3204, -3379, 2679, -1195,
6473, -290, -548, 652, 5351, -568, 4479, 6421,
-2145, 1037, 4762, -3910, 9024, 1101, -1668, -2001,
-2743, 1622, 2590, 6457, 1239, -2098, -1324, -1428,
-408, -1393, -1389, -3599, -2939, -1671, 6485, 97,
-4345, -5304, 4278, 2329, 3858, -3389, -3027, -5272,
2022, 33, 1426, -205, -1317, -759, -1865, 2006,
2490, -2438, 3956, -930, 2170, -704, -1108, 193,
-8229, -3089, -348, -287, 1500, -714, -1390, -4487,
1293, 200, -2055, 2052, 3916, 1604, -10, 4059,
618, 1395, 3012, -4956, -2736, -336, 108, -2733,
2373, -2684, 1714, -4394, -2859, 7614, -402, 683,
4032, 3903, -1532, 74, -2824, 913, -202, -2635,
462, 5065, -5680, -1530, 7073, 4722, 1369, 7124,
4096, 6601, -8556, -872, -1134, -7357, 6150, -5542,
-3662, 2032, 9573, -5253, 3640, -391, -418, -484,
2713, 3807, -5126, 8175, -665, 4579, -3815, 1136,
2187, -4331, 292, 3224, 2434, -226, 5670, 5397,
-342, -3376, -2392, -2505, -3196, 2456, 494, -2554,
-1806, -1006, -5624, -2931, 613, 1547, -5215, 890,
487, 277, -13451, 1265, -1465, 4206, 6482, 485,
-8777, -6484, 796, -739, 943, -512, -692, -228,
-384, 1558, 2086, 5689, 1645, 2077, 124, -2394,
-11347, -249, -10058, -978, -1341, 3010, 2421, -5421,
2202, 2764, 644, -366, -4338, -983, -1671, -101,
-1531, -5329, 515, 8540, 2142, -2963, 2955, 1766,
2165, -2299, -5045, -2380, -5012, 95, 161, 1788,
-1061, 1840, -5629, -3559, 1367, -1097, -199, 1192,
2796, -4128, 11741, -2095, 3217, -282, -9171, 391,
5823, -2996, 300, -572, 6543, 3722, 6991, 7523,
502, 36, 2889, 6478, 3251, 1688, 33, -1820,
-1479, 2718, -3840, -3257, -5138, -2545, -11623, 1021,
1156, -5410, 982, -5940, -853, -74, -3292, 3571,
5361, -5756, 1132, -6250, 2565, 1414, 938, 3352,
-7159, -7318, -5392, -1631, 2271, -2315, -1633, 8055,
5444, -5039, -1448, -2219, -2769, -2810, -9859, -2528,
-5683, 4889, 8244, 9257, -32723, 3553, -4267, -9912,
-1806, -10872, -2826, -1444, -11733, -19950, -3807, 18279,
-3655, 3681, 2080, 5155, 1740, 148, -1953, -7283,
-2041, 1528, 1394, 2241, -572, -387, -839, 4152,
116, -997, 775, 2295, -432, -5412, -3841, 1503,
5399, 419, 466, 1394, 843, -580, 1085, 1131,
-219, 8791, 689, 537, 10832, -1799, -2361, -3216,
-2545, -2149, -1163, -8617, 2932, 3239, 236, -5111,
-802, 8565, -7480, -3014, -4158, 7707, -8575, 2418,
-3578, -1003, -67, -12971, 1258, 825, -5534, 4569,
4045, -3250, -3819, -13, -187, 1880, -7, 1220,
5864, -5182, 2025, -1301, -2818, 2094, -2225, 920,
-6336, -3971, 525, -1457, -2423, -400, 1850, 1639,
184, 5750, -5664, -305, -1908, 1525, -1234, 4940,
-1905, 1002, -3343, -2525, 2679, 936, -1742, -907,
-3417, 2209, 6544, -5740, -219, 3457, 6647, -1717,
1442, 1689, -14, -5943, -2403, 7312, -4100, 375,
-4990, 1091, -1570, -162, 4535, 2486, 7651, 7781,
3607, -350, -5532, 153, 1393, -110, 1395, -682,
-2728, -2435, -777, -273, 623, -979, -241, -1484,
10500, -5567, 6316, 4093, 3561, 556, -8149, -2715,
4999, -6501, -2160, -323, 998, 2126, 3330, 6479,
};

static short featrues_resnet1_2_bias[32] = { 
-21790, -11895, 18535, -9372, 4028, -6253, 244, -25412,
4209, -6565, -1443, 1952, -14703, -118, 6102, -6138,
4233, -10572, -5681, -20926, -6674, -7107, -18142, 12152,
-608, -6630, -13082, -5436, -32731, -10660, -16391, -16855,
};

static short featrues_resnet1_3_weight[288] = { 
-10489, 4073, 465, -11261, 5113, 552, -13451, 4138,
501, -4796, -4539, -3501, -3726, -1996, -3763, -4434,
-5259, -4764, -2262, -2619, -1479, -2720, -3637, -2527,
-1035, -1774, -1871, 1576, -6443, 1138, 2318, -8453,
501, 1610, -9640, 1640, 1342, 2164, 2356, 2124,
2888, 2569, 1418, 1553, 1496, -513, -1153, -3058,
-2235, -1808, -2381, -1974, -2694, -1203, -2154, -2960,
-2593, -10310, -12275, -10117, 1638, 4057, 3292, -1144,
-1593, 3223, -2277, -3482, 5023, -1264, -2885, 5307,
-1486, -2251, -2766, -1867, -3035, -2941, -1294, -2463,
-2147, 1818, 3106, 1996, 1262, 2622, 1180, 1131,
2165, 1886, 835, 3484, 3861, 59, 3664, 4408,
-226, 3426, 3562, 1355, 1240, 2155, 1741, 1102,
2724, 1063, 1559, 1983, 1299, 2548, -8511, 2611,
3389, -9261, 1839, 2508, -9457, -2078, -1685, -2203,
-3169, -3317, -2395, -2537, -4264, -2421, -2542, -1166,
-329, -3897, -1205, -1031, -2489, -1317, -2498, -6640,
-2723, 4561, -8002, -4018, 2282, -7025, -3271, 4108,
-2034, -2195, -1295, -2005, -611, -2075, -1070, -2200,
-2398, -6230, 3829, 261, -6846, 4946, 2201, -3934,
3460, 1680, -2489, -2972, -1072, -2243, -3075, -244,
-3062, -3749, -2064, 2195, 1349, 908, 2928, 2050,
645, 2143, 1591, 76, 1646, 1724, 835, 2681,
2962, 1881, 2085, 2678, 1871, -3730, -5237, -5067,
-2734, -4235, -4087, -3555, -5015, -4964, 818, 885,
703, -5199, -7505, -5065, 428, -980, -759, 2462,
2774, 3001, 3176, 2145, 2662, 2182, 2462, 1258,
2399, 2365, 1913, 3367, 2953, 2775, 2551, 2149,
2269, 2117, 2843, 1846, 2599, 3053, 2393, 1904,
3519, 3554, 944, -2579, -5282, -4887, -129, 32714,
-2817, 1582, 1691, -2433, -2614, -1426, -1992, -1849,
-1841, -1578, -3065, -2402, 701, 1031, 667, 9593,
13903, 12181, 739, 1538, 1225, 2530, 2930, 885,
2234, 2153, 3042, 1161, 2734, 2623, -50, -63,
-38, 45, 23, 14, 8270, 12016, 10535, -5877,
9071, 8934, -5542, 9599, 8694, -5073, 9707, 7862,
};

static short featrues_resnet1_3_bias[32] = { 
-10291, 28317, 2339, 8449, -20753, -3470, 14483, -18219,
2958, 26275, 24597, 7946, -12453, 27841, -23312, 25112,
-11283, -5944, 32759, -23956, -7637, -25538, -9787, -2157,
3234, -20241, 6474, 18502, 16975, 6875, 29232, 1578,
};

static short featrues_resnet1_4_weight[1024] = { 
164, 305, -42, 692, -506, 99, 101, 8,
-136, 86, 235, 214, -127, 125, -48, -92,
-23, 329, 130, -77, -66, -370, 54, -432,
98, -426, -14, 69, -290, -185, -110, 165,
16, -308, -141, -18, -144, -102, 13, -242,
-7, -136, -397, 173, 690, -258, 235, -229,
-99, 183, -198, 107, 223, 329, -309, 205,
166, 400, -88, -245, -353, 88, -137, 380,
602, -165, 144, 335, 280, -138, 61, -319,
-241, -176, 171, -215, 738, 376, 292, -771,
80, 346, 630, 39, 80, -228, 310, -67,
-218, 24, 21, 38, -919, -87, -70, 1176,
439, -55, -7, -57, 214, -66, 112, 207,
-272, 125, -76, 73, -63, -50, -679, 102,
60, 64, -7, -70, 232, 378, -264, 22,
-101, 125, 177, -93, 92, 122, -411, 452,
-84, 230, -627, -333, 252, 265, -47, -130,
-88, -107, -76, 187, 970, 132, 136, -69,
-238, 313, -160, -128, -358, 79, -19, 29,
-140, 28, -52, -80, 118, 209, -110, 330,
535, -322, 362, 688, 4, -357, 44, -344,
-76, 214, -158, -98, 91, -237, 66, -579,
8, -224, 3, 437, 623, 271, -71, 257,
369, 315, 54, -201, -13, -420, -291, 334,
1055, -856, -22, 156, 188, -80, 123, -46,
-10, -42, -167, 330, 1484, -621, 459, 371,
-201, -246, -485, 537, 740, 818, -451, 614,
587, 1091, 53, -257, -177, 122, -1109, 207,
690, 92, 322, 794, -809, -318, 215, -22,
172, 424, 27, 99, 620, -177, 82, -333,
74, 104, 62, -124, 387, -13, 40, 25,
-4, -207, -87, -166, -758, -326, -1049, 291,
545, -2, -183, 43, -13, -92, 90, -8,
25, 168, 138, 231, -17, -151, -267, -245,
-22, -182, -378, 75, 142, -110, 130, -194,
51, -347, -33, 101, -29, -111, 91, 550,
741, -6, -141, 408, -523, -257, 94, -192,
216, 337, -178, 472, 286, -98, -137, -347,
-166, 201, -320, -106, 310, 147, 25, 87,
39, -46, 64, -72, -513, -148, -335, 474,
294, -408, 146, 195, -525, -277, 815, 255,
-42, 9, -305, -198, 97, -476, 323, 15,
144, 5, 11, -43, 440, 277, 295, 82,
468, 328, -127, -536, -270, 149, -145, -267,
441, -437, -6, 341, 50, 52, -201, -314,
-112, -36, 205, 72, -568, 366, -558, -488,
-6, 809, -372, -324, 172, 369, 128, 113,
47, 176, 439, 162, 106, -24, 971, 766,
140, -203, -167, 41, 49, -59, 12, 10,
140, 95, -127, 65, 46, -88, 32, 3,
-51, -57, -209, -34, 36, 244, 211, 189,
97, 125, 49, -31, -87, 109, -173, 83,
236, 409, 192, 288, -731, 120, -24, -36,
-323, -65, 727, 46, -231, -118, 48, -60,
82, 221, -281, 54, 92, -695, -165, -924,
284, -832, -61, 285, -632, -366, 156, 341,
10, -70, -163, 4, -60, -89, 892, 241,
-39, -129, -125, -133, -15, -421, 207, 36,
115, 188, -126, 160, 174, 38, 267, -191,
484, 145, -93, -363, 97, 104, -46, -267,
27, 115, -156, 65, 111, 110, -19, -129,
-27, 10, 201, -117, -117, 34, -93, -172,
-37, 60, -139, 7, 2, -158, 111, -135,
87, -114, 28, 16, 151, -91, 156, 132,
-836, -636, -546, 2501, -90, -269, 706, 1148,
2324, 25, -457, 73, -546, -981, -1149, -1708,
99, 2155, -398, 173, -325, 129, -1971, -33,
-1028, -202, 93, -2, 150, -65, 95, 978,
1174, 938, 386, 12, -131, -429, -216, -779,
378, -1120, 347, 1264, -350, -1292, 674, -1238,
26, 624, -1008, 2, -795, -161, -1369, -771,
-187, -579, -1330, 261, 573, -52, 421, 1342,
1154, 138, 208, 2057, 334, 414, -1790, -4139,
1605, 146, -92, 317, -1200, 537, 2836, -2467,
-36, 1484, 0, 2005, -302, 130, 140, 1129,
89, 204, -1260, -307, 1267, -1012, 3879, 1808,
81, 579, -522, 704, -159, -338, 516, 305,
200, 40, 17, 91, -21, -359, -921, 496,
376, -123, -642, -1493, -355, -290, 908, -363,
117, -561, -243, 24, -404, 108, -463, -182,
-55, -489, 137, 1131, 535, -513, -432, -202,
596, 721, 124, 508, -420, -97, -87, -696,
414, -65, -1148, 948, -92, 1046, -450, 59,
1673, 464, -952, 672, -1474, -502, 592, -1216,
1703, 85, 392, -1388, 61, 879, -77, -1615,
0, -675, -447, -494, 517, -253, -1150, -1838,
396, 620, -386, -324, -920, 862, 3627, 45,
273, -258, -698, 837, -552, 1179, -3392, 1550,
1332, 770, 735, 657, 1133, 575, -654, -816,
1341, 55, -66, 92, -1082, 747, -572, -1162,
263, 936, -639, 1003, -1259, -1264, -5, 1135,
1828, 367, 1166, 23, -849, 806, 690, 886,
849, 9, -770, 2, -340, -362, -26, -160,
372, -342, -1132, 502, 681, -325, 408, 466,
-316, -524, -419, 1388, -381, -280, 561, -509,
-769, -275, -13, -121, -120, 536, -1830, -786,
238, 54, 1838, -407, 438, -194, -29, -622,
-44, -743, 385, 365, -155, -30, -743, -200,
886, 119, -990, -535, -966, 278, -611, 22,
-363, 145, 59, 2509, 469, 549, 457, 173,
39, 255, -191, -172, 202, 623, 71, -54,
-460, -4248, -544, -2740, -420, -639, -712, 258,
1779, -779, -211, -37, -179, 781, 1096, -393,
96, 27, 238, -98, 21, 461, 182, -73,
30, -61, 554, 328, 503, 1293, -327, -239,
-26, -807, -280, -189, -389, 668, -533, 800,
768, 278, -1108, -4, -939, 742, -116, 494,
81, 23, 136, 1259, 371, -449, 1936, -365,
1321, -538, -3, 260, -376, -9, -103, -1059,
691, 108, -688, 867, 1411, -631, 836, -44,
-240, -451, -668, -451, -190, 935, 657, 635,
-368, 742, 874, 62, 137, -162, 48, 385,
-238, 667, -563, 75, -372, 442, 150, 155,
6, -23, 277, 37, 1387, -160, -517, 376,
45, -347, 467, -413, 403, -129, -184, 536,
581, -577, 32692, -39, -189, 295, 396, -789,
-417, 254, 71, 320, 311, 304, -382, -169,
-446, -376, 282, 681, -303, -329, 77, 833,
66, 229, -61, -399, -397, 15, 263, 764,
68, 773, 13997, 169, 258, 51, 220, 98,
729, 163, -116, -330, 341, -110, 369, -425,
-167, -19, 19, -549, 69, -141, -229, -306,
-170, -374, 48, 389, 370, -158, 1084, 421,
-79, -140, 353, -570, -1414, -204, 1156, 109,
-208, -5, 2346, -91, 246, -1770, 15, 184,
-275, -539, -265, 464, -167, -508, -386, -12,
2818, 636, -322, 138, -134, 371, -206, 124,
-56, -80, 168, 410, -37, 140, 539, 231,
};

static short featrues_resnet1_4_bias[32] = { 
7338, 27638, 8712, -227, 31732, 17377, 6924, 30481,
10195, 16684, 12688, 6180, 3774, 32741, 25288, 28194,
14913, -409, -1206, 22460, 19629, 23135, -9613, 21808,
15082, 18271, 18079, 15243, -27766, -12507, 13769, 6800,
};

static short featrues_upconv3_3x3_weight[2304] = { 
1186, -672, -3171, -8612, 3620, 8631, 173, 839,
-2035, -807, 7370, 2667, -18373, -1578, -2601, 6376,
-6062, -1316, -8525, -1219, -5535, -9509, -1891, -4278,
-517, -3602, -5587, 655, -10524, -3564, -10141, 442,
10806, -2672, -5063, -9335, -2228, 1038, 7985, 1943,
-5629, -4159, 417, 13335, 6871, -9867, -7620, -1831,
3164, 5738, -3428, -6367, -6865, 149, 9925, -4661,
4734, -5804, 7539, 9144, 8382, 2744, 3916, -2299,
-258, -607, 5468, 2757, 936, -5256, 3784, -7748,
1440, 7401, -6397, -1732, 1454, -7911, 5334, 23488,
-6639, -1657, 5729, 123, 8007, -20446, 745, 14737,
-3722, -2397, -6529, -6110, -691, -8364, 9781, -1635,
-3777, 1189, -2930, 297, 442, -2020, 2242, 2671,
-1026, 2753, -994, -638, 14088, -9245, -3792, -6163,
-1861, -3217, -6169, -9542, -5962, 4576, 2696, -984,
-1099, -13374, -1154, -20480, -403, 2757, -2477, 8356,
2065, 14893, -15782, 3181, -6059, 1564, 2902, 1693,
-11055, -2520, -2584, -3011, -1691, 12800, -2968, -118,
2257, -691, 2240, 6336, -9850, -10416, 4025, 11391,
4679, -3956, -9615, -867, -8598, 2890, -6263, -6194,
7148, -3074, -4944, 2806, -5156, -4283, 2994, -11023,
-3024, -5841, 568, 4130, 4609, 3171, 1559, -9709,
-3693, -1383, 4954, 4061, -342, -7892, 1899, -5331,
-5160, -7634, -706, -9014, 4906, 4816, -13673, -4763,
7349, 744, 824, -12565, -153, -6204, -4156, 6675,
-4684, 8853, -8377, 3971, -11266, -2055, -3992, 5979,
3639, 4594, -8793, -5826, 12586, 8132, 3114, 1979,
865, -3553, 2123, -21, -156, -3479, 2195, 9937,
9233, -400, -2538, 5123, -12747, 5331, -8420, 7664,
4765, -8831, 3179, 2994, -5374, -4081, 2731, 1200,
4307, 512, 4877, -1224, 3855, -1729, 4952, 10280,
-10321, 513, 5721, 4954, -1709, 9000, 2360, 6727,
-17487, -10222, 1401, 6541, 10, 1513, -472, 6087,
2858, -15225, 2878, -4928, -9387, 4047, 266, -8951,
5195, 1326, 11518, -10038, -5303, -9028, 3292, -5013,
-9531, -6647, 1104, -2860, 20127, 5558, -1791, 8670,
-8725, 65, -4449, 2297, -14033, 4499, -7429, -11815,
-5423, -434, -562, -2073, -3474, -13678, -6741, -591,
-1754, 453, 13418, 391, 836, 3042, -6025, 2374,
6812, -53, 3611, 8579, 4546, -8500, 4315, 2680,
4290, -572, 4684, 402, -5329, 7275, 798, -1761,
1526, 6588, -54, 217, 11338, 1704, -2870, -4973,
-9463, -10718, -4453, 6180, -1564, -4888, 928, -1117,
7085, 4876, -1375, 9421, 10719, 5835, -1863, 551,
-5002, -300, -3589, 4802, -14852, -3541, -11525, -457,
-7883, -4722, -7998, 12287, -8590, 587, -151, -3244,
-8492, 2310, -2288, 4912, -19055, 325, -3534, -1726,
-13736, -5385, 6272, 236, -4065, 3624, 5297, -208,
4227, 5914, 2113, -3191, -8612, -4183, -2867, -6469,
-5273, -2798, -1652, -5143, -11573, 420, -2645, 4324,
9290, -3332, 1073, 2017, -3202, -4620, -2505, 5615,
14899, -1554, 797, 9688, 6168, 3121, 2961, 307,
819, 1096, -15094, 4221, 1838, 6027, 6629, -1768,
20145, 10168, -2035, 11653, 3882, -4918, 300, 4295,
-12820, -10138, -112, 3542, 6672, -889, -4025, -15788,
4746, 1820, 754, 141, -1000, -5701, -218, -11472,
-967, -12959, -6276, 8230, -8672, 2037, 6881, 2668,
-4237, -1941, -5907, -5555, 2212, -9696, -8848, 2349,
638, -6273, 6643, -4060, -1691, 1992, 1528, -8201,
8717, -3103, -1258, 2146, -3311, -5930, -470, 2689,
-3125, -10284, 4797, 129, -5090, -5953, 2195, -3671,
6546, 1287, 14642, -2205, 6399, -11944, 6518, 2167,
-1655, 992, -2783, 11277, 581, -4099, -1360, 7813,
2078, 11566, -4427, -4726, 3048, -3150, -1366, 176,
-573, 5481, 7606, 450, 9551, -10908, -1114, 2548,
-5919, -9738, 1895, -6327, 4657, 5317, 7018, -168,
2777, -5116, 5965, 4356, -3648, 4423, 5623, 15236,
-13932, -748, 8947, 2131, 3586, -8062, 258, -6474,
12437, -3982, 943, -682, 6509, -2080, 3064, 1746,
-18858, 868, 9586, 6728, -3446, 2294, -1352, 11760,
-10462, -3299, 6978, -12175, 4313, -8208, 783, 3730,
751, 5508, -862, 2251, 9167, -12138, 1661, 3580,
-6077, 6105, 4665, -338, -8921, -395, 1657, 3212,
1078, 12735, -9303, 1226, 775, 5392, -13769, 7314,
583, -11604, 1094, -76, -2216, -12516, 10646, -767,
-9103, 6688, 204, -280, -3435, 8625, 4149, -26174,
8001, 3206, -1308, -3325, 7390, -6533, -1771, -7262,
-9664, 8451, -1467, 20162, 1971, 10609, 2343, -1443,
-8997, -16904, 1007, 1254, 12316, -12411, -4143, -334,
5962, -3116, -12251, -552, 2981, 4225, -7740, 2252,
-8351, -5268, 6109, 1010, -6247, 1233, -10596, 4239,
-4822, 10538, -4772, -1939, -3472, -9392, -1201, -1460,
-1056, -2548, -2249, 6, 233, 4987, 14653, -2966,
11083, -660, -678, -3198, 931, -1865, 9032, -636,
-219, -794, -810, 4337, -3441, -7797, 1579, -368,
-6416, 2990, 2550, -5162, 5922, -3614, -417, 14759,
14721, -4465, 4514, 7445, -7362, -1370, -7829, 3651,
13674, 5552, 12962, -9755, 9058, -2314, 1928, -935,
3443, -269, -11893, -13664, 1451, -5945, -8983, 4507,
9311, 18385, 2657, 2958, -18018, 2221, -85, -1114,
12623, -9565, -6096, 15454, -888, 3425, -5456, -2326,
-1700, 1410, 1089, 6501, -1194, 3418, -53, 2999,
4450, -3549, -3192, 1552, -8311, 12071, -4318, -2152,
-5110, 686, -1934, 8640, -11494, -29, 6617, -12809,
108, 1277, -6196, 1565, -6886, -289, -3729, 1113,
-12709, 6801, -7867, 5120, 9208, -10714, 7402, 5988,
13572, -4112, -5415, -5482, 5250, 1137, -246, -4061,
3641, -4039, 3903, 5899, -11342, 3216, -2518, 5309,
15121, 2584, 1273, 7718, -2338, 963, -11424, -2660,
-493, -612, 8111, 2242, -1932, -63, -854, 2918,
-4799, -6146, 7810, -5089, -1908, 17597, -5109, 194,
19742, 794, 1978, 1110, 2689, 634, -6261, -9094,
-6333, 1168, 156, 4136, -4614, 1660, 4969, -4037,
2377, -10483, 4565, -5151, -5152, 3907, 884, -4634,
-3577, 6486, -2916, 315, -4087, -4303, 6378, -2904,
5392, -4259, 4237, 846, -2105, -1977, 2838, -964,
-1352, -164, 16502, 11487, 6465, 2867, 9165, -6427,
2486, -9330, -3569, -1697, -3558, 3999, -10340, -1487,
-4770, 14892, -6657, -288, 9521, -6076, 729, -1525,
-7850, 1911, -4865, 6323, -4473, -9696, 9967, 1122,
-7690, 3083, -1402, 1425, -628, -4190, 16626, 2943,
-2228, -13729, -5673, 1354, 189, 1023, 4926, -1427,
3171, 2502, 3133, 3722, 3463, -4811, 2906, -8092,
19657, -1870, -840, 14704, 5993, 4408, -6354, 2211,
-5159, 3948, -1066, 2737, -15888, 8941, -1596, -345,
-3783, -411, -13864, -10114, -2359, 18853, 11719, 2154,
-4928, 5485, -1270, -1364, 3641, 2849, -2707, -5804,
-9936, 1736, 11891, 5686, -1260, 4718, 3976, 3116,
1147, 5931, 4244, -1284, -4667, -1326, 1137, -550,
-4893, 1588, 4254, 10596, -2642, -2113, 2508, -9110,
80, -13079, 7978, -1708, -2216, 1831, 5447, -1993,
10823, -4701, -1027, 2215, 2797, 10314, -5066, -11382,
-10703, 3161, -977, 18223, -7710, -4384, 3143, -85,
-221, -13988, -1216, 2212, -8467, -1365, 82, -4242,
1449, -5765, 76, 2816, 1043, 6511, 2821, 1980,
-4479, -11525, -3802, 6847, 15632, 3425, -4373, 4777,
6252, 3395, -6948, 6474, -2045, 151, 2481, -7733,
-2930, 560, 2028, 6573, -12445, -157, 3282, -4448,
-4634, 2013, 3863, 191, 2680, -2818, -1057, 9589,
7706, 23088, -226, -3718, 14, -769, 5639, -5444,
6641, -5188, 1030, -338, -1951, -342, 3446, 937,
9833, -1548, 5411, -3971, 10812, -6002, -8370, 4244,
4117, 9951, -7239, -3111, -1478, 730, 252, -253,
-5204, -6915, -1902, -17786, 5848, -32741, 14670, -5501,
-4854, 3023, 671, 8382, -5237, -4508, -12783, -11292,
-985, 8381, -10184, -347, 3504, 2611, 1681, 3631,
-1076, -756, -6464, 8454, -550, 7053, 3679, 1981,
960, -258, -2560, 1119, 836, -6094, 9635, 87,
-11301, -15551, -2751, -5139, 5238, -6067, -3988, -4535,
-10111, -7949, -3592, -9622, 242, -5118, -571, -7263,
10978, -4485, -7351, 13776, -7452, 2115, -6390, 5634,
4693, 4699, 5989, 2829, 3910, -2528, -275, 1605,
7185, 1478, 4592, -8161, 1256, 2235, -9558, 1577,
-9008, 11714, -2266, 22640, -15566, -2331, -4164, 1059,
-492, -2550, 701, 4123, 6635, 3449, -4130, 893,
-2877, 6259, -2620, 6282, -9165, 6201, -8065, 2579,
3567, 6105, -2571, 8430, -77, 55, -4884, -4123,
3244, 2053, 1395, 2730, 6444, 7036, -6776, -5261,
-13807, -4267, -4652, 7943, -9822, -292, -11257, -2203,
13129, 8601, -5590, 1398, -12035, 5074, 3268, -2938,
3806, 8143, 7578, -780, -3896, -1859, 3353, 4022,
4945, 2031, -3086, 6813, -737, -6316, -1138, 5307,
2171, 11631, 5884, -13803, -6289, -58, -1976, 4591,
5449, 1428, 5973, -5930, -14897, -5669, 3429, 7663,
8705, 833, -3173, -4732, -3388, -739, -3262, -3823,
-4765, -4043, -2531, -648, 1920, -2442, 7707, 4963,
-638, -3793, -3401, 750, -983, -4254, 8872, 2848,
6682, 2423, 2432, 3355, -3198, -4551, 298, -2638,
5719, -1695, 152, 2657, -4033, 2191, 3081, -4187,
4253, -1036, 1057, -2181, 7984, 1160, -855, -3383,
-4894, 13132, 18103, 20850, 2940, -7250, -1958, 3144,
571, 5983, 3822, 6189, -1503, 6206, -6549, 3063,
5801, -2881, 4546, 2074, -10533, 4336, 7113, -3573,
7084, 2570, 681, 321, -1366, 1764, 3346, 5369,
-3653, -454, 4929, -7368, 5324, -6119, 2729, -488,
1483, -5904, 5540, 2229, 476, 561, -12366, -9697,
2237, 284, -4612, -2082, -6959, 1881, -1523, 10079,
5209, -3522, -5100, -1777, 3279, -5461, 4129, -2791,
6346, 1159, 4407, 512, 3289, -4399, -1334, 691,
1928, 11772, 3112, 12033, -180, 13003, 1507, -4155,
-1808, 1613, -8260, -1258, -3997, -4349, -4096, -3396,
1373, 5471, 3399, -2377, 7591, 8116, -1376, 1642,
1538, -3833, 2831, -965, 14463, 8983, 5112, -7485,
9842, 1407, -1494, -810, -1715, -1767, -3194, -13825,
-3346, 8820, -848, -6761, 2212, -6457, -1583, -6819,
2864, -6285, -13170, -9359, 3036, -1982, 6973, -492,
2893, -2748, 8703, -5082, 7267, 185, 7418, 2371,
597, 1794, 2738, 3252, 6867, 5970, 3918, -2869,
-11595, -3103, 1265, -5237, 11353, -17164, 2469, -401,
-9536, -2579, 6020, -10264, 1386, 5847, -15502, -15,
538, 9799, -3707, -1024, -10044, -908, -3234, 6935,
-4143, 5764, 1627, -2953, 6258, 2205, -1025, 7654,
-4845, -2627, -5068, -1551, -5360, -3092, 2352, 4901,
-5681, 3598, -3130, -657, 4702, -1641, -2533, -5474,
1716, -2529, 12133, -7171, -2900, -3703, -2739, 4703,
13847, 2418, -1074, -5829, -3255, 173, -2672, 2400,
64, -3972, -7402, 4236, -4524, 914, -1954, -5758,
-5622, -698, 7538, -3058, -3507, 9480, -4494, -1881,
4002, 2582, -267, -13153, 2479, 2566, -7495, 14495,
2593, 1771, 1746, 2560, -5270, -14026, 2021, 490,
1491, -4910, 4481, 2535, -103, -1268, -5277, -657,
-1639, -2272, -1564, -6577, -3814, 515, 853, 7521,
4670, -7405, 257, -5291, -221, -6880, -9303, -1199,
5021, -7503, 1454, -7737, 8166, -2449, 4151, -3465,
-9804, 3914, 3021, -363, 5957, 1772, -1638, 3262,
3999, 3712, -3880, 19, -1156, 6025, 1550, 11895,
2744, -4758, -5125, -1953, -9032, 12193, -3721, -664,
11589, -5049, -3746, -7462, 2645, -6440, 4953, -5286,
-5771, -5291, 2220, 5374, -3985, -5871, -8337, 2873,
-2990, 1211, 828, 1364, -62, -2695, -1331, 5424,
8110, -3333, 2418, -974, 1469, -3816, -2335, 3176,
-3787, -2067, -304, 684, 8656, 4125, 4678, 16289,
-4193, -13036, -5312, 8771, 4836, -2447, -2074, -9780,
-1621, 788, 4434, 690, -1568, -7460, -9526, -1860,
4291, 2806, -1498, 1117, -2884, -862, 1577, 2347,
2520, 6448, 5375, 2467, 9099, 7255, 8929, 4310,
-1959, 3491, -2770, 7508, 5973, 12994, -6300, 3708,
3898, 2164, 5011, 464, -231, -8860, 3556, 2247,
200, -11439, -7648, -4372, 4494, -2673, -936, -10158,
-4245, -1442, 8788, 717, 2853, 3086, 2151, -1191,
5856, 3102, 5368, 1029, -7816, -8682, 10010, 12035,
-462, 1088, 10796, -11397, 433, 436, 1190, -9070,
3868, -4456, -11358, -1695, -1469, -4027, -4720, 231,
-2114, -8565, 5327, 4195, 3544, -377, -3802, -1254,
-3460, 3947, -1542, -5526, 4128, 7316, -2433, -8277,
-1917, -1057, -1275, -1792, 7009, -8781, 6606, 8038,
109, -14050, -4196, 164, 5572, -11091, -3376, -8934,
-5255, 5377, -279, 6583, -4807, 2583, 4140, 7253,
6780, 9331, 4084, 1573, 2309, -3950, -5784, 1890,
5993, -3524, 2801, -4187, -5014, -381, -4172, 8060,
651, -5517, 5110, -4129, -429, 2937, -2486, -138,
-344, -8526, 356, 2052, -7084, 1305, -5555, 1585,
191, 2157, -14558, 929, 888, -4187, -2347, 4210,
3423, 4184, 1490, 3661, -189, 4890, -1868, -3351,
-4500, -4045, 4465, 6737, -5444, -7670, 601, -4935,
4064, 5766, 3132, 2666, -6277, 1967, 5658, 52,
-3596, -9583, -4436, 7192, 791, -2850, 7610, -797,
15189, 642, 132, -3747, -4209, -2398, -5019, -5056,
-10897, 1643, -9105, 3949, -2661, 9449, -5518, -385,
-6788, 9940, -1497, 9964, -2133, 2255, -1446, 569,
-2981, -14651, 2713, -1121, -17195, 6163, -6863, 1556,
-3296, 4300, -6471, 629, -6208, -1263, -8312, -2361,
-1533, -2411, 10461, -7139, -1568, 6662, 8549, 8021,
3472, -2942, 3169, -9325, -3207, 14173, -3458, 10824,
-2379, 5382, -2766, 2990, 8172, 2917, 2473, 10088,
2867, 6488, 6078, 1444, -3648, -10252, 5297, 6141,
-2718, 2299, 1272, -5668, -303, -10508, -6937, -4702,
4976, -5187, -2354, -3100, 7102, -5395, 5768, -470,
-3424, 6082, -2540, 3997, -1444, 1922, -2478, -514,
3413, -2875, -10989, -8053, 4609, 4867, -2634, 3462,
1502, -4220, 7876, -669, 3477, 707, -1576, -9844,
2984, 2710, -2461, -2383, 8467, 20296, 3920, -6775,
3300, -1264, -4920, 379, -9364, -4662, 9457, -4511,
4631, -1299, -1550, -9298, 297, 6714, 1502, -9713,
-9567, -3289, -5226, 1960, -12076, -2371, -4778, -4343,
7309, -792, -2510, 1425, -2559, 3998, 8, -2292,
-2815, -1435, -3397, 4272, 4679, -2241, 3328, -14058,
8264, 3493, 7044, -910, 1221, -1215, -5303, -996,
1063, 1523, 4979, -217, 12926, -947, 2026, 11413,
2733, -14913, 11230, 296, -6597, -9575, -9433, 7471,
509, 2618, 2793, 4833, -6166, -10471, -8242, -9206,
-5275, -6450, -1465, 8007, -6198, -4756, -5014, -128,
2160, 419, 2623, -3921, 7093, 282, 4255, 2449,
6744, -473, -8230, 734, 3454, 12643, -7850, -11332,
-10618, -11419, -5006, 2585, 3669, 2929, 2966, -5483,
4371, -2787, 2741, 318, 8623, 405, 732, -2643,
-2182, -1950, -2137, 2434, -3205, 2032, 5379, -549,
-521, -10476, -2881, 95, 10381, 5995, -1268, -9444,
3493, 6704, -5780, -5855, 4391, 4006, 3182, -3623,
3075, 8699, 8266, 14761, 4350, 2395, -3937, 175,
-5658, 3055, -9729, 1312, -632, -3695, -7986, -1184,
-5662, 279, -5242, 50, 8614, -3300, 3849, 2762,
1379, -3488, -5899, 3910, 4194, 5812, -282, -6398,
-449, -1586, -11160, 3151, 5360, -3565, -3763, 2109,
-6450, 8883, -10750, 5991, 11426, 31, 1175, 22240,
-7571, -7902, -4811, -12814, -1062, -1730, 2588, -1004,
-577, -4043, -8394, 552, 4353, 3423, 1363, -7384,
1645, -1301, -6473, -831, -7579, -5549, 7605, 1385,
4654, -474, 1215, 3719, 611, -5878, 3062, -292,
7298, 1202, 1041, -1421, 8170, -4422, 6443, 2301,
610, 5871, 330, 8764, -2587, 5205, 3760, 8549,
-1451, -10237, -2522, -1935, -1248, -6926, -4010, -5805,
1529, 4558, 4880, 11924, 3745, 8410, -3280, -5186,
6304, -2891, 9873, -6732, -160, -5160, -5423, -1831,
-2917, -18886, 6794, -97, 716, -282, 1221, 971,
-5865, -18014, 3577, -6435, -630, -1114, 713, -3303,
-1504, 10585, -7922, -12890, 8837, 3066, -1916, 2162,
-4058, -4821, -2358, -6747, -4152, 2084, 8862, -4302,
734, -11685, -3109, 6522, -4306, 2769, -773, -8050,
207, 933, 2539, 949, -11494, -927, -780, 101,
5445, 3715, 7940, -3858, 4911, 87, -3927, 3210,
4139, -6241, -2417, -1170, 2038, -1435, 2256, 3790,
-2280, 1591, 4787, 5756, 4077, 7231, -5199, 352,
-3103, 2833, 4259, 2560, -2306, -857, 3462, -690,
2204, 838, -1988, -10423, -19124, 3618, 2590, -2262,
3739, -224, 1162, 6417, 2206, 881, 2991, -5429,
-5924, 3720, -7660, -3473, -4956, 12167, 9395, 803,
-5971, 1159, -6838, 3528, 3042, -2718, -10515, -6794,
};

static short featrues_upconv3_3x3_bias[32] = { 
-8184, 32759, 14220, 11934, 9497, 604, 7482, 3721,
10628, -2739, -20319, -12932, 12501, 15602, -5525, 5402,
-963, -9922, -13278, 10970, 13727, 1884, 82, -9798,
16737, 6860, -14554, 1019, 11070, -18619, 4554, -23290,
};

static short featrues_upconv3_1x1_weight[512] = { 
1971, -6301, -990, 3643, 5595, -2407, 7135, -6219,
-4132, 2402, 3449, 2305, -10642, 6569, 6634, 8,
-3455, -844, -5698, -4409, 4330, -8097, -5386, 1206,
5004, -2068, 6552, -5948, 771, 1762, -11620, 690,
-9251, -7069, 5173, -6457, -2650, -9325, 1154, 9792,
-1298, 12792, 7147, 8031, -1696, -18806, 3146, 12774,
10435, 3351, 11473, -5609, 4536, -1439, 2215, 707,
-1821, 6618, 997, -5245, 6066, 1840, -6692, 4172,
-443, 4402, 8611, 20273, -975, -24496, -15747, -12356,
10665, -14632, -6146, 12914, -9910, -3848, -1350, 8882,
8231, -10938, -2946, 6220, -12725, 7480, 7529, -5933,
1953, -11429, -4961, -3996, 8290, 17292, -4698, -8794,
-1614, -4396, -10234, -9016, 3870, -16932, 12073, 8902,
5694, 2182, -10629, -16960, -1280, -2712, -11460, -6603,
-5410, 3448, 2743, 15942, 203, 4155, -2492, 2895,
1014, -5975, -3703, 5986, 10410, -6072, -8271, -132,
3356, 5638, 6000, 5995, -243, -5224, 1952, -3883,
1137, -2545, 6751, 2695, -1204, 7508, -11060, 5032,
5763, 5076, -1253, 42, -2504, 885, -12522, 3940,
-1956, -2856, 3283, 3202, -2611, 100, -4350, 5197,
2492, 8956, 8833, 6149, 9791, 13075, 1677, 8605,
3335, -3928, -21271, 8038, -3948, -1262, 893, -1914,
12365, -10596, 1932, 646, 1554, 1688, 3129, 2935,
13388, 2201, -12318, -2030, -12822, -3947, -4608, 2153,
684, 7587, -19506, -28942, 28523, -13739, -7150, -1973,
-7284, -7661, -1874, 12271, 6256, -1911, 28240, -18366,
-3332, -12226, 8013, -879, 17178, 13021, -6135, -7734,
-4368, -358, 12111, -3893, -12767, -13560, -3200, 4837,
3905, -5354, 17001, -9199, 6177, 6672, 2018, -17483,
-8392, -11397, -6946, -4669, 7769, 1219, -7486, 13781,
-6799, 3340, -896, -11242, -2240, -563, -57, 13634,
-8923, 7783, -4967, -4379, 1011, 6812, -26, 7753,
22807, 19935, -6873, 7, 15859, -8932, 6329, -380,
-622, 3260, 590, 21433, -3976, -13472, 10263, -2170,
-9328, 8502, 11684, 5745, 4233, -2361, 1426, 677,
13966, 8820, 13054, -3307, 12410, 1861, -2987, 15611,
3689, -13645, -7671, 344, -1453, -750, 2305, -1075,
-4805, -4377, 3789, 2106, -20200, -5255, 655, -4157,
-2149, 3316, 6942, 811, -6129, 3360, 5, 828,
-2909, 6159, 366, -3020, -3042, 3248, -1651, -633,
19925, -5701, 10146, -6661, -12807, 14450, 9073, -1315,
777, 23547, 13854, -4483, 2519, -17944, 7398, -6822,
-4935, 14832, -10409, 2029, -255, 3708, 5666, 4249,
-15119, -4417, -2080, -3714, 11470, 6576, -10932, 11771,
-791, 8499, -12956, -5580, 5480, 14913, -2345, 3062,
3095, -6621, 4251, 3917, -7435, -8022, 6992, 10781,
-2690, -9600, 3323, -2173, -6976, 1606, -11465, 18116,
4118, -8255, -6637, 10970, 1196, 9796, -6538, 12076,
7444, -8146, -3921, -19130, -8824, -14652, -16519, -16421,
-4232, -19081, 19573, -3829, 8341, -9598, 10281, -27989,
12691, 12765, -2578, 2300, 9744, -973, 11015, 3835,
8993, -4089, 21153, 15026, 677, -1291, 1897, 5590,
-16904, 18351, -2256, -2951, -1111, -3062, 21155, -15275,
9332, -14362, 5900, 11126, 275, 26168, -24663, -18216,
1100, 2909, -3321, 4124, 3208, -1951, -496, 14763,
-5522, 16226, -7653, 2264, 7041, -4549, 4251, -10042,
-235, 7640, -7794, -1651, -2508, 3947, -3954, -4200,
-6013, -1004, -3170, -2445, 14103, 139, -507, 5312,
-1012, 7990, 5870, -629, -7592, -2478, -1007, 298,
2671, 3832, 3632, -6899, -5082, 3247, -1960, -979,
-3379, -2014, -153, 14615, 14601, 7364, -3235, -5395,
-32757, 7645, -622, 9417, 7788, 222, -20376, -456,
-1267, 643, -13251, -14656, -9942, 8695, 6276, 743,
6947, -5516, -10964, -4656, 4163, 20174, 15770, 9941,
};

static short featrues_upconv3_1x1_bias[16] = { 
3818, -17039, 18478, -4175, -10124, 20271, 5940, 13848,
19503, -15219, -32729, 14757, -13151, 23348, -16194, -16294,
};

static short featrues_upconv3_3x3_1_weight[2304] = { 
542, 7154, 6928, -7846, 6077, -7490, 1834, -353,
-3202, 2248, -2532, 2009, -8196, -4612, -3416, 5951,
10344, -2098, -2017, 3858, 2657, -76, -2005, -3473,
-3958, -4250, 4830, 5850, 1188, -7768, -2928, -11109,
5174, 3566, 7480, -116, 6429, -4969, -5291, 7910,
6226, 9754, 3128, -3068, -3282, -2210, 4047, 30,
5739, -3, -7327, 999, 2645, 7429, -6326, 1303,
265, 18569, -10654, -1465, -4915, 2263, 2229, -7186,
-7328, -950, 15392, 7272, 8884, -5770, -5246, -2828,
912, 1939, 10949, 4823, -3053, -14923, -6132, 1043,
7316, 7166, 6114, 711, 1547, -11666, -2588, -6315,
-3230, 5477, -3853, 776, -8058, 1690, -539, 3418,
5083, -8307, 11, -2705, 2904, 4570, -622, 5009,
-8944, 1079, -2270, 2482, -5492, 4617, 660, 10078,
-7277, -945, -5409, 4012, 1452, -1868, -5397, -1904,
5096, 2278, -167, -10628, 4500, -2474, -246, 242,
4531, 1725, 8288, -4296, 834, -911, -1251, 50,
-1885, -3724, 8607, 3916, 10, -4909, -5002, 1882,
-1413, -1625, -911, 3371, 432, -734, 3693, 904,
-1313, -1296, 871, -326, 3248, 3121, -2840, -1735,
357, 80, -62, -16, 448, 1530, -6852, 1364,
2581, -4169, 1929, 823, -451, 961, 824, 2605,
1973, 480, -3602, -165, 3003, -275, 1033, 1139,
-4736, -2846, 3959, -1145, 1500, 481, -864, 1898,
-368, 530, -389, 2031, 312, 2546, 850, -1310,
572, -1473, 1338, -2137, -568, 768, 510, 142,
-225, -220, -1574, 7, 891, -615, 1957, -966,
2947, -2148, 3835, -1143, -4922, -491, 2568, -968,
2689, 1014, 381, -1390, -156, 1724, -311, 5465,
4649, -2947, 1735, 2257, 909, 317, 77, -1323,
-1025, 4904, 2282, -628, -515, 278, 2181, 1009,
-3607, -2397, -1030, -1340, -780, 3908, -1423, -3212,
515, -143, -213, 2662, -1121, 2868, 1827, 795,
-2455, -763, 103, 6643, -1897, 2481, 1646, 3727,
817, -6675, -44, -2591, -4888, 696, 306, -2188,
3164, -275, -323, 466, -306, -1890, 982, -2010,
3052, -267, 194, 2726, 1575, -184, 2648, 913,
-2515, 1424, -1325, 1453, -1090, -4871, -698, 1054,
4895, 6361, 1627, -4089, 4688, 1899, -8364, -1215,
2753, -2537, 6310, -2623, 2578, -4216, -679, -1900,
-2970, -2981, 916, 5754, 1233, 159, -1490, -1367,
-1678, -1481, -574, 1242, -451, -145, 137, 1815,
-667, -713, 3275, 1484, -1315, 698, -5072, 231,
1652, 3892, 2545, -3793, -5315, 1283, 1659, 868,
-1207, -7520, -1981, 3793, 2203, 2094, 2698, -1011,
-2382, 592, -248, 3128, -40, -5114, -2798, 2323,
-1364, 894, -215, -3140, -2007, -1742, -8101, -818,
-2194, -5006, -3277, 4424, 2160, -7422, 5543, -5313,
-945, 2982, -953, -3057, -1279, -715, -329, 633,
1728, 1296, 1129, -5066, 1397, 2625, 1811, 1923,
4308, -3254, -471, -3239, 997, -528, -222, -1493,
415, -152, 4310, -1031, -1559, -2169, -3692, -33,
-2687, 606, 2106, 1790, -2782, -1595, -4261, -5738,
794, -110, -768, 4683, 2971, -1447, -3223, -1787,
-1416, -8145, -4236, -843, -1004, -1625, 5395, -3290,
6979, 2631, 2112, 4774, 4715, -6497, -1413, 2197,
-3567, 5610, -3432, 1514, -989, 4447, -2851, -608,
-560, 1096, -2530, 2819, -1367, -706, 2562, -2900,
-414, -1575, 6002, -3650, 5935, 2926, 14703, -2375,
-8092, 4313, 612, -4064, 15690, 784, 7617, 5914,
-5498, -1570, -4551, -6083, -927, 1531, 475, 2775,
-916, 410, 518, -1823, 289, -1051, 7717, 3942,
-5871, 4083, 6484, 450, 770, -57, -4959, -2296,
1330, -1916, 1557, 195, -2464, -5609, 638, -2801,
327, 7190, 3689, 3989, -2850, -9435, 1211, 2411,
-2749, -2020, 1465, 5538, 1242, -322, 2798, -3675,
-4790, 1331, 3116, -361, -3007, -720, 952, 3915,
951, -1281, -1529, 1953, 2374, 3198, 3547, -886,
-5944, -379, -246, 197, 2216, 5879, 1267, 915,
-4982, -1751, -283, 2672, -1625, 677, 5170, 7219,
9762, -1843, -3084, -1016, 3632, -1561, 513, -2786,
7292, -2747, 2324, -1952, -7502, -5011, 4313, 2253,
-217, -275, 2536, -3431, -2826, 327, -401, -2915,
-579, -1047, 490, 1788, 1668, -878, 1709, 6017,
3726, 5261, 124, 2981, -374, -2381, -624, -1124,
499, -2122, -517, 374, -2055, -295, -280, 162,
141, -1059, 3429, 1033, -297, -706, -3985, 534,
-274, -554, 3035, 1032, 212, 1075, 691, 154,
-693, -3273, 1348, 1900, 1749, 202, 659, -3529,
1766, 1050, 649, -788, -2989, 972, -1371, 2320,
-2365, -1470, 410, -1961, -177, 5674, -692, -809,
160, 1274, 1135, 1608, -65, -1493, 1645, 1826,
2175, -3624, -2982, 84, -1363, -2002, -25, 2551,
791, -213, 1225, 3207, 2093, -1541, -3897, -1305,
525, -683, 708, -231, 3290, -2559, 1597, 2891,
-1292, -425, 230, -4824, 2678, 590, -57, 202,
-460, -1952, -1527, 147, 1797, -208, 3002, 563,
-4232, 4663, 221, -173, 1576, 1093, 598, -773,
47, 4289, 4600, 1293, 1204, -191, 1209, -2434,
-1298, -2259, -20, 2771, 4556, -1113, -1593, 682,
-2454, -3129, -3538, 1542, -7603, 5897, -1945, -670,
-194, 2240, 529, 10820, 1317, 117, 5477, -1378,
4410, -5177, 469, -1823, 1253, 7725, -4141, -4388,
5265, 2349, -6155, 3615, -2308, 6370, -1223, -4404,
-2727, 1199, 7042, 2334, 5638, -2018, 2800, -3484,
2274, -4992, 2421, 5295, 134, -2172, -6192, 7411,
-8848, -7467, 4366, 2421, -5906, 833, 7686, -3481,
1234, -591, -4916, -2286, 3092, 1639, -2593, 5071,
-1665, 2924, 2772, 2591, 1688, 1076, -4134, 841,
-1536, 3495, -2329, -5349, -5271, -2701, 1733, 3818,
373, 4348, -2935, 2489, 6850, 2461, 13664, -275,
1055, -772, -8159, 9621, -6902, -3301, -4360, -3562,
5079, 2931, -2303, 640, 622, 11332, -6196, -63,
11500, 275, 3174, 4568, -7243, 3452, 3582, -1884,
1717, -1426, -3067, 327, 1563, -2764, 3062, 2797,
-5497, 1859, -3563, 3296, 1015, 593, 1183, -3821,
10859, 2310, -4610, 1680, 4286, -1802, 3419, 493,
-4695, 1681, -595, -2820, 5450, -2098, 3870, -8986,
1823, -985, 2444, 2132, 1308, -1682, -165, -826,
-2740, 1303, 771, 2339, 3473, -724, 50, -5954,
-108, 5598, 140, -1503, -610, 4981, -2982, 1832,
1572, -2603, -2122, -1486, 5504, -376, 5068, 705,
-839, -2852, -4897, 6020, -371, 613, 1705, 518,
-6054, -663, 4466, 345, 224, -3353, -1346, 2377,
467, -1042, 3617, -925, -1280, -6097, 424, -1413,
646, -1516, 4326, -4609, -1403, -2435, 417, 399,
2092, -1080, -2510, 2579, 2698, -209, 835, -3180,
-1289, -2604, -2766, 104, 2000, -156, 853, -2962,
967, 502, 2320, 1111, 8056, 736, -6055, 7200,
762, -871, -602, -574, 16, -4667, 4048, -2143,
-3646, 5123, -3150, 2584, -7894, 5182, -702, 871,
7200, 1036, 1775, 2241, -4253, 3807, 939, -3603,
8204, -3472, 2749, -4189, 2007, 67, 2969, -1310,
424, -7574, 5810, 3034, -3192, 3683, -536, 6037,
458, -6874, 1164, 2234, 2377, 1757, 940, -2407,
1955, -1626, 80, 2141, 1215, -2788, -1175, -4589,
-52, -4246, -12514, 2039, 8787, -6871, -7512, -2646,
-5703, -5299, 1247, -854, -2209, 4837, -2036, 559,
-1152, -536, 6897, -10940, 2676, 4202, -7879, -1739,
2141, 6951, -2397, -340, 3240, 6165, 1588, -2922,
-3913, 1167, 1653, 4009, -2241, 448, 2718, 3481,
-2924, 3988, 18, -63, 2876, -3484, -5656, 2026,
-2524, -12919, 12108, 2392, -1010, -6448, 414, 7896,
-6606, -10186, 2821, 419, 6936, -4164, 5430, -528,
3372, 1609, 1279, 2021, 4596, -4137, 6689, -5707,
2713, -4557, 2757, -4151, 6933, -2209, -4356, 2730,
-51, -1608, 923, -1752, 2003, 8074, -2977, 2744,
-1821, -784, -2816, 108, 5657, -7420, 2167, -4344,
4162, 9531, -3849, 3523, -6629, -7727, -2047, 6813,
7668, -4442, -248, -1417, -2130, -432, 2354, -5590,
7874, -3494, 2121, -4544, -6134, -3561, 4649, 823,
1780, -11318, 3134, 4331, 83, -366, -5359, 472,
-3632, -1485, -2026, -4076, -1910, 1030, 3486, -3108,
945, 3708, 1800, -2956, -329, -3848, 5494, -3819,
-1181, 7104, -1893, -10528, -740, -1417, -4565, -650,
-9087, -8823, 1006, 344, -1962, -9621, -478, 13961,
-6296, 1567, -2744, -1801, -4162, 8406, 2885, -10182,
-1779, -3520, 7684, -1710, -20503, -7197, 1101, 6077,
1780, -2823, 9188, -7318, 10327, -846, 9523, 1047,
32038, 13051, 3241, 6524, -2396, -3104, -11797, -2628,
2377, 16291, -1053, 700, 1388, -9701, 10022, -12784,
3146, 12582, 368, 3156, -9791, 13211, -6340, 7519,
2322, 8569, 3528, 3854, -4455, -3946, -5908, -4421,
-522, 14964, 581, -6016, -32747, -4063, 10813, -2944,
174, -1213, -10869, -7919, 17636, 12333, 5322, -1207,
-3300, 2193, -16825, -329, -7806, 12323, 116, 1667,
3540, 4242, 2456, 2022, 4044, 2045, -3012, 6471,
2947, -17852, 8227, -2818, 5580, 2745, 6635, -483,
-10044, -5378, 13, 116, 5331, 6776, -2408, -5473,
-9581, -3572, -2497, 11208, -3501, 4092, 4288, -1719,
-22157, 2481, -2814, 7944, 1872, 880, -260, 635,
5855, 487, 2075, -2829, -6573, 5179, -6369, 3520,
-2121, -1343, -1749, 118, -1894, 429, 1104, -2190,
5879, 3484, 2110, 1618, -5030, -4300, 1122, 4895,
-702, 1480, -2480, 1560, -2394, -1840, 6772, -1700,
-3322, -1170, -1608, 4693, -1197, -507, -573, -8007,
2398, 1783, 2882, -4694, 991, 549, -5822, -1522,
4433, 1382, -4394, 3437, 2692, -3294, 2786, -165,
488, 3721, -4985, -3767, 3013, -3946, -3002, 2435,
-1565, 4364, -6526, 1697, -379, 2466, 392, -690,
-2740, 1157, 7659, 634, -624, -971, -4350, -746,
-3691, 2529, -1592, 5328, -2864, 680, 276, 1527,
468, 6288, 2335, 2069, 1374, -3909, 1548, -8865,
-6634, 3527, -1879, 1221, 689, 1562, -1041, 1444,
4562, -4703, 2286, -2668, 3975, -1793, -215, 2254,
-855, -1483, -2428, -1982, -811, 2974, -1306, 7665,
-5755, 1126, -2861, -981, 570, 2571, -2890, 3131,
2484, 182, -1437, -4962, 7756, -1341, -360, -932,
-3554, 1468, 2695, 211, 3107, 2300, -4159, -139,
-1410, -451, 634, 2920, -2284, -967, -6596, 4978,
-793, 1061, -2003, -5857, 681, 2936, -2977, -2289,
377, -798, 3345, 2342, -1033, 1153, -1059, 2244,
3709, 4701, 2427, -123, -4507, 1352, 2139, -3600,
-99, 1827, -2577, -3905, -5240, -799, 1802, 2452,
-14, 3157, 1801, 386, -1089, 7067, 287, -2241,
5683, -2426, -2033, 4236, 630, -3345, -551, -2109,
-3881, -935, 5244, 1581, -1180, -2416, 1317, -1332,
-2047, 3246, 3807, 1001, -1367, -2630, -1412, 2965,
-3750, 440, 3208, -4840, -606, 2738, -4890, 1052,
-1888, 1226, -724, -4075, -444, -3326, 2162, 2643,
-405, -309, 4791, 1196, -3904, -156, -1155, 1073,
33, 2099, -5331, 980, 233, 2341, 2940, -2798,
371, 1140, 296, 2295, 1735, 6038, -168, -1086,
1791, 2885, 989, -31, 659, -913, 4562, -3513,
-596, -840, 680, 979, 2059, 5, 2597, -926,
-3909, 2877, -695, 1523, 4917, -1055, 3811, 2143,
-898, 5273, 5285, -2553, 1812, 5776, -126, -1535,
-3203, 946, -1018, 2314, 182, -2046, 1266, 786,
8478, -2305, 190, 260, -2438, 641, -2702, -4553,
-5154, 4342, 6233, 210, -3348, 4509, 472, 1842,
5633, -4346, -3550, 3507, -1148, -523, 4833, -5652,
527, 3328, -5380, -4587, -845, -4581, -662, 1547,
-3641, 2456, 1283, -3210, 4551, -2996, 52, -2028,
-6849, 321, 5601, 2487, 4513, -4854, 5268, -2293,
1960, 5173, -11322, -1706, 11114, -3083, 4515, 1631,
550, 2067, 271, -3515, 584, 4869, -191, 3033,
6022, -480, -2133, 7477, -4999, -1372, 2823, -2008,
-859, 462, 5225, -1695, -3773, 3177, -5064, -1564,
7657, -6583, -208, 711, -5493, -7, 3038, -1662,
3994, 215, -1033, -6356, -2041, 5496, -6466, -901,
9953, -6819, 1999, 8080, -345, 935, 1547, 1424,
-1959, 2713, 804, -1127, -5811, -339, -5076, 2564,
-3168, 1945, 2915, -7754, 3884, -17, 1505, -2136,
657, -2157, 2795, -3386, 5480, -6703, -7959, -3836,
8876, -4190, 303, -2579, -15, -1326, 746, -400,
3308, -1915, 3415, 1227, -2532, -1153, -7446, 7944,
-7108, -835, -2140, -5283, -1160, -2683, -4774, 1771,
-599, -2907, -4411, 3590, -470, 2937, -634, 482,
-867, -2712, 3003, 1132, -9110, -10561, -2264, 10145,
3442, 3275, -6556, -2685, -187, 5594, -158, 5018,
-2687, 2538, 1388, 1177, -366, 10809, 247, 5225,
-581, -1027, 4020, 6030, -1086, 367, 6278, -4173,
4119, -14484, 3955, 2934, -2727, 6911, 4856, -7151,
-3058, -9771, 10796, -508, -150, -4172, -1417, 3902,
384, -1573, -4729, -7543, 746, 61, 2298, 2586,
2308, 380, 1262, -2199, 3814, 2259, 3188, 4598,
-2816, -4476, -4495, 5314, -3874, 4794, -1080, -900,
1189, -2789, 781, -4139, -2907, -186, -1791, -87,
-6328, 12321, -8283, 2152, 164, -1212, 2603, -2118,
4338, -1229, 8459, -2601, 11476, -12902, 5338, -10607,
7205, 5889, 8094, 1389, -1998, -8419, 3087, -5003,
-5010, 12661, -4924, -3604, -3652, -2353, 7107, -322,
-4779, -274, -10214, -1573, -945, -3376, 2316, 6462,
-4312, 2582, -5781, -6481, 11670, 3614, 9601, -6707,
-409, 38, -3752, 2440, -586, -5023, -1222, 9103,
3751, -1434, -1351, -1144, 6941, 3819, 3291, -3107,
-6780, 1685, 1530, -5954, 3100, 4735, 1787, -395,
-5226, 5853, 934, -8510, 1585, -1519, 2430, 18298,
-1125, -8659, -6776, -4588, -4972, 3624, -552, 1824,
3745, 619, -3008, -145, -8633, 2703, 6300, -1833,
-840, -3110, 5376, 9001, -4471, -4883, 1291, 3746,
-6411, -12560, 4905, 10103, 5172, -6431, -3209, -3395,
8958, 1503, -6154, -11332, -11317, 1768, 6405, 4660,
1936, -5667, -2000, -3659, 7576, 4645, 2966, 290,
-5072, -6727, -5223, -921, 1495, 6808, 1471, 7360,
844, -1271, 1368, -1352, 7604, 5833, 1662, 693,
-7704, 3340, -613, -4107, 4982, -4687, -1169, 4615,
-1078, 1419, -4250, 1448, 6124, 457, -4062, -10070,
-953, 4897, 4544, 6046, -5817, -4025, 6314, 4948,
940, -11188, 3264, 7184, 2674, -763, 5558, 6392,
-1218, -840, -533, -571, -1842, -1399, 4944, -81,
1208, 1100, -3349, -6083, -1784, 1218, 7052, 460,
3412, 341, -4807, -1028, -2868, -1729, -6141, -3022,
-12322, -91, 3274, 5878, 413, -2814, -709, 2762,
11740, -5437, -1544, 426, 1312, 2914, -4442, 5088,
15, 1917, -93, 9083, -7552, 5179, -5540, -923,
-7175, 469, 8434, -1062, 311, 859, -3087, -4381,
17307, -1365, -1697, 3073, 3049, -1016, 1113, 4015,
-3067, -168, 3267, -2731, 3227, 1539, -119, -639,
1862, 8073, 2588, -4199, -1883, 5039, 2043, 4803,
877, 1164, 2261, 4712, 622, 335, 2111, 1078,
-3014, 7605, -1243, -2649, -1654, -7512, -3768, 3284,
-7809, 3938, 5917, 2089, 562, 3314, 12951, -128,
706, 1713, -2328, 5181, -5377, -5791, 24, 2217,
2511, 937, 828, -2411, -3761, 8626, -2788, -3246,
3632, 84, -2331, 11719, -1944, -1525, -771, -3475,
1265, 2670, 1230, -3409, 99, 1229, -764, -573,
-1867, 7448, -1661, -1388, -3251, 922, 55, -2991,
2145, 5234, 3289, 2968, -4066, 1580, 7021, -1519,
-8533, -6, 3160, 10320, 2827, -57, -2944, -9345,
-11099, -4527, -1318, 9998, 882, -16037, -11375, -6495,
-1889, -1036, 4741, -2342, 2607, -2918, 1367, 10,
7757, -3380, 58, -6966, 2385, -2899, -3853, 4879,
-708, 11540, -8469, -1585, 4283, 6558, -5550, 15129,
-4320, 1327, 2316, -5925, -5906, 7484, 5729, -724,
10337, -2125, 2800, 16890, -4865, -3922, 15133, -1720,
6115, -3382, 1639, -444, -8100, 15434, 2315, -158,
-4768, -16047, 13760, -1448, 10961, -3318, -4351, -10034,
6450, 1549, 7713, -7899, 2554, 8030, -3188, 7860,
4993, -5750, -2727, 4451, 5707, 12267, -3968, 530,
-5967, -11196, 9841, -11482, 936, 2236, 15448, 5574,
-855, -5381, 5060, -4507, -4280, 803, -6485, -3412,
-2915, 16050, -8493, -696, 10424, -1497, 6652, -13679,
-3574, -626, -5213, 18447, 11275, -8611, 7763, -5498,
-2812, 6783, -2056, 10511, -1686, 2407, -5466, -2062,
-2420, -618, -3246, -1349, -2712, -7566, 9059, -7751,
1293, -5954, -5810, 70, 4526, 1989, 155, 3313,
4869, -760, 1502, -6953, 6010, -4259, 15624, -9637,
};

static short featrues_upconv3_3x3_1_bias[16] = { 
6141, 16900, -9924, 25606, 1313, 2931, -2689, 6726,
32727, 5111, 3244, -2817, 7187, 3238, 21009, 21748,
};

static short featrues_upconv2_weight[1152] = { 
2089, -6696, -14101, 3245, 823, -3921, 2781, -3681,
-637, -262, 9603, 1830, 873, -4807, -12252, -1916,
8085, 5701, 2605, 4857, -2043, -5197, -1260, 1238,
-1314, -9566, 4540, 6312, -7931, 2887, 4048, 2868,
-2126, 3501, 7360, 1095, 2189, -2353, 119, 417,
5987, -5090, 1553, 14038, 4848, -2673, 15860, -1528,
2716, 2543, -2563, -12360, -10635, -1977, 507, -4488,
1392, 2363, -6840, 2678, -2235, -1378, 2831, -13199,
4932, -5291, 2146, -28409, 10194, 278, -3715, -10350,
4068, -1175, 10981, 6464, 7701, -3322, -4906, 3982,
-16069, -4363, -2459, -11397, -14111, 14754, 7316, -2000,
-5587, -5824, -2408, 3439, -19487, 4090, -4300, 3188,
1605, -2964, 10128, -5087, 4136, 951, 7874, -17079,
-6879, -573, 5444, 9424, -6625, -1429, -6861, -10736,
-2620, -1822, -22724, -12188, -2429, 1313, 6097, 2104,
975, -11822, -5236, 9741, -6780, -5170, 4847, -160,
-7939, 4126, 11081, 4796, -6323, 12415, 4655, 2433,
1551, 10384, -8639, 13295, -3799, -4376, -7166, -9198,
7945, 2791, 2588, 1676, -28581, -2571, 3190, 6384,
10610, -812, 5050, -1711, 371, -13378, -2093, 2383,
5849, 710, -9704, -3480, -4491, -2011, -7180, 3343,
-3509, 6590, -10030, 1204, 11927, 1003, -5525, 12280,
5130, -1543, 4492, 5369, 213, 11260, 11309, -6573,
-6990, 6241, -2619, 8977, 7205, -180, -8190, 3023,
11043, 21639, -10838, -2901, 6193, -364, -6079, -5891,
-6931, -1723, 5145, -284, -1992, -4500, 565, -3328,
-26440, -11656, -23317, 10350, -9463, -22026, -389, -10381,
-12867, 3505, -22792, 7291, 23446, 3462, 167, -967,
608, -7481, -5750, -6586, -1568, -1635, -14010, -37,
-1205, 0, 7722, -577, 6669, 5721, -14750, 2354,
-4105, -10150, -16389, 3641, -2678, -289, -10379, 9837,
-2478, -1263, 10852, -12509, -10211, -17415, 8642, 4978,
23195, -14644, -1440, -2031, -16226, 4464, -17841, -3984,
-954, 3653, 2235, -6088, -6818, 1631, -22084, 4153,
-142, 12071, -26493, -1115, 5877, 11237, -1803, -21586,
4292, 5990, 9233, -5423, 99, 13961, -2898, 5063,
-1357, 9220, 1050, -2333, -8464, -6777, 393, -1998,
-769, 3270, -3764, -999, 525, -273, -1394, -1090,
3284, 1599, 9090, -302, 2712, -1866, -3096, 3455,
10197, 2054, 160, 13333, 7568, 205, 9434, -2422,
415, -3153, -7932, -1529, -2527, 9445, -2083, -2249,
8342, 3803, 1524, 3983, 489, 763, -7019, 3694,
1606, 659, 4923, 8373, 1132, -4257, 4861, -8039,
-11402, -729, -2922, 450, 1557, 146, 1162, 2640,
-12116, -566, -1180, -178, 161, -2146, 833, -2230,
3231, 9224, -5029, 1929, -3956, -4975, -1961, 20591,
5742, -9010, 6072, 2633, 1047, -6116, -4507, 120,
982, 2456, -5804, 2119, 1662, -2336, -1316, 4214,
-5479, 99, 1936, 4955, -3048, -7688, 421, 959,
4775, -2019, -344, -1434, -3910, -9189, 4290, -6140,
6965, -133, 3439, -1931, -3073, -3799, -14561, -1756,
1911, 7956, 1905, 284, -4267, 259, 1109, 2734,
-1275, -10303, 1276, 4040, -222, -5577, 336, -3167,
-1885, -514, -763, 5773, 1862, -398, -3105, -148,
2130, 548, 3011, 4823, -1135, -2778, 4086, -416,
3465, 1531, 5116, 28572, 2187, 7289, 18813, 5001,
-1529, 11064, 2393, -5977, -1297, -2784, -335, 2119,
1837, 8348, -657, -3894, 3144, 462, 276, 4655,
9408, -7993, -6338, -4998, 4792, -3530, -4864, 4243,
-3140, 6867, 3029, 4232, 2307, 2878, -763, -3321,
-5094, -615, -4923, 2042, 1038, 1546, 1460, -6821,
-6165, -4319, 811, -2905, 895, -2972, -8770, 7921,
-1290, 938, -16664, -4057, 4121, 5096, 3305, 3028,
2115, 7983, 6137, -256, -1362, -10931, 3336, -2647,
9628, 1995, -9936, -3314, 6726, -5468, -6115, 663,
3521, 5147, -4537, -4917, 9049, 428, 2707, 12842,
-3305, -2921, 5662, 677, -6056, -1026, -2958, -2611,
-6242, 5318, -1145, -3848, -3867, 72, 115, -2298,
8775, 2862, 1796, -9361, 334, -962, 661, -1921,
662, 4469, 1329, -2610, -4698, -7272, 6875, 960,
7009, 3328, 4888, 369, -2462, -2699, 313, 4828,
9694, -3072, 207, -943, 908, -1790, 4871, 2697,
-7617, -2469, 2471, -4294, -567, 1327, -7189, -8250,
-5161, -6555, -2558, 7472, 4713, -3157, -377, 673,
-985, 534, 2507, -1371, -3860, -7071, -124, 328,
-8784, -1896, 2896, -3247, 286, 5490, 6895, 1133,
-6813, 5850, 8691, 556, -3736, 2606, 7217, 1769,
-133, -438, 1684, 13347, -1053, 4100, 16815, 13227,
364, -463, 8553, 6706, 9306, 6037, -5156, -29246,
-12453, 3922, -32752, -11159, -4895, 4284, -1486, 4692,
-13763, 11492, 13543, -3834, 8485, 7477, -3223, 2014,
8629, 1907, 6756, 2231, -5670, 7890, 13394, 16861,
-4306, -4726, 12476, -4209, -5814, 4410, 1895, -416,
-2223, -2218, 4489, 3963, -4925, -3433, -696, -8767,
1468, -2002, 2180, 3718, -17218, -4279, 3898, 4578,
8285, -3417, -14963, -5600, -3799, 1789, 5560, -2776,
-1604, 90, 317, 8612, -3289, 2789, -4071, -33,
-4023, 465, -1800, 1897, -323, -458, -3072, 4505,
-11388, 10793, -8148, -4818, -13416, 3344, -76, -14077,
-19217, 6735, 6397, 20329, -1249, -7812, 1551, -3027,
3354, 8595, 6074, 2839, -7381, -8682, 899, 1846,
-7264, -660, -3720, -2185, 245, 9054, 15209, 1603,
-7792, -7639, -4538, -1575, -2348, 5079, 1600, 4978,
-3618, -4682, 6858, 316, 2880, -709, 975, 8279,
5651, 5923, -316, -979, 2262, 5823, 8704, 471,
-1911, -3474, 693, 3108, -7512, 141, -567, 1383,
4932, 984, -6041, 3542, 3320, -1932, 270, -1925,
4392, 230, 478, 4835, -4841, 3771, 5588, -2494,
-1297, 465, -3456, 1588, -3787, 5011, 6, 350,
-944, -2749, 3016, 1268, -7301, -2145, -3256, 6619,
3079, 3742, -4171, -318, 6654, -4473, 319, 4057,
-885, -3331, 567, 449, 68, -1420, 1006, 5985,
917, -9037, -4372, 1078, 2746, 2289, -4382, -446,
-6043, -4864, 3903, 855, -461, -1689, 79, -411,
3292, 3854, 2007, -325, -2119, 13, -8206, -2601,
-2933, 9440, 1146, -6998, 5945, 5825, -7751, -709,
3784, -3088, -5807, -2929, 3927, 3163, 2916, -9791,
-5171, 915, -1799, 1086, -1859, 5204, -5971, -1560,
-4281, -30357, -1893, -4936, 2172, 586, 4217, 3068,
3440, -5573, 11069, -9476, 2675, 9163, -1183, -67,
-1746, 1056, 664, -7155, -3469, 1776, -5677, -3476,
-9277, -2916, -1460, -1580, 2126, 806, 4701, -3343,
532, 4951, -2265, 4105, -3815, 4002, 1362, 3061,
-12660, 66, 1606, -34, 1957, 10036, 1107, 634,
7427, 6536, -5953, -1298, -3120, 4997, -2191, -159,
5418, -3568, 4713, 3700, 1477, -95, 7253, -1581,
5650, -3953, -3291, -140, -6115, -5980, 1946, 2171,
-603, 13125, -777, 2746, 27342, 5085, -1387, -3621,
-4715, -471, -2789, 1253, -122, -10653, -1375, 4196,
1999, 2659, -2118, -5413, 1368, 89, -6810, -4678,
-1095, -3731, 3563, -4552, 8199, 190, 3442, 10569,
-1680, -2414, -1877, 4323, 428, -541, -6411, 8495,
-2699, -10053, 362, -14574, 378, -2782, 6513, -586,
-7370, -4035, 1032, -8699, -7406, -1694, -6978, -15184,
5522, 1783, -2551, -8899, 4749, -402, 361, 3249,
6904, 5592, 4561, -10684, 4014, 5925, 3298, -1251,
-603, 842, -3270, -3650, -907, -2243, 620, -2556,
297, 2449, -590, -7355, -2648, -3312, -4341, 1069,
139, -4744, 3194, -2100, 1179, 3705, 6066, 502,
-407, 708, -220, 6201, 5744, 2047, -4245, 6137,
590, -180, 4189, -3647, 2104, -643, -644, 1304,
3919, 2288, 5408, 1970, 6878, 3795, -2009, -1931,
-158, 491, -5811, 570, 4360, -9029, 680, -3316,
4677, 1022, 641, 671, 2921, -1241, 3067, -1600,
1884, 676, 4005, 89, 240, 3829, -495, 1132,
-979, -6116, 1927, -1798, -8712, -9628, -529, -2512,
-286, 1718, 4744, 3174, -535, 6915, 9395, 734,
93, -3378, -3883, -454, 1954, -1166, -2865, 5759,
910, -4561, 6686, -767, -168, -7019, 1388, 550,
-5367, 3370, 2141, -2184, -2217, 2476, 1877, 7923,
-1732, 373, 1362, 1533, -2619, 1084, 2998, 862,
3226, -2840, 6159, -222, 2375, 2106, -3749, -5549,
10293, 4121, -5194, -7366, -2577, 6110, 739, 7748,
1659, 2909, -1146, 1043, -3771, -1302, 1294, 1506,
};

static short featrues_upconv2_bias[8] = { 
5634, 10269, 10226, -32739, 1435, 1681, 3569, 3794,
};

static short featrues_upconv2_1_weight[288] = { 
414, 5372, -671, -4187, 332, 834, 1274, -3964,
719, -639, -6, 1368, -326, -5590, -3124, -158,
4775, 3630, 506, -348, 342, 517, 373, 2416,
978, 8233, 5319, -807, 869, -1763, 400, -8233,
1441, -852, -1075, -185, -2518, 446, 82, -3776,
2536, 3327, -2828, 897, 1510, -3309, -10586, -244,
2600, -89, 627, -1368, 1477, -317, 672, 695,
-66, 1723, -7130, -5121, 1589, -4798, -3660, -1918,
4891, -479, 189, 10020, 800, 544, -141, -1236,
1219, -5554, -2220, 4131, 7752, -1170, -2429, 462,
-810, 62, 8613, 720, 2806, -3582, -4479, 452,
-2568, -34, 1147, -164, 37, 2182, -8272, -217,
-626, -2384, 4096, -3542, -2874, 47, -239, -5778,
584, 847, 1599, 153, 1299, -3392, -959, 7187,
-1221, -2772, 1504, -3142, -316, -548, 3711, -1101,
-3239, -2648, -1620, -470, -1437, -599, -3277, 2448,
2984, -1222, 3729, -1188, -2163, -704, -1011, -1154,
-4624, 2943, 2800, 4767, 1919, 628, -2274, 169,
6006, -11101, 1371, -3780, 3878, 16232, -9103, 3319,
-10637, -8650, -12438, 9, 6419, 32752, 13984, -4707,
-20306, -2004, 882, -8998, -10111, -3017, 4303, -848,
2492, 825, 11053, -4860, -6368, -11514, -10057, -8589,
3472, 12827, 29740, 17579, -5266, -6196, -6804, -4731,
4323, 9484, -919, 1951, 906, 3004, 10705, 2731,
-13060, -4377, -11686, 1246, -2146, -365, -2356, -10659,
-5256, 4082, 20522, 14829, 4336, 1496, -7326, 4419,
583, 6432, 609, -5946, -5341, -229, 8513, -2702,
950, -6128, 4943, -2353, 1567, 9409, -2754, -1161,
-1767, 475, 2284, -1730, -979, 14244, 12680, -931,
-10120, -4264, -923, -3844, -4193, 2765, -205, 2099,
-627, -1321, 5639, -6618, -7623, -8542, -443, 5935,
1098, 2111, 14346, 8206, -4031, -7316, -2842, -3519,
3314, 6606, -163, 6420, 3519, -595, 4575, 82,
-5909, -5007, -8390, 2982, 839, 245, -3826, 768,
-124, -472, 11432, 8631, -1334, 362, -2394, 2457,
-61, 3287, 1822, -3133, -1588, 1766, 2118, -3037,
};

static short featrues_upconv2_1_bias[4] = { 
12147, 3935, -32728, -21251,
};

static short featrues_upconv2_2_weight[144] = { 
-5056, 5308, 7175, 949, 549, -3846, -1004, 675,
-925, 1106, 5152, 9609, -4083, 8901, 7922, 2599,
-2735, 3702, -11798, -10284, -5258, -10131, -10304, -1766,
-5857, 1286, 3741, 745, -1763, 2966, 634, -12265,
-5008, 2165, -6883, -356, -341, -4119, -916, 3304,
836, 4437, 778, 5510, -3279, -10731, -11990, -5430,
2769, 2236, -12056, -11116, -14343, 5556, 3345, 32747,
30071, -2652, 10034, 24295, 20286, 4810, -10395, 1954,
1265, -15879, 9317, 16520, 4448, 11551, -1260, 14350,
-3305, -2969, 6960, -4187, 1033, 4922, 4476, 647,
-2206, 1381, -4625, -5499, -481, -7629, -12103, -1912,
-1493, -10854, 3685, 583, 7322, 8396, 16605, 5901,
4496, -13774, -10512, -6244, -5714, 219, 675, 10064,
10332, 7206, 4230, -20, -1193, 6223, 4355, -231,
8917, 5855, 30, -179, 114, 1022, 2794, 3208,
922, 3413, 537, 457, 362, 379, 942, -8474,
6467, 2179, 21196, 31076, -6153, -7797, -6969, 669,
484, 4887, 685, 16360, 8337, 20936, 10867, 13627,
};

static short featrues_upconv2_2_bias[4] = { 
9213, -9593, 9571, -32745,
};

static short featrues_upconv1_3x3_weight[144] = { 
2258, -22992, -536, -995, -19551, -9250, 2103, 325,
3332, -4414, -6208, -1238, -1268, 7272, 5611, -2185,
-1720, -2898, -3177, -5773, 6363, 4469, 11197, 10794,
-2297, -3977, 3763, -4909, 2905, 1569, 3343, 24297,
-1960, 2031, -2162, -7762, -15628, 8566, -3637, -6625,
-1369, 1297, -9179, 357, 612, -5723, 5637, -10414,
12396, 10346, -724, 14916, 4509, -9821, -12407, -10420,
-5450, 7159, 8465, 14081, -8774, -12666, -2453, -2790,
-8906, -2145, -5249, 5907, -10625, 9962, -10831, -6798,
-4610, -897, -1249, -15812, 12290, 9598, 8538, 7032,
10437, 1435, -4297, 863, -7270, 3264, -902, 7784,
6783, 19405, 6308, -2281, 790, 6086, 10942, -7733,
595, 10453, -3327, -443, 373, 10061, 11140, 7052,
-3270, 18848, 19441, 6924, -1844, -760, -2705, 5173,
-8536, 17525, 4145, -7999, 2128, -6545, 3382, -3587,
-2851, 2942, -6417, 94, -2869, -6359, 2593, 2269,
-316, -1323, -12230, 10301, -133, -5930, 6960, -114,
6326, -2112, 9174, -32742, 797, -1487, 1403, -2279,
};

static short featrues_upconv1_3x3_bias[8] = { 
13433, 32759, -16335, 7679, -7557, 1779, -10315, -22694,
};

static short featrues_upconv1_1x1_weight[32] = { 
-21647, -12422, -2262, -12331, -4980, -17237, -6286, 3685,
-4944, -4145, 3343, -86, -3599, -7452, -13181, 3662,
-13704, 10318, -22021, -10207, -14647, -26859, 14284, -32757,
20153, -13100, -5492, -7126, -14625, -19575, 2364, 18751,
};

static short featrues_upconv1_1x1_bias[4] = { 
7, 2415, -525, 32747,
};

static short featrues_upconv0_weight[64] = { 
12282, 22781, 10932, 2291, 17797, 32752, 11846, 814,
3989, 10516, -928, -2538, 1550, 6491, 4139, 2100,
12940, -5332, -8036, -775, 11117, -17662, -1699, 8153,
4493, -3477, 25613, 18325, 1243, -11451, -4715, 1153,
-86, 4216, 5537, 920, 5115, 19804, 23437, 8488,
5664, 22390, 24096, 8019, 121, 6740, 5347, -661,
-2138, -6749, -8723, -4281, -7548, -22837, -24727, -9410,
-9836, -25548, -24650, -8286, -3650, -9848, -8904, -2346,
};

static short featrues_upconv0_bias[1] = { 
-32758,
};

static int maxcoe[42]={ 
7457, 20285, 12610,
43294, 38751, 68171,
34704, 7519, 16783,
385935, 33150, 10730,
17995, 770303, 72639,
9495, 14173, 25214,
9692, 12564, 7513,
1542886, 5150, 17794,
18495, 689314, 125988,
11218, 29377, 10053,
46542, 16353, 45982,
10948, 28756, 22740,
18814, 348376, 127733,
28192, 48287, 283052,
};

#endif
