#if 1
static float para_en_featrues_deconv1_weight[36] = { 
-0.1646150947,
0.3988209069,
0.1872546673,
0.2026129961,
0.0427346416,
-0.7927713990,
0.3031937182,
-0.8317291737,
-1.6274775267,
1.2834038734,
-2.0263676643,
0.9779520631,
0.1633995622,
-2.2292661667,
1.2323027849,
1.0846124887,
-0.4550119042,
0.8410796523,
0.0298354477,
0.4829717577,
0.2436645031,
-0.8175559640,
0.5322668552,
-0.5515147448,
-0.4905201495,
0.4406237006,
0.0574291535,
-0.2050860822,
0.1922646016,
1.1294274330,
0.4822253287,
-0.6289873719,
-2.0685992241,
-0.5874727368,
4.3870277405,
-1.1514043808,
};

static float para_en_featrues_deconv1_bias[4] = { 
1.6141657829, -1.4356132746, -0.0655496493, -1.3290894032,
};

static float para_en_featrues_deconv2_1_weight[144] = { 
-0.4314970970, -0.7000215650, -0.1665259004, 0.6553931832, 1.1053766012, -0.4669933617, 0.0525242798, 0.1345828176,
-0.2805458605, -0.1851927936, -0.1947534680, -0.2190375477, 0.2661903799, 0.0092752734, 0.1861517280, -0.2316126376,
0.8767071366, -0.4092399180, 0.0791538283, 0.1140811145, 0.1523401886, -0.4695705771, -0.1785217822, -1.3507376909,
0.3070681393, 0.3393490016, -0.3761487901, -0.3080661893, -0.1272650957, 0.2868237197, 0.1799792945, -0.9267331958,
-0.4490136206, -0.0328132547, 0.0067724236, -0.2243809253, -0.1747764498, 0.2484797239, -0.2626097798, -0.4013841152,
0.9016130567, -0.3853344023, -0.7168370485, 1.3066916466, -0.5994300246, 0.0045858012, 0.1391415447, 0.1023623869,
0.1301537454, -0.4278932512, 0.8486590385, 0.1962208301, -1.4731969833, 2.5957350731, 0.1463806182, -0.5104424953,
0.0198824238, 0.1050666347, -0.2046304494, -0.4557054043, -0.0717428923, 0.1020724028, -0.2714270353, -0.0252342764,
-0.6228685379, 0.2388499528, -0.2878627479, 0.4219794273, -0.3975660503, -0.7550845146, 0.3353711367, -0.7036166191,
-0.0610587373, 0.1349440217, 0.0209978931, 1.1260195971, -0.0517931283, -0.0185275916, -0.1851439774, -0.0285785403,
-0.1693385988, 0.1583309621, -0.3894551098, 0.1518421769, 0.0346237980, 0.0350148864, 0.1354106218, -0.1757480204,
-0.0898332074, -0.0270067006, 0.1357819885, 0.1174672619, 0.2245416790, -0.1506044418, 0.2052201331, -0.2872898579,
0.0732404664, 0.0224698987, -0.2958009839, -0.0810716823, 0.0334150791, 0.2000704259, -0.1090641022, -0.2201759070,
0.0508747660, -0.0347190835, -0.1278500408, -0.0511418618, 0.1817681342, 0.7427089214, -0.3555560708, -0.9983804226,
0.5526019931, -0.1618303657, -0.4375337362, 0.0003022463, -0.4845265448, -0.6720818281, 0.4688451588, -0.5549501181,
-1.1347815990, 1.2617357969, -0.8908032179, 1.4520689249, -1.2835935354, 0.0835141912, -0.0930342525, 1.2862852812,
-0.6432020664, 0.9013837576, 0.8500388861, -0.1944254041, -0.7759106159, 0.5758688450, -0.5404850841, 2.5116851330,
1.1415177584, -0.2545185089, -1.1826757193, -1.3369358778, -0.5038599968, -0.7121822238, 0.7558820248, -0.6962895989,
};

static float para_en_featrues_deconv2_1_bias[4] = { 
0.7565049529, 0.4323977232, 0.0299053788, -0.5046682358,
};

static float para_en_featrues_deconv2_2_weight[144] = { 
0.0862048715, 0.4084730744, 0.1983732283, -0.1619107723, -0.3980102837, -0.5502587557, 0.1234876215, 0.1420693547,
0.4137574136, -0.4198626876, 0.1476135850, -0.2996139526, 0.3386847377, 0.1434400827, 0.1380915940, 0.0365549587,
-0.1440208405, 0.1940950304, 0.1417800635, -0.6228399277, 0.4247575998, -0.2812449932, -0.1723460704, -0.0560798645,
-0.0425880440, 0.3339749277, 0.0300409663, -0.1146467328, 0.1079317704, -0.6438274980, -0.1280835420, -0.3343101144,
0.3098871708, 0.1080316156, -0.5282326937, 0.4234104753, 0.2003386170, 0.2504085898, -0.1028510258, -0.0652413592,
-0.5693174005, 0.2824560404, 0.0501428097, 0.5161091685, -0.1846079975, -0.3033839762, 0.0979826450, -0.1044477075,
-0.2652001083, 0.1904446632, 0.1003623977, -0.2213383615, 0.0165708996, 0.0164083354, -0.0463230610, 0.3605320156,
0.1715995222, 0.0852933154, -0.2298364788, -0.1845404506, -0.0227899812, 0.2835907936, -0.0012335299, 0.0422165617,
-0.0767849088, -0.1605476886, -0.0403523333, -0.1275602281, 0.1660064608, 0.0786758140, -0.4507825673, 0.3616594076,
0.0749068931, -0.0714223161, 0.0542561337, 0.1675330102, 0.0080286628, 0.2526339293, 0.3408712447, -0.1500992775,
-0.0530477054, -0.0690939501, 0.0117214369, -0.1080322564, 0.6742762327, -0.8451768756, 0.0279985778, 0.0049047610,
-0.1895251572, 0.1089389473, 0.3116763532, 0.2240123004, 0.2814866602, -0.1272049695, -0.1601224989, -0.5553585291,
0.1460032910, 0.3672164083, -0.5985020995, 0.0795251876, 0.1788529009, 0.2793484330, -0.1472256035, 0.0401858576,
0.0873441547, 0.0348512381, -0.5104836822, 0.3976351023, -0.2124504447, -0.2245680839, 0.3102513254, -0.0175529290,
-0.2410842776, -0.1916495264, -0.0368849449, -0.2659987211, 0.1023473516, 0.3629955649, -0.0391640887, 0.0146355303,
-0.0686169118, -0.1788787842, 0.1970056295, 0.6441416740, 0.2322261482, 0.1368146092, -0.1038813293, -0.4023407996,
-0.2497244030, 0.3852943778, 0.2229838371, 0.0169971511, 0.1042716429, 0.1836809665, -0.1167783663, 0.0517252237,
-0.3528506756, 0.0392316282, 0.2042207122, 0.0382235646, -0.6119989753, 0.4097558260, 0.7026757598, -0.5997776985,
};

static float para_en_featrues_deconv2_2_bias[4] = { 
0.1859108508, -0.4804833829, 0.1069794446, 0.1301753074,
};

static float para_en_featrues_deconv3_weight[1152] = { 
-0.0455561616, -0.0090762544, -0.0344546326, -0.1033768132, 0.3176890612, 0.0213192534, -0.0031689871, -0.0303920135,
0.1523554772, 0.1366623044, 0.1269918680, -0.1049882844, -0.0057854992, 0.2211885303, -0.0217225086, -0.0199959427,
-0.0340564065, -0.1316592842, -0.0674703047, 0.0204930175, 0.3439091146, 0.1248318627, 0.1048562974, 0.0618577637,
0.0028298711, -0.1157729700, -0.1422731727, -0.4184236825, -0.1411303878, 0.0673288479, -0.0132221701, -0.0643702969,
-0.1105657592, -0.0457841381, -0.1025617346, 0.2406287938, 0.1057134196, -0.1999063194, 0.2563077807, 0.0092512928,
0.0468076244, -0.0868312344, -0.0235991273, 0.1775245517, -0.2268763483, -0.0768663064, -0.0669104159, -0.0570451170,
0.1063104570, 0.0064250804, -0.2200919837, -0.1642022729, 0.1261512786, 0.2149794400, 0.1349043995, -0.1749477684,
0.3517357707, 0.1563987285, -0.0090769054, 0.2035536617, -0.0275337826, -0.0252813697, -0.1077168658, -0.2358810157,
-0.0581345297, 0.1429688632, 0.0476627871, -0.0037926701, -0.0151089877, -0.0791653395, 0.0832874700, -0.2954481840,
0.0107106259, 0.5249722600, -0.2052479088, -0.1763188392, -0.0130519886, 0.0402756147, 0.2642352581, -0.5470353365,
-0.0808428451, -0.1774380207, -0.1246891990, -0.2236987054, 0.0548200533, 0.1188286543, 0.1876111329, 0.2804895937,
0.3138791323, 0.1269863844, -0.0685219541, 0.1062167361, 0.3108231127, 0.1192825362, 0.2261815667, 0.1710102409,
0.3386496007, -0.1914997697, -0.3651486039, 0.3818182647, -0.1061935052, -0.0562587492, 0.4705732465, 0.2616346180,
0.5024657249, -0.1877665073, 0.4049105942, 0.2590216100, -0.2340158224, 0.0226794332, 0.0682719871, 0.2241683900,
-0.2453747839, -0.1322187036, 0.0593665913, -0.0883069038, -0.1157642826, 0.0309697818, -0.1399307549, 0.0658109114,
0.3409155607, -0.5469074845, -0.1049752533, -0.1087958664, -0.1079648957, 0.1182389408, -0.1749541163, -0.0812003165,
0.0685258806, -0.1094733030, -0.1797114760, -0.3030076623, -0.0129178623, -0.1244102418, 0.1654415131, -0.0424717516,
-0.0970058218, -0.1056469902, -0.0354437977, -0.0976806358, 0.1227131188, -0.0689730868, 0.0021303901, 0.3014101088,
-0.2962561846, 0.0827108845, 0.2146719992, -0.1959404498, 0.4377441108, 0.1444220692, -0.1698707044, 0.1656172574,
0.1369908750, -0.0569375157, 0.0610048696, -0.0910478383, 0.1944068670, 0.1547644436, -0.1405611336, 0.0211179815,
0.2152959555, 0.2083460093, -0.1014479324, 0.0293272249, -0.0106629534, -0.0747162476, 0.2308637351, 0.0677047670,
0.0285239518, 0.3270626366, -0.1239601225, 0.1520898938, -0.1228902265, -0.0839137137, -0.0689613074, -0.0910125151,
-0.0423401184, 0.4044130147, -0.1070261896, -0.1025873795, 0.0941909775, -0.2721226215, 0.1274899989, -0.0619130582,
-0.1502353698, -0.1848440766, -0.1304884553, 0.0954699740, -0.3321910203, -0.1184277013, -0.4203890264, 0.0823622346,
0.3112191260, -0.2866863906, -0.0442560427, 0.0791517422, -0.1295172870, 0.1124421954, 0.1756307781, -0.2634321451,
0.2380227298, -0.2436752766, -0.1430772990, 0.2974221706, 0.2023276538, 0.0735324547, 0.1274623126, -0.2268435657,
-0.0044369004, 0.0967499837, -0.3273733556, -0.3971311450, -0.1525395215, 0.1843356043, -0.0753996894, -0.0751530752,
-0.0676011816, -0.1703989953, 0.0358226039, -0.0915910453, 0.0019945970, -0.1269045919, -0.1250498891, -0.2263189703,
-0.2048999369, 0.0748868734, -0.0116939917, 0.0914452896, 0.2563130558, -0.1526319236, -0.0000919631, 0.1051500291,
0.0223337673, -0.0173842572, 0.1953893006, -0.2246095836, -0.1715209931, 0.0406483039, -0.2062994838, -0.0297820047,
-0.1067185402, 0.0447166413, 0.0692481771, 0.1669833362, 0.1032596305, 0.0638360903, -0.0177964494, -0.2842685580,
0.0916641131, 0.1261480898, -0.1925138682, -0.2202184051, 0.0624461994, -0.0418527685, -0.1346949637, 0.0526228249,
-0.0418886505, 0.1884409785, 0.0074483887, 0.0817987397, -0.0513316542, -0.0647844970, 0.0707670823, -0.0983234197,
-0.1883467734, -0.2084868550, -0.1577179283, 0.0784989372, -0.0997059420, -0.1256963611, 0.0249319132, 0.0051378435,
-0.2850362957, -0.0954101235, 0.0895736590, -0.3787397146, 0.0855864361, 0.0367115252, -0.0248395111, 0.0154966256,
-0.1219110563, -0.0965715945, -0.1483892202, -0.1803538352, -0.0595650673, 0.0637036264, -0.1528750360, 0.0297570154,
0.2351114452, 0.0126794111, 0.0383406542, 0.2268014401, -0.4579832256, 0.0936109051, 0.4498900175, -0.1304197460,
0.1113070250, -0.0468743555, 0.2878195941, 0.0414480940, -0.1898030192, 0.0081253378, 0.0463894047, 0.1259126216,
0.2142645121, -0.0193846207, 0.2988985181, 0.0814963058, -0.1104120687, 0.1852287799, 0.2188365161, 0.1111005321,
0.4420848787, 0.3097778261, -0.0928959399, 0.2538028359, 0.2452422976, 0.0682764500, 0.2376980036, 0.1273286641,
0.0725499019, -0.1397556961, 0.1914501339, 0.1060016826, -0.1063780487, -0.0748738274, 0.2070051134, 0.3926930130,
-0.0330690145, -0.1711333096, -0.0611485839, 0.0514306203, -0.0309721045, 0.1990154535, 0.1600469500, 0.0970341042,
0.1235366836, -0.0299646538, -0.2936521471, -0.0796608776, 0.1594951302, 0.0280003920, -0.1292594820, -0.0627504811,
0.0518777557, 0.2091732174, 0.1297011226, -0.1372019351, -0.0988677666, -0.1339046955, -0.0585488528, 0.1123950407,
0.1813783646, -0.1364859790, 0.1557692587, 0.3361354470, -0.0866470560, -0.0499027185, 0.0470149331, -0.2238266915,
0.0913589001, -0.1223109290, 0.1011501700, 0.2299867123, 0.0211489368, 0.0394882001, 0.1126288474, 0.1269273013,
0.0387340710, -0.2337827235, -0.1911231726, -0.0420394503, 0.1043677554, -0.1536535323, -0.1121433601, -0.0535628200,
-0.0662513971, -0.0415750518, -0.0182240978, -0.2917362750, -0.0668311417, 0.0193755291, -0.1687224060, 0.0175724030,
0.0195024423, -0.1115195975, -0.0389832854, 0.0599109307, -0.1338362247, 0.4734953344, 0.0325131230, -0.3088822067,
0.0106369527, 0.1538615525, -0.1314517260, 0.0375652537, -0.1165195107, -0.1040138155, 0.0243778732, -0.0414390191,
-0.0329962596, 0.2223469615, -0.0363411196, 0.0038075696, -0.0214627180, 0.0808037966, 0.0773163810, 0.0203088783,
-0.0094212508, -0.1159182861, -0.0578350835, -0.0276265629, 0.0624080263, 0.0668558329, -0.0512317233, 0.0799878985,
-0.2034334987, 0.0231978055, 0.1410151869, -0.0297782160, -0.0243932661, -0.0045243497, -0.0067896615, -0.1055171937,
-0.1165189371, -0.1132935509, -0.0151147703, 0.1196163148, -0.1436855644, 0.0712324381, -0.1519072652, 0.0740934163,
0.3430567980, -0.1662516445, -0.0097998744, -0.2609580159, 0.7276371717, 0.3283916712, 0.1068867221, 0.1097221151,
-0.1143296212, 0.2198990434, -0.4674577713, 0.0686772689, -0.0378262401, 0.0834739357, -0.0002345683, -0.0390613489,
0.0795645714, -0.0381966271, 0.0544739962, 0.0812306777, -0.7959784269, -0.2488272190, -0.3021574616, 0.1374106407,
-0.0102285910, -0.3233346939, 0.3477707505, -0.2364741862, 0.0464180782, -0.1903866380, 0.0299503822, -0.7890486717,
-0.3042581677, -0.2098817825, 0.2566115856, 0.2313107252, 0.1226905733, 0.1365736872, -0.0544929430, -0.1875382215,
-0.4895247817, 0.3292012215, 0.0766358674, 0.1831256449, -0.1589488685, -0.2503095269, 0.0094245337, 0.6165149808,
0.4756796360, -0.1233498231, -0.2489003986, -0.4013454914, 0.0624784604, 0.3288315237, 0.3971110284, 0.2907635272,
0.1790193468, 0.0230149496, 0.0615580976, 0.1121324003, 0.1006811336, -0.0598769970, 0.0965187624, -0.3151368499,
-0.0644267872, -0.1970587820, 0.1245728806, -0.0034829578, -0.0000433876, 0.0162835363, -0.2004245520, 0.1645379812,
0.1024268642, 0.1810940504, -0.2035703361, -0.6479735374, -0.6765757799, -0.0612712987, 0.0622739717, 0.2209558934,
0.0038389007, 0.1845271438, 0.1490619779, -0.1098983660, 0.1111824587, 0.0991095006, -0.0259110648, 0.0207946580,
0.0915661156, 0.1816043705, 0.0539643914, 0.1981485039, 0.2204612195, 0.0368835069, -0.2659373283, -0.0684416890,
0.2125046700, -0.0513451323, -0.0358587988, 0.0943844393, -0.1698141098, 0.2677910328, 0.2172276825, 0.3430451751,
0.0954326466, -0.5863248110, -0.4206166863, -0.0562367067, -0.4481891394, -0.3648473620, 0.0490281843, 0.3798446953,
0.1204292774, 0.0711684898, -0.3926151395, -0.0882953554, -0.0504677594, -0.1237416044, -0.0038117976, 0.0049897633,
0.0551947579, 0.0527286418, -0.1016478837, 0.0770389587, -0.2797620595, 0.1160095409, 0.1289224327, -0.0303358287,
-0.2195682675, -0.1545252055, 0.1853984147, 0.4323230684, 0.0093630692, -0.1095569879, -0.1261559725, -0.2949193418,
0.1059409007, 0.1239968017, 0.1415396035, -0.0794466883, -0.2481501102, -0.0002226318, 0.0297876168, 0.0089171911,
0.4238038361, -0.1815870553, 0.0443133973, 0.0074935709, 0.4171168208, -0.1012848690, -0.9437045455, -0.5514437556,
-0.0555853620, 0.1267909557, -0.0447377115, 0.2071543783, 0.2494397312, -0.3347246945, -0.1530859023, -0.2703887224,
0.1779734194, 0.0801527202, -0.2065743804, -0.1925594211, -0.1295210123, 0.2712035477, 0.5134235620, 0.2482987344,
-0.1175382435, -0.2401200235, 0.4301445782, -0.4369245172, 0.0608259924, 0.3844544590, 0.2215798795, -0.2682101429,
-0.1353094876, 0.0682846457, 0.1242224127, 0.4433801770, 0.0323775634, 0.1790691912, 0.0288515687, -0.1430433244,
-0.2900586426, -0.0262251813, 0.1263418645, 0.0456888452, 0.1384633780, -0.0562585741, 0.1072357297, -0.2727023661,
-0.4749974012, 0.1603325903, -0.0816932544, 0.2160811424, -0.2451921701, 0.1015820205, 0.0782755315, 0.2389934212,
0.1431583017, 0.1361622810, -0.0714838207, -0.0705272481, 0.0224720798, 0.0798381865, 0.3116539419, 0.0562801063,
-0.0892270356, -0.1968585402, -0.4110701382, 0.4172676802, 0.0159870610, 0.2179801017, -0.2875390351, -0.2849693298,
-0.0053213290, -0.0454030856, 0.0537214056, 0.0346639752, -0.2643019557, 0.0092370473, -0.0046430537, 0.0070423963,
-0.0110380789, 0.0918314680, -0.0049644494, -0.0318954028, 0.0469331406, -0.0550880134, 0.0275002588, -0.1309324503,
-0.0141681815, -0.0496125743, -0.0103939176, 0.3195248842, 0.2120892406, 0.2039514631, 0.2937810719, 0.1851814240,
-0.0200952366, 0.4134851992, 0.3769907653, -0.2439028323, -0.2329780012, -0.0527899563, -0.4448201954, 0.2356292605,
0.1999135464, 0.3017685115, 0.1119315177, 0.1598244309, 0.1299006045, -0.0795694962, 0.0343002416, 0.0072627137,
-0.0511668734, 0.0622976944, -0.0788336918, 0.0099658994, 0.0617480837, -0.0971009955, -0.2356815934, -0.0607921742,
-0.4374004900, -0.1326040626, -0.0045276470, 0.3019725382, 0.2321157753, -0.0507187918, 0.0749432221, 0.1122951061,
0.0667799339, -0.1195485219, -0.0289822407, 0.0359147266, 0.0074428786, 0.0798301324, -0.0071703438, -0.1707796752,
-0.0568396524, 0.1255134046, -0.0535234176, 0.0054834606, -0.2516687512, 0.0967922881, 0.0077410890, -0.0176260117,
-0.2303105742, -0.1201317534, 0.1694296449, -0.3553079963, -0.0041862465, -0.2060758024, 0.0358160362, 0.0499181263,
-0.1272605211, -0.1112098768, 0.2496311367, -0.1174769476, -0.1403006017, 0.1565844715, 0.0807618126, 0.0222053956,
0.0748559162, 0.0914169550, 0.0541501641, -0.2776662111, 0.0106549412, -0.0943940356, -0.4158919454, 0.1412477940,
-0.0579433590, -0.0876548886, 0.0395319723, 0.1731348783, 0.0406520143, 0.2628206313, -0.1444329470, -0.2194698304,
0.4089293480, -0.1037335694, -0.4163906574, 0.0952971205, 0.2927930951, -0.2946370542, 0.0631192550, -0.0393160060,
0.2459020764, -0.0932659879, -0.0184150003, 0.1325924546, -0.0654716119, 0.0527936593, -0.0505830161, -0.0314948857,
-0.0031457553, 0.1076560393, -0.2443023175, -0.1263233125, -0.1072034240, -0.0567389466, 0.3855493665, -0.2695602477,
0.1818034500, 0.0806678832, -0.1151719391, 0.1728736162, 0.0258765630, 0.0927139148, 0.0074439878, -0.1060023829,
-0.1139642224, 0.2591303289, -0.1559427381, -0.2185006589, -0.2513738871, -0.1475157142, -0.2535251081, -0.0069339490,
0.0678263977, 0.1866253167, -0.0455392525, 0.3742015660, 0.1197138876, 0.0069345683, 0.0631620139, -0.0015756378,
-0.0627087280, 0.0448238142, -0.2125131935, 0.0519546904, -0.0143674314, -0.3100974262, 0.2401002645, 0.0912436172,
0.1227593794, 0.1176181212, 0.2041469812, -0.3948538601, -0.1496829689, 0.2770494223, -0.0466037579, -0.1380928457,
0.1383969486, -0.1372530609, -0.0851277187, 0.0362428054, 0.0150375189, 0.0016015725, 0.0715104938, -0.2608223259,
0.0036861482, 0.1008261219, -0.1098519266, 0.0583426058, 0.0396996997, 0.1533866972, -0.0268578008, 0.0136986179,
-0.2623633444, -0.0503963195, 0.0632351860, -0.2397708446, -0.0501789711, -0.0340978429, 0.1977312416, -0.2078836858,
-0.4355653524, 0.2431887388, -0.0374710970, -0.1535005420, 0.2040026188, 0.0339008681, -0.4373634458, -0.0640534088,
0.1075199470, -0.2020406425, 0.0801114067, 0.1717194319, 0.0304314606, -0.0999350026, 0.0747724399, 0.0084771365,
-0.2415620983, -0.1356372982, 0.0611386485, -0.0908234939, -0.2256327122, -0.1068771631, -0.1466769427, -0.1473269463,
0.0565142892, 0.1932175606, 0.0592480078, 0.3954035342, -0.6553342342, -0.1830474287, 0.0861594081, -0.8046740294,
-0.4369171560, -0.1560564637, 0.1170190126, 0.0348647088, 0.4083737135, -0.4670771062, -0.1885250807, 0.1616056859,
-0.2654089630, 0.0428370759, 0.1321937293, 0.0721714273, 0.6218584180, -0.2267749906, -0.4894391298, 0.2516763508,
-0.0053120255, -0.4838678539, 0.3000753522, -0.0137243811, 0.0139347669, 0.1885884404, 0.0975769907, 0.2880378067,
-0.1525043994, 0.0571300946, -0.4505334496, -0.3632010818, 0.0330781229, -0.1123344377, 0.3298073411, 0.0112046925,
0.1243307665, 0.0116275353, 0.2906673849, -0.1606421322, 0.0785286948, -0.1089001149, 0.2911924124, -0.0653899387,
-0.0169903766, 0.0185824241, -0.4089378417, -0.0570615083, -0.0017950743, 0.1254989356, -0.0035812708, 0.0474914834,
-0.2155036628, 0.0109720863, 0.3077318966, -0.4117180109, -0.2593925595, 0.1737991720, -0.6247337461, 0.0585728735,
-0.1287776083, 0.3273925781, 0.2426435798, -0.2041171789, 0.2804712653, 0.2340796739, -0.2488376051, -0.1304565221,
0.0070518912, 0.1469411105, 0.0299207345, 0.0362762101, 0.1034821421, 0.0928224027, -0.2518874109, -0.5378645658,
-0.1924019903, 0.0327411368, -0.0645542219, -0.1911024153, 0.3044398427, 0.0674362481, 0.0520462506, -0.1107047275,
0.0003031673, 0.0078624263, -0.1674982458, 0.0190610290, 0.2228171974, 0.2568447292, 0.5990414619, 0.2051331848,
-0.1513868272, -0.4661131501, -0.0454780161, 0.1241723523, -0.0159676671, -0.0263309833, 0.0986116603, 0.1031781286,
0.4464775026, -0.0134966979, 0.1832170933, 0.1562010050, 0.1332534254, -0.0004756006, -0.0560536087, -0.1679490209,
-0.0184257012, -0.0819111094, 0.3481986225, 0.3557373583, -0.0919061676, 0.1263947934, 0.1208255291, 0.1950591803,
0.0512511805, -0.0320134759, 0.1018319279, -0.0641283914, -0.0164137036, -0.1164500192, 0.0172330849, 0.0717610493,
0.0468641445, 0.0888174772, -0.0895177573, -0.1591023058, -0.0159622729, 0.0293259770, 0.0195758697, 0.1672914028,
-0.2643190920, -0.1339523643, -0.1004995629, -0.0822500065, 0.2993153036, -0.0057744528, -0.2023913562, -0.3923887312,
0.1953198612, -0.3575240374, -0.0185694955, 0.0387104005, -0.4015956521, -0.0816619918, -0.0938005075, -0.3035649955,
0.1795877963, -0.0304761417, -0.0394279733, 0.0354902744, -0.0999901667, 0.1383475512, 0.3169744313, -0.2345887870,
0.0937370658, -0.1842662394, -0.0799038708, -0.2764983475, 0.1005139351, -0.0583994687, 0.0094418311, 0.1333508939,
0.1581879109, 0.0099119712, 0.1977409571, -0.2099746615, -0.1466852129, 0.2592705488, 0.0196409095, 0.0308689196,
-0.1580969989, -0.4347625673, 0.3710338473, 0.2827118039, 0.0160440709, 0.0536510795, -0.0480549037, 0.2121243477,
0.0554838516, 0.1588557363, -0.0815930814, 0.3183609247, 0.0630426481, -0.1394388676, -0.0949170068, 0.0208452754,
-0.1349216253, -0.1988100559, -0.0668790489, -0.1392894238, 0.1649227440, 0.0091609424, -0.0825625956, -0.0384932794,
0.1720043868, 0.1380608678, -0.5679034591, 0.0734634325, 0.0797127858, -0.1415605992, -0.2495579869, -0.1186772287,
-0.1277908981, 0.0525558591, -0.0476954579, 0.0265553780, 0.0120579470, -0.0437287092, 0.3177881539, -0.5233342052,
0.0310930181, 0.0587958992, -0.0414200574, -0.2713201344, -0.2349352390, 0.0033425146, -0.0520511568, -0.0186719242,
-0.0338478275, 0.0690829605, -0.0648809373, 0.0201999359, -0.0838265494, -0.0530541167, -0.0027345950, 0.0154774264,
0.0540945455, -0.0826186240, -0.2312126160, 0.1162666380, -0.0357640944, -0.0627655834, -0.1352720708, -0.1650116295,
-0.2949026823, -0.4178567529, -0.0240105614, -0.0554685518, -0.1047606021, 0.0871738195, -0.2352501750, 0.2087600678,
0.0971073359, -0.0862198472, -0.3142537773, -0.2171669602, -0.1051659584, -0.0028445355, 0.0459733233, 0.0171385836,
-0.0772491470, -0.0227700509, -0.1087722853, 0.0044291085, 0.0416628867, 0.0321556143, -0.0186894555, -0.0225833282,
-0.0910733640, 0.0857741684, -0.0077013019, -0.0255452711, 0.0389784575, -0.0051501049, 0.0696236640, 0.0672956035,
0.0432040915, 0.1225330904, -0.0718117207, -0.1793078184, 0.0256260503, 0.1245058551, 0.0326789618, -0.0959336460,
-0.0087889927, 0.1041526869, 0.0095214257, 0.0806014463, 0.0022822337, 0.0107938256, -0.0266555883, 0.0572031662,
};

static float para_en_featrues_deconv3_bias[16] = { 
-0.3049641252, 0.8584972024, -0.3711211681, 2.6424036026, -1.5619559288, 0.9847167730, -0.1031431258, 1.7189478874,
0.7260446548, -0.9123582840, 3.2060694695, 0.4051004648, 1.5648262501, 1.3180412054, 1.3431687355, 4.3506402969,
};

static float para_en_featrues_deconv4_1_weight[144] = { 
0.2078197002, 0.1337049007, 0.1095097214, 0.3181371987, 0.8614320755, -0.1827402115, 0.0245716739, -1.8300759792,
0.2088493258, -0.0855464041, -0.0004072120, -0.1940783709, -0.0606470816, 0.1479772478, -1.5919491053, -0.1338908374,
-0.2987776399, 0.0870793164, -0.0840685293, -0.3688023388, -0.0171199813, -0.2282862961, -1.0721162558, 0.0319796614,
-0.1705805957, -0.1767890304, -0.1042126641, -0.3567250371, -0.3163041174, 0.1930607110, -0.8507613540, -0.0699701533,
0.7137857676, -0.6165561080, 0.3702116013, -0.0329529271, -0.0855847523, -0.0815235227, -1.0691592693, -0.1519733369,
-0.0234247111, 1.4203575850, -0.0443214141, -0.3321925104, 0.4184908271, 0.0990368500, 0.3195762336, 0.2427645773,
-0.1285151094, -1.6396299601, -0.0777614489, 0.1046463177, -0.1370463520, -0.3742694259, -0.1233426929, -0.1034446731,
-0.0927179977, 0.2520912588, 0.3880225718, -0.1746358573, -0.1723916233, -1.6498864889, 0.0477952920, 0.1676991731,
-0.2202526927, 0.0703950077, 0.0646391138, -1.6978280544, -0.0935493410, 0.0233293120, -0.0234699659, -0.0194411147,
0.2820911705, -0.1607970595, 0.0319698267, -0.0172877852, -1.9507372379, 0.2664225698, -0.0089200037, 0.0776755214,
0.0646998957, 0.0379475728, -0.1586189717, 0.4522769451, 0.0991994888, -0.1387765110, 0.1611434072, 0.1045169979,
0.2212586403, -1.5627601147, 0.1531343907, 0.2268076539, 0.0940046310, -0.1788543165, -0.3084094524, -0.0039880415,
-0.2398799062, -1.6789895296, -0.0505870543, 0.0747904405, 0.7098073959, 0.3669694960, -0.0051845405, 1.1849094629,
0.9983302951, -0.0669442415, 0.8415725231, -0.1777712554, -0.6361050606, 0.2556981444, -0.1147275865, -0.5642781258,
-0.7861313224, -0.2211809754, -0.0822678357, -0.1914263070, -0.0531711169, -0.0876302049, 0.1298201829, -0.5352190137,
-0.0621202886, 0.4032544196, 1.8718948364, -0.0674616098, 0.2121911049, 0.2572701275, 0.1297227740, 0.3743329942,
-0.2415762842, -0.4004672468, 1.8582577705, 0.6432487369, 0.1892975122, 0.2067217082, 0.0790818781, -0.1358708888,
1.6893631220, 0.1274966598, 0.1962226182, -1.1837526560, 0.0508129187, 0.0822052881, -0.0034666928, -0.0228109248,
};

static float para_en_featrues_deconv4_1_bias[16] = { 
0.0848825350, 0.0115059586, 0.0308510065, 0.0115854135, -0.0177408867, -0.0198677499, 0.0055522220, 0.0045720576,
0.0016556331, 0.0602974333, -0.0439974032, -0.0319322385, 0.0050454824, 0.0597476214, 0.0291721094, 0.0781343877,
};

static float para_en_featrues_deconv4_11_weight[256] = { 
0.1987546384, 0.0765299052, 0.1171156541, 0.3678227067, 0.0698157176, -0.4484673738, 0.0393011943, -0.0584691688,
0.0253177769, 0.3655868471, -0.2998812199, 0.1024919972, 0.2946131825, 0.0399465486, 0.0631918758, -0.0532336496,
0.1195590347, 0.3546303809, -0.3715534806, 0.4051552713, 0.0986636654, 0.4021031260, -0.1906165779, 0.1034901440,
0.0256119259, 0.1811021119, 0.0727705210, -0.0014280278, -0.2661294639, -0.7921963930, 0.0479179993, 0.2761287689,
0.0685776770, 0.1524449289, 0.2715557218, -0.2860484719, 0.3460373580, 0.0552979968, -0.0303095113, 0.1723818034,
0.0426994376, -0.4308029413, -0.0730772465, -0.1684074551, 0.0739602372, -0.3017336726, 0.0556769036, -0.0901266038,
0.1331714392, -0.0559498183, 0.0429782271, 0.1568788439, -0.0973011106, 0.0959220901, 0.1064621806, -0.2333866060,
-0.4338112473, 0.0708783120, -0.5178778172, -0.1696238369, -0.0370287821, 0.1140099689, 0.1614709795, -0.1051235572,
-0.7280426621, -0.1133826151, 0.0227670558, 0.1319228411, 0.1294953376, 0.2036159039, -0.0187497661, 0.0896545202,
-0.2267312855, 0.1923191249, 0.0457594916, -0.0542223081, 0.2105897814, -0.1686362028, 0.1469957083, -0.3558844924,
-0.0981702879, -0.5482904911, 0.0186618753, -0.1878153533, 0.1896394491, -0.1893863827, -0.1325113326, -0.1596481502,
0.0425080471, 0.4388000667, -0.0746626705, 0.0708738193, -0.1496778429, 0.4375902712, -0.0261240248, 0.0852292478,
0.1117654592, -0.3404295743, -0.3644953370, -0.0782573149, 0.6112290621, 0.2134773880, 0.9879158139, -0.0807058960,
-0.0618690923, 0.2769194245, -0.2542196214, 0.3472036719, 0.1058382317, -0.4220076203, 0.1859618723, -0.0880372822,
-0.2490492910, -0.0896245018, -0.2158238143, 0.0036581003, 0.0344446935, 0.1755967140, 0.0174727254, -0.1572852880,
0.2042329460, -0.0844409764, 0.2548511326, 0.4553166032, 0.0149856079, -0.4143888354, -0.1206057891, -0.1119948626,
0.4166528881, 0.0334098563, 0.1517726481, -0.0678278729, -0.0460208543, -0.2995456457, -0.1379888952, -0.1382119805,
-0.1789102405, 0.1852020174, 0.3440544903, -0.1053833216, -0.2194911540, 0.2001120001, -0.0532297492, -0.0041342764,
-0.0083017042, -0.0863162428, -0.2824693024, -0.1523992270, 0.2550985813, 0.1043822393, 0.0909476131, 0.0121836634,
0.0538866147, -0.2588542998, -0.2237792462, -0.0097147562, -0.0951092839, -0.0158592146, 0.4887154996, -0.0574854389,
0.1131496206, -0.2761558890, 0.1934605241, -0.0547435060, -0.1485908926, -0.1959808618, -0.1637070924, -0.4374974668,
0.2299321741, -0.0758636966, -0.2116334140, -0.1017468125, -0.0432712026, 0.0324502401, -0.0406408235, -0.3819961846,
0.1257923245, -0.1762903631, -0.3425003588, -0.0292188246, -0.1028931364, 0.0154696573, -0.0224831216, -0.0578511395,
0.1015728042, 0.2239731699, 0.2593817413, 0.3173795342, -0.1523317546, 0.0837008134, -0.1004749015, 0.2096167356,
-0.1546495855, -0.0708539933, 0.2285109758, 0.0213979594, -0.1531340480, -0.5328631997, -0.0822623223, 0.0773433745,
-0.0980083644, -0.4849639833, -0.0642275810, -0.0213391110, 0.1986819655, -0.1647833586, 0.0829354897, 0.7611390352,
-0.1209807768, -0.0968453884, 0.3922602534, -0.4635432959, -0.4263114631, -0.1456741840, -0.1044147387, -0.0966802910,
0.0561491922, 0.0374842994, 0.0280745216, -0.4387483597, -0.6510743499, -0.0906343833, -0.4071678519, 0.1073097363,
0.0417018943, -0.0964200646, -0.2327819467, 0.0251156464, 0.0843974724, -0.1428481340, 0.0213230234, 0.7543620467,
-0.2625059485, -0.1217990890, 0.1483718604, -0.0364691243, 0.0370369367, -0.0427729934, 0.0043851687, 0.6243779659,
-0.0279140212, -0.1141989529, -0.0308875348, 0.0353370160, 0.1142338961, 0.0326667912, -0.0887260064, -0.1236306801,
-0.4782920480, -0.1215023100, -0.3199353814, -0.0087589324, 0.0445845090, -0.0935671031, 0.0122159291, -0.2388315201,
};

static float para_en_featrues_deconv4_11_bias[16] = { 
0.5692965984, 3.0499994755, 1.1915328503, -1.5710403919, 1.5839024782, -1.8824908733, 1.3176020384, 2.1305472851,
0.6442100406, -1.9976181984, -0.1596407890, -0.5441742539, 0.2975592613, 0.7253836393, 0.0273866504, -0.6260714531,
};

static float para_en_featrues_deconv4_2_weight[144] = { 
-0.2916139960, -0.5083252788, 0.0477847680, -0.0790884271, -0.7592685819, 0.8748615384, 0.2646882832, 0.2311717123,
0.4825088084, -0.2066809684, -0.2576449215, -0.0762073696, -1.0110648870, -1.6290920973, -0.3235095143, 0.0369781628,
0.0077483477, -0.2196152806, 0.0124121998, 0.1423081905, 0.1636716574, 0.3368185759, 1.3880310059, 0.5025233626,
1.2238253355, 0.4893000126, 0.2004858255, 0.1951888055, 1.1191793680, -0.4490188360, 0.9058406949, 0.7108597159,
0.4468673468, 0.0320504270, 0.4616789520, 0.2642898262, -0.1451843530, -0.9569894671, 0.1821262538, -0.2110435963,
-1.1796512604, 0.2458801270, -0.1019453704, -0.8125475049, -0.2683332562, -0.5968189240, -0.1656418592, -0.0154914344,
1.2451987267, 0.0079701124, -0.3410212994, -0.3888565600, 0.0853560716, -0.2541531920, -0.2999351621, -0.7917366028,
-0.0062527484, -0.9621667266, -0.6599857211, -0.1365552098, 0.0417356938, 0.0492038690, -0.2195735425, 0.1963625997,
0.2289024591, 0.1805092543, 0.5465430617, 1.1609257460, -0.2474244386, 0.1930049509, 0.4357778728, -0.0598022602,
0.2254818529, 0.7137781978, -0.4515132904, 0.9951234460, 1.3092627525, 0.0571775697, 0.3688179255, -0.2056556791,
-0.1396856606, 0.4312412441, 1.5446588993, 0.4903985858, 0.7448881865, 0.1374996454, 0.9381508827, 0.2803160250,
0.6930305958, 0.4633946419, -0.0586600080, -0.5794631839, -0.0406624787, -0.9272150397, 1.8194715977, -0.4923321009,
0.0568424575, -1.1659507751, 0.0777005330, -0.4530203342, -1.1055860519, -0.7608488798, -0.5462374687, -0.9380582571,
-0.7339650393, -0.3203434646, -0.5691417456, -0.3997766972, 0.0153743932, -0.2483995110, 0.0960896835, 0.0913884938,
0.8434326649, 0.8862187266, 1.0555585623, 0.9709869027, -0.4375616908, 0.1538878828, -0.5378295779, 0.0411358699,
-0.1595452577, -0.9272900820, -0.1629930884, -0.1945730895, -0.4343303740, -0.6348417401, -0.2032357901, -0.2841427624,
-0.2200055271, -0.7744824886, -0.9748421311, -1.3528419733, -0.4090584219, -1.0716946125, -0.8496202230, -0.1917696744,
0.2169519365, 0.2533170879, -0.2409840822, -0.8354561329, -1.3731176853, -0.2582896054, 0.0620795041, 0.3309493065,
};

static float para_en_featrues_deconv4_2_bias[16] = { 
-0.0295485351, -0.0115937945, -0.0425281450, -0.0402258411, -0.0259111300, 0.0187618379, 0.0221894905, 0.0126299663,
-0.0206601657, 0.0103370603, -0.0048142611, -0.0305102021, 0.0041835289, -0.0028384021, -0.0185664445, 0.0126923509,
};

static float para_en_featrues_deconv4_12_weight[256] = { 
0.0423897095, 0.1560023725, 0.0675688311, -0.0225687940, 0.2287619561, 0.0325901732, 0.0533485599, 0.0178929232,
-0.1083938628, -0.1334766746, 0.0618566945, 0.1895328164, -0.0474646091, 0.2515993416, 0.0835817456, 0.3517377973,
-0.0421200246, -0.2927956581, 0.3621685803, -0.1340389550, -0.0641387925, -0.1152254194, -0.0391777717, 0.0455835946,
-0.0859710723, 0.0456713103, -0.2608582079, 0.0960844681, -0.1030125767, 0.0104805334, -0.1505317241, 0.1688266546,
-0.0076076458, -0.1008281782, -0.0799633116, 0.0664987862, -0.0387763493, 0.0050762771, -0.0666004047, 0.0833138674,
0.0779145434, 0.0588470660, -0.0261901394, -0.1381516606, 0.0033782288, -0.0994571969, -0.1062786728, -0.0471149161,
0.0468854569, 0.0693172738, 0.1015312225, 0.2076056004, 0.3510144651, 0.2025880069, 0.2309746593, -0.0244534258,
0.0954229310, 0.0088378312, -0.1760720164, -0.1804527789, -0.1010075957, 0.1987891495, -0.2720932364, 0.0265418626,
0.0531942807, -0.2691134214, -0.0363766551, 0.2565532029, 0.0635641813, -0.1676486433, 0.2455969751, 0.1667141169,
0.2935298681, 0.0988072976, -0.0896213874, -0.2136294991, -0.1414819211, -0.1610999107, -0.1218834966, -0.2018875331,
-0.1272879988, -0.0712321177, -0.1377368718, -0.0565129519, -0.0064902878, 0.0562818721, 0.1574957818, -0.1299823821,
-0.0461992435, 0.1544912755, -0.0738303140, -0.0900048167, -0.0078297798, 0.0116267605, 0.2253388166, 0.1319404095,
0.0253872536, 0.0851589143, -0.0566521734, -0.2584434450, 0.0351228043, -0.0108864242, 0.0357231237, 0.0203049425,
-0.0609389432, -0.1085258350, -0.0474351086, 0.0140488027, 0.1196754575, 0.1751876473, 0.1774329394, 0.0489532538,
0.2816558480, -0.1802849770, 0.0333915763, 0.1493659317, -0.0632998869, 0.1302769035, 0.2008458972, -0.2978044450,
0.0694409311, 0.0365558825, -0.1515912414, -0.0241237655, -0.2701919675, -0.1256956458, -0.0781269670, -0.1051058620,
0.0033927632, -0.0325002186, 0.1140506864, -0.0804192051, 0.0010576913, -0.2233760208, -0.0030982536, 0.0665902644,
0.0381461754, 0.0954952240, -0.3255672753, 0.3296257257, -0.0659298524, 0.0037672580, 0.0803660378, 0.2355618924,
-0.1338250637, 0.0416410118, 0.0433179177, -0.0145646464, -0.0700153410, -0.1329050511, 0.1168285236, -0.0455113500,
-0.0285383631, -0.1226005778, -0.1152359769, 0.1456041336, 0.0301331542, -0.0564149395, 0.0651771575, 0.1255581528,
-0.1651279330, 0.0113810375, -0.0036015017, -0.1442228258, 0.2890014052, -0.1658447981, 0.0702457055, -0.3237262666,
-0.0819794163, 0.1479311287, 0.0488888398, 0.1991664320, -0.0707075894, 0.0469475836, 0.2320351154, 0.0647714064,
0.1396159232, 0.0775757954, -0.0640732497, -0.0124737788, 0.0467914902, 0.1653787196, 0.1237111017, -0.1589543670,
0.0099094240, -0.2802494466, -0.1937477589, -0.0518182963, 0.0194921959, 0.1899534762, -0.0239919741, -0.1020896882,
-0.0330911800, -0.0723013803, -0.0082451925, -0.0916487351, -0.1099015251, -0.0891265497, -0.0414090864, -0.0371700339,
-0.1390456110, 0.1764029264, -0.0431125537, -0.1379720718, -0.1513682753, -0.0751470923, -0.0923704728, -0.0037673169,
0.0372531787, -0.1927478015, -0.2462224364, -0.2081994116, -0.0582074635, 0.1314892024, 0.1715915054, -0.0448009036,
0.4188511968, 0.0447507687, -0.0059877387, 0.1435587555, 0.1205468625, -0.0007594334, 0.1706745774, -0.1999352127,
-0.2051319033, -0.1286341995, -0.0095704636, -0.2652237713, -0.1538896263, 0.0724091083, -0.0915083438, 0.4509322047,
-0.2782061100, 0.2025427222, 0.0257861093, -0.0360915028, 0.1064378694, -0.1660249084, -0.0242326967, 0.0912166089,
-0.0189793967, -0.0688168481, -0.1335765123, 0.0606808662, 0.2196860462, -0.1689242423, -0.0855514258, -0.0445203185,
-0.1633360833, -0.0549365059, 0.1156267896, 0.1829640418, -0.0220490564, 0.0228154510, 0.0229378007, 0.0709567368,
};

static float para_en_featrues_deconv4_12_bias[16] = { 
3.4462652206, -0.0742813945, -1.2815501690, 0.9931755066, -0.3879344463, 0.9018480182, 0.3305032849, 2.0458154678,
0.6589204073, 0.9985857010, 2.4719097614, 1.4981904030, 1.0858964920, -1.0957680941, -1.0571191311, 1.0806826353,
};

static float para_en_featrues_resnet1_1_weight[288] = { 
-0.2070698589, 0.4708656073, 0.1985940188, 0.0765564814, -0.8771045208, -0.1645545959, 0.5281943679, -0.5107457638,
1.1498229504, 0.2230871022, 0.4491129816, -0.0329755023, 0.8650121093, -0.1660506129, 0.5997749567, -0.1955371499,
0.0659475625, 0.2258628458, -1.0124853849, -0.8981504440, 0.0919869989, -0.6612896323, -0.9574014544, -0.5575798154,
-0.4743759036, -0.4300047755, -0.1861537695, 0.2021293342, 1.2292692661, -0.6692091823, 0.1168083996, 1.1062432528,
0.1269262284, 0.0016172873, -0.0614528880, -0.1129130349, -0.7958143353, -0.5155451298, -0.1439437717, -0.0558757260,
-1.1398071051, -0.2688077390, -0.0921798646, -0.0910933241, 0.0175623838, -0.2072721720, -0.8272221684, 0.2459171861,
0.8310209513, 0.4491932094, 0.0259636845, -1.0043222904, 0.3053003252, 0.1614261866, -0.1195886135, 0.1362655759,
-0.3045361936, 0.2737882137, -0.9630819559, -0.0119183445, 0.2246171981, 0.2463421673, -0.1033208445, 0.0518973097,
0.0811051652, -0.2367972136, 0.1899772733, -1.4956908226, 1.1380617619, 0.3949264884, 0.1577679217, -0.2602196038,
-0.1554369330, 0.6573588848, 0.4757479429, -0.1366594285, 0.8651446700, 0.9243857861, 0.0221479721, 0.0974139571,
0.4173309505, 0.0049165240, -0.0146840401, -0.1026490033, 0.1874635816, -0.9743112326, -0.8867953420, 0.0332307890,
-0.4455865622, -0.3496349156, -0.0941390768, 0.4299440384, -0.0125498110, 0.5892946124, 0.0502116717, 0.4337972701,
0.1257586181, -0.2235206366, 0.3813059330, -1.0641659498, -0.1972619891, -0.4213944674, -0.3049737811, -0.2970609665,
-0.3206482232, -0.2759572566, -0.5100548267, -0.0558540896, 0.1315837502, 0.5172543526, 0.1140868142, 0.7284694314,
-1.2389484644, 0.0192960948, 0.2353771180, 0.2473222613, -0.2441304773, 0.0278850812, 0.4175239801, 0.1871088892,
0.3793880045, 0.8744874597, 0.7952209711, 0.2322594523, -0.2986029387, 0.4136894345, -0.1537052393, -0.2067464739,
-0.1155996025, -0.1870044619, -1.9930025339, -0.2682735920, 0.0022627334, -0.6887781620, -0.0001684635, -0.7989372015,
0.3708700836, -0.3503438234, 0.2804253399, -1.2123062611, -0.4947475791, 0.0334502161, 0.3890361488, 0.9110865593,
0.5027776957, 0.3911203146, -0.6650188565, 0.7131368518, 0.4869422615, -1.3019975424, 0.6395363212, 0.4779516757,
-0.8708033562, 0.1117367670, 0.6054776311, 0.1448135823, 0.1465363652, 1.3771564960, -0.2556549609, 0.0562913232,
-0.1227674261, -0.1946718395, 1.1167721748, 1.6672394276, 1.1013988256, -0.3367345929, -1.1637595892, -0.0625105128,
0.2799201906, 0.1771204919, 0.4310119152, 0.5369037986, 0.4286634028, 0.2733383179, 0.4717068672, 0.4238057733,
0.3602229655, 0.1105629280, 0.1005975530, 0.0149878403, 0.3978406489, 0.0469371080, 0.1698206812, 0.3027352095,
0.7348000407, 0.7132097483, 0.3365969658, 1.0649036169, 0.7074882388, 0.3568807840, 0.9465559125, 0.3933166564,
1.1211059093, -0.0661786273, 0.7598631978, 0.6073986888, 0.4871110022, 0.4733223915, 0.0706794783, -0.2052888274,
-0.3318453729, -0.4271745682, -1.2407683134, -1.2224092484, 0.2430185825, -0.1814083606, 0.0882239044, 0.3118892908,
0.0131783402, 0.2742651701, -1.2164360285, 1.0886383057, 0.4417506456, -0.4210216403, 1.2197782993, 0.3416527212,
0.0034399205, 0.7068616152, 0.1341835111, 0.6052004099, 1.7075873613, 0.5331488848, 0.0868255720, 0.2435704619,
0.1739387959, -0.1001511365, 0.2895697653, 0.2070066184, 0.7280407548, -2.3096971512, 0.1046675742, 0.6748160720,
-0.1176677346, -0.6140032411, 0.5134503841, -0.4147304595, -0.1577742100, 0.1734320670, 0.6565060616, -0.8540149331,
0.4113082588, -0.1805522889, -0.2367430478, -0.3216589689, -0.2520490587, -0.2530211210, -0.3381275535, 1.3399157524,
0.0799122080, -0.2004190683, 0.7111640573, 0.0576569624, 0.6365238428, -0.8812371492, 0.6283748746, -0.1622627378,
0.2767401636, 0.6066256166, 0.6361811757, 0.4938785434, 0.6247513890, -0.0337123200, -1.3186959028, -0.7975414395,
-1.0225956440, 0.2340612859, -0.5428157449, -0.7459664941, -0.2468482554, -0.9599742889, 0.0239435825, 0.0478147268,
-0.1875071228, -0.4853479266, -0.6833522320, -0.7638210654, -0.0084807435, -0.1257030964, -0.0172749218, 0.1076061204,
0.3356797099, 0.0577850863, 0.0807931051, 1.4251292944, 0.3346469998, -0.8742384315, -0.2090658396, -0.5169593692,
};

static float para_en_featrues_resnet1_1_bias[32] = { 
-0.6243625283, -0.5241296291, 0.2697198689, -0.2822368741, 0.2614347339, 0.4211187065, 0.4930403233, 0.0248614307,
-0.2634567618, -0.4328877628, -1.2506992817, -0.0789373294, -0.2812408507, 0.3031358123, 0.2399419844, 0.0025822681,
-0.4025937319, 0.1179986745, -0.1228769049, -0.5601580143, 1.0445849895, 0.3114214242, 0.6384488940, -0.1671480685,
-0.3929856122, 0.6934338808, 0.0276343636, 0.7858076096, -0.0608467534, 0.4622145593, -0.0675901920, -1.2987574339,
};

static float para_en_featrues_resnet1_2_weight[1024] = { 
0.1695562601, -0.2486356497, 0.1533372700, 0.9648508430, -0.3584057391, -0.2122427970, 0.0446919873, -0.1063579023,
0.5334585309, 0.2933699191, -0.0697746426, 0.4195464253, -0.1461030394, 0.5244252086, 0.0081937909, 0.0881074294,
0.1873927116, 1.0212148428, 0.2995349765, 0.1932245493, 0.0431635231, -0.0756138414, -1.7184550762, -0.0906418860,
-0.5678289533, 0.0757401958, 0.6469684243, -0.0028055378, -0.2199498862, 0.1018154547, 0.4910144806, 0.1263794005,
0.4622571766, 0.0573563986, 0.9162182808, 0.1467430443, 0.0842520297, -0.1128321365, -0.4359714985, -0.1427235901,
0.5135793686, -0.2782391012, -0.2587071061, 0.0439055078, -0.1859998554, 0.4688407779, 0.0334325433, -0.0922165886,
-0.1420562267, -0.1663078219, -0.8200129867, -0.1260149330, -0.3846601546, -0.0487057343, 0.0616909377, -0.1651031226,
-0.4884527326, 0.7008075714, -0.1563624293, -0.2356025577, 0.3793196380, 0.0509779677, -0.5805085897, 0.0738337561,
0.5044077635, -0.6019275188, 0.1286442876, -0.3626754284, 0.3276752830, -0.1495684832, 0.4253979027, 1.2307615280,
-0.4697407484, 0.3313763440, -0.3805971146, 0.9711633921, -0.0911951587, 0.2535259426, -0.1978098303, -0.3671773374,
0.1619083136, 0.1117978618, 0.3706291914, -0.0481974520, -0.0336316563, 0.1941638142, -0.4593136013, 0.0712541938,
0.0618558414, 0.3996851444, -0.2434686273, 0.0813455805, 0.1161897331, 0.0277021471, 0.1430324614, 0.7166138887,
0.6815099120, -0.2153710574, 0.0548862256, -0.6142858863, 1.0197538137, -0.0674076751, -0.4420362711, -0.0060003819,
0.2394796908, -0.0969024748, 0.1157031134, 0.2155393958, 0.0732844993, 0.7154013515, 0.0575467385, 0.0378546454,
-0.2404285669, 0.1709824950, 0.1441449225, -0.0496766008, -0.3481123745, -0.6884658337, -0.9765433669, 0.5749980807,
-0.0116402181, 0.9614641666, 0.6233003139, -0.4480172098, -0.5829446316, -0.2194786966, 0.2585325241, -0.8286154270,
0.2211548835, -0.0562867858, -0.1058219746, -0.0554785393, -0.2917716205, -0.1453261226, 0.0502090752, -0.1226299778,
0.0594311059, -0.4224973023, -0.4719766676, -0.5795857310, 0.4969376922, 0.3922927678, -0.6646167636, 0.0393042006,
0.2869223058, -0.4436370432, 1.2065180540, -0.0736245438, -0.0810590014, 0.0719344094, -0.5729269981, -0.2101355195,
0.2568010688, -0.2047950625, 0.1838071644, 0.3441714048, -0.3750382066, 0.2122541219, 0.1043487936, 0.2643324435,
-0.2908059359, 0.2221382260, -0.3203362525, 0.5103411078, -0.1681693196, 0.8149949908, 0.5057685375, -0.3621746898,
-0.0117872916, -0.0453577265, -0.5915396810, -0.0124785993, 0.4888758957, -0.1284324378, -0.1230656058, 0.4894616604,
-0.1628926843, -0.6932583451, -0.0870226994, 0.0741513520, -0.0247137398, -0.0800013840, -0.1389772594, 0.4070537984,
0.2041884959, 0.5278790593, -0.1506239027, -0.0445554182, -0.5480547547, -0.2460278273, -0.4899783731, 0.3336461484,
0.1414944530, -0.2560462654, -0.2243024558, -0.1207175329, 0.0759893507, 0.4065655172, 0.0392325446, -0.1156871691,
-0.0410294421, -0.1661182791, -1.1671862602, 0.3096565604, 0.0002416381, -0.3069927394, -1.0131992102, 0.0628769398,
0.1004637629, -0.2500287294, -0.3833227754, 0.4060964882, -0.2788881063, 0.5783702731, 0.0223386176, 0.3980167210,
-0.4496116638, -1.2149127722, 0.2361883521, -0.7325220704, -0.2027181387, -0.2447605133, -0.5003889203, -0.2775345743,
-0.0653027445, 0.0364703983, -0.3973419070, 0.5058859587, -0.4411303103, -0.3218940198, 0.0183801241, 0.1664774120,
0.3296196461, 0.5054597855, 0.4468064606, -0.0892919824, 0.3242713213, -0.5440694690, -0.2319348007, -0.2689667940,
-0.3422758877, -0.1927360892, -0.0600591414, -0.2327233851, -0.3280944824, 0.0180082154, 0.4501874745, -0.0079556536,
0.1558610201, 0.0388526469, -0.3663519919, -0.0247387458, 0.2213703096, 0.2133035213, 0.3308004737, 0.8327814341,
0.3515536189, 0.0866744816, 0.8536078334, -0.1631649286, 0.1131512150, 0.1376704872, 0.0572529249, 0.1991673857,
-1.1368485689, 1.1274707317, -0.1456770301, -0.1948786378, 0.0037571692, -0.1710679382, 0.1607218236, -0.2325546592,
-0.2955569923, -0.3942748308, 0.0887727886, 0.2314356714, 0.1092467904, -0.2287031114, -0.4399025142, -0.2850347161,
0.3037575483, -0.3837018013, -0.4676159024, 0.4935961962, 0.4092043042, -0.0602520928, -0.2211269885, 0.2388434410,
0.8256355524, -0.2214842290, -0.0133005567, 0.1837969273, 0.0885712430, -0.3485192358, -0.2911207378, -0.1366941333,
-0.0030861509, 0.1639757007, 0.5289195180, 0.3062880337, -0.0276177917, 0.0200329907, 0.0625560358, 0.1172924638,
0.1721146703, 0.0020648777, 0.2505439818, 0.9015629888, -0.2840432227, 0.7626982331, 0.1234344244, -0.1605902314,
0.0434650555, 0.4902363420, -0.4093353748, 0.7732141018, 0.3535738289, -0.1129514277, -0.3615081310, 0.0444267727,
0.2289971411, 0.1294860542, -0.1453270763, -0.4064345956, 0.0986447260, 0.0350186341, 0.0469767004, -0.1073926315,
0.1141203269, -0.9372199178, -0.3486730754, 0.9290499687, 0.1959510893, -0.0187405478, -0.6119679809, 0.3654472828,
0.3152041137, -0.1779784262, -0.6067502499, -0.3837059736, 0.1092693880, 0.4336408973, -0.0233421847, -0.2133169472,
-0.9530007839, 0.0472332276, -0.0766192004, 0.3058622777, 0.4236120880, -0.5125480890, 0.0764367133, 0.2354478538,
0.2002917826, -1.3500915766, -0.2832170725, 0.4440964460, -0.0322021767, 0.2176309824, -0.1356036514, -0.0323681198,
-0.4281015098, 0.3607988954, -0.2384755909, -0.4230112731, 0.1235196590, 0.1045521870, -0.0986565426, 0.2337027192,
-0.1224808767, 0.1761394292, -0.4155001938, -0.3441313505, -0.0027379200, 0.9627517462, 0.3988425434, -0.3032368422,
-0.7039105296, -0.7292200923, -0.1210690960, 0.3717374802, 0.3618441224, -0.1352409571, -0.4943774343, 0.7864266038,
-0.1484066099, 0.4379626513, 0.9868333936, 0.4935851693, 0.0126781603, -0.2169755250, 0.0766834095, 0.5742610693,
0.4472692907, 0.7563515902, -0.0446639545, 0.6878225207, -0.2706804574, -0.9159467220, -0.0853030682, -0.1107512563,
0.3415667415, 0.3069130778, -0.0467816405, -1.0469496250, -0.6029728055, -0.5696426034, -0.2839300036, 0.0488620661,
-0.5503643155, 0.5993880033, -1.1217312813, -0.6282370090, 0.2371407002, 0.0541476235, 0.6382923722, 0.7476826310,
0.4377012551, 0.1705519110, 0.5437219739, 0.2784866095, 0.2603145242, -0.0456908084, -0.2238137573, -0.1474423110,
0.4829369485, 0.2612536848, -0.5924494863, 0.2889336646, 0.0234763883, -0.0014963032, 0.4113793969, -0.0798630342,
-0.0959648192, 0.4625026882, -0.6393612027, 0.1275544465, -0.4333348274, -0.8308963776, -0.0871371850, 0.0578646176,
0.0373760127, 0.1333657801, 0.1218140051, -0.9989171624, 0.5306358337, -0.3939454556, 0.3183078468, -0.3533069789,
-0.4555255771, -0.7065976858, -0.2740078568, 0.2013069540, -0.5089183450, 0.0590759665, -0.4988194406, 0.0757997409,
0.2246675491, 0.6133123040, -0.5347661972, 0.5102970600, -1.0186203718, 0.3384174109, -0.0556192398, 0.0620965101,
0.0370789133, -0.0667047501, 0.4111121297, 0.6960014701, -0.3963122368, 0.6793324351, 0.0112631489, -0.3666405678,
0.1129727140, -0.0068386556, -0.6053764820, -0.1519513875, -0.1556629241, -0.0375370122, -0.1107315421, 0.0775033906,
0.4613224268, 0.1612444371, -0.3226029575, -0.0801637843, 0.3787623644, -0.2413190007, 0.0971479565, 0.5243995786,
-0.1122352108, 0.3287675977, 0.1443128288, 0.1402669996, 0.4251615405, -0.3392929137, -0.1113383919, -0.1434602886,
-0.7708055973, -0.7993393540, 0.8001143336, 0.0682512671, 0.2347826064, -0.0972787589, -1.0348716974, -0.2653815448,
0.5233827829, -0.4916867018, -0.7550087571, -0.0232157502, 0.5722725391, 0.0761026368, 0.6835868359, 0.6748772264,
0.2880439162, 0.4707321227, -0.9355286360, 0.6189730763, 0.1731339395, -0.1214421168, -0.3307997882, -0.5438569784,
0.1095874012, 0.0914962366, 0.8672462106, -1.0489025116, 0.0518504642, -0.4377671778, -0.2188457251, 0.4531660974,
0.0833725035, -0.0574282892, -0.2465166897, -0.3321308792, -0.1806747615, 0.3823840618, -0.1239054352, 0.1923010498,
-0.4872272313, -0.4797894359, -0.3157029450, -0.0965301022, 0.1802463084, -0.1635108739, 0.2258428335, -0.2883521020,
-0.0920285881, 0.3831253350, 0.1709909737, -0.6325476170, 0.2611635327, 0.0403244831, 0.2927757204, 0.0722914413,
-0.5813320279, -0.5828689337, 0.4605161846, -0.5525090694, 0.2376846522, -0.2705820501, -0.0657449439, -0.5422689915,
0.3926070333, -0.6294113398, -0.0250453986, 0.0260860734, -0.3306099772, -0.3486628532, 0.2764163017, -0.1233706772,
0.6679061055, -0.0299588628, -0.0565437675, 0.0673090667, 0.5521641970, -0.0586778075, 0.4621576965, 0.6625476480,
-0.2214147598, 0.1070772335, 0.4914344251, -0.4035025537, 0.9311715364, 0.1136452854, -0.1721860468, -0.2065256536,
-0.2830446959, 0.1674546897, 0.2673173249, 0.6662861705, 0.1278951466, -0.2165189534, -0.1366652995, -0.1473764479,
-0.0421259962, -0.1438048482, -0.1433723271, -0.3714307845, -0.3033340275, -0.1724558026, 0.6691810489, 0.0100751240,
-0.4483722746, -0.5473344922, 0.4414831102, 0.2403669953, 0.3981152475, -0.3497537673, -0.3123625219, -0.5440559983,
0.2086759955, 0.0034792693, 0.1471988112, -0.0211759619, -0.1358911246, -0.0784135386, -0.1924428195, 0.2069893181,
0.2569757402, -0.2515577078, 0.4082591832, -0.0960020646, 0.2239766568, -0.0727229044, -0.1143727973, 0.0199248325,
-0.8490923643, -0.3187780678, -0.0359741859, -0.0296585523, 0.1548112631, -0.0737682283, -0.1434218287, -0.4630550444,
0.1334813386, 0.0206687711, -0.2121112794, 0.2118016779, 0.4040863812, 0.1655694246, -0.0010860774, 0.4188770652,
0.0637675822, 0.1439781189, 0.3108343184, -0.5113518238, -0.2823736966, -0.0347265787, 0.0112289852, -0.2820316553,
0.2448876351, -0.2769826353, 0.1768916398, -0.4534218907, -0.2950735390, 0.7856829166, -0.0414992124, 0.0705678686,
0.4160471261, 0.4027265012, -0.1580881476, 0.0077048084, -0.2914561629, 0.0942818597, -0.0209142733, -0.2719474733,
0.0476712137, 0.5226362944, -0.5861446857, -0.1579204202, 0.7297793627, 0.4872770607, 0.1413291097, 0.7350981236,
0.4226990342, 0.6811580658, -0.8828379512, -0.0899772048, -0.1170334816, -0.7590835094, 0.6345563531, -0.5718327165,
-0.3778858781, 0.2096713036, 0.9877343774, -0.5420531034, 0.3756140471, -0.0403663665, -0.0431834199, -0.0500245728,
0.2799705565, 0.3928716183, -0.5289632678, 0.8435739875, -0.0686844662, 0.4725264907, -0.3937065303, 0.1172302365,
0.2257186770, -0.4469253421, 0.0302138403, 0.3326651454, 0.2511446178, -0.0233551953, 0.5850569010, 0.5568988919,
-0.0352896824, -0.3484016955, -0.2468916178, -0.2585443854, -0.3298400044, 0.2535065711, 0.0510017350, -0.2636091411,
-0.1863744706, -0.1038198024, -0.5803027749, -0.3024288416, 0.0632598028, 0.1596833915, -0.5381012559, 0.0918717086,
0.0502602346, 0.0286714546, -1.3879280090, 0.1305471063, -0.1512109935, 0.4340506196, 0.6688600779, 0.0501414426,
-0.9056375027, -0.6690169573, 0.0821910724, -0.0763480738, 0.0973547250, -0.0528820753, -0.0714397803, -0.0235322621,
-0.0396349914, 0.1608022004, 0.2152330279, 0.5870369673, 0.1697436720, 0.2143826336, 0.0128397560, -0.2470364571,
-1.1708132029, -0.0257810168, -1.0378026962, -0.1009837016, -0.1384125650, 0.3106103837, 0.2498752773, -0.5593842864,
0.2272621691, 0.2852397263, 0.0664817467, -0.0378362201, -0.4476312697, -0.1014750749, -0.1724114865, -0.0105153704,
-0.1580609828, -0.5498881340, 0.0531915538, 0.8811742067, 0.2210178822, -0.3057728112, 0.3049375117, 0.1822735518,
0.2234693766, -0.2372163683, -0.5205494165, -0.2456279397, -0.5172235966, 0.0098643275, 0.0166322365, 0.1845837086,
-0.1095665544, 0.1898704469, -0.5808834434, -0.3672997057, 0.1411228329, -0.1132608280, -0.0205848329, 0.1230427101,
0.2885311246, -0.4259316623, 1.2114722729, -0.2162150741, 0.3320000768, -0.0291432720, -0.9462802410, 0.0403790101,
0.6008051038, -0.3092140555, 0.0309915505, -0.0590608902, 0.6751950383, 0.3840770423, 0.7213336825, 0.7762585878,
0.0518015437, 0.0037755670, 0.2981198132, 0.6684879661, 0.3355200887, 0.1742251813, 0.0034201639, -0.1878496110,
-0.1526057273, 0.2804810703, -0.3962977529, -0.3361340165, -0.5302119851, -0.2626000643, -1.1992782354, 0.1054419652,
0.1192799881, -0.5582628250, 0.1014090404, -0.6129268408, -0.0880815536, -0.0076485514, -0.3396658003, 0.3684885800,
0.5531542897, -0.5939792991, 0.1168858111, -0.6448739767, 0.2647212744, 0.1459124386, 0.0967903063, 0.3458624780,
-0.7386944294, -0.7550950646, -0.5563793182, -0.1683074683, 0.2343402803, -0.2388810217, -0.1685050726, 0.8311446905,
0.5617234707, -0.5199779868, -0.1494265050, -0.2289862484, -0.2857286036, -0.2899824977, -1.0172933340, -0.2608883083,
-0.5863753557, 0.5044697523, 0.8506200314, 0.9551999569, -3.3763122559, 0.3666440845, -0.4403046966, -1.0227766037,
-0.1863892078, -1.1218024492, -0.2915914059, -0.1490903050, -1.2105981112, -2.0584640503, -0.3928764164, 1.8860439062,
-0.3771654963, 0.3798404336, 0.2146245688, 0.5319840312, 0.1795644015, 0.0153634371, -0.2015569508, -0.7514982820,
-0.2106660903, 0.1576716155, 0.1439036280, 0.2312545776, -0.0590810962, -0.0399775319, -0.0865762532, 0.4284508526,
0.0120022222, -0.1028968468, 0.0799709186, 0.2368382961, -0.0445826687, -0.5584173203, -0.3963987231, 0.1551020890,
0.5570605397, 0.0433145911, 0.0480988808, 0.1438586563, 0.0870278180, -0.0599347278, 0.1119885668, 0.1167676374,
-0.0226119906, 0.9071009159, 0.0711463466, 0.0554707572, 1.1176677942, -0.1856815964, -0.2436158061, -0.3318638206,
-0.2626453340, -0.2217659801, -0.1200861335, -0.8891038299, 0.3025202453, 0.3342207670, 0.0244504027, -0.5273634195,
-0.0828309134, 0.8837881684, -0.7717925310, -0.3110533059, -0.4290850759, 0.7952361703, -0.8847571015, 0.2495295703,
-0.3692445755, -0.1035775691, -0.0069363471, -1.3383270502, 0.1298513561, 0.0851452500, -0.5710740089, 0.4715166092,
0.4174439907, -0.3353594542, -0.3941214383, -0.0013492856, -0.0193910915, 0.1940726936, -0.0007574985, 0.1259272993,
0.6051352620, -0.5347608924, 0.2090012431, -0.1342466325, -0.2908544540, 0.2160701156, -0.2295822352, 0.0950108096,
-0.6537589431, -0.4097276032, 0.0542004853, -0.1503693610, -0.2500581741, -0.0413636565, 0.1909495294, 0.1691996306,
0.0190466102, 0.5933382511, -0.5844178200, -0.0314995795, -0.1968687624, 0.1573901772, -0.1273610741, 0.5097767115,
-0.1966059506, 0.1034872234, -0.3449449837, -0.2606017888, 0.2765050232, 0.0965784788, -0.1798000783, -0.0935982689,
-0.3526433408, 0.2279776931, 0.6752147675, -0.5922412872, -0.0226494782, 0.3566861153, 0.6858937144, -0.1772143543,
0.1488140076, 0.1743155569, -0.0014965897, -0.6132674217, -0.2480390370, 0.7544797063, -0.4230974913, 0.0386943817,
-0.5148962140, 0.1126043275, -0.1620268524, -0.0167325605, 0.4679559469, 0.2565211058, 0.7894878387, 0.8028977513,
0.3722347021, -0.0361360237, -0.5708246231, 0.0158556812, 0.1438147724, -0.0113501996, 0.1439641416, -0.0704241320,
-0.2815032899, -0.2513025701, -0.0802116841, -0.0282569248, 0.0643084124, -0.1010733545, -0.0248923022, -0.1531498134,
1.0834470987, -0.5744351745, 0.6517352462, 0.4223137498, 0.3675046265, 0.0574334748, -0.8408704400, -0.2801624537,
0.5158564448, -0.6708328128, -0.2229514122, -0.0333354995, 0.1029791981, 0.2194439471, 0.3436449766, 0.6685023308,
};

static float para_en_featrues_resnet1_2_bias[32] = { 
-1.7343219519, -0.9468155503, 1.4752922058, -0.7459979057, 0.3206043243, -0.4977609515, 0.0194855947, -2.0226728916,
0.3350420892, -0.5225718617, -0.1149249896, 0.1554075927, -1.1702888012, -0.0094095143, 0.4857223034, -0.4885952473,
0.3369335830, -0.8415303826, -0.4521830380, -1.6656208038, -0.5312161446, -0.5657225847, -1.4439944029, 0.9672282338,
-0.0484287031, -0.5277323723, -1.0412836075, -0.4326994121, -2.6051938534, -0.8484938741, -1.3046090603, -1.3415898085,
};

static float para_en_featrues_resnet1_3_weight[288] = { 
-1.3961991072, 0.5422354937, 0.0619614571, -1.4989147186, 0.6806537509, 0.0735880360, -1.7904522419, 0.5508286357,
0.0668110028, -0.6384058595, -0.6042249799, -0.4660190642, -0.4959447384, -0.2657289505, -0.5009844899, -0.5902428627,
-0.7000776529, -0.6341491342, -0.3011270761, -0.3486815393, -0.1968717873, -0.3620403707, -0.4841901064, -0.3364288211,
-0.1377649456, -0.2361698896, -0.2491067797, 0.2098287195, -0.8577079773, 0.1515721828, 0.3085775971, -1.1251869202,
0.0667457804, 0.2143215537, -1.2831609249, 0.2184203267, 0.1786859185, 0.2880744040, 0.3136184812, 0.2827686965,
0.3844546378, 0.3419473767, 0.1887618750, 0.2067713439, 0.1991548091, -0.0683080256, -0.1535631716, -0.4070869982,
-0.2974986136, -0.2406686246, -0.3169995248, -0.2627597451, -0.3586754501, -0.1602483243, -0.2867582738, -0.3940002620,
-0.3451444209, -1.3723769188, -1.6339149475, -1.3466567993, 0.2181042433, 0.5400062203, 0.4382824898, -0.1523233056,
-0.2120455205, 0.4290483296, -0.3031422496, -0.4635721743, 0.6686728001, -0.1683612764, -0.3840233684, 0.7063800693,
-0.1978164464, -0.2997223139, -0.3682215810, -0.2485731095, -0.4040791988, -0.3915405273, -0.1722847670, -0.3279515505,
-0.2857821286, 0.2420953065, 0.4134468436, 0.2657523453, 0.1680227518, 0.3490735888, 0.1571546495, 0.1505834013,
0.2882965207, 0.2511512637, 0.1112451404, 0.4637441039, 0.5139651299, 0.0079803681, 0.4876995981, 0.5868042111,
-0.0301999971, 0.4560558498, 0.4741821587, 0.1804782450, 0.1650937349, 0.2868928015, 0.2318371087, 0.1467955709,
0.3625729680, 0.1416086406, 0.2076368779, 0.2640268505, 0.1730191857, 0.3391760290, -1.1329416037, 0.3476553261,
0.4511764944, -1.2326760292, 0.2448049933, 0.3339177966, -1.2587555647, -0.2766878605, -0.2242984325, -0.2933257520,
-0.4219209254, -0.4415763021, -0.3188850582, -0.3377714455, -0.5675933361, -0.3223103583, -0.3384017646, -0.1552644819,
-0.0437974669, -0.5187311769, -0.1604834944, -0.1373611242, -0.3314019442, -0.1753499061, -0.3325766623, -0.8838988543,
-0.3625169396, 0.6071255803, -1.0651826859, -0.5348563194, 0.3038534820, -0.9351485372, -0.4354082942, 0.5468094945,
-0.2707527578, -0.2922573090, -0.1724929661, -0.2668823004, -0.0813897699, -0.2762246132, -0.1424330622, -0.2929071784,
-0.3192093670, -0.8292747140, 0.5096518993, 0.0347910263, -0.9112243056, 0.6583587527, 0.2930904031, -0.5236589909,
0.4605547488, 0.2236816287, -0.3313437402, -0.3956820667, -0.1427477449, -0.2986444533, -0.4093926549, -0.0324788876,
-0.4076761901, -0.4990218580, -0.2747349143, 0.2922472358, 0.1795637906, 0.1209205762, 0.3897622228, 0.2729744613,
0.0859114155, 0.2853025794, 0.2118061334, 0.0102178007, 0.2191978395, 0.2295458168, 0.1111764461, 0.3569744527,
0.3942547441, 0.2504232824, 0.2776423991, 0.3565388322, 0.2491282672, -0.4965406358, -0.6971461773, -0.6745573878,
-0.3639880121, -0.5637638569, -0.5440396070, -0.4732534289, -0.6675958633, -0.6608446836, 0.1089027002, 0.1177980751,
0.0937022418, -0.6920010448, -0.9990459085, -0.6742512584, 0.0570823289, -0.1304769218, -0.1011044011, 0.3277895153,
0.3693017066, 0.3994491994, 0.4228213429, 0.2855058312, 0.3543458283, 0.2905253172, 0.3277508914, 0.1674610972,
0.3193597198, 0.3148342669, 0.2547036707, 0.4481784999, 0.3930901289, 0.3693625629, 0.3395747542, 0.2860889733,
0.3021208346, 0.2817963660, 0.3784202039, 0.2457081825, 0.3459812403, 0.4064861536, 0.3185587525, 0.2535544038,
0.4684174657, 0.4730582535, 0.1257473826, -0.3433469236, -0.7031145096, -0.6504729390, -0.0172851179, 4.3543958664,
-0.3750095665, 0.2106109113, 0.2250797153, -0.3238797486, -0.3480565250, -0.1898638457, -0.2652115226, -0.2462159544,
-0.2451068014, -0.2101040184, -0.4080465734, -0.3198039532, 0.0933098570, 0.1373288482, 0.0888883919, 1.2769677639,
1.8506510258, 1.6213682890, 0.0984279215, 0.2047605515, 0.1631241292, 0.3367707431, 0.3900645375, 0.1179067343,
0.2974181771, 0.2866887152, 0.4050064981, 0.1546387076, 0.3639907837, 0.3491533399, -0.0066627814, -0.0084915506,
-0.0051341709, 0.0060351859, 0.0031763711, 0.0019408769, 1.1008375883, 1.5994744301, 1.4023437500, -0.7822652459,
1.2074486017, 1.1891660690, -0.7376753092, 1.2776663303, 1.1572889090, -0.6753422022, 1.2921247482, 1.0465780497,
};

static float para_en_featrues_resnet1_3_bias[32] = { 
-0.0066700121, 0.0183536187, 0.0015164592, 0.0054765954, -0.0134508703, -0.0022493135, 0.0093875388, -0.0118084271,
0.0019173081, 0.0170301609, 0.0159427729, 0.0051506544, -0.0080716368, 0.0180449635, -0.0151098538, 0.0162766222,
-0.0073132440, -0.0038530242, 0.0212327931, -0.0155273844, -0.0049501956, -0.0165523253, -0.0063436469, -0.0013982388,
0.0020961170, -0.0131195150, 0.0041966224, 0.0119921956, 0.0110026672, 0.0044563198, 0.0189464707, 0.0010230473,
};

static float para_en_featrues_resnet1_4_weight[1024] = { 
0.0318695381, 0.0594077818, -0.0082712760, 0.1344679147, -0.0983240008, 0.0193551611, 0.0197502896, 0.0015942988,
-0.0264397338, 0.0167470109, 0.0456937701, 0.0416987315, -0.0246700887, 0.0243396536, -0.0094768237, -0.0179899521,
-0.0045748171, 0.0639764145, 0.0252986122, -0.0150900288, -0.0128252488, -0.0719552264, 0.0106506888, -0.0840733573,
0.0191263314, -0.0828051716, -0.0028169877, 0.0134224733, -0.0564360805, -0.0360361189, -0.0214351639, 0.0321943648,
0.0031547660, -0.0599225573, -0.0273803230, -0.0036889003, -0.0279916078, -0.0198670570, 0.0025992854, -0.0470741317,
-0.0014898845, -0.0265503116, -0.0771961585, 0.0336004198, 0.1340353638, -0.0502794050, 0.0456596501, -0.0446302257,
-0.0193065405, 0.0355729833, -0.0386064090, 0.0209087376, 0.0433519445, 0.0639669895, -0.0601387359, 0.0399528481,
0.0323884860, 0.0777125359, -0.0171093009, -0.0477502532, -0.0685702041, 0.0171369761, -0.0266741142, 0.0739723518,
0.1169037297, -0.0320644081, 0.0281065237, 0.0650678203, 0.0543886870, -0.0269502029, 0.0120318243, -0.0621094964,
-0.0468477085, -0.0343581699, 0.0332690068, -0.0419195741, 0.1434089243, 0.0732024461, 0.0567021854, -0.1498209983,
0.0155674666, 0.0672656074, 0.1225004196, 0.0076959007, 0.0157213826, -0.0443024673, 0.0603698492, -0.0131449942,
-0.0424363315, 0.0047440613, 0.0041961502, 0.0074927304, -0.1784645170, -0.0168962497, -0.0137823392, 0.2284459919,
0.0853255913, -0.0108433031, -0.0014214857, -0.0112513099, 0.0417421237, -0.0129227480, 0.0217608996, 0.0403678752,
-0.0528826341, 0.0244584121, -0.0148103917, 0.0141843325, -0.0123104630, -0.0097514773, -0.1320079714, 0.0199967083,
0.0116942767, 0.0124675119, -0.0014496706, -0.0137086185, 0.0451550670, 0.0734718740, -0.0512728021, 0.0044091959,
-0.0197609309, 0.0244640838, 0.0344380401, -0.0180815253, 0.0179112777, 0.0238411296, -0.0798966661, 0.0879395455,
-0.0163179711, 0.0448258556, -0.1218119264, -0.0648341253, 0.0490744971, 0.0514665097, -0.0092325127, -0.0252931807,
-0.0172643829, -0.0208554249, -0.0149011286, 0.0364365093, 0.1883518398, 0.0256620198, 0.0264456794, -0.0134173231,
-0.0464076102, 0.0608317107, -0.0311174449, -0.0248987675, -0.0696545541, 0.0155309662, -0.0038059186, 0.0056906212,
-0.0273380689, 0.0054672761, -0.0102277687, -0.0156905930, 0.0229304172, 0.0406724177, -0.0215501487, 0.0642570555,
0.1039142981, -0.0626439601, 0.0704293475, 0.1336653680, 0.0009365041, -0.0694098696, 0.0086062290, -0.0668324307,
-0.0148526933, 0.0415858850, -0.0307551213, -0.0190846436, 0.0177010391, -0.0461390354, 0.0129676554, -0.1125907078,
0.0016533424, -0.0435566716, 0.0006759583, 0.0850264281, 0.1211462170, 0.0526340865, -0.0138937905, 0.0499427877,
0.0718425959, 0.0613188334, 0.0105508026, -0.0391188636, -0.0026497717, -0.0816252455, -0.0566651858, 0.0648637116,
0.2049492002, -0.1663893461, -0.0043099457, 0.0304596443, 0.0366941653, -0.0155850304, 0.0239426214, -0.0089787226,
-0.0019437831, -0.0082209110, -0.0325396210, 0.0641092509, 0.2882316113, -0.1207691804, 0.0892714188, 0.0722313672,
-0.0391213335, -0.0479263403, -0.0943136811, 0.1043514684, 0.1438762993, 0.1589635462, -0.0876765698, 0.1193345562,
0.1139905900, 0.2118547112, 0.0104854275, -0.0499791317, -0.0344356112, 0.0237374660, -0.2155071944, 0.0401960276,
0.1341139823, 0.0180228986, 0.0625880584, 0.1542252451, -0.1571449488, -0.0618380234, 0.0418742709, -0.0043044463,
0.0334980451, 0.0824427828, 0.0054128370, 0.0194136631, 0.1204904318, -0.0344046354, 0.0159999859, -0.0646638721,
0.0144928768, 0.0203791261, 0.0120716486, -0.0241716541, 0.0753073916, -0.0025292363, 0.0078715784, 0.0049863323,
-0.0009524713, -0.0402239114, -0.0170155037, -0.0323489383, -0.1471970975, -0.0634295493, -0.2038561553, 0.0565898418,
0.1058409885, -0.0004452233, -0.0355636254, 0.0083891097, -0.0025287555, -0.0180333033, 0.0176008195, -0.0016070221,
0.0048671677, 0.0327444971, 0.0269106533, 0.0449202135, -0.0034901823, -0.0293801799, -0.0519145392, -0.0477391519,
-0.0044225524, -0.0354512371, -0.0735219494, 0.0147464033, 0.0277238414, -0.0215047039, 0.0253204536, -0.0377963185,
0.0100544672, -0.0674123317, -0.0064105606, 0.0196642149, -0.0056979172, -0.0215894636, 0.0177009590, 0.1069451869,
0.1439514011, -0.0013332926, -0.0274569448, 0.0793800279, -0.1015720814, -0.0499213636, 0.0182874389, -0.0373993069,
0.0421120152, 0.0656212270, -0.0345847681, 0.0917394236, 0.0557218082, -0.0190703720, -0.0266364757, -0.0675288141,
-0.0322979838, 0.0391243026, -0.0623097904, -0.0206646882, 0.0602296107, 0.0286033880, 0.0050297589, 0.0169828217,
0.0077055017, -0.0091060959, 0.0126120541, -0.0141548850, -0.0996355712, -0.0288230032, -0.0652135015, 0.0920608342,
0.0572349243, -0.0793117434, 0.0283518638, 0.0379735306, -0.1020284668, -0.0539210215, 0.1583441645, 0.0496099815,
-0.0081746262, 0.0018308250, -0.0592994690, -0.0385645069, 0.0188702568, -0.0924773812, 0.0628793389, 0.0030551020,
0.0280103013, 0.0009795253, 0.0021394684, -0.0084187966, 0.0854693055, 0.0537976176, 0.0573166721, 0.0159905124,
0.0910537392, 0.0637636110, -0.0248448960, -0.1041443869, -0.0525156371, 0.0290957969, -0.0281906724, -0.0519135967,
0.0856860876, -0.0849137157, -0.0011842498, 0.0663931370, 0.0097563267, 0.0101697836, -0.0391223505, -0.0610793196,
-0.0218471363, -0.0071080397, 0.0398927368, 0.0139908064, -0.1103421673, 0.0712126642, -0.1084527895, -0.0947774425,
-0.0012895215, 0.1571604609, -0.0722811818, -0.0629350170, 0.0335151404, 0.0718313903, 0.0250354949, 0.0220249463,
0.0092339702, 0.0342203677, 0.0853198916, 0.0316074677, 0.0206690691, -0.0046923552, 0.1887124926, 0.1488984823,
0.0273115002, -0.0395931900, -0.0325371288, 0.0080666356, 0.0096563390, -0.0114869829, 0.0024375482, 0.0020696952,
0.0272898376, 0.0184754077, -0.0248004682, 0.0127226468, 0.0090109184, -0.0172599759, 0.0063407253, 0.0007370269,
-0.0099582300, -0.0111564258, -0.0406076275, -0.0067456327, 0.0070011835, 0.0475575142, 0.0409765542, 0.0368512906,
0.0189488977, 0.0243883915, 0.0095945429, -0.0061571239, -0.0169859398, 0.0212413091, -0.0337784328, 0.0162721649,
0.0458733775, 0.0795190558, 0.0373393409, 0.0561065041, -0.1420726776, 0.0233807527, -0.0047741039, -0.0070217950,
-0.0628624111, -0.0127664777, 0.1412649155, 0.0090360092, -0.0449545160, -0.0230916589, 0.0094361827, -0.0118395304,
0.0160366651, 0.0429227874, -0.0546779782, 0.0106707010, 0.0179626532, -0.1349516660, -0.0321713425, -0.1794823259,
0.0551747903, -0.1617362648, -0.0119713899, 0.0554105863, -0.1228886992, -0.0710721463, 0.0303065181, 0.0662529469,
0.0021342330, -0.0136748310, -0.0317687802, 0.0008164847, -0.0117940558, -0.0173366871, 0.1733621508, 0.0468622111,
-0.0076518143, -0.0251825973, -0.0244306587, -0.0259682946, -0.0029506255, -0.0817883760, 0.0403578579, 0.0070220265,
0.0224838108, 0.0366246067, -0.0246187225, 0.0312353838, 0.0338398963, 0.0075489022, 0.0520344526, -0.0370997116,
0.0941659436, 0.0282030292, -0.0182082355, -0.0705362484, 0.0189682059, 0.0202551205, -0.0091125388, -0.0519662462,
0.0054339385, 0.0224577840, -0.0304617248, 0.0126655372, 0.0215779413, 0.0214497801, -0.0038119825, -0.0250767432,
-0.0053103636, 0.0020377822, 0.0390842743, -0.0228810199, -0.0228621513, 0.0066307453, -0.0180620980, -0.0335777886,
-0.0073539200, 0.0116708791, -0.0270174351, 0.0015063829, 0.0004014669, -0.0308601875, 0.0216014106, -0.0262385514,
0.0170808528, -0.0223259330, 0.0054475511, 0.0031840377, 0.0294769481, -0.0177985728, 0.0304816440, 0.0257219337,
-0.1624686718, -0.1236257181, -0.1061113849, 0.4856699407, -0.0176442023, -0.0523324236, 0.1371805817, 0.2230269164,
0.4514164031, 0.0049338043, -0.0888850242, 0.0143631035, -0.1060525849, -0.1905511916, -0.2231888473, -0.3316749334,
0.0193803422, 0.4185697734, -0.0773427337, 0.0337023623, -0.0631188229, 0.0251406319, -0.3828100860, -0.0065868706,
-0.1997105926, -0.0392973348, 0.0181989241, -0.0004102961, 0.0292673316, -0.0126819452, 0.0185052883, 0.1900364012,
0.2280883193, 0.1821692288, 0.0751456097, 0.0025045227, -0.0255491734, -0.0833208784, -0.0419425406, -0.1513340026,
0.0734191462, -0.2176257223, 0.0674290359, 0.2454813421, -0.0679751635, -0.2509148121, 0.1310334057, -0.2404961288,
0.0051821969, 0.1211650968, -0.1957872212, 0.0005094766, -0.1545419991, -0.0313993357, -0.2659362257, -0.1497861892,
-0.0364127122, -0.1125533506, -0.2583686709, 0.0506926887, 0.1112972572, -0.0101015000, 0.0818409771, 0.2605919242,
0.2241727710, 0.0269197915, 0.0404067561, 0.3995193541, 0.0649074465, 0.0804443806, -0.3477566838, -0.8037481904,
0.3117077351, 0.0283578895, -0.0180001073, 0.0616054684, -0.2331732810, 0.1043156385, 0.5507467985, -0.4792009592,
-0.0070291548, 0.2883242369, 0.0000254453, 0.3894450665, -0.0587783307, 0.0253793113, 0.0273580495, 0.2193276435,
0.0172830205, 0.0396753289, -0.2446956486, -0.0596914813, 0.2461937219, -0.1965826750, 0.7532187104, 0.3510745466,
0.0158116538, 0.1124906242, -0.1014975086, 0.1368619949, -0.0309818853, -0.0657903105, 0.1002771184, 0.0593490750,
0.0389274806, 0.0079413541, 0.0033523717, 0.0176945534, -0.0040785698, -0.0697103292, -0.1788993627, 0.0963409096,
0.0730603337, -0.0239477623, -0.1246828586, -0.2900033295, -0.0690647513, -0.0564807095, 0.1764579415, -0.0705795884,
0.0228955038, -0.1090686172, -0.0473501608, 0.0047384370, -0.0785800740, 0.0211074166, -0.0899963900, -0.0355306603,
-0.0108242324, -0.0950974002, 0.0267073195, 0.2196538895, 0.1038908437, -0.0997860730, -0.0840473920, -0.0393521599,
0.1158511713, 0.1400789768, 0.0242676605, 0.0987288356, -0.0817390829, -0.0188603755, -0.0169670079, -0.1351678669,
0.0805449635, -0.0127960583, -0.2229206562, 0.1841388792, -0.0180007126, 0.2032136470, -0.0874864757, 0.0114622498,
0.3249861300, 0.0902420208, -0.1848956645, 0.1306593120, -0.2863440812, -0.0975170732, 0.1150490642, -0.2363077700,
0.3308675885, 0.0166451111, 0.0761300400, -0.2695731521, 0.0118747978, 0.1708323061, -0.0151002221, -0.3137446344,
0.0001029652, -0.1311386228, -0.0868135169, -0.0961068198, 0.1004019305, -0.0491611846, -0.2234102786, -0.3569408059,
0.0769793391, 0.1204266325, -0.0751229823, -0.0629701689, -0.1787981242, 0.1674530655, 0.7044254541, 0.0087974444,
0.0531022586, -0.0502204001, -0.1356378496, 0.1627052724, -0.1073379070, 0.2290425301, -0.6586480737, 0.3010178804,
0.2587049603, 0.1496829689, 0.1428385973, 0.1276392341, 0.2201443464, 0.1117755324, -0.1270909309, -0.1586228609,
0.2604901493, 0.0106839724, -0.0129950093, 0.0179363526, -0.2101690620, 0.1451456994, -0.1112334132, -0.2257180214,
0.0511697754, 0.1818421036, -0.1242426857, 0.1947858185, -0.2445266545, -0.2456250042, -0.0010492348, 0.2205416560,
0.3551383913, 0.0713627338, 0.2264735997, 0.0046130405, -0.1649064273, 0.1565960050, 0.1340256035, 0.1722250283,
0.1648845971, 0.0017845453, -0.1496614218, 0.0005584203, -0.0660459325, -0.0703624263, -0.0050800075, -0.0310939457,
0.0724230781, -0.0665663779, -0.2199055552, 0.0975299254, 0.1322606802, -0.0632379204, 0.0793513581, 0.0906435847,
-0.0614030808, -0.1019389927, -0.0814311430, 0.2695472240, -0.0741354749, -0.0544097759, 0.1090322956, -0.0990152359,
-0.1494372934, -0.0535103157, -0.0025863785, -0.0236278605, -0.0234106015, 0.1042516306, -0.3554725051, -0.1527765691,
0.0462171547, 0.0105575239, 0.3569264412, -0.0790789649, 0.0851535946, -0.0377872698, -0.0058082715, -0.1208191589,
-0.0085844472, -0.1444419324, 0.0748603716, 0.0710200295, -0.0301112514, -0.0060081482, -0.1443201900, -0.0390089788,
0.1720465571, 0.0233000107, -0.1923489422, -0.1040420383, -0.1877515018, 0.0540116988, -0.1186475977, 0.0044150245,
-0.0706526637, 0.0282430351, 0.0115431556, 0.4872288704, 0.0912309587, 0.1066765115, 0.0887544975, 0.0336333141,
0.0076648989, 0.0495917127, -0.0370980762, -0.0334532782, 0.0392774902, 0.1211633608, 0.0137868933, -0.0106091080,
-0.0894052461, -0.8250344992, -0.1057191044, -0.5320801139, -0.0816979855, -0.1241981015, -0.1383749247, 0.0502442271,
0.3454771340, -0.1514287293, -0.0411358513, -0.0073618200, -0.0349461697, 0.1517849118, 0.2129437327, -0.0764170438,
0.0186565761, 0.0053397696, 0.0463342592, -0.0190480221, 0.0040860609, 0.0896145478, 0.0353671387, -0.0141751375,
0.0059036934, -0.0119707584, 0.1076218560, 0.0637551919, 0.0978002772, 0.2511131167, -0.0635615662, -0.0465558283,
-0.0051179207, -0.1567672789, -0.0545159094, -0.0368466042, -0.0755936205, 0.1298694313, -0.1035765484, 0.1554775834,
0.1492158026, 0.0540690646, -0.2151627243, -0.0009140976, -0.1824647486, 0.1442611367, -0.0226052552, 0.0961054862,
0.0158712864, 0.0045523136, 0.0265757199, 0.2444862723, 0.0720756724, -0.0872852802, 0.3759725690, -0.0710326210,
0.2565316856, -0.1045544818, -0.0006249756, 0.0505528487, -0.0731826499, -0.0018518744, -0.0201130435, -0.2056695521,
0.1342113465, 0.0211161487, -0.1337385923, 0.1685101092, 0.2740239501, -0.1226582006, 0.1623626351, -0.0086934213,
-0.0467530638, -0.0875815526, -0.1297804713, -0.0875979811, -0.0368944928, 0.1815774143, 0.1276647896, 0.1233344376,
-0.0715495646, 0.1441751122, 0.1697508246, 0.0121491104, 0.0266999323, -0.0314669497, 0.0093589379, 0.0748431832,
-0.0463600382, 0.1296868920, -0.1094579175, 0.0147497449, -0.0723962188, 0.0858810171, 0.0292048231, 0.0302267391,
0.0013266411, -0.0045228940, 0.0538887419, 0.0073692794, 0.2694927752, -0.0311231390, -0.1005263552, 0.0730260313,
0.0089202998, -0.0674132854, 0.0906834453, -0.0803882182, 0.0784331784, -0.0251157135, -0.0357809514, 0.1042158306,
0.1128710806, -0.1121109575, 6.3480515480, -0.0077234823, -0.0368471369, 0.0574363843, 0.0769296363, -0.1532104760,
-0.0810294598, 0.0493265316, 0.0137947081, 0.0622628182, 0.0604631193, 0.0591161400, -0.0742816627, -0.0328687280,
-0.0867339820, -0.0730881393, 0.0548465773, 0.1323629022, -0.0589134656, -0.0639712885, 0.0149784749, 0.1618748009,
0.0129796769, 0.0445571840, -0.0118505163, -0.0775140971, -0.0771484599, 0.0030173159, 0.0512432866, 0.1484236121,
0.0133178020, 0.1501317769, 2.7179284096, 0.0330004692, 0.0501372032, 0.0099113528, 0.0428079516, 0.0192148965,
0.1415895075, 0.0316610821, -0.0227092430, -0.0641226768, 0.0662474111, -0.0214464851, 0.0716659725, -0.0826911703,
-0.0324645750, -0.0037687847, 0.0038178042, -0.1067537516, 0.0134261670, -0.0275344923, -0.0445140302, -0.0595925786,
-0.0331728645, -0.0727612525, 0.0093517266, 0.0755413622, 0.0720088854, -0.0308338813, 0.2105225325, 0.0818424895,
-0.0153640350, -0.0272050966, 0.0685442388, -0.1107542664, -0.2746651173, -0.0398010723, 0.2245884985, 0.0211799331,
-0.0405023284, -0.0011207015, 0.4556837380, -0.0177168623, 0.0478021465, -0.3437137604, 0.0029967499, 0.0357972309,
-0.0534711257, -0.1046739519, -0.0516309589, 0.0902416706, -0.0324488394, -0.0986661538, -0.0750321001, -0.0024211204,
0.5472425818, 0.1236705482, -0.0625344217, 0.0269134529, -0.0260456186, 0.0722314641, -0.0400911309, 0.0242024455,
-0.0109550217, -0.0157280006, 0.0327392966, 0.0797429085, -0.0072767013, 0.0272425395, 0.1047014296, 0.0449768864,
};

static float para_en_featrues_resnet1_4_bias[32] = { 
0.4124289751, 1.5532290936, 0.4896205962, -0.0128007978, 1.7833454609, 0.9766002893, 0.3891673684, 1.7130202055,
0.5730008483, 0.9376482964, 0.7130976915, 0.3473595977, 0.2120993286, 1.8400298357, 1.4211707115, 1.5845069885,
0.8381121755, -0.0230107009, -0.0678056255, 1.2622488737, 1.1031376123, 1.3001674414, -0.5402393341, 1.2255892754,
0.8475964069, 1.0268497467, 1.0160431862, 0.8566523194, -1.5604665279, -0.7029212117, 0.7738088369, 0.3821850419,
};

static float para_en_featrues_upconv3_3x3_weight[2304] = { 
0.0641655102, -0.0363767184, -0.1714974791, -0.4656884074, 0.1957467496, 0.4666912556, 0.0093770269, 0.0453946665,
-0.1100731641, -0.0436364152, 0.3984993398, 0.1442191899, -0.9934261441, -0.0853730440, -0.1406818032, 0.3447547853,
-0.3277890682, -0.0711901858, -0.4609823823, -0.0659364685, -0.2993195355, -0.5141806006, -0.1022937447, -0.2313460261,
-0.0280061252, -0.1947618127, -0.3020951450, 0.0354485139, -0.5690553784, -0.1927159578, -0.5483542085, 0.0239070486,
0.5842822790, -0.1445055008, -0.2737609148, -0.5047346354, -0.1205098182, 0.0561330281, 0.4317760170, 0.1050684676,
-0.3043536842, -0.2248992026, 0.0225922465, 0.7210282087, 0.3715269566, -0.5335427523, -0.4120537341, -0.0990324616,
0.1710921377, 0.3102596402, -0.1853746474, -0.3442834914, -0.3711842299, 0.0080712736, 0.5366786718, -0.2520612478,
0.2559784055, -0.3138542473, 0.4076528549, 0.4944326580, 0.4532495737, 0.1483798176, 0.2117488086, -0.1243568063,
-0.0139609594, -0.0328543670, 0.2956690192, 0.1491064727, 0.0506548733, -0.2841904163, 0.2046001405, -0.4189481437,
0.0779030621, 0.4001688063, -0.3459265828, -0.0936491415, 0.0786527023, -0.4277428091, 0.2884202302, 1.2699943781,
-0.3590028584, -0.0895982236, 0.3097753823, 0.0067000198, 0.4329382181, -1.1055170298, 0.0403330661, 0.7968357801,
-0.2012626380, -0.1296055764, -0.3530676365, -0.3303710222, -0.0373975374, -0.4522671103, 0.5288515091, -0.0884406194,
-0.2042593062, 0.0643059090, -0.1584437490, 0.0160724688, 0.0239331368, -0.1092491150, 0.1212357506, 0.1444412768,
-0.0554757640, 0.1488604248, -0.0537578873, -0.0345214456, 0.7617665529, -0.4999027252, -0.2050723732, -0.3332450688,
-0.1006377637, -0.1739517003, -0.3336018324, -0.5159731507, -0.3223915696, 0.2474352717, 0.1458124816, -0.0532389991,
-0.0594218299, -0.7231619358, -0.0624386407, -1.1073372364, -0.0217906386, 0.1491006315, -0.1339650303, 0.4518073499,
0.1116535813, 0.8052916527, -0.8533578515, 0.1720130444, -0.3276062310, 0.0845813230, 0.1569075584, 0.0915912986,
-0.5977686644, -0.1362552792, -0.1397638470, -0.1628540009, -0.0914447010, 0.6920873523, -0.1605160087, -0.0063831196,
0.1220639050, -0.0373708233, 0.1211658940, 0.3425917625, -0.5326024294, -0.5632099509, 0.2176435292, 0.6159278750,
0.2530400157, -0.2139478922, -0.5199045539, -0.0469280928, -0.4649318457, 0.1562788934, -0.3386790156, -0.3349286616,
0.3864911795, -0.1662279367, -0.2673384547, 0.1517361999, -0.2787904739, -0.2316143066, 0.1618831158, -0.5960237384,
-0.1635237485, -0.3158497214, 0.0307400357, 0.2233492434, 0.2492261827, 0.1714943349, 0.0843263194, -0.5249683857,
-0.1997067332, -0.0747793466, 0.2678956389, 0.2196056843, -0.0185007472, -0.4267579913, 0.1027236208, -0.2882709801,
-0.2790360153, -0.4127785265, -0.0382073112, -0.4873768389, 0.2652640343, 0.2604382932, -0.7393056154, -0.2575540245,
0.3973990977, 0.0402534716, 0.0445608348, -0.6794206500, -0.0083245318, -0.3354542553, -0.2247271240, 0.3609159291,
-0.2533114254, 0.4786925614, -0.4529606104, 0.2147488147, -0.6091539860, -0.1111414582, -0.2158881426, 0.3233134151,
0.1967858672, 0.2483935654, -0.4754382372, -0.3150088787, 0.6805297732, 0.4397262633, 0.1684185416, 0.1070523784,
0.0467725806, -0.1921135485, 0.1147884056, -0.0011841757, -0.0084526101, -0.1881465167, 0.1187202334, 0.5373262167,
0.4992231429, -0.0216697082, -0.1372748166, 0.2770473659, -0.6892626882, 0.2882524431, -0.4553104341, 0.4143970907,
0.2576784790, -0.4775260389, 0.1719014943, 0.1619334370, -0.2905654609, -0.2207067758, 0.1477155536, 0.0648960546,
0.2328940332, 0.0277159624, 0.2636933029, -0.0661940724, 0.2084859461, -0.0935030580, 0.2677633464, 0.5558371544,
-0.5580703020, 0.0277505424, 0.3093627095, 0.2679060996, -0.0924170762, 0.4866234958, 0.1276529282, 0.3637347221,
-0.9455200434, -0.5526980162, 0.0757618621, 0.3536806703, 0.0005780314, 0.0818305165, -0.0255283006, 0.3291182816,
0.1545306146, -0.8232492805, 0.1556286663, -0.2664518952, -0.5075570345, 0.2188599259, 0.0143860495, -0.4840039909,
0.2809042931, 0.0717107132, 0.6227871180, -0.5427932143, -0.2867797911, -0.4881355762, 0.1780456901, -0.2710544765,
-0.5153777599, -0.3594421148, 0.0597092956, -0.1546371728, 1.0882898569, 0.3005260229, -0.0968392640, 0.4687935114,
-0.4717835188, 0.0035187833, -0.2405673712, 0.1242241487, -0.7587670684, 0.2433006465, -0.4017033279, -0.6388422251,
-0.2932618856, -0.0234767273, -0.0304082297, -0.1121208966, -0.1878877878, -0.7395862341, -0.3645030856, -0.0319549814,
-0.0948755443, 0.0245414507, 0.7255322337, 0.0211422220, 0.0452516228, 0.1645212173, -0.3258124888, 0.1283972412,
0.3683645725, -0.0028823456, 0.1952511966, 0.4638902247, 0.2458346933, -0.4596230686, 0.2333328575, 0.1449323893,
0.2319694906, -0.0309382770, 0.2532986104, 0.0217452534, -0.2881722450, 0.3933797777, 0.0431949869, -0.0952478424,
0.0825591981, 0.3562478423, -0.0029576495, 0.0117695360, 0.6130728126, 0.0921627507, -0.1551817656, -0.2688839138,
-0.5116883516, -0.5795434713, -0.2408063263, 0.3341924548, -0.0845875889, -0.2643125057, 0.0502148047, -0.0604438111,
0.3831080198, 0.2636917233, -0.0743762553, 0.5094063282, 0.5795947909, 0.3155189455, -0.1007552370, 0.0298234019,
-0.2704832554, -0.0162272230, -0.1940812320, 0.2596727908, -0.8030610681, -0.1914604157, -0.6231465340, -0.0247141272,
-0.4262340367, -0.2553132176, -0.4324702621, 0.6643739343, -0.4645013511, 0.0317644924, -0.0081905052, -0.1754214466,
-0.4591635764, 0.1249510869, -0.1237521619, 0.2655899227, -1.0303097963, 0.0175741948, -0.1911182553, -0.0933335125,
-0.7427045703, -0.2911993861, 0.3391396105, 0.0128113208, -0.2198393643, 0.1959453672, 0.2864451408, -0.0112550994,
0.2285652310, 0.3197980821, 0.1142510697, -0.1725639552, -0.4656697512, -0.2262060940, -0.1550381035, -0.3498198688,
-0.2851262093, -0.1513288766, -0.0893397480, -0.2780790329, -0.6257805228, 0.0227109883, -0.1430158168, 0.2337994128,
0.5023348331, -0.1801673025, 0.0580502003, 0.1090690494, -0.1731285751, -0.2498149425, -0.1354602277, 0.3036048412,
0.8055896759, -0.0840304121, 0.0431086682, 0.5238406062, 0.3335012197, 0.1687528789, 0.1601438373, 0.0165996943,
0.0443088859, 0.0592964999, -0.8161303997, 0.2282590121, 0.0994317755, 0.3258843422, 0.3584475517, -0.0956306234,
1.0892531872, 0.5497981310, -0.1100537851, 0.6301064491, 0.2099070251, -0.2659198642, 0.0162273962, 0.2322630137,
-0.6931614280, -0.5481647253, -0.0060927188, 0.1915346384, 0.3607717454, -0.0480709262, -0.2176606804, -0.8536466956,
0.2566512525, 0.0984405056, 0.0407821760, 0.0076286155, -0.0540711805, -0.3082511425, -0.0118030570, -0.6203286052,
-0.0523273945, -0.7006852031, -0.3393397033, 0.4449924529, -0.4689303041, 0.1101823524, 0.3720925450, 0.1442765892,
-0.2291189730, -0.1049574316, -0.3194240034, -0.3003611267, 0.1196248382, -0.5242742896, -0.4784105420, 0.1270403266,
0.0345271192, -0.3392103016, 0.3592065871, -0.2195402533, -0.0914355740, 0.1077253148, 0.0826278254, -0.4434628189,
0.4713356793, -0.1678242236, -0.0680354014, 0.1160579920, -0.1790612638, -0.3206450641, -0.0254485644, 0.1454396695,
-0.1690066755, -0.5560528636, 0.2593890727, 0.0070145461, -0.2752627134, -0.3218920231, 0.1187239662, -0.1984976530,
0.3539342880, 0.0696218982, 0.7917218804, -0.1192427874, 0.3460189104, -0.6458466649, 0.3524699807, 0.1171968728,
-0.0895140916, 0.0536681563, -0.1504822373, 0.6097831726, 0.0314539820, -0.2216690630, -0.0735701695, 0.4224455953,
0.1123554260, 0.6253826618, -0.2393734455, -0.2555529475, 0.1648360193, -0.1703280509, -0.0738775879, 0.0095271869,
-0.0309815723, 0.2963507473, 0.4112849534, 0.0243564099, 0.5164492726, -0.5897913575, -0.0602631532, 0.1377917230,
-0.3200795650, -0.5265502334, 0.1024640799, -0.3421301842, 0.2518351674, 0.2875021398, 0.3794727921, -0.0091145234,
0.1501612812, -0.2766658962, 0.3225393593, 0.2355418056, -0.1972854286, 0.2391659170, 0.3040787578, 0.8238206506,
-0.7533267736, -0.0404810272, 0.4837585986, 0.1152285635, 0.1939281225, -0.4359340966, 0.0139777707, -0.3500612080,
0.6724905372, -0.2153157443, 0.0510149375, -0.0369050428, 0.3519511819, -0.1125037372, 0.1656878740, 0.0944556668,
-1.0196720362, 0.0469762906, 0.5183539391, 0.3638215959, -0.1863486171, 0.1240816116, -0.0731318295, 0.6358496547,
-0.5657015443, -0.1783866137, 0.3773198724, -0.6583250761, 0.2332247943, -0.4438475370, 0.0423689932, 0.2017277181,
0.0406232700, 0.2978574038, -0.0466075875, 0.1217519194, 0.4956628680, -0.6563118696, 0.0898086354, 0.1936146170,
-0.3285795450, 0.3301233351, 0.2522422671, -0.0182821024, -0.4823830128, -0.0213949420, 0.0896116719, 0.1736795753,
0.0583184585, 0.6885709763, -0.5030182600, 0.0663294792, 0.0419129357, 0.2915447056, -0.7444862723, 0.3954645395,
0.0315693580, -0.6274240017, 0.0591661409, -0.0041204048, -0.1198662296, -0.6767576337, 0.5756669641, -0.0415224135,
-0.4922144115, 0.3616380692, 0.0110588800, -0.0151783777, -0.1857298017, 0.4663795233, 0.2243449539, -1.4152365923,
0.4326353669, 0.1733961552, -0.0707722455, -0.1797955334, 0.3995819390, -0.3532418907, -0.0957777351, -0.3926622868,
-0.5225246549, 0.4569428861, -0.0793576017, 1.0901782513, 0.1065993011, 0.5736485124, 0.1267345995, -0.0780675262,
-0.4864983559, -0.9139791727, 0.0544611551, 0.0678278133, 0.6659501195, -0.6710997224, -0.2240380049, -0.0181129389,
0.3223970234, -0.1685303748, -0.6624262333, -0.0298527312, 0.1612305343, 0.2284938544, -0.4184916317, 0.1217923611,
-0.4515451491, -0.2848610580, 0.3303284645, 0.0546195395, -0.3377945423, 0.0667198375, -0.5729334950, 0.2292474061,
-0.2607588768, 0.5698077083, -0.2580688596, -0.1048727259, -0.1877480298, -0.5078427196, -0.0649369210, -0.0789616108,
-0.0571395569, -0.1377841681, -0.1216219142, 0.0003327148, 0.0126261851, 0.2696892917, 0.7922910452, -0.1604129225,
0.5992807150, -0.0357086435, -0.0366680212, -0.1729267389, 0.0503919683, -0.1008783802, 0.4883568287, -0.0344237201,
-0.0118785510, -0.0429505929, -0.0438156724, 0.2345483303, -0.1860772073, -0.4215961695, 0.0854184330, -0.0199087542,
-0.3469340801, 0.1617175043, 0.1378794611, -0.2791360617, 0.3202054203, -0.1954529136, -0.0225509498, 0.7980212569,
0.7959809303, -0.2414310724, 0.2440684587, 0.4025818408, -0.3980994821, -0.0741265342, -0.4233181775, 0.1974302977,
0.7393668294, 0.3002044857, 0.7008782029, -0.5274453759, 0.4898039997, -0.1251561493, 0.1042828783, -0.0505818054,
0.1861589551, -0.0145829851, -0.6430490017, -0.7388114929, 0.0784935504, -0.3214523494, -0.4857497215, 0.2437042296,
0.5034767389, 0.9940717220, 0.1437001973, 0.1599412709, -0.9742625356, 0.1201158762, -0.0046022190, -0.0602654330,
0.6825178266, -0.5171672702, -0.3296115100, 0.8356198668, -0.0480227694, 0.1852266043, -0.2950208783, -0.1257826686,
-0.0919604450, 0.0762789622, 0.0589247905, 0.3515198529, -0.0645807460, 0.1848461628, -0.0028960602, 0.1621849984,
0.2406333834, -0.1919234991, -0.1726190895, 0.0839548558, -0.4494107366, 0.6526898742, -0.2335032076, -0.1163826138,
-0.2763113678, 0.0371235348, -0.1046064347, 0.4671560824, -0.6214812994, -0.0015793929, 0.3577919900, -0.6926137805,
0.0058630770, 0.0690936744, -0.3350483179, 0.0846600085, -0.3723338544, -0.0156312827, -0.2016259581, 0.0602085553,
-0.6872094870, 0.3677662611, -0.4253780246, 0.2768622935, 0.4979133308, -0.5793141127, 0.4002341330, 0.3237721324,
0.7338557243, -0.2223504037, -0.2928144932, -0.2964066863, 0.2838656306, 0.0614859276, -0.0133230546, -0.2195950896,
0.1968716085, -0.2184145898, 0.2110317200, 0.3189518452, -0.6132671833, 0.1738941967, -0.1361646503, 0.2870916426,
0.8175923824, 0.1397177577, 0.0688750148, 0.4173108637, -0.1264584213, 0.0521024093, -0.6176856160, -0.1438712627,
-0.0266817920, -0.0331131220, 0.4385522604, 0.1212422922, -0.1045088246, -0.0034211448, -0.0462111644, 0.1577910781,
-0.2594755292, -0.3323181868, 0.4222981632, -0.2751645744, -0.1031913906, 0.9514780045, -0.2762845457, 0.0105304141,
1.0674362183, 0.0429743752, 0.1069946364, 0.0600649379, 0.1454042345, 0.0343325697, -0.3385589421, -0.4917499125,
-0.3424444497, 0.0631706864, 0.0084734997, 0.2236725092, -0.2495097965, 0.0897690654, 0.2687070370, -0.2182844430,
0.1285504550, -0.5668429732, 0.2468389869, -0.2785539329, -0.2786117196, 0.2112714946, 0.0478055961, -0.2506049871,
-0.1934326142, 0.3507144451, -0.1576901972, 0.0170791391, -0.2210224867, -0.2327000797, 0.3448894024, -0.1570528746,
0.2915532291, -0.2303024977, 0.2291335762, 0.0457806326, -0.1138220131, -0.1069425270, 0.1534608901, -0.0521546453,
-0.0731128156, -0.0089115091, 0.8922774196, 0.6211172342, 0.3496056497, 0.1550424844, 0.4955632985, -0.3475386202,
0.1344556510, -0.5045037866, -0.1929955781, -0.0918055847, -0.1923881769, 0.2162474096, -0.5591073036, -0.0804415271,
-0.2579227686, 0.8052096963, -0.3599470556, -0.0155863622, 0.5147969127, -0.3285308182, 0.0394177325, -0.0825075060,
-0.4244497716, 0.1033771932, -0.2630807757, 0.3418867290, -0.2418746650, -0.5242522955, 0.5389433503, 0.0607128553,
-0.4157991707, 0.1667118520, -0.0758425593, 0.0770614743, -0.0339555666, -0.2265727669, 0.8989541531, 0.1591346562,
-0.1205090433, -0.7423241735, -0.3067462742, 0.0732504055, 0.0102600744, 0.0553466007, 0.2663861811, -0.0771563128,
0.1714622676, 0.1353091747, 0.1694429666, 0.2012942880, 0.1872772127, -0.2601372600, 0.1571611017, -0.4375533760,
1.0628591776, -0.1011282876, -0.0454509966, 0.7950269580, 0.3240742385, 0.2383755893, -0.3435822129, 0.1195712984,
-0.2789770365, 0.2134913653, -0.0576732196, 0.1480332762, -0.8590618968, 0.4834543467, -0.0863249600, -0.0186739136,
-0.2045459300, -0.0222258158, -0.7496386766, -0.5468879938, -0.1275697351, 1.0193647146, 0.6336424947, 0.1164656579,
-0.2664997578, 0.2965709269, -0.0686673895, -0.0737668201, 0.1968829781, 0.1540571451, -0.1463787407, -0.3138197958,
-0.5372647643, 0.0938678682, 0.6429312229, 0.3074729741, -0.0681376457, 0.2551363707, 0.2150256634, 0.1684946269,
0.0620626062, 0.3207196295, 0.2295182049, -0.0694494322, -0.2523784637, -0.0716990381, 0.0615235977, -0.0297557078,
-0.2645893395, 0.0859088004, 0.2300597578, 0.5729123950, -0.1428594738, -0.1142736226, 0.1356364042, -0.4925730824,
0.0043625385, -0.7072122693, 0.4313785434, -0.0923814178, -0.1198414937, 0.0990067124, 0.2945344448, -0.1077967808,
0.5852032900, -0.2542235255, -0.0555480123, 0.1197921634, 0.1512460709, 0.5576924086, -0.2739393711, -0.6154223680,
-0.5787296295, 0.1709628850, -0.0528306738, 0.9853215218, -0.4169196486, -0.2370585948, 0.1699758768, -0.0046215421,
-0.0119685885, -0.7563292384, -0.0657932460, 0.1196151525, -0.4578033984, -0.0738090277, 0.0044369963, -0.2293646783,
0.0783577114, -0.3117180765, 0.0041232118, 0.1522778124, 0.0563983992, 0.3520557284, 0.1525792032, 0.1071083620,
-0.2421988547, -0.6231718659, -0.2055699527, 0.3702083528, 0.8452336788, 0.1852256358, -0.2364618927, 0.2582988739,
0.3380720317, 0.1835825890, -0.3756774366, 0.3500525355, -0.1105747670, 0.0081689870, 0.1341708004, -0.4181491733,
-0.1584547907, 0.0303095169, 0.1096754298, 0.3554271162, -0.6728987694, -0.0085105626, 0.1775040329, -0.2405388206,
-0.2506017387, 0.1088509113, 0.2089022249, 0.0103536528, 0.1449126005, -0.1523689181, -0.0571768880, 0.5185153484,
0.4167006612, 1.2483731508, -0.0122352457, -0.2010420710, 0.0007873863, -0.0415893234, 0.3049428165, -0.2944012284,
0.3591201603, -0.2805201709, 0.0557415783, -0.0183204375, -0.1055305079, -0.0185019206, 0.1863273531, 0.0506737307,
0.5316956043, -0.0837519020, 0.2926082015, -0.2147132903, 0.5845955610, -0.3245539069, -0.4526022375, 0.2294863313,
0.2226302177, 0.5380502343, -0.3914427757, -0.1682089418, -0.0799644142, 0.0395125113, 0.0136668170, -0.0136883967,
-0.2814100087, -0.3739104867, -0.1028914228, -0.9616867304, 0.3162319958, -1.7703065872, 0.7932281494, -0.2974733412,
-0.2624594867, 0.1634512991, 0.0363252796, 0.4532568753, -0.2831783891, -0.2437657267, -0.6912078857, -0.6105926037,
-0.0532625988, 0.4531638026, -0.5506546497, -0.0187930185, 0.1894950718, 0.1411758214, 0.0909165367, 0.1963752955,
-0.0582144596, -0.0408891514, -0.3495281637, 0.4571237564, -0.0297854654, 0.3813860714, 0.1989479214, 0.1071155891,
0.0519414097, -0.0139908558, -0.1384269744, 0.0605492927, 0.0452554189, -0.3295402527, 0.5210033655, 0.0047466108,
-0.6110804677, -0.8408701420, -0.1487667710, -0.2779042721, 0.2832182944, -0.3280447721, -0.2156510204, -0.2452222258,
-0.5466927290, -0.4298399687, -0.1942266226, -0.5202974677, 0.0131094670, -0.2767671049, -0.0309067797, -0.3927055299,
0.5936183333, -0.2425500005, -0.3974996507, 0.7448766828, -0.4029238820, 0.1144025400, -0.3455106020, 0.3046261966,
0.2537458837, 0.2540975809, 0.3238621652, 0.1529982537, 0.2114330828, -0.1367141008, -0.0149077810, 0.0868220925,
0.3885338902, 0.0799395368, 0.2483076453, -0.4412908554, 0.0679387525, 0.1208446175, -0.5168040395, 0.0852839202,
-0.4870617390, 0.6333640218, -0.1225245595, 1.2241470814, -0.8416839838, -0.1260630935, -0.2251635343, 0.0573007874,
-0.0266438741, -0.1379252225, 0.0379356593, 0.2229740918, 0.3587618470, 0.1865343601, -0.2233095318, 0.0482869335,
-0.1555738002, 0.3384448886, -0.1416708976, 0.3396834433, -0.4955798090, 0.3352807164, -0.4360687137, 0.1394613087,
0.1928700805, 0.3301103711, -0.1390170455, 0.4558517933, -0.0042006434, 0.0029770653, -0.2640875876, -0.2229461819,
0.1754418761, 0.1110199764, 0.0754774585, 0.1476311088, 0.3484587371, 0.3804596663, -0.3664140105, -0.2844573259,
-0.7465596795, -0.2307646722, -0.2515628934, 0.4295132458, -0.5310901403, -0.0158128906, -0.6086709499, -0.1191133633,
0.7099153996, 0.4650711417, -0.3022743464, 0.0756153017, -0.6507624388, 0.2743569911, 0.1767001152, -0.1588857770,
0.2057919353, 0.4402940273, 0.4097735286, -0.0421756618, -0.2106615454, -0.1005230770, 0.1813339591, 0.2174694687,
0.2674185336, 0.1098540500, -0.1668940932, 0.3683860898, -0.0398888029, -0.3415088058, -0.0615412332, 0.2869765460,
0.1173982397, 0.6288753152, 0.3181912303, -0.7463392019, -0.3400472701, -0.0031455762, -0.1068411618, 0.2482432574,
0.2946555614, 0.0772364661, 0.3229685128, -0.3206391335, -0.8054957986, -0.3065355718, 0.1854286045, 0.4143719971,
0.4706937373, 0.0450405739, -0.1716094911, -0.2558538616, -0.1832198650, -0.0399749316, -0.1764139682, -0.2067287266,
-0.2576584816, -0.2186154723, -0.1368704438, -0.0350797772, 0.1038603038, -0.1320748925, 0.4167136550, 0.2683824301,
-0.0344990604, -0.2051057667, -0.1838925779, 0.0405790508, -0.0531600453, -0.2300478071, 0.4797214568, 0.1539991200,
0.3613155484, 0.1310253590, 0.1315336972, 0.1814526767, -0.1729174703, -0.2460873574, 0.0161337033, -0.1426360905,
0.3092701137, -0.0916574299, 0.0082447110, 0.1436652094, -0.2181081921, 0.1184683144, 0.1666278988, -0.2264010012,
0.2300025523, -0.0560315289, 0.0571780801, -0.1179581285, 0.4316891134, 0.0627312958, -0.0462735146, -0.1829615235,
-0.2646285594, 0.7100600600, 0.9788452387, 1.1273593903, 0.1589620411, -0.3920461237, -0.1059153676, 0.1700152606,
0.0309099909, 0.3234955668, 0.2066601664, 0.3346711993, -0.0813150331, 0.3355583847, -0.3541042805, 0.1656464189,
0.3136889040, -0.1557910144, 0.2457980365, 0.1121462360, -0.5695525408, 0.2344495803, 0.3846226633, -0.1931985170,
0.3830333650, 0.1389654130, 0.0368745178, 0.0173633806, -0.0738846660, 0.0953776389, 0.1809631735, 0.2903331816,
-0.1975196451, -0.0245892555, 0.2665251195, -0.3984186351, 0.2879036367, -0.3308488131, 0.1475666463, -0.0263869353,
0.0802221298, -0.3192675710, 0.2995612919, 0.1205647886, 0.0257733893, 0.0303662773, -0.6686224937, -0.5243323445,
0.1209920198, 0.0153573602, -0.2493651360, -0.1125902832, -0.3762957156, 0.1017418504, -0.0823932812, 0.5449968576,
0.2816782296, -0.1904814839, -0.2757839262, -0.0961267725, 0.1773027927, -0.2952791154, 0.2232520282, -0.1509562284,
0.3431575596, 0.0627173409, 0.2383330613, 0.0277322475, 0.1778430790, -0.2378511280, -0.0721479952, 0.0374139324,
0.1042572111, 0.6365145445, 0.1682781428, 0.6506201625, -0.0097744614, 0.7030688524, 0.0815278664, -0.2246648520,
-0.0977994055, 0.0872653052, -0.4466599524, -0.0680588335, -0.2161273509, -0.2351910621, -0.2214895189, -0.1836506128,
0.0742900074, 0.2958134115, 0.1838274300, -0.1285505444, 0.4104503393, 0.4388654232, -0.0744213238, 0.0888054967,
0.0831966922, -0.2072550058, 0.1531177461, -0.0522034802, 0.7820407152, 0.4857401550, 0.2763990760, -0.4047455490,
0.5321689248, 0.0760818273, -0.0807997063, -0.0438353978, -0.0927752405, -0.0955443382, -0.1727083921, -0.7475407124,
-0.1809207350, 0.4769374430, -0.0458769277, -0.3655873239, 0.1196447387, -0.3491605520, -0.0855999291, -0.3687251508,
0.1548888832, -0.3398657143, -0.7121309638, -0.5060809851, 0.1642026603, -0.1071762592, 0.3770363927, -0.0266018156,
0.1564737856, -0.1485911608, 0.4705687761, -0.2747873366, 0.3929515779, 0.0100090047, 0.4011034369, 0.1282023191,
0.0323062763, 0.0970304310, 0.1480837017, 0.1758599132, 0.3712970316, 0.3228404820, 0.2118630707, -0.1551589072,
-0.6269271970, -0.1678176820, 0.0684462339, -0.2831902802, 0.6138790250, -0.9280799627, 0.1335442364, -0.0217088424,
-0.5156273842, -0.1394836158, 0.3255123496, -0.5549694300, 0.0749453902, 0.3161824346, -0.8381756544, -0.0008206744,
0.0291182846, 0.5298318267, -0.2004749179, -0.0553694367, -0.5431028008, -0.0491147488, -0.1748984009, 0.3749762774,
-0.2240530699, 0.3116665184, 0.0879775211, -0.1596851498, 0.3383671939, 0.1192374900, -0.0554339550, 0.4138900936,
-0.2620126307, -0.1420744061, -0.2740546465, -0.0838994682, -0.2898386419, -0.1671859473, 0.1271701455, 0.2650419772,
-0.3071730137, 0.1945457458, -0.1692842096, -0.0355405435, 0.2542827725, -0.0887626410, -0.1370040178, -0.2960004210,
0.0927913636, -0.1367537379, 0.6560372114, -0.3877382576, -0.1568492353, -0.2002339959, -0.1481233835, 0.2542932630,
0.7487239242, 0.1307623535, -0.0581009164, -0.3151985407, -0.1760195196, 0.0093947304, -0.1445126832, 0.1298098713,
0.0034974199, -0.2147802114, -0.4002495706, 0.2290740609, -0.2446105033, 0.0494497940, -0.1056536064, -0.3113633394,
-0.3040026724, -0.0377581008, 0.4075875282, -0.1653738022, -0.1896268129, 0.5126212835, -0.2430242598, -0.1017567143,
0.2163993418, 0.1396577507, -0.0144374706, -0.7112092376, 0.1340748817, 0.1387855113, -0.4052796364, 0.7837580442,
0.1402273476, 0.0958008617, 0.0944565460, 0.1384205520, -0.2849750221, -0.7584188581, 0.1092940196, 0.0265187118,
0.0806176141, -0.2655283809, 0.2422866076, 0.1371068507, -0.0055858539, -0.0685746074, -0.2853407562, -0.0355531201,
-0.0886649415, -0.1228901148, -0.0846034437, -0.3556118608, -0.2062676549, 0.0278954469, 0.0461211726, 0.4066864848,
0.2525416911, -0.4004097283, 0.0139423758, -0.2861083150, -0.0119939325, -0.3720026016, -0.5030417442, -0.0648669824,
0.2714820504, -0.4056832194, 0.0786405578, -0.4183728993, 0.4415331781, -0.1324292868, 0.2244915515, -0.1873971522,
-0.5301266909, 0.2116480917, 0.1633443832, -0.0196403023, 0.3220886588, 0.0958274007, -0.0886142403, 0.1763891876,
0.2162686586, 0.2007083893, -0.2097904384, 0.0010452651, -0.0625401512, 0.3257725835, 0.0838378593, 0.6431554556,
0.1484042406, -0.2572797835, -0.2771489024, -0.1056204960, -0.4883609712, 0.6592859626, -0.2012019902, -0.0359553844,
0.6266371608, -0.2730195820, -0.2025890052, -0.4035092890, 0.1430280507, -0.3482271433, 0.2678374350, -0.2858208418,
-0.3120670021, -0.2861059904, 0.1200327575, 0.2905996740, -0.2154945284, -0.3174464703, -0.4507864118, 0.1553599983,
-0.1616778523, 0.0655279905, 0.0447840877, 0.0737983510, -0.0033621010, -0.1457221806, -0.0719760060, 0.2933134735,
0.4384974241, -0.1802164614, 0.1307770908, -0.0526774824, 0.0794534236, -0.2063463479, -0.1262995005, 0.1717251241,
-0.2047781795, -0.1117848009, -0.0164759476, 0.0369848460, 0.4680525959, 0.2230351269, 0.2529593408, 0.8807617426,
-0.2267392129, -0.7048702836, -0.2872335911, 0.4742558599, 0.2614951432, -0.1323436648, -0.1121506244, -0.5288391113,
-0.0876801983, 0.0426216908, 0.2397686988, 0.0373092033, -0.0848192573, -0.4033758938, -0.5150874853, -0.1006117165,
0.2320228219, 0.1517472863, -0.0810255855, 0.0604427718, -0.1559433341, -0.0466120131, 0.0853077322, 0.1269329190,
0.1362573206, 0.3486857116, 0.2906672955, 0.1334138513, 0.4919852614, 0.3922760487, 0.4828172326, 0.2330834121,
-0.1059295386, 0.1887621582, -0.1497897804, 0.4059586525, 0.3230021596, 0.7026079297, -0.3406696618, 0.2004886270,
0.2107948065, 0.1170384958, 0.2709766924, 0.0251247417, -0.0125148380, -0.4790545702, 0.1923070997, 0.1215262488,
0.0108345002, -0.6185234785, -0.4135526121, -0.2364312112, 0.2430191636, -0.1445460021, -0.0506195277, -0.5492479205,
