#if 1
static float conv3x3_pre1_weight[36] = { 
2.5587725639,
-5.5646576881,
0.1108293831,
-4.1190261841,
-8.9051513672,
-1.6833088398,
2.8211965561,
5.8631920815,
10.3401956558,
-1.0638860464,
0.1381689459,
-1.7550764084,
0.1772295982,
0.5878068805,
-0.4873826802,
-1.0517880917,
-1.0141494274,
-0.9884711504,
0.0069093695,
-0.0627947673,
-0.1023623645,
0.2931610644,
0.7264377475,
0.3755195737,
0.2263492942,
3.3841788769,
0.1006266624,
2.5452227592,
-0.4874320030,
-1.9026474953,
4.3577532768,
-3.7771382332,
-5.7748484612,
7.5159330368,
-1.3241920471,
-0.6319466829,
};

static float conv3x3_pre1_bias[4] = { 
-0.2977141440, 2.4902331829, -2.2722556591, 0.1871584803,
};

static float conv3x3_pre2_weight[144] = { 
-0.1003959626, 0.2083234936, 0.0755905509, 0.0059535466, 0.2055441141, 0.0960626304, -0.1069994122, 0.0823150650,
0.0318196975, -0.1012889817, 0.5601921082, 0.1836827993, 0.0961315483, 0.6248646975, 0.3949241936, -0.4024749100,
0.1820407212, -0.1431964934, 0.0604708046, 0.0225484688, 0.0957940593, 0.0534328856, -0.0663090944, -0.0454141460,
-0.0523284711, 0.1486597359, -0.1156478524, 0.0596392229, 0.1371208131, 0.1516969502, -0.0206320807, 0.0574692413,
-0.0124566238, -0.0059709996, 0.0042274003, 0.0860278830, 0.1678802818, 0.0891640261, 0.0755584985, 0.0814138204,
0.1371814162, -0.2074545324, 0.0918502435, -0.1137931943, -0.7626730800, -0.0048718108, -0.2559175193, -0.1284879893,
-0.1123768836, -0.0510333255, -0.1547337472, 0.0822031274, -0.1713244319, -0.0968830734, 0.0669913068, 0.1267111152,
0.2854882181, 0.1043785065, 0.0193318445, 0.2898488045, -0.0310220141, -0.0067493059, -0.1273673326, -0.1145808920,
-0.4430711269, 0.0272178557, -0.0056757284, -0.3866403103, -0.1196822077, 0.4130571187, 0.0006408356, 0.1047672108,
0.3131405413, 0.4253396690, 0.2707398832, 0.1559288800, 0.0996472016, -0.0434388518, -0.0602099858, -0.4010394216,
-0.6919794083, 0.0237604640, 0.0734806284, -0.1692698151, 0.0721942708, 0.0099086780, 0.0589032918, -0.0883006379,
0.1805838048, -0.0501956418, -0.0447448641, 0.0299966428, 0.1768549830, -0.1024718583, -0.0071981205, 0.1125958785,
-0.1487648189, -0.0041669919, 0.0418150574, -0.3864074945, 0.0386449732, 0.4543897510, -0.6618698835, -0.4905701876,
0.1460742205, -0.1017385647, -0.2827010155, 0.0317950696, 0.2828269005, 0.0428435057, -0.0518749505, 0.1958011389,
-0.2180798054, -0.0465178303, 0.0224810410, -0.0790079311, 0.0591176264, 0.2090340108, 0.3991266489, 0.0578215644,
0.0666511208, 0.1947418600, -0.1021616310, -0.1720387489, -0.1013804451, -0.2680017054, 0.1246529073, 0.0604700297,
-0.1815035045, -0.0660387725, -0.0014168981, -0.1112879589, 0.0842022449, 0.1226528957, -0.0989561900, -0.1535079777,
0.2057118714, 0.1973448992, 0.0358120799, 0.4400846958, 0.1050229073, 0.1564188004, 0.5474480987, 0.1327821612,
};

static float conv3x3_pre2_bias[4] = { 
-1.2264984846, 0.9161645174, 0.6610864401, -0.9654940963,
};

static float conv3x3_ds1_weight[288] = { 
-0.1536315978, -0.0172638539, -0.2685518563, -0.1897977889, 0.0285559371, -0.1056100205, 0.0931994542, -0.0796934143,
0.0753179193, 0.3749426901, 0.1896093488, 0.2321116030, 0.0381612554, 0.0089182528, -0.1684873700, -0.3600855768,
-0.4001256824, -0.3599408865, 0.0772935599, -0.0943908617, -0.1487551928, -0.1619741321, -0.3427336216, -0.1990242153,
0.0070445160, -0.1144833639, -0.2036831826, 0.0140506672, -0.0827889666, -0.1102646589, 0.0973039716, 0.0064688125,
-0.2258782834, 0.1005577371, 0.0452342480, -0.1231511980, -0.0044668936, 0.2897268236, -0.0001620789, 0.0305932369,
0.4560364187, 0.0198586918, 0.0604061596, 0.2859998345, 0.1253556609, -0.0270749889, 0.0327060297, -0.0187717676,
-0.0057908655, 0.0124053694, -0.0297944602, 0.0367231146, -0.0539561659, 0.0198642742, 0.0517141633, 0.0517779030,
0.0692112893, -0.0080286497, -0.0046529304, 0.0408850089, -0.0205269512, -0.0495629869, 0.0372611731, -0.0840616748,
-0.0131656425, -0.0942516103, -0.0319445916, 0.0407933630, -0.1077810600, -0.0079818135, 0.1242632344, -0.0066086198,
0.0590704381, 0.1909714192, 0.1375036389, 0.0176626500, 0.0309618339, 0.0206079930, -0.1266333610, -0.0265350919,
0.1037840545, -0.0729944110, -0.0065084728, -0.0692546964, -0.4082895517, -0.2441297323, -0.0916619450, -0.2827712893,
-0.3405599296, -0.0564234443, -0.0531391613, -0.1131458953, 0.0047125071, -0.4022688568, -0.3941090107, -0.3256993294,
-0.3256496787, -0.2284503728, -0.2639766634, 0.0330279507, 0.1359763443, 0.1291604042, -0.1998263001, -0.0807715580,
0.0793633312, -0.0915781781, 0.0711228028, 0.0635072589, 0.1801581234, -0.0011796218, 0.3008460104, -0.0141950278,
-0.4164122939, -0.3082559705, 0.0925255865, -0.0188724659, -0.1978723705, -0.2028123736, -0.5234906077, -0.4717340469,
0.1317848712, -0.3871457577, -0.5305163860, 0.5045986772, 0.6844726801, 0.0613827296, 0.1679692268, -0.4833676815,
-0.9933372140, 0.3168971837, -0.0906522274, -0.4665238261, 0.3012453020, -0.0335005336, 0.0196025502, 0.0752330869,
0.2455175668, 0.1566719115, 0.0068502077, -0.0143975550, -0.0581730418, -0.2588703036, -0.0069609201, 0.0174107999,
-0.0237896256, 0.0170649122, -0.0873876363, 0.0337161198, 0.0971890613, 0.1297494918, 0.1041499004, 0.1105055586,
0.1186777577, 0.0395565517, 0.0153067475, -0.0218386222, -0.0542865768, 0.0560726710, 0.0613401234, -0.0539707728,
0.0034990585, 0.0216234066, 0.1393916905, 0.1145625189, 0.0399775952, 0.1257210970, 0.1883368641, 0.1166395098,
0.1569073349, 0.2328972369, 0.1949961483, 0.0435679704, -0.0302692987, 0.1032185256, 0.0155943679, -0.0184062570,
0.0157785323, -0.0071902317, -0.0206098389, 0.0869663656, -0.0874941051, -0.0024159257, 0.1418346912, -0.0721214265,
-0.1464039832, -0.0165527165, -0.1163536012, -0.1843447834, -0.1090003997, 0.0408707112, 0.0782386735, 0.1715940088,
-0.1007435992, -0.0326363444, 0.0721420124, 0.0235411320, 0.0453349762, 0.1381544620, 0.0348065905, -0.2043066770,
-0.0444607660, -0.3017566800, -0.7734244466, -0.1897199005, -0.0985204652, -0.4061821997, -0.0525111742, 0.1498544961,
0.0013070218, 0.1590335071, 0.0978725702, 0.0317826122, -0.0006465037, 0.1342589557, -0.0329596661, 0.0357557721,
0.0273079891, 0.1521476209, -0.2075574547, 0.2683191597, 0.2095855176, 0.0753695965, 0.4168480337, 0.3588596582,
0.3127116263, 0.3528322875, 0.3178918660, 0.1193989217, 0.2512463927, 0.3294633925, 0.1137441248, 0.1362944990,
0.2301497608, 0.1808183491, -0.0391814448, 0.0562455431, -0.0303246118, -0.1906248331, -0.0720710903, -0.0805663243,
-0.1786545366, -0.1518407166, 0.0743492022, -0.0210011750, 0.0600495972, -0.2736080289, 0.1282260567, -0.0073922710,
-0.0134916175, -0.0403734148, 0.0694800839, -0.0445192419, -0.1082356274, -0.1145927608, -0.0612461269, -0.0915785804,
-0.2110529393, -0.0314454287, -0.1741218120, -0.2000337541, -0.1826619506, -0.1661770344, -0.0907626748, 0.0560456216,
0.0119484030, 0.0969768763, 0.2228298336, 0.1352536976, 0.1441188902, 0.3362213075, 0.0997135937, 0.0678638071,
-0.0110026384, -0.0318821855, 0.0916460976, 0.0780181512, -0.0151699577, 0.1173772663, 0.0545604080, 0.0172761939,
-0.1056020707, -0.1510385424, 0.0210045427, -0.0503329672, -0.0368370861, -0.1190291345, -0.0871221721, -0.1161536947,
};

static float conv3x3_ds1_bias[8] = { 
1.0967739820, -0.4168303907, 1.5409814119, 1.0009989738, -0.8560169935, 0.6939784288, -1.5061596632, 0.0588354617,
};

static float conv3x3_ds2_weight[1152] = { 
0.2778836787, 0.1489205956, -0.0275291838, 0.0183632690, -0.0646334067, -0.3780224621, -0.1174301058, -0.3080111146,
-0.5821630955, -0.1199393198, -0.1167956665, 0.1668695360, -0.0633939207, -0.2828195989, -0.0510795899, -0.0402006395,
0.0043301955, 0.1272713840, 0.3581929207, 0.3981190920, 0.1380288154, 0.2703025937, 0.4365794361, 0.1218177080,
-0.1806087941, -0.1299076676, -0.4949206114, 0.2204137146, 0.2725691795, -0.0051184781, 0.1900621653, 0.2629525959,
-0.1669989377, -0.0885956064, -0.1156880781, -0.1167741045, 0.1394646466, -0.0385078378, -0.0504506230, -0.3264464736,
-0.1609076709, -0.1609373987, 0.1213701069, -0.0460135527, -0.0615244173, 0.2310982198, -0.0285380147, -0.2046512663,
0.3272356093, 0.0943375379, -0.1110884249, 0.2049814612, -0.1280615181, -0.2479489297, -0.0215609074, -0.1355282217,
-0.1951953620, -0.2629037499, -0.1798324585, 0.0104377158, -0.0468875356, 0.1840757728, 0.2463805676, -0.1389459819,
-0.2329907268, 0.1138265505, -0.3973231912, -0.0716186687, -0.1162488237, 0.2282425165, 0.4012857974, 0.4254268408,
-0.0672769770, -0.2321729660, -0.2436396927, 0.0506616198, -0.2452882677, -0.1617983580, 0.0749879628, -0.1818600744,
-0.1875520498, -0.0745944902, -0.1432785392, -0.0953284875, -0.0858238786, -0.2249911278, -0.1040999144, -0.1621632576,
-0.1252896488, 0.0202191118, -0.0810878426, -0.1134012565, 0.0080576306, -0.1590222865, -0.2244448513, -0.0939386934,
-0.0912266523, -0.1106783226, -0.0928321779, -0.1458596885, -0.0534479432, -0.0058913883, -0.1434207857, -0.0313072130,
-0.0318320543, -0.0088208532, 0.0009689577, -0.0237222221, 0.0778989345, 0.0522372685, 0.0786744282, -0.0181323234,
-0.0305061843, 0.1862599105, -0.1327344477, 0.0346813872, 0.0397106856, -0.3333767653, -0.3049196005, -0.1080155149,
-0.4430386424, -0.2704819739, -0.1500463635, -0.1984934658, -0.1657765806, -0.0847717226, -0.0441212840, -0.0033680652,
0.1327941716, -0.1466373205, -0.1025131866, 0.0480890758, -0.2093127370, -0.0411174782, 0.0497212298, 0.0077261617,
0.2637911439, -0.0047685839, 0.1708331853, 0.2651094198, 0.0965475887, 0.0450094081, 0.1518097520, 0.0142603461,
0.0291932337, 0.1043019295, 0.0929560512, 0.0729869753, 0.1406572312, 0.0454312712, 0.0318667144, -0.0136961900,
-0.0489536002, 0.0858257785, 0.0102039091, 0.0780846253, -0.0103676133, -0.0264929552, 0.0393722653, -0.2490654737,
-0.1385007799, -0.0707352832, 0.1685309112, 0.0914005041, 0.0778458640, 0.0484175980, 0.1199270412, 0.0608316064,
0.0329954065, 0.0482278541, 0.0943767503, 0.0274268389, 0.1116150171, -0.0144378440, 0.1542249620, 0.2630756497,
0.0340332612, 0.1895700544, 0.1490494460, 0.0613178723, 0.0961253047, 0.0613128953, 0.1461533755, 0.0692646727,
0.1211948171, 0.1047066599, 0.1294956803, 0.1116808802, 0.2041833848, 0.2159168720, 0.2934924364, 0.1036545038,
0.3440613151, 0.3424203694, 0.1614952087, 0.2924100459, 0.3981484473, 0.1566216797, -0.0441094413, 0.0028876089,
-0.0212812759, 0.0154027641, -0.0069678281, -0.1000823975, -0.0105394023, -0.0930002183, -0.0045468961, 0.1316279322,
0.0264827982, -0.1717995107, 0.0365644842, -0.1204591393, -0.0578562841, -0.0137411300, -0.1464960426, -0.3200679421,
0.1280579716, 0.2013946027, 0.1337842047, 0.1198056936, 0.1231076643, 0.0801083297, 0.0654948801, 0.2020750791,
0.0516964309, -0.1481761783, -0.2088575959, -0.2538720965, 0.0535011664, 0.1042358354, 0.0433028936, -0.0547767542,
-0.0358816124, 0.1699517965, -0.3029893935, -0.3056035340, -0.2349547595, 0.0852694437, 0.2584954500, 0.2531968951,
0.1726717949, 0.2579852343, 0.3223144710, -0.1797526330, -0.4245644808, -0.3087760508, 0.0933333188, -0.2920702100,
-0.4023673534, 0.0734641403, 0.0440853387, -0.1200981438, 0.0783043951, -0.1033718958, -0.0337980688, 0.0611045957,
-0.3190546334, -0.1610056609, 0.1349665374, -0.0366986133, -0.2032743692, 0.3189156950, 0.2128404975, 0.1250186563,
0.3280747831, 0.0756165385, -0.1347119212, -0.0720155165, -0.1940528154, -0.4127246141, 0.2457629740, 0.1297924519,
0.2062305510, 0.0367011577, -0.1618415415, -0.0376186669, -0.3332543075, -0.4346939623, -0.3986310363, 0.2490073293,
0.4012182355, 0.3660803735, -0.0295045394, -0.0957574248, -0.0231285170, -0.4721604586, -0.5343947411, -0.5242549181,
0.0425901748, -0.0875160471, -0.0457282998, -0.1219354272, -0.2110882550, -0.3058066666, -0.1147306412, -0.2036170065,
-0.3922002316, 0.1677088737, -0.0140307192, -0.0648372769, 0.0180154238, 0.0176939331, 0.0085179266, 0.0548190325,
-0.0236846451, -0.0369103178, 0.1104383320, 0.0181078035, -0.0226517655, 0.1133993641, 0.0034885772, -0.1118997335,
0.0220510215, -0.0720175058, -0.0789061934, -0.0108694965, 0.0475483499, 0.0340586454, -0.0300405417, -0.1097973287,
-0.0404861793, -0.1194025353, -0.1951608509, -0.1642651558, 0.0301332604, 0.0767634958, 0.0747444332, -0.0167241525,
0.1125643924, 0.1196753755, -0.0575964637, -0.0595864989, 0.0926458538, 0.2132080793, 0.0991487056, 0.0125964228,
0.1542988271, -0.0165813919, 0.0187939182, 0.0968427882, -0.0649238527, -0.0379252955, 0.0093508577, -0.0797054917,
-0.0561871603, -0.0254075304, -0.1539384127, 0.0172052402, -0.0069899797, -0.0047720140, -0.0683317408, -0.1013272852,
0.0661283582, 0.0017531666, 0.0068765613, 0.3930577040, 0.4620086253, 0.2545867860, 0.7073848844, 0.8003079891,
0.0312823765, 0.5602946877, -0.2111474425, 0.0372084416, 0.3026634753, -0.0622659475, -0.0549841300, -0.2352864742,
0.1414608359, 0.0256766286, 0.0722766742, -0.0130560426, 0.1671302617, 0.1156463102, 0.1670556962, 0.0039048942,
0.2260069102, 0.1955973655, -0.1125419438, 0.2776733637, -0.1640235782, 0.0341684110, 0.2357501686, -0.1826463640,
-0.0382329002, -0.0786906704, -0.0806469023, -0.1231928691, 0.0080765840, -0.2725513875, 0.2928323746, 0.5315480232,
-0.3414002359, 0.0164863635, 0.1990674287, -0.2108041197, -0.1224799007, 0.0363354720, -0.0481675826, -0.1595852524,
-0.0410725288, -0.0673148185, -0.1520329267, -0.0452342592, -0.1586519331, -0.3239569366, 0.2191153765, -0.0679490939,
-0.1402640790, 0.4554247260, 0.1314105242, -0.0628551990, -0.1923596263, -0.0762394965, 0.0530523919, -0.0948405415,
0.0419684425, 0.0718145892, -0.1488458365, 0.0919616893, -0.0249274299, 0.0527682006, 0.1171872616, 0.2161984295,
-0.2774489522, 0.2986181974, -0.1560925692, -0.4203408957, 0.2331987172, -0.0401980132, 0.0580886789, 0.1657082587,
-0.0446345210, 0.0138692083, 0.0600555316, -0.0016227926, 0.0100567220, 0.1823046803, 0.0561295599, -0.0720118359,
0.1404922605, -0.1197802201, 0.0636745766, -0.1646478921, -0.0669795722, 0.0367744677, 0.0143586919, -0.2172623575,
0.1116352752, -0.0910011604, -0.2268313468, -0.0379431099, -0.1407320201, -0.2540347576, -0.0732707754, -0.1603291184,
-0.1822531223, 0.0500983521, -0.0792966634, -0.1596481949, -0.0031010567, 0.0901402608, -0.1571021080, 0.0015441893,
0.1734817773, -0.3612339199, -0.1668980718, 0.0435294472, -0.0333741419, 0.1724965274, -0.0253104102, -0.0730638131,
0.2070573866, 0.1585659832, -0.1786489636, 0.1475112736, 0.2055093199, -0.4483534694, -0.0992645696, 0.1794800013,
-0.4811535776, -0.2704083622, -0.0039941468, -0.4487153888, -0.1580258310, 0.0254675783, -0.1113863215, -0.0288714599,
0.0527694263, -0.2433671653, -0.0009183016, 0.0279152505, -0.2348888218, 0.0597572364, -0.0417831577, 0.0910564065,
0.0671608150, -0.1325705498, 0.1804052144, 0.1742742360, -0.0875709057, 0.0501593575, 0.0030709219, -0.1121466085,
-0.2498583645, -0.0902100131, -0.0684967861, -0.2365988642, -0.1182639971, 0.0255816523, -0.0377575606, 0.1100309342,
0.2010975778, -0.1418613195, -0.3294824958, -0.1609083265, -0.1155610234, -0.2187902182, -0.1720022857, 0.0130283106,
-0.1326371878, -0.0926385447, -0.0940473750, -0.2308539301, -0.2674144208, 0.0070542502, -0.1852256358, -0.1679582447,
0.1427598000, 0.0312074460, 0.0079787718, -0.2259233743, -0.1434517205, 0.0301820636, -0.1263962686, -0.1623650640,
-0.0621868856, -0.0701330230, -0.0442134663, -0.0394425653, -0.0177979860, -0.0119996732, 0.0833190158, 0.0477643237,
0.0707554445, 0.0780565292, 0.1466089189, 0.0886672586, 0.1121255979, -0.0410434157, 0.0857052654, 0.0259901509,
0.2020178288, 0.1519980282, 0.2012842149, 0.1446428746, 0.2826136053, 0.1705975533, 0.0389025584, 0.0849562213,
0.0454885364, 0.1980624497, 0.3705743551, 0.2122240067, 0.1595938206, 0.1435745358, 0.0660410821, 0.1821270138,
0.2729394734, 0.0415390208, -0.0087672584, 0.0939026400, -0.0215506535, -0.1819816828, -0.0907433629, -0.1581209898,
0.1234958991, -0.0380950682, -0.1250069737, -0.1298166066, -0.6099956036, -0.1495953798, 0.0607333854, -0.0421113446,
0.4556861520, 0.0143141448, -0.1189345047, -0.1768381298, 0.0011343310, 0.0125883883, -0.2597306073, 0.0514293909,
0.0784157142, -0.0730247945, 0.2713731527, 0.0974196792, 0.1906444281, 0.2735336721, -0.6321460605, -0.2943242490,
0.2180647999, -0.1460166425, 0.1396083832, 0.2393426150, 0.4801509678, 0.1393439919, 0.0046858429, -0.0776527449,
0.2279065251, -0.0975040868, -0.5588285923, 0.0822420046, 0.1878738701, -0.0876412764, 0.0200529136, 0.0971727744,
-0.0735287517, -0.1570361704, 0.2186117172, -0.0044247457, 0.2528278828, 0.2029782087, 0.0793339387, 0.1586295217,
0.1518926322, -0.2484534532, -0.1435062587, 0.1315640807, -0.1988418847, -0.0774053410, -0.1161013395, -0.2169075310,
-0.1426156908, -0.0386069044, 0.0934017301, 0.1208508387, -0.0884915888, 0.2070755512, 0.0170018747, -0.4766718745,
0.0198982824, -0.0139825791, 0.1642003208, 0.5940318108, 0.1301204711, -0.1175479591, 0.2249118537, -0.2180153131,
0.0589672886, 0.1126888916, 0.2384377271, -0.1264266670, 0.1200447008, 0.0810148418, 0.0232901331, -0.0834452212,
0.0776991323, 0.1306630969, 0.1087945923, 0.1147053912, 0.0994977877, 0.1758163571, 0.2149639130, 0.0081969611,
0.0777425542, 0.1511041969, 0.1069099307, 0.4099021554, 0.1091868877, 0.2062813789, 0.4714659452, 0.2884096503,
0.0213317480, 0.1776254624, 0.1346219778, -0.1556294411, -0.1718238592, -0.1235539168, 0.0655871853, -0.0472209193,
-0.0339840092, 0.0454642363, -0.0242603961, 0.0491626523, -0.0099193165, 0.0400527716, -0.0166581180, -0.0839404985,
-0.0624095313, -0.1036138013, -0.1064617261, -0.1328061074, -0.2037124485, 0.1385266185, -0.0117348563, -0.0339585319,
0.1432100385, 0.1439382583, 0.1076957956, -0.0344177745, 0.1754129976, 0.1636082232, 0.0197443925, -0.0517215990,
0.0059540477, 0.0034082066, -0.0161198583, -0.0743609220, 0.0663035214, -0.1704975069, -0.0485306606, -0.0688929185,
-0.1304604858, 0.1302702576, -0.0033200581, 0.0352486111, 0.0439678468, 0.2067123204, 0.1275236011, 0.1071125790,
-0.0930274576, -0.2842113376, -0.4026026130, 0.4047933221, 0.0231796466, -0.2799738348, 0.3974753320, 0.1526129693,
-0.1088683158, -0.0983107984, -0.1256442219, -0.2428628951, -0.1157359034, -0.0081499014, -0.0494929515, 0.0354299136,
-0.0875118747, 0.0170440972, -0.0473244488, -0.2532250881, -0.2084570229, 0.2672800124, 0.2074852139, -0.2879414558,
0.1870955080, 0.1707086712, -0.1887494624, -0.1753410548, -0.0452228524, 0.1920153201, 0.0914126933, -0.4972798824,
-0.0618811846, 0.5355056524, 0.0820535123, -0.1458781809, -0.0248736665, 0.0923908278, -0.1209551096, -0.1199906841,
0.2714479864, 0.0834518299, -0.0670858175, 0.0468911231, 0.0137460018, -0.0247963257, -0.2624555528, -0.1543501318,
0.3541736901, 0.0456406772, -0.3418682218, 0.3987695575, 0.1243433952, -0.1311025918, 0.1822510958, 0.1362263858,
-0.1282797605, -0.0350479409, 0.0864566043, 0.0935548469, -0.2578401566, -0.0809742436, 0.0312452037, 0.2219254076,
0.2110177130, 0.0681622401, -0.2238242477, -0.0090708286, 0.2934748828, -0.5446090102, -0.2242333144, 0.0858095512,
0.0707851201, 0.0528127514, 0.1183357313, 0.1809300929, 0.0685763434, 0.0135110272, 0.1607496291, -0.0346457735,
-0.0103761395, -0.0920759290, -0.0235958658, -0.0194246378, -0.0562376566, 0.0337450691, 0.1155266389, 0.0173079763,
0.3694583178, 0.4272136092, -0.0285269152, -0.1497454643, 0.0177546367, -0.0421070978, -0.1117727458, 0.0433366001,
0.0123397475, 0.0254049879, 0.0740685388, 0.0590809099, 0.0239758249, 0.1621270776, 0.0137766795, -0.0434062220,
0.0310928542, -0.0034331842, -0.0746355504, -0.0118758669, -0.0229183491, -0.0190740190, -0.0181540996, 0.0287660863,
-0.0294425059, 0.0282063875, 0.1061986908, 0.0535791367, 0.1779249012, 0.0526738390, 0.0617652573, 0.0998693481,
-0.0657945722, -0.1163369864, -0.0665410608, -0.0823580474, -0.0670620054, -0.1104191318, -0.0497314259, -0.0039488641,
0.0004633630, 0.0914330333, 0.0742755532, 0.0480630770, -0.0072331349, 0.0488225892, 0.1182436869, 0.0324468836,
0.0652904361, 0.1705242842, -0.0937531367, 0.0657112375, 0.1937911958, -0.2354201227, -0.1012217402, 0.0258503929,
0.0412051193, 0.2300750613, 0.2234247178, 0.0157360323, 0.0739549696, 0.1754973382, -0.0289634652, 0.1786448956,
-0.0072302548, 0.0679461062, 0.0715306252, 0.0510438383, 0.1113049760, -0.1002389938, 0.1143758893, 0.2060882598,
0.0759220123, 0.0492373519, -0.0362600572, 0.0973960087, -0.0042587598, 0.1066426486, 0.2194556296, 0.1249990836,
0.0545437746, 0.1391864270, -0.0301357862, 0.0629138127, 0.1885380149, 0.1255642325, 0.0876771435, 0.1590110213,
0.1363147348, -0.0166013315, 0.0820745006, 0.0376986228, 0.0712212548, -0.0562693253, -0.0689560398, 0.0522582419,
-0.2744163275, -0.0830952823, 0.0042849248, -0.0482211038, -0.0336142592, -0.0700856969, -0.0720310062, -0.0716243014,
0.0043927417, -0.0489723273, -0.2098388821, -0.0425368659, -0.1895841360, -0.2602129281, 0.0010379353, -0.1170535460,
-0.2134769559, -0.2356752157, -0.3350672126, -0.4095462859, 0.0263079815, -0.2289326340, -0.2646084130, 0.0276518743,
-0.0315250568, -0.1491647512, -0.1755502075, -0.2217517048, -0.1913695633, -0.3595678210, -0.4425459504, -0.2357539684,
0.0945048928, 0.0831806436, 0.1119439453, -0.0586915277, 0.0615477972, -0.0362093337, -0.1322544664, -0.1262066215,
-0.2159697562, -0.0682302937, 0.1550913006, 0.0434485339, -0.0479571894, 0.2808186114, 0.1067842543, 0.0757685080,
0.4345773757, 0.2691247761, 0.1041756049, 0.0427733287, -0.0626497418, -0.0391534492, -0.0725962073, -0.1229072809,
-0.0074129039, -0.1123803556, -0.1331079602, 0.0774206668, -0.0371621214, 0.0174971335, 0.0287725218, -0.1268919855,
0.0002567046, -0.1020059958, -0.2428202778, -0.0922578797, 0.0107129468, -0.0180346668, -0.0631931871, -0.0114594372,
-0.0110414913, -0.0957340822, -0.0336035527, -0.0655547008, -0.1330957711, 0.2218830287, 0.1304913908, -0.1384007484,
0.0060754041, -0.0782142505, -0.2966260910, 0.1122927666, -0.0103664845, -0.1390692294, 0.0092112254, 0.0176336486,
-0.1044972613, -0.0024446244, -0.0972314030, -0.1342093647, -0.0349269472, -0.0513020009, -0.1414893121, -0.1905348450,
-0.0498659387, -0.0940355510, -0.0698826760, -0.1328022778, -0.1328281760, -0.1133018136, -0.3103896379, -0.2570126653,
-0.2439386249, -0.0850479230, 0.0429675616, -0.3455381989, -0.0654442906, 0.0709532276, -0.1057914793, -0.0070547252,
-0.0414735116, -0.0726070851, -0.1969235539, 0.0308898110, -0.1773975641, -0.1382739246, -0.0937354863, -0.0909168124,
-0.0854512081, -0.1511319578, -0.2446310669, -0.0821875110, 0.1547821760, -0.3446653485, -0.0228016321, 0.2769993842,
-0.2621243894, 0.0876545906, 0.2073490173, 0.1520797014, 0.1976487488, 0.0751978904, 0.0154512068, 0.1982782930,
0.1810867786, 0.0041465536, 0.1627977341, 0.1486454308, 0.0229365155, -0.2700440288, -0.1333936006, 0.0187097080,
-0.2233704627, -0.1593199372, -0.0872797817, -0.1461500376, -0.0226323195, 0.0183120705, 0.2883942425, 0.0231445916,
0.0361337215, 0.3194215000, -0.0699282587, -0.2463540733, -0.1838954240, -0.2364459336, 0.0138688302, 0.1979424655,
-0.1890263110, 0.0854089931, 0.1258844137, -0.0259683281, 0.0289434139, -0.0014783178, -0.1674563736, 0.1848044842,
-0.0314490646, -0.2554604411, 0.2674194574, -0.0376181565, -0.3306929469, 0.2857511342, 0.1510928869, -0.3189115822,
-0.3487195075, -0.1186557189, -0.0722942352, -0.2359604239, -0.2027457803, 0.0583938733, -0.2388529032, -0.2060161084,
0.0203281417, 0.1275357753, 0.3680405617, 0.0317782722, 0.0672315657, 0.1246847659, -0.1897712350, -0.0339522846,
0.0818989053, -0.1670645922, 0.0201770384, 0.2543271482, 0.2448130250, -0.0430147089, 0.3891196847, 0.2250610590,
-0.1371482462, 0.0783897787, 0.2448351979, -0.1534058750, -0.0162811708, 0.0461828820, -0.0200593527, 0.0301810224,
0.1088336408, -0.1174972206, -0.0467533395, -0.0130739026, 0.0647174194, 0.0594634898, -0.1104831323, 0.0651833937,
-0.0968514010, -0.3394048214, -0.0439512618, -0.2364234477, -0.1788679212, 0.0963812619, 0.0899673551, -0.0369384028,
0.1771068275, 0.2107525319, -0.0287712608, 0.3311938941, 0.2677851915, 0.2628491223, 0.1859115660, 0.0698867887,
-0.2310209125, 0.1196601987, -0.2083312273, -0.3766500354, -0.0507947505, -0.2566104233, -0.3334844410, -0.0000500547,
-0.2860881984, -0.2396738678, -0.1404942125, -0.1353408247, -0.2906886041, -0.1721085459, -0.3867619932, -0.2210718691,
};

static float conv3x3_ds2_bias[16] = { 
0.1974358112, 1.6437627077, -1.5171161890, 0.5901372433, -0.8287838101, -0.4754047394, 0.9578106403, -0.0395461097,
-0.1857991219, -1.4456838369, 0.0396302342, -0.5956751704, 0.9950633049, 1.0929708481, 0.6780883074, 0.9811552167,
};

static float conv3x3_ds3_weight[4608] = { 
-0.1103963405, -0.0992113650, -0.0902555510, -0.0405623429, -0.1066273972, -0.0797273219, 0.0183036700, -0.0807813406,
-0.0708881840, 0.0757520422, 0.0713973790, 0.0003705013, 0.0028173982, 0.0150486222, -0.0554085858, 0.0073603042,
-0.0210471023, -0.1002289355, -0.0034149732, 0.0167933237, -0.0195638891, 0.0113387229, 0.0102401590, 0.0022415307,
0.0070383796, 0.0093306191, -0.0017629677, 0.0612710156, 0.0357356444, 0.0291551538, 0.0511513911, 0.0041742753,
-0.0644823462, 0.0777940229, 0.0384010524, -0.0079705054, 0.0280036014, 0.0547856763, 0.0404353589, 0.0474035032,
0.0197255742, -0.0010641242, -0.0394087695, 0.0035814194, -0.0227850359, -0.0623100065, -0.0767188221, 0.0570465066,
-0.1202856079, -0.0106451577, 0.0343637802, -0.0605042316, -0.0206563510, 0.0883048475, 0.0327856988, 0.0261173714,
0.0881282538, 0.0720194727, 0.0382312313, 0.0351048335, 0.0229045805, 0.0609758124, 0.1216949075, -0.0498910770,
0.0218435042, 0.0183885898, 0.0674091280, -0.0023004867, 0.0209934376, 0.0738405064, 0.0302532762, 0.0292082392,
-0.0425150134, -0.0779508874, 0.0007176588, -0.0775129050, -0.0800975710, -0.0032707865, -0.0289560221, -0.0138146887,
0.0205868669, -0.0677711293, -0.0253532976, 0.0639749169, -0.0074449535, -0.0191610120, 0.0447334759, -0.0014719127,
0.0995863229, 0.0670445636, -0.1151945889, -0.1512186974, -0.1247101203, -0.0889094323, -0.1949232966, -0.1696351320,
-0.1325937212, -0.1766568124, -0.1075000092, -0.0115983998, -0.0276766773, 0.0948474929, 0.0053157527, 0.0674006045,
0.1846743226, 0.0786122829, 0.1483300924, 0.2271896303, 0.0710629523, 0.0106201069, -0.0369354151, 0.0459183529,
-0.0390631892, -0.0458019152, 0.1090415567, 0.0445938483, -0.0028423260, -0.1471318603, -0.1061752588, -0.0071326196,
-0.0313785411, -0.0104767643, 0.0381021574, 0.0477698073, 0.1197270975, 0.1737533957, -0.0463140905, 0.0264856070,
-0.0126377065, -0.0195840355, -0.0099316305, 0.0482675433, -0.0251157656, -0.0337252133, -0.0100810686, 0.0263323523,
-0.0138198165, -0.0307484027, -0.0023249062, -0.0481412821, -0.0861050040, 0.0358435549, -0.0648501366, -0.0923290029,
-0.1463799775, -0.0373511389, 0.0839545205, -0.0175338387, 0.1235860437, 0.0135221388, 0.1305804104, 0.0997486189,
-0.0022479708, 0.2144320309, 0.1512731910, -0.0073511046, -0.0255214982, 0.1264329553, 0.0313973092, -0.2594124079,
-0.1363835782, 0.0552133322, -0.0008855467, 0.0180607848, 0.1486587226, 0.0236572493, -0.0545861386, -0.0190897454,
-0.0334182195, -0.0777640715, -0.1273403317, -0.0324880220, 0.1292005032, 0.0436207429, 0.1515329927, 0.2110737562,
-0.0664381161, 0.0541489832, -0.0099231051, -0.2399434894, 0.1443813890, 0.1693289876, 0.0811316296, 0.0082439184,
-0.0773938522, -0.0406002514, -0.1919413209, -0.2089188546, 0.0301155038, -0.0256340113, 0.0305111632, 0.0047004730,
-0.0072419681, -0.1267002672, -0.1127970442, -0.0782366470, -0.1343355924, -0.0673881844, 0.0568048656, 0.0406277440,
-0.0041574310, -0.0552192144, 0.0803805664, 0.1283939481, -0.2324139774, -0.0795863047, 0.0594021119, 0.1481179297,
0.1718708873, 0.1787997037, 0.1122078970, 0.0223161429, -0.0437639989, -0.2587342858, -0.2737993896, -0.1680487543,
0.0991993323, -0.0301839393, 0.0105653871, 0.0503371134, -0.0565885529, -0.0787659809, -0.0047697858, -0.1126014143,
-0.2436782718, 0.0715051591, 0.1348960549, -0.0466542467, 0.0409579389, 0.1343143731, -0.0590727963, 0.0777067244,
0.0577389598, -0.4390723109, -0.0019515525, 0.0456757993, 0.0501141958, 0.0746204704, -0.1025179550, 0.0292699635,
0.0117870783, 0.0768615827, 0.0701004937, 0.2407665849, 0.0961400196, -0.0169910528, 0.0870210528, 0.0037618752,
-0.2138012052, 0.0275330096, -0.1963795424, -0.2509732544, -0.1822764874, -0.0453235917, -0.0914340019, 0.1126737967,
0.2271692455, 0.0714903697, 0.2241683453, 0.1892536432, -0.1945403069, -0.2370923311, 0.0722759366, 0.0905965641,
-0.1252435446, 0.1439297199, 0.0155326491, -0.1081396714, -0.1049500480, -0.1084773839, 0.1379675567, 0.1604138017,
-0.0201215092, 0.0665012076, -0.1186098307, -0.2084688842, 0.0661124811, -0.2714275718, -0.2285619676, -0.1082467213,
-0.1071006507, -0.0610058643, 0.1074685603, 0.1475204527, -0.0967748165, 0.1303550005, -0.1228431761, -0.2467476428,
0.0926494002, 0.1913024634, 0.1176151782, 0.1148695648, 0.0703927130, 0.0039957883, 0.0841208622, 0.0552881286,
-0.0079954471, 0.0389533453, 0.0571818054, -0.0083879111, 0.1216905415, 0.0667826682, 0.0472068079, 0.0392657369,
0.0694397315, -0.0039885729, 0.0228238869, 0.0154280690, 0.0924988687, -0.1000640765, -0.0585705191, 0.0321764424,
-0.0810668021, -0.0747698545, 0.0827680826, 0.0517921150, 0.0378310457, -0.0120244948, -0.0599913634, 0.0008309711,
0.0614823885, 0.0554881170, 0.1548214406, 0.0678534582, 0.0244479533, 0.0322956219, -0.0934214145, 0.0946809575,
0.1401923299, -0.0318568237, 0.0322154090, 0.0277299304, -0.0467759818, 0.0702606589, -0.0170341656, 0.0302373432,
0.1007634327, -0.0054628043, -0.0351125523, 0.0706114471, -0.0260413121, -0.0961326584, -0.0626838282, 0.0367753506,
-0.0535174198, -0.0299613308, 0.0845283493, -0.0335645899, 0.0004030492, 0.0668144822, 0.0118661001, 0.0332915224,
0.0915403590, 0.1196696982, 0.1100450605, 0.1397348195, 0.1137713790, 0.0484779999, 0.0361049250, -0.0462807268,
0.0941014960, 0.1557814479, 0.0692342892, 0.1345036626, 0.2420039624, 0.0660329834, 0.0038354287, 0.0558439903,
-0.0001461493, 0.1142845377, 0.0455881804, 0.0377387814, 0.0600586943, -0.0113085648, 0.0483525470, 0.0800303742,
0.1282436252, 0.0755774602, 0.1325937063, 0.1332358271, 0.1310772151, 0.1449039876, 0.2114468366, 0.1103177220,
0.0410181582, 0.0755632892, 0.0873818174, -0.0381216668, -0.1011086926, 0.0356007107, -0.0645084083, 0.0144354496,
0.0537959076, 0.0682079121, 0.0028941904, -0.0073691183, -0.0046178559, -0.0793965608, -0.1474331319, -0.1010278389,
-0.1833433360, -0.2001509070, 0.0819144920, -0.0356621221, 0.0360462815, -0.0413025357, -0.0502414927, 0.0101092635,
-0.1267345697, -0.0406455100, -0.0139213651, 0.0418127775, -0.0238954723, 0.0191529524, 0.1416162103, 0.0427762382,
0.0394762419, 0.0839489251, 0.0221565366, 0.1259793788, 0.0270293113, 0.0186306871, 0.1294073462, 0.0924024135,
0.0097344946, -0.0356729515, -0.0389957167, -0.0584566109, -0.0702351853, 0.0144941416, -0.0747997910, -0.0226180125,
0.0908021256, -0.0022092441, 0.0394489318, 0.0086696828, -0.0584324040, 0.0018371398, -0.0241335891, -0.0152043300,
-0.0148495343, -0.0588027574, -0.0511488728, 0.0130919041, 0.0076597682, -0.0439142957, -0.0501773097, 0.0775932223,
-0.0125259794, -0.0181753263, 0.0402049571, 0.0384170786, -0.0379597954, 0.0228322651, 0.0203629360, -0.0249194037,
-0.0214547664, -0.0499012917, -0.1265731305, 0.0071846358, 0.0112714190, 0.0115797967, -0.0825723410, -0.1068617404,
0.0789038688, 0.0352965519, -0.0064308057, 0.1014881730, -0.0494323149, 0.0124003896, 0.0275388360, 0.0136420578,
0.0169256870, 0.0529782511, -0.0745544136, -0.1502823234, -0.0394396745, -0.0553238131, -0.0051735779, 0.0171740055,
0.0082417335, 0.0529410169, -0.0629016384, -0.0620495975, 0.0594073981, -0.0416496657, -0.0124739232, 0.0524168611,
0.0001318007, 0.0315204747, 0.1204298064, 0.0582072251, 0.1795779765, 0.2323525399, 0.1064529717, 0.0338271372,
0.0926376954, 0.0534814522, 0.0257253405, 0.0374151282, 0.0411397591, 0.0364601053, 0.0112078730, 0.0080822185,
-0.0473498814, -0.0130153513, -0.0240474883, -0.0736677051, -0.0795007423, -0.0850351825, 0.0361026041, 0.0443602651,
0.0180127546, -0.0448759869, -0.0521446131, -0.0696156248, 0.0152944848, 0.0732878894, -0.0249141790, -0.0010711198,
0.0638500527, -0.0996018797, 0.0154732186, -0.0451812558, 0.0061125676, 0.0187760517, 0.0651968196, -0.0448807254,
-0.0855835229, 0.0138756419, 0.0170712080, -0.0404512174, 0.0021265720, -0.0834573582, 0.0836068615, 0.1209056303,
-0.0243420508, 0.0594556071, 0.2638558745, 0.0858278200, 0.0230717417, 0.0093771750, 0.0556048639, 0.0018607010,
-0.0451042913, 0.0475541353, 0.0089150518, 0.0121564642, 0.0600732975, -0.0898950323, 0.0962226540, -0.0898991004,
0.0527118742, 0.2359396219, -0.0487674884, 0.0146077070, 0.2878949046, 0.0785824507, -0.0647293180, -0.1040102690,
0.0155012440, -0.1216660067, -0.0242571235, 0.0371871069, 0.0096406816, -0.0198605675, 0.0896870866, 0.0013675832,
0.0292655323, 0.0213823020, 0.0391988903, 0.0338286012, -0.0126902182, -0.0284702946, -0.0466844775, 0.0000236702,
-0.0376639627, -0.0198617037, 0.0562990345, -0.0201864149, -0.1118630990, -0.0947427750, -0.0524388328, -0.0743714273,
-0.0078522842, -0.0019289211, -0.0834947750, 0.0489453934, -0.0566537641, -0.0543279760, 0.0230633449, 0.0504913218,
-0.0202459712, 0.0048975167, 0.0231694672, 0.0080917543, 0.0284528676, -0.0158829428, -0.0308628660, -0.0060603591,
-0.0305146463, -0.0484691970, 0.0349293873, -0.0176197141, -0.0764469206, -0.0760858282, -0.0341403447, -0.1786145866,
-0.2165729553, -0.1234945208, -0.1946942657, -0.1768150032, -0.0166604295, -0.0994445831, -0.0727048591, -0.0096272584,
-0.0043297363, 0.1090376750, 0.0355243199, 0.1019801199, 0.1612252295, -0.2226922363, -0.1755050570, -0.1940782815,
-0.2322425991, -0.2533780336, -0.1843955368, -0.1531602591, -0.1416664869, -0.0755949467, -0.0434700064, -0.0472219698,
-0.0013262714, -0.0404222012, -0.1123289466, -0.0761990100, 0.0336349681, -0.1111695692, -0.0074558933, -0.0201091487,
-0.0966389105, -0.0699402466, -0.0224782024, 0.0190261900, -0.0238151718, -0.0413376987, 0.0859000012, 0.0004045382,
-0.0653853640, -0.0910004079, -0.1566385478, -0.1427972615, -0.1959169954, -0.1389759183, -0.0749654770, -0.1519713402,
-0.1377823800, 0.0663219169, 0.1110289320, 0.1074079797, 0.0128253540, 0.0083505427, -0.0108038029, -0.0627204403,
-0.0611805543, -0.0925677568, -0.1539083570, -0.2195957750, -0.1459756792, -0.2845103741, -0.3574779034, -0.2074790001,
-0.1534229368, -0.2635332048, -0.0887178853, 0.0258708708, 0.0544435233, -0.0135902036, 0.0081439726, -0.0454489104,
-0.0570753068, -0.0302987378, -0.0333487988, -0.0169775765, 0.1199076995, 0.1297622621, 0.1295076609, -0.0246361364,
0.0251106843, 0.0044294070, -0.0652997941, -0.1087519377, -0.1338087916, -0.0013107196, -0.0408653505, -0.0280513186,
0.0149208559, -0.1109641641, -0.0622091703, -0.0305203535, -0.1496630758, -0.1221302450, 0.0153473495, 0.0331566706,
0.0472338162, -0.0708385333, -0.0548876040, -0.0096724546, 0.0201746784, -0.0303152017, -0.0526825190, 0.0460448824,
0.1011148319, 0.1177028865, 0.0086373463, -0.0191021189, -0.0229370017, -0.0598611571, -0.1359383911, -0.1426783204,
-0.0378163904, -0.0662530586, 0.0140489927, -0.1413327903, -0.1153402850, 0.1092065796, -0.1009657457, -0.0410137624,
0.0928750485, 0.2147050053, -0.0063644876, -0.1469096094, 0.2063398361, -0.0666640773, -0.2042456865, 0.1651718616,
0.0416703410, -0.1106219068, -0.1088899076, 0.0401242040, 0.0889049172, -0.0601291917, 0.0354446992, 0.1574765742,
-0.0108419824, 0.0861000493, 0.0054677608, -0.1000223905, -0.0147701660, 0.0597369634, -0.1042197496, 0.0464827493,
0.1573674381, -0.0223587994, 0.1157432422, 0.0691005066, 0.1215875596, -0.0172379985, -0.0155596025, 0.0565725490,
0.0215665698, -0.0815091580, 0.0534096062, -0.0149215311, -0.1101797447, 0.0865675658, 0.0474584997, -0.0059515326,
0.0135831442, 0.0062840967, -0.1033860967, -0.0131076202, -0.0174595881, -0.0627295449, 0.1726884395, 0.0120841274,
-0.0679983273, 0.2487721890, -0.0512221456, -0.1913387179, 0.1138685718, -0.1066651195, -0.1383314431, 0.0646632612,
0.1820909530, 0.0507396348, 0.0740741268, 0.1002307013, 0.0839043185, 0.0073462608, -0.0248128306, -0.0941201895,
0.0002826874, 0.0370093733, -0.0135596329, 0.0686410964, -0.0430617109, -0.0828239247, -0.0598561652, -0.0353380740,
0.0355854705, -0.0988911763, -0.0689555630, 0.0723838061, -0.1469352394, -0.0136610046, 0.0823338106, -0.1106155217,
-0.0986879840, 0.0638170391, 0.0453770868, -0.0082592452, 0.0021214564, -0.0441584103, -0.0696518123, -0.0707759038,
-0.0483497754, -0.1347793490, -0.0026094709, -0.0601633191, 0.0086410120, 0.0601067394, 0.1646132767, -0.1243851483,
0.0115269339, 0.0643348768, -0.0392870344, -0.0007094762, -0.1909341663, -0.1054169685, 0.0473838374, -0.1860834062,
-0.0224793274, 0.1522211283, -0.0155829052, -0.0057468885, 0.1784610152, -0.1654623300, -0.0909578502, -0.1085892990,
-0.0288887117, -0.0962000638, -0.0736453608, 0.0069904160, -0.1011888236, -0.0091472855, -0.0139455497, 0.0500669144,
0.0695508942, -0.0461302251, 0.1582192779, 0.1803184599, 0.0776105076, 0.1750185639, 0.0412096940, -0.1787458509,
-0.0792376474, 0.1334197819, -0.1796730161, -0.0162600465, 0.1474853009, -0.0328833722, 0.0398481078, 0.1090275422,
-0.1668689847, -0.0330728069, 0.0341257676, -0.0563214608, 0.0147769069, 0.0454150476, 0.0662087426, 0.0067416630,
-0.0189669244, -0.0281256530, 0.0963653922, 0.0379545167, 0.0353032649, 0.1976049244, 0.1115232259, 0.0535643175,
0.0990134776, 0.0507811792, -0.1269661486, -0.0746392235, 0.0828673095, -0.1071671769, 0.0974586904, 0.1296280324,
-0.0482718274, 0.0779381469, 0.0783899873, -0.1162314415, -0.0757352039, 0.0226129387, -0.0546372421, -0.0498417541,
0.0703301132, -0.1221599579, 0.0145092988, 0.1276789606, -0.0736132935, -0.0213869270, 0.0091015706, 0.0426785573,
0.1037173569, 0.0455749221, 0.0932149366, 0.1849939376, 0.1344140917, -0.0571820289, -0.0334138125, 0.0008434610,
-0.1242390499, 0.0294673145, 0.0182602927, -0.0593150742, 0.0375470482, 0.0164843742, 0.0031642742, 0.0955335870,
0.0554124191, 0.0189356096, 0.1514670998, 0.1063718423, 0.0244679525, 0.1322615743, 0.0488503017, -0.2453976423,
-0.1019784883, 0.0765405446, -0.1501331478, 0.0383485071, 0.1668674946, 0.0053937696, 0.1169566587, 0.1814952195,
-0.1539019793, -0.0743996873, 0.0748797581, -0.0356242210, 0.0847830549, 0.0794434845, 0.0154134482, 0.1000844538,
0.0798139945, -0.0333735943, -0.1052500755, -0.1504324377, -0.0537843406, -0.0474226959, 0.0279554725, -0.0354452468,
0.0628771260, -0.0001575230, -0.0819093883, -0.0482553169, -0.0320672207, -0.0979172438, -0.1067565456, -0.0937906876,
-0.1047639847, -0.0747738779, 0.0123884324, -0.0276843868, 0.0564182214, -0.0383464992, -0.1191940978, -0.0548141412,
-0.0662050694, -0.0248361137, 0.0101820705, -0.0842550471, 0.1153496206, 0.0674055740, 0.0248066857, -0.0087994393,
-0.0215163082, -0.0575203821, -0.0022577052, -0.0643509403, -0.0657548383, -0.0801196471, 0.0168209784, -0.0390133001,
-0.0252456982, 0.0409903675, -0.0957998633, -0.1230168939, 0.0083295163, -0.0277088229, -0.1224979237, -0.1390863061,
-0.0407470688, -0.1813040525, -0.0863474682, 0.0349797830, -0.1271095574, -0.0139041748, 0.1058169380, -0.0328642875,
-0.0266906470, -0.0077638328, -0.0170790497, 0.0455964804, 0.0386116542, -0.0594848916, -0.0928677246, 0.0724412203,
0.0293493792, 0.1079850644, 0.0740781724, 0.0299343392, 0.0830641389, 0.0650353953, 0.0289738532, -0.0159564856,
0.0011200403, 0.0140146865, 0.0404647514, 0.0462456644, 0.0241130944, 0.0447536409, 0.0048919842, -0.0211835820,
-0.0008943520, 0.0382618159, -0.0459969677, -0.0437094867, 0.0720783621, -0.0577995107, -0.0228177756, 0.0290555898,
-0.0663143694, -0.0296881273, 0.0010607425, 0.0116937803, 0.0512132235, 0.0430953763, -0.0566614643, -0.0363561735,
-0.0330649093, -0.0218905769, -0.0623186976, -0.0946378782, 0.0532276183, 0.0262439214, -0.0310802292, 0.0301619470,
-0.0091124140, -0.0510024093, -0.0158926807, -0.1195087731, -0.0978468657, 0.0046034078, -0.0057648853, -0.0123857064,
-0.0167843066, 0.0321259648, 0.0120311454, 0.0450236574, 0.0416233912, 0.0143554527, -0.0087467730, 0.0176272020,
0.0468147136, -0.0356179066, -0.0258233435, -0.0248994082, 0.0255265087, 0.0601199493, 0.0668999404, -0.0579166263,
-0.0068361526, -0.0794164389, 0.0391218588, 0.0019462602, 0.0531153455, 0.0624740794, 0.0468217991, -0.0007158066,
0.0022766346, 0.0198042542, -0.0260312073, 0.0312256664, 0.0193480998, -0.0291697104, -0.0570843741, 0.0094798096,
0.0113036577, 0.0011473191, 0.0343357287, 0.0406824127, 0.0204521809, 0.0705069825, 0.0852732882, 0.0504846349,
0.0774275362, 0.0807217732, -0.0085826665, 0.0139194634, -0.0192716494, -0.0721611753, -0.0076154494, 0.0677252412,
-0.0484326929, -0.0235303380, 0.0319941901, 0.0437115505, 0.0394429602, 0.0182180703, 0.0381261148, 0.0595771223,
0.0604850166, 0.0773871988, 0.1388761252, 0.1287923902, 0.0238948390, 0.0357263573, 0.0216985792, 0.0287177376,
-0.0210222583, -0.0006225713, 0.0245511774, -0.0297554377, -0.0447601452, -0.0129867317, 0.0028444852, 0.0210135691,
-0.0369338952, 0.0896413177, 0.0858215019, 0.0479923636, 0.1123738736, 0.1009343639, -0.0547682047, 0.0236139204,
-0.0095317988, -0.0152791562, 0.0045629358, -0.0167362373, -0.0314285532, -0.0558778457, 0.0840712786, 0.0208156444,
0.0012871966, 0.0495612100, 0.0269528441, 0.0309300795, 0.0413665548, -0.0336397365, -0.0271179061, -0.0184241459,
-0.0602412224, 0.0805464983, 0.0076365448, 0.2395212203, 0.0946877599, -0.0572944619, 0.1699209213, -0.0395648815,
-0.1129585952, -0.2831398845, -0.0563060679, 0.0631555021, -0.3345281184, 0.0736529902, 0.2002779990, -0.2530294955,
0.0901175961, 0.1615871489, 0.2612555921, 0.0452635139, -0.0857796371, 0.2119619846, 0.0652478039, -0.2101623267,
0.1593639553, -0.1055596918, -0.1774462014, 0.0644626096, -0.0233667493, -0.1912186742, 0.2067827284, -0.0731177703,
-0.1043801755, 0.1165246591, -0.0570390821, -0.0885283276, -0.0954471454, 0.0698216483, 0.0275595486, -0.0883808881,
0.1456243098, 0.1356811523, -0.0969131961, 0.1342138201, 0.0623726323, -0.0852937773, 0.0063887862, 0.0257163886,
0.0190069508, -0.0500869788, -0.0486916043, -0.0609791912, -0.0310915783, -0.1821836233, -0.1611035764, -0.0065472927,
0.0039154408, -0.3268000484, -0.0413572825, 0.0562018789, -0.4157976508, 0.0657055154, 0.1236734688, -0.0489926115,
-0.0247539021, -0.0539836884, 0.0223462507, -0.0247170068, -0.0404542200, -0.0490895100, 0.0158635750, -0.0511626638,
-0.1439325809, -0.0877273977, -0.0085787727, -0.0624731667, 0.0010079554, 0.0192695260, 0.0199793186, 0.0495947897,
0.0437268801, 0.0332461707, 0.0469107665, -0.1421588063, 0.0168818999, -0.0047572595, -0.2783248723, 0.0543689504,
-0.0075945146, -0.2629089952, 0.0230941456, -0.1172066852, -0.1520128399, 0.0658693910, 0.0140017988, -0.1237069815,
0.0527940579, 0.0427360274, -0.1285268813, -0.0531626120, -0.0195230767, -0.0634458363, -0.0625454187, -0.0006175773,
-0.1232363284, -0.0307202172, 0.0402775034, 0.0167558268, 0.0961542502, 0.0052671470, -0.0772408247, 0.2572816312,
0.0501207300, -0.2152762264, 0.1855769455, -0.0662340894, -0.1288276315, -0.0898010358, 0.1662420779, -0.0300974008,
0.0870335400, 0.1146275699, -0.0423438288, 0.1402544975, 0.1476606280, -0.0391955599, 0.1597220749, -0.1330573410,
-0.1666170955, 0.0692728236, -0.2572074831, -0.0379980691, 0.0103952438, -0.3155725300, -0.0048501897, 0.0996195152,
-0.0421547033, -0.1078155562, 0.1422032714, -0.1091550738, -0.1444439739, 0.1293734908, -0.0941698030, -0.0343617238,
-0.0529494733, -0.0686875209, -0.0841550454, 0.0279381946, -0.0336233638, 0.0390111096, 0.0172553249, 0.0612807386,
0.0681994259, -0.0590956509, -0.0692180917, -0.0053068516, -0.0647836998, -0.0493910201, 0.0363193043, -0.0316561200,
-0.0166182872, 0.1556556970, 0.0870938078, 0.0143193491, -0.0782290176, 0.0689678341, -0.0000885010, -0.0656851754,
0.0352204330, -0.0196821187, 0.0288417432, 0.0867426172, 0.0426789485, -0.0227833930, 0.0170837268, -0.0254764874,
-0.0907135308, 0.0692956373, -0.0268879794, -0.0999402851, -0.0825999230, -0.0551503636, 0.0925701484, -0.1486532837,
-0.1431546807, 0.0581667945, -0.0720605403, 0.0000380193, 0.1222078130, -0.1585577577, -0.2647841573, -0.0736312866,
-0.2383040339, -0.2534335554, -0.0861328840, -0.1479306519, -0.1246426105, -0.0661206841, -0.0142071536, -0.0280913934,
0.0100193657, -0.1135248393, -0.0342030525, -0.0270354282, -0.0221820027, 0.0054448191, 0.0035146817, 0.0477494411,
-0.0622759834, 0.0227033980, -0.0285790674, -0.1382400692, -0.0886166021, -0.0119647589, -0.0527674742, 0.0060554971,
-0.1239111796, -0.2646546066, -0.1916061193, -0.1396494657, -0.2633511722, -0.1564958096, -0.0293179806, -0.0867386311,
0.0052850484, 0.0002692142, -0.0102765271, -0.0150601929, 0.0166807864, -0.0330388993, -0.0305361617, 0.0332660414,
-0.0728046075, -0.0440834649, -0.1497519016, -0.2260389328, -0.1200376973, -0.3024761379, -0.3056140542, -0.1386168152,
-0.1456558853, -0.1823556423, 0.0195117332, 0.0414768048, 0.0377459042, 0.0491713248, -0.0142878890, 0.0162947532,
0.0505057983, 0.0504712574, 0.0454696901, 0.0100398120, 0.0152978180, -0.0060724928, -0.0043383297, 0.0535172634,
0.1316575557, -0.0342619456, 0.0544682257, -0.0070608384, -0.0594750457, -0.1451077163, -0.0501238517, -0.0830943286,
-0.0647227764, 0.0064659910, -0.0395167023, 0.0241638664, 0.0132588418, 0.0150787933, 0.0464063287, 0.0179066490,
-0.0038329563, 0.0398809165, 0.0240891334, -0.0427481942, 0.0729608387, 0.0106423106, -0.0662993938, 0.0163769443,
0.0156576224, -0.0664475039, 0.0336175635, 0.0109258462, -0.0131845511, 0.0301990863, 0.0324604884, -0.0456096642,
0.1579001546, 0.2177955806, 0.0936888829, -0.0325777866, 0.0641238019, 0.0910555720, -0.1904356480, -0.1533541381,
-0.1164248139, -0.2265846878, -0.1210988089, -0.0743573830, -0.0796350688, 0.0114176106, 0.0331283286, 0.1019049361,
0.1930664629, 0.1652321965, 0.0854323730, 0.2004068196, 0.0497618951, 0.0201228056, 0.0186720937, -0.1036235318,
-0.0785790160, -0.1887750775, -0.2006425411, 0.0790502355, 0.1215465963, 0.1896131784, -0.0905539319, -0.0884350240,
-0.1433526874, 0.0200807415, -0.0936469808, -0.0414951406, -0.0259430539, -0.0431176461, -0.0288198888, 0.0262203328,
0.0882798657, 0.0585575700, 0.0535977557, 0.0267357267, 0.1379428804, -0.0687309429, -0.0634005368, -0.0077283932,
-0.1615732759, -0.1410662681, -0.0044459426, -0.2169636935, -0.1270715892, 0.0641376376, -0.1365327984, -0.1237518862,
-0.0662174895, -0.1069054008, 0.0220145918, 0.0510763153, 0.0558801070, 0.2137903571, 0.0954193920, 0.1171283871,
0.0816164389, 0.0614612065, 0.0152935060, -0.0642490834, 0.0213136990, -0.1594517082, -0.1253307015, -0.0289591067,
0.0584440827, 0.0516876355, 0.0565657020, -0.0582893565, 0.0286480971, 0.1192552671, -0.1964810044, -0.0949298888,
0.0772012323, 0.1165114418, 0.1114547774, 0.1129552871, -0.0872242078, -0.0722610578, 0.0628996491, -0.0769763887,
-0.0845514685, -0.1757883430, 0.0008367912, -0.0800419152, -0.0243955422, -0.2205093801, -0.2552986443, -0.1334146708,
-0.1003570110, -0.1628013402, -0.0847938135, -0.0085210642, -0.0369691774, 0.0516668372, -0.1137114912, -0.0251365695,
0.0304475687, 0.0496945679, 0.0438431017, -0.0396265015, 0.1774673462, 0.1496695876, 0.0657063797, 0.0105093233,
0.0540087596, -0.0685948506, -0.1141608953, -0.1935385168, -0.1757193804, -0.0456338637, 0.0727180913, 0.0555047840,
-0.1163661629, 0.0420043617, -0.0270691551, -0.1018903628, 0.0627314448, -0.1098565832, 0.1670645028, 0.1283170134,
-0.0451625399, 0.0828359649, 0.1079937667, 0.1210302785, -0.1260657161, -0.0660600811, -0.0739747435, 0.1714298278,
0.2192465961, 0.0523054413, 0.0211879928, 0.0568452664, -0.0877060518, -0.0840505958, -0.1691542864, -0.1936034560,
-0.0552079231, -0.1543353796, -0.0560774393, 0.0438874811, -0.2603143752, -0.0345457494, 0.1281868070, 0.0614638180,
0.1743204147, 0.0412208922, 0.1190798506, -0.0128269922, 0.1043917313, 0.0678351149, 0.0263478253, -0.0968895406,
-0.1013794988, -0.0940714628, -0.0825705603, -0.2864471972, -0.1169076487, -0.0106082978, -0.0592640974, 0.1138438955,
0.0733014569, 0.1061501279, 0.2273187190, -0.1038825437, -0.1872453690, -0.1326290518, -0.0054225572, -0.0366143733,
0.0681923553, -0.0209315568, 0.1530704796, 0.2164704502, 0.0830798075, 0.0403089337, -0.1356070191, 0.0906536281,
0.0718728602, -0.0665844157, -0.0085448669, -0.0667730048, -0.1421007067, 0.0358306766, -0.0537067838, -0.0349396355,
-0.0127771785, -0.0487226695, -0.0993574783, -0.0337125808, -0.1229559258, -0.2016769201, -0.0191139355, 0.1798251569,
0.0074743889, 0.0320035294, 0.1839667261, 0.0751443803, -0.0777084902, -0.0006555318, -0.0387785956, -0.1809940487,
-0.0750278458, -0.0180770382, -0.1961911619, 0.0347986184, 0.1660178155, -0.0443173684, 0.0631564409, 0.0642167032,
-0.0598225854, -0.0130025391, -0.1130726710, -0.0072313556, -0.0391970128, -0.1377629489, 0.0617284775, 0.0016789396,
-0.0683251247, -0.0172595419, -0.0025173509, -0.0866309553, 0.1047228798, 0.0688298941, -0.0573954545, -0.0699848235,
-0.0089147529, 0.0152870947, 0.0153896427, -0.0161178634, -0.1258531362, 0.0516694672, -0.0367641784, -0.1975056380,
0.0462133437, -0.0133268367, -0.0493719690, -0.0153522957, 0.1123107150, -0.0109371599, 0.0424996875, 0.0253615174,
-0.0079408884, -0.0101253819, -0.2540598810, -0.1145094782, -0.0359183624, -0.1696622372, -0.1202686876, -0.1353870183,
-0.0262273140, 0.0364322327, 0.0049543558, 0.1009753421, 0.2328633666, -0.0521669388, 0.1290288419, -0.0274915583,
0.0489743017, 0.0999700800, 0.0137407910, 0.0859562382, 0.1070713997, -0.1624885350, -0.1986259073, -0.1657885760,
0.0624635443, -0.1629537791, -0.0478113070, 0.2948970497, 0.0365800038, 0.0537856594, 0.1651762873, -0.0306329112,
-0.2058372945, -0.0746671185, 0.0155634815, -0.0855806693, 0.1225900799, -0.0396520086, 0.1671052277, 0.2636887431,
0.0274524894, 0.0385990627, 0.0591271222, 0.0704228580, 0.0262455642, 0.0132846301, 0.0328824073, -0.0332913436,
-0.0792864561, 0.0710560307, -0.0098071359, 0.0020047280, -0.0058405777, -0.0822222978, -0.0944289267, 0.0258228555,
-0.0313989371, -0.0554512627, -0.0697024539, -0.0933702365, -0.0230869111, -0.0388872325, -0.0864105746, -0.0948287249,
0.0105958357, -0.0468259007, -0.1441807598, 0.1070525125, 0.1235812604, 0.0552865155, 0.0460468233, 0.0023206675,
-0.0293020140, -0.0314852856, 0.0015420044, -0.0059013143, 0.0278256088, -0.0828202739, -0.0179042965, -0.0351894796,
-0.0174328052, -0.0721393004, -0.0601555929, -0.0746835098, -0.0161847901, 0.0589848347, 0.0961238071, 0.0324307680,
0.1252230704, 0.1601730734, 0.1335862577, 0.1147643775, 0.0717315078, 0.0331021100, -0.0016140239, -0.0975623801,
0.0223375745, -0.0775231272, -0.0805861354, -0.0241932757, -0.0513622537, -0.1164552122, -0.0772992074, -0.0104361391,
-0.0924568847, -0.1072474569, -0.1299946159, -0.1670112610, -0.1188618690, -0.0688427836, -0.1843190938, -0.1810703278,
0.1002263278, 0.1570522785, 0.0815954357, 0.1441357285, 0.1525644958, 0.1234025657, 0.0964560956, 0.1184784696,
0.0835082233, -0.0346439779, -0.0553385615, -0.0394901894, 0.0626133606, 0.0220913645, 0.0207843408, 0.1205712780,
0.0470951311, -0.0242685359, 0.1056150123, 0.1154131442, 0.0272902418, 0.2013445050, 0.1748849899, 0.0793762878,
0.1606794149, 0.1750598997, 0.1117588729, -0.1305690408, -0.0358254462, -0.0804217458, -0.0338634774, -0.0429050960,
-0.1255932599, -0.1507022679, -0.1268456429, -0.1079020575, 0.0061459197, 0.0427497774, 0.0571180806, 0.0303110201,
0.0108034629, 0.0085471533, -0.0142440591, -0.0361793898, 0.0596843697, 0.0607943907, 0.0300300959, 0.0025272565,
-0.0649237335, -0.0524297580, -0.0736757964, -0.0358450152, -0.1049886569, -0.1536920518, 0.1068032905, 0.0860455781,
0.0134358006, 0.1539186239, 0.0567750596, -0.0282999314, 0.0999815241, 0.0984349325, -0.0029850558, -0.0737803951,
-0.0646650419, -0.0016391792, 0.0572363362, -0.0634622425, 0.0769612119, 0.0258029699, 0.0248594843, -0.0190083217,
-0.1201943606, -0.0976611599, -0.1499076933, 0.0848619789, 0.1213952750, -0.0543956757, -0.0402689241, 0.1273651123,
0.0074239247, -0.0696700513, -0.0694414675, 0.0746967942, 0.0593018085, -0.2647063732, 0.0309909619, 0.1019453481,
-0.3005182743, 0.0070529478, -0.0726396143, 0.0633900985, -0.1841955632, 0.0217646379, 0.1286809593, 0.0609195903,
-0.0555551015, 0.1015120298, 0.0830686837, -0.0612716265, 0.1651209146, -0.0164834410, -0.1791524142, 0.1979487836,
0.1541218609, -0.2528635561, -0.0093799569, 0.0899613872, -0.0668793917, -0.1320347041, 0.1181211844, -0.0756747052,
-0.1633767486, 0.1444602162, 0.0968663171, -0.0670261383, 0.1785990745, -0.0569694266, -0.0129625434, -0.0745770484,
-0.0490325950, 0.0582817160, -0.1013245583, 0.0004035828, 0.0817871019, 0.0731755421, 0.2074453086, 0.0761272237,
0.0140226725, 0.1503232419, -0.1354263425, 0.0254731979, 0.2810214460, 0.0477096103, -0.0354238600, -0.1601219624,
0.0277765561, -0.0137728481, -0.0904078633, 0.0901022032, 0.0726254955, 0.0138257910, 0.0896494761, 0.1396070868,
0.0399506129, -0.2474805266, -0.0762089118, 0.1325786561, -0.3202093244, -0.2477445304, 0.1152040362, -0.1147934273,
-0.1309651434, 0.0405539274, 0.0384367779, -0.2661398053, 0.0455533266, 0.1695925146, -0.1228156164, 0.0107985409,
-0.0063712350, 0.0510103144, 0.0038600885, 0.0247193761, 0.0268957671, -0.0206550229, 0.1056541800, 0.1068447605,
0.0297764186, 0.0338200182, 0.2351782471, 0.0327657834, -0.1263605207, -0.1435264051, 0.1127530113, -0.2142409682,
-0.1713653803, 0.2028329819, -0.0508628860, -0.1862641573, -0.0025567366, 0.1081063673, -0.1246324703, -0.0221804585,
0.2107202411, -0.0788252577, -0.1755425483, -0.0412740633, -0.0612175502, 0.0087433904, -0.0080504641, 0.0562526956,
0.1195248067, -0.0074449689, -0.0330053493, 0.0211304408, -0.1325696111, 0.0051464499, 0.0820829496, -0.1949961185,
-0.4139412344, 0.3351992369, 0.0726474971, -0.6365339756, 0.2351952344, 0.2956027985, -0.1356926113, 0.0238023065,
0.1541029960, -0.2423775643, 0.0539573655, 0.2786603868, -0.1290809065, -0.1198388934, 0.0584065914, -0.1383484751,
-0.0521052442, -0.0602014214, -0.0389494039, 0.0405024439, 0.0461305454, 0.0804372579, 0.0571037978, 0.0549865514,
0.0608799905, -0.1433702558, -0.1282375455, -0.0565480068, -0.2128880471, -0.1281207353, -0.0324180871, -0.0976589173,
-0.0281613618, -0.0369165428, 0.0392312557, 0.0202334281, -0.0204767901, 0.0528703667, 0.0698345900, 0.1115218252,
-0.0370562188, 0.0723501444, 0.1534212381, -0.1001932845, -0.0246597268, 0.0162613876, -0.0650636926, -0.0009498853,
0.0246068928, -0.0141503327, -0.0287256632, 0.0451121069, -0.1256038100, -0.0701602548, -0.0774679035, -0.0704095885,
-0.0304683652, -0.0552977175, 0.0801477134, 0.1280417293, 0.0910479650, -0.0135356719, 0.0430003330, -0.0142458277,
-0.0414027311, 0.0093209594, -0.0428897366, -0.0341261886, 0.0656070039, -0.0408052839, -0.0234532747, 0.0087083010,
-0.0627988353, -0.0547742844, -0.0036283617, -0.0606535785, 0.0390287116, 0.0341911390, 0.0309829991, -0.0821769238,
-0.0675270185, -0.0138645917, 0.0156018119, 0.0039410023, 0.0996995866, -0.0133712357, 0.0416848212, 0.1259803027,
-0.0320029221, -0.0373740122, -0.0010459929, 0.0276143868, -0.0678926706, -0.0226769056, 0.1094866991, 0.0371292941,
0.0535058640, 0.0180927496, 0.0659523308, 0.0081031192, -0.0218792781, 0.0670299605, 0.0093988115, -0.1230150983,
0.0141503038, 0.0982921720, -0.0170043297, -0.0371046700, 0.0141783059, -0.0321434587, 0.0595403612, -0.0214818548,
-0.0243203752, 0.0396318398, 0.0097927572, 0.0153208328, 0.0477077626, 0.0146474596, 0.0073041706, 0.0026056101,
0.0040771090, -0.1123369932, -0.0272334777, 0.0348062329, -0.0326172374, -0.0146946283, 0.0236077905, -0.0689520687,
0.0146235125, 0.0272418782, 0.0149412910, 0.0109267654, 0.0248638745, -0.0465962179, 0.0629706234, -0.0464003608,
-0.0865207240, 0.0783781037, -0.0057996535, -0.1971705109, -0.0137332333, -0.0050188941, -0.0565647781, -0.0451074056,
-0.0720935538, -0.0456722192, 0.0353887491, 0.0047623157, 0.0667525008, 0.0912352055, 0.1080784202, 0.0502584279,
0.0722462386, 0.0385612622, -0.0321260616, 0.1177234650, 0.0974398032, -0.0505444035, 0.0832469985, 0.0907983333,
-0.0583542734, -0.0864506364, 0.0027308993, -0.0462135077, 0.0930659845, 0.1169079542, -0.0361301005, 0.1454421133,
0.1094675139, 0.0904109180, 0.0027952730, -0.0330118127, 0.0040053758, -0.0114151360, 0.0158944987, -0.0032370579,
0.0115297427, 0.0378024988, -0.1192740574, -0.1125318334, -0.0952675492, -0.0076227211, -0.0888166726, -0.0312415976,
0.0160283782, -0.0014939139, -0.0612368360, 0.0777255297, 0.0913875625, 0.0672070235, 0.0746083930, 0.0769042820,
-0.0031580369, -0.1012874693, -0.1582465917, 0.0303112604, 0.0036935564, -0.0080693495, 0.0354670286, -0.0382403173,
-0.0281261224, 0.0562233888, 0.0463130809, -0.0209995899, 0.0537977703, 0.0388311148, 0.1072702855, 0.0609519631,
0.1135911196, 0.2435517907, 0.0381037928, 0.0366575010, 0.0936044380, -0.0090670474, -0.0513640754, 0.0269460697,
0.0356672928, -0.0225651171, 0.0876645371, -0.0122061605, 0.0486431979, 0.0672522634, -0.1149473786, 0.0358372629,
-0.0571063422, -0.0189295579, 0.0562039427, 0.0129356273, -0.0230675172, -0.0199896954, 0.0005014994, -0.0607469939,
0.0070323315, 0.1028854400, 0.0047232709, 0.1022288725, 0.1081501618, 0.0467907749, -0.0035362600, 0.0501975566,
0.0222290475, 0.0122676827, 0.1463085115, -0.0173467863, 0.1832730919, 0.1457413733, 0.0294594206, 0.0491880439,
0.0723394528, 0.0042336537, 0.0485703535, 0.1176905930, 0.1874234080, 0.0310034286, 0.1468018442, 0.1854158640,
0.0358415656, 0.0657134801, 0.0640005469, 0.1293766797, 0.0990896076, -0.0553863496, 0.1094409823, 0.2265965492,
0.0403788835, 0.0126569597, 0.0693550482, -0.0118597187, -0.1909537911, -0.1348644942, -0.0744770020, -0.1699580401,
-0.0179058947, -0.0476620123, -0.1166903153, -0.0298061725, -0.0547773615, -0.0167999715, 0.0526824817, -0.0609765686,
0.0966512039, 0.1368753314, -0.0406298526, -0.0608411431, 0.0072695874, -0.0697634369, 0.0327311717, 0.0448048078,
0.0969240814, 0.0887897760, 0.1347505450, 0.0891837478, 0.1905481666, 0.0871106982, -0.0189892445, -0.0793166980,
-0.0341953076, -0.0577000640, 0.0276584569, -0.0099441884, 0.0305446759, -0.1478969157, -0.0128670521, -0.0670937002,
0.2643904984, 0.1450427026, 0.0282073785, 0.1924546808, 0.0146951843, -0.1217016950, 0.0972976610, -0.0841858611,
-0.0362168513, -0.2489914596, -0.1700982451, 0.0340733416, -0.1296654940, 0.0919098258, 0.0846451819, -0.0155219650,
0.1678662002, -0.0124658085, 0.0876542702, 0.0080397986, -0.0122871511, 0.0327499434, -0.1137046963, -0.0917134434,
-0.0910566002, -0.0216246247, 0.0445584692, 0.0602276474, -0.0858400241, -0.0306821987, -0.0638860166, -0.3581352830,
-0.2143457532, -0.1347085536, -0.1918765008, 0.0702312142, -0.1547026783, -0.0596621484, -0.0984432697, 0.0663591623,
0.0953210741, -0.0264309347, 0.0625836924, 0.1795686185, 0.0119811222, -0.0917471871, -0.0899095833, -0.0595648736,
-0.1541686654, -0.1929338723, -0.1423797309, -0.1094593108, -0.1627606601, 0.0282278601, -0.1588945836, -0.0031195560,
0.1036787555, -0.1063928604, 0.0379479229, 0.0804910436, -0.0469757840, 0.0030237818, -0.0039932486, -0.1636534035,
-0.1109607220, -0.0826237053, -0.0335057341, 0.0463041961, 0.0793622434, 0.0952130258, 0.1098742709, 0.1216152310,
0.0400906950, -0.0268324111, -0.0193440001, 0.0780707374, -0.0131954020, -0.0400331132, -0.0416639745, -0.0410886668,
-0.1293986738, 0.0881684646, 0.0879864767, 0.0169419274, -0.0185741615, -0.0442227721, -0.0145445084, -0.0425966457,
-0.1499924809, 0.0232581161, 0.0209421106, -0.2414091676, -0.1230930015, -0.1213303804, -0.2540755868, -0.0684998259,
-0.0394534506, -0.0378831886, -0.0675812736, -0.0710063204, -0.0529028587, -0.0285749584, 0.0029778341, -0.1854132712,
-0.1701603085, -0.1787344962, -0.1030906588, -0.0648332536, 0.2178533822, 0.1622231901, 0.1252953559, 0.0821238756,
-0.0352683365, -0.1777488887, 0.0487772115, -0.1638966352, -0.1639914662, -0.0834592506, 0.1101793721, 0.0376630425,
0.0985743850, 0.0604528636, -0.0090732360, -0.0750470236, -0.2201105356, -0.1584409773, -0.0153089762, -0.1113748103,
-0.0795162916, -0.1594320983, -0.0852632821, 0.0325136669, -0.1531779319, -0.0200538598, 0.1502369791, 0.1499796659,
0.1340202391, -0.0434732996, 0.0937154815, -0.0298940837, -0.0460162908, -0.0310837384, -0.1835903525, -0.0282013044,
0.0855623409, 0.0709585845, 0.0484640263, 0.0523704179, 0.0471753925, -0.0553381033, 0.0262476131, 0.0017274572,
-0.0056981132, -0.0187411197, -0.1038809419, -0.1331166327, -0.0192065500, -0.1085623503, -0.0575438030, -0.0588845871,
-0.0721064582, -0.0699006096, 0.0775842667, 0.1168071851, 0.0064581377, 0.1029606834, 0.0306612998, -0.0163136777,
0.0698774308, 0.0055259527, -0.0741020441, 0.0037147889, 0.0349866785, -0.0230410825, 0.0364391916, 0.0237973798,
-0.0045858989, 0.0051053381, -0.0146555742, -0.0159939062, 0.0303862710, -0.0552130379, -0.0982032269, -0.0711319745,
-0.0775257498, -0.1216733828, -0.0685609430, -0.2131096870, -0.1782319844, 0.1004136354, 0.0323797017, -0.0152688762,
0.1101453751, 0.0500570387, 0.0645777136, 0.0769380555, 0.1113260314, 0.1161608547, 0.0264180154, -0.0749405771,
-0.1095148325, -0.0445152074, -0.1188017800, -0.0407427251, -0.0316582359, -0.0605690740, -0.0328597948, 0.1190788522,
0.0397291407, -0.0082799643, 0.0156374630, 0.0070159161, -0.0153950471, -0.0803348497, -0.1148813739, -0.1251263767,
0.0632200390, 0.1165476665, 0.1640042812, 0.0768227875, 0.0730123669, 0.1544110030, 0.0906088874, 0.1141272187,
0.0837353915, -0.1288292259, -0.0632093325, -0.0364199579, -0.0171950143, -0.0338071287, -0.0540320165, -0.0159874745,
0.0724165887, 0.0379610509, 0.0298488531, 0.0605798140, 0.0715876818, 0.0960913450, 0.0714837313, 0.0108223427,
0.1460558921, 0.1087457016, 0.0920472741, 0.0855150595, 0.0023258943, 0.0488035753, 0.0243152604, 0.1336361021,
0.1079098359, 0.0056473678, 0.0881173983, 0.1583403051, -0.0424793139, 0.0096294871, 0.0225107763, -0.0378150567,
0.0257491879, -0.0153289093, 0.0276650172, 0.0308621954, 0.0517927632, -0.0643123835, -0.0550688058, -0.0387539752,
-0.0121373693, 0.0486518964, 0.0640107840, -0.0283967834, 0.0368841179, 0.1442317069, 0.0297133140, 0.0138577521,
0.0145386606, 0.0259099193, 0.0458520092, 0.0025843799, 0.0240136310, 0.0675912127, 0.0127233379, -0.0654730722,
-0.0441937521, -0.0569455028, -0.0105538704, -0.0060091857, -0.0461295284, 0.0288963933, -0.0162366536, -0.0293123461,
-0.0929487273, 0.0151537936, 0.0218694359, -0.1789983511, 0.0193735547, 0.1235866174, -0.1256022006, 0.0087686470,
0.0428625606, -0.0983887166, -0.1134147942, -0.2274075150, 0.0736464188, 0.0842361301, -0.1440638155, 0.1998217851,
0.2168945074, 0.0094510438, 0.0449044444, 0.0711236894, 0.1331347525, -0.1108275205, -0.0157809872, 0.1583683640,
-0.2136391103, -0.2124150246, 0.0807192624, -0.1624375135, -0.0861145779, 0.1070512608, -0.0367052928, -0.1098640934,
0.1340300590, 0.2046152204, 0.0161815882, -0.0691187233, -0.0351404361, -0.1865422875, -0.2444952726, 0.0949247852,
0.0320074186, -0.0904782712, 0.1439917833, 0.2084200680, 0.0421838053, -0.2294743657, -0.1527565867, -0.1489949971,
-0.0551603921, -0.1500654072, -0.1231150776, 0.0638328418, 0.0084463060, -0.1284232289, -0.0455641970, -0.0668188035,
-0.0885877535, 0.1348018050, 0.1186287999, -0.1152831465, 0.0562089719, 0.2782251239, 0.1528947353, -0.1689048707,
-0.1675426960, -0.1058620587, 0.0069221104, 0.0494411252, 0.0995396525, 0.0782381892, 0.1503707618, 0.1725107580,
-0.0676793605, -0.1237350553, -0.1781493872, -0.0450589769, 0.0768539831, -0.0362634249, -0.0264385473, 0.2445615083,
0.0611095317, 0.0539930612, 0.0991858765, 0.0576102510, 0.0205043275, -0.0675461665, 0.0109057650, 0.0081514111,
0.0052969712, 0.0169848185, -0.0414079428, -0.1755885482, -0.1975701749, 0.1342199743, -0.0864235982, -0.0538567267,
0.2272597551, 0.2527597845, -0.0004222633, 0.1069866717, -0.1086662188, -0.0591050982, 0.0221664552, -0.0210457277,
-0.0905429423, 0.0217290279, 0.0284900051, -0.0239709057, 0.0069196676, 0.1430618614, 0.1195176616, -0.0548667870,
-0.0303397179, 0.1664078087, -0.1065815985, -0.1346502155, -0.0133631388, 0.0891251713, -0.1135078445, -0.0783527419,
0.0951686502, -0.0044214064, -0.1277118474, -0.0197128206, -0.0250215251, 0.0152357211, 0.0007494604, 0.0712305456,
-0.1350923926, 0.0358223952, 0.1768549234, 0.1951009780, -0.4110386670, -0.0573752560, 0.2810179293, 0.0215320457,
0.1281540990, 0.1714829952, -0.1264990717, -0.0361050032, 0.1461649686, -0.2390558720, -0.1868745983, -0.0342586860,
-0.0852951705, -0.0505086333, 0.0360097103, -0.2655635178, -0.3284460604, -0.0625178441, -0.0192132667, -0.0548609123,
0.0021756103, 0.0462228581, 0.1439843327, 0.1192034632, -0.1203968078, 0.1054551601, 0.1529683024, -0.2757620811,
-0.0506320857, 0.0512459315, -0.0377731994, -0.0799754262, -0.0922057033, 0.0474965014, -0.0461452529, -0.1303344071,
0.2367118299, 0.1436733752, -0.0809625238, -0.0265204050, -0.1072009206, -0.1063690558, 0.0485756099, 0.0853046328,
0.0330123380, 0.3510040343, 0.4066278040, 0.2070094198, 0.1286655515, 0.0885864794, 0.0215795878, 0.0321641080,
0.0944023579, 0.0739417598, -0.1534454077, -0.0905335248, 0.0213723201, -0.0459002666, -0.0348122381, 0.0540233143,
-0.0184749849, -0.2445936650, -0.0155402813, -0.1125039607, -0.2269947529, -0.0785587952, -0.0011609457, 0.0233696792,
0.0489838272, -0.1723712534, -0.0147715230, 0.0564940199, -0.2668905854, -0.0815820619, 0.1834782362, -0.0454038903,
-0.0617971756, -0.0591148734, -0.0003420849, 0.0253119823, -0.0452484153, 0.0958984867, 0.1432192475, 0.0486378111,
0.0290068481, 0.0827858001, 0.0384346992, -0.1329597235, -0.0490278937, 0.0718313456, -0.0410445482, -0.3057647049,
-0.1090754345, -0.1658752263, -0.1555670053, -0.0000019898, 0.0380884483, -0.1303462535, -0.0607474968, -0.0244202018,
0.0209455378, 0.1020952687, -0.0111887651, -0.0473431274, 0.0199595466, 0.0872450918, -0.0956405401, -0.2094707936,
0.0202026516, 0.0041370075, -0.1246483102, -0.1145633534, -0.0146342264, 0.0259082653, -0.0537363440, -0.0281784199,
0.0403452143, 0.0774214640, -0.0746513158, 0.0449997894, -0.0529875197, -0.1488559842, -0.0441257879, 0.0009314691,
-0.0675390214, -0.0223776456, 0.1934587359, 0.2214086503, 0.2394180298, 0.0653438941, -0.1354620159, -0.0392737873,
-0.0072254501, -0.0015775478, -0.0528187528, 0.1077008322, 0.0512086935, 0.1913748682, 0.1202668548, 0.1123171225,
0.1699130237, -0.0499375015, -0.1386227161, 0.0922592282, -0.0151003366, -0.1718646139, -0.1105834320, -0.0624002367,
-0.1189481914, -0.0666893274, -0.0437982604, -0.1223961711, -0.0699637681, 0.0515132435, 0.0349226147, 0.0416720808,
-0.1548804045, -0.1591546983, -0.1270045042, -0.0537646934, -0.1590473205, -0.0910749957, 0.0111975307, 0.0724224672,
0.0859154016, 0.1006006300, 0.1253313869, 0.1335071474, -0.0212479364, -0.0427138768, -0.0313210860, -0.1157464385,
-0.1942510307, -0.1665656716, -0.1244646758, -0.1270844489, -0.0190750267, -0.1280241907, -0.0424534865, -0.0483910032,
0.0343136489, 0.0360300913, 0.0411043502, -0.0054928642, 0.0156743079, 0.0822172910, 0.0417780839, 0.1281635612,
0.1749717146, -0.0067657498, 0.1156263575, 0.0230342466, 0.0600161329, 0.0877126753, 0.1545174420, -0.0641695112,
-0.0640361980, -0.0093402062, -0.1197652444, -0.1693442911, -0.0772354677, 0.0133274021, -0.0580254942, -0.0500011407,
-0.0132447770, -0.2405942231, -0.2672258019, 0.0352118947, -0.1479110420, -0.1421956867, 0.0006698354, 0.0067537357,
0.0032850127, -0.0015459495, -0.0235030428, -0.1655852050, 0.0109435646, 0.0154009219, -0.1429148465, 0.1043369249,
0.1487774402, 0.1499978453, -0.0353092887, -0.0328654535, 0.0074183857, -0.0741313025, -0.0521026812, -0.0188887175,
-0.1106925905, -0.0730808750, -0.0671544671, -0.0597690381, -0.3611423671, -0.3310011327, 0.1232043952, -0.0257944055,
-0.1206363961, -0.0752912387, -0.0796441585, 0.0088937804, -0.0239980333, -0.0193764828, -0.0515108481, -0.0825997218,
-0.1655495167, -0.0802680477, 0.0436705612, 0.0177942030, 0.0650284216, -0.0922858790, -0.1911518872, -0.1689377427,
-0.0483987145, -0.2427829206, -0.1291195899, -0.0906989276, -0.0614811853, 0.0293639097, 0.0986283645, -0.1281907856,
-0.1012453735, 0.1118867844, -0.0394602232, 0.1235804483, -0.0966852009, -0.0879725814, -0.1373762190, 0.0085935416,
0.0072083450, 0.0555858426, 0.0829113275, 0.1387568116, 0.0899686068, -0.0256453957, -0.0549601763, -0.0809716210,
-0.0288352501, 0.0042266478, -0.0739450082, 0.0390154570, 0.0302655157, -0.0155868242, -0.0868527964, -0.0618093386,
-0.0119388746, 0.0438056625, 0.0306626186, -0.0355136134, 0.0811495557, 0.1058602035, 0.0857481882, -0.0948525295,
-0.1335746646, -0.0232462846, -0.0459954292, 0.0384387635, -0.0107979774, -0.0007935074, 0.0939084962, 0.0316252224,
-0.0340705253, -0.1124060825, -0.0970705897, -0.0028085292, -0.0629013032, -0.0761781931, 0.0323465392, -0.0453985855,
0.0153578790, 0.0778724924, 0.0938679129, 0.0321470723, 0.0960671902, 0.0416155905, 0.0448189229, 0.0845522955,
0.0571596660, -0.0215784665, -0.0360353403, -0.1440942734, -0.0803904012, -0.0432255566, -0.1770245433, -0.1843485832,
-0.1160194278, -0.1279024780, -0.1278091669, -0.0678116232, -0.0907909274, -0.1291587204, -0.0636501014, -0.1489618123,
-0.1377819031, -0.0447739586, -0.2373776287, -0.1172725186, -0.0358795524, -0.0890895799, -0.0520918407, -0.0653013214,
-0.0706963316, -0.0654056072, -0.0892311409, -0.1163729727, -0.0381902792, -0.0042270273, -0.0020688383, -0.0118344650,
-0.1541900635, -0.0846544802, 0.0427468419, -0.1346126348, -0.0956013724, 0.0444263071, 0.0603056848, 0.0654968098,
0.0279217977, 0.0195859987, 0.0104320329, -0.0361110531, 0.0331133381, -0.0325289443, -0.0508462377, -0.0915075392,
-0.1267078221, -0.0817786679, -0.1431591064, -0.1771214604, -0.0727632269, -0.1422620267, -0.0862980410, -0.0469427183,
-0.0147004398, -0.0566812158, -0.0480837375, -0.0367228761, -0.0693416819, 0.0419399813, 0.0845719874, 0.0484710187,
-0.0222565606, 0.0719935521, -0.0442466252, -0.0691670030, -0.0684760660, -0.0773204267, -0.0217422508, -0.1815660447,
-0.1377171129, -0.0521215647, -0.0102513637, -0.0568739884, -0.0060842279, -0.1445305049, -0.0788377076, 0.0370139144,
-0.0161836110, 0.0454553626, 0.0283315368, 0.0420285463, 0.0353786200, 0.0275390558, -0.0844963640, -0.1030602902,
0.0373121984, -0.0656007230, -0.1074436158, 0.0287676640, 0.0629822016, 0.0779139400, 0.0222192630, 0.0384973958,
-0.0011091224, -0.0227807648, 0.0088363634, -0.0561672263, -0.1022049114, 0.0977949053, 0.0786844864, 0.0608468093,
0.0222600810, -0.0116584366, 0.0112284096, 0.1115530729, -0.0816490725, -0.0386215448, -0.1009006351, -0.1451114565,
-0.0037183585, -0.0393160917, -0.0821156502, 0.0211535674, 0.0165096279, 0.0406129397, 0.0601124205, 0.1250734627,
0.0486215316, 0.0961529613, -0.0003401520, 0.0290868394, -0.0348566882, -0.0751980618, -0.0965815783, -0.0538755581,
-0.0958478823, 0.0875653997, 0.0324382372, -0.0872178227, -0.0862114504, 0.0409293920, -0.1757037044, 0.0000522931,
-0.0272197258, -0.0126040699, 0.0028173421, 0.0086694295, 0.0873581544, 0.1366628110, 0.0842985362, 0.0783527642,
0.1039866060, 0.0651395619, -0.0067590759, -0.0247480944, 0.0455059893, -0.0284419674, -0.0209757835, -0.0003803034,
-0.0829392374, -0.0094813472, 0.0785942525, -0.0675794184, -0.1463288069, -0.0875474960, -0.0013265271, -0.0771202296,
-0.0489040166, -0.0335218795, -0.0501664542, -0.0128632803, 0.0007612231, -0.0064159688, -0.0670311153, 0.0378348678,
0.0863787830, 0.0437751189, -0.0850398615, 0.0230547786, 0.0137625262, -0.1268438995, -0.0282101836, 0.0606339797,
-0.0504869707, 0.0533528589, 0.0989510268, -0.0777996480, 0.0328068249, 0.0929352865, -0.0700854734, -0.0322626568,
-0.1215490699, -0.0322621353, 0.1128905863, 0.0618818663, -0.0228240099, 0.0251315981, 0.1042668521, -0.0971815586,
-0.0279910564, 0.0425049216, -0.1425505728, -0.0373175070, 0.0816085935, -0.1527339518, -0.0983892754, 0.0317635238,
-0.0955602154, 0.0321836136, 0.1291631162, -0.1191180199, 0.0438030139, 0.1943176538, 0.0003967583, 0.1040439382,
0.1251249164, -0.0940997601, -0.0264928397, -0.0813929290, -0.0332113355, 0.1305119246, 0.0090566166, 0.0476065874,
0.0885152593, 0.0720895752, -0.0529941022, 0.0833746567, 0.0181688610, 0.0281492267, 0.0534456968, 0.1419531554,
-0.0059230844, 0.1162236556, 0.0864319205, -0.0517795458, -0.0190831516, -0.0410417356, -0.0222532228, 0.1319832653,
0.0525926054, 0.0737785399, 0.0583925992, 0.0842590183, 0.0442094691, 0.0293764248, 0.0471196808, -0.0312812105,
-0.1191142127, -0.0568465963, -0.0586775020, -0.0953688696, -0.0698904023, -0.1596287042, 0.0105785737, -0.0504153818,
0.0363746621, 0.0216875207, 0.0468069613, 0.0433752872, 0.0931712911, -0.0172760375, -0.0761104450, 0.0945219770,
0.1535585225, -0.1475915462, -0.0707903355, 0.0804985017, -0.2941971719, -0.1909902841, -0.0622867830, 0.0336803906,
0.0465639383, 0.0626562610, -0.1149604246, -0.0517150499, 0.0059244195, -0.0993028954, -0.0073054787, 0.0603231639,
-0.0844947770, -0.1727943420, -0.0700668842, 0.0607747994, -0.1136787832, -0.1138094813, 0.1097015291, -0.0075015463,
-0.0081036091, -0.1326941699, 0.1066805720, 0.0368001089, -0.2911728024, 0.0360514671, 0.1898435801, -0.2872632444,
-0.0842402875, 0.0549279042, -0.0005218769, -0.1719497591, -0.0207391828, 0.0580724031, -0.0098150419, -0.0569367409,
0.0532530472, 0.0740231499, -0.0350586288, 0.0985674933, -0.0671555325, -0.0621587597, 0.1508933604, 0.0722102895,
-0.1498400122, -0.0904325023, 0.0597531013, 0.0329802297, -0.0588614270, 0.1081858128, 0.1112915725, -0.2152419686,
0.1171850115, 0.1873121113, -0.2172171772, 0.0086528771, 0.1194116697, 0.0435808115, -0.0889274105, 0.0028807586,
0.0952750817, -0.0480407067, -0.0346696004, 0.1037251502, 0.0139205316, 0.1075109392, -0.1383009404, -0.0405128598,
0.0373739973, -0.1605057716, -0.0440701209, 0.1161494106, -0.0355870016, -0.0292447992, 0.0224466696, -0.0462669618,
-0.0137765370, -0.0034029086, -0.1108568162, 0.0549754314, -0.0088502718, -0.2371887714, -0.0419287831, 0.0479678214,
-0.0982030034, -0.0882094577, -0.0346787013, -0.2741103172, -0.0877995417, 0.0405445471, -0.1097536609, -0.1082435101,
-0.0678377673, 0.0571068674, -0.1159954742, -0.1340686381, 0.0538461916, -0.0766310021, -0.2099711448, 0.0430114120,
0.0543734990, -0.0380051471, 0.1362517327, 0.1618757993, -0.0071886769, 0.0246409029, 0.1634687632, 0.1244680434,
-0.1513384134, 0.1429624110, 0.1770760268, 0.0314046741, -0.0488159433, -0.0256434008, -0.0972465426, -0.0266219880,
-0.1135592386, -0.0579542965, 0.0558566451, 0.0846612975, 0.1118360683, 0.0053728851, -0.0797925591, 0.1319160461,
0.0656068623, -0.0605722293, 0.1178628057, 0.0232328996, -0.0885518864, -0.0033489075, 0.0618318431, -0.0720952973,
-0.0091957217, 0.0480162725, -0.1121497229, 0.0268986598, 0.1349630803, 0.1260432005, -0.1498945951, -0.0656896532,
-0.0182778332, -0.0529007912, -0.3159555793, -0.0225381870, 0.1259487569, -0.0491985977, -0.1006897017, 0.1088382229,
-0.0753205642, -0.1158018932, 0.0945971087, 0.0125563750, -0.1056258529, 0.0213111974, 0.0446646512, 0.0025555443,
0.0707593858, 0.1732627004, 0.1884057522, -0.0602922551, -0.1521671563, -0.1306134760, -0.0213761535, 0.0060699969,
-0.0792362168, -0.0883130804, -0.0470107943, -0.0529835001, 0.0317177214, 0.1294150949, 0.1663957387, -0.2108020484,
-0.0981040597, 0.0214461926, 0.0195898600, -0.0030959840, 0.0811586976, -0.1198727563, -0.1771446764, -0.0199046228,
-0.0353018083, -0.0939514562, 0.0690634102, -0.1566886306, -0.2326077223, -0.2002189308, -0.0146091664, 0.1099304259,
-0.0187480375, 0.1001663283, 0.2219233215, 0.1653331369, 0.0333000086, 0.0623572804, 0.0380360112, 0.0572402850,
0.0676723197, 0.1495875269, -0.1994037330, -0.3290468156, -0.1754534394, -0.1411180794, -0.1035306379, -0.0378561616,
-0.2135824263, -0.1109730899, -0.0285886638, -0.1793668419, -0.1012329087, -0.0126944827, -0.0995735377, -0.1189097166,
-0.0320759900, 0.0572172999, 0.0758336037, 0.2449965924, -0.0895822421, -0.1545751095, 0.0758799985, -0.0218409766,
-0.0054633203, -0.0177174583, 0.0875485912, 0.1275696754, 0.0769037381, -0.0583549216, -0.0395069905, 0.0038806188,
0.0388786979, 0.0858266577, 0.1375597864, 0.0510081984, 0.0923429653, 0.1851126999, -0.1312899143, -0.3139438033,
-0.1604970247, -0.0611644983, -0.1287673265, -0.0288524423, -0.0301205087, -0.1083316356, -0.0671983138, -0.0450982004,
-0.0366652422, 0.0036268816, -0.0759148151, -0.0120473709, -0.0757858381, -0.0799010918, 0.1251257956, 0.2089699507,
-0.2126515657, -0.0203019157, 0.0456916094, -0.1485589296, -0.0248148106, 0.0170639958, -0.0269073434, 0.0407117121,
0.0930923298, -0.0399268977, -0.1881942749, -0.0273014717, -0.0071574342, -0.0461094379, -0.0473547392, -0.0502447486,
-0.0224893466, -0.0468853973, 0.0962868035, 0.0671097115, 0.0454554111, -0.0076233684, 0.0365590304, 0.0486084744,
0.0766684040, 0.1356258094, 0.1126404926, -0.0783631653, -0.0294201728, -0.0404183045, 0.0021951585, 0.1868661642,
0.1567500085, -0.0700011700, -0.0698866695, -0.0431795567, -0.1438184530, -0.1635886580, -0.2017311007, 0.1138281226,
0.0117091360, 0.0281681828, 0.0350186750, 0.0499149039, 0.0485929064, 0.0215479061, 0.0993119404, 0.1490704715,
-0.0094302036, -0.0708101243, -0.0063430225, -0.0853202790, 0.2002818584, 0.0584491193, 0.0347637050, 0.2565314472,
0.0654961169, -0.0189269260, 0.0253204554, 0.0841470882, -0.0908628553, -0.0921755657, 0.1134256795, -0.0746044442,
-0.1259514242, 0.1489347070, 0.0507441685, 0.1112457365, 0.0020745723, -0.1349441707, 0.1207003593, -0.0367688499,
0.0128068505, 0.1358644068, -0.1518662125, -0.0669517443, 0.0331522860, -0.0056655933, 0.0234513842, 0.2520194948,
0.0061100288, 0.1183074415, 0.2014808357, -0.0030593406, 0.0728223175, 0.1529451311, 0.2077525854, -0.0142747685,
-0.1390154809, 0.2954898179, -0.2019756436, -0.1795790642, 0.1339215487, 0.0266247019, -0.0584861487, 0.0860612243,
-0.2086137533, -0.1072869822, 0.0580586419, -0.0811584890, 0.0145070944, 0.1041493863, -0.0551711209, -0.0337530747,
0.0786966383, 0.0021006349, -0.0858855397, 0.0390424393, -0.0382193550, -0.2178809047, 0.0621340536, -0.0116043556,
0.0391444750, -0.0351371691, -0.0042586448, -0.0607268326, 0.0049615833, -0.0012768804, -0.1764026284, -0.1128660142,
-0.0566994287, -0.0979787633, -0.0734898001, 0.0485359803, -0.1103535891, 0.0553722680, -0.0170864910, -0.0279268119,
-0.0830902010, 0.0193787571, 0.0343009047, -0.0199299417, -0.0407322235, 0.1641055197, -0.0235309079, -0.0077062245,
0.1219569519, 0.0703202263, -0.0977647975, -0.0200677719, 0.0034590859, -0.1973701864, 0.0138185285, 0.0031813134,
-0.1945242435, -0.0697539523, 0.0947998166, 0.0515771769, 0.0824349523, 0.1559367329, -0.0312314201, -0.0036339676,
0.1100781783, -0.1015075743, -0.1993664354, 0.0385406315, -0.3044313192, -0.0972372293, -0.1338865012, -0.0702347681,
0.0901062340, -0.0685041174, 0.1330334097, 0.4453851879, 0.0008172210, -0.0214827415, -0.0623276979, 0.0533547290,
-0.0487272032, -0.0683776438, 0.0554633029, -0.0372665338, -0.1330040097, 0.0410544164, 0.1032391563, 0.1775097698,
0.0950580165, 0.1422510892, 0.2195924520, -0.3978881836, 0.1741814315, 0.2051956505, -0.4351641238, -0.2548263073,
-0.0490350574, -0.2331557274, -0.0659369975, 0.1593792886, -0.1927923113, 0.0762631893, 0.3248966336, -0.0347309820,
-0.0596176796, 0.0075211516, -0.0071477219, -0.0761597976, 0.0287876800, 0.0438104756, -0.0510126464, 0.0281544793,
-0.0133267296, 0.0968430713, 0.1009258926, 0.0272590555, 0.0542843528, -0.0304845218, -0.0251352340, 0.0291730743,
0.0260738023, 0.0088581070, 0.0070132460, 0.0146615990, -0.0198219344, -0.0108928652, -0.0181787536, -0.0343530104,
-0.0010472903, -0.0327105522, 0.0110721365, -0.0836676210, 0.0078974189, 0.0407018811, -0.0973356739, -0.0260334630,
0.0012160944, -0.0757566616, -0.1298260391, -0.0841299146, 0.0762048736, 0.0231129937, -0.0392899215, -0.0283243135,
-0.0130126430, -0.1242497563, 0.0000587828, -0.0488949977, -0.0969942138, -0.0838525444, -0.0288130045, -0.0376243517,
-0.0572155602, -0.0817697346, -0.0487561449, 0.0207957663, -0.0709951296, -0.0853189528, 0.0019671707, -0.0041707046,
0.0253097657, 0.0071577877, -0.0245817062, 0.0361966006, -0.0127645843, -0.0040624058, -0.0435171016, 0.0679259449,
-0.0041073021, -0.0752049759, -0.0560421832, -0.0966477692, -0.1109230220, -0.0721067414, -0.0701033548, -0.0366577841,
-0.0004462207, -0.1085570157, -0.1336773187, -0.0926835537, -0.1341369897, -0.2380709052, -0.1335272342, -0.1318968534,
-0.1650251746, 0.0949355289, 0.1184741110, 0.0432989597, 0.0170368403, 0.0810867473, 0.0985496640, -0.0190658607,
-0.0299312156, 0.0489275120, -0.1284998059, -0.0972149000, -0.0611613095, -0.1141741127, -0.1977278292, -0.1157007292,
-0.0866639838, -0.1642048359, -0.1638780534, 0.0105511639, -0.0280909147, -0.0436084606, 0.0355485789, 0.0046400717,
0.0036189817, 0.0297308844, 0.0067772786, 0.0405380651, -0.0292231385, 0.0263903830, 0.0228653569, -0.0397221297,
0.0898961574, 0.0432003140, -0.0135614099, -0.0040494963, 0.0227634925, -0.0111858994, 0.0336321518, 0.0427487046,
-0.0119737163, 0.0253663547, 0.0184578374, 0.0202824268, 0.0289402790, 0.0243457556, -0.0588803254, -0.0386781730,
-0.0735592619, 0.0055129379, -0.0017498553, -0.1152971387, -0.0552483276, -0.0270535890, -0.1291357726, 0.0164821856,
0.0922301561, 0.0410037003, 0.0036869277, 0.1198416427, 0.0740324110, -0.0372432619, 0.0268984623, -0.0218184739,
-0.0802800357, -0.0767296106, 0.0224134438, -0.1623888314, -0.0768252611, -0.0180544276, -0.0746713653, -0.0724006817,
-0.0114866691, 0.0070305327, -0.0197550151, -0.0498056933, 0.0307263955, 0.0772496387, -0.0012003323, 0.0072491537,
0.0381520502, 0.0194513537, -0.0539615527, -0.0573660918, -0.0446874760, -0.0001998615, -0.0681620538, -0.1013220325,
-0.0742978826, -0.1430688202, -0.1268054694, -0.0423394628, -0.0113739567, -0.0560808815, -0.0574796051, -0.0431120619,
-0.0387575664, 0.0171468593, 0.0421800762, -0.0452183820, 0.0093694795, 0.0440401323, 0.0325367898, 0.0366644934,
0.0413661413, 0.0344316922, 0.0128244860, 0.0441105701, 0.0611730590, -0.0504509918, -0.0121257715, 0.0317785069,
-0.0713242739, -0.0148136811, 0.0631054863, -0.0423194543, -0.0172586683, 0.0496232063, -0.0698889941, -0.0240946952,
-0.0633453503, -0.0220445879, 0.0051715425, -0.0221913867, -0.0716260895, -0.0306531377, 0.0063705095, -0.0176156536,
0.0072916048, 0.0123071782, -0.0586558394, 0.0053150668, 0.0015914633, -0.0142879682, -0.0269996636, -0.0338032953,
-0.0075745904, -0.0205105320, 0.0125049613, -0.0723671541, -0.0598830730, 0.0190122575, -0.0705419853, -0.0392400026,
0.0406709351, -0.0216460470, -0.0334902592, -0.0411327481, -0.0451880954, -0.0522842854, 0.0063749254, -0.0031413080,
-0.0220110156, -0.0022833161, 0.0280912109, 0.0281252638, -0.0073641120, -0.0004420942, -0.0046664421, -0.0010994080,
0.0224644281, 0.0177830551, -0.0212929323, 0.0107934084, 0.0071981102, 0.0424429849, -0.0368559211, -0.0157443322,
0.0058700708, -0.0677606016, 0.0172189157, 0.0444427058, -0.0219003521, -0.1111703664, -0.0086738132, -0.1120951921,
-0.0955961794, -0.0842641890, 0.0361373946, -0.0480898954, -0.0430039205, 0.0288247429, -0.0272081420, -0.0205382295,
-0.0051885457, -0.0757115483, 0.0018288536, -0.0286896694, -0.0146147041, 0.0424200147, -0.0547315553, 0.0322214290,
0.0688293129, -0.0704025999, -0.0139624756, 0.0441146828, -0.0696274489, -0.0666876957, -0.0012410982, -0.0916287675,
-0.0968043283, -0.0006214975, -0.0471978001, -0.1090912744, -0.0900833830, -0.0462582000, -0.1429147422, -0.1323152632,
-0.0774837360, -0.2667999864, -0.1114825010, 0.0598107278, 0.3239180148, 0.2811759114, -0.0508393534, 0.0713387281,
0.1382037103, 0.2024669796, 0.1748202741, 0.0931575671, -0.1576992869, -0.2671908140, -0.1769920886, -0.0852882788,
0.0143367853, 0.0525166169, -0.2196621001, -0.1840719879, -0.0601658113, -0.1418866068, -0.1465417445, 0.1242681295,
-0.0447324589, -0.0507073924, 0.0190778803, 0.1702721417, 0.3154194951, 0.2649713159, 0.1503698826, 0.3261620402,
0.2336240560, 0.0278753471, -0.2211302072, -0.4637885988, 0.0810502619, -0.0295023285, 0.0317125618, -0.1252633631,
-0.2213520259, -0.1679307520, 0.0496449657, 0.0463870056, 0.1100005433, 0.0495752841, -0.0414211527, 0.0308930315,
-0.0313194469, -0.1655418724, -0.0203149635, -0.0159446988, -0.0388147421, 0.0716133267, 0.1140511036, 0.0250885338,
0.1537410021, -0.1700077653, -0.0210021865, -0.0923908129, -0.1097260043, -0.0508385971, -0.0160262957, -0.0016980178,
0.0406960063, 0.1007453576, 0.0161115285, -0.0505672023, -0.0633979440, 0.0933610573, -0.0263300184, 0.0989226997,
0.0583773702, 0.0119551793, -0.1351938248, -0.0382762402, -0.0549281985, -0.1086317301, -0.0306234136, 0.1358398199,
-0.0066602146, -0.0043875324, -0.1239539906, -0.1461775750, 0.1522166878, 0.0458259620, 0.0363993086, 0.1259035915,
0.0439167172, -0.0141979940, -0.0460729897, -0.0741709843, -0.1513611972, 0.0241449475, -0.1088289320, -0.1412041187,
0.0297219958, 0.1216188595, 0.0878533795, 0.0624757819, 0.0437647142, -0.0252058227, 0.0682979450, -0.0096617211,
-0.0193643607, -0.0483573638, -0.0500833094, -0.0660703480, -0.2971990407, -0.0225668009, 0.1499723643, 0.0264011770,
0.4622604251, 0.4109442532, -0.0777351260, -0.0573152751, -0.2535675168, 0.0817795247, 0.0586849228, 0.1940114349,
0.0566936694, 0.0910885036, 0.0790742412, 0.0383326411, 0.1915818453, 0.1011484414, -0.0049690921, 0.0578060187,
0.1164847761, -0.0498794578, -0.0354801044, -0.1341990978, -0.0326917954, -0.1730913073, -0.1673647165, -0.3182716668,
-0.1813468635, -0.0734177977, -0.0087118354, 0.2521966994, 0.1784974933, -0.0495663658, 0.1381552219, -0.0623240657,
0.0582416654, -0.0127365822, -0.0090209711, 0.0533296727, -0.0425794423, 0.0014209182, 0.0614056289, -0.0914526060,
-0.0311178863, -0.0161208957, -0.0058793682, 0.0609071143, -0.0349847339, 0.0213272739, -0.0002576436, 0.0079708947,
-0.0025817058, 0.0804793909, 0.0339427590, 0.0157386512, 0.0027808999, 0.0309844445, -0.0030284082, -0.0302207284,
0.0333150588, 0.0979200974, 0.1492734551, -0.0122565441, -0.0651607439, -0.0099584842, 0.0176265799, 0.0509500839,
-0.0982584879, -0.0433749147, -0.0402045213, -0.0459530577, 0.0224363692, 0.0705858096, -0.0029789975, 0.0250354130,
0.0082827322, -0.0063300161, 0.0626481622, 0.0221660323, -0.0028051068, -0.0537385046, 0.0101337237, -0.0096279467,
0.0470357351, -0.0174670443, 0.1404782385, -0.0146920504, 0.0225719605, 0.0599691942, -0.0608286038, -0.0740039498,
-0.0659418851, -0.0044642910, -0.0071038236, 0.0110505698, -0.1474317014, 0.0063365726, -0.0105912499, 0.0016167201,
0.0257350262, -0.0039086062, -0.0435203463, -0.0163546111, -0.1012842357, -0.0469723754, -0.0430746414, -0.0617858842,
0.0068816277, -0.0569066256, -0.0606162287, -0.0283626243, -0.1102389917, -0.0631074831, 0.0049162391, -0.0979536399,
-0.0819711909, -0.0241912976, 0.0084768916, 0.0184490122, -0.0128957741, 0.0929745138, 0.0658350959, -0.0345983244,
-0.0620924309, -0.0181415677, 0.0687908307, -0.0280632656, -0.0147810644, 0.0294648726, -0.0066361842, 0.0014362046,
0.0573872253, 0.0434635133, -0.0248470437, -0.0066795503, 0.0013270469, 0.1114863157, 0.0297822282, 0.2669863105,
0.2799938917, -0.0508195758, 0.0332232602, 0.1309140027, 0.0491701141, -0.0682162493, -0.0986680835, 0.0326494724,
-0.1817680597, -0.1777041852, 0.0781783611, 0.0322992019, -0.0409583561, -0.0152210193, -0.0209722016, 0.0833386034,
0.0456082858, 0.1143575013, 0.2217556983, -0.1195056885, -0.0624723211, 0.0157472063, -0.0013735564, -0.0230986122,
-0.0609459840, -0.0067765918, -0.0093753887, -0.0094353631, -0.0206375401, -0.0736944824, -0.0082760770, 0.0293447021,
-0.0046195486, -0.0537072308, -0.0387815237, -0.1199082211, -0.1924359351, 0.0620395876, 0.0614266209, 0.0929913670,
-0.4041491449, -0.2274287492, -0.0484983288, 0.2360579818, 0.2880620062, 0.0877367184, 0.1462498307, 0.1861816645,
0.0147105725, 0.0056987065, -0.0649529845, 0.0996056199, -0.2995124161, -0.2438747287, 0.0351818427, -0.0086821942,
0.0010764216, 0.1339074373, -0.1819303483, -0.1230508313, -0.0216057803, -0.0200561546, 0.0216112416, 0.1972443014,
-0.1625801623, -0.0720142722, 0.1407561451, 0.2530466318, 0.3032397032, 0.0832080469, 0.2592037618, 0.1891772449,
0.1236243397, -0.2840165496, -0.4355461597, -0.2153711617, -0.1898259223, -0.0447317623, 0.1195187867, -0.2942862809,
-0.0027078891, 0.0108307889, -0.0051466064, 0.1744343489, 0.0893331915, 0.0192694403, 0.0052608564, -0.0159006231,
-0.0737239048, -0.0432329588, -0.0396870449, -0.0670472383, -0.0848743320, -0.0200401731, 0.0945238695, 0.0196917281,
0.1339091510, -0.0217754822, -0.0902005136, 0.1217282191, 0.0574560389, 0.0422141925, 0.1158183590, 0.0600096248,
0.0349229574, 0.0246291496, -0.1144944057, 0.0832239538, 0.0923049524, -0.0472032949, 0.0586003736, 0.0409245007,
-0.1627608091, -0.1313358545, -0.0331777968, -0.2217581868, -0.1999535859, 0.0153043987, 0.0232287329, 0.1678357720,
0.0679761097, 0.0669341236, 0.0363959149, -0.0086878920, -0.0341697484, 0.0852333903, 0.1330535263, 0.0254418533,
-0.1943648905, 0.0011240642, 0.0077235899, 0.0695509464, -0.1160023361, -0.0720899627, 0.0596974939, 0.0578489751,
0.0321790054, -0.0392886288, 0.0679019839, 0.1397943050, 0.0400203578, -0.0000360918, -0.0308243688, -0.1328698248,
-0.0562115572, 0.0980201066, -0.0040095835, -0.0427887999, 0.0174648482, 0.0021546802, -0.0297219995, 0.1934084445,
0.2494762689, 0.0030523762, -0.0785071552, -0.1280005276, -0.3469593227, -0.1842402369, 0.0601907335, -0.0026606203,
-0.0078803338, 0.0615843125, 0.0239201654, -0.0991626158, -0.1269432753, -0.2170430869, -0.1546094716, -0.1363996565,
-0.2168937027, -0.0867723972, -0.1751287580, -0.1610175967, -0.1065951064, 0.0130560584, 0.1631416976, -0.1320072412,
-0.0494191721, -0.0620080195, 0.0426207818, 0.0713701695, 0.2113459408, 0.0001757538, -0.0322196111, -0.0917261019,
-0.0578429252, -0.0468056314, -0.0551814400, -0.0342588462, -0.0503071807, -0.0821252614, 0.0426267236, 0.0342717022,
-0.0206730068, -0.0104095740, 0.0199589040, -0.0167341698, -0.0169175006, -0.0407703258, -0.0632730350, -0.0814819559,
-0.0308823232, -0.0705795139, -0.0426977575, -0.0534685440, -0.0758357719, -0.0112139648, 0.0097654928, -0.0522709973,
-0.0183015931, -0.0045425897, -0.0019556435, -0.0137890195, 0.0025292342, 0.0532806814, -0.0120768305, -0.0123902848,
0.0056589763, -0.0242595561, -0.0026442904, 0.0606627949, -0.0066057490, 0.0157294516, 0.0380270518, 0.0194972921,
0.0254676957, 0.0005599390, -0.0083464961, -0.0044217580, 0.0017215968, 0.0004166185, 0.0011742774, -0.0150152966,
0.0102576222, -0.0840685964, -0.0444594584, -0.0077590924, -0.0292396415, -0.0597042590, -0.0008443364, 0.0125127397,
-0.0313505754, -0.0295995213, -0.0306797549, -0.0677419230, -0.0846962258, -0.0305608138, -0.0439315103, -0.0517917126,
-0.0130225075, 0.0149827674, 0.0040178387, 0.0143808909, 0.0391814001, 0.0187869873, 0.0312066320, 0.0512076579,
-0.0104638254, -0.0093669044, -0.0382867530, -0.0225300398, 0.0048988364, -0.0456900820, -0.0183608737, -0.0053242091,
-0.0299525652, -0.0107498430, -0.0560113117, -0.0863772333, -0.0071297800, -0.0372674093, -0.0209127199, 0.0277739819,
-0.0460125171, -0.0457471535, 0.0245804153, 0.0241162125, 0.0344984420, 0.0075449124, 0.0135891279, 0.0123486370,
0.0003431829, 0.0383383036, 0.0083061950, -0.0673257709, -0.0797922239, -0.0985443369, -0.1006212085, -0.0604019240,
-0.1035502255, -0.0735569745, -0.1295821816, -0.0765682459, -0.0351049788, -0.0146715604, -0.0548073426, -0.0577876270,
-0.0512041785, -0.0395449251, -0.0169650242, 0.0081578111, -0.0035857637, -0.0436620116, -0.1036053821, -0.0729776621,
-0.0917774513, -0.0931018293, -0.0995422080, -0.0972360447, -0.0852433294, -0.0951225683, -0.0327709243, 0.0259919651,
-0.0334223658, -0.0020435536, 0.0041009984, -0.0029359586, 0.0260206927, 0.0563098192, 0.0437306836, 0.0012897537,
-0.0144097544, -0.0262903683, 0.0172036793, -0.0208373982, 0.0088255908, -0.0321948119, -0.0142367948, 0.0114690997,
};

static float conv3x3_ds3_bias[32] = { 
0.0967500433, 0.3422005773, -1.4155617952, -0.4120623469, 2.2317945957, -0.3145364821, -0.1023790166, -0.5330095291,
0.7582218647, 1.2963457108, 0.1861631721, 0.2518865466, -0.1265703440, 0.3914293051, -0.1059757769, -1.0139117241,
1.2709378004, -0.3176291585, -0.0589986779, 0.2012211382, 1.0924599171, 1.6639987230, 0.0384513587, 0.6634213924,
0.4288415909, -0.3004986346, 1.0270500183, 1.0333517790, -0.0313517526, 0.1174139678, 0.5117797256, 0.8801936507,
};

static float conv3x3_ds4_weight[11520] = { 
0.0202251337, 0.0428142920, 0.0553511679, 0.0005560721, 0.0303796753, 0.0949040502, -0.0403506644, -0.0163068902,
-0.0103694685, 0.0081347469, -0.0223890673, -0.0241506789, 0.0566291474, -0.0151413158, -0.0317321979, 0.0531045236,
-0.0281789694, -0.0724140629, 0.0957977772, 0.0847394168, -0.0839745328, 0.0002553170, 0.0154310772, -0.0909359828,
-0.0677345768, 0.0459001921, -0.0697577894, -0.0454787314, 0.0178489685, 0.0102360155, 0.0347613655, 0.0312311612,
0.0744356364, 0.0743879303, -0.0327156149, 0.0008310306, -0.0392979309, -0.0614978001, -0.0539786667, 0.0155342501,
0.0695849061, 0.1438081264, 0.0559975281, 0.0652702749, 0.1594963074, 0.0230489317, 0.0059053218, -0.0016208304,
-0.0226957425, 0.0659979358, 0.0513940044, -0.1119496748, 0.0219563916, 0.1273018122, 0.0423696265, -0.0688528344,
-0.0253278036, 0.0235761255, 0.0757372528, 0.0031655789, 0.0007163211, 0.1276713610, -0.0078131836, 0.0100221727,
0.0073721455, 0.0134411408, 0.0411675647, 0.0375585444, 0.0960079953, 0.0129825128, -0.0465134121, 0.0595414676,
0.0008739558, -0.0086356513, -0.0440790504, -0.0282677487, 0.0218125694, -0.0561047643, 0.0623295791, -0.0021806648,
0.0011266281, 0.0210221019, 0.0906657577, 0.0257387180, 0.0757872015, 0.0976609439, 0.0618108064, 0.1191846430,
0.1156198978, 0.0522360168, 0.0802924782, 0.0586799122, -0.0021326398, -0.0165550690, 0.0377172641, -0.0201950911,
-0.0211002398, -0.0165924020, 0.0261372868, 0.0031067436, 0.0100450674, 0.1061148271, 0.0881251395, 0.0823092684,
0.1160300151, -0.0668875426, 0.0830547884, 0.0366183221, 0.0650065914, -0.0038771338, -0.1196659207, 0.0206324309,
-0.0045543215, -0.1381038278, 0.0212377291, -0.0482470319, -0.1272899806, 0.0402320474, 0.0055865259, -0.0051352005,
0.0462566055, -0.0757403225, 0.0880757794, 0.0139180478, -0.0958814397, 0.0564153641, -0.0312923416, -0.0425554551,
-0.0937582552, -0.0159296449, 0.0685341060, 0.1042209789, -0.0168669466, 0.0631283745, 0.1096274182, 0.0955637097,
-0.0333060585, -0.0261541251, 0.0101838373, 0.0045555620, -0.0186362434, 0.0087123970, -0.0913456753, -0.0274285171,
-0.0110880081, -0.0250867680, -0.0683796108, -0.0396878421, 0.1210282147, -0.0190623254, 0.0434688926, 0.0443963110,
-0.0356147289, -0.0370406471, -0.0264186785, -0.0041771266, 0.0043013170, 0.0101896683, 0.0883154571, -0.0565157197,
-0.1296700835, 0.0056957323, 0.0752016604, 0.0234710481, -0.1028324291, -0.0152041791, 0.0079302806, 0.1297846437,
-0.0964583606, 0.0898182839, 0.0989444703, -0.0421054736, -0.0659233257, 0.0491675138, 0.0511954986, -0.0943961814,
-0.0349388905, -0.0015222976, 0.0047381129, -0.0545748137, -0.0515686870, 0.0140751870, 0.0699756369, 0.0583564639,
-0.0150297005, 0.1060637906, -0.0122180423, -0.0318711735, 0.0240983553, -0.0498445854, 0.0018097182, 0.0456083044,
0.0115862135, 0.0424780622, 0.0779596120, -0.0312914066, 0.1136098355, 0.0813864768, 0.0139758009, -0.0501258709,
-0.0389917791, 0.0207053013, -0.0087648286, -0.0162214767, 0.0110635050, -0.0092143873, -0.0426060408, 0.0534332618,
0.0249213502, -0.0273435656, 0.0386669412, -0.0348452069, -0.0145994788, 0.0364426486, 0.0281674545, -0.0115826577,
0.0031325277, 0.0038081508, 0.0558944643, 0.0511448607, 0.0245019700, 0.0445916466, -0.0431423597, -0.0247703325,
0.0021101341, 0.0287923478, -0.0094704144, 0.0255832188, 0.1214760318, -0.0865276232, 0.0054655848, 0.0704856291,
-0.0942482501, -0.0068755089, 0.0307693928, 0.1080260128, -0.0234597400, 0.0216862410, 0.1047566161, 0.1468749493,
0.0040430361, 0.0417187475, 0.1313127875, -0.0324904807, -0.0244444571, -0.0012323371, -0.0386745036, 0.0064266184,
0.0299542379, -0.0510367975, 0.1004149094, 0.0908522755, -0.0114862882, 0.0835927576, 0.0577928461, 0.0087320805,
0.0362269506, 0.0240826700, 0.0489992946, -0.0402517132, -0.1128656566, 0.0322806202, 0.0629606098, 0.0316362716,
0.0619857311, 0.0356442146, 0.0881322175, -0.0847925469, -0.0900176764, 0.0418510735, 0.0522339009, 0.0575148650,
-0.0153997149, 0.0592359789, -0.0312531665, -0.0130277779, 0.0317725316, -0.0396223404, -0.0399672687, -0.0482061766,
-0.0892896801, -0.0485781096, -0.0436291732, -0.0781297460, 0.0474313833, -0.0653981343, -0.0331249945, 0.0160630830,
-0.0177208595, 0.0230504684, -0.1191213429, -0.0463600643, 0.0239002649, -0.1469813585, 0.1387041509, 0.3032240272,
0.0324694514, -0.0039818529, -0.0170883350, 0.0037270961, 0.0005480248, 0.0097203329, 0.0248114951, -0.0268310830,
-0.1351609677, 0.0204635132, -0.0168154649, -0.0356288366, -0.0202062372, 0.0266010128, -0.0334244184, 0.0073250746,
0.0662780106, -0.0239883848, -0.0205874536, -0.0746505558, -0.1039881930, 0.0179299600, -0.0713163689, -0.0124794859,
-0.0165161937, 0.0788150728, 0.3236445785, 0.2482181191, -0.0100677675, 0.0128634647, 0.0438390411, -0.0796713233,
0.0078031528, 0.0873935968, -0.0347512849, -0.0374298058, 0.0059395782, 0.0143575547, 0.0205480084, 0.0073170541,
0.0207234640, 0.0270907674, 0.0020535016, 0.0034356248, 0.0312888436, 0.0160199795, -0.0040407684, -0.0132869156,
-0.0014200155, 0.0600500777, -0.0103236847, 0.0177704282, 0.0079561109, -0.0757200494, -0.0431175232, -0.0748254731,
-0.0174488015, -0.1115862653, -0.0051964903, 0.0654745772, -0.0705794841, 0.0307472106, 0.2797646523, 0.0562195219,
-0.0001953723, -0.0206875149, -0.0009820431, 0.0069946516, -0.0564242080, 0.0039726975, -0.0201188531, -0.0589165390,
0.0253292788, 0.0034268580, 0.0117706396, 0.0308842156, -0.0040014936, 0.0134278694, 0.0523516387, 0.0379533321,
0.0382090956, 0.0242234040, 0.0078369258, -0.0027675442, 0.0039657643, 0.0236824546, 0.0275446009, 0.0113501176,
0.0228263177, 0.0458148234, 0.0592441335, 0.0312087722, -0.0053201006, 0.0266132131, -0.0310327131, -0.0267156344,
0.1066063195, -0.0569116138, -0.0435614437, 0.0442516208, -0.0387999192, -0.0244244300, 0.0305577647, 0.0076431651,
-0.0106050549, -0.0097316457, -0.0175042227, -0.0958820432, -0.1832620651, -0.0021575561, 0.0087183695, 0.0313858725,
0.0032158629, 0.0083676875, 0.1215656698, 0.0245024450, -0.0573574640, 0.0396909416, -0.0284350812, -0.0107241031,
0.0206996277, 0.0082964385, -0.0173445269, -0.0042996658, -0.0124211116, 0.0139076402, -0.0177654643, 0.0101050716,
-0.0197470821, 0.0143251605, -0.0405954048, -0.1012946740, -0.0618086234, -0.0349110700, 0.0535644665, -0.0369276814,
0.0185181294, 0.0118307397, 0.0043716398, 0.0002045680, -0.0393832773, 0.0280519072, -0.0926762223, -0.1165894419,
0.0487242602, -0.0003114823, 0.1033346504, -0.1080595925, 0.0147452289, 0.0349693112, -0.1016546488, 0.1095238030,
0.2936439216, 0.0181478988, 0.0140873007, 0.0044736532, 0.0413055010, 0.0319208726, 0.0395518094, 0.0292768013,
0.0337806381, -0.0195548348, 0.0003302966, 0.0207053553, 0.0027115971, -0.0090380367, -0.0047803503, -0.0001086909,
0.0004893102, 0.0215084143, -0.0110885743, 0.0312369410, 0.0165327638, 0.0277258512, 0.0091958968, -0.0132118231,
0.0412082784, -0.0002397030, 0.0753251314, 0.0351963714, 0.0451862849, 0.0261482131, 0.0040369080, -0.0978857651,
0.0461928025, 0.0083527258, -0.0008000269, 0.0757773444, -0.0628611892, -0.0515576340, -0.0291338004, -0.0247563571,
0.0184362195, 0.0349981412, -0.0198717527, -0.0158396512, 0.0727951601, 0.1462479681, 0.1530004442, 0.0135622770,
0.0163210332, 0.0209677536, 0.0197189040, 0.0136337886, 0.0367939211, -0.0080966000, 0.0557713099, 0.0193718802,
-0.0078768814, 0.0072141984, -0.0761517063, -0.0316526592, -0.0088293850, -0.0245999824, -0.0019776062, -0.0280969404,
0.0136429630, 0.0222515017, 0.0173872877, -0.0072923372, -0.0177093800, 0.0056321742, 0.0050871605, -0.0183868892,
-0.0407472551, -0.0151246311, 0.0776448920, 0.0298347268, 0.0093601663, 0.0263908505, 0.0556045435, -0.0219261982,
0.0041693123, 0.0371421017, -0.0537131652, 0.0057753366, 0.0487563871, -0.0050603244, -0.0213271417, 0.0415821895,
-0.0283072386, 0.0406297371, 0.0273115132, 0.0722326785, 0.0080902008, -0.0249690544, -0.0160910320, 0.0013089811,
-0.0083782887, 0.0095336325, -0.0443817377, -0.0118665695, 0.0509782471, 0.0189337619, 0.1183015481, -0.1098265797,
-0.0176624022, -0.0199477188, -0.1389283538, 0.1382107139, 0.2010268569, -0.0517320037, 0.0359331965, 0.0279202387,
