#if 1
static float conv3x3_pre1_weight[36] = { 
-3.7843518257,
3.5384657383,
2.7848224640,
2.5557417870,
2.1687817574,
4.6087203026,
-4.0756034851,
-2.5977175236,
-4.3912415504,
-0.5350625515,
-2.3231389523,
-0.0365248322,
-0.7954509258,
-0.1260403991,
-0.8073387742,
0.5568057895,
-0.4683240056,
0.4657434821,
0.3867678940,
2.1331470013,
-0.0275094565,
-1.4141926765,
0.3554884493,
-1.0500125885,
-3.4357469082,
-2.1285657883,
0.3740698993,
-2.6498906612,
-0.4512836039,
2.3002703190,
-3.2945115566,
0.2678207755,
2.6307814121,
-2.9211499691,
-0.7689386606,
5.8611650467,
};

static float conv3x3_pre1_bias[4] = { 
-0.0763719082, 1.2911733389, 1.7262926102, 0.0696754456,
};

static float conv3x3_pre2_weight[144] = { 
0.0371899791, 0.0951816887, 0.1201220080, 0.0906436294, -0.2076805681, 0.3832961321, 0.2042619586, 0.1060819328,
0.0579569712, -0.3318758309, -0.1092444137, -0.2942034900, 0.1220004708, -0.0774383545, -0.2673242688, -0.3173933923,
0.0164157897, 0.0096096769, 0.0207015239, -0.1313019991, -0.1311600804, -0.1120461226, 0.1226989254, 0.2648515999,
0.0630754828, -0.0864010155, -0.1699514538, 0.0183203742, 0.1301923990, 0.0274749603, 0.2593095303, 0.0487581082,
0.0873781368, 0.1171325594, -0.1246467233, 0.0541410744, 0.3508528769, 0.1215997040, -0.0070782457, 0.2409842610,
0.0161998812, -0.2022542059, -0.2243806571, -0.1851888597, -0.2665932477, 0.0444854535, 0.3647790253, -0.1975795776,
-0.0802770928, 0.3778846264, -0.0577938072, 0.1025167257, 0.5699385405, -0.0334536918, 0.3711533546, 0.0108669661,
-0.0983540788, 0.0227110125, 0.0355861448, 0.3140756488, -0.1163311973, 0.1107898206, -0.0572860055, 0.0926143676,
0.1221078411, 0.0786619782, -0.0567869730, 0.0258382298, -0.1812039614, 0.0233508926, 0.0118998671, 0.0772528052,
-0.1316710860, -0.4112945199, -0.5775629282, -0.0523081385, -0.3751769960, -0.2214900553, 0.1329182684, 0.1717647612,
0.2158656120, -0.0953652263, -0.2655590773, 0.3748937249, 0.2230945975, -0.6091213822, -0.0473675132, -0.1607276350,
0.0770788342, 0.1210365891, 0.3815917671, -0.0653388724, -0.2038602084, 0.0283045396, 0.1982436478, -0.3556229174,
0.1770793945, -0.0423808917, 0.0343361087, -0.0975023881, 0.0557646565, -0.0305280257, 0.4818057418, 0.2813163400,
-0.1740398556, 0.2477460355, 0.3420730531, 0.2752490342, -0.1242301986, -0.0791286156, -0.1298377365, 0.1608268172,
-0.0189810600, 0.2711851597, 0.3103352189, -0.6424468160, 0.3453100920, -0.1330777407, -0.2451322079, -0.0084925899,
0.4749113619, -0.1056121439, -0.3764122128, 0.7918277979, -0.6091623306, 0.1320036650, 0.0889908522, 0.3479333222,
-0.3906324506, 0.1469724625, 0.5190774202, 0.1618644446, -0.8445578814, -0.0118464474, 0.1901760250, -0.4756084383,
-0.2506476045, 0.5480737686, -0.8037080765, 0.4172839224, 0.2178696692, 0.4107940495, -0.1131200939, -0.0005008182,
};

static float conv3x3_pre2_bias[4] = { 
0.0616986752, -0.4201565683, 0.2830285430, -0.0148559138,
};

static float conv3x3_ds1_weight[288] = { 
-0.0563522838, -0.1290510148, 0.0702951401, 0.0659660473, -0.3655406237, -0.0784302279, -0.0460503995, -0.3844015598,
0.0586189218, -0.0641533956, 0.0160815716, 0.0378623232, 0.0235745255, 0.3480923474, 0.2832710743, 0.0741219819,
0.2372935563, 0.1516803056, -0.0050276509, 0.1555967778, -0.1689647287, -0.1318036169, 0.0469039381, 0.0617607087,
0.3079599142, 0.0091934334, -0.1546436399, -0.1076711193, -0.1620727777, -0.1683826745, -0.1870609522, -0.0244699884,
-0.0524414629, 0.0637506843, 0.1447600722, 0.0102057811, -0.0884316340, 0.0855401903, 0.0155659346, 0.0463286042,
0.0141216926, 0.0163010564, 0.1584753692, -0.1090418696, 0.0726242587, -0.1571925282, 0.1348058432, -0.2193926722,
-0.1886761636, 0.0167738535, 0.0226742253, 0.2624977827, -0.1715979129, 0.0369992480, 0.1987566650, 0.1078326851,
0.1747380793, 0.2323219925, 0.2049390674, 0.1617499143, 0.1361925453, 0.1022563577, 0.1121469513, -0.0707396045,
-0.0990316421, -0.0891588479, -0.0728194043, 0.0074435510, -0.1120991781, 0.0999802947, 0.0203090049, 0.0444115773,
-0.0566200912, 0.0850697458, -0.0281806067, 0.1610701233, 0.0462255068, -0.2611241341, -0.0766856819, -0.1361580789,
-0.1305242926, -0.1707391143, -0.0166194458, 0.2103903741, 0.0589508489, 0.0541540310, 0.0176720079, 0.0195538998,
-0.0481078736, 0.1826882511, -0.2594622374, -0.1591541320, -0.3822992146, -0.0749803185, -0.0282251704, -0.1277346909,
-0.0127320318, -0.1562578231, -0.3341304064, -0.0932657570, -0.1876155436, -0.0448210090, 0.0517554246, 0.0565126427,
-0.0760956183, -0.0873401538, 0.1590891182, 0.1338096410, 0.0799610987, 0.0667358860, 0.1116232425, 0.0701582283,
0.1062821820, -0.1061882600, -0.1251937002, 0.1178409979, 0.0022583152, 0.1301874369, 0.0771120936, 0.0208183974,
0.3674791157, 0.0524223894, 0.1528070122, 0.1954759359, -0.0107308505, -0.0451471843, 0.0871650055, 0.1924005896,
0.0775026530, 0.0544377416, 0.0524338968, 0.0949254930, 0.1085044965, -0.0059837704, -0.0365696810, 0.0542211942,
0.0800027922, 0.0395642482, 0.1998237073, 0.0964593366, 0.1301806867, 0.0608238988, -0.0108446805, 0.2003608346,
-0.2786518335, -0.0529373512, 0.1075268760, -0.1881366223, 0.1746069044, 0.0972283408, 0.2232336402, 0.0353016369,
-0.1912935525, 0.2033642977, -0.2656006515, -0.0444429293, 0.2231859118, 0.1848955601, 0.0183328744, -0.2024630010,
-0.0192260724, -0.0290469620, -0.1994253248, -0.1426687986, -0.0724995434, -0.2336914539, -0.1992909163, 0.0164274555,
-0.2234113663, -0.2626850605, -0.0290592257, -0.1597699970, -0.2356635481, -0.1062782332, -0.1569014937, -0.1964673251,
-0.1832102835, -0.2139805257, -0.2657083869, -0.1916755438, 0.0748323500, 0.0073908153, 0.1624154299, -0.2974853814,
0.2091929615, 0.0635491759, -0.1221145019, 0.3406631947, -0.3784357309, -0.2610608935, -0.1996322572, 0.0231388379,
-0.0725525767, 0.2126859874, -0.0870663449, 0.4801884592, -0.3192615211, -0.0269031692, -0.0776992813, -0.2238154411,
-0.7049393654, 0.1297146231, 0.0008076938, 0.0234056916, -0.3222677112, 0.4902786911, 0.5863949656, -0.3696994483,
-0.3170512021, -0.0903352499, 0.3395821750, 0.3720730841, 0.0439255126, 0.3582777083, 0.4784369767, 0.2651383579,
0.0966044888, -0.1974045187, -0.2578788996, 0.2268182039, -0.3584637642, 0.1115104780, 0.0086407596, -0.0982210785,
-0.0167487245, 0.0222703107, -0.2968331575, 0.3245355487, 0.1858464777, -0.1033484936, 0.1292843819, -0.0429599583,
0.3853426278, 0.2537985742, 0.1332803071, -0.1008755192, -0.1208171695, -0.0043277717, -0.0862262473, -0.2244876921,
-0.1349849254, -0.1038189456, -0.1926934123, -0.1391212791, 0.0180016700, -0.1628603488, 0.1287138909, 0.1047474667,
0.0109269852, 0.1110364199, -0.0104932925, 0.2406147569, 0.0129275480, 0.0747884437, -0.1519009769, 0.2360440344,
0.2844745219, 0.0850301310, 0.4671926200, 0.3747718632, 0.1939101070, -0.3279687464, -0.0782036632, -0.1151295006,
0.3291144073, -0.0091118868, -0.0416833311, -0.1936900318, -0.4758723676, -0.1353968531, -0.0443123281, 0.0296337511,
0.0364574268, -0.0449196696, -0.3043356240, 0.1173256412, -0.2741957307, 0.1211378053, -0.2359204888, -0.1457339078,
0.0591044314, 0.0506959967, -0.1800258011, -0.1940944791, 0.0140324086, -0.0611770414, -0.1800365746, -0.0522637330,
};

static float conv3x3_ds1_bias[8] = { 
0.2387682945, -0.9187281728, 1.2104654312, -1.1410027742, 1.2370923758, 0.0055022240, 0.4744045138, -0.0589969903,
};

static float conv3x3_ds2_weight[1152] = { 
0.0127582625, 0.0206697341, -0.0390342623, 0.0832295343, 0.1329435408, -0.0243466757, 0.0049699047, -0.0211961213,
0.0741313025, 0.0030560666, 0.1465911269, 0.0562391058, 0.0737259015, 0.0562403537, -0.0000472394, -0.0036013077,
0.0189241935, -0.0474022739, -0.0610195622, -0.0962266326, -0.0695089549, -0.0611453839, 0.1070935726, 0.1574508846,
0.0813488141, 0.0667412207, 0.1662316173, -0.0598487854, 0.0229589697, 0.0215868149, 0.0327737704, 0.0478735045,
0.0913360044, 0.0657561719, 0.1173287928, 0.1524680555, -0.0384469368, -0.1419062316, -0.0404224358, 0.0048285685,
-0.0172440577, -0.0448143370, 0.0489994735, -0.0154999355, 0.0470491797, -0.0335995816, -0.0437691063, -0.0486971848,
-0.0327442028, -0.0843472034, -0.0800707340, -0.0113081615, -0.1166729257, -0.0331403613, -0.0434547327, 0.0105636474,
-0.0255178362, 0.0392556451, 0.1892561018, 0.1280367970, 0.2894339561, 0.2115708590, 0.0676198229, 0.1520043015,
0.0977785289, 0.0146528007, 0.0953763574, 0.1398654878, -0.1005684212, 0.0748900622, -0.0223805327, 0.0611783974,
-0.1068195403, 0.0603584982, -0.1708223075, -0.0459708832, 0.0442533568, 0.1072237343, -0.2343654633, 0.0270615257,
-0.0825197473, -0.1712424904, 0.1038403958, -0.1170650050, 0.1106706634, -0.1629501283, 0.1221047044, -0.0629913583,
-0.1614810526, -0.0109627619, 0.0284238625, 0.1419818699, -0.0597886927, -0.0687418431, 0.0787207782, 0.2985847294,
-0.0289354138, 0.1791940033, 0.3273254335, 0.0246908199, 0.0150661888, 0.0597863682, 0.0816808790, 0.0619376525,
-0.0389177352, 0.0140715521, -0.0435613580, 0.0528247878, -0.0587022789, 0.1181951463, 0.2047941983, -0.1128190532,
-0.0859559625, -0.1840791255, -0.3182743788, -0.3994190097, -0.3000771403, 0.1142656133, 0.0464415811, 0.0327605866,
0.0733244717, 0.0548852794, -0.0154402023, 0.1714923084, 0.2256816030, 0.1741546988, -0.0550232604, -0.1249676123,
0.3161984980, 0.0356733836, -0.0554952323, 0.1087364703, 0.0158352703, 0.3712013960, 0.3428419828, 0.2450650632,
0.1261033863, 0.1479185671, 0.2164585888, 0.0022533617, 0.1134486273, 0.1186587512, -0.0382708311, 0.0859724730,
0.0552530140, -0.0286421292, -0.1841306686, 0.2715189755, -0.0130243395, 0.0192408375, 0.1764646322, 0.1536382586,
0.0056223753, -0.1441149861, -0.1135887727, -0.0162911825, -0.1326699257, 0.0714883804, 0.2452209592, -0.0865197033,
-0.1462986618, -0.0225552302, 0.2995989919, 0.2564079165, 0.1872674227, 0.0974268615, 0.2628079653, -0.0947068185,
-0.0903126076, 0.2346570492, -0.3450792432, 0.0703622103, -0.0700323731, -0.1642061472, 0.0774287879, -0.0546710044,
-0.1072173715, 0.0348611474, 0.0126262372, -0.0353641398, -0.0702198073, -0.2033946812, -0.1122115329, 0.2223734707,
-0.2319123894, -0.1024223119, -0.0678151846, 0.0257265046, -0.2733956277, 0.0100723337, -0.2834506929, -0.0707876980,
-0.0841463655, -0.3217698336, -0.1447745115, -0.1404406875, -0.2245827168, -0.1361216158, 0.2703618705, 0.0544293337,
-0.2518851757, 0.1514827609, 0.1016063243, -0.0543130599, 0.2079115063, -0.0379886366, -0.1096968055, 0.2021703720,
0.0113790017, 0.0598433837, -0.0224069394, -0.1454883814, 0.2405013144, -0.0907880291, -0.1828887165, -0.0666768849,
-0.0821645185, 0.0473358817, 0.0719003230, -0.0728696063, -0.0521873422, -0.1600379348, -0.0027337936, 0.1896131933,
0.0529857464, -0.1373426616, 0.0074316706, -0.1341530830, 0.0456878841, 0.0157865174, -0.0849464089, -0.0099154692,
0.0676757023, -0.0281241909, -0.1403919905, -0.0480747037, 0.1176735461, 0.0397901684, 0.0127628529, 0.0902570114,
-0.0105930548, 0.0018896478, -0.1471617818, -0.0561976805, 0.0642180294, 0.1040791050, 0.1038197875, 0.0668945760,
0.0222421121, -0.1079989523, 0.0382227711, 0.0118900435, 0.0557932816, -0.1290435046, 0.0078374650, -0.0057165530,
-0.0403164588, 0.1860147864, -0.0803486779, 0.1966345608, 0.0854762420, -0.2466514856, -0.3672055006, -0.1822540611,
-0.4633167088, -0.3865438104, -0.3419016302, -0.2013153732, -0.2711707056, -0.1618750095, -0.0516328551, 0.1730507016,
-0.0362428427, 0.0478792824, 0.0970211700, -0.1572682112, 0.0128176352, -0.1511718780, -0.2758884728, -0.0439882763,
0.2179235667, 0.0299302135, 0.0742550716, 0.1071939543, -0.0150177721, -0.0285917576, -0.0163588505, 0.0228577666,
-0.0029354112, -0.0072621438, 0.0225146990, 0.0371417217, 0.0320212431, -0.0631501451, 0.0636816770, 0.1403471380,
-0.0632454157, -0.1846276820, -0.0080241729, -0.0180530977, 0.0095078694, -0.0832935870, -0.0116611198, 0.0738238469,
0.0556557365, 0.0386762246, 0.0158616565, 0.1211460382, -0.0177134704, 0.0577826016, 0.2807566524, 0.1447517127,
-0.0475486442, 0.1841017455, 0.1338234693, -0.1325068772, 0.0057625119, 0.0288320780, -0.0279419795, -0.0492159948,
0.0321297795, 0.0631800443, 0.0094392486, 0.1032726243, -0.0765095502, -0.0037167550, 0.1757531613, 0.0875985250,
0.1072641835, 0.0900487751, -0.0198193043, 0.0889138430, 0.1098512411, -0.0068460610, -0.1083388478, -0.0839448124,
0.0293774698, 0.0050219218, -0.0830656216, 0.0302285422, -0.0249023587, -0.0360459313, 0.0895272866, 0.0230004676,
-0.1143382266, 0.1695708781, 0.0629171208, 0.0704861879, 0.0237698518, 0.1210894808, -0.0436555333, -0.0682846680,
0.0095170969, -0.0232637543, -0.0252745748, -0.1067823395, -0.0105366027, -0.0810564086, 0.0338140763, 0.0511831529,
0.1191721112, -0.0013407285, 0.0278198160, 0.0581792779, 0.1524568647, 0.0158099625, -0.0404641405, 0.0178242642,
-0.1721440107, -0.0832225159, 0.0210993234, -0.1648640335, 0.0428211093, -0.0177829564, 0.2034629434, 0.2707836926,
0.2333065569, 0.1751587391, 0.0585381612, 0.2152613699, 0.2190005630, 0.0174698792, 0.0433934219, -0.2344420701,
-0.0816472992, -0.3139640689, -0.3767802715, -0.0558209866, -0.0683220103, -0.0437406041, 0.2383492738, -0.1493265480,
-0.1152300537, -0.1222819984, 0.1930359006, 0.0405197963, 0.1613695025, 0.1294231564, 0.1956581026, 0.2432824671,
0.1985503584, 0.1833918840, -0.1805609912, -0.1594224423, 0.0546672642, 0.0002484399, -0.3130674064, -0.4362151027,
-0.0099981371, -0.1891027242, -0.4377152920, -0.0776643828, -0.0585669279, -0.0308069251, 0.3030887842, 0.0175024886,
-0.0959726349, -0.0513783582, 0.0422212146, -0.1593556702, -0.1355071813, -0.1441013813, -0.2588848472, -0.2058347762,
-0.3924647868, -0.5622326732, -0.0483766347, -0.2293112129, -0.1649768949, 0.0499079153, -0.1590601355, -0.0440875702,
-0.1612208188, -0.0948566273, -0.2273163348, 0.2501119375, -0.0677470937, -0.0645873845, -0.2122913897, 0.0124826208,
-0.1783506721, -0.2427352816, 0.0516095832, -0.1790707856, 0.0888369307, -0.0276272483, -0.0627149642, 0.0504398644,
0.0332632624, -0.2306703329, 0.0828350782, -0.0344137363, 0.1125645638, -0.0241997764, -0.0120234620, 0.0712240562,
0.1316661984, 0.1495410204, 0.0808110461, 0.0256844070, 0.0035725539, 0.0173434336, 0.0703329593, -0.0904029310,
-0.1129415110, -0.1866414994, -0.0296192374, -0.0350311436, -0.0000797021, -0.0741556063, -0.0575943515, -0.0504816398,
-0.1806011498, 0.1930617094, -0.0842150226, -0.1043145806, 0.1680582762, 0.0760034248, 0.2200916708, 0.0151819158,
0.0151126366, 0.1754588783, 0.0423221551, 0.0173426084, 0.0712343603, 0.1009939164, -0.2207106352, 0.0202189796,
-0.1324628741, 0.0405823477, -0.0363091230, -0.2512884140, -0.0460430309, 0.0507082641, -0.1950501055, 0.1627495587,
0.2438832074, 0.0272586327, 0.2757842839, -0.0445012376, -0.1446282715, 0.2910966873, 0.0630619824, 0.0247725137,
-0.0699578151, -0.0013618213, 0.1978715509, 0.0295027383, 0.1824600101, 0.2630861700, -0.1471423805, -0.1643670648,
0.0551503599, -0.0136972098, 0.0504140966, -0.0432127565, 0.1132525131, -0.0523274541, -0.1116515025, 0.2664683461,
0.0395771638, -0.0666535422, 0.0085390052, 0.0791293234, 0.2083872110, -0.0078149904, 0.0240210276, 0.2181179225,
-0.0187043753, 0.0707439110, 0.1313242912, -0.0231130365, 0.0437232368, -0.1740461886, -0.0648211986, -0.0568276830,
-0.1562097371, -0.1163623706, 0.0971006826, -0.0023382886, -0.0402599648, 0.0978933573, -0.0345250256, -0.2066324502,
0.1192143410, -0.1350502372, -0.2127961516, -0.0202696249, -0.1742161512, 0.0790474862, 0.0172215588, -0.0330390148,
0.0001736873, -0.0058894120, -0.0619758479, -0.0020204252, 0.0794251412, -0.0239960440, -0.0400796421, 0.0919073075,
0.0023719305, 0.1209177896, 0.0391943268, 0.0157181285, 0.0352012776, 0.0747004077, 0.0210637990, -0.0281753857,
0.0531894751, -0.1306668818, 0.0275835562, -0.1667758822, -0.2983620167, -0.0031144221, -0.0657112673, -0.2040585279,
-0.1788668931, -0.1336756945, 0.4018315375, -0.1525655836, 0.1006179675, 0.1603218317, 0.0362079963, -0.0934316367,
-0.0801049620, 0.1004319489, 0.0656568557, 0.1482863128, 0.0707707033, -0.1248421669, -0.0498253405, 0.1647907197,
0.1882527918, -0.1704763323, -0.0816932917, -0.0423026755, 0.1277003735, 0.1552701741, 0.2170629501, 0.1374990195,
0.0899779201, 0.0924213156, -0.0252161175, -0.1616883725, 0.0069735781, -0.2929013371, -0.1350384355, -0.0166798010,
0.1200776771, -0.0564516783, 0.2115834802, 0.3751080036, -0.1340484768, 0.0942854583, -0.0781798288, -0.1037029922,
-0.1888707280, -0.1630253792, 0.0536152124, -0.2203516960, -0.3401479721, 0.0295413211, 0.1257007867, 0.0344437882,
-0.0537858717, 0.2764749229, 0.3241685927, -0.0737375468, 0.1388641596, 0.3109709918, 0.2333116382, 0.0805429816,
-0.0420713834, -0.1166113392, 0.1007295400, 0.0378110968, -0.1370569021, -0.1921904385, -0.0548870265, 0.0035304360,
0.0741970688, 0.0388722867, 0.0358705036, -0.1703577340, 0.0715852752, 0.2052370012, -0.1350811869, -0.1981904060,
-0.2139468342, 0.0291687567, 0.0702812299, -0.1719516367, -0.0567013770, 0.1156039834, -0.1240366399, -0.0205097888,
0.0123493755, 0.1914536655, -0.0251722429, 0.0898751020, -0.0315359905, 0.0680434108, 0.0631314814, 0.0836166814,
-0.0750506446, 0.0728973970, -0.2396786809, -0.0953564346, 0.1308764368, -0.1572621465, -0.0757864416, -0.0778055489,
0.0087264515, -0.0993699133, 0.0827169865, -0.0688852295, 0.2483286262, 0.0139858760, -0.0349154212, 0.0679554418,
0.0005121017, -0.0259052403, 0.1225317940, 0.0697377473, 0.0956706777, 0.1643102020, -0.1274632365, 0.0454192422,
0.0604697354, 0.2206775546, 0.1506209224, 0.1552921683, 0.1363125890, -0.0299540740, -0.0128785288, 0.0269759893,
0.0701483637, -0.1582974494, -0.1182391867, 0.0484930128, 0.0302284844, -0.0685413927, -0.1104388610, 0.0979865417,
0.0670630336, -0.2016123831, -0.1082023233, -0.0375067890, 0.0016868201, 0.0941888765, -0.0064154551, 0.0437088124,
0.0243368279, -0.0377423428, 0.1624204218, 0.3317424357, 0.0694049373, 0.1750110239, 0.4362777770, 0.2248766720,
-0.1544611603, 0.3879716694, 0.0915486366, -0.0260172561, 0.3037796319, 0.0672044978, -0.2378552258, -0.0428270735,
0.1730798036, -0.0271138884, 0.0280581694, 0.2138751298, 0.0334841013, 0.3172409832, 0.5658380985, 0.0330750123,
0.3013518155, 0.3440061510, 0.0767761543, 0.0913912803, 0.1260782778, -0.2097784430, -0.0120905507, 0.1833578944,
-0.3240911663, -0.1169765890, 0.0468315370, 0.0306920242, 0.0297673978, -0.0572187454, -0.0690027624, -0.1891402900,
-0.0701464713, 0.0124535421, -0.1201746315, 0.2094315290, 0.0016259431, 0.2536119223, 0.1096616015, -0.0614771694,
-0.0733439252, 0.1031440943, 0.0138217397, -0.0739111379, -0.0855480283, -0.0801212788, -0.2100352496, -0.1739438176,
-0.1037811711, -0.3181863427, -0.2350055724, 0.0488507003, -0.1480484009, -0.1753571928, -0.0336104333, -0.2303418070,
0.0688289776, -0.2295245528, -0.1636941433, 0.0883215666, -0.2083902210, -0.2366081774, 0.1396201253, 0.0349591188,
-0.0992980748, -0.3263196647, 0.1035265401, 0.1192612126, -0.1777110100, 0.1103652194, 0.1292992383, -0.1346532553,
0.3263812661, -0.0447316915, 0.1031910926, -0.2556761503, -0.0431996100, 0.2619448304, 0.1214144751, 0.0736040026,
0.2927289307, 0.1136371791, 0.3296451569, 0.2225491703, 0.1679304689, 0.2281291485, 0.0518908501, 0.0986171961,
0.0599916019, -0.0657151937, -0.0063532819, -0.1609455943, -0.0605721064, -0.1920682192, -0.0058827237, -0.1299391687,
0.0998126045, -0.0890456066, 0.0282434039, -0.1498860419, -0.2786897719, -0.3025499582, -0.1981801093, 0.0824479908,
-0.0955203548, -0.0805345252, -0.1955152452, -0.0700253099, -0.0108757950, -0.4127140343, -0.1035205796, -0.0025176047,
-0.3235753477, -0.0555617847, -0.2853647172, -0.1184607819, -0.1809010953, -0.1890298575, -0.1900140345, 0.0089616431,
-0.1261372715, 0.0515358523, 0.1111076102, -0.0788475052, -0.0092573604, 0.0707753748, 0.0701094791, -0.3880936801,
-0.0730729401, -0.1003155261, -0.5441266894, 0.3225599825, -0.2638761401, 0.1173591763, 0.2976990044, -0.1239790022,
0.0565949231, -0.1214779839, 0.1172769070, 0.0727600977, -0.0060030310, 0.1045277715, 0.1338189840, 0.1779020727,
-0.2155085802, 0.1625194252, -0.0443303250, -0.1598873585, -0.1917837709, -0.0767644569, 0.0580998212, 0.0315804370,
0.1966261566, 0.0762611851, 0.0987826809, -0.0273061376, 0.1426086873, 0.0287854187, 0.1572299004, -0.1982079446,
-0.1472776830, -0.1611304134, 0.0757644773, -0.1552116424, -0.0117516797, -0.1491652280, -0.1073784456, -0.1173064858,
-0.3957528770, 0.1978146732, 0.4526557326, -0.0746078044, 0.1340295374, 0.2344585359, -0.1632517278, -0.0412912481,
0.3625246286, -0.1248793155, -0.3670117259, 0.4434137344, -0.1984317303, -0.0352015235, 0.0971291661, -0.2734584808,
-0.0895925388, 0.0042544040, -0.1728595495, 0.2269011140, 0.3635582328, -0.0153069636, -0.0053473590, 0.0788704306,
-0.1095211133, -0.0684376657, 0.0350488126, -0.0457556881, -0.1681282371, -0.1815588623, -0.0704960525, 0.0150127504,
-0.0132434666, 0.0517246239, 0.2721053362, 0.0690482706, -0.1396123171, 0.0845215172, -0.1023014039, 0.0794923306,
-0.2636013925, -0.0927235484, 0.1431521922, -0.0824116096, -0.1254903376, 0.0573128723, 0.2055783421, -0.3000280261,
0.0973957926, 0.2028976232, -0.2105543464, 0.1661085933, -0.2467892915, -0.2188687772, -0.0803562999, -0.1122302413,
-0.0563373864, -0.2318185568, -0.0742500052, -0.0554174669, 0.0970984995, -0.5442691445, -0.0867642313, 0.1972243041,
-0.1163674518, -0.1625097692, 0.2141551822, -0.2405127287, -0.1561703682, 0.0902300179, 0.2182458639, -0.2600224614,
0.1924315840, 0.2664141655, 0.0325293690, 0.1409192830, -0.2374541163, -0.3397256434, -0.0451283194, -0.1695827991,
-0.2086639553, 0.0914018676, 0.0797114447, -0.1074815392, 0.3783757985, -0.2941574454, -0.4605353773, 0.3798814714,
0.0725457072, -0.2101538628, 0.1419153214, 0.3792167902, -0.3745800257, 0.1471484900, -0.1635618508, -0.0128164552,
0.1586258858, 0.2359926403, 0.1245142147, -0.0087226070, -0.0278939698, -0.0959259793, 0.2433584630, -0.0468721725,
0.0806460306, 0.0689181909, -0.0178497396, 0.0033351786, 0.2581827939, -0.1751243323, 0.0399513580, 0.0888574347,
0.2187143564, 0.0617528446, -0.3284103572, 0.0768667683, 0.4446527958, -0.5607024431, -0.1187304109, 0.2405155152,
-0.1199500114, -0.0870465711, -0.0795088261, -0.0626066923, 0.0766241252, 0.1275437474, -0.1606514454, -0.2536196709,
0.1086826101, 0.0848076120, -0.1886372864, 0.1210917234, 0.2125115842, -0.1418431103, 0.1437550187, -0.0329221413,
-0.0601216964, 0.1054693907, -0.0789973661, 0.2376040965, 0.2645331919, -0.0972932279, 0.2037221491, -0.0419816487,
0.0251777247, 0.0361697674, -0.1274888217, 0.0250776764, -0.2893599570, 0.0696172938, -0.3396574557, -0.4155304432,
-0.0295658186, 0.0323619805, -0.2028930187, 0.0172275733, 0.1900124401, 0.3242873251, 0.2358287126, 0.2468490601,
0.4284913838, 0.1541431248, 0.0064049424, 0.0860131010, 0.0244276281, -0.0307842307, -0.0344428569, -0.0608412437,
0.0595007129, -0.1140466928, -0.1252262592, 0.0639197230, -0.0026508875, 0.0900906026, 0.0587713234, -0.1298198104,
-0.0280095749, -0.0245044325, -0.2012199163, 0.0675964430, -0.1653964072, 0.0807417035, 0.0451665558, -0.0308144260,
-0.0930021629, 0.1313836724, -0.2432743460, -0.1521393210, 0.0041154525, -0.1248690560, -0.2437162995, -0.4032482803,
0.3240689635, -0.0982636660, -0.2794114649, -0.0724250302, -0.1187221706, 0.0023865767, -0.2371583283, 0.0838460028,
-0.0358324572, 0.1822497845, 0.1574888080, -0.3124516308, 0.0278640538, 0.0702297911, -0.2695726156, 0.1648415774,
-0.1075750366, 0.0324438922, -0.1388654709, -0.1084080040, 0.2694290578, 0.0518475845, 0.0426069014, 0.1959464252,
0.1535545737, 0.1975221038, 0.0546148196, -0.1500474960, 0.0724608675, -0.0111861769, -0.0989207253, 0.0269440114,
0.0885354578, -0.0275748093, 0.1070726588, -0.2881199419, -0.1727643311, -0.0482508242, 0.1803050339, -0.0096044503,
0.1906844676, 0.1620069444, -0.1421917081, 0.0791062564, 0.3018300533, -0.0494142026, -0.3240077496, -0.3019990027,
0.0504252948, -0.2902803421, -0.2259333134, -0.0064647850, 0.0288575199, -0.0606934391, -0.3454529941, -0.0863280222,
-0.0345844887, -0.0193702281, -0.2898098826, -0.1998200417, 0.2965265512, 0.0042311307, 0.2766405344, -0.0254997164,
-0.0976663753, -0.2560641468, 0.1686353236, -0.0671912357, 0.0078123841, 0.2763474584, 0.0931076929, -0.0723963678,
};

static float conv3x3_ds2_bias[16] = { 
-0.7293804884, -0.9722325802, 0.3807234168, 0.5581138730, -0.4354537725, 1.0526160002, 0.0579057112, 0.1462380588,
-0.1954712570, -0.9034791589, 0.2423318326, 0.8474955559, 0.4219576120, 0.2802652419, 0.5361881256, 0.4642971456,
};

static float conv3x3_ds3_weight[4608] = { 
-0.2272722870, -0.0986323655, -0.0411829464, 0.0122075006, -0.1786507815, 0.0316969417, 0.0045892349, 0.0299347769,
0.1885882467, -0.0262351315, -0.2215482295, -0.0292198956, 0.0077057583, -0.0788925365, 0.0347388685, -0.0925664306,
-0.0718304813, 0.0305035375, 0.1056772619, -0.0432136878, -0.1576080024, 0.1096010804, 0.0752169415, -0.0847992972,
0.2239155173, 0.1568388194, -0.0365509763, 0.0188374817, 0.0064676949, -0.1372850835, 0.0531912930, 0.0534027442,
-0.1477339417, 0.1148151904, -0.0115098627, -0.1019283012, -0.0510603003, -0.0176766925, -0.1216924116, -0.0379475430,
-0.0689364672, -0.0216929652, 0.2066877633, -0.0368214324, -0.0482919551, 0.0019822912, 0.2042271197, 0.0941588134,
-0.1494160742, -0.0686691627, 0.0239169523, 0.0066691139, -0.1141804829, -0.1393566877, -0.0062459735, 0.0953461826,
-0.0076638674, 0.0571018793, 0.0959114507, -0.0643442869, 0.0398722887, 0.1429604441, -0.1142992452, -0.1010492519,
-0.0451986976, -0.0751894265, -0.0635080040, -0.0575321577, 0.0043548602, 0.0749306157, 0.0399690792, 0.2437124699,
-0.0036706377, 0.0536175296, 0.0472419374, -0.2011376619, -0.0618547164, -0.0466236249, -0.0900601074, -0.1200642437,
0.0553529635, 0.1102611721, 0.0541105866, 0.0553907454, 0.1556439847, 0.1337066591, -0.0582315177, 0.0017382685,
0.0491033457, -0.0670644715, -0.0518506467, -0.0254882202, -0.0615672283, 0.0735513568, 0.0338206664, -0.0413242429,
0.0304343160, -0.0882151276, -0.0329672731, 0.0724793971, 0.1269894540, 0.0235594176, 0.1746531278, 0.1069906279,
-0.0441216901, 0.0225514658, 0.1215306595, -0.1086076945, -0.1908379942, -0.0668881610, -0.0447690636, -0.1657951623,
-0.1224192753, 0.0598911345, -0.0548510067, -0.1452411562, 0.0727623403, -0.1754136086, -0.1623599529, -0.0564221032,
-0.0877032727, -0.0748155192, -0.0901282430, 0.0198014714, 0.0900701061, 0.0971572176, -0.0421100184, 0.0306482185,
0.0267504100, 0.0273124576, 0.0191659760, 0.0366274118, 0.0163646862, 0.0033896004, 0.1522829980, -0.1112584472,
-0.0569242649, -0.0203804765, -0.1221734062, 0.0009615590, 0.0722862482, 0.0284074973, 0.0989374816, -0.0443373248,
0.0891793817, 0.1502361298, -0.1004650444, -0.0576343462, 0.2947342396, 0.1311283708, -0.0182421189, 0.1400506496,
0.0693753511, -0.0206001401, 0.0297243111, -0.0206168611, -0.0287731327, -0.0742543489, -0.0956522748, -0.1429772973,
-0.1381859779, -0.0695351064, -0.0887918770, 0.0108668422, 0.0669526234, 0.0178845190, 0.1816654205, -0.0484510101,
-0.0997404084, -0.0261050873, -0.0320980400, 0.0906906798, -0.0256672818, -0.1586474925, 0.1589694768, -0.0379541330,
-0.3251795173, 0.1702447832, -0.0102269240, -0.0257556979, -0.0744752586, 0.0770755634, 0.0108671999, -0.0730835646,
0.2986067533, 0.0758236647, -0.0986912549, -0.1171106771, -0.0807133466, -0.1068169773, -0.0869208202, -0.0250722542,
-0.0143655259, -0.1039155498, -0.0490558892, 0.0374918692, 0.0394010060, 0.0274580494, -0.0402166806, -0.0707430467,
-0.0902186856, 0.1689766645, -0.0181852169, 0.0216611661, 0.0510004126, -0.0823792294, 0.1172763035, 0.0230837353,
0.0787484497, -0.0856142640, 0.0636499822, 0.2517135739, -0.0832678378, -0.0576015227, 0.1564224213, 0.0842498466,
-0.0372739471, -0.0239440426, 0.1379651278, 0.1457496732, 0.1348756552, 0.0958093330, 0.0540949814, 0.0742492005,
0.1284341812, -0.1088335961, -0.0304643586, 0.0202155467, 0.2311909348, -0.0856986791, -0.0775346830, 0.1641482562,
-0.0162085965, 0.1633166224, 0.0129234158, -0.0714153275, -0.0046417867, 0.0735618621, 0.0245422553, -0.0914583281,
0.0877911672, 0.1812861711, 0.1205272302, -0.0337009653, -0.0213837586, -0.0356017053, 0.0106387632, -0.0975457579,
-0.1157862023, 0.2479150891, 0.1201045886, -0.0385183245, 0.1612044424, 0.0224385001, 0.1098955721, 0.0524496213,
0.0318625756, -0.0697111264, -0.0580923147, -0.0164122358, 0.0672556534, 0.0791037604, 0.0275517944, -0.2059741020,
-0.0448106974, 0.0678501651, 0.0546156727, -0.0410098657, -0.0060977163, 0.1517141908, 0.0628225505, 0.1261667758,
0.0495330915, -0.0364927761, 0.1295579076, -0.1347813904, -0.3363524675, -0.1922350079, -0.2280139625, 0.1187804267,
0.2449505031, 0.1409174502, 0.0068829283, 0.1419133842, 0.0905562714, 0.0592265464, -0.1816745549, 0.1226932183,
0.1410022080, 0.0787325352, -0.0062799999, 0.2646177709, -0.1437531114, 0.0404573828, -0.1113902628, 0.0885304064,
-0.0072048041, -0.1021948382, -0.2435782105, 0.0010496185, -0.1267530918, -0.0814133957, 0.0643551722, 0.0526574999,
0.0489458665, 0.1147837788, -0.1997724771, -0.2303147465, -0.0241040457, -0.1441307962, 0.2601919174, 0.2138154656,
-0.1016903520, 0.0072739879, 0.0979455113, 0.2090339214, -0.0048708515, -0.0488133840, 0.1723428965, 0.0225000475,
0.0511028804, 0.1387089789, -0.0285367481, 0.3755163550, 0.1385121942, 0.0872685611, 0.1578309238, -0.1198244840,
0.0112375338, 0.0911637470, 0.1285443902, -0.1520145088, -0.3021893799, -0.1706670523, -0.0372392498, 0.1930936128,
-0.2263718843, 0.1493720114, 0.1328077167, 0.0209135823, 0.1526388228, -0.0943435207, 0.1384705454, 0.0571031459,
-0.1016188860, 0.2495899498, -0.2590920329, -0.0698795095, 0.0925475657, -0.2064423412, 0.0868414044, 0.0288096908,
0.0415523760, -0.1322981119, 0.0140256742, -0.0651574954, -0.0435896553, 0.0594484061, 0.1855811775, 0.1134010851,
-0.1756434590, -0.1222877577, -0.0196060035, -0.0432340167, -0.0598530062, -0.0616709404, 0.0530578233, 0.0813416392,
-0.1069604605, 0.0523865186, -0.0638412461, 0.0740474239, 0.1135090813, -0.0843264163, 0.1645681262, -0.0507130958,
0.0218665395, 0.0559447445, -0.2022221386, -0.0163744986, 0.1702287942, -0.2986623943, 0.1210374981, 0.1437659860,
0.0928469226, 0.1456580907, 0.0425268374, -0.2168597579, -0.1660242230, -0.2496903688, -0.1840275973, -0.0559695475,
0.2423874885, -0.2295664549, 0.2700876594, 0.2933224142, 0.0114745302, -0.0901226476, -0.1837888807, -0.0687150210,
-0.1923441440, -0.0208912212, -0.0454241633, 0.0196076874, 0.0917515531, 0.0227283668, -0.1051381901, -0.0671004057,
0.1150648147, -0.1602172256, -0.1268944144, -0.0096200258, -0.1047046930, -0.0832498521, 0.0151350377, 0.1116750985,
-0.0753406137, 0.0316937529, 0.1866480708, -0.0797201395, 0.0348040946, 0.0594234206, -0.2929019630, 0.4498934150,
0.0677947327, -0.1836827993, 0.0672180578, -0.2619516850, -0.3136643767, -0.0714144111, -0.1840269268, -0.0546314195,
-0.0321632735, -0.0536855832, -0.0756923556, -0.0539292283, -0.0335198045, -0.1192094162, -0.1193424165, -0.0831611007,
-0.0737524107, -0.0107023576, -0.1023074985, -0.0261819176, -0.0801217332, -0.1419389397, -0.0263616573, -0.0186491664,
-0.0042906501, 0.0783209801, 0.0613485724, 0.0456784889, 0.0587241240, 0.0800484046, 0.0415599234, 0.0247440673,
0.0292662717, 0.0204452630, 0.0112826396, -0.0131192580, 0.0879192948, 0.1012941226, 0.1356869489, 0.1562544256,
0.1731850803, 0.0483999364, 0.1273887753, 0.1527225077, -0.0561969280, -0.0972037911, -0.1262792349, -0.0302506071,
0.0026734984, -0.0553821884, 0.0264750160, 0.0981014371, -0.0370960832, 0.0392619297, -0.0499858111, 0.0421080031,
0.0377721786, -0.0189550053, 0.0080667026, 0.0649908856, -0.0665734410, 0.0109111303, -0.0942671001, -0.0170480665,
-0.0422401652, 0.0335277356, -0.0658368021, 0.0393297374, -0.0600625128, -0.0179184917, 0.0744991004, -0.0253635887,
-0.0545638613, -0.0754012614, -0.0140711516, -0.0388774611, -0.0499214791, 0.0342605487, -0.0155848488, 0.0211776700,
-0.0664174259, -0.0906397253, 0.0200042650, -0.0802413449, -0.2116753906, -0.1239724234, 0.1172979400, 0.0337671600,
0.0641081631, -0.0169595182, 0.0498505421, 0.0213266425, 0.0043463768, 0.0523040406, 0.0604793653, -0.0474423617,
0.0631993189, 0.0613001585, 0.0112324608, -0.0183899533, 0.0148105640, 0.0013388025, -0.0929235816, -0.0844682604,
0.0909060165, 0.0094219288, -0.0124116084, 0.0435642600, -0.0028735057, 0.0375153646, -0.0237433854, 0.0802782401,
-0.0729377344, 0.0535985306, 0.0777349472, 0.0530450679, -0.0187087990, -0.0362366810, -0.0209650323, -0.0596971437,
-0.0610363372, -0.1252670735, 0.0120361894, -0.0667753965, 0.0386285037, 0.0323499665, 0.0367589407, -0.0109941093,
-0.0714279115, -0.0957065150, -0.0601660833, -0.0701499879, -0.1010373011, -0.0073033031, -0.0462558717, -0.0101670865,
0.0134795904, -0.0233253427, 0.0182724614, -0.0631539673, 0.0110994363, 0.0059080683, 0.0730506107, 0.0502339527,
0.0258425511, -0.0395092256, 0.0362099297, 0.0663058013, 0.0617986508, 0.0582434759, 0.0231415145, -0.0072752857,
0.0614445023, 0.1955686212, -0.1051058844, 0.0409759954, 0.0294985157, 0.0980284885, 0.0741805211, 0.0431395099,
0.1430207193, -0.0606419593, -0.0633627772, 0.0836606398, -0.0280689001, -0.1798509061, -0.0258963425, -0.1016926542,
-0.0538521111, -0.0038934948, -0.2802993059, 0.1239463836, 0.2050596178, -0.1517448127, -0.0836782679, 0.0801953301,
-0.0717362314, -0.1856602132, -0.0048279515, 0.2434295416, 0.0388631262, -0.2432684302, -0.0550280362, 0.1687733382,
-0.0693988428, 0.0668665990, 0.2608329356, 0.1891458929, 0.0862859040, 0.0165480115, 0.0241639372, 0.1331808269,
0.0844047368, 0.0290989187, -0.0754926950, -0.0595864914, 0.0563714020, -0.0182430465, -0.0772391185, -0.4332585037,
0.1895562559, 0.4771247506, 0.2023473680, 0.0911310315, 0.3545358181, 0.0719200894, 0.0084150210, -0.0023711962,
0.1960211843, -0.0692570060, 0.0320198350, -0.0248701759, 0.2031224072, -0.0025349816, 0.0158053152, -0.1013473794,
0.1129346639, -0.1776058525, 0.0676852316, 0.0419107899, -0.0715389550, -0.0551323406, -0.0284948219, 0.0777699500,
-0.1093401983, -0.1480643004, -0.0223381873, -0.0106018670, -0.0008269981, -0.0237916857, -0.1244209707, -0.0182420257,
0.0424108692, -0.0175939780, 0.0588056780, 0.1571314931, -0.0330267660, -0.0135578467, -0.0286631808, 0.1193779707,
0.0641702190, 0.0272079483, -0.1944177002, -0.3154768646, 0.0149203334, -0.0080772787, 0.0894059911, 0.3248209655,
0.0174488444, 0.2477749884, 0.3076571226, -0.2821636498, -0.4355823398, -0.1227924153, 0.0412699170, 0.1431329548,
0.0391508266, 0.1228022724, 0.1625423431, 0.1338052005, -0.1411213428, -0.2385968417, -0.4028429687, 0.0745258033,
0.0197876450, -0.0869912356, 0.0721803531, 0.1346875727, 0.1452937275, 0.0664145797, 0.0827404335, 0.1135586724,
-0.1429571658, -0.1741522402, 0.0533916987, 0.0075843604, -0.0948901549, -0.0304735713, -0.0029157095, 0.0223551206,
-0.0084951790, -0.0623031035, 0.0519834235, 0.1147124246, -0.1873904020, -0.0316351131, 0.1096840873, -0.1321114451,
-0.2268534005, -0.0944713652, -0.0275084395, -0.2118511051, -0.0025396580, 0.0355914384, -0.0071474393, -0.0174491890,
0.0061868606, 0.0562882386, 0.0679001883, 0.0193291977, 0.1033017710, 0.0135442959, 0.1506639868, 0.0429984927,
0.0953011289, -0.0833098739, 0.1802903861, -0.0589868464, 0.0844860747, 0.0069639785, 0.0946192965, 0.1007737741,
0.0353270695, 0.0581414141, 0.1137173772, 0.0023545013, 0.3023270667, -0.0207650568, -0.2465895712, 0.1765691489,
-0.0090516210, 0.1449999809, 0.2220128775, 0.0504645668, 0.2692955136, 0.0561764687, 0.0652878359, 0.2870434523,
0.0485347137, 0.0334195010, 0.1872578263, -0.0676754564, -0.0963860676, -0.1466612518, -0.1208450124, -0.1357323080,
-0.0432076715, 0.0283659417, 0.0780317336, 0.1655264944, 0.0626160577, 0.0038963137, -0.0273729116, -0.0044686403,
-0.0085579995, -0.0809884593, -0.0901505798, -0.0034126288, -0.1164168790, -0.0244260393, 0.0792029276, 0.0474592671,
0.1116924956, -0.0326888375, 0.0663506985, -0.0383429788, 0.0092748459, 0.0486764871, -0.1203925610, -0.1346524954,
-0.0166472942, 0.0346598700, -0.1905168742, 0.0820538923, 0.1054536775, -0.0094477562, 0.1010071188, 0.1234767810,
0.0342501402, 0.1559430808, 0.0038937966, -0.0045398795, -0.0130292578, -0.0877374709, 0.0591841079, -0.1277013272,
-0.1548332721, 0.0717185065, 0.0174072776, 0.0502325594, 0.0223354176, 0.0456187017, -0.0167561211, -0.1079968810,
-0.1265837252, -0.2356059253, 0.0549654588, 0.1809728742, -0.0171498917, -0.0339220315, 0.0954804346, 0.0019446055,
0.0054017128, 0.1327520162, 0.0972173959, 0.0028706586, 0.1372320503, -0.0644612387, -0.0213463828, 0.0914133266,
-0.1722165793, 0.0156315956, 0.0780994445, 0.0094117699, 0.1133776829, 0.1007045731, 0.0939415768, 0.0392411426,
0.0343909003, 0.1496296674, -0.0291218571, -0.0992292389, -0.1741878837, 0.0486251749, 0.0349391513, -0.1483516544,
0.0015445588, -0.0478911959, -0.1383884698, 0.0470880233, -0.0209300686, -0.0435452349, 0.0329906903, -0.0440263450,
0.0247125346, 0.0206296649, -0.0150993867, 0.1010454148, -0.0163443014, 0.2062549293, 0.0057540461, -0.0188494977,
0.0542542189, 0.0835235789, 0.1565277725, 0.0759234279, 0.1130551621, 0.0741911158, 0.0451538526, -0.0902175754,
0.1295512915, 0.0756074786, 0.1548903137, 0.0019745540, -0.0368772261, 0.0332856327, -0.0661901087, 0.0296003539,
0.0142451357, 0.0566289648, 0.1272841543, -0.0401344374, 0.0024965487, 0.0328832865, 0.0524496622, 0.0819046348,
0.0474733897, -0.0598061234, -0.0152202053, 0.0373605527, 0.1804068238, 0.0738736689, 0.1791993529, 0.1902458072,
-0.0584573746, -0.0358602367, -0.0753173456, 0.0937229991, 0.0331298672, -0.0216493327, 0.0690562949, 0.0634038970,
-0.0088271126, 0.0803370625, -0.0063316640, 0.0100320736, 0.0043793735, -0.0661285594, 0.0863180012, -0.1804339588,
0.1255515069, -0.1791568547, -0.1395666599, -0.1406329870, 0.1301165074, -0.1442959458, -0.1437420696, -0.0016844826,
0.0037560449, 0.0568996817, 0.1961247623, 0.0153260706, -0.0606247112, -0.0588889457, 0.1184059680, 0.1885552108,
0.2363519520, -0.0757016093, -0.0465872884, -0.1800318807, -0.0192024689, -0.1871021688, -0.0220813155, -0.1903382242,
0.0852825120, -0.0369108655, -0.0012909923, 0.2826030254, 0.0270340592, -0.0799341500, -0.0283892620, -0.0177862458,
0.0238162372, 0.0157441031, -0.1222324744, -0.0298869740, -0.0230421759, -0.1112401038, -0.0100166239, 0.0880398005,
-0.0354191810, 0.1120543256, 0.1338638067, 0.0731984973, -0.0710861608, -0.1201144531, -0.2612609565, 0.0029917608,
-0.0899256542, -0.1397161335, 0.0856475532, -0.0756417587, -0.2048557103, 0.2289953232, 0.1354480684, 0.1015458107,
0.0244864877, 0.0699205771, 0.0387904607, 0.0116214948, -0.0709842667, -0.1218586713, 0.0593341962, -0.0841777846,
-0.1483798772, -0.0264738314, -0.0206022933, -0.0595402010, -0.0590165630, 0.0308719594, -0.1642297804, 0.0879543424,
0.2241572142, -0.0462181307, 0.0529808104, 0.1298592240, -0.0819310099, 0.0777126178, 0.1684369743, 0.1480671912,
-0.1280546188, -0.0400616564, 0.0788657293, -0.2268251181, -0.0889797285, 0.0203806292, -0.1084801629, -0.0702865198,
0.0409887023, -0.0634347647, 0.0830303729, 0.0188257806, -0.0282857101, -0.0335423276, -0.0449530110, -0.0222685654,
0.0170241632, -0.0860520303, 0.1074495167, -0.1854644120, -0.1129575372, 0.0721968114, 0.0249461979, -0.0283087380,
-0.1272944510, -0.0375523679, -0.1521719247, -0.2195991278, -0.0685583204, -0.1758757830, -0.2218374312, -0.0875783861,
-0.1499772519, -0.0098085757, -0.0273363702, 0.0415556319, 0.1424643397, -0.0472829714, -0.1665031612, -0.0259309355,
-0.0161810126, -0.0450446047, -0.0534888953, 0.1702157110, -0.0245664399, 0.0762241930, -0.0085809007, 0.1644014716,
0.0577887967, -0.0949482918, 0.0313845612, 0.0126762586, -0.0290251318, -0.1115309075, -0.1820544600, -0.1467557997,
-0.1535734683, -0.1355161071, -0.2491238713, -0.0783222839, -0.1749082655, -0.0611608364, 0.0987779871, -0.1298187971,
-0.0253279395, -0.0023870727, -0.2321693748, -0.0206097178, -0.0317038298, -0.0564495288, -0.0470434316, 0.0137438346,
-0.0199958496, -0.0241691042, -0.1261556000, 0.0074661686, -0.0687404871, 0.0010481818, -0.0633346811, 0.0432569496,
0.1083999127, 0.0730481595, 0.0180583596, 0.0338802896, 0.1251291186, 0.0637184530, -0.1015300378, -0.0299016349,
-0.0166013502, 0.0112072947, 0.0309094749, -0.0155322608, 0.0582758971, 0.0267280266, -0.0174562354, 0.0060037212,
0.1494282037, 0.1756776869, -0.0416971743, 0.0621896498, 0.1078932509, 0.0397090651, 0.0818920359, 0.0030255588,
-0.0250378046, 0.0105815660, -0.1014033258, -0.1977311820, 0.0747148320, -0.1109584644, -0.0509483404, 0.0994718298,
0.0659821928, -0.0384891368, 0.0211438313, -0.0713752732, -0.0746127069, -0.0631997436, -0.1333675981, -0.1094669774,
0.0141719235, -0.1608706564, -0.1445191950, 0.0819316059, 0.1010827869, 0.0218363404, 0.0987746343, -0.0356558338,
-0.0681754276, 0.1340323389, -0.0130470050, -0.0204929784, 0.2088889331, -0.0201505255, 0.0049177590, 0.1500590295,
-0.0501760989, -0.0746641681, 0.0850776732, -0.1446159333, -0.0255641453, 0.0557596758, 0.0074077006, 0.0256067365,
-0.0868014693, -0.0363774635, 0.0324972160, -0.0588155761, 0.0499366447, 0.0365413316, 0.1628039479, 0.0472951271,
0.0381916985, -0.0070125228, -0.0412745066, 0.0019158673, 0.0239962880, -0.0435732566, -0.0420907438, -0.0553248264,
-0.0475745797, 0.0414585881, -0.0918072090, -0.0940704346, -0.0047672768, -0.1593295634, -0.1208353415, 0.0476308689,
-0.0265280381, -0.0277802683, 0.0526291728, 0.0717704445, 0.1837857813, 0.1210254431, -0.0636805594, 0.1247994602,
-0.1680859178, -0.0183832832, 0.1004775316, -0.0952458084, -0.0414986089, 0.0429253541, -0.1392786354, 0.0821280256,
0.1457127929, -0.0247199945, 0.1149484217, -0.0165817682, -0.0330998600, 0.0631699935, 0.0555440262, -0.1068234071,
0.1902550310, 0.1859990507, 0.0657824650, 0.0522231236, 0.0504954346, 0.1512788087, -0.0866102800, -0.1058071330,
-0.0337478667, -0.1177600697, 0.0416810066, -0.0389588960, 0.0563616827, -0.0751551986, 0.0107091377, 0.0483218245,
-0.0372330062, -0.0265276693, 0.0865238756, 0.2653777897, 0.1487286240, 0.0248345472, 0.0606872328, 0.1658341438,
-0.1784238368, 0.0595401339, 0.2158083022, -0.2792178392, -0.2536431551, -0.0792101994, -0.1202249080, 0.1073377877,
0.0796911120, -0.1886335313, -0.0719969869, 0.2117480040, -0.1145920902, -0.0574492961, 0.0559016652, -0.0592786595,
-0.0409624130, -0.2190812677, 0.0160381310, -0.1275128424, -0.0729715154, 0.1867124885, 0.0324482694, -0.1679100990,
-0.1467946470, -0.1013139859, -0.1401885301, -0.1277658194, -0.1667723507, -0.0856716260, -0.1566913873, -0.0953930989,
0.0846203342, 0.0000994234, 0.0467592813, -0.0078127673, -0.0385063998, 0.0093857339, 0.1159214750, 0.0281421542,
0.1731517017, 0.0368201211, 0.0300592352, 0.1990507394, 0.1441453397, -0.0168445185, 0.0646423027, 0.2702429593,
-0.1377462447, 0.0055625141, 0.2391163707, -0.0799173564, -0.0498959459, -0.1640811563, 0.1391354650, 0.1856006682,
-0.0884331986, -0.0224182382, 0.0871762931, 0.0645045862, 0.0939734876, -0.0674627721, -0.0259400830, -0.0715617761,
-0.1023841947, -0.0120427320, -0.1363625079, -0.1384525597, 0.0820299685, 0.0849792883, -0.1464017034, -0.0693035498,
0.1344213039, -0.2097486407, -0.3061419725, 0.0589717701, -0.1640062183, -0.2640466690, -0.0023497348, 0.0990801528,
0.0740628168, 0.0117910905, -0.0631637573, -0.0490784422, 0.0285193510, -0.2621336877, 0.0917450786, -0.0130072879,
0.0523616970, 0.2290443033, -0.0377676524, 0.0455596521, 0.0695719570, -0.0499969386, -0.0320458487, -0.0650598556,
-0.0851992592, -0.1308591664, -0.1584482342, 0.1206228510, -0.0670725256, -0.0751175210, 0.0885552689, -0.1337228119,
-0.0012643884, -0.1073474884, -0.1000634432, -0.0085395947, -0.0488647297, -0.0282167550, -0.0720233470, -0.0058630565,
-0.2007861584, -0.1538237184, -0.0755435899, -0.0014062215, 0.0695764646, -0.0201566014, 0.0852679461, 0.1117578670,
-0.0675701573, 0.1641750634, 0.0575877428, -0.1075124741, -0.0666275099, -0.0113942409, -0.1168939099, 0.0246656220,
-0.0089369528, -0.0654246882, -0.0393301770, -0.0647991449, 0.0786146075, 0.1152712926, 0.1651741713, -0.0102446442,
0.0848198310, 0.0708119869, 0.1009426564, 0.0043062326, 0.0088042747, -0.1829733253, 0.0738511309, -0.1166145876,
-0.0707616955, -0.0280154552, -0.1104431078, 0.0033619234, -0.0567255653, 0.0225553513, 0.1090797707, 0.0793455914,
0.2457624525, 0.0224421266, -0.0948498324, -0.1323391199, -0.0726527944, 0.0148819843, 0.0032067306, 0.0605742298,
0.0831603035, -0.1565527469, 0.0254273806, 0.0233850777, 0.0977264270, -0.1104389504, 0.0354409255, 0.0570195951,
0.0553249978, -0.0522386320, -0.1218871176, -0.0648899600, -0.1890705973, -0.1831427664, -0.0937135741, -0.1852407902,
-0.0967446193, 0.0066561801, 0.0303912442, 0.0908122435, 0.0097234128, -0.0231368281, 0.1678442806, 0.0015236936,
0.0052394490, 0.1455499679, -0.0411609747, -0.0606145486, -0.1572211236, -0.1683761477, -0.0204837695, -0.2611343861,
-0.1779536307, -0.0665734336, -0.1289903820, -0.0274894051, 0.0587582253, -0.0374322422, -0.0440112166, -0.1238341928,
-0.1541054994, -0.0933046117, -0.1445753574, -0.1053495258, -0.1069718003, -0.0479173288, -0.1171424091, -0.0882903337,
-0.1063207537, -0.1162260845, -0.1535724401, -0.1104320511, -0.1698585153, -0.0262234919, 0.0485820808, 0.0631929114,
-0.0711788833, -0.0015047259, -0.0059198593, -0.0722023770, -0.0531073809, -0.0063499599, -0.0768858194, 0.1150362045,
0.0353232287, 0.1234477758, 0.1625781357, 0.0643388778, 0.0260937456, 0.1246084869, -0.0163118523, -0.0176865160,
0.0122585353, -0.0138668818, -0.0976732969, -0.0381286591, -0.0040211384, -0.1276554912, 0.0332171358, 0.0176863577,
-0.1255827695, 0.0440159924, -0.0712329149, -0.1795423776, -0.2174275666, -0.0319293365, -0.1018048003, -0.0320164151,
-0.0678754449, -0.0055799540, 0.0056480980, -0.0504402034, 0.1616047323, 0.0765971988, -0.0815465674, 0.1464860141,
0.0963793322, 0.1720481813, -0.0959812924, -0.0095234429, -0.0283890124, -0.0681426674, -0.0259842165, -0.0643449500,
0.0091173947, -0.0175785441, -0.0983302146, -0.0630170628, 0.1038809046, -0.0281187966, -0.2145332694, -0.0863217413,
-0.1456117779, -0.1241329834, -0.0300150104, -0.1990161687, -0.0054888614, 0.1006473675, -0.0575097054, -0.0810680315,
0.0187803190, -0.1726455837, -0.0227140151, 0.1592399925, -0.0232592225, 0.0487509854, 0.0371058024, 0.3504867256,
-0.1969652325, -0.2027056515, 0.0886807665, -0.1612527370, -0.2361028641, -0.0619832985, -0.2384597808, -0.0769599080,
-0.0328179263, 0.0120785600, -0.0603967346, 0.0323026367, -0.0168078039, 0.0328024626, 0.0726886094, 0.1345177591,
0.0163080953, -0.2206905335, 0.1381830871, 0.0547427125, -0.0874845833, 0.0212155841, 0.0668423548, -0.0658613741,
0.1052092314, -0.0344599783, -0.0419512689, 0.0922382772, 0.1264643967, 0.0536827184, 0.1111856103, 0.1758871675,
0.2136638016, -0.0002994424, -0.1728108674, -0.2116442919, 0.1631010473, 0.0230227336, -0.1306256801, 0.1194763854,
0.0097989123, 0.0349298827, 0.0409119613, 0.1397483647, 0.1495274603, -0.0724098831, 0.0546102151, 0.1365612745,
-0.0380236842, 0.0019488249, 0.0645236745, -0.0804747269, -0.0020179297, -0.0023214964, -0.0980020314, 0.0407720618,
-0.1787928194, 0.0321490876, 0.1461134255, -0.0159438923, -0.0816774592, 0.1635331362, 0.1710907072, -0.0115763806,
0.1471315473, 0.1996718943, -0.0151856169, 0.0531224310, 0.0964239389, -0.0073234690, -0.0703136325, -0.1180076376,
0.0689696893, -0.0323177353, -0.0463507697, 0.0944276899, 0.0227868110, 0.1526260078, -0.1144167781, 0.0538862906,
0.2290334404, -0.0738523304, 0.0734992847, 0.1694062650, 0.0957257822, 0.0732888132, 0.0126560694, 0.0531692728,
-0.0137517788, 0.0764188170, 0.0432783440, -0.1523154974, 0.0227346607, 0.0694145262, -0.1597181410, 0.0017179182,
-0.2432955205, -0.1605839133, 0.0328996554, -0.0849663839, -0.0143012749, 0.1208846122, 0.1586562842, -0.0319737084,
0.0235472936, -0.1474416852, -0.1182100698, -0.0072303787, -0.0924701989, -0.0603048950, -0.0804018229, 0.0143265547,
0.0348762833, -0.1116066873, 0.2624312639, -0.1934041083, -0.0574943125, -0.1258232445, -0.2422304153, -0.0373200849,
0.0405420065, 0.2186751515, 0.0497220606, 0.0290728416, 0.1547189057, 0.0435849763, -0.1070303842, 0.0458461121,
-0.1038563251, -0.1323856264, 0.0171073694, -0.1099537387, -0.0923439786, 0.0454107076, -0.2158888280, -0.0487861447,
0.1054120138, 0.1867174059, 0.0975507572, 0.4654578269, -0.0528300628, -0.0242759194, -0.0217068028, -0.3308742046,
0.0223161131, 0.0181953944, -0.1423020214, -0.1890620887, -0.1508852094, -0.0860529914, -0.0663846359, -0.0052182013,
-0.0341840982, -0.1320455521, 0.1248993352, -0.0720321089, -0.1329945624, -0.2025626749, -0.2336647511, -0.1488538086,
0.0074752783, 0.0669630170, -0.1907681972, -0.0919620842, 0.1789454967, -0.0995046645, 0.0666395798, 0.2292554826,
0.0033149028, -0.0773642734, 0.0219097175, -0.1156751290, 0.0085346382, -0.0434927605, -0.0664528459, -0.0027342704,
-0.0444406085, 0.0418896712, 0.0636165589, -0.0364492163, 0.0223185867, 0.0782262608, 0.0804243013, 0.1159991100,
0.1323217750, -0.0365602784, -0.0505742468, 0.0223956089, 0.1906556636, -0.1061444432, -0.0186089966, 0.1399930716,
0.0639222935, 0.0863604099, 0.0626812130, -0.0925325975, -0.0453597568, -0.0995401591, 0.0272160564, -0.1079889238,
-0.0271130595, -0.1313104331, -0.0313604474, 0.1157953590, -0.1027583033, 0.0831909031, 0.0791896656, -0.1272290796,
0.0989910737, -0.0265168939, -0.0210420601, -0.0351683274, -0.0767658055, -0.0749680176, 0.0369370170, -0.1138061732,
-0.0467037819, 0.0550045818, -0.0964993834, -0.1684872806, -0.1423387378, -0.1788883656, -0.1206378862, 0.2252531797,
0.2277036905, -0.0652141497, 0.1590999216, 0.0162447747, 0.0168121960, 0.1414753646, 0.0803893283, 0.0140895834,
0.0112602245, 0.0925852805, 0.1067281887, 0.0075426023, 0.0898146853, 0.0415408798, 0.0433096141, 0.0132777561,
-0.0503707677, 0.0407904871, -0.1603328586, 0.0340612233, 0.1342838854, 0.0136801098, 0.1835821420, 0.0257221069,
0.0940177217, 0.0653423220, -0.1050321683, 0.0207015611, 0.0690386668, -0.0153840259, -0.0182443485, -0.0304049645,
-0.0120913237, 0.0139986360, -0.2832820714, -0.0085653905, 0.0461708643, -0.3304882348, 0.1596198827, 0.2573066354,
-0.2353847921, 0.0089131044, 0.0993767604, 0.1136587858, -0.0641008765, -0.0159453638, 0.1712503135, 0.1604042947,
-0.0673272312, 0.1402034014, 0.0248908680, -0.1939337403, 0.0207367111, 0.2537846267, 0.2519327104, 0.0962616801,
0.1249561980, -0.3346628845, -0.0520731471, 0.1244708523, -0.1662055403, 0.1051265821, -0.1353228837, -0.2404105663,
0.1674642116, -0.1322438568, -0.1168340519, 0.0191443991, 0.1227303594, 0.1299787015, 0.0147854090, 0.0113859382,
-0.0699510649, 0.1225175783, 0.0323970728, -0.1684808582, -0.0373284034, -0.2453575879, -0.1517100036, -0.1038231552,
-0.3452792168, -0.3483190238, -0.0808343887, -0.2091630995, 0.0236111209, 0.0981704071, -0.0056202463, -0.0034781715,
-0.0702582598, -0.0852565765, -0.0594473146, -0.1931990385, -0.0884414688, -0.0734073520, -0.0113633266, 0.0395614281,
-0.0916824415, -0.0008241956, 0.0931644365, 0.1914157122, -0.1020602882, -0.0898115933, 0.1171837747, -0.0071843700,
-0.3603258133, 0.0085444851, -0.1547280401, -0.2771934569, -0.0130927740, -0.2810534835, 0.0051082536, 0.2406009436,
-0.1897381097, 0.2242883295, 0.1839968711, -0.0746168271, -0.2112911344, 0.0283958632, -0.2022965699, -0.2619929016,
0.2571514249, -0.1975729465, 0.0862817019, 0.3059132993, 0.0019222508, 0.1458234489, -0.2506664097, -0.0311817136,
0.0158972889, -0.5223592520, -0.0045553073, 0.0521299206, -0.2320833951, 0.0518940650, 0.0816300511, -0.0178087093,
-0.0517581329, 0.1003809944, -0.0463435724, -0.1288189441, -0.0042707627, -0.0889503956, -0.0693031326, 0.1659556180,
-0.1020967886, -0.0071073817, 0.1598080546, -0.0661712438, 0.0963056237, 0.1165725514, -0.0301308353, 0.0158864334,
0.1367971599, -0.0212566536, 0.1020781398, 0.0317534879, -0.2363661230, -0.0813218355, -0.2391855866, -0.3044326901,
-0.0006871834, -0.0100087784, -0.0139278704, -0.0545145385, -0.0370762013, -0.0398937613, -0.0567174442, 0.0173277557,
-0.0193840172, 0.0185178425, 0.0235831309, -0.0474806242, -0.0329009518, -0.0400548317, -0.0478064083, -0.0972762108,
-0.0283504874, -0.0136487056, -0.0243635643, -0.0164487772, -0.0711898804, 0.0388240218, 0.0001868712, -0.0384340137,
0.1290234327, -0.0152381677, -0.1506331563, 0.0975590274, -0.0251957178, -0.0252919998, 0.0669584200, -0.0277152676,
-0.0588751733, 0.0701871887, 0.0462805368, 0.0999914855, -0.0470308512, 0.0207683034, -0.0659747422, -0.0371933170,
-0.0189369377, -0.0820792541, -0.0507709384, -0.0786721408, -0.1165698916, 0.0272478554, 0.0072644777, 0.0268935673,
0.0375438966, 0.0047579515, 0.0545548983, 0.0618164688, 0.0660007820, 0.1086139157, 0.0676661581, -0.0974050537,
-0.0948252082, 0.0789860263, -0.0186827071, -0.0920723677, -0.0144570302, 0.0220335238, -0.0150381187, -0.1025534496,
-0.0593481138, -0.0552741438, -0.1057718322, -0.1222247556, -0.0376738347, -0.0987278894, -0.0763130412, -0.0432596095,
-0.0219150726, 0.0240655094, 0.0602601543, 0.0013236672, 0.0258633271, 0.0560097694, -0.0866307989, -0.0959833190,
-0.0486425385, 0.0432793275, 0.0717826337, -0.0266274475, 0.0450442061, -0.0071177003, -0.0188799370, 0.0306540299,
-0.0244545303, 0.0411555097, 0.0261040740, 0.0247547012, 0.0545567982, 0.0101215784, 0.0250296816, -0.0203575641,
0.0186489765, -0.0010982979, 0.0348120779, 0.0200133249, 0.0317239389, -0.0580931194, 0.0688056275, 0.0163961519,
0.0346735753, 0.0668727830, -0.0072509404, -0.0669540912, 0.0070565217, 0.0154272728, 0.0012436250, 0.0113862166,
0.0094933333, -0.0534437113, 0.0087207826, 0.0217502024, -0.0043074586, -0.0411489159, -0.0532307737, -0.0410390049,
-0.0523327515, -0.0201749541, 0.0279871784, -0.0044931355, 0.0476357825, 0.0159561019, 0.0163636729, -0.0028738710,
-0.0123082753, 0.0389849283, 0.0358645730, 0.0308058988, -0.0550683104, 0.0258411858, -0.0485178791, -0.0018783505,
-0.0015387126, 0.0428209417, -0.0359485485, -0.0225033481, -0.0386977457, 0.0138742747, -0.0528037772, -0.0424952209,
-0.0030723363, 0.2125112116, 0.0418471582, -0.0273022279, 0.2164938599, -0.1252637506, 0.0559917018, 0.0579796173,
-0.0809780359, -0.0802781209, -0.2452913523, -0.0139616011, 0.1309668124, 0.0009600933, -0.0177073330, 0.2285703719,
0.1859142482, 0.0795015395, 0.0102806026, 0.0328251570, 0.0087279268, -0.1526553482, 0.0481297076, -0.0507339984,
-0.1248474270, -0.0647892132, 0.1024944410, -0.2256718874, -0.1005588248, 0.0919315144, 0.0232901573, 0.2016107589,
0.1979313791, 0.0313134752, 0.1990777999, 0.2105498314, -0.0175219830, 0.1343459338, -0.0497702584, 0.0937435329,
0.0771916583, -0.0969491377, -0.0357539952, 0.0919345915, -0.0123037705, 0.1257816851, 0.2188061029, 0.1627073288,
0.0691529289, 0.1213394701, -0.0956004784, 0.0333127119, -0.0917889699, -0.3129020035, 0.0244106147, -0.4128203094,
-0.1611095518, -0.0341617577, -0.1215242967, -0.2869788706, -0.1341661066, 0.1062240750, 0.3019206226, 0.1757810116,
-0.0508416407, -0.0525527634, -0.0274969153, 0.1026467159, -0.1887183189, -0.0288002212, -0.0518353619, -0.1861977130,
0.0282862876, -0.2303172797, -0.0343171060, 0.0660212412, -0.2834389508, -0.1141780987, 0.0845128521, -0.0693011209,
-0.0740983635, -0.0220111590, -0.0720933154, -0.1373096704, -0.0066239806, 0.0567828864, 0.1082697287, -0.0310690645,
-0.0942591354, 0.2157406360, 0.1108784154, 0.1240689158, 0.2131613940, 0.1924155653, 0.0023390527, -0.1165104657,
0.0067859106, -0.2180271000, -0.2350942940, -0.1635811031, 0.1066033989, 0.2868680060, -0.0918019414, 0.0353463031,
0.1033494920, -0.2240409702, -0.2617988288, 0.0993850604, 0.0404446311, -0.0400006697, -0.0910370946, 0.0990808085,
-0.0110029830, 0.0832206458, 0.1405500770, 0.1565191448, -0.0194038730, 0.0285971109, -0.1226591244, -0.1886226684,
0.1952716708, 0.1966778636, 0.1649863869, 0.0398704112, 0.0723325610, 0.0933717042, -0.0610224307, 0.0259709917,
-0.1621716172, -0.0376403257, -0.2362129092, -0.3123196661, 0.2529750466, 0.2410861105, -0.1577549279, -0.0449278988,
-0.1615378112, -0.2491991520, 0.0662025660, -0.1432992518, -0.1019373089, 0.3200510144, 0.3972675800, 0.1846567541,
-0.1027290151, 0.1056812033, -0.1724651009, 0.0942699388, 0.0720770061, 0.0036031676, -0.0460390560, -0.0075969249,
0.0674230233, 0.0160249472, -0.0054545524, -0.0907133073, 0.0734943449, -0.0338052399, -0.1530735791, 0.0123691987,
-0.0457550511, -0.0226787794, 0.0363001004, -0.0539991818, 0.0051662396, -0.0419556201, -0.0083569828, 0.0263435468,
-0.1011752635, 0.0739657059, 0.0936354175, -0.1353355348, 0.0327355377, 0.2446767241, -0.0512208119, 0.2097492069,
0.1284695119, 0.0590413325, -0.0591551475, -0.0536396727, -0.0320941582, -0.0977304950, -0.1523079872, -0.0889189914,
-0.0540668368, -0.0076030074, -0.0482591055, -0.0119598703, -0.1386349201, -0.0184256453, -0.0241309796, -0.0997234955,
-0.0997088999, 0.1199563146, 0.0929480717, -0.1222287416, -0.1157381833, 0.1097409800, 0.1452906728, -0.2434913069,
-0.0171922557, 0.2102285177, 0.1360173225, 0.1138789356, 0.1284833103, 0.0164690390, -0.3069298565, 0.0186531469,
-0.0954937786, 0.1408512890, -0.0046829823, 0.0053847670, 0.1087147743, -0.0208439659, 0.2075401843, 0.2249175757,
0.0673813596, -0.0435311534, -0.1797676235, 0.2074402124, -0.0055792527, -0.0898437425, 0.0644292831, -0.0866937637,
-0.0104690967, 0.0348286517, -0.1007860005, -0.0358559750, 0.0408306643, -0.0116803637, -0.1653389931, 0.1387746334,
-0.0225580912, -0.1401411295, 0.0756088793, -0.0001345244, -0.1719334275, 0.0818557739, -0.0608988553, 0.0485133491,
0.1502052993, -0.0863598660, 0.0684099570, 0.2849590182, -0.0039854152, -0.2390818894, 0.4460799098, -0.1117973253,
-0.3087888956, 0.1611323655, 0.0364224687, -0.0035817192, 0.0346133783, -0.0537607074, -0.0208195299, 0.0962583646,
0.1289987415, -0.0245797746, -0.0053585484, -0.0395547189, -0.0387352519, -0.0882541388, -0.1757515073, 0.0037127465,
-0.2052010596, -0.2724297643, 0.1799554527, -0.0236339364, 0.0308675859, 0.1414276809, -0.1406696886, 0.0284820925,
0.2220470458, -0.2860440612, 0.2005214840, 0.3335907161, -0.4439864755, 0.0429769345, 0.1204988211, 0.0174761508,
0.1668924838, -0.2486339062, 0.0687375590, 0.3217017353, 0.0506501086, 0.0336084962, 0.1402052790, -0.0393374711,
0.0132251456, -0.0618997328, -0.0594205223, -0.1496161520, -0.1176997349, -0.0595751666, 0.0928135514, 0.0747316182,
-0.0362365693, 0.0856283605, 0.0748950616, 0.0776949525, 0.0724912286, -0.0099005783, -0.1168669090, 0.0861405358,
0.0623851158, 0.0204744376, -0.0260036960, 0.0099835163, -0.0043971287, 0.0272847544, -0.0816207752, -0.1201161444,
0.0588412285, 0.0232524425, 0.0462332368, 0.0155942366, 0.0273634139, 0.0258837696, 0.1254404932, 0.1558759809,
0.0239160955, 0.0245683175, 0.1140033752, 0.1384289712, -0.0021296751, -0.0117292423, 0.0656664670, 0.0839136019,
-0.0753599629, -0.2211563736, 0.2207464278, 0.1500030011, 0.1499049366, 0.1522345692, 0.0227009859, 0.0582026020,
-0.0039407169, -0.0336056203, 0.0234293733, -0.1554546505, -0.1230577305, -0.1481103897, -0.1085066497, -0.0607700981,
0.0211947765, -0.0846874118, 0.1105064824, 0.1523750126, -0.1050189808, 0.0351115838, 0.1125167534, -0.0226256493,
-0.0188434906, 0.1117431074, -0.0413806587, -0.1058064923, -0.1157525703, 0.0638141707, -0.1545054913, 0.0697752237,
0.0679871961, -0.0082455622, 0.0994379371, -0.0500599742, -0.1612143666, -0.1157272831, -0.0529162735, -0.1187208816,
-0.0257352293, 0.0036506748, -0.0316461474, 0.0463092327, -0.0006783813, 0.0374344401, 0.1213046163, 0.0622351617,
0.0934888721, 0.0782573000, -0.1518429965, -0.1607314348, 0.0041641947, -0.1537963748, -0.3213011324, -0.1800429523,
-0.0334281214, -0.2091897726, -0.1566969752, -0.1435142159, -0.0469023101, -0.0019597430, -0.1520342231, -0.0150215998,
-0.0454965606, -0.1278165132, 0.0147016011, 0.1036895290, -0.0831980482, -0.0167102627, 0.0130096227, -0.0647870824,
-0.1054667234, 0.0524680465, -0.0806196183, -0.1842213273, -0.1482481062, -0.0404785983, -0.0354764946, -0.0072416672,
0.0120548308, -0.0066479142, 0.0184409320, 0.0709109306, -0.0005468989, 0.0033258386, -0.0496444553, -0.0115789715,
-0.0172403716, -0.0498487279, 0.0680008531, 0.1693714112, -0.0084634060, 0.0463536978, 0.0309169684, -0.0281863678,
-0.0027436286, -0.0832232162, 0.0539447665, 0.0531723760, 0.0278323628, 0.0464771800, 0.1194082946, 0.0543090850,
-0.0690177828, -0.3442270458, -0.1624854952, -0.0616572723, -0.0505483672, 0.1058897302, -0.0127782803, 0.1039797366,
-0.0628305376, 0.1268994957, -0.1012908816, -0.0343578756, -0.1547486633, -0.0284629539, -0.0488012284, -0.0118295699,
0.0326803327, -0.0312103070, -0.1442148685, -0.0331056342, -0.0905638933, 0.1241924912, 0.0603835657, -0.0121297268,
-0.1534612626, 0.0860335007, -0.0113681238, 0.1113218144, 0.2438927740, 0.0575266480, -0.0287204459, -0.0064274888,
0.3924793601, -0.0831169561, -0.0013708104, -0.0372856632, 0.2853435278, -0.0319116227, -0.1597014368, 0.1937446445,
0.0758022219, 0.1714559197, 0.0836736858, -0.1493022740, 0.0903457627, 0.0331759416, -0.1919495612, -0.1448507905,
0.1084299311, -0.1077716798, -0.2831734121, 0.1210739166, 0.1931201965, 0.1348499060, -0.3085351288, 0.1587977260,
0.0470489003, -0.0486761034, -0.0631834269, 0.1844613701, -0.1472430229, -0.3423953354, -0.1027978584, -0.3398742378,
-0.2485446483, -0.1744293869, 0.0423414074, 0.1235747486, 0.0161102079, 0.1589319557, 0.1180986837, 0.1833075434,
-0.0106094535, -0.1337377578, -0.0653517395, 0.0111732185, -0.0208044145, -0.0874552503, 0.0241212789, 0.0657649636,
-0.1026364490, 0.1054584458, 0.1349128038, 0.2924201787, -0.0365645103, 0.0945781022, 0.2479292005, -0.4028069675,
-0.3113568425, -0.0795428306, -0.1729654372, -0.1521504968, 0.0195815172, -0.0390409976, -0.1487237364, -0.1204864159,
0.1654235274, 0.2253935188, -0.0298795905, -0.0441043787, -0.0021371671, 0.1405139863, -0.1897499263, -0.2056740969,
0.0123143857, 0.3486612737, 0.0845156983, -0.1329817325, -0.1164297163, -0.1457607150, 0.0613539554, -0.0860413536,
-0.0075666113, -0.2907277942, 0.0463640280, 0.1893249005, 0.0638493598, 0.0203818567, 0.1795089543, 0.0840799212,
-0.1083715558, 0.2204611897, 0.1283817589, -0.3763041794, -0.0645351112, 0.1057257280, -0.0924349353, -0.2282483280,
-0.1550529897, 0.0032226930, 0.0197204240, 0.0030078876, 0.1166431457, 0.1926371455, 0.1592733860, -0.0978149399,
-0.0151627278, -0.0159086566, -0.1048942432, 0.0086088357, -0.1268405169, -0.1571992487, -0.2247034609, 0.0245702993,
-0.0531773083, 0.1374337971, 0.0022070608, -0.0721784607, 0.1078853011, 0.2498131990, 0.0228347536, -0.3003932238,
0.0688519329, -0.1218616515, -0.1038462967, -0.0425993539, -0.1064575836, -0.0511831641, 0.0448881499, 0.0638220757,
0.0144446287, -0.0564541854, 0.0489913486, 0.1678796113, -0.0340505205, -0.0687414184, -0.0944745690, 0.2305552065,
-0.0663228109, -0.0420075320, -0.1492916346, 0.0120309275, 0.0844458342, 0.1454885304, 0.0622680634, 0.1226040572,
0.0561497845, -0.1225453019, 0.0935678408, -0.0352646969, 0.1636341512, 0.0422574282, 0.1289920509, 0.1344717890,
0.0306220017, 0.1362141669, -0.0788072646, 0.0142976092, -0.0580487140, 0.0646527559, 0.0946504772, 0.0594185255,
0.0235438701, 0.2189283371, 0.1313955039, -0.0825511217, -0.0587693490, 0.0058414531, 0.0169425793, -0.0913827345,
-0.0184514411, 0.0786401257, -0.0162918642, 0.0262214616, 0.0642756075, 0.1145031005, 0.0883340165, 0.1250601858,
0.1532093138, 0.1172076762, -0.0346655808, -0.0224174112, -0.0817418322, -0.0199568495, -0.1010932475, 0.0507581159,
-0.4027190804, -0.2866856754, -0.1935244501, -0.1307862997, -0.1543407589, -0.0674290136, -0.0137484474, -0.0725846738,
0.0645054877, 0.0939659998, -0.0406653807, -0.0799530074, -0.0712503195, -0.1533145458, -0.1978114694, -0.0354376249,
-0.0861509144, 0.0257092770, 0.0320760831, 0.0046112230, -0.1066130921, 0.0663048849, -0.0132062323, -0.0212995075,
-0.0775203183, -0.0891337022, -0.0655309707, -0.1040809005, -0.0943369120, -0.1351056397, 0.0929951221, 0.1597421765,
-0.0927599594, 0.1684722751, 0.2153315693, 0.0414673686, -0.1375710517, -0.2678401768, -0.0536665507, -0.0572080538,
0.1274142712, 0.0514843389, -0.0233788956, -0.0504269749, -0.0653076172, -0.1713773012, -0.0901372284, 0.1192332506,
-0.2602966428, -0.2176680118, -0.0775403827, -0.1468938589, -0.0162314419, -0.0783042312, 0.0985982791, 0.0567383245,
0.1873512715, -0.0814865753, -0.0199372377, 0.0250831749, -0.1547257453, -0.1737369895, -0.0884829462, -0.1125076562,
-0.0820978582, -0.0161337927, -0.0143396845, -0.0823345408, 0.0745281354, 0.0127889356, -0.0927946493, -0.0126842074,
0.1257542074, 0.1418224722, 0.1102380157, 0.0223192424, -0.0569945052, -0.0203987639, -0.0879936218, -0.0183935296,
-0.0474019386, 0.0475363806, 0.0837039724, 0.1283188909, 0.0694186911, 0.1049935669, 0.1306190044, 0.0751773268,
0.0670036599, 0.1331547350, 0.1423548311, 0.1382076144, 0.0804637969, 0.1157660782, -0.1539061964, -0.0153755751,
-0.0603772327, -0.1962080896, -0.1599023342, -0.0372571312, -0.0079290941, -0.0030543930, -0.0541229099, 0.1734346598,
0.1148175821, 0.0622120127, 0.3200952709, 0.0251410510, 0.0458855629, 0.0533958562, 0.1254656464, -0.1384999305,
-0.1017133817, 0.1108567491, -0.1199890301, -0.0490806364, -0.0010563853, 0.0293824580, -0.1086378694, -0.0788966566,
0.1260465235, -0.0789989680, -0.1326567382, 0.1012597606, -0.1141918451, -0.1806425154, -0.0757439658, -0.2015876025,
-0.0895328000, -0.0857082307, 0.1018547267, 0.1756705642, -0.0211837664, 0.0841851234, 0.2049465179, -0.0125730932,
0.1529779881, 0.2267530859, -0.1770276278, 0.1808358878, 0.2858013809, -0.0475271530, -0.1736707836, -0.0139196673,
-0.0810834989, 0.1188066080, 0.0256337617, 0.0508749001, 0.1507999897, 0.0805607960, -0.0151943583, -0.0253979433,
-0.0602925643, -0.0663110688, -0.1079932749, -0.0459205620, -0.0705702677, 0.0684021786, 0.0274991691, 0.2294320017,
0.0572565235, -0.0799615309, -0.0461756811, 0.0803103000, -0.0315403529, -0.0621531345, 0.1770861149, -0.0125835165,
-0.0731053650, 0.0049382537, -0.0972846225, -0.1362898797, -0.0359666720, -0.1201484501, 0.1404396892, 0.2291442305,
-0.0972710773, 0.1405227184, 0.2217106372, -0.0216086395, -0.0191375278, -0.0079982365, -0.0610093959, 0.0355842076,
0.1152686998, -0.0116221271, 0.0361221582, 0.0465267748, 0.1198603362, 0.0364643820, -0.0700987428, -0.1754329950,
-0.0881742835, -0.0858893171, 0.0023962618, -0.0151544781, -0.0462969430, 0.0995541438, 0.0750284195, 0.0427256413,
0.0540820658, -0.0205261894, -0.1177580655, 0.0513685830, 0.0294201691, -0.1051461175, -0.0538415089, 0.0504113249,
-0.0937125385, 0.0455263518, 0.0298135597, -0.0113870753, 0.1191567406, 0.0982763022, 0.1639948785, 0.0582933538,
-0.0401123576, -0.0305707175, -0.0459605269, -0.0802587494, -0.0269999430, -0.1156187952, 0.1466751993, -0.0264992360,
-0.0107511356, 0.0036195212, -0.2030766904, -0.1159807518, 0.0632275641, -0.2147091031, -0.1614809781, 0.0277340896,
0.0413151160, 0.0239326805, -0.0397823453, -0.1245831475, -0.0546272509, -0.0411222354, -0.1078031883, -0.0988147259,
-0.0611186400, -0.2161167711, -0.0959615111, 0.0324837118, 0.0720023513, 0.0785183907, -0.0989289284, 0.0957828090,
0.1379355639, -0.1218196824, -0.0509609058, -0.0000254071, -0.0067874165, -0.0689139143, 0.0597718880, 0.0227475986,
-0.0283959862, 0.0879848227, 0.0293914806, -0.0203803200, -0.0649163574, -0.1026635244, 0.0331786275, -0.0110634072,
-0.0838137120, 0.0208870694, 0.1157403812, -0.0066758073, 0.0113321999, 0.0061558234, 0.0618321039, -0.0862297341,
-0.0895898491, 0.0826408714, 0.0649415404, -0.0741182044, 0.0516924225, 0.0447176173, -0.0094368439, -0.1384778321,
0.0310757942, 0.0725475177, 0.0365321934, -0.0464642495, 0.0198178347, 0.0300120581, 0.0420570821, 0.0149020487,
0.0397096202, -0.1799713671, -0.1049822271, 0.0579968393, -0.0859007388, -0.1486980617, 0.1278693676, 0.0323114917,
-0.1011294872, -0.0052510407, -0.0952782258, -0.1928972602, 0.0085404711, -0.1367653012, -0.0390959457, 0.1234495118,
-0.0784583166, -0.0587139502, -0.0191599820, -0.1318570077, -0.0303121153, -0.0537813380, -0.0713328198, 0.0865245089,
-0.0584256090, 0.0331915021, 0.0849192590, -0.0363834240, -0.0325239114, -0.1473257095, 0.0413979031, -0.0716464818,
-0.0328051671, -0.0193477962, 0.0439073332, -0.0355712175, -0.0704551563, 0.0052350834, 0.1425646544, -0.0403535664,
-0.0315744951, 0.0557236783, -0.0551209897, -0.0310188681, 0.0331334099, -0.0263814032, -0.1247265041, -0.0696284845,
0.0598211326, -0.0935780704, -0.1645860821, -0.0044545047, -0.1520293653, -0.2023022622, -0.0721872598, -0.1347577274,
0.0119657675, -0.0760068446, -0.1338881105, 0.0908499584, -0.0915263891, -0.1041147932, -0.0766784176, 0.0287573226,
0.0331083089, 0.0655211881, 0.0332753472, 0.0525641367, 0.1486919820, 0.0176469050, 0.0280729234, 0.0822774321,
-0.0189312957, -0.0752848908, 0.1036403477, -0.2113693208, 0.0321287364, -0.1271206141, -0.1401874572, 0.0615283884,
-0.1131968200, -0.0750255659, 0.0435061380, 0.0097362222, -0.0947173387, -0.0215899106, 0.0049723377, -0.0427018031,
0.2313863784, -0.0013369952, 0.0186206140, -0.0936861858, -0.0078937942, 0.2138312012, 0.0353087522, -0.0060511935,
0.1537872404, 0.0040138718, 0.0014985228, 0.0892443806, 0.0640589595, 0.0465882011, -0.1330323964, 0.1553778946,
0.2089135945, 0.0365844294, 0.2158469558, 0.0812401175, -0.0729632601, -0.1216429621, 0.1642640531, 0.0214324407,
-0.1690178216, 0.1503192484, 0.2078362703, -0.1294619739, -0.1124564707, -0.0556522124, -0.0903840587, 0.1259467006,
-0.0092818839, -0.1243493259, -0.0057256846, 0.2042809278, -0.1090551615, -0.1223383695, -0.2273482829, 0.0726108104,
0.0969785675, -0.3211126626, 0.1127333194, 0.1234799996, -0.6098551750, 0.0559335463, 0.1200662330, 0.0373926088,
-0.1052487940, 0.0860522240, -0.1166443601, -0.2657594681, 0.2331490666, 0.1754654646, -0.0995034948, 0.2475185692,
-0.0714047924, 0.1943422109, 0.0586754382, -0.1110549867, -0.0760584772, 0.0754641145, 0.0310769565, -0.0039981934,
0.0374437459, -0.0512310900, 0.1836267710, 0.0392513648, 0.0048229615, 0.1917181909, 0.0705621392, -0.2460055500,
0.0405467339, 0.0801066980, -0.2017242163, 0.1148541942, -0.0576921068, -0.1113095433, -0.0040474716, 0.0416221321,
-0.0370940752, 0.1249361709, 0.0427537151, -0.0406796820, 0.1356219053, -0.0324869007, -0.2349270284, 0.2076047957,
0.0602211766, -0.2619324327, 0.0602798648, 0.1268789172, -0.1640848964, 0.0215840116, 0.2064012736, -0.2380891144,
0.0191401131, 0.2063738108, 0.0468725376, 0.0900659189, 0.0332400277, 0.0030970713, -0.1996911317, -0.2886817157,
0.1967554241, 0.0947335660, -0.2487504333, 0.0763771385, 0.2798647583, -0.0173534248, -0.0392434187, -0.0203478746,
0.0770376623, -0.0204916298, 0.0094039049, -0.0928268135, 0.1342593879, 0.0687857717, 0.0787409768, -0.1606143415,
0.0201427657, 0.2930181324, -0.0885841176, 0.0323409103, 0.1010991335, -0.0437494554, -0.1130330488, 0.0167171303,
-0.0190332327, -0.1247727647, -0.1381732225, 0.0179876443, -0.0971681625, -0.3142223060, 0.0664159581, -0.0889536217,
-0.2251956314, 0.2756401002, -0.1706139445, 0.1304803044, 0.1421237439, -0.0193181727, -0.1728253216, -0.0553433783,
0.1837813705, -0.0027755804, 0.1054957882, -0.1207516044, 0.0972372890, 0.1255418807, 0.0105260191, 0.1428500414,
0.0660113022, 0.0035158196, -0.0090542668, 0.0145768570, 0.1659170985, 0.0722708404, 0.1460430771, 0.1322418153,
0.0969612002, -0.0083250199, -0.0461165272, -0.1194791496, -0.0486281589, 0.0310809668, 0.0034142989, 0.0390023179,
-0.0622191057, -0.1699737310, 0.0340879373, 0.2035359889, 0.0687613338, -0.0328642279, 0.0786698684, 0.1143121272,
0.0721201077, -0.0425384901, -0.0997044742, 0.0903544649, -0.0693486184, -0.2236329764, 0.0102307880, -0.0062382272,
0.1015284881, -0.2073613405, -0.2080513388, 0.0216931719, -0.3237394989, -0.0170183368, 0.0880079418, -0.0930735841,
0.0300321188, -0.2481211424, 0.1980103999, 0.0522026904, -0.1294669807, 0.0473632030, 0.0867892131, -0.3614681661,
-0.1137662604, -0.1720013171, -0.1839453578, -0.1501331627, -0.2515340149, -0.2874484658, -0.0167519860, -0.0485466383,
-0.0926633328, -0.1849335581, 0.0558600686, 0.0069030086, -0.2251457274, 0.1484138817, 0.0379499979, -0.2833582461,
0.0833082870, 0.0835115835, -0.0596543998, -0.0450762510, -0.1353198886, -0.0090677086, 0.0168412197, -0.0986854061,
-0.0217000749, 0.0649034381, 0.0462728105, -0.0976829231, 0.1032356322, 0.1467136592, -0.1706983745, 0.1362277269,
0.2133772075, -0.2234970629, -0.0734466240, 0.0919151604, -0.0927839205, -0.0900310352, -0.0600502491, -0.0725830272,
-0.3138688803, -0.2360451818, 0.0760672465, -0.0429937690, -0.1801016033, -0.0551102757, -0.1428981870, -0.1731939912,
0.0536280721, -0.0307314321, -0.2062129378, 0.0457630716, -0.0690019354, -0.1440933943, -0.0245405883, -0.1476220042,
-0.1210137382, 0.0507216826, 0.0283662733, -0.0220225900, 0.1363861859, 0.0499263629, 0.1668912917, -0.0071484293,
-0.1201169565, -0.1747719347, -0.1816703528, -0.1755099446, -0.1829868853, -0.0447495207, -0.1274479628, -0.1639989614,
-0.1359984279, 0.0650043190, 0.1017691717, -0.0137935355, 0.2106641233, 0.0942628384, -0.1145886034, -0.0646839663,
-0.0850106552, -0.0061050816, -0.0669903457, -0.0734830946, 0.0072773318, 0.0379615836, -0.0991910473, 0.0546508729,
0.1518085003, 0.0359771028, -0.0056372662, -0.1621904224, -0.1361338347, -0.1454241276, 0.0658560321, 0.0779214576,
0.0294803884, -0.0206318535, 0.0067696557, 0.1257251501, -0.0507468618, -0.0662790835, 0.0977805853, -0.0757644698,
0.0591734238, 0.0223297551, 0.0094108870, -0.1199232787, -0.1037034243, -0.0453433879, 0.1804197282, -0.1344622076,
-0.0017726817, 0.3521903753, -0.0167722758, 0.0571332499, 0.1680429280, 0.1084251627, 0.1182665229, 0.0616215467,
0.0411105715, 0.0038910699, -0.1522509903, -0.0588011183, -0.0986076295, -0.1308916509, -0.0209210515, -0.0148307113,
0.0013120637, 0.1126549989, -0.0723756850, -0.0785156637, 0.1377512068, 0.1546660215, -0.2178129554, -0.1954294294,
-0.1430500299, 0.1446747631, -0.0229944475, 0.1883866936, 0.2851949036, 0.0509982519, 0.0906484574, 0.2161081582,
0.0085884556, -0.0406446867, -0.1315125525, 0.0274893958, -0.0647288784, 0.0011591170, 0.1081343591, 0.0281162616,
0.1004626006, -0.0156467743, -0.0219436213, -0.0374973826, -0.0422018915, -0.2424470633, -0.0986470655, 0.0882869288,
-0.1264059693, 0.0651718602, -0.0320925526, -0.1556916386, -0.0117797796, 0.0023848459, 0.0962413624, -0.0785266683,
0.0254258793, 0.1344722807, 0.0836780444, 0.1472789198, 0.0948296487, -0.1134535521, 0.1764348000, -0.1003622636,
-0.3166103065, -0.0369294845, -0.2097411305, -0.1511555016, 0.0148119973, -0.0276650023, -0.0742968321, 0.0416145995,
0.1070006341, 0.0552197807, -0.0815737173, -0.0169787463, 0.0636390001, 0.0388598777, 0.0109094633, -0.1911793798,
0.2160791308, 0.0238286238, -0.2909968495, 0.1717913598, 0.0565247349, -0.3316990435, -0.0351688303, -0.1466478407,
-0.1101911515, -0.0240694899, -0.0725165755, -0.1312835813, -0.2018630505, -0.1361164153, -0.1432710737, -0.1253050715,
-0.1372542828, -0.0940590575, -0.1378955543, -0.0291284751, -0.1021298766, -0.0225262679, -0.0771399289, -0.0209661834,
0.0258543715, 0.1948159039, 0.0028387518, 0.1392157972, 0.1203740612, 0.0307147168, -0.0993559361, 0.0972716585,
0.1144355312, 0.0011205585, -0.0267334245, -0.0105343983, -0.1013798937, 0.0340005308, -0.1195669621, 0.0902523324,
0.1192228422, 0.0466544852, 0.0263112020, 0.0224306379, 0.0085600093, -0.1288184524, -0.0249614473, 0.0224201269,
-0.0329894572, -0.0062233238, -0.0997971147, 0.0522694811, 0.1421887279, -0.0386358984, 0.0981849730, 0.0302057024,
-0.0030115356, 0.0059736255, -0.0865193456, -0.0861611217, 0.0319422968, -0.0120745907, -0.1077171117, 0.0174356662,
0.1248094290, -0.0197577830, -0.0435021408, 0.1107657999, -0.0585269965, -0.0354483761, -0.0138096334, -0.0366924368,
0.0768624246, 0.0549957938, 0.0085642440, 0.2293063700, 0.0194791034, 0.0462735780, -0.0592559911, 0.0728084669,
0.0235071145, -0.0367509238, 0.0318128876, -0.0172936358, -0.0163259394, 0.1206395403, 0.2049079090, -0.1344288439,
-0.1293401867, -0.0217633471, 0.1014847234, -0.0480749831, -0.1310125291, -0.0387867242, 0.0708068535, 0.0312505998,
-0.0794581100, -0.0398357064, 0.0134237250, -0.0286469590, 0.0702237487, 0.2349611521, 0.1366077363, 0.1070234403,
0.1686972678, -0.0932529122, 0.0898886248, 0.0923552960, 0.0369760320, -0.0313225873, 0.0031584471, 0.0488562994,
-0.1093507409, 0.1454703063, 0.0784872100, 0.0597979352, 0.1238411739, -0.0138755823, 0.0598006658, 0.0861148909,
0.0376627855, 0.1608904451, -0.0104058124, 0.0223770589, -0.0491423756, 0.0033905972, -0.0332315639, 0.0253818966,
0.0824712887, 0.0184667148, -0.0004706183, -0.0051158457, -0.0057965419, 0.1506323814, 0.0095785623, -0.0294941161,
0.2202928215, 0.2479189485, 0.0411813818, 0.2069477439, 0.0755984634, -0.0237676874, 0.0516562238, -0.1343678236,
-0.0342463516, 0.1652425379, -0.0876046866, -0.0819607005, -0.0193718001, -0.0358020999, -0.0925403908, -0.0456133112,
-0.1089135632, 0.0071285279, 0.0068995883, 0.0242969301, 0.0650945529, 0.1270008832, -0.0627103373, 0.0802790001,
-0.0358670577, 0.0308206175, -0.0050178617, -0.0229004398, -0.0557764508, -0.0214311518, 0.0123818349, -0.0457319766,
0.0012054137, 0.0450655408, 0.0534000471, 0.0300475527, 0.0862789154, 0.1178793311, 0.1761469692, 0.2654975951,
0.1233924553, -0.0912163779, -0.0194566455, 0.0783002600, -0.0102994088, 0.0782114714, 0.1164620817, 0.1370893866,
0.1006896868, 0.0968369767, -0.1561525911, -0.0598957762, -0.0066438043, 0.0218978059, 0.0123659438, -0.1087948978,
0.0040317951, 0.0275890231, -0.0978145674, 0.0439276844, 0.0964058936, -0.0201345943, -0.0129254693, 0.0042025126,
-0.0542263798, -0.0896342769, -0.1652800888, -0.1668341160, -0.0303615443, -0.0737264305, -0.0176773313, 0.0104356492,
-0.0233000703, -0.0001575373, 0.0808496252, 0.0988053083, -0.0234776102, 0.0496722981, 0.0162854716, 0.0199222751,
0.0857776180, 0.0472182147, 0.1015658379, -0.0168737974, -0.0072177653, -0.1068866178, 0.0321777947, 0.0031473066,
0.0385766253, -0.0256388374, -0.0079811700, -0.0084568271, -0.0167046580, -0.0369056053, -0.0019474250, -0.0329921618,
-0.0652307197, -0.0883196741, -0.0795754641, -0.0335565098, -0.0412150435, 0.0306039024, 0.0052427514, 0.0127742076,
0.0122747403, 0.1241266653, 0.0828175545, 0.0026214754, 0.1012169942, 0.0469514728, 0.0324944891, 0.0574910082,
0.0146278217, -0.0133866509, 0.0050133048, 0.0347430594, -0.0939504653, -0.0017730745, 0.0650322437, -0.0607285462,
0.0235724058, 0.0797888339, -0.0406892374, 0.0729919374, -0.0525166169, -0.1142410785, -0.0237453468, -0.0654572919,
-0.0570883863, -0.0072911782, -0.0237970334, 0.0271792393, 0.0088260239, 0.0670724437, 0.0121036032, 0.1020360216,
-0.0174583606, 0.0215871297, -0.0148299327, 0.0850673690, -0.0851178691, 0.0212498177, -0.0330129415, -0.0259915590,
-0.0172538254, -0.0198525134, -0.0119965598, 0.0332649313, -0.0266473684, -0.0290725604, 0.0106663750, 0.0270536207,
-0.1130038202, -0.0842914283, -0.0159599688, -0.0427675396, -0.0544173904, 0.0424082391, -0.0093546398, 0.0011540627,
0.0197273549, -0.0282308627, -0.1761818975, -0.1019522399, -0.0909696668, -0.2234174460, -0.1619528830, 0.0293977782,
0.0381348133, -0.0771009848, -0.0615378357, -0.0462246016, -0.0119163394, -0.0652507544, -0.0621062405, -0.1002375185,
0.0950119272, 0.1232352704, 0.0169726666, 0.0316834226, 0.0521876253, 0.0710970387, 0.0520870164, -0.0651137009,
0.0049472963, 0.1614972055, 0.0331788361, 0.0288422853, 0.1025453657, -0.0700682551, -0.1578653455, 0.0924384668,
0.1873576939, 0.1074784994, -0.0874887928, -0.1053630859, -0.0874824300, 0.0096429028, 0.1306109875, 0.2911408842,
0.1104694605, -0.0280639138, 0.1217716783, -0.0375908576, 0.2852353752, -0.0595295839, 0.1873358637, 0.3148351014,
-0.0251549706, 0.0825024992, -0.0959953144, -0.1175376400, -0.1392868757, 0.0076317270, 0.0334813297, -0.0336615443,
0.1813385636, 0.1105953902, 0.0616917871, -0.1236117557, -0.1783886850, -0.0147383474, -0.2143519521, -0.1525962800,
-0.1022366881, -0.1401483268, -0.1202445701, 0.1422251165, 0.3460623026, 0.2460065335, -0.0227811150, 0.1375063509,
0.1240875348, -0.1094497666, 0.0381435119, 0.1334072351, -0.2137684226, -0.1010428295, -0.0954051167, -0.2009988725,
-0.1388197243, 0.0533173606, 0.0175180826, 0.0807549134, 0.0695655495, -0.0645714775, -0.0235829651, -0.0758382529,
0.1336930692, 0.0405460708, 0.0280018430, -0.0160527136, -0.1721478701, -0.1186729223, -0.0671296790, -0.1983811259,
0.1075201035, 0.0176723879, 0.0858014748, 0.1450497508, 0.1652172059, -0.0198440216, -0.1264994591, -0.0182671677,
-0.3481932580, -0.1982254535, 0.0621361025, 0.1458219290, -0.0763110444, -0.2042703629, -0.0803474933, 0.0344037600,
-0.0319573432, 0.0109121874, 0.1909533292, 0.1777397841, 0.0240977146, 0.0413975678, 0.0781620368, -0.1012880653,
-0.1269043833, -0.0871960744, -0.0911384374, 0.0732372180, 0.1876518577, 0.1742165685, 0.0884970501, -0.0633610487,
-0.1545479894, -0.2917690277, -0.2126580477, -0.1410104781, -0.0105069457, 0.0515382923, -0.0806468278, -0.1102975160,
-0.0013761789, 0.0112571893, -0.0476343334, -0.1338635683, -0.1392086446, -0.1777604222, -0.1868811399, 0.0173244253,
0.0410077944, -0.0051050782, 0.0673915148, 0.0611315705, 0.0379528366, 0.0488627665, -0.1220364347, 0.0871198550,
0.1618845165, 0.3487328887, 0.0507367700, 0.0022661162, 0.0547481105, -0.1040004417, -0.3268776238, -0.4300525784,
0.0326809213, 0.1611299217, 0.1247450858, 0.0846824646, -0.0729510412, 0.3123079836, 0.1152000949, -0.2574033737,
0.0452531427, -0.0959567800, -0.0402979814, -0.1620627195, 0.0082102297, -0.0894114375, -0.0226133708, 0.2054873109,
0.1856256723, -0.0063005993, 0.0863337368, 0.0590895638, -0.0132001154, 0.0369511954, 0.0354898684, -0.0609174743,
0.0498108231, 0.0344597623, 0.0009923142, -0.0784368962, -0.1557350606, 0.0207444318, -0.0539688617, 0.0250358563,
0.2714780867, 0.0804657117, 0.1846851557, 0.3583476245, 0.1268268973, -0.0611265264, -0.0038648897, -0.1857753992,
0.0344263688, 0.0929512680, -0.0635282844, 0.0867823288, -0.0146716014, 0.1052931026, 0.0029250137, 0.0802880228,
0.0920535773, -0.0526992865, 0.2213855833, 0.0338327363, -0.1521455795, 0.0811558664, -0.0463978834, -0.1040339395,
-0.1022874042, 0.0869828835, 0.2394997030, 0.2612766922, -0.0644920021, 0.1240135208, 0.2177260220, 0.2483863980,
0.1279664785, 0.0722446218, -0.0987684727, -0.1452979445, -0.1939845830, -0.0206892714, 0.0589400232, -0.3639095128,
-0.0536311120, 0.2053278685, -0.0207268372, 0.0193893258, 0.0852034241, -0.2397427112, 0.0037578568, -0.1724467129,
-0.0892924517, -0.0891374946, 0.0083954036, -0.0424036272, 0.0641535223, 0.2342364639, 0.0299663674, -0.0291479845,
0.1545148641, 0.0228288621, -0.1124856845, 0.1205898970, -0.1307365000, 0.0818834305, 0.1283686608, -0.1027272120,
0.1525271833, -0.0812266767, 0.0239964314, 0.0635693595, 0.0481580496, -0.0286618154, 0.1749929637, -0.0112453336,
-0.2386297882, 0.0543382280, -0.0226519946, -0.2187153697, -0.0150101911, -0.0028198180, -0.0885615051, 0.1151963919,
-0.0350622870, 0.1101435274, 0.1759296358, 0.0078969505, 0.0468689799, -0.0058216997, 0.0267943405, -0.1051405296,
0.0613339134, -0.0144057190, -0.0222157147, 0.0496929176, -0.0477033220, 0.0171247814, -0.1219740286, -0.2919568419,
-0.1885154396, 0.0045165848, -0.1768878102, 0.1040100455, 0.1835236400, 0.1794511527, 0.3444891274, -0.1855011880,
-0.1514174044, 0.0625441372, -0.1963946372, 0.1794783026, 0.3890171647, -0.0032440326, 0.1168188825, 0.3369346261,
0.1181691289, -0.0981187001, -0.0749518499, 0.1182541400, -0.0312489904, -0.1878743172, -0.0604459830, -0.0054338374,
0.0786852539, 0.0651448891, -0.0361082666, -0.1136905849, 0.0425870828, 0.0117539940, 0.0763751492, -0.0884623677,
-0.0401498303, -0.2029166669, -0.0253478121, 0.1056313142, -0.0644466132, 0.2887595296, -0.0222907681, -0.1948636919,
0.0148584554, -0.0347232707, -0.0064976397, -0.0241924673, 0.1289575398, 0.0775973797, -0.1306075007, 0.0816120356,
0.2907564044, -0.0487502627, 0.1329985112, 0.2187793106, 0.1647618562, 0.1422729194, -0.0442520082, 0.1946613789,
-0.0459611900, -0.2063981295, -0.0667502806, -0.0625167042, 0.1003977284, -0.0018915540, 0.0602813028, -0.0082279304,
0.1050088480, 0.1647885591, 0.0267815795, -0.0538974926, -0.0781745464, -0.0409035571, -0.1401313841, 0.0994988158,
0.2135168314, -0.0870832726, -0.1223774999, 0.0484547317, -0.0520339273, 0.1053124964, 0.1058864519, -0.0072038947,
-0.0616663247, -0.1595819145, 0.0904430076, -0.1824065298, 0.0468606018, 0.0850148499, 0.0001568174, 0.2623478472,
-0.0350462683, -0.0772658885, -0.0342710093, 0.0401220061, 0.1375777870, 0.1787121743, 0.0502681173, 0.0907108262,
0.1753500700, -0.0572006404, 0.0503832959, 0.0615614168, -0.2245001048, 0.0973067060, 0.0960996747, -0.0941996351,
0.1848088801, -0.0419012010, -0.3248418570, -0.1973678619, 0.0340186357, -0.0096254973, 0.1485937387, 0.0676922277,
0.0995304137, -0.0034582708, -0.1342779547, -0.1910107285, -0.2150067985, -0.1281352937, -0.0695929751, 0.0732075199,
-0.0610332154, 0.1370748580, 0.2953641415, 0.1343142837, -0.0981561765, -0.2953713238, -0.1119402945, -0.1888954788,
-0.0030266887, 0.2574551702, -0.0863012895, 0.0460189842, 0.0997737199, 0.0232159384, -0.0154377865, -0.0595025308,
0.0607334562, -0.0630731508, -0.1892520487, 0.1157265678, -0.1570727080, -0.1636431515, 0.1286940128, 0.1044381037,
0.0338227488, 0.0649232864, -0.0060915062, 0.0675730333, -0.0579923056, -0.1754500121, -0.1386925876, -0.0433225892,
-0.1064975634, -0.0284373742, -0.1330216378, -0.0095252870, 0.1255654544, -0.1208012551, 0.0690906197, 0.2215958387,
-0.0699544027, -0.0183961168, -0.0224301573, 0.1590778977, -0.1053761244, 0.1201739237, -0.0480858497, 0.0605262965,
0.0212095901, -0.1126822382, -0.1456915289, -0.0484477319, -0.1434064806, 0.0816790760, -0.1209159866, 0.0209057592,
0.0846295208, -0.0113491789, -0.0003967169, 0.1403481215, 0.0063266056, 0.0040789521, 0.0383522585, 0.0009402420,
0.0584157147, 0.0011651309, 0.0253640004, 0.1426836848, 0.1476820707, 0.0551737770, 0.3521528840, 0.1906809360,
0.0809778646, 0.1772051156, 0.1926796734, 0.0157603230, -0.0060420656, 0.1149109006, 0.2559882998, 0.0180626195,
0.0773832649, 0.0570768341, -0.0041723093, -0.0049245413, 0.0724168196, 0.0845387578, 0.0877175629, -0.1369062960,
0.1746049225, 0.0275886711, 0.0370026194, -0.0748186335, 0.1477754563, 0.1616109759, 0.0373373404, -0.1443564594,
-0.0240725372, -0.0235891845, -0.1315549612, 0.0166865699, 0.0001320860, 0.0822708458, 0.1979882866, -0.0563684143,
-0.1566462219, 0.0320784003, -0.0369022973, -0.0394253172, 0.1011684015, -0.0351319462, 0.1031801254, 0.0904480144,
-0.1242174581, -0.0351753868, 0.0619273372, -0.0167904068, -0.0280276183, -0.0981045216, -0.0422594137, 0.0269430913,
-0.1309929341, 0.0051585678, -0.0617551617, 0.0260558706, 0.0365932882, 0.0710085928, -0.0461404882, 0.1115861237,
0.1395439208, -0.0322213247, -0.0258977618, -0.0908444375, -0.3259784579, -0.0232899636, 0.1063888445, -0.1302660704,
0.0838847682, 0.2619726062, -0.0116228899, -0.1605331898, -0.1010987386, 0.0187511407, 0.1009659246, 0.0306888670,
-0.0379110910, 0.1344394833, 0.1620217115, 0.0264461394, 0.0860898346, 0.1173193008, -0.0032297028, 0.1233954728,
-0.0501140058, -0.1741169095, -0.0397337340, -0.0777132213, -0.0059085647, -0.0456496291, -0.0366464071, 0.1233376190,
-0.0351707228, -0.0582965799, 0.0013628624, 0.0200540889, -0.1510130018, -0.0310857743, 0.1659238040, 0.1315357089,
0.0067186682, 0.1063997224, 0.1269359738, -0.0462333299, 0.1089608297, -0.1104479656, -0.0626569986, 0.1515080929,
0.0275424514, -0.2307772785, 0.0557363592, 0.2378883213, 0.0273202993, 0.0993562937, 0.1590077877, 0.0600182265,
0.0626588538, 0.1334924698, 0.1753798723, -0.0723466724, 0.0448448285, -0.0727821365, -0.1404809952, -0.0605281666,
0.0000024672, 0.0655792281, -0.0546873435, 0.0410162248, 0.0537885353, 0.2043384761, -0.0517735519, -0.1495326459,
0.0186976772, -0.0392483249, -0.1975783408, -0.0996831506, -0.0949701667, -0.0653415471, 0.1629196703, 0.0712804124,
0.0119220633, 0.0006571429, -0.0374655463, -0.0942687169, 0.0627069920, -0.0759328976, 0.0471013598, -0.0189693533,
0.0233395305, 0.0845990106, 0.0631260127, 0.2374082506, -0.0151332915, 0.1534259319, 0.0237153042, -0.1049934402,
0.2251566648, 0.1718823910, -0.0487313643, 0.0823040903, 0.1906917095, 0.1428481042, -0.0872657746, 0.0256430656,
0.0856688619, 0.1923839301, 0.0291629117, 0.1409727335, 0.0721939728, 0.1161180809, 0.1107986271, -0.1433953047,
-0.1177959070, -0.0349415690, -0.1274921298, -0.1203211620, 0.1458108276, 0.0916548371, 0.2042893469, -0.1604479700,
0.0915261656, -0.0914494023, 0.0953390151, 0.1842171699, -0.2049684823, 0.0190936998, 0.0349060372, 0.0049599381,
-0.0045839325, -0.1398873478, -0.0494796932, -0.0767960399, -0.0850636810, -0.0286108684, -0.1409974694, -0.0323917866,
-0.0642119795, 0.1748289466, 0.0995068699, 0.1638696939, 0.0456918515, -0.0081718368, 0.0360637270, -0.1510785371,
-0.2147887796, -0.0626267344, -0.0460643545, 0.1394949555, 0.1832555085, -0.1364263594, -0.0412917882, 0.2014516145,
-0.2009744495, -0.0456366055, -0.0108911367, 0.0721962750, -0.0511132516, 0.0732530132, -0.1155238971, -0.1073487103,
0.0216861665, -0.2270538956, -0.1175403148, 0.0385636948, -0.0019371964, 0.0615183786, -0.0843173862, 0.0273178853,
0.0520143844, 0.1088782921, -0.1195399463, 0.0049836426, 0.0876679793, 0.0070227250, -0.0337093659, -0.1381599158,
-0.0514522456, 0.0593485683, 0.0533887632, -0.0835009888, -0.1659720540, -0.1177091673, -0.1235159859, 0.0152645754,
-0.2253447175, -0.0319966711, 0.0082025230, 0.0159446951, -0.1241136789, 0.1052807644, -0.0087757651, 0.0221343748,
-0.1066696569, -0.1811413467, 0.0995659903, 0.0190071985, -0.1938989460, -0.0647641420, 0.0808879733, -0.0701343566,
0.0610923283, 0.0106148869, 0.0612618066, 0.0766528100, 0.0840979293, 0.1324220002, 0.0977108702, 0.0010282294,
-0.0396224186, 0.0818639845, 0.0214652512, -0.0011703572, -0.0301925503, -0.1224280223, -0.1090553254, 0.1525573134,
-0.0300760753, 0.1623780727, -0.0162861478, 0.3386775553, -0.1158836856, -0.0203342903, 0.1231898218, 0.0470805131,
0.0573882833, 0.0580539070, -0.0046419962, 0.1215834841, -0.0208286252, 0.0988286436, -0.0364488475, -0.0445028841,
-0.0805698186, 0.0257666782, 0.0110088438, 0.0745123848, 0.0121907787, -0.2190256119, -0.1303014010, 0.0326573253,
-0.0589606315, 0.0246871989, -0.0873875320, 0.0428915918, -0.0078147398, -0.1138221100, -0.0675916821, -0.0126348753,
0.0058276434, 0.0999441296, -0.1657356471, 0.0026919500, 0.1893252730, -0.1689216793, 0.0124880057, -0.1399811655,
-0.1464750022, 0.0648166388, -0.2218489051, -0.0867392719, 0.0973694548, 0.0389210284, 0.1187752858, -0.0213348884,
-0.0104129948, -0.1975795180, 0.1445781738, 0.1103530899, -0.0151053984, 0.1192638949, 0.1076863930, 0.0915395021,
0.0505054444, -0.1181306913, 0.0395754687, -0.0760952532, -0.2277630866, -0.1220182627, -0.0464759953, -0.1701828092,
-0.0499630533, -0.1000252888, -0.0175314173, 0.0441809967, -0.1345392168, -0.2017228603, 0.0802930817, -0.0004479249,
-0.1263896972, 0.1692687720, 0.1479214579, -0.1811755598, 0.0112823723, 0.0498287715, 0.0254723039, 0.0874926820,
0.0433008522, -0.0351046324, 0.0503344499, -0.1162919551, -0.1882302165, 0.0742006972, -0.0362399295, -0.0394120067,
0.0905693397, -0.0708086267, -0.1298935264, -0.0112063671, -0.0193454940, -0.1258806884, -0.1144128516, 0.0598359965,
-0.1871106774, 0.0206772964, 0.1948446035, -0.0316221602, 0.0535437576, 0.0029706713, -0.0480187424, -0.1053234115,
-0.0296561886, 0.1859972775, 0.0999087393, -0.0872926041, 0.1122335121, 0.1200009659, 0.0731753632, -0.1110599115,
-0.2309815884, 0.0680491775, -0.0168648735, -0.1002998203, 0.0855665356, 0.0036240201, -0.1286545694, 0.1970829368,
-0.1147364080, -0.2098845541, 0.1343673766, -0.1310597062, -0.0773978606, 0.0401550457, 0.0123992125, -0.0212129001,
};

static float conv3x3_ds3_bias[32] = { 
-0.0255126543, -0.7925071120, -0.0967505872, 0.4044139385, -0.4441215992, -1.3632135391, 0.1170781031, 1.1644234657,
-0.0697125793, 1.3268119097, -0.1490070522, 0.4338832498, 0.9280185699, 0.3959181905, -0.1402163357, -0.6617107391,
0.9805484414, 0.4254033864, 0.3807173073, -0.9771036506, 1.1056495905, -0.4209569097, 1.7160911560, 0.9520785213,
-1.1790702343, 0.1168475375, -0.0618487746, -1.1533091068, -0.3576034606, -1.4282890558, 0.3839934766, 0.7006339431,
};

static float conv3x3_ds4_weight[11520] = { 
-0.0314711891, -0.1572157741, 0.0814588889, -0.0264622532, -0.0914165005, 0.2040119022, 0.0222512595, 0.0535984039,
0.0271534938, -0.0337430537, 0.0571638122, 0.0957256556, -0.0550281815, -0.0408036001, 0.0682963654, 0.0217189845,
0.0341878347, -0.0211236719, -0.0754164308, 0.0250740591, 0.0158051923, -0.0897441879, 0.0750855878, 0.0944640115,
-0.0550629087, 0.0087902937, -0.0493836924, 0.0208043624, 0.0415143706, 0.0898748636, 0.0595939159, 0.0582955442,
-0.0104288198, 0.0337022319, 0.0065335780, -0.0648738444, 0.0079967352, -0.0281725489, -0.0497261733, 0.0562029257,
0.1436425149, 0.0407771319, 0.0072759278, 0.0740962997, -0.0183257423, -0.0117448177, -0.0472486801, -0.0232443456,
-0.0905447975, -0.0824346095, -0.0638819486, 0.0468107052, 0.0986877605, -0.1154777333, 0.0170585867, -0.0264492650,
0.0944592580, -0.0360741913, 0.0730495676, 0.0270871986, -0.0493747182, 0.0395222716, 0.0201506149, -0.0978586972,
-0.1614135206, -0.0629265532, -0.1019985750, -0.1357509792, -0.0717311203, 0.1340023428, 0.0391748399, -0.0171624497,
0.0345728770, -0.0878723562, 0.0312185101, 0.0157208256, 0.0037461743, 0.0345278271, -0.0022976319, 0.1189817265,
-0.0229767989, 0.0008171353, -0.0253134314, -0.0233573243, -0.0134135270, 0.0191508569, -0.0444061719, 0.0850216895,
-0.0698563233, -0.1276336163, -0.0739137754, -0.0465222485, 0.0057557998, -0.0496018901, 0.1263583153, -0.1047046259,
0.0176225100, 0.0830811709, -0.0002798714, -0.0404522978, 0.0111091807, 0.1258936226, -0.0181636680, -0.0194158703,
0.0090202633, 0.0473143160, -0.0351557620, 0.0795120373, 0.0066347155, 0.1460614651, -0.0109268446, -0.0470140688,
0.1484877765, -0.0698927045, -0.0163839366, -0.0385309756, 0.0748076737, 0.0288249627, -0.0662366003, -0.0006034992,
-0.0279356930, 0.0369530469, -0.0249684602, -0.1874996722, 0.0104468782, -0.0589756370, 0.0083577726, 0.0467636473,
0.0013447865, -0.0035014886, 0.2112611532, 0.1470136344, 0.0869637579, 0.0333633088, 0.0899857432, 0.0028914211,
-0.0491233841, 0.0118680829, 0.0355095416, 0.0768418089, -0.0134537537, 0.0269823316, 0.0997038335, 0.0638581663,
0.0411910266, 0.0497695021, 0.1190791950, 0.0259930566, -0.1224975884, 0.0802826807, 0.0361552909, 0.0042930096,
0.0578059442, 0.0263544861, 0.0282540526, -0.0274904631, 0.0166869815, 0.1888197809, 0.1401463747, -0.0961232334,
-0.0509279259, 0.0892388597, 0.0214337539, -0.1342124939, 0.0519493781, 0.1443203390, 0.1442587823, 0.0535214022,
-0.0421565101, 0.0404482670, -0.0072687892, 0.0188020356, -0.0267809238, 0.0779169500, 0.0190490317, -0.1302689463,
0.1627936959, 0.0589114465, 0.1245251074, 0.1068878248, 0.0674738288, -0.0510058515, 0.0836819112, 0.1475051492,
0.0419654883, -0.0641955063, 0.0339872129, 0.0151888588, -0.0020472393, 0.0263887644, 0.0199336875, 0.0959375128,
-0.0659912229, -0.0262054261, 0.1317052394, 0.0068010846, 0.0230133887, 0.1454984546, -0.1292289793, 0.0812554434,
-0.0276847836, -0.0606190935, 0.0539406985, 0.0725430101, -0.0412804447, -0.0385689437, -0.0534127094, 0.0292435549,
0.0704618096, 0.0563398078, -0.0245529544, -0.0080456305, 0.0444945134, 0.0151214851, 0.0134799415, -0.0496321060,
-0.1270864606, -0.1845954061, -0.0168399476, 0.0492395647, -0.0266972110, -0.0011863604, -0.0257104654, 0.0299394019,
0.0177676454, -0.0553885847, -0.2140756249, -0.0337376893, 0.1093276888, -0.0115011325, 0.0507602468, 0.0046599684,
0.0108041754, -0.0111187473, -0.0950372964, -0.0753834024, 0.0705385506, 0.0022030286, 0.0555955060, 0.1084700525,
0.0256280135, -0.0284830518, -0.0502537452, -0.0151524888, -0.0214501247, 0.0267823767, -0.0034382597, -0.0522307530,
-0.0345306993, 0.1304135025, 0.0783376694, -0.0629101172, -0.0216347948, -0.1423443854, 0.1087768152, 0.0503539443,
0.1098230332, 0.1488654017, -0.0826601610, 0.1012674049, 0.0581737347, 0.0290551446, -0.1044950187, 0.0342264734,
0.0427827835, 0.1593736261, -0.0705749691, 0.0108190821, 0.0629066154, -0.1306938976, 0.0267644655, -0.0202041212,
-0.0749517307, -0.0161380656, 0.0553554110, -0.2164621502, 0.0860564932, 0.0551844090, -0.0055112215, 0.0468287058,
0.0015403408, -0.0416243076, -0.0732575133, 0.1417762190, 0.0146151558, -0.0311261397, -0.0059979507, -0.0398018062,
0.0260292944, 0.0515495762, -0.0006981235, -0.0346954949, 0.1373624206, -0.0004046095, 0.0839760229, 0.1124612391,
-0.0229477789, -0.0534701906, -0.0847281218, -0.0805205330, 0.0065349257, 0.0554543510, -0.0418339223, 0.0630811751,
0.1555053145, -0.0363620073, 0.0029238579, -0.0384150073, 0.0457846858, -0.0327168927, 0.0463093743, 0.1352818310,
-0.0126483021, -0.0401944630, 0.0704636276, -0.0499219522, 0.0767532885, 0.0946900100, 0.1094221622, 0.0999532267,
0.1577767283, 0.0736134723, 0.0097176339, -0.0195897408, -0.0423086993, -0.0716729909, 0.0190386772, -0.0174258314,
-0.0302881468, 0.0008843399, 0.0393856876, 0.1010573655, 0.0195172839, 0.0561672710, 0.0218462925, -0.0460800231,
0.0492423028, -0.0020100502, 0.0679611862, 0.0558843166, 0.0625633523, 0.1432405114, -0.0391563438, 0.0591872968,
0.0007140484, 0.0338081419, 0.0380562358, 0.0307464954, -0.0093683414, -0.0260486286, 0.0828030780, 0.0802615508,
0.0597478822, -0.0135287270, 0.0122724324, 0.0026778202, -0.0319669992, 0.0184335578, -0.0439098254, -0.1932667792,
-0.0354469307, -0.0009399264, 0.0384141654, 0.0154729886, 0.0548424721, 0.0405796245, -0.0157927740, 0.0950957313,
0.1068228856, 0.0492707491, -0.0013081965, 0.0358924903, -0.0375770666, 0.0065165507, 0.0043222588, 0.0706918612,
-0.0307800621, -0.0644410551, 0.0319070518, -0.0838884339, 0.0618482120, 0.0277736764, 0.0925168395, 0.0609200969,
-0.0797389895, 0.0405799486, -0.0801863372, 0.0462286696, 0.0836099684, -0.0639264882, -0.0724831671, -0.0577548295,
0.0546483248, 0.0203758925, 0.0151282856, 0.1477943808, 0.0312357340, 0.0031736800, 0.1401457489, -0.0537688173,
0.0471824370, 0.1571236700, -0.0363565087, -0.0039098994, 0.0320392624, 0.0838789567, 0.0319192931, 0.1263640076,
0.1091986075, -0.0575955361, 0.0605187006, 0.0257216785, -0.0593994260, 0.0160710420, 0.0105365692, -0.0245355666,
0.0102491118, 0.0254549049, -0.0079592690, -0.0535518378, 0.1187206209, 0.1129364371, 0.0237666089, 0.0125341406,
-0.0071078376, 0.0741465837, -0.0277743414, -0.0239752308, 0.1019380316, 0.0265297219, 0.0260245837, 0.0916090906,
-0.0242299344, 0.0305854473, 0.0380653217, -0.0892553553, -0.0044754008, -0.0212986749, 0.0372037888, 0.0108563844,
-0.0101328585, -0.1167910695, -0.1264121234, -0.0632255003, -0.0383628085, 0.0070397742, 0.0104331514, -0.0320383422,
-0.0813750178, -0.0019169747, 0.0070967213, 0.0773931295, 0.0770192072, 0.0924581438, 0.0168280508, 0.0247734208,
0.0870181099, 0.0262367614, -0.0121499766, -0.0087817283, -0.0250293855, -0.0114774955, 0.0231192876, -0.0407501832,
0.0274946224, 0.0616736934, 0.1078782231, 0.0463714823, -0.0136048347, 0.0795791000, 0.0496917777, 0.1008276045,
0.1025814936, 0.1000296772, -0.0247636363, -0.0318942368, -0.0301036090, -0.1069193929, -0.0881831050, -0.0243654624,
-0.0739799291, -0.0512002259, -0.0371552780, -0.1161507517, -0.1307621300, -0.0567266643, 0.1164958104, -0.0001905323,
0.0465934649, 0.0315463133, -0.0205489285, 0.0485243425, -0.0998558253, -0.1628508419, -0.0463428609, 0.0124976151,
0.1279235184, -0.1494986564, -0.0882827714, -0.1003330797, -0.0851809829, -0.0077109220, 0.0145416819, 0.1057591364,
0.0008173866, 0.0380242504, -0.0624289252, -0.0428113379, 0.1071498394, 0.0090253232, -0.0913930163, -0.0392678604,
0.0088812960, -0.0312979966, -0.0035778990, 0.0267818347, 0.0013246537, -0.0302293245, 0.0539258830, 0.1028713360,
0.1540382802, 0.0743928999, 0.0157902297, 0.0004188060, -0.0351129621, -0.0470992252, 0.0578546077, 0.0505966805,
-0.0305064898, 0.0905995741, 0.1500805169, 0.0155379046, 0.0064614550, 0.0016626843, -0.0054760887, 0.0474150181,
0.0893361047, 0.0312184170, 0.1149149388, 0.1019501761, 0.0265149847, -0.0073149665, -0.0112867756, -0.1098541021,
-0.0314556584, 0.0744407400, -0.0019952508, 0.1354884654, 0.0969714820, 0.0383748375, -0.0203666780, -0.0167524442,
0.0665501207, -0.0518499911, -0.0055335970, -0.0042887293, -0.1008544192, 0.0116316108, -0.1263628751, 0.0521521382,
0.0722123012, -0.0840885341, 0.0142578427, -0.1195652336, 0.0311018061, -0.0194842089, -0.0136626717, 0.0277061313,
