#if 1
static float conv1x1s1_di_1_weight[8] = { 
37.1268157959, 37.1268157959, 37.1268157959, 37.1268157959, -34.3081893921, -34.3081893921, -34.3081893921, -34.3081893921,
};

static float conv1x1s1_di_1_bias[8] = { 
-15.9340324402, -15.9340324402, -15.9340324402, -15.9340324402, 14.5640420914, 14.5640420914, 14.5640420914, 14.5640420914,
};

static float convdw3x3s2_1_weight[288] = { 
0.0568654351, -0.0138588632, -0.0342953168, 0.1554459184, -0.0231561102, -0.0430892818, 0.0552909411, 0.0042694700,
-0.0177244879, 0.0490621179, -0.0117809912, -0.0552553125, 0.1063165367, -0.0163689535, -0.1006384417, 0.0336061269,
-0.0038214365, -0.0332203917, 0.0453016460, 0.0247229021, -0.0379820541, 0.0721662939, 0.0263517834, -0.1058195606,
0.0263817944, 0.0024179912, -0.0375122465, -0.0067859073, -0.0420860983, -0.0275121704, 0.0637711361, -0.0058884099,
-0.0845367983, 0.0460956357, -0.0123596536, -0.0558092184, -0.0275121704, -0.0845367983, -0.0558092184, -0.0420860983,
-0.0058884099, -0.0123596536, -0.0067859073, 0.0637711361, 0.0460956357, -0.0342953168, -0.0430892818, -0.0177244879,
-0.0138588632, -0.0231561102, 0.0042694700, 0.0568654351, 0.1554459184, 0.0552909411, -0.0552553125, -0.1006384417,
-0.0332203917, -0.0117809912, -0.0163689535, -0.0038214365, 0.0490621179, 0.1063165367, 0.0336061269, -0.0379820541,
-0.1058195606, -0.0375122465, 0.0247229021, 0.0263517834, 0.0024179912, 0.0453016460, 0.0721662939, 0.0263817944,
-0.0375122465, 0.0024179912, 0.0263817944, -0.1058195606, 0.0263517834, 0.0721662939, -0.0379820541, 0.0247229021,
0.0453016460, -0.0558092184, -0.0123596536, 0.0460956357, -0.0845367983, -0.0058884099, 0.0637711361, -0.0275121704,
-0.0420860983, -0.0067859073, -0.0177244879, 0.0042694700, 0.0552909411, -0.0430892818, -0.0231561102, 0.1554459184,
-0.0342953168, -0.0138588632, 0.0568654351, -0.0332203917, -0.0038214365, 0.0336061269, -0.1006384417, -0.0163689535,
0.1063165367, -0.0552553125, -0.0117809912, 0.0490621179, 0.0336061269, 0.1063165367, 0.0490621179, -0.0038214365,
-0.0163689535, -0.0117809912, -0.0332203917, -0.1006384417, -0.0552553125, 0.0263817944, 0.0721662939, 0.0453016460,
0.0024179912, 0.0263517834, 0.0247229021, -0.0375122465, -0.1058195606, -0.0379820541, 0.0460956357, 0.0637711361,
-0.0067859073, -0.0123596536, -0.0058884099, -0.0420860983, -0.0558092184, -0.0845367983, -0.0275121704, 0.0552909411,
0.1554459184, 0.0568654351, 0.0042694700, -0.0231561102, -0.0138588632, -0.0177244879, -0.0430892818, -0.0342953168,
-0.0587065071, 0.0788247734, 0.2286753356, 0.0128321312, 0.2241938114, 0.3900938034, 0.0523419380, 0.0296984427,
0.0769752488, 0.1594992578, -0.0193433426, 0.0804240778, 0.4646279812, -0.1401784420, 0.2121332139, 0.0027657931,
-0.4596522152, -0.1269620955, -0.0428305268, -0.1547290683, -0.1023210585, -0.0742539316, -0.3578941822, -0.0492067561,
-0.0494558029, -0.0019145340, 0.0306980517, 0.1068212613, 0.2147936672, 0.0285928063, 0.0452327318, -0.0033580139,
-0.1399484128, -0.0229180045, -0.0949823484, -0.0978107899, 0.0285928063, -0.1399484128, -0.0978107899, 0.2147936672,
-0.0033580139, -0.0949823484, 0.1068212613, 0.0452327318, -0.0229180045, 0.2286753356, 0.3900938034, 0.0769752488,
0.0788247734, 0.2241938114, 0.0296984427, -0.0587065071, 0.0128321312, 0.0523419380, 0.0804240778, 0.2121332139,
-0.1269620955, -0.0193433426, -0.1401784420, -0.4596522152, 0.1594992578, 0.4646279812, 0.0027657931, -0.1023210585,
-0.0492067561, 0.0306980517, -0.1547290683, -0.3578941822, -0.0019145340, -0.0428305268, -0.0742539316, -0.0494558029,
0.0306980517, -0.0019145340, -0.0494558029, -0.0492067561, -0.3578941822, -0.0742539316, -0.1023210585, -0.1547290683,
-0.0428305268, -0.0978107899, -0.0949823484, -0.0229180045, -0.1399484128, -0.0033580139, 0.0452327318, 0.0285928063,
0.2147936672, 0.1068212613, 0.0769752488, 0.0296984427, 0.0523419380, 0.3900938034, 0.2241938114, 0.0128321312,
0.2286753356, 0.0788247734, -0.0587065071, -0.1269620955, -0.4596522152, 0.0027657931, 0.2121332139, -0.1401784420,
0.4646279812, 0.0804240778, -0.0193433426, 0.1594992578, 0.0027657931, 0.4646279812, 0.1594992578, -0.4596522152,
-0.1401784420, -0.0193433426, -0.1269620955, 0.2121332139, 0.0804240778, -0.0494558029, -0.0742539316, -0.0428305268,
-0.0019145340, -0.3578941822, -0.1547290683, 0.0306980517, -0.0492067561, -0.1023210585, -0.0229180045, 0.0452327318,
0.1068212613, -0.0949823484, -0.0033580139, 0.2147936672, -0.0978107899, -0.1399484128, 0.0285928063, 0.0523419380,
0.0128321312, -0.0587065071, 0.0296984427, 0.2241938114, 0.0788247734, 0.0769752488, 0.3900938034, 0.2286753356,
};

static float convdw3x3s2_1_bias[8] = { 
0.0398068726, 0.0398068726, 0.0398068726, 0.0398068726, 2.8741087914, 2.8741087914, 2.8741087914, 2.8741087914,
};

static float conv1x1s1_dd_1_weight[64] = { 
-0.1484963298, -0.0670500919, 0.4723942578, -0.4456716180, -0.5375573039, 0.4487456083, -0.6174209118, 0.3188455701,
-0.4456716180, -0.1484963298, -0.0670500919, 0.4723942578, 0.3188455701, -0.5375573039, 0.4487456083, -0.6174209118,
0.4723942578, -0.4456716180, -0.1484963298, -0.0670500919, -0.6174209118, 0.3188455701, -0.5375573039, 0.4487456083,
-0.0670500919, 0.4723942578, -0.4456716180, -0.1484963298, 0.4487456083, -0.6174209118, 0.3188455701, -0.5375573039,
0.2504670620, -0.0755896121, -0.0775150061, -0.1132577509, -0.0991937220, -0.5219107270, -0.2671223879, 0.4101513028,
-0.1132577509, 0.2504670620, -0.0755896121, -0.0775150061, 0.4101513028, -0.0991937220, -0.5219107270, -0.2671223879,
-0.0775150061, -0.1132577509, 0.2504670620, -0.0755896121, -0.2671223879, 0.4101513028, -0.0991937220, -0.5219107270,
-0.0755896121, -0.0775150061, -0.1132577509, 0.2504670620, -0.5219107270, -0.2671223879, 0.4101513028, -0.0991937220,
};

static float conv1x1s1_dd_1_bias[8] = { 
0.6938051581, 0.6938051581, 0.6938051581, 0.6938051581, 3.6922817230, 3.6922817230, 3.6922817230, 3.6922817230,
};

static float conv1x1s1_di_2_weight[128] = { 
0.0840324163, -1.3374413252, -0.3013921082, 1.0494897366, 0.3602836430, 0.7394748926, -0.3735812902, -0.3650624752,
1.0494897366, 0.0840324163, -1.3374413252, -0.3013921082, -0.3650624752, 0.3602836430, 0.7394748926, -0.3735812902,
-0.3013921082, 1.0494897366, 0.0840324163, -1.3374413252, -0.3735812902, -0.3650624752, 0.3602836430, 0.7394748926,
-1.3374413252, -0.3013921082, 1.0494897366, 0.0840324163, 0.7394748926, -0.3735812902, -0.3650624752, 0.3602836430,
0.1049477160, -0.0472861081, -0.6785113811, -0.4396312833, 0.2259267867, 0.0942387655, 1.0307269096, -0.0835682899,
-0.4396312833, 0.1049477160, -0.0472861081, -0.6785113811, -0.0835682899, 0.2259267867, 0.0942387655, 1.0307269096,
-0.6785113811, -0.4396312833, 0.1049477160, -0.0472861081, 1.0307269096, -0.0835682899, 0.2259267867, 0.0942387655,
-0.0472861081, -0.6785113811, -0.4396312833, 0.1049477160, 0.0942387655, 1.0307269096, -0.0835682899, 0.2259267867,
-0.0223157182, 0.3289312422, -0.0904091448, -0.3833507001, -0.1353657544, -0.0993110389, 0.1375282258, 0.1238949150,
-0.3833507001, -0.0223157182, 0.3289312422, -0.0904091448, 0.1238949150, -0.1353657544, -0.0993110389, 0.1375282258,
-0.0904091448, -0.3833507001, -0.0223157182, 0.3289312422, 0.1375282258, 0.1238949150, -0.1353657544, -0.0993110389,
0.3289312422, -0.0904091448, -0.3833507001, -0.0223157182, -0.0993110389, 0.1375282258, 0.1238949150, -0.1353657544,
2.2226886749, -0.4825266302, -2.0918788910, 0.5968985558, -0.6532461047, 0.7793618441, 0.6196609735, -1.1523236036,
0.5968985558, 2.2226886749, -0.4825266302, -2.0918788910, -1.1523236036, -0.6532461047, 0.7793618441, 0.6196609735,
-2.0918788910, 0.5968985558, 2.2226886749, -0.4825266302, 0.6196609735, -1.1523236036, -0.6532461047, 0.7793618441,
-0.4825266302, -2.0918788910, 0.5968985558, 2.2226886749, 0.7793618441, 0.6196609735, -1.1523236036, -0.6532461047,
};

static float conv1x1s1_di_2_bias[16] = { 
-0.8133571148, -0.8133571148, -0.8133571148, -0.8133571148, -1.8748539686, -1.8748539686, -1.8748539686, -1.8748539686,
2.5577621460, 2.5577621460, 2.5577621460, 2.5577621460, 1.3938388824, 1.3938388824, 1.3938388824, 1.3938388824,
};

static float convdw3x3s2_2_weight[576] = { 
-0.1441204995, -0.0841996446, 0.0792424977, -0.0744319782, -0.0585947521, 0.0599651933, 0.0625400692, 0.0098192226,
-0.0496365540, -0.1218762472, -0.0155306179, 0.0493570007, -0.2015746087, 0.1664110571, 0.0529042892, 0.0122020897,
0.1491258293, 0.0514984392, 0.0982308984, 0.0637201518, -0.0821757913, 0.0009663157, 0.0186831728, -0.1224449426,
-0.0799889565, -0.0544044115, -0.0016800154, 0.0678988248, -0.0359082893, -0.0447540395, 0.1365354955, -0.2452032566,
-0.0357410386, -0.0235749912, -0.1569842398, -0.0534459762, -0.0447540395, -0.0357410386, -0.0534459762, -0.0359082893,
-0.2452032566, -0.1569842398, 0.0678988248, 0.1365354955, -0.0235749912, 0.0792424977, 0.0599651933, -0.0496365540,
-0.0841996446, -0.0585947521, 0.0098192226, -0.1441204995, -0.0744319782, 0.0625400692, 0.0493570007, 0.0529042892,
0.0514984392, -0.0155306179, 0.1664110571, 0.1491258293, -0.1218762472, -0.2015746087, 0.0122020897, -0.0821757913,
-0.1224449426, -0.0016800154, 0.0637201518, 0.0186831728, -0.0544044115, 0.0982308984, 0.0009663157, -0.0799889565,
-0.0016800154, -0.0544044115, -0.0799889565, -0.1224449426, 0.0186831728, 0.0009663157, -0.0821757913, 0.0637201518,
0.0982308984, -0.0534459762, -0.1569842398, -0.0235749912, -0.0357410386, -0.2452032566, 0.1365354955, -0.0447540395,
-0.0359082893, 0.0678988248, -0.0496365540, 0.0098192226, 0.0625400692, 0.0599651933, -0.0585947521, -0.0744319782,
0.0792424977, -0.0841996446, -0.1441204995, 0.0514984392, 0.1491258293, 0.0122020897, 0.0529042892, 0.1664110571,
-0.2015746087, 0.0493570007, -0.0155306179, -0.1218762472, 0.0122020897, -0.2015746087, -0.1218762472, 0.1491258293,
0.1664110571, -0.0155306179, 0.0514984392, 0.0529042892, 0.0493570007, -0.0799889565, 0.0009663157, 0.0982308984,
-0.0544044115, 0.0186831728, 0.0637201518, -0.0016800154, -0.1224449426, -0.0821757913, -0.0235749912, 0.1365354955,
0.0678988248, -0.1569842398, -0.2452032566, -0.0359082893, -0.0534459762, -0.0357410386, -0.0447540395, 0.0625400692,
-0.0744319782, -0.1441204995, 0.0098192226, -0.0585947521, -0.0841996446, -0.0496365540, 0.0599651933, 0.0792424977,
0.0712691620, 0.2138756812, 0.1109150797, 0.2238946706, 0.0833125710, -0.1017529368, 0.1727456152, 0.0377041213,
-0.1363075525, 0.0827995762, -0.1023801938, -0.1737899482, 0.1192207485, 0.0534732975, -0.2099645436, -0.0220633857,
-0.0647646859, -0.0378077999, 0.1557108611, 0.1797748804, -0.0216531139, -0.0966041535, -0.0454438441, 0.0845902264,
-0.2072440386, -0.0876989961, 0.1200214997, -0.0458320864, -0.1757152677, -0.1442339718, -0.1177625433, -0.2262457013,
-0.2486454248, -0.1580274701, -0.3399441242, -0.1679046005, -0.1442339718, -0.2486454248, -0.1679046005, -0.1757152677,
-0.2262457013, -0.3399441242, -0.0458320864, -0.1177625433, -0.1580274701, 0.1109150797, -0.1017529368, -0.1363075525,
0.2138756812, 0.0833125710, 0.0377041213, 0.0712691620, 0.2238946706, 0.1727456152, -0.1737899482, -0.2099645436,
-0.0378077999, -0.1023801938, 0.0534732975, -0.0647646859, 0.0827995762, 0.1192207485, -0.0220633857, -0.0216531139,
0.0845902264, 0.1200214997, 0.1797748804, -0.0454438441, -0.0876989961, 0.1557108611, -0.0966041535, -0.2072440386,
0.1200214997, -0.0876989961, -0.2072440386, 0.0845902264, -0.0454438441, -0.0966041535, -0.0216531139, 0.1797748804,
0.1557108611, -0.1679046005, -0.3399441242, -0.1580274701, -0.2486454248, -0.2262457013, -0.1177625433, -0.1442339718,
-0.1757152677, -0.0458320864, -0.1363075525, 0.0377041213, 0.1727456152, -0.1017529368, 0.0833125710, 0.2238946706,
0.1109150797, 0.2138756812, 0.0712691620, -0.0378077999, -0.0647646859, -0.0220633857, -0.2099645436, 0.0534732975,
0.1192207485, -0.1737899482, -0.1023801938, 0.0827995762, -0.0220633857, 0.1192207485, 0.0827995762, -0.0647646859,
0.0534732975, -0.1023801938, -0.0378077999, -0.2099645436, -0.1737899482, -0.2072440386, -0.0966041535, 0.1557108611,
-0.0876989961, -0.0454438441, 0.1797748804, 0.1200214997, 0.0845902264, -0.0216531139, -0.1580274701, -0.1177625433,
-0.0458320864, -0.3399441242, -0.2262457013, -0.1757152677, -0.1679046005, -0.2486454248, -0.1442339718, 0.1727456152,
0.2238946706, 0.0712691620, 0.0377041213, 0.0833125710, 0.2138756812, -0.1363075525, -0.1017529368, 0.1109150797,
0.1303112954, -0.0161354057, -0.2435548753, 0.0559584126, 0.6408253312, -0.2047559470, 0.0701056197, 0.4814281166,
0.2282835990, 0.0354644060, 0.3330599368, 0.1913767606, -0.0682954565, 0.2187177241, 0.0327041186, 0.0047825095,
-0.0170343351, -0.0675732195, -0.0084239505, 0.6554487348, 0.2677629590, -0.5262305140, -0.1683426052, -0.0799458846,
-0.0985211879, 0.2162370384, -0.0054982561, 0.2486670315, 0.4273781180, -0.0803878605, -0.1372092366, -0.2497140318,
-0.2190314233, -0.1232478470, 0.2419414073, 0.1381158233, -0.0803878605, -0.2190314233, 0.1381158233, 0.4273781180,
-0.2497140318, 0.2419414073, 0.2486670315, -0.1372092366, -0.1232478470, -0.2435548753, -0.2047559470, 0.2282835990,
-0.0161354057, 0.6408253312, 0.4814281166, 0.1303112954, 0.0559584126, 0.0701056197, 0.1913767606, 0.0327041186,
-0.0675732195, 0.3330599368, 0.2187177241, -0.0170343351, 0.0354644060, -0.0682954565, 0.0047825095, 0.2677629590,
-0.0799458846, -0.0054982561, 0.6554487348, -0.1683426052, 0.2162370384, -0.0084239505, -0.5262305140, -0.0985211879,
-0.0054982561, 0.2162370384, -0.0985211879, -0.0799458846, -0.1683426052, -0.5262305140, 0.2677629590, 0.6554487348,
-0.0084239505, 0.1381158233, 0.2419414073, -0.1232478470, -0.2190314233, -0.2497140318, -0.1372092366, -0.0803878605,
0.4273781180, 0.2486670315, 0.2282835990, 0.4814281166, 0.0701056197, -0.2047559470, 0.6408253312, 0.0559584126,
-0.2435548753, -0.0161354057, 0.1303112954, -0.0675732195, -0.0170343351, 0.0047825095, 0.0327041186, 0.2187177241,
-0.0682954565, 0.1913767606, 0.3330599368, 0.0354644060, 0.0047825095, -0.0682954565, 0.0354644060, -0.0170343351,
0.2187177241, 0.3330599368, -0.0675732195, 0.0327041186, 0.1913767606, -0.0985211879, -0.5262305140, -0.0084239505,
0.2162370384, -0.1683426052, 0.6554487348, -0.0054982561, -0.0799458846, 0.2677629590, -0.1232478470, -0.1372092366,
0.2486670315, 0.2419414073, -0.2497140318, 0.4273781180, 0.1381158233, -0.2190314233, -0.0803878605, 0.0701056197,
0.0559584126, 0.1303112954, 0.4814281166, 0.6408253312, -0.0161354057, 0.2282835990, -0.2047559470, -0.2435548753,
0.0163519792, 0.0164682399, 0.0053475136, 0.0197671298, 0.0006529840, 0.0245605279, 0.0064367554, 0.0238948949,
0.0214067828, 0.0312477686, 0.0760324150, 0.0689580664, 0.0592674688, 0.1149795502, 0.1310736686, 0.0390702151,
0.0755843818, 0.0607649572, -0.0389048494, -0.0262194555, 0.0018701669, -0.0284327120, -0.0175566375, -0.0389668755,
0.0129969204, -0.0098545598, -0.0364929773, 0.0160557963, 0.0080189183, -0.0296979714, -0.0175642800, -0.0148733715,
-0.0503196567, -0.0213468261, -0.0045474716, -0.0026914822, -0.0296979714, -0.0503196567, -0.0026914822, 0.0080189183,
-0.0148733715, -0.0045474716, 0.0160557963, -0.0175642800, -0.0213468261, 0.0053475136, 0.0245605279, 0.0214067828,
0.0164682399, 0.0006529840, 0.0238948949, 0.0163519792, 0.0197671298, 0.0064367554, 0.0689580664, 0.1310736686,
0.0607649572, 0.0760324150, 0.1149795502, 0.0755843818, 0.0312477686, 0.0592674688, 0.0390702151, 0.0018701669,
-0.0389668755, -0.0364929773, -0.0262194555, -0.0175566375, -0.0098545598, -0.0389048494, -0.0284327120, 0.0129969204,
-0.0364929773, -0.0098545598, 0.0129969204, -0.0389668755, -0.0175566375, -0.0284327120, 0.0018701669, -0.0262194555,
-0.0389048494, -0.0026914822, -0.0045474716, -0.0213468261, -0.0503196567, -0.0148733715, -0.0175642800, -0.0296979714,
0.0080189183, 0.0160557963, 0.0214067828, 0.0238948949, 0.0064367554, 0.0245605279, 0.0006529840, 0.0197671298,
0.0053475136, 0.0164682399, 0.0163519792, 0.0607649572, 0.0755843818, 0.0390702151, 0.1310736686, 0.1149795502,
0.0592674688, 0.0689580664, 0.0760324150, 0.0312477686, 0.0390702151, 0.0592674688, 0.0312477686, 0.0755843818,
0.1149795502, 0.0760324150, 0.0607649572, 0.1310736686, 0.0689580664, 0.0129969204, -0.0284327120, -0.0389048494,
-0.0098545598, -0.0175566375, -0.0262194555, -0.0364929773, -0.0389668755, 0.0018701669, -0.0213468261, -0.0175642800,
0.0160557963, -0.0045474716, -0.0148733715, 0.0080189183, -0.0026914822, -0.0503196567, -0.0296979714, 0.0064367554,
0.0197671298, 0.0163519792, 0.0238948949, 0.0006529840, 0.0164682399, 0.0214067828, 0.0245605279, 0.0053475136,
};

static float convdw3x3s2_2_bias[16] = { 
1.4834914207, 1.4834914207, 1.4834914207, 1.4834914207, 3.7877569199, 3.7877569199, 3.7877569199, 3.7877569199,
-6.6974344254, -6.6974344254, -6.6974344254, -6.6974344254, 0.4377814531, 0.4377814531, 0.4377814531, 0.4377814531,
};

static float conv1x1s1_dd_2_weight[256] = { 
-0.0978946760, -0.0756132156, -0.4541105330, 0.2371897399, 0.2705220878, -0.3304843605, 0.3271960616, 0.4118476510,
-0.1730047613, 0.1751610339, -0.0209158231, 0.6067026258, 0.0775269046, 0.5292835236, 0.1648558527, -0.3602498770,
0.2371897399, -0.0978946760, -0.0756132156, -0.4541105330, 0.4118476510, 0.2705220878, -0.3304843605, 0.3271960616,
0.6067026258, -0.1730047613, 0.1751610339, -0.0209158231, -0.3602498770, 0.0775269046, 0.5292835236, 0.1648558527,
-0.4541105330, 0.2371897399, -0.0978946760, -0.0756132156, 0.3271960616, 0.4118476510, 0.2705220878, -0.3304843605,
-0.0209158231, 0.6067026258, -0.1730047613, 0.1751610339, 0.1648558527, -0.3602498770, 0.0775269046, 0.5292835236,
-0.0756132156, -0.4541105330, 0.2371897399, -0.0978946760, -0.3304843605, 0.3271960616, 0.4118476510, 0.2705220878,
0.1751610339, -0.0209158231, 0.6067026258, -0.1730047613, 0.5292835236, 0.1648558527, -0.3602498770, 0.0775269046,
-0.0001603059, 0.3350814581, 0.5322576761, 0.2100766301, 0.0949517041, 0.0246196073, 0.1101385728, 0.2789491117,
-0.0494860001, -0.2354028523, -0.4579791129, -0.2863295078, -0.1452708691, 0.3427508473, -0.1819556057, 0.5190535784,
0.2100766301, -0.0001603059, 0.3350814581, 0.5322576761, 0.2789491117, 0.0949517041, 0.0246196073, 0.1101385728,
-0.2863295078, -0.0494860001, -0.2354028523, -0.4579791129, 0.5190535784, -0.1452708691, 0.3427508473, -0.1819556057,
0.5322576761, 0.2100766301, -0.0001603059, 0.3350814581, 0.1101385728, 0.2789491117, 0.0949517041, 0.0246196073,
-0.4579791129, -0.2863295078, -0.0494860001, -0.2354028523, -0.1819556057, 0.5190535784, -0.1452708691, 0.3427508473,
0.3350814581, 0.5322576761, 0.2100766301, -0.0001603059, 0.0246196073, 0.1101385728, 0.2789491117, 0.0949517041,
-0.2354028523, -0.4579791129, -0.2863295078, -0.0494860001, 0.3427508473, -0.1819556057, 0.5190535784, -0.1452708691,
-0.0084710186, -0.4467925727, 0.3615773916, 0.1753412485, 0.0305827744, -0.1212453991, 0.0460225008, -0.1410910636,
-0.2757373452, 0.1678612530, 0.3253893554, -0.1694645584, -0.2944278419, -0.1343495995, 0.2238823324, 0.3435622752,
0.1753412485, -0.0084710186, -0.4467925727, 0.3615773916, -0.1410910636, 0.0305827744, -0.1212453991, 0.0460225008,
-0.1694645584, -0.2757373452, 0.1678612530, 0.3253893554, 0.3435622752, -0.2944278419, -0.1343495995, 0.2238823324,
0.3615773916, 0.1753412485, -0.0084710186, -0.4467925727, 0.0460225008, -0.1410910636, 0.0305827744, -0.1212453991,
0.3253893554, -0.1694645584, -0.2757373452, 0.1678612530, 0.2238823324, 0.3435622752, -0.2944278419, -0.1343495995,
-0.4467925727, 0.3615773916, 0.1753412485, -0.0084710186, -0.1212453991, 0.0460225008, -0.1410910636, 0.0305827744,
0.1678612530, 0.3253893554, -0.1694645584, -0.2757373452, -0.1343495995, 0.2238823324, 0.3435622752, -0.2944278419,
0.1980160177, -0.0940425470, -0.0709315017, 0.0638042912, -0.3328828216, -0.1530254781, 0.0016769916, -0.6561229825,
0.2055002451, -0.2747121751, 0.2173112482, 0.1759793013, 0.0834172294, 0.2661831081, 0.2281625718, -0.0033932878,
0.0638042912, 0.1980160177, -0.0940425470, -0.0709315017, -0.6561229825, -0.3328828216, -0.1530254781, 0.0016769916,
0.1759793013, 0.2055002451, -0.2747121751, 0.2173112482, -0.0033932878, 0.0834172294, 0.2661831081, 0.2281625718,
-0.0709315017, 0.0638042912, 0.1980160177, -0.0940425470, 0.0016769916, -0.6561229825, -0.3328828216, -0.1530254781,
0.2173112482, 0.1759793013, 0.2055002451, -0.2747121751, 0.2281625718, -0.0033932878, 0.0834172294, 0.2661831081,
-0.0940425470, -0.0709315017, 0.0638042912, 0.1980160177, -0.1530254781, 0.0016769916, -0.6561229825, -0.3328828216,
-0.2747121751, 0.2173112482, 0.1759793013, 0.2055002451, 0.2661831081, 0.2281625718, -0.0033932878, 0.0834172294,
};

static float conv1x1s1_dd_2_bias[16] = { 
-2.8488912582, -2.8488912582, -2.8488912582, -2.8488912582, -2.7536783218, -2.7536783218, -2.7536783218, -2.7536783218,
-3.8736844063, -3.8736844063, -3.8736844063, -3.8736844063, 1.9368460178, 1.9368460178, 1.9368460178, 1.9368460178,
};

static float conv1x1s1_di_3_weight[512] = { 
0.3389558196, -0.0851491168, -0.3468308747, -0.5540434718, 0.0429026857, 0.1998707354, 0.5154064298, 0.0851081014,
0.1499338150, 0.2138161510, 0.0755718946, -0.6786909699, 0.2968734503, 0.6875093579, -0.8502606750, 0.2593028545,
-0.5540434718, 0.3389558196, -0.0851491168, -0.3468308747, 0.0851081014, 0.0429026857, 0.1998707354, 0.5154064298,
-0.6786909699, 0.1499338150, 0.2138161510, 0.0755718946, 0.2593028545, 0.2968734503, 0.6875093579, -0.8502606750,
-0.3468308747, -0.5540434718, 0.3389558196, -0.0851491168, 0.5154064298, 0.0851081014, 0.0429026857, 0.1998707354,
0.0755718946, -0.6786909699, 0.1499338150, 0.2138161510, -0.8502606750, 0.2593028545, 0.2968734503, 0.6875093579,
-0.0851491168, -0.3468308747, -0.5540434718, 0.3389558196, 0.1998707354, 0.5154064298, 0.0851081014, 0.0429026857,
0.2138161510, 0.0755718946, -0.6786909699, 0.1499338150, 0.6875093579, -0.8502606750, 0.2593028545, 0.2968734503,
0.6007463336, 0.2513116598, -0.0526856594, -0.4311136603, -0.0777843669, -0.4928867817, 0.0769189000, 0.0527938418,
-0.1687671989, 0.2809000313, -0.0128739085, -0.2859846652, 0.0582706630, 0.2382890135, -0.3210228086, -0.0345512964,
-0.4311136603, 0.6007463336, 0.2513116598, -0.0526856594, 0.0527938418, -0.0777843669, -0.4928867817, 0.0769189000,
-0.2859846652, -0.1687671989, 0.2809000313, -0.0128739085, -0.0345512964, 0.0582706630, 0.2382890135, -0.3210228086,
-0.0526856594, -0.4311136603, 0.6007463336, 0.2513116598, 0.0769189000, 0.0527938418, -0.0777843669, -0.4928867817,
-0.0128739085, -0.2859846652, -0.1687671989, 0.2809000313, -0.3210228086, -0.0345512964, 0.0582706630, 0.2382890135,
0.2513116598, -0.0526856594, -0.4311136603, 0.6007463336, -0.4928867817, 0.0769189000, 0.0527938418, -0.0777843669,
0.2809000313, -0.0128739085, -0.2859846652, -0.1687671989, 0.2382890135, -0.3210228086, -0.0345512964, 0.0582706630,
0.0187212601, -0.2910895348, -0.1029541120, 0.2497506738, -0.0254971441, -0.3140318394, -0.2088304907, 0.0241983607,
-0.1759379804, 0.0195372719, 0.1251060367, 0.0022942303, 0.2720564008, 0.2393903136, -0.0538695492, 0.0047892588,
0.2497506738, 0.0187212601, -0.2910895348, -0.1029541120, 0.0241983607, -0.0254971441, -0.3140318394, -0.2088304907,
0.0022942303, -0.1759379804, 0.0195372719, 0.1251060367, 0.0047892588, 0.2720564008, 0.2393903136, -0.0538695492,
-0.1029541120, 0.2497506738, 0.0187212601, -0.2910895348, -0.2088304907, 0.0241983607, -0.0254971441, -0.3140318394,
0.1251060367, 0.0022942303, -0.1759379804, 0.0195372719, -0.0538695492, 0.0047892588, 0.2720564008, 0.2393903136,
-0.2910895348, -0.1029541120, 0.2497506738, 0.0187212601, -0.3140318394, -0.2088304907, 0.0241983607, -0.0254971441,
0.0195372719, 0.1251060367, 0.0022942303, -0.1759379804, 0.2393903136, -0.0538695492, 0.0047892588, 0.2720564008,
-0.0431641787, -0.0937387496, -0.0029208844, -0.1793098450, 0.1201112270, 0.0763588101, -0.0024577349, 0.0571837500,
0.2613650560, -0.0587422289, -0.0655576289, 0.0202298295, 0.1617034078, -0.0107099097, 0.0250709243, -0.0264502298,
-0.1793098450, -0.0431641787, -0.0937387496, -0.0029208844, 0.0571837500, 0.1201112270, 0.0763588101, -0.0024577349,
0.0202298295, 0.2613650560, -0.0587422289, -0.0655576289, -0.0264502298, 0.1617034078, -0.0107099097, 0.0250709243,
-0.0029208844, -0.1793098450, -0.0431641787, -0.0937387496, -0.0024577349, 0.0571837500, 0.1201112270, 0.0763588101,
-0.0655576289, 0.0202298295, 0.2613650560, -0.0587422289, 0.0250709243, -0.0264502298, 0.1617034078, -0.0107099097,
-0.0937387496, -0.0029208844, -0.1793098450, -0.0431641787, 0.0763588101, -0.0024577349, 0.0571837500, 0.1201112270,
-0.0587422289, -0.0655576289, 0.0202298295, 0.2613650560, -0.0107099097, 0.0250709243, -0.0264502298, 0.1617034078,
-0.1171157435, 0.3578433990, -0.0656499490, 0.2962724566, 0.5820032954, -0.2243949026, 0.1375107020, -0.0965529233,
0.0109780272, -0.3905424774, 0.3697950244, 0.2577989995, 0.1431339979, 0.1627400219, 0.1868446767, 0.2399554998,
0.2962724566, -0.1171157435, 0.3578433990, -0.0656499490, -0.0965529233, 0.5820032954, -0.2243949026, 0.1375107020,
0.2577989995, 0.0109780272, -0.3905424774, 0.3697950244, 0.2399554998, 0.1431339979, 0.1627400219, 0.1868446767,
-0.0656499490, 0.2962724566, -0.1171157435, 0.3578433990, 0.1375107020, -0.0965529233, 0.5820032954, -0.2243949026,
0.3697950244, 0.2577989995, 0.0109780272, -0.3905424774, 0.1868446767, 0.2399554998, 0.1431339979, 0.1627400219,
0.3578433990, -0.0656499490, 0.2962724566, -0.1171157435, -0.2243949026, 0.1375107020, -0.0965529233, 0.5820032954,
-0.3905424774, 0.3697950244, 0.2577989995, 0.0109780272, 0.1627400219, 0.1868446767, 0.2399554998, 0.1431339979,
0.0049364404, -0.0244947411, -0.1549042463, 0.5123900175, -0.0461151004, 0.0401788764, -0.3055593967, -0.0604245290,
-0.1202241927, -0.2092050910, -0.6466112137, 0.3361778259, -0.4148952961, 0.1426100135, 0.1189900786, 0.2353401035,
0.5123900175, 0.0049364404, -0.0244947411, -0.1549042463, -0.0604245290, -0.0461151004, 0.0401788764, -0.3055593967,
0.3361778259, -0.1202241927, -0.2092050910, -0.6466112137, 0.2353401035, -0.4148952961, 0.1426100135, 0.1189900786,
-0.1549042463, 0.5123900175, 0.0049364404, -0.0244947411, -0.3055593967, -0.0604245290, -0.0461151004, 0.0401788764,
-0.6466112137, 0.3361778259, -0.1202241927, -0.2092050910, 0.1189900786, 0.2353401035, -0.4148952961, 0.1426100135,
-0.0244947411, -0.1549042463, 0.5123900175, 0.0049364404, 0.0401788764, -0.3055593967, -0.0604245290, -0.0461151004,
-0.2092050910, -0.6466112137, 0.3361778259, -0.1202241927, 0.1426100135, 0.1189900786, 0.2353401035, -0.4148952961,
-0.2771545947, 0.0818072259, -0.1943497211, 0.7052611709, -0.5048104525, 0.0592450090, 0.0465057977, -0.3818693757,
0.4474072456, -0.4818645120, -0.2500262260, -0.2158759236, -0.2486688346, -0.4377617240, 0.5801473260, 0.0871552005,
0.7052611709, -0.2771545947, 0.0818072259, -0.1943497211, -0.3818693757, -0.5048104525, 0.0592450090, 0.0465057977,
-0.2158759236, 0.4474072456, -0.4818645120, -0.2500262260, 0.0871552005, -0.2486688346, -0.4377617240, 0.5801473260,
-0.1943497211, 0.7052611709, -0.2771545947, 0.0818072259, 0.0465057977, -0.3818693757, -0.5048104525, 0.0592450090,
-0.2500262260, -0.2158759236, 0.4474072456, -0.4818645120, 0.5801473260, 0.0871552005, -0.2486688346, -0.4377617240,
0.0818072259, -0.1943497211, 0.7052611709, -0.2771545947, 0.0592450090, 0.0465057977, -0.3818693757, -0.5048104525,
-0.4818645120, -0.2500262260, -0.2158759236, 0.4474072456, -0.4377617240, 0.5801473260, 0.0871552005, -0.2486688346,
0.0057744216, -0.0217983257, -0.0810373574, -0.0481420718, 0.0148230484, 0.0712882280, 0.0599051304, 0.0206021611,
-0.3635087013, -0.1263899505, -0.0452822261, 0.0112079764, 0.0008631142, -0.0043280800, -0.0419423468, 0.1876085103,
-0.0481420718, 0.0057744216, -0.0217983257, -0.0810373574, 0.0206021611, 0.0148230484, 0.0712882280, 0.0599051304,
0.0112079764, -0.3635087013, -0.1263899505, -0.0452822261, 0.1876085103, 0.0008631142, -0.0043280800, -0.0419423468,
-0.0810373574, -0.0481420718, 0.0057744216, -0.0217983257, 0.0599051304, 0.0206021611, 0.0148230484, 0.0712882280,
-0.0452822261, 0.0112079764, -0.3635087013, -0.1263899505, -0.0419423468, 0.1876085103, 0.0008631142, -0.0043280800,
-0.0217983257, -0.0810373574, -0.0481420718, 0.0057744216, 0.0712882280, 0.0599051304, 0.0206021611, 0.0148230484,
-0.1263899505, -0.0452822261, 0.0112079764, -0.3635087013, -0.0043280800, -0.0419423468, 0.1876085103, 0.0008631142,
};

static float conv1x1s1_di_3_bias[32] = { 
-0.1945561171, -0.1945561171, -0.1945561171, -0.1945561171, 1.4031534195, 1.4031534195, 1.4031534195, 1.4031534195,
1.7522051334, 1.7522051334, 1.7522051334, 1.7522051334, 3.1199336052, 3.1199336052, 3.1199336052, 3.1199336052,
1.8986246586, 1.8986246586, 1.8986246586, 1.8986246586, -0.2712069750, -0.2712069750, -0.2712069750, -0.2712069750,
-0.2119933367, -0.2119933367, -0.2119933367, -0.2119933367, 0.8165838718, 0.8165838718, 0.8165838718, 0.8165838718,
};

static float convdw3x3s1_3_weight[1152] = { 
0.0886497945, -0.0685627908, -0.1625933200, 0.0923772901, -0.1759851426, -0.1572925299, -0.0086239707, 0.0539901406,
0.0360681005, 0.0459463969, -0.0920339376, -0.0915064141, 0.0416905954, -0.0681032836, 0.0154577643, -0.0518499874,
-0.0223968644, 0.0639004931, -0.0025827906, -0.0878943801, -0.0105471164, 0.0853213146, -0.1863939911, 0.0920440331,
0.0330747552, 0.0242847223, 0.0466007590, -0.0324973874, -0.1461280286, -0.0648564547, 0.0371146165, -0.1513838321,
0.0109239463, 0.0344797596, 0.0678277612, 0.0451713726, -0.0648564547, 0.0109239463, 0.0451713726, -0.1461280286,
-0.1513838321, 0.0678277612, -0.0324973874, 0.0371146165, 0.0344797596, -0.1625933200, -0.1572925299, 0.0360681005,
-0.0685627908, -0.1759851426, 0.0539901406, 0.0886497945, 0.0923772901, -0.0086239707, -0.0915064141, 0.0154577643,
0.0639004931, -0.0920339376, -0.0681032836, -0.0223968644, 0.0459463969, 0.0416905954, -0.0518499874, -0.0105471164,
0.0920440331, 0.0466007590, -0.0878943801, -0.1863939911, 0.0242847223, -0.0025827906, 0.0853213146, 0.0330747552,
0.0466007590, 0.0242847223, 0.0330747552, 0.0920440331, -0.1863939911, 0.0853213146, -0.0105471164, -0.0878943801,
-0.0025827906, 0.0451713726, 0.0678277612, 0.0344797596, 0.0109239463, -0.1513838321, 0.0371146165, -0.0648564547,
-0.1461280286, -0.0324973874, 0.0360681005, 0.0539901406, -0.0086239707, -0.1572925299, -0.1759851426, 0.0923772901,
-0.1625933200, -0.0685627908, 0.0886497945, 0.0639004931, -0.0223968644, -0.0518499874, 0.0154577643, -0.0681032836,
0.0416905954, -0.0915064141, -0.0920339376, 0.0459463969, -0.0518499874, 0.0416905954, 0.0459463969, -0.0223968644,
-0.0681032836, -0.0920339376, 0.0639004931, 0.0154577643, -0.0915064141, 0.0330747552, 0.0853213146, -0.0025827906,
0.0242847223, -0.1863939911, -0.0878943801, 0.0466007590, 0.0920440331, -0.0105471164, 0.0344797596, 0.0371146165,
-0.0324973874, 0.0678277612, -0.1513838321, -0.1461280286, 0.0451713726, 0.0109239463, -0.0648564547, -0.0086239707,
0.0923772901, 0.0886497945, 0.0539901406, -0.1759851426, -0.0685627908, 0.0360681005, -0.1572925299, -0.1625933200,
-0.0007957753, 0.0162791256, -0.0754691511, -0.2425151765, -0.2188846022, -0.0180299059, -0.1356182098, 0.0953533053,
0.1247711256, 0.1059457809, 0.1971648037, 0.0173447914, -0.1041605249, -0.0114937387, -0.0014516601, -0.1577574462,
-0.1234380901, 0.0158142652, 0.1070194691, 0.0560832135, 0.0178055111, 0.0335304812, -0.1048067287, 0.2713034153,
-0.0902966559, 0.0325178877, 0.1956261247, -0.0746108145, 0.0959269702, 0.0685295984, -0.2527394891, -0.1333841830,
0.0390466824, -0.0532138459, 0.0933969095, 0.0450395383, 0.0685295984, 0.0390466824, 0.0450395383, 0.0959269702,
-0.1333841830, 0.0933969095, -0.0746108145, -0.2527394891, -0.0532138459, -0.0754691511, -0.0180299059, 0.1247711256,
0.0162791256, -0.2188846022, 0.0953533053, -0.0007957753, -0.2425151765, -0.1356182098, 0.0173447914, -0.0014516601,
0.0158142652, 0.1971648037, -0.0114937387, -0.1234380901, 0.1059457809, -0.1041605249, -0.1577574462, 0.0178055111,
0.2713034153, 0.1956261247, 0.0560832135, -0.1048067287, 0.0325178877, 0.1070194691, 0.0335304812, -0.0902966559,
0.1956261247, 0.0325178877, -0.0902966559, 0.2713034153, -0.1048067287, 0.0335304812, 0.0178055111, 0.0560832135,
0.1070194691, 0.0450395383, 0.0933969095, -0.0532138459, 0.0390466824, -0.1333841830, -0.2527394891, 0.0685295984,
0.0959269702, -0.0746108145, 0.1247711256, 0.0953533053, -0.1356182098, -0.0180299059, -0.2188846022, -0.2425151765,
-0.0754691511, 0.0162791256, -0.0007957753, 0.0158142652, -0.1234380901, -0.1577574462, -0.0014516601, -0.0114937387,
-0.1041605249, 0.0173447914, 0.1971648037, 0.1059457809, -0.1577574462, -0.1041605249, 0.1059457809, -0.1234380901,
-0.0114937387, 0.1971648037, 0.0158142652, -0.0014516601, 0.0173447914, -0.0902966559, 0.0335304812, 0.1070194691,
0.0325178877, -0.1048067287, 0.0560832135, 0.1956261247, 0.2713034153, 0.0178055111, -0.0532138459, -0.2527394891,
-0.0746108145, 0.0933969095, -0.1333841830, 0.0959269702, 0.0450395383, 0.0390466824, 0.0685295984, -0.1356182098,
-0.2425151765, -0.0007957753, 0.0953533053, -0.2188846022, 0.0162791256, 0.1247711256, -0.0180299059, -0.0754691511,
-0.5497095585, -0.1746208966, 0.7751556635, -0.2971730828, 0.1902992725, 1.2703993320, -0.0198561922, -0.5289990902,
-0.0478736162, -0.3375748992, -2.0664398670, -1.6922132969, -0.0260689054, 0.0823016167, -1.6066099405, 0.1340129972,
0.7679427266, 0.1810747683, -0.7268674970, -0.6839299798, 0.5755463243, -0.1745501906, 0.2311595529, 1.1559507847,
0.1558974981, -0.3679350615, -0.0457969792, 0.2208432257, -0.4491706789, -0.9153931141, 0.0707227215, 0.2678269148,
-1.0583577156, 0.0395878218, 0.7304266691, 0.2417394668, -0.9153931141, -1.0583577156, 0.2417394668, -0.4491706789,
0.2678269148, 0.7304266691, 0.2208432257, 0.0707227215, 0.0395878218, 0.7751556635, 1.2703993320, -0.0478736162,
-0.1746208966, 0.1902992725, -0.5289990902, -0.5497095585, -0.2971730828, -0.0198561922, -1.6922132969, -1.6066099405,
0.1810747683, -2.0664398670, 0.0823016167, 0.7679427266, -0.3375748992, -0.0260689054, 0.1340129972, 0.5755463243,
1.1559507847, -0.0457969792, -0.6839299798, 0.2311595529, -0.3679350615, -0.7268674970, -0.1745501906, 0.1558974981,
-0.0457969792, -0.3679350615, 0.1558974981, 1.1559507847, 0.2311595529, -0.1745501906, 0.5755463243, -0.6839299798,
-0.7268674970, 0.2417394668, 0.7304266691, 0.0395878218, -1.0583577156, 0.2678269148, 0.0707227215, -0.9153931141,
-0.4491706789, 0.2208432257, -0.0478736162, -0.5289990902, -0.0198561922, 1.2703993320, 0.1902992725, -0.2971730828,
0.7751556635, -0.1746208966, -0.5497095585, 0.1810747683, 0.7679427266, 0.1340129972, -1.6066099405, 0.0823016167,
-0.0260689054, -1.6922132969, -2.0664398670, -0.3375748992, 0.1340129972, -0.0260689054, -0.3375748992, 0.7679427266,
0.0823016167, -2.0664398670, 0.1810747683, -1.6066099405, -1.6922132969, 0.1558974981, -0.1745501906, -0.7268674970,
-0.3679350615, 0.2311595529, -0.6839299798, -0.0457969792, 1.1559507847, 0.5755463243, 0.0395878218, 0.0707227215,
0.2208432257, 0.7304266691, 0.2678269148, -0.4491706789, 0.2417394668, -1.0583577156, -0.9153931141, -0.0198561922,
-0.2971730828, -0.5497095585, -0.5289990902, 0.1902992725, -0.1746208966, -0.0478736162, 1.2703993320, 0.7751556635,
-0.0629641786, -0.0274135228, -0.0095549617, 0.0364814140, 0.0735178441, -0.1985984445, 0.1186331734, 0.0474028997,
-0.1292569041, -0.1332454830, -0.2643489242, -0.1343599558, -0.1291224360, -0.0584823526, -0.0625602230, 0.0323711224,
0.2052876055, 0.0885522962, 0.1230178550, -0.1799990088, 0.0567959361, 0.4341901243, -1.1077375412, 0.5750001073,
0.0329339169, -0.0968757272, 0.2156475037, -0.0150536336, 0.0348707587, 0.1012101173, 0.2892856300, -0.5760660172,
0.0061887046, 0.2888736129, 0.2054525167, -0.0615953766, 0.1012101173, 0.0061887046, -0.0615953766, 0.0348707587,
-0.5760660172, 0.2054525167, -0.0150536336, 0.2892856300, 0.2888736129, -0.0095549617, -0.1985984445, -0.1292569041,
-0.0274135228, 0.0735178441, 0.0474028997, -0.0629641786, 0.0364814140, 0.1186331734, -0.1343599558, -0.0625602230,
0.0885522962, -0.2643489242, -0.0584823526, 0.2052876055, -0.1332454830, -0.1291224360, 0.0323711224, 0.0567959361,
0.5750001073, 0.2156475037, -0.1799990088, -1.1077375412, -0.0968757272, 0.1230178550, 0.4341901243, 0.0329339169,
0.2156475037, -0.0968757272, 0.0329339169, 0.5750001073, -1.1077375412, 0.4341901243, 0.0567959361, -0.1799990088,
0.1230178550, -0.0615953766, 0.2054525167, 0.2888736129, 0.0061887046, -0.5760660172, 0.2892856300, 0.1012101173,
0.0348707587, -0.0150536336, -0.1292569041, 0.0474028997, 0.1186331734, -0.1985984445, 0.0735178441, 0.0364814140,
-0.0095549617, -0.0274135228, -0.0629641786, 0.0885522962, 0.2052876055, 0.0323711224, -0.0625602230, -0.0584823526,
-0.1291224360, -0.1343599558, -0.2643489242, -0.1332454830, 0.0323711224, -0.1291224360, -0.1332454830, 0.2052876055,
-0.0584823526, -0.2643489242, 0.0885522962, -0.0625602230, -0.1343599558, 0.0329339169, 0.4341901243, 0.1230178550,
-0.0968757272, -1.1077375412, -0.1799990088, 0.2156475037, 0.5750001073, 0.0567959361, 0.2888736129, 0.2892856300,
-0.0150536336, 0.2054525167, -0.5760660172, 0.0348707587, -0.0615953766, 0.0061887046, 0.1012101173, 0.1186331734,
0.0364814140, -0.0629641786, 0.0474028997, 0.0735178441, -0.0274135228, -0.1292569041, -0.1985984445, -0.0095549617,
-0.0844217241, -0.1523383558, -0.0456398018, -0.0127629060, 0.1309158206, 0.0207901541, 0.0882940888, 0.2050014883,
0.0772705153, -0.0059113046, -0.1296871305, -0.0996619165, 0.0807751417, -0.1163196489, -0.0914401412, 0.0623533167,
0.0897713080, 0.0136307590, -0.1069665104, -0.1477208436, 0.0178686436, 0.0581553839, 0.0578685701, 0.0872998536,
0.1602303386, 0.2255847305, 0.0595063195, 0.0100158453, 0.0052470304, -0.0052077910, 0.0399902202, -0.1248725206,
0.0245347321, 0.0596862659, 0.1466737092, 0.0621236376, -0.0052077910, 0.0245347321, 0.0621236376, 0.0052470304,
-0.1248725206, 0.1466737092, 0.0100158453, 0.0399902202, 0.0596862659, -0.0456398018, 0.0207901541, 0.0772705153,
-0.1523383558, 0.1309158206, 0.2050014883, -0.0844217241, -0.0127629060, 0.0882940888, -0.0996619165, -0.0914401412,
0.0136307590, -0.1296871305, -0.1163196489, 0.0897713080, -0.0059113046, 0.0807751417, 0.0623533167, 0.0178686436,
0.0872998536, 0.0595063195, -0.1477208436, 0.0578685701, 0.2255847305, -0.1069665104, 0.0581553839, 0.1602303386,
0.0595063195, 0.2255847305, 0.1602303386, 0.0872998536, 0.0578685701, 0.0581553839, 0.0178686436, -0.1477208436,
-0.1069665104, 0.0621236376, 0.1466737092, 0.0596862659, 0.0245347321, -0.1248725206, 0.0399902202, -0.0052077910,
0.0052470304, 0.0100158453, 0.0772705153, 0.2050014883, 0.0882940888, 0.0207901541, 0.1309158206, -0.0127629060,
-0.0456398018, -0.1523383558, -0.0844217241, 0.0136307590, 0.0897713080, 0.0623533167, -0.0914401412, -0.1163196489,
0.0807751417, -0.0996619165, -0.1296871305, -0.0059113046, 0.0623533167, 0.0807751417, -0.0059113046, 0.0897713080,
-0.1163196489, -0.1296871305, 0.0136307590, -0.0914401412, -0.0996619165, 0.1602303386, 0.0581553839, -0.1069665104,
0.2255847305, 0.0578685701, -0.1477208436, 0.0595063195, 0.0872998536, 0.0178686436, 0.0596862659, 0.0399902202,
0.0100158453, 0.1466737092, -0.1248725206, 0.0052470304, 0.0621236376, 0.0245347321, -0.0052077910, 0.0882940888,
-0.0127629060, -0.0844217241, 0.2050014883, 0.1309158206, -0.1523383558, 0.0772705153, 0.0207901541, -0.0456398018,
0.0310609620, 0.0056367028, 0.0547201671, 0.1072327271, -0.3610790968, 0.1550965011, 0.0152756618, -0.0418570526,
0.0312140230, -0.0391071141, -0.0225875042, 0.0003510758, -0.0152585525, 0.1674660295, -0.1200127453, -0.0041962354,
-0.1383348852, -0.1303172559, -0.0516336448, 0.0277187340, -0.0600489564, -0.2016667724, 0.0667569563, -0.2451202869,
-0.0515818372, 0.0047345571, -0.0791155025, 0.0896912441, 0.0731371865, 0.0108920233, 0.1700494885, -0.0964125916,
0.0595694631, 0.0885595977, 0.1504194587, 0.0759590492, 0.0108920233, 0.0595694631, 0.0759590492, 0.0731371865,
-0.0964125916, 0.1504194587, 0.0896912441, 0.1700494885, 0.0885595977, 0.0547201671, 0.1550965011, 0.0312140230,
0.0056367028, -0.3610790968, -0.0418570526, 0.0310609620, 0.1072327271, 0.0152756618, 0.0003510758, -0.1200127453,
-0.1303172559, -0.0225875042, 0.1674660295, -0.1383348852, -0.0391071141, -0.0152585525, -0.0041962354, -0.0600489564,
-0.2451202869, -0.0791155025, 0.0277187340, 0.0667569563, 0.0047345571, -0.0516336448, -0.2016667724, -0.0515818372,
-0.0791155025, 0.0047345571, -0.0515818372, -0.2451202869, 0.0667569563, -0.2016667724, -0.0600489564, 0.0277187340,
-0.0516336448, 0.0759590492, 0.1504194587, 0.0885595977, 0.0595694631, -0.0964125916, 0.1700494885, 0.0108920233,
0.0731371865, 0.0896912441, 0.0312140230, -0.0418570526, 0.0152756618, 0.1550965011, -0.3610790968, 0.1072327271,
0.0547201671, 0.0056367028, 0.0310609620, -0.1303172559, -0.1383348852, -0.0041962354, -0.1200127453, 0.1674660295,
-0.0152585525, 0.0003510758, -0.0225875042, -0.0391071141, -0.0041962354, -0.0152585525, -0.0391071141, -0.1383348852,
0.1674660295, -0.0225875042, -0.1303172559, -0.1200127453, 0.0003510758, -0.0515818372, -0.2016667724, -0.0516336448,
0.0047345571, 0.0667569563, 0.0277187340, -0.0791155025, -0.2451202869, -0.0600489564, 0.0885595977, 0.1700494885,
0.0896912441, 0.1504194587, -0.0964125916, 0.0731371865, 0.0759590492, 0.0595694631, 0.0108920233, 0.0152756618,
0.1072327271, 0.0310609620, -0.0418570526, -0.3610790968, 0.0056367028, 0.0312140230, 0.1550965011, 0.0547201671,
0.0341277346, -0.1549685597, -0.1566922665, 0.1284762919, 0.0994376913, -0.1780882478, 0.0295206569, -0.0113611352,
-0.0332792215, 0.0408333316, 0.0198632311, -0.0335579738, 0.0327171832, 0.0473891981, -0.0412550196, 0.0033469431,
0.0351090916, 0.0165412743, -0.0374555700, -0.2649087608, -0.1513672620, 0.1851288527, -0.0421461537, -0.1571968645,
0.1337158233, 0.0819572359, -0.0355774723, -0.0074206325, -0.0393899530, -0.0277103391, 0.0199773200, 0.0104306908,
-0.0161260590, 0.0323419683, 0.0696838200, 0.0227634590, -0.0277103391, -0.0161260590, 0.0227634590, -0.0393899530,
0.0104306908, 0.0696838200, -0.0074206325, 0.0199773200, 0.0323419683, -0.1566922665, -0.1780882478, -0.0332792215,
-0.1549685597, 0.0994376913, -0.0113611352, 0.0341277346, 0.1284762919, 0.0295206569, -0.0335579738, -0.0412550196,
0.0165412743, 0.0198632311, 0.0473891981, 0.0351090916, 0.0408333316, 0.0327171832, 0.0033469431, -0.1513672620,
-0.1571968645, -0.0355774723, -0.2649087608, -0.0421461537, 0.0819572359, -0.0374555700, 0.1851288527, 0.1337158233,
-0.0355774723, 0.0819572359, 0.1337158233, -0.1571968645, -0.0421461537, 0.1851288527, -0.1513672620, -0.2649087608,
-0.0374555700, 0.0227634590, 0.0696838200, 0.0323419683, -0.0161260590, 0.0104306908, 0.0199773200, -0.0277103391,
-0.0393899530, -0.0074206325, -0.0332792215, -0.0113611352, 0.0295206569, -0.1780882478, 0.0994376913, 0.1284762919,
-0.1566922665, -0.1549685597, 0.0341277346, 0.0165412743, 0.0351090916, 0.0033469431, -0.0412550196, 0.0473891981,
0.0327171832, -0.0335579738, 0.0198632311, 0.0408333316, 0.0033469431, 0.0327171832, 0.0408333316, 0.0351090916,
0.0473891981, 0.0198632311, 0.0165412743, -0.0412550196, -0.0335579738, 0.1337158233, 0.1851288527, -0.0374555700,
0.0819572359, -0.0421461537, -0.2649087608, -0.0355774723, -0.1571968645, -0.1513672620, 0.0323419683, 0.0199773200,
-0.0074206325, 0.0696838200, 0.0104306908, -0.0393899530, 0.0227634590, -0.0161260590, -0.0277103391, 0.0295206569,
0.1284762919, 0.0341277346, -0.0113611352, 0.0994376913, -0.1549685597, -0.0332792215, -0.1780882478, -0.1566922665,
0.2006771266, 0.1074300632, -0.1839865744, -0.0588881113, -0.0154325347, -0.1824866086, -0.2163237035, -0.0943437666,
0.0660873652, -0.0884657577, -0.1569493413, -0.0488408804, 0.1738592386, 0.1419313997, -0.1547429264, 0.2614988685,
0.2646985054, -0.0499775559, 0.0244764555, -0.0635975003, -0.1331473738, 0.2104653418, -0.5545191169, -0.1299341470,
0.3320838511, 0.7207050323, 0.2080962658, -0.0567514002, -0.2298823446, -0.1974580139, -0.3015682995, 0.8285881281,
-0.0015259630, -0.2154629380, 0.0266328715, 0.1734677702, -0.1974580139, -0.0015259630, 0.1734677702, -0.2298823446,
0.8285881281, 0.0266328715, -0.0567514002, -0.3015682995, -0.2154629380, -0.1839865744, -0.1824866086, 0.0660873652,
0.1074300632, -0.0154325347, -0.0943437666, 0.2006771266, -0.0588881113, -0.2163237035, -0.0488408804, -0.1547429264,
-0.0499775559, -0.1569493413, 0.1419313997, 0.2646985054, -0.0884657577, 0.1738592386, 0.2614988685, -0.1331473738,
-0.1299341470, 0.2080962658, -0.0635975003, -0.5545191169, 0.7207050323, 0.0244764555, 0.2104653418, 0.3320838511,
0.2080962658, 0.7207050323, 0.3320838511, -0.1299341470, -0.5545191169, 0.2104653418, -0.1331473738, -0.0635975003,
0.0244764555, 0.1734677702, 0.0266328715, -0.2154629380, -0.0015259630, 0.8285881281, -0.3015682995, -0.1974580139,
-0.2298823446, -0.0567514002, 0.0660873652, -0.0943437666, -0.2163237035, -0.1824866086, -0.0154325347, -0.0588881113,
-0.1839865744, 0.1074300632, 0.2006771266, -0.0499775559, 0.2646985054, 0.2614988685, -0.1547429264, 0.1419313997,
0.1738592386, -0.0488408804, -0.1569493413, -0.0884657577, 0.2614988685, 0.1738592386, -0.0884657577, 0.2646985054,
0.1419313997, -0.1569493413, -0.0499775559, -0.1547429264, -0.0488408804, 0.3320838511, 0.2104653418, 0.0244764555,
0.7207050323, -0.5545191169, -0.0635975003, 0.2080962658, -0.1299341470, -0.1331473738, -0.2154629380, -0.3015682995,
-0.0567514002, 0.0266328715, 0.8285881281, -0.2298823446, 0.1734677702, -0.0015259630, -0.1974580139, -0.2163237035,
-0.0588881113, 0.2006771266, -0.0943437666, -0.0154325347, 0.1074300632, 0.0660873652, -0.1824866086, -0.1839865744,
};

static float convdw3x3s1_3_bias[32] = { 
2.0169446468, 2.0169446468, 2.0169446468, 2.0169446468, 0.6358666420, 0.6358666420, 0.6358666420, 0.6358666420,
7.7777843475, 7.7777843475, 7.7777843475, 7.7777843475, 1.6865730286, 1.6865730286, 1.6865730286, 1.6865730286,
0.3711236715, 0.3711236715, 0.3711236715, 0.3711236715, 1.2365596294, 1.2365596294, 1.2365596294, 1.2365596294,
1.1482448578, 1.1482448578, 1.1482448578, 1.1482448578, 7.4037027359, 7.4037027359, 7.4037027359, 7.4037027359,
};

static float conv1x1s1_dd_3_weight[1024] = { 
0.1753968149, -0.0793983638, -0.0397201255, 0.1455473751, 0.2814614177, 0.1855188161, 0.5066305399, 0.0423309021,
-0.0061739837, 0.0500934310, -0.0051068109, -0.1572051346, 0.1760809124, -0.2133578062, -0.2228794545, -0.1493029892,
0.2474514842, -0.0286766738, 0.0751122236, 0.0581631064, 0.3641127646, -0.5499666333, -0.2756534815, 0.1344760060,
0.1906007528, -0.0857368335, 0.1734282523, -0.1900004148, 0.4173893929, 0.4511759281, 0.2430396974, 0.0723199472,
0.1455473751, 0.1753968149, -0.0793983638, -0.0397201255, 0.0423309021, 0.2814614177, 0.1855188161, 0.5066305399,
-0.1572051346, -0.0061739837, 0.0500934310, -0.0051068109, -0.1493029892, 0.1760809124, -0.2133578062, -0.2228794545,
0.0581631064, 0.2474514842, -0.0286766738, 0.0751122236, 0.1344760060, 0.3641127646, -0.5499666333, -0.2756534815,
-0.1900004148, 0.1906007528, -0.0857368335, 0.1734282523, 0.0723199472, 0.4173893929, 0.4511759281, 0.2430396974,
-0.0397201255, 0.1455473751, 0.1753968149, -0.0793983638, 0.5066305399, 0.0423309021, 0.2814614177, 0.1855188161,
-0.0051068109, -0.1572051346, -0.0061739837, 0.0500934310, -0.2228794545, -0.1493029892, 0.1760809124, -0.2133578062,
0.0751122236, 0.0581631064, 0.2474514842, -0.0286766738, -0.2756534815, 0.1344760060, 0.3641127646, -0.5499666333,
0.1734282523, -0.1900004148, 0.1906007528, -0.0857368335, 0.2430396974, 0.0723199472, 0.4173893929, 0.4511759281,
-0.0793983638, -0.0397201255, 0.1455473751, 0.1753968149, 0.1855188161, 0.5066305399, 0.0423309021, 0.2814614177,
0.0500934310, -0.0051068109, -0.1572051346, -0.0061739837, -0.2133578062, -0.2228794545, -0.1493029892, 0.1760809124,
-0.0286766738, 0.0751122236, 0.0581631064, 0.2474514842, -0.5499666333, -0.2756534815, 0.1344760060, 0.3641127646,
-0.0857368335, 0.1734282523, -0.1900004148, 0.1906007528, 0.4511759281, 0.2430396974, 0.0723199472, 0.4173893929,
0.2367123216, -0.1758019179, -0.3068021238, -0.1446995735, -0.1668216586, -0.0430494659, 0.0531646945, 0.1807599664,
-0.4666546285, -0.2392610461, -0.2479426265, 0.1414539367, -0.2022647858, 0.0862582251, -0.0532443449, -0.0308235772,
0.2071631104, -0.1077630445, -0.1251261979, 0.2312166542, -0.2368716151, 0.0274584703, -0.1537196487, -0.0376533493,
0.1977647096, -0.3157624602, 0.0753465220, -0.0154914362, -0.1751448214, -0.1793362647, 0.0537620522, -0.1468998343,
-0.1446995735, 0.2367123216, -0.1758019179, -0.3068021238, 0.1807599664, -0.1668216586, -0.0430494659, 0.0531646945,
0.1414539367, -0.4666546285, -0.2392610461, -0.2479426265, -0.0308235772, -0.2022647858, 0.0862582251, -0.0532443449,
0.2312166542, 0.2071631104, -0.1077630445, -0.1251261979, -0.0376533493, -0.2368716151, 0.0274584703, -0.1537196487,
-0.0154914362, 0.1977647096, -0.3157624602, 0.0753465220, -0.1468998343, -0.1751448214, -0.1793362647, 0.0537620522,
-0.3068021238, -0.1446995735, 0.2367123216, -0.1758019179, 0.0531646945, 0.1807599664, -0.1668216586, -0.0430494659,
-0.2479426265, 0.1414539367, -0.4666546285, -0.2392610461, -0.0532443449, -0.0308235772, -0.2022647858, 0.0862582251,
-0.1251261979, 0.2312166542, 0.2071631104, -0.1077630445, -0.1537196487, -0.0376533493, -0.2368716151, 0.0274584703,
0.0753465220, -0.0154914362, 0.1977647096, -0.3157624602, 0.0537620522, -0.1468998343, -0.1751448214, -0.1793362647,
-0.1758019179, -0.3068021238, -0.1446995735, 0.2367123216, -0.0430494659, 0.0531646945, 0.1807599664, -0.1668216586,
-0.2392610461, -0.2479426265, 0.1414539367, -0.4666546285, 0.0862582251, -0.0532443449, -0.0308235772, -0.2022647858,
-0.1077630445, -0.1251261979, 0.2312166542, 0.2071631104, 0.0274584703, -0.1537196487, -0.0376533493, -0.2368716151,
-0.3157624602, 0.0753465220, -0.0154914362, 0.1977647096, -0.1793362647, 0.0537620522, -0.1468998343, -0.1751448214,
-0.0617170297, 0.0779240876, 0.0539735928, 0.0928002447, 0.3378995955, 0.1834456921, 0.0923220366, 0.0467371680,
0.3911357224, -0.6042645574, -0.2368200868, -0.1005724892, -0.1916370839, 0.4253877401, -0.1972746998, -0.0473305993,
0.1115884483, -0.2047401369, -0.0592280664, -0.1024161577, 0.0745420977, 0.1179664135, 0.0547110625, 0.0580930561,
0.2480204105, 0.3583643734, 0.0079738954, 0.0917689353, -0.2941583991, -0.2267720550, 0.2010527849, -0.0776187256,
0.0928002447, -0.0617170297, 0.0779240876, 0.0539735928, 0.0467371680, 0.3378995955, 0.1834456921, 0.0923220366,
-0.1005724892, 0.3911357224, -0.6042645574, -0.2368200868, -0.0473305993, -0.1916370839, 0.4253877401, -0.1972746998,
-0.1024161577, 0.1115884483, -0.2047401369, -0.0592280664, 0.0580930561, 0.0745420977, 0.1179664135, 0.0547110625,
0.0917689353, 0.2480204105, 0.3583643734, 0.0079738954, -0.0776187256, -0.2941583991, -0.2267720550, 0.2010527849,
0.0539735928, 0.0928002447, -0.0617170297, 0.0779240876, 0.0923220366, 0.0467371680, 0.3378995955, 0.1834456921,
-0.2368200868, -0.1005724892, 0.3911357224, -0.6042645574, -0.1972746998, -0.0473305993, -0.1916370839, 0.4253877401,
-0.0592280664, -0.1024161577, 0.1115884483, -0.2047401369, 0.0547110625, 0.0580930561, 0.0745420977, 0.1179664135,
0.0079738954, 0.0917689353, 0.2480204105, 0.3583643734, 0.2010527849, -0.0776187256, -0.2941583991, -0.2267720550,
0.0779240876, 0.0539735928, 0.0928002447, -0.0617170297, 0.1834456921, 0.0923220366, 0.0467371680, 0.3378995955,
-0.6042645574, -0.2368200868, -0.1005724892, 0.3911357224, 0.4253877401, -0.1972746998, -0.0473305993, -0.1916370839,
-0.2047401369, -0.0592280664, -0.1024161577, 0.1115884483, 0.1179664135, 0.0547110625, 0.0580930561, 0.0745420977,
0.3583643734, 0.0079738954, 0.0917689353, 0.2480204105, -0.2267720550, 0.2010527849, -0.0776187256, -0.2941583991,
-0.2868736982, -0.0839523599, -0.2672643960, 0.1681673527, -0.0368331149, -0.1699838340, 0.1692397296, 0.1029707640,
-0.4243796170, 0.1369806677, 0.1348358989, 0.2237343490, -0.0151446909, 0.0644305944, 0.0450839065, 0.2845100760,
-0.1773592085, -0.3857081234, -0.0663565025, 0.0176833961, 0.0785904378, -0.1092737615, -0.2817306519, 0.1438964456,
0.0700291470, 0.0065109041, 0.0654633120, 0.0612681508, -0.1787379831, -0.1420580745, 0.0115773715, 0.4402684271,
0.1681673527, -0.2868736982, -0.0839523599, -0.2672643960, 0.1029707640, -0.0368331149, -0.1699838340, 0.1692397296,
0.2237343490, -0.4243796170, 0.1369806677, 0.1348358989, 0.2845100760, -0.0151446909, 0.0644305944, 0.0450839065,
0.0176833961, -0.1773592085, -0.3857081234, -0.0663565025, 0.1438964456, 0.0785904378, -0.1092737615, -0.2817306519,
0.0612681508, 0.0700291470, 0.0065109041, 0.0654633120, 0.4402684271, -0.1787379831, -0.1420580745, 0.0115773715,
-0.2672643960, 0.1681673527, -0.2868736982, -0.0839523599, 0.1692397296, 0.1029707640, -0.0368331149, -0.1699838340,
0.1348358989, 0.2237343490, -0.4243796170, 0.1369806677, 0.0450839065, 0.2845100760, -0.0151446909, 0.0644305944,
-0.0663565025, 0.0176833961, -0.1773592085, -0.3857081234, -0.2817306519, 0.1438964456, 0.0785904378, -0.1092737615,
0.0654633120, 0.0612681508, 0.0700291470, 0.0065109041, 0.0115773715, 0.4402684271, -0.1787379831, -0.1420580745,
-0.0839523599, -0.2672643960, 0.1681673527, -0.2868736982, -0.1699838340, 0.1692397296, 0.1029707640, -0.0368331149,
0.1369806677, 0.1348358989, 0.2237343490, -0.4243796170, 0.0644305944, 0.0450839065, 0.2845100760, -0.0151446909,
-0.3857081234, -0.0663565025, 0.0176833961, -0.1773592085, -0.1092737615, -0.2817306519, 0.1438964456, 0.0785904378,
0.0065109041, 0.0654633120, 0.0612681508, 0.0700291470, -0.1420580745, 0.0115773715, 0.4402684271, -0.1787379831,
0.0769045725, 0.1491833031, -0.1081289873, 0.0080952179, 0.0593868382, -0.3257931173, -0.1969266981, 0.1262775213,
-0.3427326083, -0.4146959484, 0.0365861803, -0.4499154091, 0.0953422189, 0.2778394520, 0.1159219518, 0.1252918988,
-0.3788982630, 0.0520965420, -0.1722073704, 0.0650212914, -0.0238125585, -0.0135621186, 0.0192918517, 0.1742048860,
0.0755904168, -0.1744742990, -0.3272781074, -0.1915977895, -0.0139300833, 0.4509141743, -0.2026432902, 0.2021701932,
0.0080952179, 0.0769045725, 0.1491833031, -0.1081289873, 0.1262775213, 0.0593868382, -0.3257931173, -0.1969266981,
-0.4499154091, -0.3427326083, -0.4146959484, 0.0365861803, 0.1252918988, 0.0953422189, 0.2778394520, 0.1159219518,
0.0650212914, -0.3788982630, 0.0520965420, -0.1722073704, 0.1742048860, -0.0238125585, -0.0135621186, 0.0192918517,
-0.1915977895, 0.0755904168, -0.1744742990, -0.3272781074, 0.2021701932, -0.0139300833, 0.4509141743, -0.2026432902,
-0.1081289873, 0.0080952179, 0.0769045725, 0.1491833031, -0.1969266981, 0.1262775213, 0.0593868382, -0.3257931173,
0.0365861803, -0.4499154091, -0.3427326083, -0.4146959484, 0.1159219518, 0.1252918988, 0.0953422189, 0.2778394520,
-0.1722073704, 0.0650212914, -0.3788982630, 0.0520965420, 0.0192918517, 0.1742048860, -0.0238125585, -0.0135621186,
-0.3272781074, -0.1915977895, 0.0755904168, -0.1744742990, -0.2026432902, 0.2021701932, -0.0139300833, 0.4509141743,
0.1491833031, -0.1081289873, 0.0080952179, 0.0769045725, -0.3257931173, -0.1969266981, 0.1262775213, 0.0593868382,
-0.4146959484, 0.0365861803, -0.4499154091, -0.3427326083, 0.2778394520, 0.1159219518, 0.1252918988, 0.0953422189,
0.0520965420, -0.1722073704, 0.0650212914, -0.3788982630, -0.0135621186, 0.0192918517, 0.1742048860, -0.0238125585,
-0.1744742990, -0.3272781074, -0.1915977895, 0.0755904168, 0.4509141743, -0.2026432902, 0.2021701932, -0.0139300833,
0.1111449152, 0.3740603030, 0.1332894564, -0.0554294549, 0.0215112604, 0.2696023285, 0.0323111527, 0.4056836963,
-0.3103232384, -0.0196386427, 0.6501997709, 0.1853005439, 0.0984247401, 0.0390730016, -0.1650217921, -0.2147857398,
0.0369075723, -0.1263846010, -0.0665425882, -0.4310151041, -0.2429635078, -0.3177047670, 0.1019793078, -0.0067550396,
-0.0016955694, -0.0429884717, 0.4426116943, -0.3423892558, -0.1069366336, -0.1780824512, -0.3845469654, 0.0494098440,
-0.0554294549, 0.1111449152, 0.3740603030, 0.1332894564, 0.4056836963, 0.0215112604, 0.2696023285, 0.0323111527,
0.1853005439, -0.3103232384, -0.0196386427, 0.6501997709, -0.2147857398, 0.0984247401, 0.0390730016, -0.1650217921,
-0.4310151041, 0.0369075723, -0.1263846010, -0.0665425882, -0.0067550396, -0.2429635078, -0.3177047670, 0.1019793078,
-0.3423892558, -0.0016955694, -0.0429884717, 0.4426116943, 0.0494098440, -0.1069366336, -0.1780824512, -0.3845469654,
0.1332894564, -0.0554294549, 0.1111449152, 0.3740603030, 0.0323111527, 0.4056836963, 0.0215112604, 0.2696023285,
0.6501997709, 0.1853005439, -0.3103232384, -0.0196386427, -0.1650217921, -0.2147857398, 0.0984247401, 0.0390730016,
-0.0665425882, -0.4310151041, 0.0369075723, -0.1263846010, 0.1019793078, -0.0067550396, -0.2429635078, -0.3177047670,
0.4426116943, -0.3423892558, -0.0016955694, -0.0429884717, -0.3845469654, 0.0494098440, -0.1069366336, -0.1780824512,
0.3740603030, 0.1332894564, -0.0554294549, 0.1111449152, 0.2696023285, 0.0323111527, 0.4056836963, 0.0215112604,
-0.0196386427, 0.6501997709, 0.1853005439, -0.3103232384, 0.0390730016, -0.1650217921, -0.2147857398, 0.0984247401,
-0.1263846010, -0.0665425882, -0.4310151041, 0.0369075723, -0.3177047670, 0.1019793078, -0.0067550396, -0.2429635078,
-0.0429884717, 0.4426116943, -0.3423892558, -0.0016955694, -0.1780824512, -0.3845469654, 0.0494098440, -0.1069366336,
0.0705643296, 0.1849485040, 0.2267522067, -0.1353271604, -0.1834466904, 0.0904169828, -0.0010903527, -0.0404253379,
-0.1557764262, 0.4498013258, 0.1409640908, -0.0291309319, -0.0188857317, 0.3870957792, 0.0425854735, 0.2518097460,
0.1480410844, 0.1086238101, 0.0338215046, 0.2460493892, 0.1084180847, -0.1449500471, -0.1035629287, -0.1296542436,
0.2357630432, 0.2078664750, -0.3317140937, 0.2978925705, 0.1196199208, -0.0188960172, -0.1981870234, 0.0450850539,
-0.1353271604, 0.0705643296, 0.1849485040, 0.2267522067, -0.0404253379, -0.1834466904, 0.0904169828, -0.0010903527,
-0.0291309319, -0.1557764262, 0.4498013258, 0.1409640908, 0.2518097460, -0.0188857317, 0.3870957792, 0.0425854735,
0.2460493892, 0.1480410844, 0.1086238101, 0.0338215046, -0.1296542436, 0.1084180847, -0.1449500471, -0.1035629287,
0.2978925705, 0.2357630432, 0.2078664750, -0.3317140937, 0.0450850539, 0.1196199208, -0.0188960172, -0.1981870234,
0.2267522067, -0.1353271604, 0.0705643296, 0.1849485040, -0.0010903527, -0.0404253379, -0.1834466904, 0.0904169828,
0.1409640908, -0.0291309319, -0.1557764262, 0.4498013258, 0.0425854735, 0.2518097460, -0.0188857317, 0.3870957792,
0.0338215046, 0.2460493892, 0.1480410844, 0.1086238101, -0.1035629287, -0.1296542436, 0.1084180847, -0.1449500471,
-0.3317140937, 0.2978925705, 0.2357630432, 0.2078664750, -0.1981870234, 0.0450850539, 0.1196199208, -0.0188960172,
0.1849485040, 0.2267522067, -0.1353271604, 0.0705643296, 0.0904169828, -0.0010903527, -0.0404253379, -0.1834466904,
0.4498013258, 0.1409640908, -0.0291309319, -0.1557764262, 0.3870957792, 0.0425854735, 0.2518097460, -0.0188857317,
0.1086238101, 0.0338215046, 0.2460493892, 0.1480410844, -0.1449500471, -0.1035629287, -0.1296542436, 0.1084180847,
0.2078664750, -0.3317140937, 0.2978925705, 0.2357630432, -0.0188960172, -0.1981870234, 0.0450850539, 0.1196199208,
0.1482210308, 0.2701478004, 0.0888951942, 0.3700847328, -0.0812455267, 0.1119845510, -0.0331485495, -0.1399163604,
-0.1749773175, -0.3602068126, 0.1463554054, 0.3591892123, -0.0617704615, -0.0400847122, -0.1367231458, -0.1731467843,
-0.2624630630, 0.3493230045, 0.0186329000, -0.1608418077, -0.0240017027, -0.2694460154, -0.2504504919, -0.2308935672,
0.2942138314, 0.0870997459, -0.0310489852, 0.1355710179, 0.3865537345, -0.3556275666, 0.2114769816, -0.0427164808,
0.3700847328, 0.1482210308, 0.2701478004, 0.0888951942, -0.1399163604, -0.0812455267, 0.1119845510, -0.0331485495,
0.3591892123, -0.1749773175, -0.3602068126, 0.1463554054, -0.1731467843, -0.0617704615, -0.0400847122, -0.1367231458,
-0.1608418077, -0.2624630630, 0.3493230045, 0.0186329000, -0.2308935672, -0.0240017027, -0.2694460154, -0.2504504919,
0.1355710179, 0.2942138314, 0.0870997459, -0.0310489852, -0.0427164808, 0.3865537345, -0.3556275666, 0.2114769816,
0.0888951942, 0.3700847328, 0.1482210308, 0.2701478004, -0.0331485495, -0.1399163604, -0.0812455267, 0.1119845510,
0.1463554054, 0.3591892123, -0.1749773175, -0.3602068126, -0.1367231458, -0.1731467843, -0.0617704615, -0.0400847122,
0.0186329000, -0.1608418077, -0.2624630630, 0.3493230045, -0.2504504919, -0.2308935672, -0.0240017027, -0.2694460154,
-0.0310489852, 0.1355710179, 0.2942138314, 0.0870997459, 0.2114769816, -0.0427164808, 0.3865537345, -0.3556275666,
0.2701478004, 0.0888951942, 0.3700847328, 0.1482210308, 0.1119845510, -0.0331485495, -0.1399163604, -0.0812455267,
-0.3602068126, 0.1463554054, 0.3591892123, -0.1749773175, -0.0400847122, -0.1367231458, -0.1731467843, -0.0617704615,
0.3493230045, 0.0186329000, -0.1608418077, -0.2624630630, -0.2694460154, -0.2504504919, -0.2308935672, -0.0240017027,
0.0870997459, -0.0310489852, 0.1355710179, 0.2942138314, -0.3556275666, 0.2114769816, -0.0427164808, 0.3865537345,
};

static float conv1x1s1_dd_3_bias[32] = { 
-11.3926773071, -11.3926773071, -11.3926773071, -11.3926773071, 4.1950550079, 4.1950550079, 4.1950550079, 4.1950550079,
3.5209949017, 3.5209949017, 3.5209949017, 3.5209949017, 0.3337032199, 0.3337032199, 0.3337032199, 0.3337032199,
-2.5392487049, -2.5392487049, -2.5392487049, -2.5392487049, 5.5125193596, 5.5125193596, 5.5125193596, 5.5125193596,
-1.7475006580, -1.7475006580, -1.7475006580, -1.7475006580, -2.7405781746, -2.7405781746, -2.7405781746, -2.7405781746,
};

static float conv1x1s1_di_4_weight[1024] = { 
0.1344507784, 0.0485967286, 0.1354812831, -0.1874445230, 0.1077190191, 0.3848174214, -0.1063753292, 0.1459394842,
0.2240693718, 0.1210345924, -0.0113746952, 0.0213030595, -0.1487248391, 0.1375181079, 0.1228495091, -0.0776213333,
0.2559353113, 0.3239035308, -0.0253434554, 0.1776654571, 0.0810505375, -0.1987912208, -0.2901060581, -0.1594883502,
-0.0521798991, -0.0746493563, 0.0265005212, -0.1563157439, -0.1710776538, -0.0698904544, 0.0531690009, 0.0888140649,
-0.1874445230, 0.1344507784, 0.0485967286, 0.1354812831, 0.1459394842, 0.1077190191, 0.3848174214, -0.1063753292,
0.0213030595, 0.2240693718, 0.1210345924, -0.0113746952, -0.0776213333, -0.1487248391, 0.1375181079, 0.1228495091,
0.1776654571, 0.2559353113, 0.3239035308, -0.0253434554, -0.1594883502, 0.0810505375, -0.1987912208, -0.2901060581,
-0.1563157439, -0.0521798991, -0.0746493563, 0.0265005212, 0.0888140649, -0.1710776538, -0.0698904544, 0.0531690009,
0.1354812831, -0.1874445230, 0.1344507784, 0.0485967286, -0.1063753292, 0.1459394842, 0.1077190191, 0.3848174214,
-0.0113746952, 0.0213030595, 0.2240693718, 0.1210345924, 0.1228495091, -0.0776213333, -0.1487248391, 0.1375181079,
-0.0253434554, 0.1776654571, 0.2559353113, 0.3239035308, -0.2901060581, -0.1594883502, 0.0810505375, -0.1987912208,
0.0265005212, -0.1563157439, -0.0521798991, -0.0746493563, 0.0531690009, 0.0888140649, -0.1710776538, -0.0698904544,
0.0485967286, 0.1354812831, -0.1874445230, 0.1344507784, 0.3848174214, -0.1063753292, 0.1459394842, 0.1077190191,
0.1210345924, -0.0113746952, 0.0213030595, 0.2240693718, 0.1375181079, 0.1228495091, -0.0776213333, -0.1487248391,
0.3239035308, -0.0253434554, 0.1776654571, 0.2559353113, -0.1987912208, -0.2901060581, -0.1594883502, 0.0810505375,
-0.0746493563, 0.0265005212, -0.1563157439, -0.0521798991, -0.0698904544, 0.0531690009, 0.0888140649, -0.1710776538,
0.1703749150, 0.5745294094, 0.6446364522, 0.9761369824, -0.2616615295, 0.0537532158, -0.4676932096, 0.2013399750,
-0.2067018896, -0.8234564066, 0.4930282533, 0.6693012714, -0.6885371208, 0.0410856865, 0.7774109244, 0.3585111797,
-0.1108576283, -0.3044898510, 0.3253343105, -0.0633376464, -0.1103549525, -0.4137054086, 0.2427272797, 0.1761054546,
0.0657505020, -0.4745966792, -0.1032839268, -0.3484575748, -0.2661018670, 0.4139986336, -0.2198218405, 0.4351949394,
0.9761369824, 0.1703749150, 0.5745294094, 0.6446364522, 0.2013399750, -0.2616615295, 0.0537532158, -0.4676932096,
0.6693012714, -0.2067018896, -0.8234564066, 0.4930282533, 0.3585111797, -0.6885371208, 0.0410856865, 0.7774109244,
-0.0633376464, -0.1108576283, -0.3044898510, 0.3253343105, 0.1761054546, -0.1103549525, -0.4137054086, 0.2427272797,
-0.3484575748, 0.0657505020, -0.4745966792, -0.1032839268, 0.4351949394, -0.2661018670, 0.4139986336, -0.2198218405,
0.6446364522, 0.9761369824, 0.1703749150, 0.5745294094, -0.4676932096, 0.2013399750, -0.2616615295, 0.0537532158,
0.4930282533, 0.6693012714, -0.2067018896, -0.8234564066, 0.7774109244, 0.3585111797, -0.6885371208, 0.0410856865,
0.3253343105, -0.0633376464, -0.1108576283, -0.3044898510, 0.2427272797, 0.1761054546, -0.1103549525, -0.4137054086,
-0.1032839268, -0.3484575748, 0.0657505020, -0.4745966792, -0.2198218405, 0.4351949394, -0.2661018670, 0.4139986336,
0.5745294094, 0.6446364522, 0.9761369824, 0.1703749150, 0.0537532158, -0.4676932096, 0.2013399750, -0.2616615295,
-0.8234564066, 0.4930282533, 0.6693012714, -0.2067018896, 0.0410856865, 0.7774109244, 0.3585111797, -0.6885371208,
-0.3044898510, 0.3253343105, -0.0633376464, -0.1108576283, -0.4137054086, 0.2427272797, 0.1761054546, -0.1103549525,
-0.4745966792, -0.1032839268, -0.3484575748, 0.0657505020, 0.4139986336, -0.2198218405, 0.4351949394, -0.2661018670,
-0.3132115304, 0.1652542502, -0.2924002111, 0.3192900717, -0.3860969543, -0.0516505390, 0.9509560466, 0.3806022108,
-0.1733589917, 0.1069413424, -0.5385759473, 0.1987492591, -0.0099291634, -0.0060971561, 0.2250624746, 0.2312755436,
0.0478500128, -0.3802816868, 0.2245058417, -0.3312869370, -0.3175958693, -0.2549558580, 0.1783958375, 1.1634192467,
-0.0642426461, -0.8789749742, -0.2115932107, -0.2093495280, -0.2766371667, 0.6127319932, 0.5556325316, -0.2210029513,
0.3192900717, -0.3132115304, 0.1652542502, -0.2924002111, 0.3806022108, -0.3860969543, -0.0516505390, 0.9509560466,
0.1987492591, -0.1733589917, 0.1069413424, -0.5385759473, 0.2312755436, -0.0099291634, -0.0060971561, 0.2250624746,
-0.3312869370, 0.0478500128, -0.3802816868, 0.2245058417, 1.1634192467, -0.3175958693, -0.2549558580, 0.1783958375,
-0.2093495280, -0.0642426461, -0.8789749742, -0.2115932107, -0.2210029513, -0.2766371667, 0.6127319932, 0.5556325316,
-0.2924002111, 0.3192900717, -0.3132115304, 0.1652542502, 0.9509560466, 0.3806022108, -0.3860969543, -0.0516505390,
-0.5385759473, 0.1987492591, -0.1733589917, 0.1069413424, 0.2250624746, 0.2312755436, -0.0099291634, -0.0060971561,
0.2245058417, -0.3312869370, 0.0478500128, -0.3802816868, 0.1783958375, 1.1634192467, -0.3175958693, -0.2549558580,
-0.2115932107, -0.2093495280, -0.0642426461, -0.8789749742, 0.5556325316, -0.2210029513, -0.2766371667, 0.6127319932,
0.1652542502, -0.2924002111, 0.3192900717, -0.3132115304, -0.0516505390, 0.9509560466, 0.3806022108, -0.3860969543,
0.1069413424, -0.5385759473, 0.1987492591, -0.1733589917, -0.0060971561, 0.2250624746, 0.2312755436, -0.0099291634,
-0.3802816868, 0.2245058417, -0.3312869370, 0.0478500128, -0.2549558580, 0.1783958375, 1.1634192467, -0.3175958693,
-0.8789749742, -0.2115932107, -0.2093495280, -0.0642426461, 0.6127319932, 0.5556325316, -0.2210029513, -0.2766371667,
0.0534174703, -0.0218714923, -0.0631563812, 0.0239253789, -0.0017229405, 0.0067048152, 0.0605656542, -0.0940240473,
0.0362929069, 0.1007642299, 0.0102012223, -0.0249447431, 0.0564705096, 0.1815277040, 0.1901019812, 0.0834666118,
0.2363813668, -0.0152386762, 0.1293468475, 0.0504856929, -0.1282453835, -0.1106427163, -0.0259805284, -0.1131475493,
0.0487678051, -0.0675332025, -0.0561648272, -0.0617732257, -0.2233860493, -0.0575795583, -0.1064888388, -0.1710005850,
0.0239253789, 0.0534174703, -0.0218714923, -0.0631563812, -0.0940240473, -0.0017229405, 0.0067048152, 0.0605656542,
-0.0249447431, 0.0362929069, 0.1007642299, 0.0102012223, 0.0834666118, 0.0564705096, 0.1815277040, 0.1901019812,
0.0504856929, 0.2363813668, -0.0152386762, 0.1293468475, -0.1131475493, -0.1282453835, -0.1106427163, -0.0259805284,
-0.0617732257, 0.0487678051, -0.0675332025, -0.0561648272, -0.1710005850, -0.2233860493, -0.0575795583, -0.1064888388,
-0.0631563812, 0.0239253789, 0.0534174703, -0.0218714923, 0.0605656542, -0.0940240473, -0.0017229405, 0.0067048152,
0.0102012223, -0.0249447431, 0.0362929069, 0.1007642299, 0.1901019812, 0.0834666118, 0.0564705096, 0.1815277040,
0.1293468475, 0.0504856929, 0.2363813668, -0.0152386762, -0.0259805284, -0.1131475493, -0.1282453835, -0.1106427163,
-0.0561648272, -0.0617732257, 0.0487678051, -0.0675332025, -0.1064888388, -0.1710005850, -0.2233860493, -0.0575795583,
-0.0218714923, -0.0631563812, 0.0239253789, 0.0534174703, 0.0067048152, 0.0605656542, -0.0940240473, -0.0017229405,
0.1007642299, 0.0102012223, -0.0249447431, 0.0362929069, 0.1815277040, 0.1901019812, 0.0834666118, 0.0564705096,
-0.0152386762, 0.1293468475, 0.0504856929, 0.2363813668, -0.1106427163, -0.0259805284, -0.1131475493, -0.1282453835,
-0.0675332025, -0.0561648272, -0.0617732257, 0.0487678051, -0.0575795583, -0.1064888388, -0.1710005850, -0.2233860493,
-0.1878742874, -0.5937141776, -0.4516201913, 0.2405519933, 0.2866181731, 0.3682436049, -0.1631079018, -0.6644395590,
1.2701259851, -1.2619777918, 1.1829254627, 0.7896652818, 0.2518809140, -0.6790206432, 1.7008395195, 0.2850457132,
0.5686619282, 0.0988153741, -0.0894877762, 0.1687902361, 0.3708256781, 0.1723551005, -0.0291532148, 0.1069546863,
-0.2693031728, 0.8356778622, 0.8314250112, -0.3153693378, -0.0118649919, -0.1565678716, 0.7669359446, -0.2308312804,
0.2405519933, -0.1878742874, -0.5937141776, -0.4516201913, -0.6644395590, 0.2866181731, 0.3682436049, -0.1631079018,
0.7896652818, 1.2701259851, -1.2619777918, 1.1829254627, 0.2850457132, 0.2518809140, -0.6790206432, 1.7008395195,
0.1687902361, 0.5686619282, 0.0988153741, -0.0894877762, 0.1069546863, 0.3708256781, 0.1723551005, -0.0291532148,
-0.3153693378, -0.2693031728, 0.8356778622, 0.8314250112, -0.2308312804, -0.0118649919, -0.1565678716, 0.7669359446,
-0.4516201913, 0.2405519933, -0.1878742874, -0.5937141776, -0.1631079018, -0.6644395590, 0.2866181731, 0.3682436049,
1.1829254627, 0.7896652818, 1.2701259851, -1.2619777918, 1.7008395195, 0.2850457132, 0.2518809140, -0.6790206432,
-0.0894877762, 0.1687902361, 0.5686619282, 0.0988153741, -0.0291532148, 0.1069546863, 0.3708256781, 0.1723551005,
0.8314250112, -0.3153693378, -0.2693031728, 0.8356778622, 0.7669359446, -0.2308312804, -0.0118649919, -0.1565678716,
-0.5937141776, -0.4516201913, 0.2405519933, -0.1878742874, 0.3682436049, -0.1631079018, -0.6644395590, 0.2866181731,
-1.2619777918, 1.1829254627, 0.7896652818, 1.2701259851, -0.6790206432, 1.7008395195, 0.2850457132, 0.2518809140,
0.0988153741, -0.0894877762, 0.1687902361, 0.5686619282, 0.1723551005, -0.0291532148, 0.1069546863, 0.3708256781,
0.8356778622, 0.8314250112, -0.3153693378, -0.2693031728, -0.1565678716, 0.7669359446, -0.2308312804, -0.0118649919,
-0.1029120460, -0.3614668250, 0.1133776829, -0.5189880133, -0.1244135574, 0.1223003045, -0.0932179242, -0.1137131155,
0.0174427200, -0.1618147790, 0.5506532788, -0.0386423320, -0.2558377385, -0.1795593798, 0.5540411472, 0.3214492202,
-0.0927315354, -0.0016604128, 0.2437787801, 0.2469654381, 0.0249229632, 0.1699323505, -0.1111973375, 0.2176985592,
-0.0628944263, 0.2457327098, -0.2067297846, 0.2183107436, -0.6650456190, 0.4975787401, 0.2269482315, -0.0109436298,
-0.5189880133, -0.1029120460, -0.3614668250, 0.1133776829, -0.1137131155, -0.1244135574, 0.1223003045, -0.0932179242,
-0.0386423320, 0.0174427200, -0.1618147790, 0.5506532788, 0.3214492202, -0.2558377385, -0.1795593798, 0.5540411472,
0.2469654381, -0.0927315354, -0.0016604128, 0.2437787801, 0.2176985592, 0.0249229632, 0.1699323505, -0.1111973375,
0.2183107436, -0.0628944263, 0.2457327098, -0.2067297846, -0.0109436298, -0.6650456190, 0.4975787401, 0.2269482315,
0.1133776829, -0.5189880133, -0.1029120460, -0.3614668250, -0.0932179242, -0.1137131155, -0.1244135574, 0.1223003045,
0.5506532788, -0.0386423320, 0.0174427200, -0.1618147790, 0.5540411472, 0.3214492202, -0.2558377385, -0.1795593798,
0.2437787801, 0.2469654381, -0.0927315354, -0.0016604128, -0.1111973375, 0.2176985592, 0.0249229632, 0.1699323505,
-0.2067297846, 0.2183107436, -0.0628944263, 0.2457327098, 0.2269482315, -0.0109436298, -0.6650456190, 0.4975787401,
-0.3614668250, 0.1133776829, -0.5189880133, -0.1029120460, 0.1223003045, -0.0932179242, -0.1137131155, -0.1244135574,
-0.1618147790, 0.5506532788, -0.0386423320, 0.0174427200, -0.1795593798, 0.5540411472, 0.3214492202, -0.2558377385,
-0.0016604128, 0.2437787801, 0.2469654381, -0.0927315354, 0.1699323505, -0.1111973375, 0.2176985592, 0.0249229632,
0.2457327098, -0.2067297846, 0.2183107436, -0.0628944263, 0.4975787401, 0.2269482315, -0.0109436298, -0.6650456190,
0.5550269485, -1.1654278040, -1.0795768499, 1.2717604637, -0.1559422761, 0.4001884758, -0.2720864713, -0.4946246445,
-0.0562324300, -0.7600883245, -0.5222809315, 0.3790323436, 0.7194316983, -0.3088184595, 0.2180616409, 0.0286987759,
0.4807044864, 0.0197457392, 0.6542462707, 0.2777894437, 0.9159079194, -0.0377744585, 0.1780795902, -0.3762728274,
-0.3613102436, 0.1013042256, 0.3706311882, 1.0392881632, -0.0959078744, 0.2338827550, -0.3497816622, 0.9030302763,
1.2717604637, 0.5550269485, -1.1654278040, -1.0795768499, -0.4946246445, -0.1559422761, 0.4001884758, -0.2720864713,
0.3790323436, -0.0562324300, -0.7600883245, -0.5222809315, 0.0286987759, 0.7194316983, -0.3088184595, 0.2180616409,
0.2777894437, 0.4807044864, 0.0197457392, 0.6542462707, -0.3762728274, 0.9159079194, -0.0377744585, 0.1780795902,
1.0392881632, -0.3613102436, 0.1013042256, 0.3706311882, 0.9030302763, -0.0959078744, 0.2338827550, -0.3497816622,
-1.0795768499, 1.2717604637, 0.5550269485, -1.1654278040, -0.2720864713, -0.4946246445, -0.1559422761, 0.4001884758,
-0.5222809315, 0.3790323436, -0.0562324300, -0.7600883245, 0.2180616409, 0.0286987759, 0.7194316983, -0.3088184595,
0.6542462707, 0.2777894437, 0.4807044864, 0.0197457392, 0.1780795902, -0.3762728274, 0.9159079194, -0.0377744585,
0.3706311882, 1.0392881632, -0.3613102436, 0.1013042256, -0.3497816622, 0.9030302763, -0.0959078744, 0.2338827550,
-1.1654278040, -1.0795768499, 1.2717604637, 0.5550269485, 0.4001884758, -0.2720864713, -0.4946246445, -0.1559422761,
-0.7600883245, -0.5222809315, 0.3790323436, -0.0562324300, -0.3088184595, 0.2180616409, 0.0286987759, 0.7194316983,
0.0197457392, 0.6542462707, 0.2777894437, 0.4807044864, -0.0377744585, 0.1780795902, -0.3762728274, 0.9159079194,
0.1013042256, 0.3706311882, 1.0392881632, -0.3613102436, 0.2338827550, -0.3497816622, 0.9030302763, -0.0959078744,
-0.0516608655, -0.6444320679, -0.0936906785, 0.1444468647, -0.5431835651, -0.0998161063, -0.2628842592, 0.2665783465,
-0.4569753110, -0.4530927241, -0.5348529816, 0.1952596009, -0.2692169845, 0.0475709662, -0.1796539128, 0.8159438968,
-0.1586107314, -0.2549588978, 0.3187575340, 0.1464164257, 0.1547846943, -0.2137960643, -0.2610654831, 0.3724350631,
-0.1314185709, 0.6531772614, -0.1405878514, 0.0862459391, -0.0693303496, -0.4987506866, 0.2506239712, 0.3625024557,
0.1444468647, -0.0516608655, -0.6444320679, -0.0936906785, 0.2665783465, -0.5431835651, -0.0998161063, -0.2628842592,
0.1952596009, -0.4569753110, -0.4530927241, -0.5348529816, 0.8159438968, -0.2692169845, 0.0475709662, -0.1796539128,
0.1464164257, -0.1586107314, -0.2549588978, 0.3187575340, 0.3724350631, 0.1547846943, -0.2137960643, -0.2610654831,
0.0862459391, -0.1314185709, 0.6531772614, -0.1405878514, 0.3625024557, -0.0693303496, -0.4987506866, 0.2506239712,
-0.0936906785, 0.1444468647, -0.0516608655, -0.6444320679, -0.2628842592, 0.2665783465, -0.5431835651, -0.0998161063,
-0.5348529816, 0.1952596009, -0.4569753110, -0.4530927241, -0.1796539128, 0.8159438968, -0.2692169845, 0.0475709662,
0.3187575340, 0.1464164257, -0.1586107314, -0.2549588978, -0.2610654831, 0.3724350631, 0.1547846943, -0.2137960643,
-0.1405878514, 0.0862459391, -0.1314185709, 0.6531772614, 0.2506239712, 0.3625024557, -0.0693303496, -0.4987506866,
-0.6444320679, -0.0936906785, 0.1444468647, -0.0516608655, -0.0998161063, -0.2628842592, 0.2665783465, -0.5431835651,
-0.4530927241, -0.5348529816, 0.1952596009, -0.4569753110, 0.0475709662, -0.1796539128, 0.8159438968, -0.2692169845,
-0.2549588978, 0.3187575340, 0.1464164257, -0.1586107314, -0.2137960643, -0.2610654831, 0.3724350631, 0.1547846943,
0.6531772614, -0.1405878514, 0.0862459391, -0.1314185709, -0.4987506866, 0.2506239712, 0.3625024557, -0.0693303496,
};

static float conv1x1s1_di_4_bias[32] = { 
1.3996522427, 1.3996522427, 1.3996522427, 1.3996522427, 0.5068694353, 0.5068694353, 0.5068694353, 0.5068694353,
1.0787549019, 1.0787549019, 1.0787549019, 1.0787549019, 0.7986819148, 0.7986819148, 0.7986819148, 0.7986819148,
-2.6232469082, -2.6232469082, -2.6232469082, -2.6232469082, 0.2750139832, 0.2750139832, 0.2750139832, 0.2750139832,
0.3212368786, 0.3212368786, 0.3212368786, 0.3212368786, 0.7276350260, 0.7276350260, 0.7276350260, 0.7276350260,
};

static float convdw3x3s1_4_weight[1152] = { 
0.3287360370, 0.1253893673, -0.2398582101, 0.3622479439, -0.0072413152, -0.4093719423, -0.0207499750, -0.1165336743,
-0.0905143693, -0.1759868860, -0.2482859492, -0.0582520925, -0.1335231960, 0.1678060591, -0.1393937021, -0.0245207511,
-0.1726105660, -0.1471122354, 0.0892112628, 0.0513827540, -0.0909207985, 0.2134870440, 0.2200466394, -0.2537879050,
0.1705828309, 0.2162959427, -0.0358601771, 0.0178609453, 0.0342743397, -0.1035903096, -0.3810579479, 0.3073744178,
-0.0907073691, -0.3336614072, -0.2315746993, 0.0279959682, -0.1035903096, -0.0907073691, 0.0279959682, 0.0342743397,
0.3073744178, -0.2315746993, 0.0178609453, -0.3810579479, -0.3336614072, -0.2398582101, -0.4093719423, -0.0905143693,
0.1253893673, -0.0072413152, -0.1165336743, 0.3287360370, 0.3622479439, -0.0207499750, -0.0582520925, -0.1393937021,
-0.1471122354, -0.2482859492, 0.1678060591, -0.1726105660, -0.1759868860, -0.1335231960, -0.0245207511, -0.0909207985,
-0.2537879050, -0.0358601771, 0.0513827540, 0.2200466394, 0.2162959427, 0.0892112628, 0.2134870440, 0.1705828309,
-0.0358601771, 0.2162959427, 0.1705828309, -0.2537879050, 0.2200466394, 0.2134870440, -0.0909207985, 0.0513827540,
0.0892112628, 0.0279959682, -0.2315746993, -0.3336614072, -0.0907073691, 0.3073744178, -0.3810579479, -0.1035903096,
0.0342743397, 0.0178609453, -0.0905143693, -0.1165336743, -0.0207499750, -0.4093719423, -0.0072413152, 0.3622479439,
-0.2398582101, 0.1253893673, 0.3287360370, -0.1471122354, -0.1726105660, -0.0245207511, -0.1393937021, 0.1678060591,
-0.1335231960, -0.0582520925, -0.2482859492, -0.1759868860, -0.0245207511, -0.1335231960, -0.1759868860, -0.1726105660,
0.1678060591, -0.2482859492, -0.1471122354, -0.1393937021, -0.0582520925, 0.1705828309, 0.2134870440, 0.0892112628,
0.2162959427, 0.2200466394, 0.0513827540, -0.0358601771, -0.2537879050, -0.0909207985, -0.3336614072, -0.3810579479,
0.0178609453, -0.2315746993, 0.3073744178, 0.0342743397, 0.0279959682, -0.0907073691, -0.1035903096, -0.0207499750,
0.3622479439, 0.3287360370, -0.1165336743, -0.0072413152, 0.1253893673, -0.0905143693, -0.4093719423, -0.2398582101,
-0.0332873389, -0.0044185938, 0.0258872062, -0.0465072915, -0.0055744103, 0.0642803460, 0.0142493648, 0.0782344192,
0.0467290841, 0.0109910062, 0.0218425225, -0.0037750669, -0.0133893052, 0.0233039968, 0.0168730970, 0.0061746486,
0.0761584640, 0.0459767058, 0.0116750160, 0.0401720814, 0.0408970900, -0.0258399472, -0.0724198222, 0.1030752435,
-0.0345564075, -0.0133224493, 0.0428726561, -0.0448821448, 0.0014707089, 0.0577628985, -0.0661854595, -0.0322698131,
0.1313078851, 0.0000634247, 0.0594749115, 0.0608040206, 0.0577628985, 0.1313078851, 0.0608040206, 0.0014707089,
-0.0322698131, 0.0594749115, -0.0448821448, -0.0661854595, 0.0000634247, 0.0258872062, 0.0642803460, 0.0467290841,
-0.0044185938, -0.0055744103, 0.0782344192, -0.0332873389, -0.0465072915, 0.0142493648, -0.0037750669, 0.0168730970,
0.0459767058, 0.0218425225, 0.0233039968, 0.0761584640, 0.0109910062, -0.0133893052, 0.0061746486, 0.0408970900,
0.1030752435, 0.0428726561, 0.0401720814, -0.0724198222, -0.0133224493, 0.0116750160, -0.0258399472, -0.0345564075,
0.0428726561, -0.0133224493, -0.0345564075, 0.1030752435, -0.0724198222, -0.0258399472, 0.0408970900, 0.0401720814,
0.0116750160, 0.0608040206, 0.0594749115, 0.0000634247, 0.1313078851, -0.0322698131, -0.0661854595, 0.0577628985,
0.0014707089, -0.0448821448, 0.0467290841, 0.0782344192, 0.0142493648, 0.0642803460, -0.0055744103, -0.0465072915,
0.0258872062, -0.0044185938, -0.0332873389, 0.0459767058, 0.0761584640, 0.0061746486, 0.0168730970, 0.0233039968,
-0.0133893052, -0.0037750669, 0.0218425225, 0.0109910062, 0.0061746486, -0.0133893052, 0.0109910062, 0.0761584640,
0.0233039968, 0.0218425225, 0.0459767058, 0.0168730970, -0.0037750669, -0.0345564075, -0.0258399472, 0.0116750160,
-0.0133224493, -0.0724198222, 0.0401720814, 0.0428726561, 0.1030752435, 0.0408970900, 0.0000634247, -0.0661854595,
-0.0448821448, 0.0594749115, -0.0322698131, 0.0014707089, 0.0608040206, 0.1313078851, 0.0577628985, 0.0142493648,
-0.0465072915, -0.0332873389, 0.0782344192, -0.0055744103, -0.0044185938, 0.0467290841, 0.0642803460, 0.0258872062,
-0.0161515214, -0.1643625945, -0.1214635000, 0.0291303508, 0.0846443176, -0.1308689266, -0.0153094465, -0.0677332059,
-0.0423643738, -0.0122444155, -0.0401878320, 0.0251854230, 0.1695807874, 0.1736855507, 0.0448591188, 0.1664742976,
0.1766580045, 0.0258625988, -0.0060031414, -0.0427547991, -0.0581483915, -0.0088526420, 0.0437053554, -0.1112611070,
-0.0021030752, -0.0096730776, -0.0346800350, 0.0202317107, -0.0242226664, -0.0284667742, 0.0685632750, 0.2045815587,
0.0255805701, 0.0630654022, 0.1540747583, 0.0762044340, -0.0284667742, 0.0255805701, 0.0762044340, -0.0242226664,
0.2045815587, 0.1540747583, 0.0202317107, 0.0685632750, 0.0630654022, -0.1214635000, -0.1308689266, -0.0423643738,
-0.1643625945, 0.0846443176, -0.0677332059, -0.0161515214, 0.0291303508, -0.0153094465, 0.0251854230, 0.0448591188,
0.0258625988, -0.0401878320, 0.1736855507, 0.1766580045, -0.0122444155, 0.1695807874, 0.1664742976, -0.0581483915,
-0.1112611070, -0.0346800350, -0.0427547991, 0.0437053554, -0.0096730776, -0.0060031414, -0.0088526420, -0.0021030752,
-0.0346800350, -0.0096730776, -0.0021030752, -0.1112611070, 0.0437053554, -0.0088526420, -0.0581483915, -0.0427547991,
-0.0060031414, 0.0762044340, 0.1540747583, 0.0630654022, 0.0255805701, 0.2045815587, 0.0685632750, -0.0284667742,
-0.0242226664, 0.0202317107, -0.0423643738, -0.0677332059, -0.0153094465, -0.1308689266, 0.0846443176, 0.0291303508,
-0.1214635000, -0.1643625945, -0.0161515214, 0.0258625988, 0.1766580045, 0.1664742976, 0.0448591188, 0.1736855507,
0.1695807874, 0.0251854230, -0.0401878320, -0.0122444155, 0.1664742976, 0.1695807874, -0.0122444155, 0.1766580045,
0.1736855507, -0.0401878320, 0.0258625988, 0.0448591188, 0.0251854230, -0.0021030752, -0.0088526420, -0.0060031414,
-0.0096730776, 0.0437053554, -0.0427547991, -0.0346800350, -0.1112611070, -0.0581483915, 0.0630654022, 0.0685632750,
0.0202317107, 0.1540747583, 0.2045815587, -0.0242226664, 0.0762044340, 0.0255805701, -0.0284667742, -0.0153094465,
0.0291303508, -0.0161515214, -0.0677332059, 0.0846443176, -0.1643625945, -0.0423643738, -0.1308689266, -0.1214635000,
0.4643037915, 0.9917519093, 0.3277931809, -0.0457275771, -0.0143296234, 0.4031595290, -0.2245345712, 0.1053801402,
0.2833389342, -0.2490960956, -0.5209636092, -0.2945082784, -0.2829467654, 0.4867413938, -0.3585872352, -0.0884027109,
-0.0983414948, -0.1055676639, -0.3054521382, -0.5947068930, -0.1617551297, -0.2093975991, 0.9438480735, -0.0848162398,
-0.0997458622, -0.3202173412, -0.1403771341, -0.0979550034, 0.0373133011, -0.0693842471, -0.0870027542, -0.4819743633,
-0.4954149425, 0.1637885273, 0.1925989836, -0.2026603818, -0.0693842471, -0.4954149425, -0.2026603818, 0.0373133011,
-0.4819743633, 0.1925989836, -0.0979550034, -0.0870027542, 0.1637885273, 0.3277931809, 0.4031595290, 0.2833389342,
0.9917519093, -0.0143296234, 0.1053801402, 0.4643037915, -0.0457275771, -0.2245345712, -0.2945082784, -0.3585872352,
-0.1055676639, -0.5209636092, 0.4867413938, -0.0983414948, -0.2490960956, -0.2829467654, -0.0884027109, -0.1617551297,
-0.0848162398, -0.1403771341, -0.5947068930, 0.9438480735, -0.3202173412, -0.3054521382, -0.2093975991, -0.0997458622,
-0.1403771341, -0.3202173412, -0.0997458622, -0.0848162398, 0.9438480735, -0.2093975991, -0.1617551297, -0.5947068930,
-0.3054521382, -0.2026603818, 0.1925989836, 0.1637885273, -0.4954149425, -0.4819743633, -0.0870027542, -0.0693842471,
0.0373133011, -0.0979550034, 0.2833389342, 0.1053801402, -0.2245345712, 0.4031595290, -0.0143296234, -0.0457275771,
0.3277931809, 0.9917519093, 0.4643037915, -0.1055676639, -0.0983414948, -0.0884027109, -0.3585872352, 0.4867413938,
-0.2829467654, -0.2945082784, -0.5209636092, -0.2490960956, -0.0884027109, -0.2829467654, -0.2490960956, -0.0983414948,
0.4867413938, -0.5209636092, -0.1055676639, -0.3585872352, -0.2945082784, -0.0997458622, -0.2093975991, -0.3054521382,
-0.3202173412, 0.9438480735, -0.5947068930, -0.1403771341, -0.0848162398, -0.1617551297, 0.1637885273, -0.0870027542,
-0.0979550034, 0.1925989836, -0.4819743633, 0.0373133011, -0.2026603818, -0.4954149425, -0.0693842471, -0.2245345712,
-0.0457275771, 0.4643037915, 0.1053801402, -0.0143296234, 0.9917519093, 0.2833389342, 0.4031595290, 0.3277931809,
0.0082918825, 0.0893631876, 0.0697006434, 0.0044140914, 0.0423212573, 0.0414577313, 0.0123862056, -0.0121515132,
-0.0183764659, -0.0101478957, 0.0497599021, 0.0453333706, 0.0047121677, -0.0540778972, -0.0121737923, 0.0241200626,
-0.0184094906, -0.0453309081, 0.0343440175, 0.0935288370, 0.0380976684, 0.0100771878, 0.0714905113, -0.0055508567,
-0.0114466082, -0.0418730937, -0.0281292908, 0.0279638357, 0.0811022893, 0.0665525869, 0.0368926004, 0.0506215468,
0.0703581721, -0.0009019433, -0.0485042706, -0.0118047325, 0.0665525869, 0.0703581721, -0.0118047325, 0.0811022893,
0.0506215468, -0.0485042706, 0.0279638357, 0.0368926004, -0.0009019433, 0.0697006434, 0.0414577313, -0.0183764659,
0.0893631876, 0.0423212573, -0.0121515132, 0.0082918825, 0.0044140914, 0.0123862056, 0.0453333706, -0.0121737923,
-0.0453309081, 0.0497599021, -0.0540778972, -0.0184094906, -0.0101478957, 0.0047121677, 0.0241200626, 0.0380976684,
-0.0055508567, -0.0281292908, 0.0935288370, 0.0714905113, -0.0418730937, 0.0343440175, 0.0100771878, -0.0114466082,
-0.0281292908, -0.0418730937, -0.0114466082, -0.0055508567, 0.0714905113, 0.0100771878, 0.0380976684, 0.0935288370,
0.0343440175, -0.0118047325, -0.0485042706, -0.0009019433, 0.0703581721, 0.0506215468, 0.0368926004, 0.0665525869,
0.0811022893, 0.0279638357, -0.0183764659, -0.0121515132, 0.0123862056, 0.0414577313, 0.0423212573, 0.0044140914,
0.0697006434, 0.0893631876, 0.0082918825, -0.0453309081, -0.0184094906, 0.0241200626, -0.0121737923, -0.0540778972,
0.0047121677, 0.0453333706, 0.0497599021, -0.0101478957, 0.0241200626, 0.0047121677, -0.0101478957, -0.0184094906,
-0.0540778972, 0.0497599021, -0.0453309081, -0.0121737923, 0.0453333706, -0.0114466082, 0.0100771878, 0.0343440175,
-0.0418730937, 0.0714905113, 0.0935288370, -0.0281292908, -0.0055508567, 0.0380976684, -0.0009019433, 0.0368926004,
0.0279638357, -0.0485042706, 0.0506215468, 0.0811022893, -0.0118047325, 0.0703581721, 0.0665525869, 0.0123862056,
0.0044140914, 0.0082918825, -0.0121515132, 0.0423212573, 0.0893631876, -0.0183764659, 0.0414577313, 0.0697006434,
0.0068986369, -0.0399557464, -0.0287807733, 0.2025723457, -0.0967229158, -0.1779099852, 0.1481416672, 0.0072740191,
-0.1309507638, 0.1336371452, 0.1022353470, -0.1081715822, 0.1369180828, 0.0496153161, -0.2766796947, 0.0405884050,
0.0482666083, -0.0597709976, 0.1061981916, -0.0479386710, -0.0898566842, 0.2024924904, -0.0562770776, -0.0385241546,
0.0220441483, -0.0184337478, 0.0187066980, 0.0745199323, -0.0429656766, -0.0502002910, 0.2176953107, -0.0319804139,
-0.0619397201, 0.0521668233, -0.0751270205, -0.0544541478, -0.0502002910, -0.0619397201, -0.0544541478, -0.0429656766,
-0.0319804139, -0.0751270205, 0.0745199323, 0.2176953107, 0.0521668233, -0.0287807733, -0.1779099852, -0.1309507638,
-0.0399557464, -0.0967229158, 0.0072740191, 0.0068986369, 0.2025723457, 0.1481416672, -0.1081715822, -0.2766796947,
-0.0597709976, 0.1022353470, 0.0496153161, 0.0482666083, 0.1336371452, 0.1369180828, 0.0405884050, -0.0898566842,
-0.0385241546, 0.0187066980, -0.0479386710, -0.0562770776, -0.0184337478, 0.1061981916, 0.2024924904, 0.0220441483,
0.0187066980, -0.0184337478, 0.0220441483, -0.0385241546, -0.0562770776, 0.2024924904, -0.0898566842, -0.0479386710,
0.1061981916, -0.0544541478, -0.0751270205, 0.0521668233, -0.0619397201, -0.0319804139, 0.2176953107, -0.0502002910,
-0.0429656766, 0.0745199323, -0.1309507638, 0.0072740191, 0.1481416672, -0.1779099852, -0.0967229158, 0.2025723457,
-0.0287807733, -0.0399557464, 0.0068986369, -0.0597709976, 0.0482666083, 0.0405884050, -0.2766796947, 0.0496153161,
0.1369180828, -0.1081715822, 0.1022353470, 0.1336371452, 0.0405884050, 0.1369180828, 0.1336371452, 0.0482666083,
0.0496153161, 0.1022353470, -0.0597709976, -0.2766796947, -0.1081715822, 0.0220441483, 0.2024924904, 0.1061981916,
-0.0184337478, -0.0562770776, -0.0479386710, 0.0187066980, -0.0385241546, -0.0898566842, 0.0521668233, 0.2176953107,
0.0745199323, -0.0751270205, -0.0319804139, -0.0429656766, -0.0544541478, -0.0619397201, -0.0502002910, 0.1481416672,
0.2025723457, 0.0068986369, 0.0072740191, -0.0967229158, -0.0399557464, -0.1309507638, -0.1779099852, -0.0287807733,
0.0386023261, -0.0901659727, -0.0934597328, 0.0581246838, 0.0015978022, -0.0351166725, -0.0247049592, -0.0171918329,
0.0302188192, -0.0211365428, -0.1259599179, -0.0545379147, 0.0074383602, -0.0763334408, 0.0178189892, -0.0268163495,
-0.0485620834, 0.0151728923, -0.0444924235, -0.1237514019, -0.0367503688, 0.0445050746, -0.1223828346, -0.0020580371,
0.0551146194, 0.0517701730, 0.0088510457, 0.0183172580, -0.1147021279, -0.1196803078, 0.0469072610, -0.0726689100,
-0.1331130117, -0.0143194953, -0.0400114022, -0.0252521504, -0.1196803078, -0.1331130117, -0.0252521504, -0.1147021279,
-0.0726689100, -0.0400114022, 0.0183172580, 0.0469072610, -0.0143194953, -0.0934597328, -0.0351166725, 0.0302188192,
-0.0901659727, 0.0015978022, -0.0171918329, 0.0386023261, 0.0581246838, -0.0247049592, -0.0545379147, 0.0178189892,
0.0151728923, -0.1259599179, -0.0763334408, -0.0485620834, -0.0211365428, 0.0074383602, -0.0268163495, -0.0367503688,
-0.0020580371, 0.0088510457, -0.1237514019, -0.1223828346, 0.0517701730, -0.0444924235, 0.0445050746, 0.0551146194,
0.0088510457, 0.0517701730, 0.0551146194, -0.0020580371, -0.1223828346, 0.0445050746, -0.0367503688, -0.1237514019,
-0.0444924235, -0.0252521504, -0.0400114022, -0.0143194953, -0.1331130117, -0.0726689100, 0.0469072610, -0.1196803078,
-0.1147021279, 0.0183172580, 0.0302188192, -0.0171918329, -0.0247049592, -0.0351166725, 0.0015978022, 0.0581246838,
-0.0934597328, -0.0901659727, 0.0386023261, 0.0151728923, -0.0485620834, -0.0268163495, 0.0178189892, -0.0763334408,
0.0074383602, -0.0545379147, -0.1259599179, -0.0211365428, -0.0268163495, 0.0074383602, -0.0211365428, -0.0485620834,
-0.0763334408, -0.1259599179, 0.0151728923, 0.0178189892, -0.0545379147, 0.0551146194, 0.0445050746, -0.0444924235,
0.0517701730, -0.1223828346, -0.1237514019, 0.0088510457, -0.0020580371, -0.0367503688, -0.0143194953, 0.0469072610,
0.0183172580, -0.0400114022, -0.0726689100, -0.1147021279, -0.0252521504, -0.1331130117, -0.1196803078, -0.0247049592,
0.0581246838, 0.0386023261, -0.0171918329, 0.0015978022, -0.0901659727, 0.0302188192, -0.0351166725, -0.0934597328,
-0.0176029336, 0.1526327282, 0.1457071751, -0.1143391952, 0.0008816977, 0.2154957205, -0.0222363062, 0.0764622837,
0.0873249769, -0.1248838156, -0.1091744229, 0.0058392584, -0.1617130488, -0.0455594361, 0.0146054747, -0.0256088879,
-0.0088821882, -0.0104642110, -0.0139899692, 0.0849395096, 0.0787796974, -0.1052613035, 0.2844469249, 0.1379379928,
-0.0407459401, 0.0391841270, 0.0676823854, -0.0834177434, -0.1788822562, -0.0782124624, -0.1276265085, -0.0900078714,
-0.0101376530, -0.0698241293, -0.0411145240, 0.0221687537, -0.0782124624, -0.0101376530, 0.0221687537, -0.1788822562,
-0.0900078714, -0.0411145240, -0.0834177434, -0.1276265085, -0.0698241293, 0.1457071751, 0.2154957205, 0.0873249769,
0.1526327282, 0.0008816977, 0.0764622837, -0.0176029336, -0.1143391952, -0.0222363062, 0.0058392584, 0.0146054747,
-0.0104642110, -0.1091744229, -0.0455594361, -0.0088821882, -0.1248838156, -0.1617130488, -0.0256088879, 0.0787796974,
0.1379379928, 0.0676823854, 0.0849395096, 0.2844469249, 0.0391841270, -0.0139899692, -0.1052613035, -0.0407459401,
0.0676823854, 0.0391841270, -0.0407459401, 0.1379379928, 0.2844469249, -0.1052613035, 0.0787796974, 0.0849395096,
-0.0139899692, 0.0221687537, -0.0411145240, -0.0698241293, -0.0101376530, -0.0900078714, -0.1276265085, -0.0782124624,
-0.1788822562, -0.0834177434, 0.0873249769, 0.0764622837, -0.0222363062, 0.2154957205, 0.0008816977, -0.1143391952,
0.1457071751, 0.1526327282, -0.0176029336, -0.0104642110, -0.0088821882, -0.0256088879, 0.0146054747, -0.0455594361,
-0.1617130488, 0.0058392584, -0.1091744229, -0.1248838156, -0.0256088879, -0.1617130488, -0.1248838156, -0.0088821882,
-0.0455594361, -0.1091744229, -0.0104642110, 0.0146054747, 0.0058392584, -0.0407459401, -0.1052613035, -0.0139899692,
0.0391841270, 0.2844469249, 0.0849395096, 0.0676823854, 0.1379379928, 0.0787796974, -0.0698241293, -0.1276265085,
-0.0834177434, -0.0411145240, -0.0900078714, -0.1788822562, 0.0221687537, -0.0101376530, -0.0782124624, -0.0222363062,
-0.1143391952, -0.0176029336, 0.0764622837, 0.0008816977, 0.1526327282, 0.0873249769, 0.2154957205, 0.1457071751,
};

static float convdw3x3s1_4_bias[32] = { 
7.5864810944, 7.5864810944, 7.5864810944, 7.5864810944, 4.6326541901, 4.6326541901, 4.6326541901, 4.6326541901,
0.6662918329, 0.6662918329, 0.6662918329, 0.6662918329, 6.9162425995, 6.9162425995, 6.9162425995, 6.9162425995,
4.3045864105, 4.3045864105, 4.3045864105, 4.3045864105, 0.8424633145, 0.8424633145, 0.8424633145, 0.8424633145,
3.2640576363, 3.2640576363, 3.2640576363, 3.2640576363, 0.6459684372, 0.6459684372, 0.6459684372, 0.6459684372,
};

static float conv1x1s1_dd_4_weight[1024] = { 
-0.2399764955, 0.2597779632, -0.3339083195, -0.3584278226, 0.5985115170, 0.0222677030, 0.0409253947, 0.4494644701,
-0.0764536411, -0.0839238614, 0.0922519118, -0.1896507740, -0.5203422308, 0.6603106856, 0.2442656159, 0.0215171073,
0.1494514048, 0.0261636581, 0.1559342444, 0.3918829858, -0.0802781060, -0.2057349831, 0.2579908073, -0.3188248873,
0.5426993370, 0.2175837010, 0.1712611616, 0.3586243987, -0.0716283768, 0.0500397831, 0.0873551592, 0.4234795272,
-0.3584278226, -0.2399764955, 0.2597779632, -0.3339083195, 0.4494644701, 0.5985115170, 0.0222677030, 0.0409253947,
-0.1896507740, -0.0764536411, -0.0839238614, 0.0922519118, 0.0215171073, -0.5203422308, 0.6603106856, 0.2442656159,
0.3918829858, 0.1494514048, 0.0261636581, 0.1559342444, -0.3188248873, -0.0802781060, -0.2057349831, 0.2579908073,
0.3586243987, 0.5426993370, 0.2175837010, 0.1712611616, 0.4234795272, -0.0716283768, 0.0500397831, 0.0873551592,
-0.3339083195, -0.3584278226, -0.2399764955, 0.2597779632, 0.0409253947, 0.4494644701, 0.5985115170, 0.0222677030,
0.0922519118, -0.1896507740, -0.0764536411, -0.0839238614, 0.2442656159, 0.0215171073, -0.5203422308, 0.6603106856,
0.1559342444, 0.3918829858, 0.1494514048, 0.0261636581, 0.2579908073, -0.3188248873, -0.0802781060, -0.2057349831,
0.1712611616, 0.3586243987, 0.5426993370, 0.2175837010, 0.0873551592, 0.4234795272, -0.0716283768, 0.0500397831,
0.2597779632, -0.3339083195, -0.3584278226, -0.2399764955, 0.0222677030, 0.0409253947, 0.4494644701, 0.5985115170,
-0.0839238614, 0.0922519118, -0.1896507740, -0.0764536411, 0.6603106856, 0.2442656159, 0.0215171073, -0.5203422308,
0.0261636581, 0.1559342444, 0.3918829858, 0.1494514048, -0.2057349831, 0.2579908073, -0.3188248873, -0.0802781060,
0.2175837010, 0.1712611616, 0.3586243987, 0.5426993370, 0.0500397831, 0.0873551592, 0.4234795272, -0.0716283768,
-0.1951247901, 0.0750831217, 0.0902854875, -0.2186287940, 0.0521757901, -0.4268286526, 0.2070843279, -0.1281357706,
-0.2109030932, -0.3146735430, -0.0008716719, 0.1568594277, 0.0783674568, 0.1460673064, 0.1891943067, -0.2889384627,
-0.3422557414, -0.1660534889, 0.0844484046, 0.0014735406, 0.3165985048, 0.0061432114, 0.3121674955, -0.2015637457,
-0.0337046459, -0.1038534790, 0.2362645864, 0.1528331339, -0.2220272869, 0.0840955824, -0.1498860568, -0.1003667936,
-0.2186287940, -0.1951247901, 0.0750831217, 0.0902854875, -0.1281357706, 0.0521757901, -0.4268286526, 0.2070843279,
0.1568594277, -0.2109030932, -0.3146735430, -0.0008716719, -0.2889384627, 0.0783674568, 0.1460673064, 0.1891943067,
0.0014735406, -0.3422557414, -0.1660534889, 0.0844484046, -0.2015637457, 0.3165985048, 0.0061432114, 0.3121674955,
0.1528331339, -0.0337046459, -0.1038534790, 0.2362645864, -0.1003667936, -0.2220272869, 0.0840955824, -0.1498860568,
0.0902854875, -0.2186287940, -0.1951247901, 0.0750831217, 0.2070843279, -0.1281357706, 0.0521757901, -0.4268286526,
-0.0008716719, 0.1568594277, -0.2109030932, -0.3146735430, 0.1891943067, -0.2889384627, 0.0783674568, 0.1460673064,
0.0844484046, 0.0014735406, -0.3422557414, -0.1660534889, 0.3121674955, -0.2015637457, 0.3165985048, 0.0061432114,
0.2362645864, 0.1528331339, -0.0337046459, -0.1038534790, -0.1498860568, -0.1003667936, -0.2220272869, 0.0840955824,
0.0750831217, 0.0902854875, -0.2186287940, -0.1951247901, -0.4268286526, 0.2070843279, -0.1281357706, 0.0521757901,
-0.3146735430, -0.0008716719, 0.1568594277, -0.2109030932, 0.1460673064, 0.1891943067, -0.2889384627, 0.0783674568,
-0.1660534889, 0.0844484046, 0.0014735406, -0.3422557414, 0.0061432114, 0.3121674955, -0.2015637457, 0.3165985048,
-0.1038534790, 0.2362645864, 0.1528331339, -0.0337046459, 0.0840955824, -0.1498860568, -0.1003667936, -0.2220272869,
-0.2908522785, 0.1422653049, 0.1587128192, 0.3785722852, 0.0498180315, 0.1125031635, 0.2217895389, 0.0567271039,
-0.7329768538, -0.0811186358, -0.0186852589, -0.2699851990, 0.0888388976, 0.5769773126, 0.1728106737, -0.1426848918,
0.0151398145, 0.3758659959, -0.1024542376, -0.2444398254, 0.2855655849, -0.1673561484, -0.0536781624, 0.1358597279,
-0.0085873865, 0.1222094223, 0.1007829159, 0.0505453050, -0.3212298155, -0.2610341907, 0.2780411243, -0.2686425447,
0.3785722852, -0.2908522785, 0.1422653049, 0.1587128192, 0.0567271039, 0.0498180315, 0.1125031635, 0.2217895389,
-0.2699851990, -0.7329768538, -0.0811186358, -0.0186852589, -0.1426848918, 0.0888388976, 0.5769773126, 0.1728106737,
-0.2444398254, 0.0151398145, 0.3758659959, -0.1024542376, 0.1358597279, 0.2855655849, -0.1673561484, -0.0536781624,
0.0505453050, -0.0085873865, 0.1222094223, 0.1007829159, -0.2686425447, -0.3212298155, -0.2610341907, 0.2780411243,
0.1587128192, 0.3785722852, -0.2908522785, 0.1422653049, 0.2217895389, 0.0567271039, 0.0498180315, 0.1125031635,
-0.0186852589, -0.2699851990, -0.7329768538, -0.0811186358, 0.1728106737, -0.1426848918, 0.0888388976, 0.5769773126,
-0.1024542376, -0.2444398254, 0.0151398145, 0.3758659959, -0.0536781624, 0.1358597279, 0.2855655849, -0.1673561484,
0.1007829159, 0.0505453050, -0.0085873865, 0.1222094223, 0.2780411243, -0.2686425447, -0.3212298155, -0.2610341907,
0.1422653049, 0.1587128192, 0.3785722852, -0.2908522785, 0.1125031635, 0.2217895389, 0.0567271039, 0.0498180315,
-0.0811186358, -0.0186852589, -0.2699851990, -0.7329768538, 0.5769773126, 0.1728106737, -0.1426848918, 0.0888388976,
0.3758659959, -0.1024542376, -0.2444398254, 0.0151398145, -0.1673561484, -0.0536781624, 0.1358597279, 0.2855655849,
0.1222094223, 0.1007829159, 0.0505453050, -0.0085873865, -0.2610341907, 0.2780411243, -0.2686425447, -0.3212298155,
0.2306345403, 0.4673265815, 0.2215155363, -0.0739765018, -0.1726356596, 0.0803854167, 0.0970628858, 0.2239069641,
-0.0202512164, 0.4123623967, 0.1372794211, 0.2032745481, -0.6403195858, -0.0876282007, 0.1403766572, 0.1007795781,
-0.0999978259, 0.1871882379, -0.2274136990, 0.1456375122, 0.0370954610, -0.1992243081, -0.2110653222, -0.1231273934,
