#ifndef __NET_PARAM_PARA_MISTOUCH_6159_H__
#define __NET_PARAM_PARA_MISTOUCH_6159_H__

static float conv1_weights[1 * 8 * 9] = {
    5.946921, 6.657389, 9.279829, -0.566566, -1.923701, -0.031800, -5.123919, -9.308819, -5.670333,
    -2.642498, -4.226397, 3.983840, -2.891138, -4.085992, 5.230861, -0.782140, -2.387350, 7.119740,
    8.888608, 6.127381, 6.845214, -14.931663, -18.620960, -10.247963, 10.318381, 6.493988, 5.174714,
    -3.085140, 0.406404, 4.591218, -2.502518, 0.765499, 4.612251, -3.213532, -1.337218, 0.433405,
    -4.475288, -8.965158, -5.748279, 1.114453, -1.901176, -0.042488, 6.051825, 5.356107, 8.314621,
    3.694597, 0.201793, -1.405979, 3.331295, -0.528845, -1.919692, 0.595108, -1.273953, -2.455406,
    1.821499, 0.202126, -0.087405, 1.913595, -0.169354, -1.611450, 2.253313, -2.697115, -4.439343,
    -4.916419, -1.804297, 2.248510, -4.577218, -2.203082, 1.492530, 2.356658, -0.325708, 3.589740,
};
static float conv1_bias[8] = {
    0.966664, 0.596362, -0.225467, -0.008980, 0.706698, 0.038013, 0.188513, 0.879385,
};
static float conv2_weights[8 * 16 * 9] = {
    0.048073, 0.083420, -0.077259, -0.049823, 0.084965, 0.000191, -0.192612, -0.085471, 0.070795,
    0.052751, -0.057559, -0.082734, -0.160234, 0.065652, 0.019669, -0.056743, 0.045494, 0.064165,
    -0.140177, -0.586194, -0.048226, -0.158244, -0.285578, -0.030340, -0.253987, -0.208793, 0.004923,
    0.143761, 0.048077, 0.020927, -0.084064, -0.014019, 0.044224, -0.163446, -0.084046, 0.001002,
    -0.079779, 0.026092, 0.134390, -0.037079, -0.226298, 0.026330, 0.084313, 0.195933, 0.009781,
    0.036621, -0.111345, -0.022661, 0.142826, -0.252100, 0.063651, 0.159983, -0.115861, 0.026692,
    -0.120751, -0.079662, 0.015712, 0.066982, -0.109609, -0.013398, -0.006541, 0.056982, -0.003677,
    -0.039832, -0.136770, -0.183081, 0.093479, 0.050675, -0.119138, 0.226216, 0.096459, -0.011937,
    0.258970, 0.241148, -0.051120, 0.070130, 0.004221, -0.081146, 0.070551, 0.041007, 0.014253,
    -0.098413, 0.125475, 0.150430, 0.055533, 0.158290, 0.001981, -0.082823, -0.134220, -0.051773,
    -0.026241, -0.034305, -0.000904, -0.073086, -0.041550, 0.019105, -0.299841, 0.004263, -0.025388,
    -0.060089, -0.060040, -0.050895, -0.052356, -0.022662, -0.077691, -0.045064, -0.198353, -0.109759,
    -0.022061, 0.065439, -0.013172, 0.098957, 0.085729, -0.216228, 0.042337, 0.012295, -0.121959,
    0.058433, 0.003571, 0.231038, 0.003812, -0.146487, 0.194255, -0.227360, -0.109042, 0.087057,
    0.187833, 0.104356, -0.173069, -0.117106, -0.027021, -0.246692, -0.297225, -0.159645, -0.209804,
    0.005323, 0.082055, 0.076289, 0.157594, 0.258872, 0.215948, -0.030885, 0.024570, 0.158991,
    -0.078725, 0.099012, -0.026308, -0.140534, 0.076341, 0.090381, -0.088654, 0.004711, 0.165177,
    -0.150520, -0.194608, -0.107005, -0.211191, 0.064793, -0.084209, -0.087031, -0.398940, -0.277366,
    0.022166, -0.079128, -0.007159, 0.077145, -0.037957, -0.014461, 0.039135, -0.090983, -0.027153,
    0.071998, -0.225140, -0.298491, 0.034626, -0.115833, -0.047928, 0.127663, -0.250175, -0.171924,
    -0.089513, -0.060057, 0.139291, -0.064629, 0.038886, 0.025783, 0.004830, 0.141173, -0.044319,
    0.145722, -0.029218, -0.023616, 0.199088, -0.073378, -0.018176, 0.149279, 0.012338, 0.074487,
    -0.271034, 0.048943, -0.105591, -0.265914, 0.009975, -0.069542, -0.163765, 0.006429, -0.084482,
    0.072505, -0.124617, -0.007184, 0.036743, -0.041504, 0.109272, 0.075347, -0.107072, -0.060723,
    -0.073149, 0.053239, 0.032328, -0.112009, -0.055011, 0.021884, -0.016174, -0.004816, -0.003934,
    0.138934, -0.327727, 0.103498, 0.169877, -0.402460, 0.144078, 0.070784, -0.280797, 0.008009,
    -0.067023, -0.151249, -0.012495, -0.067563, -0.044936, 0.027285, -0.035187, -0.107805, 0.028203,
    0.030648, -0.337785, 0.130748, 0.073059, -0.326875, 0.191017, 0.029590, -0.269923, 0.109861,
    -0.104980, -0.067317, 0.041199, -0.135199, -0.013007, 0.059068, -0.024429, 0.061396, 0.038640,
    -0.086768, 0.210705, -0.027144, -0.141222, 0.141147, -0.037571, -0.161790, 0.159381, -0.094469,
    0.018315, -0.171774, 0.074950, 0.087799, -0.180628, 0.111328, 0.117264, -0.156912, 0.074171,
    -0.234063, 0.142789, -0.315612, -0.272183, 0.147425, -0.246108, -0.272544, 0.211423, -0.202400,
    0.015089, 0.017404, 0.079003, 0.089846, 0.003551, -0.114728, 0.097047, 0.062673, -0.360136,
    -0.040902, -0.334667, 0.061304, -0.023908, -0.124464, 0.031747, -0.018029, 0.109803, 0.029500,
    -0.005567, 0.024336, 0.007751, 0.035228, -0.024710, -0.022724, -0.073645, 0.001432, -0.029916,
    0.015604, -0.215015, 0.034036, 0.048191, -0.226902, -0.085874, 0.002772, 0.038137, -0.024098,
    0.065028, 0.030778, 0.004463, -0.100655, 0.058713, 0.066184, -0.267307, 0.079203, 0.056763,
    0.043903, -0.038193, -0.016466, 0.037434, -0.015593, 0.019402, -0.027470, -0.030577, 0.025964,
    -0.059364, -0.112465, -0.104181, -0.094192, -0.091483, -0.041632, -0.060157, -0.004181, 0.082120,
    -0.006977, -0.081269, -0.078171, 0.033669, -0.060027, -0.110083, -0.073923, -0.056032, -0.042145,
    -0.207355, 0.181769, 0.009242, -0.010824, 0.024581, -0.051597, -0.127611, 0.097689, -0.126075,
    0.075309, 0.267337, -0.177284, 0.068178, -0.221688, 0.088137, -0.300415, 0.014350, 0.029041,
    -0.114227, -0.231489, -0.008295, -0.107366, -0.185041, -0.044962, 0.004416, -0.011755, -0.030004,
    0.039310, 0.149590, -0.085487, 0.100754, -0.087677, -0.012134, -0.011803, -0.155532, -0.005378,
    0.057178, 0.025143, -0.013961, 0.157872, -0.630002, 0.035060, -0.006184, 0.074903, 0.029999,
    -0.253006, 0.071086, 0.051915, 0.165383, 0.022256, -0.025493, 0.229633, -0.046892, -0.131280,
    -0.137992, 0.062514, 0.068858, -0.023783, -0.046888, 0.054883, -0.213376, -0.048857, 0.077051,
    -0.078845, -0.143915, -0.142355, -0.087093, -0.133592, 0.045440, 0.135046, -0.059736, -0.062550,
    0.008218, 0.046261, 0.088653, 0.023497, -0.035888, -0.009470, -0.043945, 0.018585, -0.052360,
    0.049378, -0.030198, 0.046283, -0.048628, -0.038907, 0.041474, -0.070585, -0.028041, 0.055259,
    -0.021031, -0.096647, -0.134621, -0.060678, -0.156478, -0.180762, -0.097486, -0.209842, -0.225251,
    0.041802, -0.018278, 0.106249, -0.001652, -0.044519, 0.054853, -0.070399, -0.010614, 0.016031,
    -0.019183, -0.259088, -0.129488, -0.107867, -0.084455, -0.091612, -0.006456, -0.186589, -0.031988,
    0.096631, 0.039027, -0.136826, 0.078527, 0.014109, -0.102569, 0.048674, -0.025823, -0.066937,
    -0.012566, -0.010009, 0.044716, -0.031650, -0.025563, 0.079147, -0.046644, -0.013393, 0.189754,
    0.069318, 0.020508, -0.146130, 0.108941, 0.044307, -0.143671, 0.169022, 0.069316, -0.168955,
    0.016445, 0.012475, -0.012907, -0.055402, 0.028203, -0.074464, 0.037568, -0.027736, -0.009838,
    -0.330868, 0.020404, 0.040680, -0.477361, 0.049244, 0.013334, -0.240140, -0.032167, 0.031984,
    -0.021033, -0.001053, -0.007982, 0.033065, 0.008343, 0.012789, -0.013164, -0.009847, -0.014654,
    -0.218375, -0.017333, 0.083801, -0.438628, 0.000926, 0.034198, -0.157363, -0.012518, 0.099785,
    0.034606, 0.027950, 0.008668, -0.089874, 0.033270, -0.091643, -0.005769, -0.026993, -0.063218,
    0.203936, 0.017858, -0.086459, 0.118804, 0.033661, -0.184326, 0.190073, -0.032568, -0.052531,
    -0.403911, -0.008595, 0.203673, -0.354548, -0.020519, 0.150896, -0.192178, -0.027518, 0.133031,
    0.108162, -0.063426, -0.028800, 0.072269, -0.072697, -0.037937, 0.071707, -0.066673, -0.078945,
    0.069134, -0.028171, -0.008532, -0.058061, -0.099096, -0.099372, -0.035998, -0.079999, -0.132083,
    -0.049993, -0.033631, -0.053731, -0.075254, -0.056730, -0.008250, -0.143589, -0.102485, -0.014801,
    -0.027472, -0.030148, -0.052912, -0.018818, 0.033264, -0.065408, 0.009392, 0.006878, -0.078160,
    -0.056859, 0.002855, -0.023662, -0.125787, -0.040567, -0.074031, -0.087428, -0.017101, -0.096285,
    0.011255, 0.052138, 0.073162, -0.052785, -0.063064, -0.006250, 0.027716, -0.067949, -0.010896,
    0.038044, -0.047698, 0.055665, -0.005508, -0.080478, 0.034498, -0.042570, -0.083568, -0.011557,
    -0.069455, -0.077058, -0.003558, -0.011355, -0.027678, 0.006431, -0.026412, -0.020737, 0.003681,
    0.033818, -0.059230, -0.190224, -0.116577, -0.094463, -0.225607, -0.088313, -0.069919, -0.187495,
    -0.117012, -0.159413, -0.066346, -0.178840, -0.193767, 0.028854, -0.063186, -0.314936, -0.056553,
    -0.088773, -0.000605, -0.039030, -0.022662, -0.007534, 0.022433, 0.116053, -0.004164, -0.015935,
    0.018985, -0.070741, -0.012047, -0.004823, -0.031455, 0.023491, -0.065326, -0.131546, -0.003471,
    -0.020029, 0.015578, -0.011118, 0.004118, -0.054551, 0.062257, 0.087065, -0.118016, 0.007998,
    0.051426, 0.062489, -0.144186, 0.044982, -0.029293, -0.012068, 0.139098, 0.085268, -0.055114,
    -0.102845, -0.067204, -0.113282, 0.010428, -0.014119, -0.064952, 0.149662, 0.043069, -0.013345,
    -0.046135, 0.015447, 0.126544, -0.029750, 0.043868, 0.075026, -0.157347, 0.067338, 0.145579,
    -0.024303, -0.277880, -0.410014, 0.035580, -0.069503, -0.226423, 0.076206, -0.065238, -0.242891,
    0.096927, 0.114783, 0.028579, 0.002054, 0.050298, -0.043807, -0.091018, -0.474551, 0.008968,
    -0.075190, -0.058429, -0.056065, -0.013643, 0.084144, 0.044504, -0.041303, 0.013809, -0.074478,
    -0.016689, -0.092179, -0.009819, 0.025914, 0.026548, 0.019611, -0.039821, -0.168311, -0.023582,
    0.038843, 0.057000, -0.033449, -0.061987, -0.020004, 0.011676, 0.027291, -0.039859, -0.058741,
    -0.127081, -0.522744, -0.048771, -0.029276, 0.076138, -0.072159, 0.071365, 0.110038, 0.029180,
    0.023284, 0.064630, -0.023458, -0.009317, -0.032859, -0.065961, -0.056728, -0.032179, 0.005277,
    -0.130239, -0.017748, -0.045838, -0.049663, -0.041234, 0.040444, -0.037677, 0.013925, 0.041290,
    0.110418, 0.023481, 0.069204, -0.004240, -0.109876, -0.154274, 0.022219, -0.024115, -0.046546,
    0.084796, 0.340195, 0.091426, -0.014896, 0.039259, 0.003063, -0.080454, -0.033849, -0.079097,
    0.138800, 0.275939, 0.191496, -0.032974, -0.089846, -0.117594, 0.049764, -0.141330, -0.056946,
    -0.029640, -0.104250, -0.055568, -0.004962, -0.084863, -0.030469, 0.001807, -0.167341, 0.009597,
    0.094415, 0.301378, 0.038272, -0.125306, -0.043239, -0.075320, -0.064073, -0.168069, -0.056210,
    -0.092753, 0.113814, 0.097588, -0.205216, -0.115702, -0.104139, -0.110557, -0.095499, -0.046857,
    0.097408, 0.187454, 0.188561, -0.053330, -0.091868, -0.059840, -0.150129, -0.191202, -0.112442,
    -0.085892, 0.091229, -0.067077, 0.045996, 0.048631, -0.062933, -0.044880, -0.024393, 0.037226,
    -0.099264, -0.221109, -0.333196, -0.042160, -0.186563, -0.338629, 0.029851, -0.018146, 0.087934,
    0.066296, 0.000362, 0.072548, -0.176737, -0.062438, -0.152766, -0.001954, -0.007578, 0.011526,
    -0.155127, -0.025870, -0.005906, -0.048033, 0.007926, 0.018002, -0.057972, 0.052682, 0.089162,
    -0.019218, -0.032309, -0.049869, -0.035862, -0.048165, -0.071823, -0.021280, -0.082643, -0.067237,
    -0.223857, -0.101108, -0.029300, -0.166895, -0.082242, -0.046035, 0.005012, 0.003412, 0.051779,
    -0.028008, 0.068789, 0.010627, 0.063590, 0.012005, 0.028323, 0.096359, 0.077772, 0.106667,
    0.009089, -0.001962, -0.093783, -0.015547, -0.007017, -0.090296, 0.094955, 0.034181, 0.041503,
    -0.044456, 0.055230, 0.149018, -0.052754, 0.005119, 0.070282, 0.061855, 0.024170, 0.055865,
    0.019691, 0.047195, -0.026109, 0.015148, 0.030296, -0.001085, 0.038110, 0.044911, 0.004248,
    -0.039790, 0.043149, 0.142351, -0.091197, -0.024266, 0.000122, 0.029243, -0.000007, 0.056998,
    0.066565, 0.058849, 0.017610, 0.054576, 0.001114, 0.097587, 0.037626, 0.032060, 0.071228,
    -0.127484, -0.011832, -0.026750, -0.204424, -0.021737, -0.047674, -0.161241, -0.131118, -0.077495,
    -0.041962, -0.017720, 0.050384, -0.010338, -0.025210, 0.059908, -0.031295, -0.030731, 0.144775,
    -0.028509, -0.031574, -0.031823, -0.088241, 0.007656, 0.085350, -0.144429, 0.019633, 0.049092,
    -0.045271, -0.024324, 0.042094, -0.184000, 0.033823, -0.003842, -0.106972, -0.008250, 0.050091,
    -0.053053, -0.000053, 0.015174, -0.101028, -0.111880, -0.044035, 0.003880, -0.123321, 0.024411,
    -0.015879, -0.080930, -0.107334, -0.026828, -0.101412, -0.030024, -0.008330, -0.113659, -0.144588,
    -0.150571, -0.330406, 0.007325, 0.000726, 0.166108, -0.015938, -0.162795, -0.119483, -0.092387,
    -0.013909, 0.002137, 0.014883, 0.007378, -0.062526, -0.041502, 0.030198, 0.055778, 0.137793,
    -0.022001, -0.200126, -0.034018, 0.021076, 0.035388, -0.026232, -0.000276, 0.137792, -0.022274,
    -0.039908, -0.074119, -0.039481, 0.017267, 0.041581, -0.123172, -0.048614, 0.001995, 0.096631,
    0.029739, 0.128576, -0.007131, -0.024007, -0.114451, 0.047734, 0.107634, 0.175973, 0.098092,
    -0.151449, -0.092862, -0.018115, -0.046047, 0.061804, 0.043030, 0.105134, -0.027460, 0.049447,
    -0.104788, -0.120580, -0.058999, -0.196777, -0.151134, -0.126153, -0.120372, -0.089772, 0.067069,
    0.010060, -0.018493, -0.022809, 0.003497, -0.095329, -0.131503, 0.004999, -0.112083, -0.096278,
    0.065292, 0.129265, -0.024624, 0.025550, -0.076152, -0.039145, 0.093723, 0.106258, -0.017886,
    -0.030959, -0.142172, -0.064055, -0.009026, -0.032975, -0.069960, -0.094741, -0.025930, -0.158526,
    0.035011, 0.026384, 0.017068, 0.012715, 0.033474, 0.005040, -0.001545, -0.087742, -0.007478,
    0.115422, -0.040366, 0.043261, 0.078776, -0.076263, -0.047115, 0.070890, 0.027773, -0.117597,
    -0.123015, -0.166630, -0.091853, 0.087033, 0.113981, -0.050921, -0.180402, -0.308245, -0.180492,
    0.174359, -0.037694, 0.020581, 0.126471, -0.020670, -0.036835, 0.030842, -0.047107, -0.024300,
    -0.261497, -0.112131, 0.062684, -0.163537, -0.034156, 0.064661, -0.116394, -0.074691, -0.010405,
    -0.093940, -0.117120, -0.007872, -0.082156, -0.042839, 0.035985, -0.062060, -0.019067, -0.039282,
};
static float conv2_bias[16] = {
    0.299298, -1.213042, 0.957459, 0.493734, 0.493884, 0.547621, 0.735931, 0.922784, 1.534788, 1.026423, 0.668640, 0.017038, 0.243577, -0.042952, 0.484479, 0.694494,
};
static float conv3_weights[16 * 32 * 9] = {
    0.114221, -0.237624, 0.108855, 0.032883, 0.109093, -0.092315, -0.111802, 0.186723, -0.199281,
    0.002238, 0.060290, -0.110732, -0.012588, -0.203202, -0.307198, -0.116003, -0.188503, 0.073727,
    -0.275731, 0.500107, -0.210841, -0.065996, -0.036902, -0.016929, 0.633308, -0.371871, 0.202607,
    0.082431, 0.313025, -0.269415, 0.103936, 0.063829, 0.073993, -0.093254, -0.392475, 0.230794,
    -0.138742, 0.225583, -0.279760, -0.270464, 0.345032, -0.102968, 0.248689, -0.032731, 0.079660,
    0.061652, -0.273247, -0.135579, 0.021119, -0.427020, 0.030087, -0.004357, -0.077439, 0.060665,
    0.010318, 0.186579, 0.283092, 0.180348, -0.065833, 0.006544, 0.032706, 0.069993, 0.128621,
    -0.201107, 0.209584, 0.011961, 0.033190, -0.189530, 0.091162, 0.258178, 0.026752, 0.035505,
    -0.170006, 0.131509, -0.027950, 0.035628, -0.073018, -0.061757, -0.114581, -0.156602, -0.006882,
    -0.277354, 0.426593, -0.214462, 0.128728, 0.062595, 0.064729, 0.397512, -0.208854, 0.305645,
    -0.161038, -0.232313, -0.168121, -0.468070, -0.401031, -0.332073, -0.176537, -0.311409, -0.274205,
    0.191818, -0.087717, 0.150769, -0.016497, -0.017766, -0.123471, -0.054645, 0.136908, -0.063917,
    -0.167314, -0.005648, -0.122674, -0.070485, -0.040082, -0.103944, 0.195227, 0.055080, 0.007742,
    0.311576, -0.432865, 0.120425, -0.031428, 0.094064, -0.086908, -0.272551, 0.448352, -0.143860,
    -0.023301, 0.048113, -0.002553, 0.087746, 0.098219, -0.220565, 0.174058, 0.139748, -0.017870,
    0.018008, 0.291228, 0.158178, -0.260003, -0.112434, 0.015066, 0.090086, -0.204923, 0.194721,
    0.059328, 0.131285, -0.089880, 0.046479, 0.184078, -0.238196, 0.056368, 0.094041, -0.072920,
    -0.024427, 0.173339, -0.124153, -0.000914, -0.023703, -0.084081, 0.028824, -0.254557, 0.046832,
    -0.153922, 0.093480, 0.359004, 0.015081, -0.374745, 0.070212, 0.282001, -0.556341, -0.061123,
    0.065045, 0.197331, 0.181099, -0.105867, -0.165089, 0.238764, -0.118962, -0.307908, 0.040272,
    -0.009143, -0.048632, 0.004491, -0.054378, -0.284011, 0.003064, -0.148736, -0.311073, 0.126969,
    -0.141544, -0.061201, -0.242015, 0.000578, 0.038071, -0.314080, -0.003282, 0.191157, -0.368317,
    0.173258, -0.068277, -0.113878, -0.007189, 0.001221, -0.022397, -0.298640, 0.177152, -0.082423,
    0.084093, -0.194488, 0.421104, -0.014194, -0.035310, -0.050611, -0.018281, -0.037796, -0.219674,
    0.213290, 0.126044, 0.130153, 0.101126, -0.092397, 0.054274, -0.080606, -0.135038, 0.037347,
    0.178529, -0.141542, 0.138509, 0.199848, -0.194638, -0.045000, -0.037395, -0.306250, 0.017033,
    0.042726, -0.174903, -0.150515, -0.065596, 0.032642, -0.097557, -0.033870, 0.103921, 0.018158,
    -0.040569, 0.066980, -0.019535, -0.217275, 0.046850, 0.047462, 0.127847, 0.224597, 0.041088,
    -0.154141, -0.327008, 0.059269, 0.062621, -0.254872, -0.114297, -0.051918, -0.110404, -0.088393,
    0.054310, 0.173295, -0.359261, -0.012242, 0.129004, -0.200558, -0.143162, 0.047497, 0.126154,
    -0.173953, -0.193369, 0.249235, 0.056475, 0.151910, 0.066789, -0.032713, 0.062255, 0.409228,
    0.150695, 0.451098, 0.038717, -0.078245, 0.049619, 0.084178, -0.093660, -0.055385, 0.085076,
    0.246456, 0.308803, 0.055205, 0.125715, -0.171566, 0.111078, 0.049242, 0.430465, -0.031972,
    0.034325, 0.131694, 0.022864, -0.018210, 0.120942, 0.160945, 0.029790, -0.005975, -0.100140,
    -0.215353, -0.325470, -0.147263, 0.433073, 0.105623, 0.077230, -0.068463, 0.126998, 0.003318,
    -0.180337, 0.109795, 0.104314, -0.272600, -0.178506, -0.242526, -0.267467, -0.062093, 0.055421,
    0.226934, 0.169659, 0.038666, -0.160849, 0.001882, 0.137319, 0.192159, -0.073158, -0.215389,
    -0.161199, 0.235816, -0.263474, 0.180738, -0.142197, 0.231797, -0.076218, 0.216890, -0.038166,
    0.191021, -0.026378, -0.049775, 0.209722, -0.011894, 0.301972, 0.148656, 0.016684, 0.059028,
    -0.156156, -0.202831, -0.363632, 0.078474, -0.075118, -0.273842, -0.214286, -0.122256, -0.091116,
    0.276588, 0.007280, -0.097910, 0.022534, -0.025700, -0.102218, 0.135912, 0.441742, 0.118773,
    0.063817, -0.075412, -0.121219, 0.235438, -0.070426, 0.089572, 0.020086, -0.044190, -0.294962,
    -0.138327, -0.168158, -0.266752, 0.161057, -0.109275, 0.190845, -0.349098, -0.337547, -0.289497,
    0.107720, 0.180369, -0.337586, 0.236122, -0.098213, 0.219529, 0.038064, 0.122585, 0.000490,
    -0.169908, -0.087733, 0.406339, -0.164267, -0.111715, 0.326970, -0.270035, -0.241055, 0.225949,
    0.133105, -0.197580, 0.027169, 0.181456, -0.133700, -0.119778, 0.303268, 0.105456, -0.119960,
    -0.159754, -0.196171, -0.099727, 0.242871, 0.393596, 0.291446, -0.293534, -0.105657, -0.112935,
    -0.153599, -0.140445, -0.219571, 0.499626, 0.563463, 0.471037, -0.291078, -0.480141, -0.374162,
    -0.286387, -0.102931, 0.066341, -0.228725, 0.053599, 0.119300, -0.019720, 0.188670, 0.122459,
    0.070136, -0.071379, -0.172049, 0.229127, -0.144738, -0.063442, 0.203382, -0.246329, 0.066326,
    0.114720, -0.081363, -0.063235, 0.111319, -0.074755, 0.056180, 0.066352, -0.123717, -0.040000,
    0.214203, 0.024447, 0.216386, 0.134362, 0.008150, 0.201929, 0.056128, -0.165457, 0.138505,
    -0.024191, -0.461195, -0.237848, -0.161678, -0.641440, -0.275412, -0.139593, -0.226128, -0.207226,
    -0.089534, 0.051145, -0.185728, -0.044132, -0.143268, -0.123640, 0.012647, -0.063343, -0.050765,
    0.352271, 0.122548, 0.206423, 0.295655, 0.229587, 0.273058, 0.071277, -0.067553, 0.026796,
    0.004772, -0.036982, 0.154435, -0.056622, -0.010591, 0.149109, 0.064478, -0.059338, -0.018435,
    0.211130, 0.118700, 0.157216, 0.251200, 0.179800, 0.141465, -0.071661, -0.188752, -0.092353,
    0.159789, 0.188167, 0.147785, 0.172225, 0.174700, 0.104737, 0.122579, 0.145755, -0.002760,
    -0.297812, -0.473314, -0.317179, -0.339343, -0.571994, -0.465998, -0.131330, -0.140153, -0.084916,
    0.159453, 0.131151, 0.010159, -0.157167, -0.206522, -0.209445, -0.120196, -0.111205, -0.262836,
    -0.003625, -0.138859, 0.072020, -0.065765, -0.138545, 0.058490, 0.022957, -0.020040, 0.094200,
    -0.210056, -0.003158, -0.156442, -0.152339, -0.059184, -0.124917, -0.031422, -0.033646, 0.025631,
    -0.136868, -0.042498, -0.166117, -0.181065, -0.094215, -0.114398, 0.053097, 0.064975, 0.154386,
    0.140095, 0.031044, -0.042198, 0.109279, -0.036025, -0.068354, 0.176470, 0.062908, 0.046523,
    0.321287, 0.191675, 0.372902, 0.369166, 0.026825, -0.155661, 0.851793, -0.072382, 0.128816,
    -0.096590, -0.231789, 0.044384, -0.074928, -0.555790, -0.095867, -0.179850, -0.496992, -0.486146,
    0.121188, 0.049626, 0.379005, -0.052951, 0.047723, -0.348197, -0.026811, -0.057750, 0.140250,
    -0.120156, -0.123090, 0.084208, -0.095825, -0.132340, 0.410158, -0.097041, -0.124232, 0.281341,
    -0.246365, -0.010814, 0.215659, -0.201933, -0.099786, 0.543494, -0.266652, -0.104799, 0.095934,
    -0.237840, 0.008067, 0.305216, -0.093255, 0.167538, 0.357281, -0.054123, -0.249352, 0.245680,
    0.204449, -0.095597, -0.249090, 0.182607, -0.433600, -0.504179, 0.066027, -0.141778, -0.223901,
    0.007157, 0.286460, 0.241630, 0.005653, 0.146002, 0.116617, -0.173618, 0.222334, 0.198414,
    0.359683, -0.349578, -0.977793, 0.092001, -0.119952, -0.728543, 0.626007, 0.484427, 0.016515,
    -0.244461, -0.469197, 0.083557, -0.206491, -0.518187, -0.109254, -0.339219, -0.399096, -0.082115,
    -0.423877, 0.066891, 0.541273, -0.369801, -0.162076, 0.224019, -0.442784, -0.293833, 0.142712,
    -0.133748, 0.160766, 0.312469, -0.018732, 0.607828, 0.637105, -0.167767, 0.053400, 0.353563,
    -0.025772, 0.212949, 0.387696, -0.167798, -0.032109, 0.048507, -0.416059, -0.045128, -0.290233,
    0.478150, 0.204372, -0.119678, 0.198789, -0.105099, -0.284113, 0.257251, 0.183102, 0.046341,
    0.105823, 0.360222, 0.283881, 0.240410, 0.183616, 0.076321, -0.087583, 0.233373, 0.115207,
    -0.179486, -0.547553, -0.050890, -0.222905, -0.480855, -0.008195, -0.071136, -0.439700, 0.172382,
    -0.056768, -0.106221, -0.056657, 0.454321, 0.229978, 0.222363, -0.091066, 0.511354, 0.138957,
    0.113997, 0.329624, 0.097987, 0.028660, -0.194166, 0.236293, -0.029926, -0.272201, -0.120012,
    0.212046, 0.230438, -0.145024, 0.163281, 0.207427, -0.009377, -0.110254, -0.140879, -0.014315,
    0.065923, -0.112938, -0.105134, -0.410365, -0.173916, -0.012980, -0.089017, -0.494452, -0.095290,
    0.506368, 0.081722, -0.010472, 0.036973, 0.466987, -0.139030, -0.094252, -0.213911, 0.175599,
    -0.344479, 0.287620, 0.123696, -0.367657, -0.544253, -0.085344, -0.228870, -0.168029, -0.430496,
    -0.488136, -0.337405, 0.129176, -0.060871, -0.194244, -0.133989, 0.256625, 0.328716, 0.008697,
    0.025926, 0.188069, -0.209031, -0.148594, -0.350787, -0.113269, 0.066374, -0.245986, -0.330316,
    0.190631, 0.293609, 0.135899, 0.128697, 0.182711, 0.122169, -0.064890, -0.101329, 0.073481,
    0.279920, 0.434876, -0.021415, -0.218277, -0.247552, -0.050201, -0.014068, -0.249369, -0.074840,
    -0.206645, 0.194035, 0.037699, 0.003683, -0.310638, 0.198998, 0.148242, -0.148250, -0.128128,
    -0.145037, 0.066854, -0.040832, -0.002093, -0.086027, 0.021399, -0.223439, -0.091597, 0.029209,
    -0.213759, 0.150839, -0.121744, -0.411201, -0.076273, 0.157890, -0.043381, -0.510005, 0.098990,
    0.208734, -0.266515, -0.614266, -0.035179, 0.133482, -0.139140, -0.042887, 0.104053, 0.298152,
    0.018268, 0.026186, -0.342238, -0.103751, 0.081177, -0.045941, -0.063754, 0.020484, 0.166252,
    -0.092307, -0.168120, 0.130118, 0.145297, 0.087545, -0.028947, -0.028051, 0.199063, 0.006736,
    0.015427, -0.155340, 0.205675, -0.230816, 0.098366, -0.027190, -0.063689, 0.088894, 0.114924,
    -0.290779, 0.169908, -0.367968, -0.091188, -0.198735, -0.314421, 0.096414, -0.595171, 0.004538,
    -0.027975, -0.140591, -0.161649, -0.215841, -0.181002, -0.079475, -0.196621, -0.171484, 0.078412,
    -0.001573, 0.165927, -0.094938, -0.011734, 0.050346, 0.055330, 0.087261, -0.056259, 0.248300,
    0.030379, -0.035324, -0.035953, -0.149644, 0.114791, -0.071813, 0.219721, 0.057913, 0.240626,
    0.199241, 0.200445, 0.067033, -0.019005, 0.151574, -0.081389, 0.166675, -0.000919, 0.295274,
    0.119273, -0.019943, 0.118598, -0.055827, 0.228894, -0.144196, 0.110252, -0.040037, 0.349248,
    0.393697, -0.203433, 0.292156, 0.215832, 0.388986, 0.202527, -0.155821, 0.238884, -0.402805,
    0.041107, 0.286862, -0.011003, 0.045424, 0.026020, 0.031800, 0.016384, -0.013464, 0.069579,
    0.046429, 0.139125, 0.148293, 0.224435, -0.273769, 0.163231, -0.035435, 0.230021, -0.056818,
    -0.084488, -0.318347, -0.101390, -0.221324, -0.196248, -0.169130, -0.279552, -0.058792, -0.264226,
    0.011281, 0.006834, 0.013020, -0.051892, -0.338635, 0.054324, -0.261596, -0.379760, -0.106624,
    -0.107543, -0.290252, -0.087483, -0.186663, -0.271028, -0.119729, -0.358712, -0.155489, -0.157652,
    -0.174282, -0.130172, -0.020715, -0.021433, -0.136245, -0.147961, 0.044259, 0.060207, 0.092592,
    -0.168781, -0.004615, -0.257532, -0.122731, -0.104221, -0.198520, -0.015751, -0.078712, -0.281714,
    -0.018242, -0.046958, -0.042460, -0.113944, -0.209373, -0.161211, 0.052644, -0.287813, 0.110700,
    0.170326, 0.688974, 0.233857, -0.043142, -0.106107, 0.059917, -0.291136, -0.147144, 0.018375,
    -0.011255, -0.153823, -0.431612, 0.091202, 0.061326, -0.148033, 0.086344, -0.046196, 0.025533,
    0.167524, 0.178732, 0.021301, 0.596893, -0.003041, -0.171430, -0.103784, 0.261597, -0.126925,
    0.236548, -0.214675, 0.055420, -0.004169, -0.271241, 0.125648, -0.088717, -0.102991, 0.184427,
    -0.609643, -0.147723, 0.166099, -0.514413, -0.414484, -0.448149, -0.151958, -0.193673, -0.301508,
    0.246799, 0.606158, -0.059045, -0.289678, 0.197197, -0.126452, -0.162058, -0.328010, -0.160658,
    -0.138362, -0.293921, 0.313198, -0.106844, -0.686745, -0.079522, 0.377738, 0.208654, -0.079677,
    0.080714, 0.032714, -0.135955, 0.033576, -0.254406, -0.245385, 0.006668, -0.282691, -0.178356,
    0.103021, 0.125990, -0.004992, -0.054869, 0.109637, -0.035494, 0.190271, 0.742987, 0.174989,
    -0.006757, -0.337537, -0.156418, -0.195551, -0.268282, -0.118250, 0.188170, 0.064834, 0.048674,
    0.114607, 0.837886, 0.042626, 0.117593, -0.328040, 0.075023, 0.319929, 0.681512, 0.140274,
    -0.002719, -0.087570, -0.023241, 0.031578, 0.085346, -0.116001, -0.321326, -0.237545, -0.289651,
    -0.574714, -0.596412, -0.191078, -0.140545, 0.185595, -0.238745, -0.359559, 0.063484, 0.040954,
    -0.185724, -0.353736, 0.259015, -0.090182, 0.182927, 0.139536, 0.098578, 0.436771, 0.371574,
    0.197468, 0.782835, 0.252921, 0.189113, 0.508882, 0.171367, -0.115129, -0.263623, -0.026896,
    0.288268, -0.636934, -0.012038, 0.137742, 0.143050, -0.048661, 0.408108, 0.304210, 0.149230,
    -0.184876, -0.014827, -0.059837, -0.152125, -0.124153, 0.085967, -0.037167, -0.400766, -0.018496,
    0.013407, -0.002363, 0.039209, -0.113133, -0.110606, -0.335567, -0.093354, 0.090563, -0.537107,
    -0.033349, -0.341843, -0.202003, -0.141562, -0.181595, -0.332011, -0.404691, 0.135410, -0.193830,
    0.304675, 0.038361, 0.045703, 0.352252, 0.097860, -0.082133, 0.324673, 0.450172, -0.052226,
    -0.267020, -0.194114, 0.018864, 0.017341, -0.155341, -0.260467, -0.031418, -0.444077, -0.304768,
    -0.106554, 0.074434, -0.067242, -0.059904, 0.170317, -0.156880, -0.168523, -0.012135, -0.245418,
    0.051360, -0.315289, -0.115679, 0.312935, -0.227756, -0.045735, 0.054099, 0.002391, -0.335845,
    0.087663, -0.104147, 0.564891, 0.346238, -0.364587, 0.847315, 0.292254, -0.074618, 0.574036,
    0.126455, -0.170276, 0.131036, 0.129970, -0.071417, 0.136471, 0.097624, 0.109977, 0.066025,
    -0.028784, -0.152461, -0.306965, -0.051920, -0.151358, -0.040164, 0.065220, -0.014317, 0.078410,
    -0.145474, -0.083500, -0.154033, -0.189404, -0.065273, -0.366146, -0.155572, -0.211185, -0.236957,
    -0.076987, 0.152927, 0.149178, -0.049683, -0.071698, -0.019454, -0.039376, 0.035510, -0.154529,
    -0.226327, -0.150406, -0.065618, -0.120451, -0.381711, -0.001010, -0.184492, -0.297645, -0.020491,
    -0.382013, 0.049576, -0.404253, -0.401985, -0.071358, -0.300214, -0.086094, -0.170069, 0.137055,
    0.118277, 0.081094, -0.003409, 0.073594, 0.032228, -0.019647, -0.028087, 0.135373, -0.018876,
    -0.073522, -0.037776, 0.112900, -0.078643, 0.081465, 0.030857, -0.056353, 0.107300, -0.001432,
    0.093810, 0.070409, -0.262253, 0.067483, -0.222886, 0.055665, 0.114221, 0.126113, 0.105802,
    -0.300329, -0.244360, 0.005037, -0.065991, -0.064906, -0.048225, -0.178460, -0.077367, -0.121395,
    0.135318, -0.184217, 0.011007, 0.029610, -0.136316, 0.256329, -0.083196, -0.003315, 0.174660,
    -0.505939, -0.514095, -0.007086, -0.521148, -0.121476, 0.168770, -0.448927, -0.405931, 0.054155,
    0.095955, -0.226388, 0.168679, 0.001908, 0.100159, 0.011107, 0.137868, -0.266954, -0.020978,
    -0.105797, 0.037624, -0.103003, -0.011886, -0.356421, -0.293781, -0.089031, 0.003069, -0.136993,
    -0.148722, -0.350183, 0.024902, 0.031930, -0.228106, 0.039523, 0.016732, -0.273122, -0.099473,
    0.037260, -0.368790, -0.260042, 0.085435, -0.274314, 0.029438, 0.010778, -0.370444, -0.178751,
    0.044090, -0.069774, 0.053054, 0.029428, 0.024014, 0.097033, -0.165808, -0.137944, -0.086315,
    0.075186, 0.033372, 0.020975, -0.088346, 0.136969, -0.015135, 0.092741, -0.091633, -0.121305,
    0.225806, 0.050272, -0.290440, 0.036871, 0.120282, 0.007743, 0.174226, 0.141071, -0.177188,
    0.057295, -0.003222, -0.399896, -0.020583, 0.035031, -0.095296, -0.002655, -0.052036, -0.081081,
    -0.038890, -0.109474, 0.134388, -0.066241, -0.055022, -0.028935, -0.052548, -0.124615, -0.126020,
    -0.017097, 0.142425, -0.128867, 0.000311, 0.085336, -0.019605, 0.028041, 0.032746, -0.028365,
    0.086099, -0.013226, -0.111409, 0.044450, -0.059780, -0.078384, -0.182051, -0.030495, -0.178164,
    -0.304594, -0.292986, 0.069307, -0.171096, 0.208456, 0.179437, -0.076330, 0.009660, 0.156747,
    0.012717, -0.035065, -0.150315, 0.097508, -0.212906, 0.006874, 0.084902, 0.012041, 0.137525,
    -0.052106, -0.543845, -0.514580, -0.146865, -0.267723, -0.086873, -0.068808, -0.119567, -0.332039,
    0.088268, 0.067780, -0.264223, -0.404589, -0.018455, -0.113342, -0.238427, -0.016123, -0.196859,
    0.145720, 0.096826, 0.053552, -0.140488, -0.142544, 0.174240, 0.092062, 0.046395, 0.277969,
    0.122864, 0.182388, 0.056410, 0.089220, -0.044844, -0.056900, -0.130404, 0.044790, 0.061495,
    -0.190864, -0.232132, -0.091194, 0.035000, -0.048844, 0.178118, -0.000370, -0.040567, 0.015628,
    0.232277, 0.082546, 0.147192, 0.148051, 0.046352, 0.145022, 0.266259, 0.238894, 0.086770,
    0.075034, 0.060832, 0.274311, 0.215039, -0.303151, 0.264773, 0.335172, -0.073614, 0.298810,
    0.008477, 0.187832, -0.004808, 0.146296, 0.129500, -0.095017, 0.038297, 0.033964, 0.253360,
    0.055978, 0.153959, 0.120130, 0.049807, 0.023350, 0.021032, 0.332917, 0.146160, 0.065018,
    0.182220, 0.214641, 0.083994, -0.035241, -0.090158, 0.240635, -0.058723, 0.260281, 0.360633,
    -0.201661, -0.048163, 0.020762, -0.141280, -0.352347, -0.118379, -0.010063, -0.223995, -0.129761,
    0.100740, 0.158249, 0.160937, 0.062962, 0.039276, 0.002149, 0.044228, -0.005363, 0.333324,
    -0.041271, -0.137380, -0.064682, -0.115164, -0.066300, 0.052523, -0.083023, -0.106870, 0.062145,
    -0.237269, -0.231584, -0.259638, -0.438666, -0.459851, -0.211810, -0.223269, -0.197137, -0.092832,
    -0.089457, -0.352561, -0.399247, -0.221440, -0.135568, -0.206702, -0.352508, -0.307882, -0.423905,
    0.140837, 0.150991, 0.111227, -0.208148, 0.260093, 0.374829, 0.062523, 0.118806, 0.233419,
    -0.118725, 0.008500, -0.157280, 0.102741, -0.074870, -0.123328, 0.172269, -0.081401, -0.209552,
    0.068245, 0.013539, 0.147556, 0.173384, 0.156495, 0.195686, 0.081456, 0.213801, 0.109611,
    -0.057617, -0.367851, -0.240590, 0.012337, -0.322651, -0.084403, -0.106237, -0.382590, -0.243842,
    -0.181762, 0.021500, 0.092791, -0.199349, -0.370304, -0.296457, -0.249559, -0.110052, -0.128596,
    0.065470, -0.297803, -0.229184, -0.025688, -0.009194, 0.102678, -0.092519, -0.328912, -0.133009,
    0.061185, -0.520788, -0.454662, 0.018851, 0.366112, -0.076395, -0.002274, -0.167603, 0.176725,
    -0.087630, -0.207563, -0.200001, -0.095966, -0.119112, -0.168326, -0.278460, -0.390835, -0.445783,
    0.000643, 0.052509, 0.229273, 0.248261, 0.483189, 0.030829, 0.028491, 0.220364, 0.198982,
    0.022791, 0.376878, 0.704058, 0.410693, -0.087998, -0.377569, -0.094931, 0.561656, 0.356191,
    -0.041811, 0.022618, 0.289612, -0.026583, 0.360366, 0.237657, 0.072369, 0.125046, 0.096197,
    0.004786, -0.018899, 0.224820, -0.079585, 0.235998, 0.171943, 0.101536, -0.175878, 0.050421,
    -0.259311, 0.201610, 0.088084, -0.035790, -0.119944, 0.009329, 0.131507, 0.165123, 0.374537,
    0.085038, 0.097888, 0.047129, 0.100763, -0.156930, -0.027784, 0.195958, -0.019313, 0.146242,
    -0.160950, -0.009402, -0.016892, -0.074559, -0.353468, -0.217116, -0.170713, -0.236116, -0.095142,
    -0.088648, -0.104165, -0.286491, 0.008365, -0.017596, 0.130209, 0.185712, 0.068888, -0.040595,
    -0.191215, -0.924703, -0.442509, -0.282877, -0.669653, -0.103223, -0.155201, -0.144003, 0.174044,
    0.096657, -0.200242, -0.183180, 0.004428, -0.128445, -0.263245, -0.002184, -0.035332, -0.232066,
    0.042283, -0.158720, -0.335028, 0.129603, 0.074079, -0.031544, -0.008387, 0.062471, -0.137415,
    -0.400129, -0.354663, -0.325473, -0.449332, -0.601974, -0.214468, -0.274934, -0.289550, -0.090803,
    0.131282, -0.140985, 0.031610, 0.036706, -0.313642, -0.024100, -0.095950, -0.072720, 0.076063,
    -0.084835, -0.444873, -0.174402, -0.003726, -0.310633, 0.048579, 0.086317, -0.162892, -0.051355,
    -0.236545, -0.552693, 0.364394, -0.322332, -0.471528, 0.071681, -0.140193, -0.124586, 0.114913,
    0.002002, 0.188666, -0.191876, 0.172327, 0.104887, -0.221014, 0.170472, 0.093910, -0.272700,
    0.434429, 0.872343, 0.194691, 0.217208, 0.807889, 0.137768, -0.286675, -0.030582, -0.413134,
    0.212734, -0.221302, -0.248512, 0.295082, 0.075778, 0.044863, 0.330043, 0.289203, 0.319869,
    0.250218, -0.449597, -0.077070, 0.064488, -0.495384, -0.107066, 0.205106, -0.144680, -0.017644,
    0.124046, -0.036744, 0.348975, -0.242087, -0.824196, -0.007711, -0.260868, -0.629926, 0.326191,
    -0.007124, -0.847705, -0.033060, -0.159665, -0.451941, -0.182452, 0.110068, 0.055407, 0.150122,
    -0.384690, -0.095881, 0.426851, -0.157092, -0.013328, 0.414273, -0.361915, -0.045360, -0.133777,
    -0.271720, -0.454480, 0.002955, -0.095475, 0.166569, 0.313492, 0.087590, 0.169164, 0.225645,
    0.323845, 0.426197, 0.023701, 0.073035, 0.115904, -0.216375, -0.021461, 0.042702, -0.136589,
    0.023053, -0.376560, -0.065135, -0.333339, -0.192263, -0.539717, -0.011844, -0.235673, -0.238507,
    0.044066, -0.148519, -0.087501, -0.044302, -0.176660, 0.091688, 0.066278, -0.119880, -0.261052,
    0.134035, -0.096698, -0.068579, -0.086017, -0.105117, 0.013955, -0.062919, 0.072864, -0.002238,
    -0.022511, -0.123372, -0.154939, 0.048873, -0.148063, 0.273522, 0.000185, 0.080782, -0.280605,
    0.239234, 0.465139, -0.011284, 0.472986, -0.543489, 0.308228, 0.207537, 0.551084, 0.110527,
    0.408974, -0.126016, 0.050092, 0.044626, 0.159510, 0.018456, -0.160245, 0.383312, -0.108475,
    0.093321, -0.163242, 0.170758, -0.104612, -0.065871, 0.036324, -0.194590, 0.070360, -0.012792,
    -0.023377, -0.012399, 0.075646, 0.047258, -0.320452, 0.197099, 0.078424, 0.307262, 0.054442,
    -0.078533, 0.061590, -0.045120, -0.040505, 0.003729, -0.007372, -0.021190, -0.091387, -0.101637,
    -0.109491, -0.035947, 0.246565, 0.174346, -0.075848, -0.077330, 0.100306, 0.078935, 0.049222,
    -0.118080, 0.069919, -0.032390, -0.124146, -0.046609, -0.096271, -0.095623, 0.116799, -0.176728,
    0.011760, -0.090110, 0.221795, -0.017848, 0.065783, -0.211080, -0.035089, -0.068206, -0.268330,
    -0.021064, 0.025290, -0.007234, -0.222854, -0.096745, 0.153140, 0.087364, -0.092838, -0.072567,
    -0.064676, -0.226182, 0.049581, -0.048650, -0.079920, 0.134523, 0.081593, 0.045986, -0.192754,
    -0.226899, -0.150705, -0.200164, -0.165878, -0.235200, -0.143811, -0.196180, -0.192638, 0.000587,
    -0.102044, -0.016905, -0.104657, -0.152104, -0.018046, -0.083693, -0.002947, -0.157352, 0.008998,
    -0.009634, -0.010391, -0.058919, 0.048560, 0.132983, 0.355324, 0.000864, -0.039682, 0.002518,
    0.041938, -0.101935, -0.309972, -0.063700, -0.023991, 0.169143, 0.115595, 0.081651, 0.168724,
    0.034577, -0.237555, -0.072185, 0.297806, -0.340803, -0.288944, 0.169974, 0.076305, 0.023848,
    -0.305845, -0.230105, -0.109457, 0.264366, 0.069329, -0.199491, 0.153818, 0.138850, 0.221070,
    -0.162419, -0.048080, 0.156266, 0.100670, -0.020422, -0.158247, -0.013140, -0.042293, -0.242860,
    0.083342, 0.028110, -0.024271, 0.192427, 0.265546, -0.026086, -0.043993, 0.229426, 0.119882,
    0.073002, -0.072988, 0.043147, 0.232016, 0.128140, 0.123212, 0.022188, 0.142490, 0.148483,
    -0.118981, -0.306899, -0.424902, -0.002993, 0.181612, -0.143330, -0.148397, 0.106828, 0.079157,
    0.017285, -0.169847, 0.218099, 0.204554, -0.059802, 0.054498, 0.076852, 0.032496, -0.187390,
    -0.105865, -0.030473, 0.029121, -0.319071, -0.270800, -0.093178, -0.276077, -0.096954, -0.018451,
    0.210129, -0.054728, 0.200182, 0.163732, 0.146843, 0.071710, -0.106045, 0.178054, 0.005629,
    0.205168, 0.133518, 0.248272, 0.101280, 0.132607, -0.067741, -0.111888, 0.119879, -0.284602,
    -0.113426, -0.546601, -0.238767, -0.201979, -0.257952, -0.483623, -0.222190, 0.089168, -0.078195,
    0.115296, 0.188919, 0.255912, 0.057302, 0.053753, -0.164265, 0.082732, 0.053835, 0.153670,
    -0.195551, -0.193973, -0.195157, -0.224814, -0.066932, -0.225658, -0.117174, -0.440438, -0.293207,
    0.187141, 0.369564, 0.275665, 0.128634, 0.095737, 0.098268, 0.221332, 0.203079, 0.283448,
    -0.000686, -0.170716, -0.556410, -0.385102, -0.405853, -0.605689, -0.026505, -0.477343, -0.247968,
    -0.360596, -0.064209, -0.204007, -0.075255, -0.179855, 0.046128, -0.194807, -0.046447, 0.354647,
    -0.151530, 0.278251, 0.462466, -0.307289, 0.138916, 0.443460, -0.497127, 0.308889, 0.570539,
    -0.018730, 0.210466, 0.147929, 0.100652, -0.549458, 0.004672, -0.035941, -0.115137, 0.065285,
    -0.044244, 0.099507, 0.242949, -0.078047, 0.007934, 0.100817, -0.085617, -0.121129, -0.048773,
    0.050666, 0.138438, -0.198525, -0.059103, 0.337483, -0.092314, 0.102828, -0.095668, 0.288053,
    -0.565138, -0.154061, -0.683538, -0.170837, -0.529852, -0.137544, -0.027012, -0.295292, -0.054636,
    -0.440015, -0.430460, -0.197485, -0.271886, -0.314196, -0.555129, -0.538895, -0.341926, -0.182108,
    -0.327286, 0.532070, 0.294750, -0.022133, 0.520494, 0.665317, -0.214254, 0.518568, 0.304143,
    0.254753, 0.116206, 0.091459, 0.208973, 0.200389, 0.076089, -0.200918, 0.291288, 0.109656,
    0.168321, -0.157248, 0.048081, -0.000567, -0.308074, -0.089245, 0.067916, -0.069077, -0.093080,
    0.222189, -0.158913, -0.076658, 0.146495, -0.374926, -0.115101, -0.084208, -0.534428, -0.180468,
    0.004584, -0.062759, -0.107282, -0.233955, -0.561608, -0.177004, -0.112971, -0.227742, -0.514908,
    0.376096, 0.196904, -0.667744, -0.018649, 0.098054, 0.068978, 0.325030, 0.275521, -0.011719,
    -0.033309, -0.520612, -0.123920, -0.077636, -0.401429, -0.095064, 0.143093, 0.086395, -0.200840,
    0.082478, 0.172114, 0.029488, 0.157474, -0.072411, 0.126557, 0.251247, -0.316680, 0.073478,
    -0.106000, -0.005102, -0.081444, -0.070915, 0.181679, -0.012969, -0.052051, 0.146113, 0.165934,
    0.102875, -0.768373, -0.664818, -0.029235, -0.343663, -0.417824, 0.071344, -0.103508, -0.180343,
    0.302361, -0.143225, -0.017267, -0.011288, -0.356563, -0.050990, 0.077324, -0.148139, -0.238249,
    -0.097484, -0.178504, -0.054582, -0.034730, 0.259300, 0.222525, -0.092912, 0.037117, 0.062915,
    0.197809, 0.060497, -0.229814, -0.090318, 0.146151, 0.065433, -0.256970, -0.028807, 0.099569,
    -0.140244, 0.206457, 0.048008, 0.021009, 0.156449, 0.014806, 0.014064, -0.028965, 0.008062,
    0.216031, -0.096975, 0.346189, 0.370554, 0.082966, 0.230207, 0.330557, -0.152894, -0.017592,
    0.258037, 0.260256, 0.044305, 0.258133, 0.293384, -0.009563, 0.207223, 0.124172, -0.093599,
    -0.036638, 0.133901, 0.043420, 0.207810, 0.076060, 0.112983, 0.215534, 0.058011, 0.076458,
    -0.220313, -0.469644, -0.638846, 0.106450, -0.095717, -0.148900, 0.223654, -0.089689, 0.042229,
    0.265475, 0.121301, 0.191206, -0.033504, -0.025664, -0.055662, -0.155855, -0.180431, -0.005630,
    0.465203, 0.443586, 0.607718, 0.168392, 0.146571, 0.097991, -0.058728, 0.119647, -0.062218,
    0.039890, -0.125710, -0.181564, -0.127280, -0.393888, -0.166134, 0.114885, -0.043308, 0.177452,
    -0.227162, -0.168062, 0.169466, -0.288756, -0.162558, -0.135451, -0.183927, -0.150704, -0.174014,
    -0.380457, -0.115132, -0.230684, -0.255734, -0.208004, -0.115588, -0.095015, -0.186539, 0.029181,
    0.300881, -0.005340, -0.170400, -0.051352, -0.276966, -0.307777, -0.326207, -0.278310, -0.542599,
    -0.041958, -0.336345, -0.081697, -0.251188, -0.410182, -0.296655, -0.140589, -0.088531, -0.264085,
    -0.133431, -0.277841, -0.163823, -0.049750, 0.117215, 0.007714, -0.073549, 0.015280, -0.293917,
    -0.020254, 0.080043, 0.113589, -0.115434, 0.234961, 0.035936, -0.050779, -0.044427, -0.048643,
    -0.053377, -0.213409, -0.071171, -0.033278, -0.114793, -0.241111, 0.133853, -0.068376, -0.030112,
    0.088657, -0.138633, -0.110849, -0.177404, -0.119901, -0.143419, 0.148556, 0.251482, -0.002836,
    -0.101127, -0.593281, -0.054621, -0.349078, -0.189290, -0.185068, 0.033570, 0.116773, -0.080821,
    -0.039230, -0.573924, -0.303292, -0.129401, -0.211152, -0.214165, 0.262695, 0.247647, 0.120154,
    -0.032815, -0.087890, -0.148114, 0.219616, 0.100485, 0.405337, 0.158949, 0.049734, 0.129201,
    0.186265, 0.238971, 0.059674, -0.096488, 0.026670, 0.072023, -0.004360, -0.142206, -0.016009,
    -0.065011, 0.695266, 0.205542, 0.091130, 0.214385, -0.054562, -0.108906, -0.447277, -0.022591,
    0.026510, -0.145638, -0.031198, -0.229924, -0.378638, -0.067249, -0.072506, -0.189108, -0.072819,
    -0.247353, -0.270334, -0.261190, -0.189740, -0.216711, 0.022343, -0.026427, 0.017660, -0.111095,
    0.101083, 0.186606, 0.104045, 0.008381, -0.012448, 0.013735, -0.343842, -0.296943, -0.407117,
    -0.056802, -0.073143, -0.096324, 0.096046, 0.137398, -0.042997, -0.106457, 0.058056, -0.200978,
    -0.149330, 0.225414, 0.062341, 0.046707, 0.087400, -0.055618, -0.036916, -0.134385, -0.189967,
    -0.071481, -0.280650, 0.052683, -0.192324, -0.070965, -0.002259, -0.131265, 0.157606, -0.119761,
    -0.051155, 0.364380, -0.010160, -0.077567, -0.330209, -0.002500, -0.080627, 0.177720, 0.123539,
    -0.057137, 0.237132, 0.014436, -0.186992, -0.595105, -0.084128, 0.118022, -0.465390, 0.154889,
    0.114816, 0.040255, -0.254619, 0.226149, -0.005045, 0.189152, -0.130372, 0.100222, -0.139120,
    -0.183521, -0.633354, -0.240749, -0.093480, -0.206608, 0.099913, -0.219806, 0.147987, 0.056653,
    -0.060033, 0.208619, -0.091996, 0.058412, -0.022533, -0.057015, -0.152287, -0.165092, -0.196824,
    -0.121612, -0.260195, 0.183984, -0.138861, 0.523729, 0.037870, 0.461434, 0.313054, -0.050222,
    0.055823, -0.938165, -1.128233, 0.169083, 0.043126, 0.088592, 0.221718, 0.296610, 0.160785,
    -0.158533, -0.318544, -0.528529, -0.111994, -0.142462, 0.180233, -0.137850, 0.001798, -0.167733,
    -0.088432, -0.454202, -0.477576, 0.095353, -0.230746, 0.228880, 0.357969, 0.533658, 0.521368,
    -0.128473, -0.319007, -0.228253, -0.142865, -0.597530, -0.676192, 0.225716, 0.395179, 0.471577,
    -0.260484, 0.248805, 0.394249, -0.100438, -0.144113, 0.098266, -0.207459, -0.320288, -0.244825,
    0.251704, -0.174264, -0.307374, 0.045559, 0.250449, 0.190951, 0.019797, 0.134381, 0.140684,
    -0.103129, 0.383640, -0.214085, -0.212229, -0.244351, -0.297002, -0.154870, -0.168443, 0.570262,
    0.326703, 0.392156, 0.129783, 0.160067, 0.016616, -0.155955, 0.038664, -0.267674, -0.082308,
    -0.075952, 0.430865, 0.420598, -0.162268, 0.160788, 0.077321, -0.030605, -0.056018, 0.309401,
    -0.169215, -0.010468, 0.069299, -0.040667, 0.133713, 0.023926, -0.183408, 0.079784, -0.199859,
    0.097060, -0.038694, -0.100511, -0.009189, -0.000177, 0.299085, -0.042483, 0.322994, -0.090535,
    -0.139048, 0.042501, -0.090692, 0.006001, -0.139839, -0.310328, -0.035093, 0.146531, -0.162992,
    -0.221974, 0.034075, -0.050050, 0.142959, 0.453730, -0.038322, 0.131678, 0.047899, 0.151933,
    -0.474689, -0.710347, -0.229396, -0.165149, -0.183584, -0.349517, -0.501840, -0.676057, -0.153123,
    0.280740, 0.158079, 0.307197, 0.215043, 0.227635, -0.011257, 0.267740, 0.107651, 0.189401,
    -0.051220, 0.320085, -0.002865, 0.362449, 0.135362, 0.176294, -0.097021, 0.138855, 0.268214,
    -0.168653, 0.353465, 0.009668, 0.230993, 0.166216, 0.118532, 0.391205, -0.416854, 0.178120,
    0.161687, -0.114346, -0.034409, -0.271000, 0.044393, -0.031803, 0.070420, -0.276209, -0.123943,
    0.061955, 0.123906, -0.009892, 0.142893, 0.214090, 0.062134, 0.087740, 0.092121, -0.019185,
    0.212608, 0.040555, 0.031728, -0.016796, 0.303429, -0.092858, 0.210004, -0.200305, -0.021699,
    0.140124, -0.127885, -0.044524, -0.107162, -0.072328, -0.169132, 0.043213, -0.304712, 0.042741,
    -0.364891, -0.000630, 0.094994, -0.322120, -0.142256, 0.102356, -0.078094, -0.164058, 0.074105,
    -0.093595, -0.408889, 0.102762, -0.285120, -0.310540, -0.234744, -0.183821, -0.346210, -0.157427,
    -0.149500, -0.099234, 0.204561, -0.299456, -0.267554, 0.214384, -0.065706, 0.194226, 0.087618,
    -0.207970, 0.116687, 0.163703, -0.210082, -0.171677, -0.114664, -0.072913, 0.103314, 0.125804,
    -0.000504, -0.355997, -0.229870, -0.007513, 0.071249, -0.287916, -0.142825, 0.032231, -0.010053,
    0.106190, -0.316407, -0.336584, -0.268106, -0.027271, 0.140225, 0.114261, 0.079393, 0.036966,
    -0.143709, -0.109167, 0.025466, 0.133755, -0.150823, -0.141069, -0.015822, -0.201223, 0.090204,
    -0.141915, -0.253153, 0.053438, 0.041123, 0.303553, 0.170025, 0.219675, 0.096485, -0.291741,
    -0.065911, -0.324428, -0.095700, 0.127534, -0.018870, 0.115210, -0.080531, -0.082573, -0.142331,
    -0.109982, -0.482776, -0.217562, -0.269821, 0.174404, -0.024866, -0.013769, -0.073662, -0.228546,
    -0.262760, -0.163276, 0.366956, 0.441314, 0.496209, -0.037048, -0.186415, -0.323573, -0.109594,
    -0.230281, -0.169573, 0.184147, 0.085336, 0.325830, 0.009914, 0.200702, -0.038576, 0.054754,
    -0.308260, -0.275162, -0.292427, 0.073076, 0.044883, 0.037406, -0.065538, -0.111772, -0.322094,
    0.155277, 0.279011, 0.140010, 0.086966, 0.158681, 0.195905, -0.158481, -0.066597, 0.036946,
    0.284221, 0.234512, 0.032762, -0.038041, -0.434144, -0.002589, -0.311189, 0.069881, 0.161608,
    0.143571, -0.220146, -0.316767, -0.205042, 0.066618, 0.033274, 0.094755, 0.142245, -0.003509,
    -0.054135, -0.437027, 0.089572, -0.008054, -0.079203, 0.005007, 0.085949, -0.153435, 0.187217,
    0.187132, 0.033078, -0.291633, -0.018825, -0.222028, 0.076065, 0.047171, 0.091691, 0.262097,
    -0.022957, 0.097933, 0.081035, -0.035047, -0.056943, 0.021639, 0.039690, -0.075641, -0.051061,
    -0.027514, 0.003676, 0.011601, 0.058732, -0.022270, -0.366694, 0.006906, -0.095835, -0.128705,
    -0.241618, -0.156138, 0.082358, -0.028427, -0.049797, 0.079735, 0.225344, 0.010720, -0.296763,
    0.264912, 0.144576, 0.053780, -0.152750, -0.069066, 0.001442, -0.116822, 0.048979, -0.061281,
    -0.172339, -0.066769, -0.306746, 0.060336, -0.477444, -0.404083, 0.130378, -0.384544, -0.480510,
    -0.238877, -0.038921, 0.097925, 0.112760, -0.065023, -0.092171, -0.064085, -0.102264, -0.063654,
    -0.301386, -0.209164, -0.232325, -0.151852, -0.172616, -0.207899, -0.190574, -0.452016, -0.088426,
    -0.024941, 0.334249, 0.266134, 0.032563, 0.141441, -0.039178, 0.296082, 0.179190, -0.134503,
    0.087806, 0.515360, 0.036095, 0.098041, 0.135003, -0.240955, -0.003609, -0.000038, 0.308253,
    -0.085025, 0.175741, -0.018921, -0.024960, 0.148669, -0.256135, -0.017097, -0.050979, 0.174371,
    -0.092487, -0.118326, 0.079744, -0.009118, 0.016120, -0.040264, -0.050136, -0.029267, -0.284683,
    0.006361, -0.105784, 0.146786, 0.031356, 0.231243, -0.114430, 0.043265, 0.108898, -0.017338,
    0.177848, -0.110012, 0.305978, 0.280388, -0.162855, 0.110932, -0.159716, 0.153916, -0.268269,
    0.028562, -0.046025, -0.067634, -0.112296, -0.111153, 0.067815, -0.067840, -0.095302, 0.050484,
    0.122266, 0.284230, -0.041100, -0.074948, 0.005130, 0.112728, -0.038926, -0.373054, 0.106366,
    0.066773, -0.185630, 0.086178, 0.040616, -0.145751, 0.186326, -0.013287, 0.053050, 0.046923,
    -0.075670, -0.294715, -0.422702, -0.257196, -0.256519, -0.062983, -0.166330, -0.163560, -0.240432,
    0.161754, -0.193692, -0.002061, 0.207039, -0.095416, 0.127147, -0.068841, 0.049429, -0.138583,
    -0.191864, 0.161459, -0.048939, 0.162215, 0.236792, -0.083612, 0.183280, -0.113230, 0.280226,
    0.021471, 0.225451, 0.036736, 0.075686, 0.130069, -0.033558, 0.196115, 0.202674, 0.261362,
    -0.080534, 0.095339, -0.244328, 0.022503, -0.080730, -0.108623, -0.030463, -0.062993, 0.053593,
    -0.509168, 0.217780, 0.143170, 0.168195, 0.327739, 0.022394, 0.254596, 0.173799, -0.412257,
    -0.195677, -0.079977, 0.196997, -0.030269, -0.015216, 0.035486, 0.125732, 0.302663, -0.235950,
    -0.437233, -0.223325, 0.142357, -0.417925, -0.107624, 0.005426, -0.128423, 0.218617, 0.088475,
    0.113834, 0.003564, -0.095074, 0.214454, -0.018608, 0.120816, -0.119262, 0.400639, -0.048648,
    -0.159144, 0.372038, -0.170790, -0.085409, -0.061903, -0.019794, -0.027107, -0.116793, -0.168568,
    -0.142049, -0.069144, -0.058128, -0.066875, -0.289596, 0.002545, 0.106160, 0.372503, 0.069940,
    0.047873, 0.405405, 0.327638, -0.058578, 0.019424, 0.031134, 0.109911, -0.164271, -0.156115,
    0.154300, -0.098503, -0.215071, -0.095433, -0.420360, -0.197109, 0.070722, -0.440150, -0.075479,
    -0.127562, -0.597586, 0.030266, 0.167419, -0.416794, 0.158587, 0.105155, 0.581103, 0.295783,
    0.086601, -0.179747, -0.105057, -0.104651, -0.282012, -0.091268, -0.186089, 0.092981, 0.164837,
    0.056699, -0.470009, -0.011446, -0.213786, -0.395870, -0.077311, 0.170871, -0.082037, -0.006003,
    0.200069, 0.374041, 0.118747, -0.189412, -0.140586, -0.081413, -0.036448, -0.208428, -0.187806,
    0.053062, -0.300021, -0.081842, -0.137270, -0.175719, -0.270991, 0.299803, -0.227155, -0.147214,
    -0.086624, 0.469756, 0.061246, 0.019286, 0.130271, 0.092037, -0.095386, 0.227121, 0.046912,
    -0.126535, -0.054757, 0.165422, -0.130637, 0.128623, 0.088596, -0.178687, 0.094174, 0.084524,
    0.039543, -0.099207, 0.178940, 0.171058, 0.119440, 0.168575, 0.075825, 0.034513, 0.146359,
    0.178762, 0.167886, -0.287453, 0.205907, 0.417729, -0.295678, 0.195102, 0.235293, -0.293158,
    0.142264, -0.111345, -0.247822, 0.334517, 0.000696, -0.174538, -0.005242, -0.040238, -0.204203,
    -0.035651, 0.151509, -0.069285, -0.059099, 0.060477, -0.029905, -0.081254, 0.152065, 0.056892,
    -0.024943, 0.022141, 0.000714, -0.078282, -0.009855, -0.024506, -0.072002, 0.143403, 0.037069,
    -0.107219, -0.057362, -0.011981, -0.092105, 0.024969, 0.066177, 0.079266, 0.022155, 0.089602,
    -0.098710, 0.192149, -0.017653, 0.025590, 0.267134, -0.184236, -0.100801, 0.158378, -0.018366,
    -0.015422, 0.075088, 0.050103, 0.070915, 0.146549, 0.027344, 0.012419, 0.044586, 0.086707,
    0.018369, 0.108816, 0.093070, -0.025128, 0.007514, -0.018912, 0.006807, -0.099133, -0.043637,
    -0.003347, -0.043182, 0.036495, 0.038799, 0.124883, -0.045836, 0.027370, -0.044157, -0.033653,
    0.048254, -0.104121, 0.042935, -0.046610, 0.105791, -0.063430, 0.084130, 0.047568, 0.023948,
    0.014663, -0.011765, 0.001062, -0.036205, 0.048767, 0.114821, -0.001797, 0.048599, 0.091489,
    0.025954, 0.055516, 0.307537, 0.078345, -0.074176, 0.291218, 0.012751, 0.013454, 0.168558,
    -0.076360, 0.061902, 0.062486, -0.134870, -0.064526, -0.092232, 0.142839, 0.014446, -0.161052,
    0.210412, 0.008561, 0.002516, -0.049855, -0.021614, -0.054797, 0.044814, -0.062855, 0.024265,
    0.154979, 0.394478, -0.138498, 0.049736, 0.094777, -0.300790, -0.029896, -0.419694, -0.095916,
    0.146483, -0.309373, -0.206332, -0.079119, -0.069470, -0.149323, -0.069844, 0.231131, 0.167239,
    0.340652, -0.465843, 0.074454, 0.029704, -0.168133, 0.203519, -0.245821, 0.251895, 0.220517,
    -0.143855, -0.367375, 0.019738, -0.181089, -0.460805, 0.131976, -0.354074, 0.193685, 0.043498,
    -0.180420, -0.136288, -0.261313, 0.070319, -0.193326, -0.020872, 0.211363, -0.385922, 0.038810,
    0.012325, -0.417954, 0.086655, 0.056933, -0.061393, 0.325727, 0.040278, 0.588402, 0.087705,
    0.075140, -0.141086, 0.150102, 0.238500, -0.189410, 0.106785, 0.006932, 0.093790, 0.078558,
    -0.033285, 0.059367, -0.209991, 0.037833, -0.155604, -0.150236, -0.020319, -0.177060, 0.362802,
    0.176919, 0.022955, 0.099506, 0.033510, -0.071846, 0.134623, 0.012808, 0.053322, -0.066501,
    -0.201989, 0.110838, -0.107084, -0.164842, 0.154745, -0.024571, 0.190090, 0.049467, -0.241556,
    0.013096, -0.041934, -0.133535, 0.043816, -0.063327, -0.114629, 0.096231, -0.280418, 0.192762,
    -0.089411, -0.113673, 0.232139, 0.129688, -0.060067, 0.011881, -0.158976, -0.153311, -0.108888,
    0.014682, 0.166207, -0.545147, -0.088970, -0.249573, -0.273345, 0.161503, -0.345763, 0.096277,
    -0.049557, 0.118079, 0.185021, -0.030474, 0.087047, -0.059820, 0.119527, 0.019961, 0.006596,
    0.010287, 0.361256, 0.039681, -0.019870, 0.091335, 0.130796, 0.090572, 0.240190, -0.177433,
    -0.090461, -0.192546, 0.169309, -0.047617, -0.189946, -0.003529, -0.206378, 0.183923, 0.135832,
    0.058163, 0.195160, 0.074365, 0.076708, 0.194856, 0.127993, 0.099637, -0.007542, 0.012690,
    -0.123633, -0.426949, -0.608577, -0.088728, -0.224553, 0.035240, 0.206504, -0.099813, 0.013013,
    -0.057919, -0.069695, -0.176029, 0.047823, 0.058428, -0.301960, 0.141528, -0.013044, 0.005950,
    0.014515, 0.481884, 0.473540, 0.056707, 0.133227, 0.021987, -0.367979, -0.683581, -0.327803,
    0.134441, 0.193730, 0.238941, -0.044378, 0.038230, 0.076291, 0.155363, -0.086375, -0.216327,
    0.044507, 0.079665, -0.108043, -0.002380, -0.102015, -0.001954, -0.011947, 0.036566, 0.006479,
    0.316625, 0.130934, -0.095120, 0.020477, -0.342809, -0.326901, -0.115387, -0.129479, -0.238184,
    0.035528, 0.278747, 0.201187, -0.131553, 0.018571, 0.084040, -0.162154, -0.444347, -0.211909,
    0.163404, 0.142129, 0.041845, 0.128187, 0.058151, -0.064234, -0.199836, -0.083167, -0.034564,
    0.150301, 0.358621, 0.129822, 0.393516, 0.162283, 0.142058, 0.060028, -0.039956, -0.042703,
    -0.080381, -0.070385, -0.058310, 0.065049, 0.123397, 0.304716, 0.122825, 0.028827, 0.069430,
    -0.223495, -0.311899, -0.407143, -0.316959, -0.047031, -0.605432, -0.231248, -0.177153, -0.158591,
    0.142611, 0.187536, 0.080567, 0.171042, 0.247901, 0.155819, 0.079985, -0.066524, -0.092777,
    -0.225926, -0.176547, -0.219660, -0.009252, 0.185454, 0.069388, 0.046921, 0.244207, 0.004081,
    0.020888, 0.118788, -0.032855, 0.246973, 0.308284, 0.115363, 0.150143, 0.396868, 0.136795,
    -0.609377, -0.356544, -0.011540, -0.529919, -0.602532, -0.202170, -0.147858, -0.251336, -0.208002,
    -0.081601, 0.256823, 0.241057, -0.122693, 0.143679, 0.235598, -0.151001, 0.408524, 0.089610,
    0.219574, -0.235036, -0.383773, 0.032043, -0.309589, -0.414917, 0.199916, -0.249778, -0.306994,
    -0.021513, -0.323672, -0.378691, 0.302591, -0.389424, -0.165006, -0.056342, -0.002411, -0.048573,
    0.016151, 0.220835, -0.107117, 0.136353, 0.007702, -0.249602, 0.353518, -0.314512, 0.062657,
    -0.029529, 0.389134, 0.130300, -0.103721, 0.134692, -0.064787, 0.183336, -0.159268, -0.035368,
    -0.077393, -0.005780, 0.045286, 0.246868, 0.039703, 0.364130, -0.266232, 0.202570, 0.223674,
    -0.134524, -0.489785, -0.118238, -0.013963, -0.397929, -0.200113, 0.072371, 0.062975, -0.226700,
    0.063475, 0.054520, 0.051827, -0.095240, -0.544489, 0.307253, -0.249925, 0.221611, 0.151686,
    0.162230, 0.094999, 0.179537, -0.115584, 0.022568, 0.024255, 0.101911, 0.358977, 0.208448,
    0.053815, -0.051061, -0.421650, 0.149763, -0.345419, -0.218960, 0.091914, 0.222640, -0.083889,
    -0.004386, 0.321496, -0.023535, 0.100777, -0.166514, 0.157629, -0.108014, 0.203569, 0.101918,
    -0.144625, -0.260094, -0.062834, -0.305960, -0.371434, -0.129999, -0.298191, -0.388683, -0.015980,
    -0.097749, -0.392080, -0.237166, 0.044560, -0.410120, 0.112973, -0.036278, 0.008937, 0.097918,
    -0.205942, -0.044165, 0.065370, -0.060968, -0.047620, 0.090475, -0.061895, -0.333926, -0.130394,
    -0.191746, -0.307941, -0.112771, 0.083955, 0.091371, 0.125124, -0.059878, -0.062777, 0.021401,
    0.080662, 0.010821, 0.002886, -0.113052, -0.049981, -0.141104, 0.001974, -0.137642, -0.093260,
    0.258129, 0.309154, 0.012091, 0.309649, 0.161401, 0.138991, 0.390799, -0.529858, -0.235012,
    -0.135417, -0.103615, -0.119010, -0.109569, -0.307872, -0.144938, -0.155120, -0.496715, -0.051877,
    -0.241766, -0.013148, 0.051968, -0.278831, -0.144537, 0.086212, -0.135225, 0.038677, 0.174839,
    -0.191898, -0.119410, 0.016822, 0.115868, 0.063859, 0.075393, -0.146245, 0.040208, -0.057548,
    -0.150360, -0.330663, 0.082170, -0.032414, 0.120482, -0.355875, -0.134880, 0.102187, -0.411290,
    -0.097286, 0.038760, -0.177799, 0.026238, -0.096131, 0.001292, 0.295094, -0.296970, 0.162527,
    -0.377850, -0.355716, -0.045127, 0.116121, -0.200126, 0.209971, -0.055123, 0.061602, 0.213619,
    0.146772, 0.035040, -0.041310, 0.007534, 0.615314, -0.162279, 0.024293, 0.264408, -0.212192,
    -0.211463, 0.061031, 0.126384, -0.314654, 0.113341, 0.221190, 0.131671, 0.238453, 0.222898,
    0.203466, 0.159010, 0.153162, -0.109706, 0.166079, 0.113684, -0.192766, -0.319168, -0.162406,
    0.329990, -0.211141, -0.239383, 0.419540, 0.186507, -0.037809, 0.273284, 0.024457, -0.257997,
    -0.137602, -0.140988, -0.001953, 0.108121, -0.279175, -0.085415, 0.357748, 0.103198, -0.002456,
    0.299549, -0.228735, -0.023036, 0.083568, 0.056048, -0.151825, 0.053605, -0.241378, -0.332692,
    0.128330, -0.050917, 0.080957, -0.068260, -0.084245, -0.092210, -0.233966, 0.107612, -0.045659,
    0.082259, 0.023040, 0.029262, 0.010577, -0.058569, 0.028324, -0.350445, -0.177505, -0.254247,
    -0.271662, 0.047557, -0.063397, 0.068774, 0.035166, 0.058518, 0.161189, 0.222723, 0.213505,
    0.069487, 0.011006, -0.242751, 0.120418, -0.035629, -0.184416, -0.066569, -0.116802, -0.139075,
    -0.083480, -0.072446, 0.023767, -0.049288, -0.012722, 0.111621, -0.017952, -0.034373, -0.242853,
    -0.206539, -0.073201, 0.066030, -0.203910, -0.306781, 0.058434, -0.028599, 0.208602, 0.079179,
    -0.015231, 0.314552, 0.200963, -0.356001, -0.591802, -0.131957, 0.067023, 0.190620, 0.103439,
    0.010257, -0.153371, 0.202725, -0.170222, -0.227752, -0.232341, 0.012178, -0.360506, -0.229321,
    -0.007017, -0.159836, -0.181272, -0.004421, -0.136606, -0.060029, 0.153679, -0.036956, 0.003828,
    0.001718, -0.085497, 0.021139, 0.019164, -0.171873, -0.057365, 0.057107, 0.102788, 0.182348,
    0.156961, 0.127265, 0.016891, 0.019325, -0.451355, -0.387895, 0.048338, -0.032516, -0.003154,
    -0.134822, -0.002272, 0.301094, -0.252439, -0.121593, 0.219251, -0.227336, -0.068059, 0.033380,
    0.079245, 0.053074, 0.075096, -0.080060, -0.062014, -0.087606, -0.098948, -0.106810, 0.112319,
    0.011393, -0.320771, -0.238488, 0.049135, -0.287289, -0.099707, 0.100923, -0.207585, -0.193752,
    -0.161949, -0.250530, -0.299004, -0.087007, -0.169528, -0.176192, 0.064266, 0.098739, -0.022732,
    0.253756, 0.138877, 0.114596, -0.008960, -0.117627, -0.036025, -0.206794, -0.333492, -0.183776,
    0.194694, 0.212725, 0.036410, 0.207279, 0.233184, 0.174208, 0.113807, 0.166746, -0.049610,
    0.100082, 0.181491, 0.192478, 0.084951, 0.074131, -0.086426, -0.265914, -0.162609, -0.058822,
    -0.210500, -0.179725, -0.123253, -0.138505, 0.032584, -0.092927, -0.000807, 0.069562, -0.002632,
    -0.143513, -0.492129, -0.000929, -0.160878, -0.661341, -0.400803, 0.323414, -0.106359, -0.004809,
    0.158867, 0.067050, 0.145318, 0.019042, 0.145252, -0.046592, -0.212627, -0.271915, -0.370339,
    0.229373, 0.098566, -0.037198, -0.056264, 0.035713, 0.013002, 0.269007, 0.139658, -0.143262,
    0.093182, -0.132079, 0.024711, 0.112375, -0.134654, -0.023134, -0.042876, 0.077249, -0.035293,
    -0.148879, -0.104322, -0.379840, -0.218976, -0.268280, -0.308761, -0.228948, -0.026110, -0.012296,
    -0.044160, -0.079759, -0.154209, -0.128610, -0.346437, -0.345199, 0.203633, 0.181815, 0.039775,
    0.196034, 0.118843, 0.122775, 0.421728, 0.222842, 0.228600, 0.163400, 0.191586, 0.366979,
    -0.076206, -0.337927, -0.288091, -0.173476, -0.234146, -0.197693, -0.069157, 0.032859, -0.108057,
    0.262206, 0.326896, 0.129860, -0.070444, -0.041132, 0.134498, -0.183177, -0.410989, -0.171249,
    0.029032, -0.004793, 0.033230, -0.026181, 0.161897, 0.140774, -0.125568, -0.115151, -0.023792,
    0.129951, 0.255321, 0.166921, -0.124154, -0.252788, -0.412790, 0.198714, -0.007036, -0.008325,
    -0.089165, -0.001680, 0.106749, 0.054381, -0.099891, -0.154941, 0.252924, 0.153548, 0.117188,
    0.171325, 0.152113, 0.054576, 0.155939, 0.098698, 0.008034, 0.191819, -0.064211, -0.083436,
    -0.101007, -0.153197, -0.101911, 0.015398, -0.072403, -0.127875, -0.266081, -0.157663, -0.096535,
    -0.164959, -0.260134, -0.194885, 0.114678, 0.223438, 0.169476, -0.358100, -0.496737, -0.185653,
    0.106119, 0.103157, 0.157015, 0.193181, 0.052273, 0.117555, 0.230661, 0.369852, 0.216131,
    0.135699, -0.067954, 0.029428, 0.032128, -0.217536, 0.112012, -0.076165, -0.325625, 0.080196,
    -0.025016, 0.225215, -0.153153, -0.148804, 0.426440, -0.204466, -0.431101, 0.369952, -0.241976,
    -0.149379, 0.075685, -0.262841, -0.205928, 0.329087, 0.091290, -0.430484, 0.568650, 0.039718,
    -0.381168, -0.132734, -0.261264, -0.221141, -0.036162, -0.187063, -0.323689, 0.148846, -0.230913,
    0.061701, 0.125552, 0.059389, -0.089001, 0.079646, 0.018159, -0.025790, -0.123267, -0.068272,
    0.173513, 0.117505, 0.087112, 0.022707, 0.068566, 0.049414, -0.380564, -0.082296, 0.142992,
    -0.150147, -0.177006, 0.237341, -0.034617, 0.021266, 0.076765, 0.011054, -0.047121, 0.133677,
    -0.067486, -0.101610, 0.043122, -0.205146, -0.065386, 0.030990, -0.207924, 0.026003, 0.203575,
    -0.107609, 0.004606, -0.041274, -0.027137, 0.180934, 0.048910, 0.000871, 0.368661, 0.223755,
    0.034524, 0.018000, -0.076667, -0.013828, 0.000930, -0.000787, -0.035286, 0.240742, -0.069609,
    0.090293, 0.264112, 0.068909, 0.011552, 0.014640, 0.193061, -0.138058, -0.137748, -0.043013,
    0.031385, -0.061720, -0.163490, 0.288955, 0.064880, -0.034201, -0.060863, -0.120048, 0.041447,
    0.039631, 0.268493, -0.044258, -0.322271, -0.033333, -0.049948, -0.197241, 0.015429, 0.132597,
    0.117757, -0.273502, -0.009032, -0.000933, -0.244226, -0.201892, 0.144223, -0.037798, -0.234819,
    0.249808, 0.221702, 0.001121, 0.112863, 0.214638, 0.075160, 0.138699, 0.090577, -0.019198,
    -0.131764, -0.088962, -0.223537, 0.079804, 0.065690, -0.192854, 0.119977, 0.220096, 0.122717,
    -0.124709, -0.007499, -0.026246, -0.167590, 0.097647, 0.100826, -0.208727, 0.061287, -0.031246,
    0.174591, 0.214498, 0.090429, -0.008897, -0.281420, 0.046416, 0.011314, -0.083650, -0.115327,
    0.302723, -0.034618, -0.037540, 0.211597, 0.295412, 0.138657, 0.288196, -0.040843, -0.214938,
    -0.260257, -0.459172, -0.349228, -0.325934, -0.609348, -0.510008, -0.537416, -0.573219, -0.391512,
    -0.283684, 0.091763, -0.113835, -0.024056, 0.254002, -0.208733, -0.445165, 0.136407, 0.169111,
    -0.084246, 0.160369, 0.147915, 0.105915, 0.059710, -0.009552, 0.111033, 0.532134, 0.036015,
    0.093554, 0.103464, 0.069811, 0.051485, -0.185284, 0.163015, -0.166354, -0.114709, 0.058603,
    -0.126578, -0.172593, 0.018857, -0.172748, -0.367653, -0.280462, -0.168133, -0.272659, -0.219055,
    0.333521, 0.147714, 0.148039, 0.114384, 0.324009, 0.259069, 0.166117, 0.035870, 0.083753,
    -0.054363, -0.280872, 0.116474, -0.044158, 0.300797, -0.160647, -0.225149, -0.217760, -0.409119,
    0.012680, -0.185993, 0.024224, 0.262616, 0.504278, 0.170060, 0.255225, -0.319384, 0.299333,
    -0.189286, 0.081968, -0.089681, -0.119047, 0.060845, 0.052008, -0.068534, -0.006294, -0.228918,
    0.053569, -0.258580, 0.066498, 0.085255, 0.030159, -0.124608, -0.112941, -0.265209, 0.040344,
    -0.101589, -0.061943, -0.073230, -0.276002, -0.148657, 0.164846, -0.016215, -0.057316, -0.268293,
    -0.111946, -0.132786, 0.147739, -0.093698, -0.104709, -0.178621, -0.328671, -0.248568, -0.123107,
    0.005814, 0.023615, -0.217298, -0.191670, -0.179351, 0.002450, 0.124237, 0.385555, 0.091930,
};
static float conv3_bias[32] = {
    0.140390, 0.217309, -0.900693, 0.490037, -1.156936, -0.226855, 0.764397, -1.130924, 1.202736, 1.501718, -0.329073, -0.902172, 0.944279, 0.731965, 0.267221, 0.371497, 0.198992, 0.667037, 0.065943, -0.344579, 0.107010, -0.289129, -0.213842, -1.123658, -0.196831, -0.677502, 0.335240, -0.262071, 1.106577, 0.165700, -0.772101, 0.501754,
};
static float conv4_weights[32 * 64 * 9] = {
    -0.094364, -0.119491, -0.058147, 0.132645, 0.031039, 0.027399, 0.068906, 0.005021, 0.100990,
        -0.021121, -0.048284, -0.072302, 0.055738, 0.067207, 0.000705, 0.009854, 0.005167, 0.066509,
        -0.000331, 0.010730, -0.090296, -0.014666, -0.004010, -0.003843, -0.011655, 0.020585, -0.024259,
        0.090564, -0.093063, -0.141086, -0.139767, -0.240788, -0.142173, 0.004280, 0.001946, 0.008405,
        -0.054551, 0.041401, 0.168819, 0.011610, -0.049651, 0.135662, -0.051917, -0.138236, -0.041991,
        -0.110265, -0.002261, 0.116441, -0.021873, -0.110637, 0.064483, 0.029042, -0.066880, -0.007250,
        -0.059764, -0.213687, -0.171585, 0.079199, 0.031150, 0.012735, 0.102636, 0.056888, 0.009256,
        -0.049729, -0.027651, 0.005021, 0.003014, -0.002562, -0.019012, -0.014788, -0.057411, -0.062277,
        -0.226859, -0.140777, -0.102205, 0.070024, 0.049054, -0.014420, 0.022167, -0.048411, -0.102059,
        0.054098, 0.063265, -0.017546, 0.040756, 0.184816, -0.007260, 0.084405, 0.052581, -0.030081,
        -0.012623, -0.074799, -0.096432, 0.022707, 0.078702, 0.045793, 0.172999, 0.050646, 0.086410,
        -0.098493, -0.128399, -0.015392, 0.009643, 0.015092, 0.072437, -0.007340, -0.014260, -0.045407,
        0.029471, 0.046995, 0.079475, -0.053599, -0.084505, 0.026045, -0.085199, -0.035136, 0.028720,
        0.026447, -0.070103, -0.078732, -0.077778, -0.103345, -0.073266, -0.062752, -0.083763, -0.080183,
        -0.044615, -0.021859, -0.081375, -0.026182, -0.078992, -0.064336, -0.089181, -0.045577, -0.088053,
        0.014672, 0.020314, -0.028919, 0.011849, 0.024467, 0.071388, 0.072976, 0.104175, 0.107624,
        -0.088752, -0.242011, -0.052260, 0.018371, 0.038932, 0.003066, 0.036527, 0.004202, 0.041422,
        -0.164837, 0.012254, -0.113154, -0.169674, -0.194693, -0.112464, -0.006963, 0.084205, 0.041265,
        -0.030449, 0.020265, -0.016261, 0.091285, 0.030006, 0.029107, -0.000514, -0.091015, 0.033397,
        0.000761, -0.143110, -0.049184, 0.042064, 0.036550, -0.013285, -0.008953, 0.059556, -0.002785,
        -0.044537, -0.102250, -0.045591, 0.129398, -0.094474, -0.038606, -0.041223, 0.017375, 0.061064,
        -0.090579, -0.196967, -0.085996, 0.015662, -0.079047, -0.005371, -0.006650, -0.013029, -0.021423,
        0.003964, -0.019885, -0.005301, 0.077879, -0.006248, -0.022700, 0.092435, 0.054492, -0.046349,
        0.011940, -0.010703, 0.033533, 0.076424, -0.029436, 0.125002, -0.028714, -0.060084, 0.050264,
        -0.040828, -0.046264, 0.001019, 0.123417, -0.016063, -0.018962, 0.105357, 0.023646, 0.031866,
        0.153478, 0.129540, 0.118711, 0.038656, -0.037394, 0.055083, 0.115555, 0.074133, 0.127677,
        -0.061417, -0.041646, 0.066393, -0.027802, -0.004966, 0.034848, 0.017750, -0.022268, 0.063342,
        -0.013818, 0.051560, -0.089484, 0.023763, 0.095498, -0.038701, 0.029313, -0.052278, 0.014214,
        0.109897, 0.095574, -0.082711, 0.020838, 0.045508, -0.070657, -0.069738, -0.033718, -0.114939,
        -0.055532, -0.043343, -0.127451, -0.075220, -0.031320, -0.081357, 0.011902, 0.095083, -0.006967,
        -0.003278, 0.028224, 0.048600, 0.012512, 0.093152, -0.008611, 0.016238, 0.036756, 0.031316,
        -0.030322, 0.015311, 0.023577, -0.112190, -0.087842, -0.031426, 0.051609, 0.015148, 0.004148,
        0.154694, 0.135411, -0.063068, 0.039459, 0.026456, -0.126515, -0.120651, -0.155319, -0.254621,
        0.159399, 0.025393, -0.001363, 0.022757, -0.028551, -0.091274, -0.056030, 0.045424, -0.088796,
        0.043907, -0.046567, -0.004723, 0.020440, -0.099585, -0.119187, 0.042159, -0.030885, 0.013433,
        -0.100438, -0.127445, -0.262594, -0.062799, -0.029607, -0.090734, -0.044169, 0.062230, -0.021124,
        -0.021620, -0.059456, -0.074120, -0.119898, -0.029885, 0.037950, -0.062330, 0.029517, 0.068802,
        0.141013, 0.170477, -0.031573, 0.128440, 0.075421, -0.137787, -0.062106, 0.084255, -0.112588,
        0.141664, 0.003697, 0.100423, 0.050099, -0.091926, -0.021363, -0.049833, -0.081771, -0.152128,
        0.021534, -0.057537, -0.068074, -0.019023, -0.062188, 0.044738, -0.051078, -0.000433, 0.090738,
        -0.026366, 0.014249, -0.016255, -0.002975, 0.011228, 0.035926, -0.018965, 0.158809, 0.003338,
        0.013806, 0.043103, -0.050663, 0.068350, -0.110428, 0.078400, 0.073169, 0.048391, 0.156439,
        -0.055767, 0.018306, 0.038921, -0.077552, -0.005445, 0.154317, -0.033230, 0.124103, 0.135395,
        0.010636, 0.008888, -0.001219, 0.027049, 0.074907, -0.030578, 0.057415, 0.077167, 0.032383,
        0.008227, 0.058985, 0.077072, 0.099980, 0.075567, 0.090659, 0.080877, 0.084933, 0.049734,
        0.061199, -0.019877, 0.064739, 0.080748, -0.043948, -0.050776, 0.002234, -0.159840, -0.126486,
        0.192130, 0.053168, -0.032108, 0.018834, 0.033281, 0.026118, 0.058697, 0.039005, 0.078080,
        -0.084296, 0.036025, 0.070883, 0.080283, 0.046876, -0.071427, 0.036334, 0.059081, -0.047398,
        0.069218, 0.007307, 0.037930, 0.125474, 0.117538, 0.095770, -0.011822, 0.012285, 0.047101,
        -0.020826, -0.114465, 0.033050, 0.019095, 0.041143, 0.019742, -0.077242, 0.001354, 0.013791,
        -0.130852, -0.049336, 0.013988, -0.130872, -0.012997, 0.086872, -0.138728, -0.063919, 0.093693,
        0.105518, 0.097279, -0.015457, 0.082863, -0.097214, -0.089726, -0.003283, -0.031007, -0.146901,
        -0.031039, -0.063614, 0.088464, -0.055382, -0.076667, 0.153451, -0.130391, -0.153032, 0.138510,
        0.076343, -0.054884, 0.085106, -0.108391, -0.015979, -0.028538, 0.035166, -0.149001, -0.194547,
        -0.077203, -0.034715, -0.033834, -0.001887, -0.003037, -0.001494, 0.020260, 0.126180, 0.067561,
        -0.135377, -0.102878, -0.036875, -0.095046, -0.119291, 0.017661, -0.121582, -0.054487, 0.116592,
        -0.063038, -0.046797, 0.053714, -0.069543, 0.013128, 0.132208, -0.004368, 0.106637, 0.111943,
        0.066649, 0.096801, 0.151209, -0.067153, -0.012261, -0.008893, -0.033446, -0.041868, 0.047549,
        0.125600, 0.049424, 0.083444, 0.065753, -0.054009, 0.004828, 0.034971, -0.137212, -0.022586,
        0.033929, -0.037229, -0.116736, -0.013333, -0.028272, 0.109062, -0.045695, 0.030742, 0.078489,
        0.058549, -0.089965, -0.025291, 0.020261, -0.097693, -0.074706, 0.064445, 0.023370, -0.066733,
        -0.125303, 0.022941, -0.050785, -0.102230, -0.109321, -0.037991, -0.109688, -0.015279, -0.054633,
        -0.004574, -0.052036, -0.102957, -0.081177, -0.019718, 0.034656, -0.081452, -0.046430, 0.134614,
        -0.052076, 0.021254, 0.003616, -0.002668, 0.038749, 0.037770, 0.068741, 0.063008, 0.118744,
        0.014079, -0.002228, -0.025713, -0.023975, -0.022539, -0.005648, 0.066422, 0.113437, 0.008747,
        0.039808, -0.029931, -0.140220, -0.043050, -0.075355, -0.172743, -0.068812, 0.021380, -0.021651,
        -0.045674, 0.049277, 0.026412, -0.245317, -0.279326, -0.164379, 0.094709, 0.107748, 0.015615,
        -0.098720, -0.161143, 0.039783, 0.125738, 0.155445, 0.158222, 0.255889, 0.266129, 0.210418,
        -0.033771, -0.053116, -0.005324, -0.027628, 0.015145, -0.068441, -0.013974, 0.108951, -0.137129,
        0.080160, 0.072311, -0.128470, -0.121849, 0.030039, 0.069458, -0.091650, -0.014001, 0.003217,
        -0.168171, -0.076365, -0.004187, 0.013174, -0.044373, 0.026793, 0.200427, 0.120250, 0.125981,
        -0.008817, 0.031489, 0.044993, 0.000565, 0.096358, -0.059996, -0.140850, 0.072401, -0.176788,
        -0.211563, -0.124884, -0.085740, -0.010153, -0.062177, -0.121907, 0.074125, 0.095393, 0.048626,
        -0.017577, 0.092618, 0.042844, 0.077041, 0.060925, -0.044713, -0.043618, 0.063016, -0.062288,
        0.046734, 0.076470, -0.054492, -0.219122, -0.238505, -0.168108, -0.250226, -0.121185, -0.072052,
        0.139898, 0.188047, -0.044603, 0.050752, 0.142639, -0.019560, -0.110708, -0.074629, -0.111068,
        -0.055474, -0.027922, 0.016888, -0.073954, -0.034932, -0.082885, -0.082794, -0.091415, -0.034010,
        -0.112385, -0.066464, -0.001317, 0.009921, -0.094012, 0.069542, 0.132770, 0.041178, 0.084737,
        0.050136, -0.108009, 0.010046, 0.071426, 0.017971, 0.097640, 0.012922, 0.029121, 0.077336,
        -0.064771, -0.075701, -0.052417, -0.030232, 0.053631, -0.082364, -0.045901, -0.019854, 0.090014,
        0.144196, -0.049396, -0.012865, 0.234060, -0.049012, 0.176813, 0.095727, -0.043483, 0.019005,
        0.136594, 0.115433, 0.054886, 0.084770, 0.072024, 0.019181, -0.052190, -0.138955, -0.041749,
        -0.037015, 0.079856, 0.045285, 0.099419, 0.006470, 0.016517, 0.108949, -0.021829, -0.054625,
        -0.019134, -0.000928, 0.010945, -0.040982, 0.032597, -0.134628, 0.066532, 0.012067, 0.001924,
        -0.093264, 0.128099, 0.197483, -0.076196, 0.098890, 0.056717, -0.011867, -0.017105, -0.159545,
        -0.046734, 0.047231, 0.045592, -0.002570, -0.078849, -0.013854, -0.104542, 0.042926, -0.015054,
        -0.077072, -0.145973, -0.043468, -0.126213, 0.051226, -0.086748, -0.210037, -0.054166, -0.246917,
        -0.090020, -0.091197, 0.064260, -0.096710, -0.099627, 0.022237, 0.069900, -0.074377, 0.034732,
        -0.115903, -0.006955, 0.007681, 0.042735, -0.056977, -0.187677, 0.113619, 0.005108, -0.384646,
        0.029404, 0.276510, 0.020813, -0.024954, 0.070887, 0.005473, 0.037211, -0.006814, -0.011054,
        0.043028, 0.043031, 0.082572, 0.006185, -0.137962, 0.067201, -0.002172, -0.216887, 0.047951,
        0.053032, 0.092432, 0.072772, -0.036113, 0.036464, -0.114466, -0.091689, -0.058172, -0.133594,
        -0.108321, 0.003321, 0.039104, 0.035394, 0.102692, 0.017018, 0.054339, 0.073489, -0.154967,
        0.025261, -0.079083, -0.011207, -0.056588, -0.139411, -0.090615, -0.123977, -0.344294, -0.090480,
        -0.064465, 0.179909, -0.012240, -0.102521, 0.017717, 0.071784, -0.190995, -0.091679, -0.044156,
        -0.001214, -0.034801, -0.012683, -0.083392, -0.053080, -0.185269, -0.179954, -0.107634, -0.146923,
        -0.057835, -0.071675, -0.032333, 0.023044, 0.001887, 0.023923, -0.027366, 0.056670, -0.043445,
        -0.141944, -0.097840, -0.007528, 0.059833, -0.038220, -0.014776, 0.047040, -0.028026, -0.047134,
        0.089913, -0.022379, 0.038436, -0.120271, -0.115122, -0.121208, 0.078798, -0.002582, -0.003007,
        0.043704, 0.000466, 0.056423, 0.032803, 0.000637, 0.018717, 0.054851, -0.101254, -0.132318,
        -0.048784, -0.015794, -0.013299, -0.100439, -0.011029, 0.112228, -0.107363, 0.007436, 0.045194,
        -0.036333, -0.075436, -0.070196, -0.022804, -0.043991, 0.044485, 0.029693, 0.010174, 0.091387,
        0.083497, -0.015682, 0.080240, 0.028349, 0.088706, 0.080766, 0.000178, 0.076208, 0.071768,
        -0.085199, -0.122765, -0.006561, -0.061355, -0.135776, -0.109638, -0.010077, -0.070787, -0.032541,
        -0.042768, -0.021720, -0.114545, -0.065713, 0.046497, 0.006663, -0.019814, -0.077094, -0.066779,
        -0.000495, 0.005593, 0.116084, -0.011334, -0.045059, 0.098063, 0.054465, 0.014797, 0.027738,
        -0.041246, -0.057780, -0.013521, 0.030303, -0.062578, -0.065466, -0.029693, -0.140735, -0.096488,
        0.054302, -0.039290, -0.087257, -0.093652, -0.094451, -0.033660, -0.019451, 0.037276, 0.029082,
        -0.061371, 0.094406, 0.017450, -0.088852, 0.112292, -0.068373, -0.101161, -0.134999, -0.057989,
        0.034277, -0.044908, 0.035895, 0.072003, 0.055624, 0.024964, -0.001428, 0.044724, 0.082152,
        -0.165407, 0.106568, -0.061855, -0.009909, -0.153747, -0.023058, 0.030593, 0.086388, 0.101590,
        0.103392, 0.149164, 0.161524, 0.050253, 0.029577, 0.043349, -0.004631, 0.059657, 0.124578,
        -0.031302, 0.161161, -0.063488, 0.074876, 0.088244, -0.009148, 0.082484, -0.053888, 0.044221,
        -0.077031, 0.083189, 0.011489, 0.044749, 0.048389, 0.030819, 0.103524, 0.181106, 0.086778,
        -0.080807, 0.025701, 0.017350, -0.106140, -0.201524, -0.147108, -0.126124, 0.010874, -0.034054,
        0.023391, -0.011123, -0.066582, -0.036972, -0.020190, -0.052226, 0.085441, 0.074141, 0.073017,
        -0.091341, -0.054519, 0.068076, 0.053900, -0.104661, -0.030446, -0.074158, -0.024923, -0.033169,
        -0.042792, 0.009155, -0.049480, -0.064960, -0.060342, -0.137860, -0.030299, -0.035040, -0.048038,
        0.011461, -0.115972, -0.086992, -0.006051, -0.184098, 0.025545, 0.038605, -0.052007, 0.005337,
        -0.052111, -0.015268, -0.163691, -0.012637, 0.013407, -0.053341, -0.033294, -0.022885, -0.028102,
        -0.023720, -0.097125, 0.030390, -0.104362, -0.065338, 0.028279, -0.019267, -0.072822, 0.010770,
        -0.080600, -0.148892, 0.023576, -0.024567, 0.109401, 0.009257, 0.053310, 0.116926, -0.053911,
        -0.041370, -0.035479, 0.056055, -0.023589, -0.020111, 0.061953, 0.059879, 0.126252, 0.026142,
        -0.015246, -0.188238, -0.112215, -0.027727, -0.099138, 0.070708, 0.015648, 0.067772, 0.176190,
        0.005358, 0.022584, 0.010984, 0.051597, -0.048058, 0.042791, -0.000542, -0.005045, 0.095636,
        -0.001360, -0.095335, 0.005980, 0.060259, -0.008645, 0.061595, 0.011121, 0.082112, 0.026699,
        0.024655, -0.184364, -0.163657, -0.014226, -0.093224, -0.082573, -0.038261, -0.055357, -0.069153,
        0.019162, -0.115422, -0.017947, 0.076548, 0.000664, 0.024622, 0.029500, 0.012580, 0.057357,
        0.058630, 0.046647, -0.009825, -0.004996, 0.043298, 0.020545, -0.205360, -0.040463, -0.024938,
        0.057281, 0.054899, -0.060831, 0.037163, -0.084655, -0.084584, 0.091030, -0.192252, -0.007063,
        -0.102559, -0.151094, -0.002808, -0.156420, -0.136432, -0.121064, -0.072091, -0.114169, -0.079149,
        0.056229, 0.027483, 0.111046, -0.047967, -0.086461, 0.053532, -0.133354, -0.137618, 0.010306,
        0.010771, 0.021059, 0.028104, -0.112949, -0.005669, 0.009965, -0.202652, -0.039186, -0.021111,
        0.036185, -0.051527, 0.081078, 0.046220, 0.030792, 0.020413, 0.084124, -0.023920, -0.014456,
        -0.017578, -0.018645, 0.025891, 0.023319, 0.103917, 0.033794, 0.008846, 0.021854, 0.005743,
        0.034725, 0.022392, 0.068361, 0.033456, 0.010152, 0.063639, 0.082956, 0.137712, 0.096487,
        0.103579, 0.023961, -0.003131, 0.049400, -0.018114, -0.050552, -0.137056, -0.203296, -0.131898,
        0.015711, -0.083631, -0.016297, -0.162257, -0.117455, 0.017638, -0.088553, -0.040958, 0.066687,
        0.052512, -0.080823, 0.018784, -0.025520, 0.055303, -0.055844, 0.047435, 0.005730, -0.011560,
        0.028235, -0.058087, 0.017086, 0.008922, 0.015219, -0.063115, 0.088923, 0.036842, 0.018223,
        0.024983, 0.057368, 0.014238, -0.034725, -0.069220, 0.000466, -0.013431, -0.064210, -0.030205,
        -0.083851, -0.091180, -0.049687, -0.134816, 0.019120, -0.025701, -0.079183, -0.042831, -0.055085,
        -0.020596, 0.050307, -0.001802, -0.013445, -0.069628, 0.081312, -0.089017, -0.164469, 0.057622,
        -0.045921, -0.028987, -0.117105, -0.092087, -0.139205, -0.078981, -0.045709, -0.172159, -0.203073,
        -0.003255, 0.030742, -0.002818, 0.026929, -0.035378, -0.029979, 0.032006, 0.011005, 0.006614,
        -0.005487, -0.073348, 0.084523, 0.036747, -0.005740, 0.008174, 0.034553, -0.080545, -0.025118,
        0.073548, -0.050888, -0.009954, 0.018933, 0.064532, -0.088415, -0.008849, 0.056013, -0.036018,
        0.022250, 0.007567, 0.037722, 0.016765, 0.023944, 0.032774, 0.043730, 0.088759, 0.030345,
        0.032498, -0.023175, -0.031179, -0.102283, -0.024488, -0.054360, 0.055371, -0.131793, 0.019580,
        0.120633, 0.068452, -0.082264, 0.067078, 0.007094, -0.069762, -0.013944, 0.052389, -0.128104,
        -0.035467, 0.086325, -0.021313, -0.004672, -0.026175, -0.040298, -0.058177, -0.047869, -0.024404,
        -0.087140, -0.089963, -0.062452, -0.059454, -0.135556, -0.134910, 0.005330, -0.043046, -0.034625,
        0.096104, 0.065310, -0.021279, 0.091553, 0.108151, 0.041537, -0.028301, 0.020164, 0.026694,
        -0.047600, -0.164743, -0.004879, -0.098051, -0.121438, -0.130712, -0.037008, 0.043655, -0.069030,
        0.082088, -0.003787, -0.005888, -0.107038, -0.034476, -0.075503, -0.017201, 0.091320, 0.003171,
        -0.079463, -0.135874, -0.077148, -0.074496, -0.153459, 0.009950, -0.214374, -0.260106, -0.038344,
        -0.010852, -0.088778, 0.029931, 0.057126, -0.126193, -0.050384, 0.052074, -0.176596, -0.042405,
        -0.106458, -0.081731, -0.054569, -0.087450, -0.036371, -0.033507, -0.066668, -0.081456, 0.008085,
        0.046435, -0.084035, -0.019501, 0.136581, -0.041149, -0.110882, 0.103310, 0.020800, -0.052302,
        0.028396, 0.031821, 0.049285, -0.020241, 0.001280, 0.006362, 0.098963, 0.127609, 0.061876,
        0.071444, 0.141772, 0.056505, -0.093495, -0.072719, -0.130391, -0.149336, -0.175053, -0.236752,
        0.075421, 0.067918, 0.109566, 0.045351, -0.001091, -0.042775, -0.026196, -0.034080, -0.004993,
        -0.063957, -0.128107, -0.188864, -0.116590, -0.085262, -0.110367, 0.065671, 0.045042, 0.038569,
        -0.032949, -0.024596, 0.027392, -0.021765, -0.021638, 0.036551, 0.100822, 0.106626, 0.138453,
        0.034069, 0.013333, 0.030119, -0.015074, -0.086363, -0.117613, -0.006924, -0.027860, 0.006549,
        0.097351, 0.059586, -0.023391, 0.023401, 0.011998, -0.042397, -0.139479, -0.059384, -0.026258,
        0.144593, 0.135398, 0.098035, -0.026388, -0.061478, -0.027719, -0.056224, -0.127806, -0.072306,
        0.001054, -0.033704, 0.041225, -0.033326, -0.027351, -0.007373, -0.005612, -0.008490, -0.011816,
        0.040739, 0.039673, 0.062951, -0.018916, 0.000428, 0.031037, 0.112970, 0.063454, 0.079702,
        0.017815, -0.090006, -0.057568, 0.072458, 0.024869, -0.012283, 0.026028, 0.052147, 0.046061,
        0.005040, -0.013524, 0.043704, 0.004854, 0.006573, 0.018235, -0.010445, -0.017054, -0.015028,
        -0.120125, -0.174250, -0.133322, -0.128522, -0.085803, -0.046878, -0.069531, -0.061336, -0.037810,
        -0.013877, -0.009585, -0.058549, 0.036051, 0.035744, 0.069640, 0.035464, 0.059290, 0.080409,
        0.035046, 0.048969, 0.017511, 0.005116, -0.026546, -0.010935, -0.130973, -0.180912, -0.142306,
        -0.005767, -0.077160, -0.081000, 0.070462, -0.006530, 0.048458, 0.023021, 0.039388, 0.081844,
        -0.066370, -0.045067, -0.066380, -0.039935, -0.011664, -0.025118, 0.007244, -0.023490, 0.014346,
        0.036015, -0.019374, -0.077513, 0.048302, 0.019920, 0.030350, 0.065656, -0.001834, 0.046344,
        0.106178, 0.038111, 0.066402, 0.044528, 0.022239, 0.057780, 0.088690, 0.065584, 0.091135,
        -0.089958, -0.032708, -0.013569, -0.035977, 0.033961, 0.019856, -0.030000, -0.033658, -0.124681,
        0.031571, -0.070726, -0.042581, -0.035240, -0.008003, -0.090894, -0.170006, -0.163471, -0.120620,
        -0.053010, -0.096400, -0.116801, -0.007456, 0.035040, 0.085009, 0.051289, 0.054921, -0.040860,
        0.033674, 0.047368, 0.032755, -0.076255, -0.067800, -0.084706, -0.209097, -0.275129, -0.223563,
        -0.001178, 0.092535, 0.063461, 0.042056, 0.036706, 0.088974, -0.006890, -0.017411, 0.007595,
        -0.057727, -0.027743, -0.010974, 0.045004, 0.013413, -0.005693, -0.014132, -0.028907, 0.061393,
        0.029200, 0.079872, 0.054879, -0.117781, 0.041801, -0.072645, 0.001649, -0.061348, -0.205689,
        -0.005514, 0.041103, 0.029845, -0.053865, 0.012805, -0.022845, 0.016977, 0.013790, -0.025085,
        0.025953, 0.156440, 0.115137, 0.043976, 0.036540, 0.060132, -0.014638, 0.018091, 0.014847,
        -0.002446, -0.003726, 0.022639, -0.064360, -0.029972, -0.086881, 0.060583, 0.026329, 0.043436,
        0.036596, -0.033175, -0.053239, -0.070241, -0.039569, -0.037745, 0.005446, 0.020969, -0.012231,
        -0.121466, -0.043438, -0.152007, -0.101446, -0.166183, -0.114835, 0.057801, 0.040513, 0.124543,
        -0.083097, -0.027662, -0.002960, 0.044448, 0.054877, -0.007515, 0.045609, 0.014153, -0.013478,
        -0.107557, -0.130245, -0.085005, -0.058005, -0.041527, -0.087918, 0.010900, 0.016377, -0.010189,
        -0.033490, -0.024384, -0.092195, 0.051058, -0.010169, 0.051698, 0.033014, -0.012188, 0.053114,
        -0.070828, 0.062923, -0.031329, 0.048261, 0.053203, 0.067542, -0.070449, -0.073988, 0.014703,
        0.152060, 0.098351, 0.031950, -0.199540, -0.099383, -0.115545, 0.166396, 0.157977, 0.092154,
        -0.102680, -0.188300, -0.134105, -0.371045, -0.585992, -0.267903, -0.059281, -0.118030, -0.026060,
        0.353355, 0.246649, 0.215212, 0.089154, 0.169934, 0.041557, 0.099642, 0.174554, 0.108521,
        -0.091826, 0.001997, -0.046890, -0.100466, -0.000524, -0.040882, -0.119274, -0.045429, -0.014288,
        -0.022301, -0.015529, -0.036209, -0.209526, -0.349958, -0.057648, 0.072423, 0.036293, 0.012837,
        -0.090602, -0.178449, -0.116911, -0.046729, -0.002921, -0.122209, -0.131018, -0.130539, -0.131078,
        -0.075932, -0.003352, -0.002967, -0.010504, 0.041902, 0.044940, -0.044382, -0.054466, 0.033522,
        -0.065705, -0.108753, -0.081362, -0.070798, -0.098743, 0.025947, -0.070290, -0.109790, -0.016637,
        -0.061959, -0.145451, -0.198024, -0.163203, -0.238534, -0.155040, 0.042013, -0.124824, -0.197566,
        -0.018661, -0.081806, -0.061373, -0.141438, -0.181918, -0.060279, -0.076677, -0.025612, -0.048120,
        0.123662, 0.073879, 0.115602, 0.148340, 0.208040, 0.171612, -0.014253, 0.144552, 0.097784,
        0.022671, 0.016503, 0.087571, 0.073983, -0.049430, 0.006353, -0.063645, -0.092616, -0.047034,
        0.068543, -0.014767, 0.039075, 0.016190, 0.026975, 0.054013, 0.062530, 0.065889, 0.041436,
        -0.021005, 0.061009, 0.030673, 0.069258, -0.110057, 0.036349, 0.121349, 0.074625, 0.143978,
        0.038167, -0.041609, -0.066040, 0.022094, -0.106687, -0.019842, -0.032820, -0.010842, -0.019802,
        -0.069514, -0.147239, -0.098102, 0.078037, -0.198092, -0.094285, -0.014669, -0.121903, -0.071483,
        -0.134825, -0.126697, -0.054710, 0.052092, 0.211266, -0.004957, 0.037423, 0.085330, -0.025333,
        0.007821, 0.082806, -0.054819, -0.168991, -0.358360, -0.145822, 0.138321, 0.115803, 0.001548,
        -0.079752, -0.048943, -0.026508, -0.129897, -0.065246, -0.089228, -0.145166, -0.076577, 0.017858,
        0.029689, -0.049808, -0.012965, 0.034063, 0.040271, -0.031239, -0.160005, -0.007847, -0.124985,
        0.163694, 0.045250, -0.072929, 0.168133, 0.042637, -0.022716, 0.142990, 0.032253, 0.093902,
        -0.089764, -0.128394, -0.032329, -0.143084, -0.163704, -0.043884, -0.090311, -0.107654, -0.015540,
        0.022344, -0.080106, -0.045439, -0.044830, 0.054910, -0.052541, -0.109185, 0.002499, -0.063954,
        0.099499, 0.025175, -0.003207, 0.053255, 0.026512, 0.003935, 0.043753, 0.006092, 0.031237,
        -0.094625, 0.020802, -0.063293, -0.016724, 0.073771, 0.080425, -0.012062, 0.054409, 0.073785,
        0.033401, 0.059671, 0.006743, 0.087311, -0.036940, 0.047534, 0.097398, 0.045662, 0.113711,
        0.017723, -0.127758, -0.119584, 0.082203, -0.249067, -0.044407, 0.113701, -0.123502, -0.090508,
        0.014892, -0.010597, 0.029780, -0.017080, -0.049791, 0.035109, -0.062885, -0.093693, 0.007691,
        -0.127525, -0.164402, -0.094173, -0.133104, -0.028063, -0.039883, -0.078238, -0.076579, -0.071778,
        0.018899, 0.027418, 0.022747, -0.041924, -0.132457, 0.020119, -0.038246, -0.034225, -0.045316,
        0.023222, -0.013580, -0.036159, -0.023864, -0.037732, -0.006533, -0.043236, -0.033589, 0.004248,
        -0.022779, 0.001583, -0.119567, -0.065379, -0.019951, -0.036334, -0.135723, -0.026999, -0.125945,
        -0.050502, -0.037392, 0.087234, -0.010369, 0.008716, 0.033551, 0.067949, 0.104132, 0.184524,
        0.198361, 0.093080, 0.142349, 0.047346, 0.004886, 0.066761, 0.032198, 0.014955, 0.038032,
        -0.229606, -0.092271, 0.021478, -0.185472, -0.107334, -0.010707, -0.202836, -0.143341, -0.080034,
        -0.031626, -0.079812, 0.015566, -0.028208, -0.017726, -0.049596, -0.028009, -0.095835, -0.092252,
        0.061582, 0.041591, 0.090970, 0.072917, 0.066169, 0.081503, 0.113955, 0.087457, 0.103917,
        -0.081859, -0.087011, -0.067181, -0.072541, -0.037374, -0.070554, -0.094140, -0.095517, -0.100932,
        0.058162, 0.094566, 0.050709, 0.029233, 0.028261, -0.011636, 0.104308, 0.060188, -0.015942,
        -0.111147, -0.074328, 0.038086, 0.058180, -0.024965, 0.112327, 0.093970, -0.028781, 0.099036,
        -0.161638, -0.119291, -0.010423, -0.140116, -0.148393, -0.060625, -0.105250, -0.100907, -0.072176,
        -0.152999, -0.062152, -0.078013, 0.005795, -0.023754, -0.023404, 0.018277, -0.064969, -0.087252,
        -0.106776, -0.131038, -0.163554, -0.050465, -0.037801, -0.061140, -0.189600, -0.189780, -0.184185,
        0.030889, -0.019742, -0.000731, 0.041199, 0.019960, 0.048363, 0.036328, -0.006177, 0.029270,
        0.043309, -0.002169, -0.038678, 0.057013, -0.038039, -0.038717, 0.064630, -0.056845, -0.035799,
        0.012634, 0.014897, 0.055524, 0.036306, 0.049374, 0.062074, -0.045015, 0.068535, 0.014745,
        -0.113694, -0.163876, -0.120166, 0.057067, -0.011090, 0.017574, -0.024555, -0.127963, -0.067897,
        -0.150294, -0.091188, -0.151667, -0.234178, -0.131401, -0.139712, -0.147528, -0.059585, -0.138441,
        0.027369, -0.077100, -0.083407, -0.056827, 0.000392, 0.008006, -0.001864, -0.016734, 0.036214,
        0.050610, 0.057847, 0.084719, 0.159581, 0.133450, 0.121093, 0.028011, 0.075750, 0.053288,
        -0.036962, -0.163053, -0.242001, -0.014175, -0.124242, -0.129678, -0.100023, -0.168972, -0.100307,
        -0.058358, 0.001335, -0.116264, 0.063701, -0.003636, -0.020304, -0.045283, -0.037089, -0.122918,
        -0.094919, -0.099808, 0.003072, -0.108601, -0.148785, -0.051561, -0.089080, -0.058760, -0.112786,
        0.005324, -0.123525, -0.059615, -0.023682, 0.000083, 0.137195, -0.019356, -0.100270, 0.017499,
        -0.022780, -0.073697, -0.043043, -0.041947, -0.011717, -0.051851, -0.060119, -0.061433, -0.092782,
        -0.020620, 0.010584, 0.008751, -0.061397, -0.065889, -0.016645, -0.008701, -0.066963, -0.025971,
        0.133420, 0.062283, 0.074448, 0.056593, 0.045701, 0.114086, 0.122621, 0.096612, 0.158492,
        -0.023188, 0.023508, -0.024144, -0.019496, -0.053229, 0.000720, -0.001685, 0.019558, -0.007849,
        0.057291, -0.102799, -0.092395, -0.020263, -0.102744, -0.085244, -0.008094, -0.114869, -0.023792,
        0.198859, 0.208503, 0.207945, 0.006812, -0.022276, 0.021308, -0.154251, -0.151360, -0.049465,
        0.037649, -0.095792, -0.068616, 0.139069, 0.069526, 0.049798, 0.016457, -0.017748, -0.033199,
        0.041975, -0.070673, 0.003930, 0.048571, -0.039324, 0.043050, -0.012905, -0.100270, -0.014314,
        0.161679, -0.114951, -0.050892, 0.067664, -0.158887, -0.123409, -0.015793, -0.216273, -0.072966,
        -0.022929, -0.067235, -0.040328, -0.086844, -0.003818, -0.005678, -0.049779, -0.000628, -0.003904,
        -0.088866, -0.110726, -0.124349, -0.031066, -0.005213, -0.006778, 0.052286, 0.041673, -0.000934,
        -0.157217, -0.044196, -0.029894, -0.131358, -0.009266, -0.072815, -0.047512, -0.000160, -0.017087,
        -0.002295, 0.038053, -0.020732, 0.006971, 0.024707, 0.005624, 0.026564, 0.030553, -0.088696,
        0.219128, -0.011876, -0.145167, 0.109953, -0.035493, -0.202977, 0.085331, -0.105792, -0.219317,
        0.099918, -0.053954, 0.109752, 0.006311, -0.053848, 0.011236, -0.024032, -0.084449, -0.076215,
        -0.045629, -0.000221, -0.074665, -0.009963, 0.046308, -0.001851, -0.039639, 0.050798, -0.008856,
        -0.029694, -0.039567, 0.060964, -0.026507, -0.049845, -0.002258, 0.003920, 0.003669, -0.057370,
        0.109240, -0.075130, -0.115023, 0.103955, 0.001425, -0.030751, 0.074313, 0.066752, 0.086491,
        -0.053730, -0.045616, 0.041492, 0.045934, 0.031256, 0.013775, 0.053951, 0.023599, 0.004750,
        0.096341, 0.049278, -0.091088, 0.072181, 0.020916, -0.081839, 0.070828, 0.047750, -0.067702,
        0.035894, 0.025778, 0.021833, 0.043881, 0.053564, 0.039901, 0.090270, 0.079420, 0.047132,
        -0.069294, -0.054167, 0.051123, -0.049517, -0.078937, -0.035910, -0.089114, -0.118440, -0.038943,
        -0.042638, -0.016055, 0.017693, -0.121420, -0.054170, 0.114565, -0.033018, -0.120296, -0.007911,
        -0.015517, 0.035175, 0.052213, -0.005078, -0.001831, 0.076650, 0.008121, -0.041955, 0.101925,
        -0.029012, -0.014896, 0.039555, 0.013504, 0.081876, 0.028012, -0.068203, -0.028791, -0.085910,
        0.010977, -0.087334, 0.029194, -0.073171, 0.024470, 0.076507, -0.142921, -0.119485, 0.018341,
        0.016480, 0.055634, 0.021950, -0.025810, 0.019175, 0.095001, 0.045240, 0.019918, -0.051664,
        0.039624, -0.027146, 0.066629, 0.007373, -0.025913, 0.074325, -0.052150, -0.133353, -0.045957,
        -0.134954, 0.008825, 0.091739, -0.201356, 0.019294, 0.166810, -0.221712, 0.037017, 0.123379,
        -0.009332, 0.016028, 0.051782, -0.043980, -0.066612, 0.004378, -0.035230, -0.094663, -0.046551,
        -0.030886, -0.005414, -0.031846, -0.038192, -0.049665, -0.052250, -0.069855, -0.029030, -0.098735,
        -0.000732, -0.055841, 0.043889, 0.028236, 0.016698, 0.103664, 0.014473, 0.006344, 0.039608,
        -0.103624, -0.085297, 0.153122, -0.039551, -0.080963, 0.086673, -0.042277, -0.093725, -0.027664,
        -0.038178, -0.143217, 0.042348, -0.039151, -0.006257, -0.031242, -0.015657, 0.067583, 0.018530,
        0.022079, -0.077220, -0.155787, -0.024564, -0.021476, -0.132834, -0.106973, -0.067470, -0.096413,
        0.107562, -0.029994, -0.113167, 0.110334, -0.008947, 0.007661, 0.006825, 0.007707, -0.055250,
        0.022829, -0.043636, 0.045463, 0.037862, -0.038136, 0.035389, -0.001498, -0.112455, -0.022013,
        0.004933, -0.015204, -0.009261, -0.056013, 0.014902, -0.006382, 0.033838, 0.014563, -0.000781,
        -0.019219, -0.067950, -0.113371, 0.007686, 0.016588, -0.016274, -0.010177, -0.014625, 0.038414,
        -0.037330, 0.068575, 0.000552, -0.012522, 0.048441, 0.006508, -0.002992, 0.091357, 0.104915,
        -0.054311, -0.047949, -0.050676, -0.027383, -0.042460, 0.015526, 0.029734, 0.021797, 0.057119,
        0.052162, 0.084985, -0.066776, -0.030026, 0.011903, -0.030921, -0.056042, -0.001365, 0.000299,
        0.038761, 0.044172, -0.016710, 0.008436, 0.047076, -0.004396, 0.058011, 0.065729, 0.046488,
        -0.089404, -0.379839, -0.103087, -0.000932, -0.027619, -0.127234, 0.065714, 0.130770, 0.052816,
        -0.144119, -0.149939, -0.157827, -0.178244, -0.087628, -0.169946, -0.186563, -0.101335, -0.084815,
        0.000635, 0.100476, 0.017154, -0.131851, -0.050287, 0.058297, -0.075262, -0.092611, -0.013569,
        0.011820, -0.099673, -0.012625, 0.009677, 0.033866, 0.032148, 0.057633, 0.062171, 0.005524,
        -0.123265, -0.183884, -0.104435, -0.069803, 0.052162, -0.004916, -0.139253, 0.038010, -0.048913,
        -0.012509, -0.032862, 0.031804, -0.063209, 0.033289, 0.039904, -0.013641, 0.047702, 0.022968,
        0.054572, 0.160541, 0.030402, 0.013569, 0.024266, 0.043554, 0.032261, -0.006694, -0.056938,
        0.018372, -0.096908, -0.080820, -0.010239, -0.035869, -0.050149, 0.051196, 0.089717, 0.049690,
        0.111040, -0.012883, 0.020814, 0.014886, -0.004498, 0.089583, 0.114078, 0.094219, 0.019264,
        -0.119084, -0.019267, -0.016797, -0.053399, 0.024246, -0.112696, -0.088516, -0.052478, 0.009846,
        -0.017504, 0.018000, 0.022611, 0.001870, -0.016352, 0.073735, -0.038458, 0.018088, -0.011397,
        0.037708, -0.001397, -0.061987, -0.060935, 0.045278, 0.017313, -0.017394, -0.160280, -0.030509,
        -0.102096, -0.291777, -0.158266, -0.130148, -0.166797, -0.119297, -0.295883, -0.120144, -0.246201,
        0.119741, -0.095707, 0.143424, 0.117806, 0.145198, 0.118127, -0.002381, 0.009365, -0.023933,
        0.038579, 0.224439, 0.036420, 0.034881, -0.097708, -0.018519, 0.028010, -0.189672, -0.022189,
        -0.023163, 0.034332, 0.084168, -0.050225, 0.011949, -0.044033, -0.057083, -0.034638, -0.016979,
        -0.009226, -0.011931, 0.097901, 0.032720, 0.105316, 0.021900, 0.113023, 0.086710, 0.008203,
        -0.052967, 0.065583, 0.124085, 0.065740, 0.015205, -0.059036, -0.010512, 0.008175, -0.000479,
        -0.002000, 0.022577, 0.022075, -0.044957, 0.040363, -0.049348, 0.103990, 0.047027, -0.022359,
        -0.066449, 0.162979, -0.023540, -0.091326, 0.045056, -0.063665, -0.057274, -0.020959, -0.150383,
        0.026316, 0.093046, 0.080695, -0.114732, 0.012335, -0.005350, 0.018618, -0.049022, -0.062097,
        -0.060693, 0.050070, -0.046039, -0.029236, 0.016874, -0.036137, 0.041086, -0.045952, -0.022540,
        -0.030580, 0.030983, -0.038260, -0.046092, -0.398245, -0.065266, -0.106438, -0.193974, -0.097395,
        0.083040, -0.002167, 0.175298, 0.019362, -0.090051, -0.029332, 0.021209, -0.024115, -0.054493,
        0.012043, -0.008121, -0.038683, -0.050470, -0.058063, -0.037061, -0.032151, -0.063695, -0.016135,
        0.035130, 0.144565, 0.081407, -0.006602, -0.169601, 0.070015, -0.028265, -0.251131, -0.068712,
        -0.076818, -0.068134, -0.014298, 0.029553, -0.011038, 0.040424, -0.026953, 0.019731, -0.022727,
        0.024592, 0.152234, 0.083386, 0.016675, -0.096604, -0.000368, -0.013241, -0.129700, -0.000637,
        0.034278, -0.071159, -0.088508, 0.011695, 0.043149, 0.010070, 0.046501, 0.047613, 0.037724,
        -0.052854, -0.076700, 0.001789, -0.088048, -0.065879, -0.054065, -0.003897, -0.029576, 0.047463,
        0.050936, -0.050414, 0.080573, 0.023603, -0.013660, 0.083259, -0.031267, 0.025204, 0.017363,
        0.095354, -0.017655, 0.002624, 0.044673, 0.060022, -0.095557, 0.149172, 0.064986, 0.142709,
        -0.062957, -0.021829, 0.079250, -0.097360, -0.121730, -0.119341, 0.010088, -0.050902, 0.003040,
        -0.105576, -0.067082, 0.075855, -0.013859, -0.093799, 0.016183, -0.089013, -0.071116, 0.108185,
        0.103277, -0.006342, 0.011023, -0.014510, 0.008210, -0.027447, 0.000427, -0.033863, 0.033667,
        -0.091588, -0.094742, -0.134961, -0.106201, -0.169690, -0.088981, 0.115057, 0.070857, 0.043793,
        0.036164, 0.012813, 0.000126, -0.023409, -0.038607, -0.124036, 0.003442, -0.091212, -0.071264,
        -0.079464, -0.089491, -0.041279, -0.039146, -0.074933, -0.036505, 0.126497, 0.027781, 0.082108,
        0.002061, 0.012879, 0.014838, 0.049469, 0.002825, -0.160075, 0.066060, -0.081550, -0.080219,
        -0.073663, 0.007797, 0.068078, 0.098700, 0.024115, -0.002575, 0.188299, 0.195672, 0.230697,
        -0.029240, -0.062809, -0.035535, 0.086314, 0.007006, -0.083571, -0.028351, -0.029711, 0.065508,
        -0.042613, -0.108956, -0.189339, 0.007070, 0.016460, 0.109486, -0.074625, 0.027541, 0.060185,
        -0.003407, -0.093068, -0.069325, -0.012059, -0.069350, -0.096034, 0.081921, -0.019383, -0.054320,
        0.117168, 0.005252, 0.149481, -0.064123, -0.069567, 0.077792, -0.096603, -0.114916, 0.048311,
        -0.208344, -0.096737, -0.072297, -0.064018, -0.084636, 0.061408, -0.070149, -0.002675, -0.003926,
        0.080659, 0.088603, 0.125820, -0.037953, -0.051262, 0.017424, -0.097699, -0.024213, -0.052520,
        -0.071180, -0.088979, -0.104095, 0.055256, -0.109278, -0.005726, 0.036068, -0.084536, 0.041138,
