#ifndef __NET_CAPENH_PARA_H__
#define __NET_CAPENH_PARA_H__

#include "stdlib.h"
//#include "param.h"
#include "../../net_struct_common.h"

// v1.0 61922版本
#if 1
static float para_enh_features_deconv1_weight[36] = {
    0.1370938,
    1.9095532,
    2.2206166,
    0.0895226,
    0.1810330,
    0.2790501,
    -0.0710051,
    -2.1074052,
    -2.6376069,
    -0.6267500,
    -0.3469369,
    -0.2078463,
    0.2432954,
    1.7955002,
    1.1058809,
    -0.0704971,
    0.6460101,
    0.6395103,
    0.6042741,
    0.0518869,
    -0.7169472,
    2.4600363,
    0.5784959,
    -2.9502401,
    0.9685889,
    0.4863988,
    -1.3349950,
    -0.0589231,
    -0.0745266,
    1.2019342,
    -1.0649861,
    -3.3531902,
    -0.6796975,
    0.1616190,
    0.0202535,
    1.3898692,
};

static float para_enh_features_deconv1_bias[4] = {
    0.6765519, -1.7441804, 0.9056450, 1.2398396,
};

static float para_enh_features_deconv2_1_weight[144] = {
    -0.0591979, -0.0296468, 0.1063728, -0.0349533, 0.2652029, -0.1223206, 0.0543048, -0.1674446,
        0.0248582, 0.0199947, -0.1910453, 0.0540429, -0.1836399, 0.2667142, 0.2447520, -0.1123115,
        -0.0288884, 0.0920936, -0.0261967, -0.0603442, 0.3092517, 0.0258361, 0.0177413, -0.6645846,
        -0.0087744, 0.0832746, -1.4556900, -0.0298475, -0.0513266, 0.0247914, 0.0200358, -0.1242996,
        0.1141413, -0.0263320, 0.1569378, -0.1501210, 0.0243477, 0.0814956, -0.0285864, -0.0470869,
        0.4675188, 0.1403698, -0.1060744, 0.1201887, -0.1995860, 0.0629039, 0.1097320, 0.1313718,
        0.2607072, 1.1275190, 0.2964399, -0.0167037, 0.4317682, -0.3539714, 0.0399674, 0.0534013,
        0.1814069, 0.0285410, 0.4689232, -0.2092685, -0.0269984, 0.0671038, -0.0739553, -0.1305751,
        0.5908228, -0.0205249, 0.2042204, 0.0096321, 0.1050206, 0.0432082, -0.0024450, -0.0396809,
        0.0049082, -0.0400238, -0.0329705, -0.1047456, 0.0672733, 0.1255677, 0.0280805, -0.2136837,
        -0.0481453, 0.0346148, -0.3014729, -0.5154830, -0.3616457, -0.0519339, 0.5370393, 0.0849111,
        -0.1711396, -0.1705545, 0.0189230, -0.2487265, 0.1412022, -0.1150879, 1.1372399, -0.1888211,
        0.0209298, 0.0392589, 0.0693727, -0.0268894, -0.4631580, -0.2702887, -0.2350643, 0.7124662,
        0.3892438, 0.0457429, -0.2138398, -0.1667259, 0.0125741, -0.1672096, 0.0137309, -0.0779164,
        2.4710536, -0.0622913, -0.0232439, 0.1615632, -0.0834905, 0.0338941, -0.1960343, 0.2600038,
        0.0669150, -0.5540091, 0.0447483, -0.2564538, 0.3712728, -0.2967997, 0.2005090, 0.0951378,
        -0.0455921, -0.1475854, -0.3573497, 0.1900743, -0.0444242, 0.0477251, -0.1898856, 0.2890038,
        -0.6193482, 0.1620354, 0.0083161, -0.2188020, -0.0278988, -0.3058716, 0.6518915, -0.1368699,
    };

static float para_enh_features_deconv2_1_bias[4] = {
    2.3874803, -1.1971589, -0.1627848, -0.0656947,
};

static float para_enh_features_deconv2_2_weight[144] = {
    -0.2454718, -0.0296400, -0.1098095, 0.1059323, -0.0505438, 0.0634578, -0.1702305, -0.1372403,
        -0.0651304, -0.0225761, 0.1420229, -0.0760892, -0.0997192, -0.1589075, -0.4901714, -0.0696989,
        -0.6907583, 0.2309582, 0.0068537, -0.1734839, -0.0210338, 0.0625782, 0.0581918, -0.0325378,
        -0.0274349, -0.5922589, -1.1167307, 0.0058655, -0.0128482, -0.0540455, -0.1220853, 0.1321670,
        -0.0773460, 0.0393957, -0.0772274, -0.0339011, -0.0585386, 0.0116653, 0.0782717, 0.2567958,
        0.0776434, 0.0123201, -0.1516094, -0.0707166, -0.0931398, -0.2106655, 0.2734756, 0.1124245,
        0.3309764, 0.6542480, 0.1214140, -0.0305219, 0.0402514, -0.0233988, -0.0947229, -0.3022050,
        0.0642305, 0.0445027, 0.1254855, -0.0277416, -0.0146854, -0.0999920, 0.0405936, -0.0535363,
        0.1049060, -0.0849238, -0.1669669, 0.9788763, -0.0882153, 0.0096034, -0.0362882, -0.0206104,
        -0.0407062, -0.0520828, 0.1518441, -0.0112952, 0.0913882, -0.0756859, -0.0376760, -0.0458939,
        -0.0259479, -0.1183977, -0.6287062, 0.0456426, -0.2164223, -0.8023608, -0.1660811, -0.2529712,
        -0.5739484, 0.0329118, -0.0006155, -0.6945275, 0.1494025, 0.1748198, -0.1459076, -0.0206213,
        0.0096399, 0.1445443, -0.1644266, -0.0439839, -0.1316150, -0.0877398, -0.1427519, 0.1823291,
        -0.0786610, -0.1180268, -0.0424687, -0.1666235, -0.0418703, 0.1915422, 0.1928556, 0.1164746,
        -0.1903157, 0.3867539, -0.0584851, 0.1818206, 0.0288077, 0.1249580, 0.0610700, 0.1922776,
        0.0912514, 0.1281040, 0.2667435, -0.0131672, 0.0804783, 0.0901048, 0.0087856, 0.0748625,
        0.2079562, -0.0456201, -0.1651793, 0.3538440, -0.0597399, -0.1583214, 0.4732614, -0.0344237,
        -0.0268077, -0.1069744, -0.0456865, 0.0557908, -0.1406783, -0.0336523, -0.0492784, 0.1564918,
    };

static float para_enh_features_deconv2_2_bias[4] = {
    1.9289640, -2.2282560, 1.8677859, -1.2552106,
};

static float para_enh_features_deconv3_weight[1152] = {
    0.1504669, 0.1845894, -0.0625827, -0.5752867, 0.2325745, -0.0742478, -0.3499540, 0.1685872,
    -0.0829747, -0.0036855, 0.2618303, -0.1688038, -0.0120161, 0.3755363, 0.0812944, 0.0318444,
    0.0206186, -0.1006703, 0.0945682, -0.0265491, -0.0699189, 0.0305982, 0.2962139, -0.1447296,
    -0.1861703, 0.5306854, -0.3115212, -0.0730269, 0.2295603, -0.1338452, -0.1841852, 0.2555856,
    -0.0769960, 0.2284727, 0.0239801, -0.0846042, 0.0237699, 0.1775172, 0.0426934, -0.3288300,
    0.2561916, 0.0259551, -0.1678233, 0.3101614, -0.0589994, 0.1055279, -0.3179546, 0.1308746,
    0.2698460, -0.3484263, 0.0698560, -0.2220863, 0.0211479, 0.0230419, 0.1183927, -0.1076549,
    0.0882347, 0.0630129, -0.0202673, 0.0772627, 0.2316908, -0.2810154, 0.3646102, -0.1162494,
    0.0240744, -0.0099999, -0.8786639, 0.3102587, -0.1509919, -0.7542295, 0.0594985, 0.0621542,
    0.0027452, 0.4074994, -0.0734384, -0.0143961, -0.1016218, 0.0006136, 0.0104292, -0.0199084,
    0.0985339, -0.0316612, 0.2437881, 0.3209278, 0.2898391, 0.3376998, -0.0418827, 0.1137032,
    0.3636350, 0.3578758, -0.0995111, -0.2377364, -0.0046021, 0.2122568, 0.1218328, -0.0541252,
    -0.2688086, 0.0661723, 0.0677602, 0.1654498, 0.3230821, -0.4809443, 0.0170887, 0.2122761,
    0.0256824, -0.0545384, 0.1632310, 0.2589219, 0.3607726, 0.5680090, 0.0349131, 0.0700729,
    -0.2285265, -0.4827488, -0.0209361, -0.1470743, 0.0185493, -0.3078263, -0.5238783, 0.2198015,
    0.1136449, -0.2362284, -0.1612048, 0.0310503, -0.2031997, -0.4112504, 0.1324197, -0.0308745,
    0.0349690, 0.0612565, 0.2751670, 0.4794206, -0.1797696, 0.0501833, 0.2863909, -0.3060675,
    0.2173636, 0.0148878, -0.1835262, 0.0472906, -0.0239629, -0.2363274, -0.1395368, 0.1174092,
    -0.7970424, 0.1136822, 0.0825307, -0.8724824, 0.1098166, -0.1159210, 0.0571482, -0.0630604,
    0.0318565, -0.0386387, 0.1028124, 0.1462601, 0.1691515, 0.1109215, -0.0436139, 0.2500442,
    -0.0984626, 0.0810601, 0.0681784, -0.1014701, 0.1662532, -0.0947765, 0.0793936, 0.0157243,
    0.0420130, 0.0287680, -0.1237899, 0.1315682, -0.2120443, 0.2481848, 0.1708150, -0.0589088,
    0.1184230, 0.0214100, 0.2819788, -0.1547837, 0.2656474, -0.0693946, 0.0448007, 0.3391678,
    -0.1061105, 0.0508294, 0.1834936, 0.0510778, -0.0859708, -0.0656478, 0.1601094, -0.2297308,
    -0.0864780, 0.0390926, -0.0405841, -0.0351377, -0.2073273, 0.1317154, -0.1146779, 0.0639810,
    -0.0439509, 0.2876107, -0.0368547, 0.0531200, 0.1503649, -0.0112391, -0.0288357, -0.5721935,
    -0.0969859, 0.0809323, -0.4519872, -0.1468625, -0.0638722, -0.0320249, 0.0710221, 0.0323627,
    0.1350669, 0.1830625, 0.0983993, -0.0325914, -0.1937259, -0.0389598, 0.0080155, 0.0136234,
    0.0146373, 0.1192768, 0.1110773, -0.1163940, -0.0812234, -0.3353938, -0.3717895, 0.0713853,
    -0.0978199, -0.0937540, -0.0019253, 0.0951501, 0.2290283, -0.0350272, -0.2461016, -0.2338534,
    0.0719843, 0.2009313, 0.1642880, -0.0029206, -0.0721685, -0.2383260, -0.0552782, -0.3667908,
    -0.5105426, 0.0758841, 0.0894191, 0.0925926, 0.1097433, -0.1346671, 0.0492478, 0.3254752,
    0.0593693, 0.0883285, -0.0986309, -0.1254574, 0.1021134, -0.0607538, -0.0354562, 0.1267790,
    -0.0078470, 0.3022891, 0.4241082, -0.1002900, -0.1491536, -0.1297418, 0.0398393, 0.3348063,
    0.2062574, -0.1722507, -0.4528112, -0.3703979, 0.1462261, 0.2965007, 0.2249384, 0.2107116,
    0.1235670, 0.1428057, 0.0044815, -0.1643380, -0.1024049, -0.0241530, 0.0277285, 0.0185298,
    -0.1324818, 0.0355886, 0.0082058, 0.9637108, -0.2128461, 0.0811662, 0.3101352, -0.0371508,
    0.1944021, -0.0789919, -0.3955080, 0.3965708, -0.0251227, -0.2867892, 0.2433482, -0.3464668,
    0.0846105, -0.2180810, 0.1293227, -0.0216600, -0.0633089, -0.0116841, 0.1875653, 0.0214518,
    0.0760363, -0.1905656, 0.2376535, -0.0383759, -0.2046618, 0.0942256, -0.2016171, -0.1556157,
    0.0896813, -0.2636371, 0.1035379, -0.0406617, -0.3166958, -0.1594394, -0.0866359, 0.6117136,
    0.1063292, -0.2470932, -0.0619518, -0.5459787, 0.1786519, 0.1484026, 0.0782183, -0.1165244,
    0.0214653, 0.2635089, -0.1978428, 0.1977932, 0.0170127, -0.0254750, -0.0465846, 0.1980547,
    0.0937805, 0.2689434, -0.3973319, -0.0401203, -0.3740113, 0.1628885, -0.3287474, 0.0700374,
    0.0427264, -0.0807916, 0.3995977, -0.2174736, 0.2981352, 0.2685493, -0.3411961, -0.2016301,
    0.0339111, 0.1198615, 0.0904837, 0.0222271, -0.0780317, -0.1031625, 0.0250841, -0.3264593,
    0.0615009, -0.0847138, 0.1410264, -0.0957316, 0.0710435, 0.1073900, 0.0585512, 0.1584114,
    -0.2538324, 0.1956823, -0.0275022, -0.0731296, -0.3188929, -0.0291436, 0.2482397, -0.6375812,
    -0.1159416, -0.1822169, -0.2143666, -0.0558777, 0.2265011, 0.0843017, 0.1193771, -0.1044429,
    0.0366817, 0.1181138, -0.1529417, -0.0053563, -0.3843438, -0.2188364, 0.2268139, -0.0525115,
    0.2206678, 0.0582217, 0.1464734, 0.0771143, 0.1011411, 0.0764840, -0.2429108, -0.1160340,
    -0.0641091, 0.1094613, -0.1159628, -0.1236993, 0.1676205, -0.1905885, -0.0793404, 0.1083566,
    0.1824755, 0.2862922, 0.0983593, 0.0881155, 0.0434550, 0.0012908, 0.2282372, -0.1576849,
    -0.2598601, 0.0744016, -0.0668784, 0.2878405, -0.1170034, 0.1612656, -0.4731418, 0.0245596,
    -0.1793445, -0.0609630, 0.0260844, 0.0151096, -0.0692770, -0.0865499, 0.0825508, 0.1344052,
    0.0052239, -0.2166023, -0.3472798, 0.0535552, -0.0295419, -0.0030752, 0.0848754, -0.1922348,
    -0.0003011, -0.0065099, 0.0192945, -0.0308485, -0.1967714, -0.0644239, -0.0344835, -0.0041726,
    0.0453702, 0.1826625, 0.1636439, -0.0102664, -0.1622616, -0.0906641, 0.0442105, -0.1707240,
    -0.1031062, -0.1037652, -0.1509104, -0.0212763, -0.3300322, 0.1853826, -0.0479224, 0.1278717,
    0.0153837, -0.0328332, 0.0993491, -0.0116690, -0.0054079, 0.0824005, 0.2947961, 0.2387331,
    0.0907770, 0.3705278, 0.1944854, 0.1940452, 0.3107513, 0.2550082, -0.0860721, -0.3217418,
    -0.0877238, -0.3044272, 0.2304559, 0.2484426, -0.0822905, -0.1245350, -0.3561099, -0.0390335,
    0.1818026, 0.0519884, -0.1755020, -0.2044330, -0.0741637, 0.1599851, 0.1836817, 0.1944053,
    0.0991714, 0.0316887, 0.0016600, -0.1210561, 0.0123172, -0.0971060, -0.2220908, -0.0397618,
    0.0443837, -0.0084428, -0.0011752, -0.1562351, -0.1025425, 0.0105453, -0.0384096, 0.0411539,
    0.1582551, 0.0390118, 0.0764630, -0.1389603, 0.1028297, 0.0522195, -0.4198143, 0.0461229,
    -0.0108181, -0.1707131, -0.0291560, 0.0567140, 0.0005385, 0.0834253, 0.0027837, 0.0839403,
    0.0750922, 0.0916409, 0.0365020, -0.1010560, 0.1633157, 0.1023209, -0.0320375, 0.0604519,
    0.1107472, 0.0488223, 0.1293284, 0.1452297, -0.0935843, -0.0306578, 0.0127970, -0.0941880,
    0.0481747, -0.1236984, 0.0060015, -0.0880541, -0.0976171, 0.1256839, -0.0082839, -0.1425945,
    0.0196412, -0.1283867, 0.2270176, 0.0002680, -0.0967669, 0.2556605, 0.1860416, -0.1273970,
    -0.0692050, 0.0414146, -0.0523556, -0.0567279, -0.0609739, -0.2213640, 0.0442355, 0.0081148,
    0.1312222, -0.3978168, -0.0265375, 0.3240298, 0.5556940, 0.0946763, -0.1860672, -0.1725078,
    -0.0351155, 0.0502207, -0.2225459, -0.0589900, 0.0361515, 0.0789046, -0.4686019, -0.0905345,
    0.0624536, -0.3521097, 0.0181649, 0.0202783, 0.1169960, -0.1331480, 0.1028060, -0.0113619,
    0.0593360, 0.2859755, -0.0758130, 0.1078071, -0.1509082, -0.3081114, -0.0867494, 0.5907070,
    -0.5368595, -0.0536166, 0.1862664, -0.0627908, 0.0762719, 0.0705789, 0.0773622, -0.0038957,
    0.3970610, 0.1357800, 0.2170099, 0.1862531, -0.2157801, -0.0869575, 0.2511334, 0.2491244,
    0.0728893, -0.7287692, 0.6969833, 0.1555609, -0.1470173, -0.0448412, -0.0709134, -0.0950867,
    0.4228582, 0.1767314, 0.4604663, -0.7690804, -0.3013935, -0.1500097, 0.4292258, 0.2344565,
    -0.0899785, 0.1364298, -0.1131125, 0.3082358, -0.2263200, -0.0967938, 0.0050153, 0.0234039,
    0.3939463, 0.0149139, 0.0082386, -0.1107921, 0.1945380, 0.2041045, -0.2398237, -0.0425498,
    0.1058812, 0.1416343, 0.2229106, -0.0006479, 0.1239125, -0.0962759, 0.1617525, -0.1540537,
    -0.6974525, -0.2044500, -0.0079206, 0.1105039, 0.1173635, 0.2060403, 0.2632405, 0.5933456,
    -0.1273617, -0.2551243, -0.0243100, 0.0665796, 0.0408249, -0.0718286, -0.0406182, -0.5647596,
    0.1443618, -0.0777752, -0.6792327, -0.0580571, -0.0090921, 0.2991173, -0.0099377, 0.2522441,
    0.1684516, 0.0201376, 0.0351817, 0.0924609, 0.0720163, -0.1247057, -0.1817935, 0.0427665,
    -0.0276453, 0.3526726, -0.2179845, -0.0581849, 0.6404131, -0.0253481, 0.1168754, 0.1538526,
    -0.1996507, 0.0082195, -0.1244960, -0.1934509, -0.0159316, -0.4149380, -0.1642641, 0.1710718,
    0.0668544, -0.0124302, 0.0082811, -0.0638777, 0.1550772, -0.1085235, -0.5082799, -0.0484307,
    0.2359480, 0.3734910, 0.1637054, 0.1206217, -0.1043002, -0.0540782, -0.0261798, -0.1923151,
    0.0219632, -0.0671518, -0.0119135, 0.1416796, -0.0420604, 0.4149978, -0.1033715, -0.0704413,
    -0.0338490, 0.0320971, -0.0998632, -0.3370769, 0.2948982, 0.0663158, 0.0060092, -0.0855981,
    -0.0105869, 0.1224134, 0.0210230, -0.0671337, 0.3690521, 0.0849346, -0.0974817, 0.6411117,
    0.0026358, -0.0385562, 0.1728700, 0.0173226, -0.2287643, -0.2528861, 0.0036441, 0.2544598,
    0.0933730, 0.0772496, -0.0049882, -0.0201984, 0.2339501, -0.0955056, -0.5195978, -0.1815585,
    0.0728552, -0.7586022, -0.1749800, 0.0270672, -0.2535987, -0.0086873, 0.1037269, 0.3742085,
    0.3157558, -0.2986805, -0.2983719, -0.1222901, -0.0304445, -0.0483739, 0.0305972, 0.3460739,
    0.0917930, 0.1402464, -0.1451379, -0.0222412, -0.0254125, -0.0692328, -0.1530997, 0.0237829,
    -0.0955529, 0.0558296, -0.2276908, 0.1644098, -0.1051869, -0.1709464, -0.0171574, -0.1248936,
    0.1600434, 0.1049216, 0.2237415, -0.0381954, -0.0275445, 0.0603758, -0.7831233, 0.1200272,
    -0.0941160, -0.6601598, -0.0007738, -0.0067281, 0.2090404, 0.2392331, 0.2233054, 0.0588566,
    -0.1292617, -0.1834653, -0.3995114, -0.0590133, 0.2470760, -0.0094790, 0.0662968, 0.0808842,
    -0.8607757, -0.0549075, -0.2276114, -0.6314661, -0.0485324, 0.1407598, -0.0594697, 0.1116956,
    0.4054740, -0.0302664, -0.0358126, -0.3666758, 0.1074307, -0.0088777, -0.3818602, -0.0525126,
    -0.1470063, -0.1991944, 0.7993718, -0.0562242, 0.1166075, 0.4580238, 0.1572456, 0.1600059,
    0.1241765, 0.1132184, -0.4207929, -0.2827605, 0.2025423, 0.1641300, 0.0117539, -0.0377902,
    0.0845305, -0.0698262, 0.1560932, 0.6063087, 0.0297777, -0.1386673, -0.1971328, -0.2114415,
    -0.0708439, -0.1219322, 0.0700570, 0.0156334, 0.0316052, 0.0223410, -0.0977717, 0.0220051,
    0.1380209, 0.0458090, -0.0031842, 0.2317537, -0.0550603, -0.0662458, -0.0613992, 0.0303094,
    -0.2805719, -0.5371771, -0.0209908, 0.0713760, -0.0331919, -0.0125648, 0.1405962, 0.1339345,
    -0.0702224, -0.1220305, -0.0689745, 0.0109911, -0.0324266, 0.2323861, -0.0042553, -0.0971633,
    -0.1138515, 0.0142878, -0.1741323, -0.6855223, -0.1839691, -0.4016688, 0.0872973, -0.1366538,
    -0.0389966, 0.0324012, -0.0000456, -0.0856617, -0.0704934, -0.0378022, -0.0325521, -0.4468695,
    0.0340382, 0.0164461, 0.0504633, -0.0095457, 0.0596570, 0.5299252, -0.0166110, 0.1928666,
    0.3101255, -0.1575535, 0.1677574, -0.2801262, -0.0621572, 0.1125567, 0.0113577, -0.0212259,
    -0.1487697, 0.0717330, -0.0166894, -0.0871685, 0.1080722, -0.0743336, 0.0436192, -0.0011452,
    0.1062813, -0.0593591, 0.0408499, 0.0619086, -0.9004462, 0.1982104, -0.0204330, -0.4297363,
    0.1646259, 0.0389124, 0.0306933, -0.0778459, 0.0032283, 0.1675394, 0.1121910, -0.1247745,
    -0.0814791, -0.1550025, -0.0078167, 0.0054351, -0.0951135, 0.0290414, 0.1204406, -0.1100869,
    -0.0413924, -0.1370200, 0.0814239, 0.0421883, 0.0228915, -0.1054552, 0.0566716, 0.0644926,
    -0.0701394, -0.0009599, 0.1090862, 0.0745551, -0.0779719, -0.0548281, -0.0556963, 0.1220281,
    0.0308434, 0.0401467, 0.0766042, -0.0908381, 0.2797685, -0.0600285, 0.0310235, 0.1099675,
    -0.0499299, -0.0057202, -0.0019024, 0.0475428, -0.1012047, -0.0706807, 0.0214346, -0.0284879,
    0.1998350, 0.0580090, 0.1877584, -0.1634111, -0.0628804, 0.0756834, -0.1130089, -0.0415132,
    -0.0771724, 0.0573022, 0.0157645, -0.2075630, -0.0237904, 0.0368594, -0.8713391, -0.0142330,
    0.0492830, 0.1645757, 0.4427166, -0.0404609, 0.1255642, 0.1696745, 0.0449101, 0.1706705,
    0.0282413, 0.1426158, 0.2042350, 0.1536386, 0.0517793, -0.0399030, 0.2442038, -0.0464506,
    -0.0640941, -0.2135184, -0.0798178, -0.0599653, 0.1695999, 0.0653244, -0.0231927, 0.3541551,
    0.0420622, -0.0920303, 0.2991942, 0.0322314, 0.0087011, 0.1419510, -0.0412718, -0.0485268,
    -0.3776467, -0.0871546, -0.0876314, -0.3125489, 0.5119566, 0.2628521, -0.0274162, 0.2776476,
    0.1342425, 0.0154745, -0.1841578, -0.1806080, -0.1629643, -0.0567402, -0.0142358, -0.3777325,
    0.0053204, 0.0869448, 0.4002166, 0.0584924, 0.0485535, 0.4722559, 0.0217003, 0.0426527,
    0.2129645, -0.0141860, -0.3747098, -0.4634533, -0.0474227, 0.1115357, 0.1678255, -0.0131910,
    -0.4860000, -0.0850190, 0.2160813, -0.4401423, 0.1353031, -0.0479731, 0.0990869, 0.0225442,
    0.0307512, 0.1134554, -0.1154058, 0.1055873, 0.1483749, 0.3262239, -0.0559449, -0.0629334,
    -0.0008482, -0.2715501, -0.3427434, 0.2045996, -0.0407649, -0.2023046, -0.0973867, 0.1690150,
    -0.0569573, 0.1198981, 0.0735415, -0.1504228, 0.0372233, -0.0272802, 0.0787365, 0.1443149,
    -0.1235722, 0.0819138, 0.1527824, -0.2607663, -0.5419171, 0.0488303, -0.0213137, -0.1366639,
    0.0828951, -0.1226200, -0.0063381, -0.0899067, -0.1625309, 0.1544725, -0.1290296, -0.1310302,
    0.1263162, 0.0896399, -0.0348538, 0.2645520, 0.0727212, 0.0547824, 0.3837156, -0.0697890,
    0.0257809, 0.1292998, -0.2494671, 0.0858334, -0.1017741, 0.2292075, -0.3522100, -0.1941118,
    0.1630275, 0.2253278, -0.0533153, -0.0644459, -0.2031778, -0.1725971, -0.2979440, 0.0960380,
    0.2354236, -0.0758643, -0.1425222, -0.2415272, 0.1980699, 0.0564871, -0.0875567, -0.0675069,
};

static float para_enh_features_deconv3_bias[16] = {
    0.0870800, -1.8645141, 0.4270315, 2.3179045, -0.0003999, 1.4294376, 1.7333655, 0.8913600,
    0.9420930, 1.5529211, -1.0744940, 3.8901458, 2.6145658, 1.4469631, 0.7684041, 1.1101085,
};

static float para_enh_features_deconv4_1_weight[144] = {
    -0.0369084, 0.0052506, 0.0673269, 0.0416840, -0.0618786, -3.1102481, -0.0576009, 0.0939738,
        0.5315715, 0.0495316, -0.0499259, 0.2778915, -0.4174552, -1.8880178, 0.6898740, 0.2011992,
        0.7098144, -0.1881796, -0.0108318, 0.0305152, 0.4414744, -0.2202556, -0.8242370, 2.0931046,
        0.0152058, 0.1735998, -0.2019103, 0.0669181, 0.2087760, -0.0389553, -0.1333550, 1.2684375,
        -0.2280687, 0.0426913, -2.3760285, 0.1328772, -0.0620812, -0.0654264, 0.6399124, 0.0621698,
        0.3728450, 1.8273522, -0.0160533, -0.1806604, 0.0949266, -0.0527449, 0.5146062, 0.1269491,
        0.6044667, -2.6435087, -0.0739820, 0.2340178, -0.2804473, -0.0915490, 0.0461055, 0.0667251,
        0.1273846, 0.1950804, 2.5848706, -0.0675637, -0.0733885, 0.3151388, -0.1998606, -0.0020396,
        -0.0404284, -0.3308759, 0.0215119, 0.0694986, 2.8946061, -0.0345514, -0.1530226, 0.3150984,
        -0.0331721, -0.0580106, -0.0194655, -0.0441159, -1.7383350, 0.1105577, -0.1127351, 1.1842158,
        -0.2825430, 0.1036711, 1.0889077, 0.0543365, 0.2193030, -1.4829109, 0.7795291, 0.2243540,
        0.1418747, 0.3541533, 0.2361374, -0.2824076, -0.1613544, 0.2446852, -1.0620764, 0.0360116,
        0.0746176, 1.8924102, 0.4497237, -0.0848063, -0.5762208, -0.1127193, -0.1235033, 2.1519690,
        -0.3788218, -0.0938299, 0.1804932, 0.1087275, 0.0270321, 0.6298885, 0.0032774, -0.2798098,
        -2.2206910, 0.1772716, -0.0180882, -0.1414237, 0.0556027, -0.1147753, 0.7809331, -0.0482716,
        -0.5055525, 2.5505164, 0.2584840, -0.1811775, -0.3905466, -0.0875884, 0.1673305, 0.2599122,
        0.1534217, 0.1967725, -1.9039090, -0.0130619, 0.0434507, -0.8893344, -0.1237102, -0.0504034,
        0.1832823, -0.0021807, -0.3212695, 1.8680003, 0.2690136, 0.1891131, -1.4737204, 0.0809786,
    };

static float para_enh_features_deconv4_1_bias[16] = {
    -0.0874748, -0.1322864, -0.1445153, 0.0553272, 0.1869622, -0.2007466, 0.3024052, -0.2294726,
        0.1169248, -0.1953604, 0.1406084, 0.1299443, -0.0590630, 0.0389566, -0.1117309, 0.1437229,
    };

static float para_enh_features_deconv4_11_weight[256] = {
    0.0008204, -0.0393535, -0.0665325, -0.4429710, -0.0170016, 0.0587067, -0.2285619, 0.0230390,
    -0.0521741, 0.0621549, -0.1988293, -0.0162913, -0.0250940, -0.0060080, 0.0854785, -0.0746266,
    -0.0233237, 0.1119920, -0.1444411, 0.0328551, -0.0246490, -0.0160292, 0.0401379, 0.0495751,
    0.0401620, 0.0642704, -0.0478814, 0.1430560, -0.1274359, -0.0033354, -0.0468014, 0.0191360,
    -0.0083922, -0.0898284, 0.0330495, 0.0373564, 0.0108807, 0.0147396, -0.0898882, -0.0239031,
    -0.0920120, 0.1057080, 0.1147882, -0.1110006, 0.1279465, 0.0482074, 0.0386408, 0.0817316,
    -0.2263814, -0.1194225, 0.0961909, 0.1243264, 0.0962808, -0.0753309, -0.0804714, 0.1300579,
    0.1595348, -0.1661804, 0.0506376, -0.0529628, -0.0111548, 0.1400997, 0.0444232, 0.0068035,
    -0.0200131, -0.0675820, 0.0741397, -0.1041295, -0.0126132, 0.2097338, -0.3562161, -0.0032641,
    -0.1276435, 0.2276029, 0.0650106, -0.1592157, 0.1652823, 0.0724057, 0.0977482, 0.1262466,
    0.1262177, 0.0110679, -0.0816483, -0.1486250, -0.0362059, -0.0263317, -0.0495786, 0.1007921,
    0.0012948, -0.0272001, -0.2261719, -0.0579992, 0.0032460, -0.0683154, 0.0070687, -0.1070019,
    0.0202805, 0.0602743, -0.1339020, -0.0340778, -0.0325146, 0.0311594, 0.0463714, -0.0473657,
    0.0836737, -0.0326417, -0.1419500, 0.0343268, 0.0458860, -0.0281304, -0.0544808, -0.0268672,
    0.0770275, 0.0880502, -0.0584852, 0.0131941, -0.0240529, -0.1738906, -0.0017701, 0.1293187,
    0.0123444, -0.0390010, -0.0773192, 0.0283103, -0.1848888, -0.1095612, 0.1065265, 0.0381406,
    0.0584470, 0.0738334, -0.0530175, -0.2114384, -0.0820172, 0.0792824, -0.2648356, 0.0308416,
    0.2228650, -0.0598385, -0.0620153, -0.3006073, -0.1343558, 0.0335382, 0.2435142, 0.0168781,
    0.0205254, 0.1114978, 0.1481961, 0.1453709, -0.5018283, -0.1927556, 0.0069512, -0.0880202,
    -0.1972151, 0.0830371, 0.0702264, 0.1625601, 0.0218276, -0.0382321, 0.2160714, 0.0156225,
    0.3185537, 0.1546563, -0.1742123, 0.0648201, -0.2602453, -0.0217365, -0.0260841, 0.4813622,
    -0.0755918, 0.1070270, 0.0971940, -0.0786899, -0.1268798, 0.1800721, -0.1444587, 0.1693812,
    0.3269995, 0.1599344, -0.0223682, -0.0002600, -0.1161873, 0.2914631, -0.0659346, 0.1118497,
    -0.0868007, 0.1337243, 0.1070573, -0.0715477, -0.5420343, 0.3274392, 0.1829500, 0.1169291,
    0.1629272, -0.1930831, 0.1774687, -0.0906829, 0.0283529, -0.1121619, -0.0700157, 0.0692571,
    -0.1590726, -0.1338253, -0.0278634, -0.1074528, 0.0515967, -0.1020194, 0.0301728, -0.1805151,
    -0.3521376, 0.1064386, 0.1406521, 0.0596397, 0.0083080, -0.1086223, -0.1864226, -0.2732611,
    -0.3391780, 0.0783567, 0.0119583, 0.0584410, -0.0354944, -0.3586658, 0.0943498, 0.0112805,
    -0.0006250, 0.0225955, 0.0514130, 0.1306171, 0.0199024, 0.0485303, 0.0475303, 0.0122470,
    0.0116630, -0.0478247, 0.0297261, 0.0208200, -0.0366929, -0.0035133, -0.1385820, 0.0725727,
    -0.1009814, 0.0051597, -0.0155950, -0.0526882, -0.0157724, 0.2483071, -0.0305571, -0.0809973,
    0.0687339, 0.0269796, 0.0106696, 0.0347327, -0.0563946, 0.3107754, 0.0352447, 0.0130683,
};

static float para_enh_features_deconv4_11_bias[16] = {
    -0.0797632, -0.3454883, 0.2765618, -0.4417886, 2.2072666, 0.8740295, 0.2538279, -0.0031307,
        2.0715003, 0.1363669, -1.9092014, -0.5753896, 0.0214765, -0.1804855, -0.2665482, -0.3088596,
    };

static float para_enh_features_deconv4_2_weight[144] = {
    -0.3001908, -1.3031741, -0.7183059, -0.4934705, -1.4591963, -0.7674894, -0.0912560, -0.3437851,
        -0.1944261, -0.1674270, -0.6026676, -0.2623434, 0.4187533, -2.2871735, -0.2058932, -1.1749653,
        1.9835639, -0.2127902, -0.1964426, -1.0765107, -0.3150375, -0.4549375, -1.3121580, -1.1019584,
        -0.7891473, -0.6966306, -0.8286327, -0.7516069, 0.1670486, 0.2505408, -1.2652445, 0.7618921,
        -0.2572380, -0.5910673, -0.3293676, 0.0573628, 0.0020704, 0.5674979, 0.3333511, -0.1652594,
        1.6082540, 0.3249068, -0.0322371, 0.3017454, 0.0683991, -0.0629237, 0.6951714, 0.6558919,
        0.4400267, -3.0097678, 1.0480263, -0.2375188, 1.2760977, -0.1445309, 0.1199193, 0.0349786,
        -0.0147375, 0.2708611, 1.6072967, -0.5369825, -1.2129961, 3.0264482, -0.1192262, -0.0688294,
        -0.3273900, -0.1879785, -0.0336990, -1.6809896, -0.2080555, 0.2673763, -1.6689500, -0.5042948,
        0.1669054, 0.1876814, -0.5523617, -0.3319562, -0.7147837, -0.9650655, -0.2636569, -1.3597869,
        -0.2616482, 0.6175608, 0.6192844, 0.0263426, 0.7020374, 0.8869194, 0.2788177, 0.7542106,
        0.7268398, 0.2135122, -0.4065303, -0.6329289, -0.2366543, -1.2360604, 0.8492004, -0.2998504,
        -1.1339978, 0.4919180, -0.7495356, 0.1275729, 0.0135545, 0.1349791, 0.1315576, 0.4028429,
        -0.2460898, 0.2710158, 2.0580647, -0.2484332, -0.4762994, -0.9449845, -0.6793990, -1.0634630,
        0.0703150, -0.7333348, -0.7361857, -0.3713635, -0.7081512, -0.5060530, -0.7890486, -0.2132215,
        -0.9719390, -1.2846510, -0.3881041, -0.7115167, -1.0289463, -0.1737921, 0.2042537, 1.8154520,
        0.4070504, 0.5785456, 1.2139438, 1.2977252, 0.4019956, 0.9399180, -0.4678528, 0.5618632,
        1.4865483, 0.4767265, 0.7136965, 1.0085498, 1.5146608, 0.8312091, 0.4653583, 1.7613403,
    };

static float para_enh_features_deconv4_2_bias[16] = {
    -0.0146796, -0.0248564, 0.0771110, 0.0274199, -0.0646450, 0.0993199, 0.0080459, -0.1256564,
        0.0010351, -0.0916388, 0.0286327, 0.0552854, -0.0310255, -0.0847791, 0.0531462, -0.0557029,
    };

static float para_enh_features_deconv4_12_weight[256] = {
    0.0692051, -0.0702095, -0.0408704, -0.0896401, -0.0866144, -0.0439267, -0.2943856, 0.0911751,
    -0.0922659, -0.0670587, 0.0199653, -0.1144103, 0.0425290, 0.0684944, -0.2311037, -0.0757889,
    -0.4915153, 0.0857268, -0.0124200, -0.3028831, 0.5543641, -0.0452105, -0.2588201, -0.0567488,
    0.2792598, -0.0283008, 0.0252925, -0.0053464, 0.0635842, 0.1145345, -0.3425260, -0.1158703,
    -0.0230633, 0.1876490, 0.0725581, 0.0650867, -0.0513141, 0.1002693, 0.1118691, -0.1187159,
    0.1091427, -0.1521360, 0.1880499, 0.2137212, -0.0749921, -0.2581380, 0.1771651, 0.1448074,
    -0.2314109, -0.2684403, -0.3532703, -0.0281909, -0.1912244, -0.0292873, -0.0250676, -0.1785375,
    -0.2457551, -0.0748186, -0.0482986, 0.0004806, 0.0310962, 0.0271782, 0.0472493, -0.0558505,
    0.1545888, -0.0138268, -0.1512280, 0.0789623, -0.0688309, 0.2346740, -0.1788622, 0.1544405,
    0.0175848, -0.1790019, -0.0372369, -0.0278509, 0.0717261, -0.1330783, 0.1048694, -0.0115178,
    0.1129684, 0.1422005, 0.0957248, 0.0268584, 0.0445808, -0.0830627, 0.0786665, -0.1553155,
    -0.0939864, -0.0900268, -0.0519843, 0.0799609, 0.0210622, -0.0194519, 0.0498037, -0.2071798,
    -0.0457193, 0.0120204, 0.0455611, 0.0665113, 0.0504805, 0.0801592, -0.0536119, 0.1730358,
    0.0895897, 0.0295204, 0.0685585, 0.0770308, -0.0957611, 0.0031885, 0.0357023, -0.2706388,
    0.1161213, 0.2617535, 0.2184629, 0.0483709, 0.1123841, 0.0822621, 0.0304963, -0.1718901,
    0.0048567, -0.0816061, -0.0206843, -0.0033909, -0.1091159, 0.1469013, -0.2504391, -0.0273739,
    -0.0775275, 0.1764196, -0.0408306, -0.0635705, 0.0829973, -0.1020998, -0.1258838, 0.1070511,
    0.0698267, 0.0828276, -0.0424486, 0.0433441, 0.2751876, 0.0570864, 0.0799574, 0.0101167,
    -0.0965416, 0.2042089, -0.1744664, 0.0979173, 0.0516941, -0.0609348, -0.0014812, 0.0360282,
    0.0871177, 0.1294692, -0.1414907, -0.0351169, 0.0244434, -0.0124585, -0.0050427, 0.1257798,
    -0.0076142, -0.0096585, -0.0376247, -0.0322792, -0.0785629, 0.0433702, 0.0167844, -0.0232130,
    -0.0962035, 0.0773742, 0.0956680, 0.0457454, -0.0567315, 0.0395882, -0.0352429, 0.0059961,
    0.0559289, -0.1786462, 0.0651949, -0.0845384, 0.0035115, -0.3434471, -0.1836156, 0.0261647,
    -0.1015157, -0.0216376, -0.0910950, -0.0484277, 0.1980744, 0.0570138, -0.1528172, -0.1223611,
    -0.1088883, -0.0194690, 0.0006465, 0.1358426, 0.0973971, 0.1874861, 0.0103308, 0.1633867,
    0.0730654, 0.2578664, -0.0117349, 0.0757137, 0.1459883, 0.3167132, -0.2663163, -0.1141534,
    0.0699783, -0.2502042, 0.0791675, -0.0484981, -0.0854951, -0.1993474, -0.0856138, 0.0262754,
    -0.1270971, -0.1018836, -0.1913260, -0.0366972, -0.1233016, -0.1238017, -0.0104476, 0.1147933,
    0.0942386, -0.1671775, 0.0485019, 0.1051700, 0.0343898, 0.2959269, -0.2062745, 0.1547434,
    0.0310810, 0.0413872, -0.1043537, -0.0659124, -0.1370582, 0.0367839, -0.0709171, 0.0747617,
    0.0438270, 0.0164951, -0.0442113, -0.1616116, -0.0525330, -0.0096857, -0.1497601, -0.0802395,
    0.0978809, -0.0107462, -0.1825387, -0.2788628, 0.1041244, -0.0581325, -0.0743408, 0.0854962,
};

static float para_enh_features_deconv4_12_bias[16] = {
    0.3056163, -0.5983809, -0.8233506, -1.3988259, 0.3456227, -0.5517380, 0.4689905, -0.3817838,
    -0.2985751, -0.1334677, -0.2428468, -0.3825671, -0.3210831, -0.2760492, -0.5530002, 0.0209898,
};

static float para_enh_features_resnet1_1_weight[288] = {
    0.4506509, 1.4987818, 0.0226802, 0.5844663, 0.3204253, 0.4486651, 0.2338059, 0.8592559,
    -0.3367715, 0.6436401, 0.6961609, -0.6979655, 0.8893362, -1.4262729, 0.6141197, -0.5554549,
    2.8505604, 0.6112444, -0.8948084, -0.5697389, 0.9522595, 0.2460751, 1.3686833, -1.6360179,
    1.4685887, -1.6461136, 0.6341665, -0.9337960, 1.0547971, -0.1751139, 0.6781543, -1.0653917,
    0.0602821, 0.7078458, -0.6538637, -0.3097997, -0.2686205, -1.0399060, 0.8451145, -0.8709408,
    2.0189092, -1.0592254, 0.3628592, -1.4297574, 0.4355507, 0.1739527, 0.5253910, 1.3705295,
    -0.0124508, -1.7514933, 0.3471769, 0.2778547, -1.5994681, 0.7086956, -0.2442421, -1.4232183,
    0.1599162, -0.6169200, -2.8392429, 0.4137283, 0.1099987, -0.7140707, 0.7777934, -0.1489137,
    -1.0814322, 0.4342954, -0.0238502, -1.8359016, 0.3682186, 0.1831607, -0.5271280, -0.1433677,
    0.0852784, -1.2201071, 0.4716339, -1.3087318, 1.3776181, -0.5729752, 0.6965494, -0.7179960,
    0.1302657, -0.2530975, -0.2939135, 0.0969516, -1.6817358, -0.6275609, 0.0480011, -0.5594996,
    0.0856958, 0.0515861, -0.0284141, -0.2201930, 0.0256766, -1.3087697, -0.6792451, -0.2710445,
    -1.0375600, -0.2571086, 0.1373766, 0.2749025, 0.2999582, -0.0353783, -0.7493039, -0.7800646,
    -0.0960281, -0.5197275, -1.2337519, -0.0028951, 0.1295290, 1.3646822, -0.7095882, 0.4541904,
    -1.8594046, 0.4609205, 0.0258250, -1.1096610, 0.7724347, -0.0417013, 0.2309749, -0.2673752,
    0.0212346, 2.3398747, 0.1192173, 0.0074044, 0.6102165, -0.1280482, -0.0824017, -0.5719734,
    -0.3190733, 0.7838123, 3.0950339, 0.7669654, -0.0096981, 1.7562810, -0.2049668, -0.3943958,
    -0.4234921, -0.6925895, -0.3902864, -2.1138504, -1.1756310, -1.0254984, -1.7543012, -0.2868429,
    0.4634456, -1.8026619, -0.6100885, -0.2264700, -0.3543247, -0.7961043, 0.7360263, -1.2807323,
    -0.2168564, 0.4572620, -0.5466586, 0.6754780, 0.5462303, 0.4571469, 0.0869420, 0.1059927,
    -0.6579211, -0.1987865, -0.7892882, 2.2649982, -1.1289796, -0.2803289, 0.9443502, -1.1332079,
    0.1556529, -0.1307780, -0.0801368, -0.7268065, -1.5052711, -0.6438652, -0.4857349, 1.1561105,
    -0.0047093, -1.0076674, -0.7874349, -1.0187055, -0.2031324, 0.2582300, 0.0649128, -0.3546701,
    2.4529302, -1.6683775, -0.5167953, -0.7906064, 0.0325960, 0.6154262, 0.3411945, 0.2089400,
    0.4608662, 2.7904143, -0.5557410, 0.2601345, -0.5250205, 0.2626561, -0.0302518, -1.2203282,
    -1.5062352, 0.3659727, -0.0692504, 0.6272397, -0.7149922, -1.6638685, -0.7649383, 0.6583886,
    0.9387016, 0.7258764, -0.2051332, -0.8556984, 0.3874178, -0.6168653, 1.4156221, 0.5225531,
    1.0752264, 0.4398539, 1.3326663, -0.2035332, -0.9124701, -0.4903075, 0.6646661, 0.7159381,
    0.8212023, 0.6184425, 1.1118244, 0.5770636, 0.2040552, 1.0262303, -0.0039475, 0.7967400,
    1.8691489, 0.4794378, 0.7589029, 0.4652860, -0.9020686, 0.6408145, -0.2259927, -1.5528224,
    1.1008215, 2.7693791, 0.8939638, -0.5278670, -1.1085368, 0.5197643, -0.0425324, -1.0237905,
    1.4074633, -0.7126486, 0.6206375, 0.3198629, 0.2576071, 1.2193965, 0.4018868, 1.2457952,
    -0.5313308, 0.3473671, 0.4586841, 0.7543575, 0.6753739, -2.6643348, 1.2610621, -0.1832244,
    -0.5385268, -0.4373082, -0.1502687, -0.2964290, -0.8267847, 0.0903671, 0.8717120, -0.1256952,
    0.1566278, 1.1587927, 0.4077050, -0.8801311, 1.1136035, -0.2223388, 0.5072222, -0.5302609,
    -1.5140351, 1.7827156, -0.9062803, -0.0319051, 1.2246131, 0.2444106, -0.3357004, -0.1409133,
};

static float para_enh_features_resnet1_1_bias[32] = {
    -0.7411742, -0.4150855, 0.1139717, -0.4314786, 0.6991425, 0.1868939, -0.5749011, 1.6235346,
        -0.1762804, 1.2466055, 0.5785747, 1.0894625, -0.1347543, 0.3547234, 0.0288772, -0.2809104,
        0.9205573, -1.0543900, -0.1756782, -1.5747496, 0.1796977, -0.1532315, 0.2023550, -0.4148736,
        -0.4623046, 0.6768606, -0.3180200, -0.4314332, 0.3838519, -0.1090178, -0.2627821, 0.2468913,
    };

static float para_enh_features_resnet1_2_weight[1024] = {
    -0.6321012, -0.1921482, 0.1035313, 0.4544682, 0.0142962, -0.0622032, -0.5521467, -0.0471203,
        -0.6025345, 0.7500131, -0.4222736, -0.5263979, -0.4252276, 0.3986525, -2.7361226, 1.4450353,
        -1.1444463, 1.2345362, -0.1895495, 0.8344647, -0.1801033, 1.4869431, -0.2180494, 0.6483411,
        -0.7088744, 1.2105018, 0.1421471, -0.5199566, 0.8320516, 0.0279965, -0.1984531, -0.0702618,
        0.7401439, -1.0069219, -0.4330711, 1.5331826, 0.4206990, -0.4463161, 0.1561133, 0.9924951,
        0.6915647, -0.0977665, -0.1851932, -0.4723333, 0.0291704, -0.1479640, -1.2915120, 0.9177540,
        -0.4407917, 0.6325925, 0.1947311, 1.3688650, -0.0507993, 0.3137660, 1.7451925, -0.8508971,
        0.1789719, -0.9088935, -0.9214489, 0.9326585, 0.6259923, -0.7801771, -0.0401557, 0.4315509,
        0.8698255, 0.0449339, 0.0314804, 0.7755352, 0.1131272, 0.1339484, -0.6252935, 0.6011636,
        0.3339669, -0.7538611, -2.1610644, -1.0260420, 0.5964446, -0.0184012, -1.7731388, -0.6922134,
        -0.7474454, -0.3453833, 0.4202344, 0.7718563, 0.6906000, -0.0615059, -0.9075611, 0.0652694,
        -0.4514421, 0.4275318, 0.0387232, -0.3017433, -1.0666066, 1.0786737, -0.2055514, 1.3012943,
        -0.3506244, 0.3751496, 0.6848021, 0.6439707, -0.8129825, -0.3320490, -1.6578231, 1.0133499,
        0.3025251, -0.2962274, 0.0027443, 0.6705853, -0.2778055, 1.6968900, 0.2345419, 0.1798001,
        -0.5480512, 0.5282980, 2.3222120, -0.7076168, 0.8046864, 1.1817755, -0.5240399, 0.8119175,
        -0.2843808, 0.1132267, -1.3964906, -0.9319451, -0.9283521, 0.5413926, 0.4330012, -0.3284428,
        0.6647375, 0.1892845, 1.3577334, 0.3784924, 0.7489756, -1.1409570, 0.4491399, 0.1828310,
        1.6788270, -0.4817128, 0.0283355, 0.2005506, 1.3665241, 0.0046956, 0.2362406, -0.7725204,
        -0.7138909, 0.2866739, 0.5511408, 0.2673137, 1.9813601, 0.0028861, -1.0442727, -1.4117360,
        0.4283732, -1.1819148, -0.3684439, 0.2271226, 1.3257052, 0.7949313, 0.2000289, -0.5786743,
        -0.2843930, -0.1805406, -0.6883769, -0.6434891, -0.5312077, -0.5031188, -0.1399565, 0.4412455,
        -0.8551598, 0.2139135, 0.3079418, 0.7397113, -0.8539072, 1.2384086, -1.0641489, -1.8435538,
        -0.0197947, -0.1875317, -0.4348077, 1.0852787, 0.4088091, 1.1471891, 1.2260458, -1.2114321,
        1.2886835, -0.6214542, 0.0292931, -0.8869634, 0.1177246, -0.0826359, 1.0913925, 1.0891045,
        1.8210324, 0.5908392, 0.0427825, -0.6850254, 0.2172899, 1.2623972, -1.6441873, -0.0730839,
        -0.2824834, -0.2734634, -0.4508729, -0.5503037, 0.7793382, 0.0454604, 1.1665984, 1.1160994,
        -0.9547572, 0.0713532, 0.4478778, 0.7898826, -0.5288581, -1.5888120, 0.0340384, 0.1932048,
        -0.5574663, -0.3667518, 0.3594287, -0.5902278, 1.3168876, 0.4711648, 0.1835897, -0.3587752,
        0.6889645, -1.4313338, -0.7598028, 0.6711177, 2.0848751, 0.0459972, -0.6581547, -0.5609151,
        -1.3665004, -0.3411196, -0.2632585, -0.2872605, -0.9825965, -0.1664076, 0.1210616, -0.3760303,
        -0.3336712, 0.4024547, -0.0496927, 0.6339881, 1.8313550, -0.6088731, -0.3804659, 0.2087546,
        -1.0171629, -0.8354549, 0.4680216, -0.0036762, -0.2725568, 0.0012571, 0.7219108, 0.5134990,
        -0.0163682, 0.0462564, 0.3405221, -0.0503414, -0.3483302, 0.9402425, 1.2514654, -0.7658848,
        0.1381834, -0.4297724, 0.6342404, 2.4555829, 0.1562238, 1.4469469, -0.7943854, 0.2409131,
        -0.5030420, -0.0640761, 0.0824436, -0.1515384, 0.0104343, 1.4034768, -0.8230938, 0.8007036,
        0.2258257, 0.6046353, 1.0864260, 0.8832911, -0.0907665, 0.1951552, 0.9347402, 0.6248425,
        0.1062767, 0.4662251, -1.0838516, -1.4193437, -0.4417912, 0.6672153, -1.5087836, -1.2291197,
        -1.6760875, 0.0808061, -0.5478989, -0.9023193, -0.9381340, 0.3706045, -0.2680269, 0.5124362,
        -0.3758623, 0.1062652, 0.2869965, 0.9185692, -1.0111141, -0.6126273, 0.0450507, 0.2432399,
        1.1227978, -0.3302586, -0.0775878, -0.6597417, 0.1150646, 0.4278519, -0.7004555, -0.3639585,
        0.7613903, 0.2017052, -0.6888779, -0.1919609, 0.4023893, -0.3081360, 1.3125004, -1.2976919,
        0.3045403, 0.1911607, -1.0110421, 1.7726334, -0.4368336, 0.3159027, 1.7690172, -1.7117777,
        0.6525124, 0.7906701, 0.0202935, 0.4138451, -0.2025690, 0.2904555, -0.5899836, 0.2842499,
        -0.8398679, -0.7566497, -0.0562840, 1.0912224, -0.1238362, -0.1920266, -0.1779951, 0.3240681,
        -0.0206771, 0.9658962, -0.2568060, -0.5024683, -0.6556009, -0.9073471, 0.4631161, 0.6331365,
        -0.2112876, -0.8082088, -0.9058881, -0.1453310, 0.2376033, 0.8466061, -0.1469903, -0.0292905,
        -0.3965142, 0.4884597, 0.2149080, -0.8410473, -0.2548844, -0.6307573, -0.2343320, 1.2626425,
        0.3405765, 1.6037754, 1.6804518, 0.9820198, -0.5492322, -1.1880909, 0.1205535, -0.7358031,
        -0.2829028, 1.0761629, -0.5352371, 0.4788591, 0.1983169, 0.7508423, -1.3622694, 0.6451291,
        -0.4329083, -1.0224080, -0.5661688, -1.2499779, 0.8936225, 1.0001416, -2.1964684, 0.3183548,
        1.2009895, -0.1608077, -0.3287727, 0.6071346, 0.7144972, -1.6351931, -0.2221851, -0.3244776,
        0.8182135, 0.0753802, 0.1309710, -0.5900823, 1.2012725, 0.0920958, 0.2439731, -0.1737053,
        1.1289024, 0.4609388, -1.6710291, 0.4030468, 0.9507437, -0.4255230, 1.1689498, 0.1314920,
        0.6873002, -1.3689903, 0.6019363, -0.1364211, 0.2179796, -1.3575193, 0.7003815, 0.3610545,
        -0.5052921, 0.5235229, -0.3166668, 0.7511161, -0.5735880, -0.1366193, -0.0838930, 0.6904513,
        0.1629426, -0.1765808, 0.6176466, 0.5946869, -0.7954643, -1.0277089, 0.3980544, -0.5627661,
        -0.4645927, -1.7647847, 0.3485667, 0.4418563, -0.1574608, -0.4878371, 0.0930572, -1.6529312,
        0.3343594, -1.5870911, -0.2762290, 0.1917762, -0.3909450, 0.0178266, -1.8486046, -1.1998153,
        0.3185748, -0.0317208, -0.6209875, -0.8792162, -0.0725065, 0.7564493, 0.4497342, 0.1916128,
        0.8392071, -1.3099955, -1.7025383, 0.6139721, -1.1525060, -0.2068734, -0.0659429, 0.1843482,
        1.1855481, -0.0413633, -0.2236796, -1.2175858, -0.4655011, -0.1793522, 0.5713440, -0.7302682,
        0.0249557, -0.2183339, 0.3883860, 0.4163782, 0.4726113, -0.1420939, 0.8893176, -0.2723723,
        -0.7734932, 0.2777767, -1.3148175, 0.6142025, 0.8379149, 1.7329555, 0.8400367, -1.4390435,
        1.1293870, -0.4637595, -0.5490434, 0.6103392, -0.2141846, 1.4116032, 0.9888933, 0.1165926,
        0.2844567, -0.7671729, -0.5831617, -0.6316882, 1.2313945, -0.6618473, 0.9311827, 0.1814133,
        -0.1037710, -0.3578789, -1.4291228, 0.6230291, 0.2049832, -0.4539397, -0.1539222, 1.1925740,
        -1.2828792, 0.5456237, -0.7410091, -1.2166800, -0.2263602, 0.5359540, 0.4455408, -0.3190031,
        -0.1560934, -0.6605722, 0.5732403, -0.9623721, -0.1832532, -1.2494974, 0.8008373, -0.0577063,
        0.2484830, 0.9189529, 0.6768675, -0.4474970, -1.9025775, -0.2574744, 0.1193732, -0.5254561,
        0.3902141, 0.6135775, 0.3356188, -1.0525285, -0.4695493, 0.4861840, 0.3737777, 1.1703966,
        -0.5960066, 0.5665204, -0.3568062, 0.9200046, -0.8312685, 0.3719006, -0.5865012, 0.6820031,
        -0.3072514, 1.0802299, 0.1213921, 0.1171393, 0.5465378, 0.9764696, 0.7585105, -0.0503536,
        0.3731857, -1.4573753, 0.2609898, 0.3551205, -0.1197158, -0.5967770, 0.0073840, -0.8508609,
        0.2009962, -0.0566569, -0.4447044, -0.2398526, -0.8112233, -0.8884594, 0.2831430, -2.2304394,
        0.8705075, 0.1005736, -0.0792661, -0.3420557, -0.1052617, 0.3034741, 0.1358121, -0.2791752,
        0.2090825, -1.2380989, -0.6369727, 0.6848830, -0.0271186, 0.1145853, -0.9054884, -1.0665518,
        -1.0999632, -0.6627469, 0.2144230, 0.1263392, -0.2896487, 0.2109960, -0.4602879, 1.1043392,
        -0.6147172, 0.2227874, 0.0878860, 0.3787978, 0.2221975, -0.2887020, -0.6746528, -0.1258690,
        -2.2595618, 0.7786325, -0.2851007, 0.6625257, 0.4172405, 1.2991164, 0.2606122, -1.0929415,
        -0.5953147, 0.9740583, 2.3062227, -1.1861335, 0.0744903, -0.2303231, 0.8223673, -0.1866276,
        0.4009733, 1.1516004, -0.7376768, -0.1404072, 0.5079068, -0.7917800, -0.2401424, 0.7921944,
        -0.1033366, -1.4284168, -0.0557389, -0.1723126, 0.6643368, -0.4781117, -0.9251385, 1.1102766,
        -1.2176055, 0.1308144, 1.4391634, 0.7707980, -0.6187102, -0.8777273, 1.0733286, 0.4782017,
        0.1267330, 0.5185988, -0.3128720, -0.7164567, -0.4456496, 0.3807698, 0.5555081, 0.7544983,
        -0.5288410, 0.7153235, -0.2386872, 0.3564880, -0.0350333, 0.8127456, 0.1143849, -0.8453311,
        0.0172794, 0.1633721, -0.1656550, -0.6651680, -1.3934952, 0.8436865, -0.7873428, 0.6353180,
        -1.1197870, 0.0964102, -2.9234405, 1.1749178, 0.3808684, 0.1885853, 0.4459627, 0.3415690,
        0.3656075, 0.1160730, -0.0585087, 0.4819819, 0.2511957, -0.7780126, 1.6862338, 0.8509096,
        -1.0461043, 1.0420223, -2.0111883, 0.1627760, -0.2280454, 0.2705786, 0.1618594, -0.1847506,
        0.4970270, 0.0572943, -0.0020076, -0.0534524, -0.5148094, 0.9160498, -0.1481557, -0.6886888,
        -0.9270660, 1.0323293, 0.0761559, -0.7355794, -0.5319051, 0.4753538, -2.6905932, -1.1803421,
        -1.2063277, -0.6180800, 0.1994180, 0.7776546, 1.9897197, 0.4728733, 0.6113926, -0.1287525,
        0.7566565, 0.3613459, -0.9075019, -0.2724038, 0.5128822, 0.0839463, 1.4940621, -1.2539899,
        0.2159132, -0.1896658, 0.2812575, -0.4484408, 0.2741983, -0.1345920, -0.1834215, 0.1613532,
        1.0627595, -1.8172083, -0.2922609, 0.3047744, -0.7606144, -0.6227530, -0.9092507, -0.4074978,
        2.4877987, 0.8331693, -1.1694719, 0.8215639, 0.6442067, 0.4830423, 0.8334420, 0.8557699,
        0.4033886, -0.4937294, -0.5248476, 0.9817996, 0.4391045, -0.3282696, 1.3617293, -0.3605304,
        0.3101547, -1.0664575, 1.2397397, 0.0205563, -0.4209385, -0.1800968, 0.8957469, 1.1973902,
        -0.9292381, 0.3950431, -0.0670385, -0.1519217, -1.7782290, 0.8788621, -0.2608537, -0.1977666,
        0.4369560, 1.2698172, 0.0601403, 0.5966751, -0.2406351, 0.0807549, 1.3673406, -1.1636884,
        0.1632952, 0.5092635, 0.0062547, 0.2084861, -0.8290153, 0.7775524, 0.9386901, 0.2607003,
        0.4622544, 0.3511350, 0.3587313, -0.4569229, -2.2893474, 0.6089992, -0.4170612, 0.1779176,
        -0.4006122, 0.1935198, -0.4911571, 0.8010507, -1.0664998, 1.0075976, -0.3193667, 0.1264376,
        0.2751398, -0.3586490, 0.5180417, -0.7727843, 0.8941641, -2.8546281, 0.2445694, -0.1545882,
        0.3177721, 0.1956955, -0.7699702, 0.2448585, 0.0360495, -0.1487303, 0.2930931, -0.0880543,
        -0.3094366, -1.1619787, -0.0669085, -0.0763648, -0.1326320, -0.7083184, -0.2379633, 0.7263354,
        -0.2319934, -0.0288580, -1.1615258, 0.1706269, -1.4424077, -0.8426011, -0.2330767, -0.0225040,
        0.8876582, -0.1996486, 0.8733634, 1.1123003, -0.5246146, -0.9582288, 0.3890402, -1.6854692,
        0.0966738, 0.2197320, -0.0439496, 0.3980947, -0.1435376, 0.2980946, 0.8870644, -0.4304940,
        0.1630786, 1.8082651, -2.2570198, -1.1809148, -0.5061246, 0.7155507, 1.2282341, -0.1634560,
        -0.6776014, -0.2492124, 1.1038305, -0.2945126, 0.6340562, 1.1348381, 0.0393198, 0.3594041,
        -0.6091307, 0.1083693, -2.0514851, -0.7378745, 0.6665952, -0.0507914, 1.1550922, 0.3438274,
        -0.1159113, 0.6356208, 0.4950131, 0.3015361, -0.7339114, -0.6049842, -1.8156501, 2.0883474,
        0.0021243, -0.1660839, 0.5377469, 0.4497703, 0.4471972, 2.0507317, -0.7512565, -0.4136398,
        -1.0085833, 0.3404915, 1.0915265, -0.0886538, -0.0085104, -0.8511031, -0.8196113, -0.5925535,
        1.0895339, -0.5785646, 1.2208675, -1.2217749, -0.5974455, 0.2607513, -0.0077257, 0.3749494,
        -0.1723541, 0.1535090, 1.9236495, 0.9988365, -0.9642985, 2.5626636, 0.4878599, 0.5625749,
        0.4249579, -0.7856650, 0.5284107, -0.2714527, -0.7327878, -0.5028154, 0.3379817, -0.7872540,
        -1.2851605, -0.3867439, 0.4875360, -0.2754715, -0.0059088, -0.3771611, -0.7117566, 0.7321334,
        -0.5980818, -0.5616412, -1.8661627, -0.8865942, 0.4502692, 0.2937355, 0.9560909, 0.5525534,
        0.2028144, 2.0859277, -1.0280591, 0.6663149, 0.1063611, -1.6209913, -0.0344493, -0.7819325,
        -0.1151460, 0.1718515, -0.1487489, -0.0873735, 1.3432074, 0.2186589, -0.3500950, 0.0374865,
        -0.2865673, 0.0876028, -0.7648602, 1.8191894, -0.3163031, 0.6730857, 1.4472840, 1.0650446,
        1.0989054, -0.7608907, 0.6366531, -0.2166773, -0.3838479, -0.1262706, 1.5662802, 0.7431295,
        1.0577056, -0.8330934, -0.7378836, 0.1086860, -0.3689507, -1.9528903, -0.4443784, -0.6065798,
        1.6731305, -0.5371413, -0.0242081, 0.2043080, 0.9925052, 0.0683687, 0.3736272, -0.5921837,
        -0.4059741, -0.2296382, 0.6478699, 0.8241087, 2.4085319, -0.7461266, -1.2091700, 0.4131998,
        -1.4753699, -0.4592277, 0.7465732, -1.3491820, 0.7428589, 0.1848559, 0.0087578, 0.3555048,
    };

static float para_enh_features_resnet1_2_bias[32] = {
    -2.4754283, -0.5185130, -2.0865107, -0.6480745, -0.6735435, 0.0977942, -0.8059013, -0.2470861,
        1.3389816, -2.3850083, 0.2900501, -1.0583624, -2.5928094, -2.0683770, 0.4326438, -1.5865006,
        -0.4463349, -1.3008947, -3.8612933, -1.5943513, -0.8126425, -0.7939995, -0.3155169, 0.1155329,
        -2.2800586, -0.8123733, -2.0638602, -1.3491166, -1.1529899, -1.1347183, -0.5341972, -0.3786862,
    };

static float para_enh_features_resnet1_3_weight[288] = {
    -0.9449569, -0.3235698, -0.3552332, -0.9308301, -1.0502837, -1.4802438, -0.6426671, -0.9152654,
        -0.7761463, -0.6505805, -0.8034103, -0.5292017, -1.1254880, -0.6474602, -0.8619813, -0.6964604,
        -0.5865297, -0.8508314, -0.4745717, -1.0592355, -1.1278126, 0.0076180, -1.2340184, -1.3582249,
        -0.3049621, -0.8494020, -0.7470135, -0.0504741, 1.8920460, 0.0975639, -0.0789515, 2.0545623,
        0.0787886, 0.0561293, 1.5143342, 0.0521658, 0.4682445, 0.5702927, 0.6238260, 0.5285628,
        0.8330433, 0.7641069, 0.5969209, 0.7637402, 0.5144009, -0.3069439, -0.6741745, -0.7421524,
        0.0554460, -0.7975479, -1.2000535, -0.0008961, -0.4354627, -0.5709730, 0.6520348, 0.7997998,
        1.1428750, 1.0502173, 0.9332829, 1.4391541, 1.2726762, 0.6262296, 1.5479548, 0.4389157,
        0.5498448, 0.7572806, 0.6052027, 0.6571558, 0.6785313, 0.9517239, 0.6042719, 0.4499871,
        0.9864791, 0.7867692, 0.2874034, 1.1183505, 1.1632326, 0.0999646, 0.5760154, 0.6877223,
        0.0874638, -0.3020781, -0.8848519, -0.5318564, -0.6258476, -1.1855475, -0.3852541, -0.5772637,
        -0.5921338, -0.2923331, -0.7903812, -0.8273864, -0.7360564, -1.2772439, -1.1564201, -0.8484184,
        -0.7007622, -0.6072474, -0.2620640, -0.1133761, -0.5696224, -0.1888270, -0.2208797, -0.9150730,
        -0.3872248, -0.2123648, -0.6414194, -0.3468153, 0.5419012, 0.8500230, 0.2809286, 0.7271832,
        0.3930891, 0.0716153, 0.6833588, 0.9006098, 0.4619022, -0.7960423, -0.2180995, 0.4563827,
        -1.5606854, -0.3535150, 0.9093252, -0.6982393, -0.2242346, 0.2401816, 0.6539821, 0.7574732,
        0.5498222, 1.0474508, 1.8007210, 0.8339205, 0.5912756, 1.2273568, 0.4083423, 0.3864169,
        0.5230929, 0.7543299, 0.7951803, 0.6222733, 0.8800310, 0.4713224, 0.4519749, 0.9629498,
        0.4677758, 0.5392886, 0.3582755, 0.6947192, 0.9185432, 0.4907337, 0.3952805, 0.5258985,
        0.2185362, -0.3890715, -1.2113359, -0.4660008, -1.4214201, 0.3080302, -0.7681305, -0.8930119,
        -0.6527730, -0.5839025, 1.3017030, 0.8448611, 0.6218469, 1.4732682, 1.2557507, 0.6917298,
        1.2112380, 0.9474570, 0.2584915, 0.6270005, 0.9391831, 0.8466519, 1.1779647, 1.8921324,
        1.5125915, 0.4815507, 0.5874699, 0.4695943, 0.6050125, 0.6442761, 0.5058509, 0.6213939,
        0.5941357, 0.6311002, 0.5317736, 0.6570208, 0.6448929, -0.9167042, -0.2155858, -0.7148148,
        -0.8634803, -0.3891748, -0.7389093, -0.7678668, -0.7958871, -0.4385226, -0.5684389, -0.7008021,
        -0.5377324, -0.7574641, -0.7823693, -0.5545800, -0.8240681, -0.7281358, -0.5150741, -0.5189708,
        -0.6920673, -1.0795017, -1.0874043, -1.0478816, -1.4227301, -0.5630735, -0.5643013, -0.8988960,
        -0.9154370, -0.7011551, -0.8874457, -0.6918987, -0.7802798, -1.0755318, -0.8073809, -0.8616612,
        -1.0049926, 0.7480739, 0.9759127, 0.6099057, 1.4179407, 0.4257081, 0.7543277, 1.2135717,
        0.7728022, 0.3761024, -0.7764472, 0.6790006, 0.8566842, -1.1688111, 0.9994195, 1.1444842,
        -0.4466543, 0.3928420, 0.3709500, 0.1526601, -0.1825484, -2.7972620, 0.2009200, -0.1046239,
        -3.0423131, 0.1318147, -0.1123751, -2.2552361, 0.0038667, 2.6549041, 0.0930312, 0.0304988,
        3.6642866, 0.0640671, 0.1468438, 2.5840247, -0.0234647, -0.7064416, -0.7704043, -0.7955416,
        -0.8306653, -1.0532998, -1.1746851, -0.6608898, -0.8877195, -0.8201970, 0.5749218, 0.8111619,
        0.4633982, 0.7764689, 1.3588407, 0.4264207, 0.5859358, 1.2393218, 0.3457401, -0.6924181,
        -0.7835934, -0.6319556, -0.7288710, -0.8393340, -0.7285400, -0.7263896, -0.8350853, -0.5969771,
    };

static float para_enh_features_resnet1_3_bias[32] = {
    -0.0116329, 0.0064495, 0.0075807, -0.0089291, -0.0074298, 0.0148060, -0.0181338, 0.0096739,
        -0.0197763, -0.0018304, -0.0091647, -0.0046856, 0.0067549, 0.0153734, 0.0092757, -0.0192633,
        -0.0097774, 0.0057613, -0.0118741, 0.0307923, 0.0070126, 0.0032999, -0.0012503, 0.0072746,
        -0.0076530, -0.0105398, -0.0034433, 0.0132842, -0.0275771, -0.0090087, 0.0280743, 0.0000292,
    };

static float para_enh_features_resnet1_4_weight[1024] = {
    -0.0032648, 0.0013776, 0.0034006, -0.0002325, 0.0046757, 0.0076646, 0.0002226, 0.0040672,
        -0.0045250, -0.0040916, 0.0420558, -0.0017592, 0.0038585, 0.0146464, -0.0092058, 0.0015081,
        0.0083974, -0.0045984, -0.0051584, -0.0233691, -0.0013228, -0.0019360, -0.0056583, -0.0076869,
        -0.0061338, 0.0011962, 0.0066196, 0.0094544, 0.0029229, -0.0072863, -0.0085175, -0.0008839,
        -0.0071592, -0.0029616, 0.0042834, -0.0007719, 0.0072142, -0.0048539, 0.0099982, 0.0029329,
        0.0068486, -0.0064696, -0.0054563, -0.0001351, -0.0029626, 0.0102736, 0.0042496, -0.0005949,
        -0.0032028, 0.0076322, 0.0048976, 0.0117111, -0.0081537, 0.0145279, 0.0239148, 0.0127936,
        0.0185956, 0.0022598, 0.0007881, -0.0013842, -0.0000375, -0.0068702, -0.0106255, 0.0049971,
        -0.0009024, -0.0047241, 0.0035227, 0.0030010, 0.0044017, 0.0002792, 0.0076225, -0.0016041,
        -0.0007353, -0.0024304, 0.0026572, 0.0036320, -0.0054377, 0.0061990, 0.0094525, -0.0108576,
        0.0019429, 0.0083127, 0.0055759, -0.0052765, -0.0003540, 0.0170977, 0.0108299, 0.0005060,
        0.0109309, -0.0046313, -0.0053486, -0.0006904, 0.0026950, -0.0134022, -0.0025351, 0.0127650,
        -0.0026156, -0.0034319, -0.0079338, -0.0112991, 0.0006528, -0.0044068, -0.0045813, 0.0063163,
        -0.0296320, -0.0061125, 0.0120296, -0.0002084, -0.0089327, 0.0059169, 0.0144839, 0.0138411,
        0.0046222, 0.0013318, -0.0119222, -0.0017751, 0.0048731, -0.0093081, -0.0005892, -0.0025083,
        -0.0108093, 0.0020770, 0.0154650, 0.0659677, -0.0900161, -0.0122481, 0.0024692, -0.0048476,
        0.0031731, 0.0001184, 0.0040250, -0.0010469, 0.0064698, 0.0052629, 0.0037293, 0.0080438,
        0.0004477, -0.0086401, 0.0314470, -0.0054437, 0.0037018, 0.0072983, -0.0152887, 0.0055963,
        0.0105112, -0.0027452, -0.0090362, -0.0277425, 0.0008597, 0.0012641, -0.0071482, -0.0135086,
        -0.0020663, 0.0020163, 0.0017932, 0.0103759, 0.0009277, -0.0030620, -0.0051063, -0.0071200,
        -0.0180875, -0.0062057, 0.0030883, -0.0016491, -0.0280513, 0.0413407, 0.0027229, 0.0057292,
        0.0116873, -0.0030629, -0.0110440, 0.0408693, 0.0338868, -0.0025875, 0.0055365, -0.0235131,
        -0.0069836, -0.0048740, -0.0279282, 0.0038866, 0.0049303, -0.0039601, -0.0058027, 0.0060048,
        0.0321376, -0.0299752, 0.0060877, 0.0016920, -0.0038049, -0.0130790, 0.0208947, 0.0123572,
        -0.0186131, -0.0000562, -0.0080854, -0.0002625, 0.0057549, -0.0242407, 0.0004190, 0.0096725,
        0.0113273, -0.0000998, 0.0003734, 0.0177607, -0.0160657, -0.0059047, -0.0292806, 0.0064030,
        -0.0216035, -0.0066009, 0.0280689, 0.0089760, -0.0033930, 0.0155333, 0.0233025, 0.0079233,
        -0.0043150, -0.0095221, -0.0136992, -0.0072964, 0.0026280, 0.0055350, 0.0022120, 0.0036969,
        0.0047169, -0.0045412, 0.0159389, -0.0201888, 0.0092541, 0.0004767, 0.0074493, 0.0067483,
        -0.0128714, -0.0159341, 0.0087806, -0.0117413, 0.0081427, -0.0061104, -0.0027551, 0.0099788,
        0.0125167, -0.0036216, -0.0129987, -0.0242998, 0.0086136, 0.0007951, -0.0050815, -0.0117662,
        0.0045531, 0.0026356, 0.0081021, 0.0377772, -0.0046053, -0.0051479, 0.0023793, -0.0111415,
        0.0076484, -0.0038123, -0.0079046, 0.0010080, 0.0005568, -0.0065065, -0.0081934, 0.0001380,
        -0.0053699, -0.0065472, 0.0054954, -0.0072275, -0.0052174, 0.0003357, 0.0081648, -0.0009132,
        0.0091366, -0.0044745, 0.0066692, -0.0132798, 0.0036011, -0.0007602, -0.0030802, -0.0056700,
        0.0003742, 0.0070294, 0.0033162, 0.0087061, 0.0002151, -0.0066786, -0.0006398, -0.0048762,
        0.0021925, -0.0114944, -0.0036374, -0.0370173, 0.0003702, 0.0021838, -0.0031418, 0.0044976,
        -0.0267950, -0.0102426, 0.0022438, -0.0002608, 0.0014037, 0.0139880, 0.0146991, 0.0146961,
        -0.0017149, 0.0050974, -0.0105550, 0.0025528, 0.0206526, -0.0135952, -0.0010832, -0.0018401,
        -0.0148204, -0.0011104, 0.0192374, 0.0716300, -0.0839118, -0.0067942, 0.0087229, -0.0054158,
        0.0029677, -0.0120038, -0.0201212, -0.0368936, -0.0024198, 0.0189439, 0.0038845, 0.0066865,
        -0.0339441, -0.0119264, 0.0037961, -0.0012116, -0.0100106, 0.0136771, 0.0176946, 0.0140484,
        0.0017915, 0.0090800, -0.0179155, 0.0036383, 0.0301443, -0.0114286, -0.0022163, -0.0069841,
        -0.0212728, -0.0031224, 0.0154558, 0.0875289, -0.0832679, -0.0105410, 0.0138748, -0.0055872,
        -0.0094035, -0.0053494, -0.0498697, -0.0741492, -0.0051850, -0.0154955, -0.0170477, 0.0038184,
        -0.0136154, -0.0074460, -0.0037223, -0.0147589, -0.0036723, 0.0046315, 0.0295648, 0.0118582,
        0.0188838, -0.0030967, -0.0097561, 0.0291235, 0.0103569, -0.0156890, 0.0014684, -0.0020325,
        -0.0233170, 0.0096537, 0.0090689, 0.0298065, -0.0068296, 0.0016527, -0.0031062, -0.0093358,
        -0.0099301, 0.0012199, 0.0226961, -0.0523495, -0.0028286, 0.0173640, -0.0008632, 0.0079486,
        -0.0231303, -0.0063107, -0.0171990, -0.0143988, -0.0014439, -0.0001463, 0.0376840, -0.0037021,
        0.0209896, -0.0037928, -0.0473421, 0.0123026, 0.0210404, -0.0197468, -0.0038631, 0.0076580,
        -0.0268097, 0.0004613, 0.0299265, 0.0364931, -0.0119672, -0.0168192, 0.0138539, -0.0080190,
        -0.0080096, -0.0045040, -0.0262813, -0.1366593, -0.0035299, -0.0073782, -0.0035508, 0.0083928,
        -0.0151502, -0.0003503, 0.0012253, -0.0065070, 0.0210278, 0.0185621, 0.0104621, 0.0237175,
        0.0062838, -0.0089427, -0.0116181, 0.0244814, 0.0227252, -0.0134219, -0.0002867, -0.0106664,
        -0.0269976, 0.0029921, 0.0036644, 0.0219654, -0.1048204, 0.0045242, -0.0068125, -0.0143312,
        -0.0244335, 0.0004630, -0.0086239, -0.0006188, -0.0032779, 0.0245201, -0.0083936, 0.0001679,
        0.0263962, -0.0019446, 0.0024511, 0.0202465, -0.0099123, -0.0030686, -0.0141431, -0.0065664,
        0.0062614, -0.0143551, -0.0018812, 0.0045044, -0.0038746, 0.0033136, 0.0157879, 0.0167285,
        -0.0096139, 0.0019002, -0.0136418, -0.0128674, 0.0033904, 0.0087382, 0.0027701, 0.0039845,
        0.0046979, -0.0018159, 0.0161070, -0.0366401, -0.0009400, 0.0160114, 0.0031734, 0.0079131,
        -0.0346183, -0.0093138, -0.0132772, -0.0122715, 0.0110248, -0.0047055, 0.0225460, -0.0033342,
        0.0134197, 0.0045918, -0.0314082, 0.0038259, 0.0244583, -0.0088570, -0.0054565, 0.0025464,
        -0.0083953, -0.0030534, 0.0179544, 0.0289913, -0.0122718, -0.0116373, 0.0138213, -0.0079301,
        -0.0066969, 0.0399328, -0.0094935, 0.0013160, -0.0068335, -0.0042660, -0.0197757, 0.0097359,
        0.0089173, 0.0093465, 0.0033071, 0.0006093, 0.0067639, 0.0104908, 0.0167148, 0.0002429,
        0.0003626, -0.0064198, 0.0132993, 0.0203514, -0.0367890, 0.0300975, -0.0078430, -0.0244398,
        0.0021982, -0.0066538, -0.0079020, -0.0030972, 0.0019381, 0.0117346, -0.0212821, -0.0168138,
        0.0001103, 0.0165968, 0.0021467, 0.0068242, -0.0057334, -0.0079505, -0.0113565, -0.0009040,
        0.0014271, 0.0052444, 0.0131830, 0.0011785, 0.0062087, -0.0094833, -0.0119836, -0.0039299,
        0.0053380, 0.0013027, 0.0039892, -0.0078291, -0.0144537, 0.0175909, -0.0089976, -0.0181869,
        0.0012937, -0.0100575, -0.0110882, 0.0003305, 0.0051179, 0.0085218, -0.0198739, -0.0056757,
        -0.0095006, 0.0002847, -0.0036915, -0.0040180, 0.0022341, -0.0096074, 0.0254631, -0.0089964,
        -0.0063910, -0.0070364, -0.0115524, 0.0318986, -0.0218933, 0.0574905, 0.0137273, -0.0053347,
        -0.0419273, 0.0112596, 0.0149533, 0.0161056, 0.0048332, 0.0028550, -0.0026419, -0.0061333,
        -0.0129492, -0.0364456, 0.0051773, 0.0097757, -0.0167967, -0.0196617, 0.0080020, 0.0157183,
        -0.0095425, 0.0203002, 0.0192128, 0.0012211, -0.0045145, 0.0088364, 0.0150524, 0.0013571,
        0.0026955, -0.0024574, 0.0250657, 0.0127973, -0.0007666, 0.0023163, 0.0104994, -0.0157122,
        -0.0038417, 0.0062614, 0.0042230, -0.0417906, -0.0095865, 0.0117266, -0.0127995, -0.0164925,
        -0.0011977, -0.0232686, 0.0012510, 0.0055136, 0.0038707, -0.0074417, 0.0088554, -0.0050894,
        -0.0032932, -0.0120718, -0.0044228, -0.0009225, 0.0065040, -0.0030521, -0.0190098, 0.0145442,
        0.0068489, -0.0031703, 0.0002029, 0.0331924, -0.0028689, -0.0079433, 0.0018543, 0.0037140,
        -0.0534518, 0.0033328, 0.0144536, 0.0107431, -0.0132194, 0.0041704, -0.0163370, 0.0299033,
        0.0009466, -0.0008503, -0.0093818, 0.0045932, 0.0005363, 0.0059836, -0.0107528, -0.0063772,
        0.0082254, 0.0324620, 0.0009082, -0.0002529, 0.0084580, -0.0044714, -0.0102932, -0.0016864,
        0.0043325, 0.0074527, -0.0074806, 0.0222550, 0.0080802, 0.0023292, -0.0012846, 0.0040585,
        -0.0053785, -0.0003930, 0.0114953, -0.0015094, -0.0276377, 0.0233501, -0.0049317, -0.0023235,
        0.0068164, -0.0246978, -0.0012100, 0.0002733, 0.0018501, 0.0067989, -0.0108341, 0.0000469,
        0.0133798, 0.0050503, -0.0176883, 0.0012930, -0.0028596, -0.0100085, -0.0003669, 0.0089129,
        -0.0012810, 0.0007884, -0.0066541, 0.0084255, 0.0017789, -0.0262309, 0.0062987, 0.0090543,
        -0.0134537, -0.0202812, 0.0125899, -0.0002347, 0.0011886, -0.0108484, 0.0198784, 0.0210713,
        -0.0135995, 0.0133735, -0.0157845, -0.0007378, 0.0025713, 0.0182649, 0.0037672, -0.0135147,
        0.0060012, -0.0098268, -0.0122333, 0.0010685, 0.0094118, -0.0128081, -0.0138574, 0.0002520,
        0.0077002, -0.0076278, 0.0052227, 0.0082301, 0.0222049, 0.0086723, 0.0092294, 0.0165204,
        -0.0190002, -0.0018920, -0.0069877, -0.0021746, 0.0008850, -0.0012046, 0.0482093, 0.0138049,
        0.0006604, 0.0113224, -0.0043438, 0.0006784, 0.0032177, 0.0049013, -0.0123667, 0.0070487,
        -0.0232638, 0.0050647, -0.0061801, -0.0004141, 0.0029365, -0.0167531, -0.0039391, -0.0019626,
        0.0099541, -0.0074822, -0.0151224, 0.0021220, 0.0026304, 0.0182572, 0.0151308, 0.0133792,
        0.0093113, -0.0251771, 0.0073088, 0.0198581, -0.0330468, 0.0351436, -0.0019303, -0.0117238,
        -0.0030816, -0.0021644, -0.0050565, 0.0010027, 0.0024171, 0.0192049, -0.0503665, -0.0115660,
        -0.0363127, -0.0017973, 0.0246477, -0.0112475, 0.0030962, 0.0121486, 0.0475896, 0.0030310,
        -0.0007085, -0.0056649, 0.0310458, -0.0018265, 0.0410518, -0.0056974, -0.0413709, -0.0068955,
        -0.0020699, -0.0332472, -0.0149471, 0.0037636, 0.0032510, 0.0044581, -0.0004874, -0.0083397,
        -0.0136790, -0.0081086, 0.0111304, 0.0009085, -0.0041806, -0.0159162, 0.0074077, 0.0017583,
        -0.0014697, 0.0260804, -0.0176677, -0.0006103, -0.0278289, -0.0037023, 0.0084833, 0.0312198,
        -0.0000043, 0.0316741, -0.0127203, 0.0085015, 0.0091065, 0.0045424, 0.0104679, -0.0272304,
        -0.0119007, -0.0223259, 0.0037980, 0.0063569, 0.0015939, -0.0203817, -0.0121206, -0.0065801,
        -0.0210755, 0.0064517, -0.0061317, 0.0026408, 0.0016498, 0.0039753, 0.0089375, -0.0295218,
        -0.0091348, -0.0100507, 0.0139141, -0.0005058, 0.0073668, 0.0042275, -0.0011298, -0.0438115,
        0.0020602, -0.0175914, -0.0020687, 0.0299593, 0.0146260, 0.0068261, 0.0070927, 0.0092571,
        -0.0016295, -0.0163270, 0.0059581, 0.0041142, -0.0024298, 0.0179083, 0.0066799, -0.0119730,
        -0.0055336, -0.0016866, -0.0129210, 0.0020723, 0.0039075, 0.0124914, -0.0112809, 0.0242081,
        -0.0188492, -0.0010908, -0.0057504, -0.0232422, 0.0037602, -0.0079152, 0.0086998, -0.0006886,
        -0.0260679, -0.0114271, 0.0001230, 0.0012751, -0.0089436, -0.0085622, 0.0028993, 0.0105449,
        0.0018135, -0.0195535, -0.0089891, -0.0083924, 0.0108023, -0.0156892, -0.0052076, -0.0023079,
        -0.0123033, 0.0052247, 0.0040406, 0.0563275, -0.0318783, 0.0084931, 0.0005196, -0.0129039,
        0.0114602, -0.0104033, -0.0052749, -0.0008036, 0.0029069, -0.0102311, -0.0009324, 0.0023153,
        0.0037944, -0.0051865, -0.0065145, 0.0023113, 0.0063941, -0.0094110, 0.0061825, 0.0175845,
        -0.0056980, -0.0119256, -0.0000626, 0.0156106, -0.0058756, -0.0037606, -0.0000701, 0.0168216,
        -0.0094958, 0.0318355, 0.0020885, 0.0011945, -0.0012574, 0.0400301, -0.0261407, -0.0110982,
        0.0048649, 0.0383020, 0.0120746, 0.0023390, -0.0384122, 0.0130758, -0.0073801, 0.0141125,
        0.0006434, 0.0351976, -0.0069878, 0.0331715, 0.0045721, 0.0014948, 0.0067190, -0.0356530,
        -0.0062076, -0.0053439, -0.0026332, 0.0067391, -0.0077794, -0.0038972, 0.0017273, 0.0076183,
        0.0048984, 0.0027905, -0.0094615, -0.0017846, 0.0016599, 0.0020975, 0.0098277, -0.0088165,
        -0.0098901, -0.0044926, -0.0179928, -0.0235820, -0.0274464, 0.0067102, -0.0044390, -0.0084238,
        -0.0056956, 0.0029844, -0.0087097, 0.0194565, 0.0066423, 0.0004707, 0.0219476, -0.0082455,
        -0.0305417, -0.0071318, -0.0187024, 0.0227637, 0.0031990, -0.0064119, 0.0317594, -0.0085393,
        -0.0313663, -0.0012103, 0.0160328, 0.0314244, -0.0555349, 0.0072035, 0.0105340, 0.0309544,
    };

static float para_enh_features_resnet1_4_bias[32] = {
    2.3130770, 0.3831408, 0.5243746, 0.3623267, 1.2046497, -0.3079631, 0.0864084, 0.0983353,
    0.6365986, 0.7379382, 1.2121096, 0.0291660, 0.9099426, 0.9214983, 0.0116563, 0.7675747,
    0.7260364, 0.6634729, 0.7131961, 0.6936370, -0.1117311, 0.9564321, 0.3965650, 0.7838261,
    0.5249884, 0.2083388, 0.4667649, 0.5847803, 0.5501933, 0.0820157, 0.9823867, 0.8128047,
};

static float para_enh_features_upconv3_3x3_weight[2304] = {
    0.2270072, -0.8870772, 0.0327727, 0.7104197, 1.0812299, 0.1270022, -0.1431566, 0.3402119,
    -0.1243082, -0.1268894, -0.0260679, 0.3104207, -0.0831089, 0.4649309, 0.6066191, 1.3365943,
    0.0569328, -0.3316139, -0.3353179, -0.7105288, -0.6735759, -0.7012402, -0.7008195, -0.2441198,
    -0.6041242, -0.9259703, -0.7046270, 0.2685325, 0.0695379, 0.4911484, 0.4093331, -1.9414732,
    0.1447256, 0.9924290, 1.2716750, -0.0058110, -0.1591843, -0.1603108, 0.2542880, -0.7073554,
    0.9514927, -0.1958921, 0.3767868, -1.3823675, 0.0084020, -1.1721973, -0.0698367, -0.8377953,
    -0.5096249, 0.2679056, 0.4164306, 0.1879844, -0.1480079, -0.4513895, -0.5677385, 0.3510981,
    -0.2071006, 0.0756859, 0.9254950, -0.7378748, 0.2420389, 0.3428705, 0.0098930, 0.1091354,
    -0.7382638, 0.3431227, -0.5168422, -0.9328439, 0.1951108, 0.2433272, 1.2006308, 0.2902646,
    -0.3222957, -0.7942622, 0.0919905, 0.3287613, 2.3222537, 0.1559937, -0.0829094, 0.0575905,
    -0.2639523, 0.1999883, -0.3300489, -0.0653793, 0.0926111, 0.5121522, 0.0186637, 0.3212335,
    0.2661872, 0.3188055, 0.1958104, -0.0499996, 0.6604254, 0.8391031, -0.9422454, -0.0166646,
    0.3507785, 0.2630148, -0.0068307, -0.0938747, 0.0753277, 0.3225408, -0.1790539, -0.8478865,
    -0.1326170, 0.3981330, -0.1088858, 0.2567316, 0.1432493, 0.2823867, -0.3720430, -0.0191057,
    -2.3245595, 0.1347093, -0.1572161, 0.1051754, -0.2386164, -0.0701815, 0.5941580, -0.4630036,
    0.0247763, 1.4859270, -0.3751104, -0.2488027, -0.8820687, -0.2140020, -0.0326371, 0.1913230,
    0.0697398, -1.2603066, 0.3548056, -0.3636878, -0.2423560, -0.1076699, 0.6280558, 0.0857327,
    -0.3602785, -0.3382023, -0.5808275, 1.3318094, -0.4859507, 0.1414380, -0.1381720, -0.1644602,
    0.2415615, -1.3105972, -0.3672947, 0.3841245, 0.0626242, -0.1997478, -0.0621305, 0.4551315,
    0.0573799, 0.1851733, 0.8709622, -0.4834024, 0.1615350, 0.4791215, 0.7240975, 0.3612528,
    0.6876009, 0.1881945, -0.2286721, 0.4282747, -0.8275244, -0.0674615, 0.5208482, -0.2502459,
    -0.2905595, -0.1229290, 0.5170920, 0.4977165, 0.6290462, -0.1184455, 1.3318477, 2.4192970,
    0.6188738, 0.2317847, -0.8558187, -0.1391262, 0.0028128, -0.8009928, 0.1566009, -0.2406655,
    -1.3220476, -0.1608392, -0.6342298, 0.0618709, -0.8172898, -0.8262193, -0.1839262, -0.6669457,
    1.0331707, -0.3121705, 0.2044734, 0.4985093, 0.5532268, -0.3131908, -0.2294743, 0.2511300,
    1.0249377, -0.8254109, 0.2196593, -0.0504422, -0.3068642, 0.1743295, -0.8867354, 0.2307076,
    0.4328956, 0.6996852, -0.3438185, 0.3754032, 0.2820858, -0.4397917, 0.0260520, 1.1616348,
    0.5897053, 0.4926612, 0.2892649, 0.1752028, 0.3472248, 0.0142371, 0.3643145, 0.4946773,
    0.5070251, -0.3721044, -0.1768797, 0.3054747, -0.6141179, -0.4813997, 0.1592636, 0.4352441,
    -0.1328986, -0.0808329, -0.0513121, -0.1845440, 0.1362452, -0.0945014, -0.2229014, 0.6158310,
    -1.1046360, 0.5808315, 0.6353663, 0.6254662, 0.3922461, 0.3281484, 0.7923157, -0.4226698,
    0.5841867, 0.2184595, 0.5187237, 0.1015226, -0.2149353, 0.3180301, 0.2575352, -0.1491277,
    -1.8608618, -0.4996572, -0.2091016, 0.7386371, -0.5374362, -0.7105264, 0.1711734, -0.1437094,
    0.1280784, -0.7446479, 0.4567459, -0.4870705, 0.5271363, -0.0244916, -0.7760558, -0.3769344,
    0.0573495, 0.4435259, -0.2783427, -0.7076361, 0.3703290, -0.7868327, -0.0304128, -0.7436309,
    0.0991769, -0.5369729, -0.2751238, 1.8661039, 0.5053078, -0.4018938, 0.1483787, 0.6677991,
    -0.3336428, -0.8266978, -0.4147105, -0.1358936, 1.4790913, -0.0884646, -0.4450022, -0.5390037,
    0.0259712, -0.1001071, -0.1777842, 0.4718629, 0.2047806, -0.1067229, -0.3269893, -0.6377022,
    0.3399611, -0.2036052, 0.1191806, 1.0605516, -0.3710586, -0.3684703, -0.2486686, 0.2769702,
    0.1337653, 0.1240677, -0.8485953, 0.5700405, 1.2432815, 0.2161448, 0.2454809, -0.9748604,
    0.1978808, -0.8390222, -0.3296698, -0.2051519, 0.4990651, 0.5446900, 0.3914430, -0.0980093,
    -2.0656588, 0.0260401, 0.3624391, 0.3216455, 0.4985597, 0.6941192, -1.0624148, 1.1747750,
    -0.6307883, -0.3204657, 0.4669673, -0.2794148, 0.7319764, 0.1570460, 0.2625144, -0.2001626,
    0.2464151, -0.1357218, 0.5401433, -0.2642985, -0.5993709, 0.7319433, -0.2174689, -0.1117371,
    0.0740227, 0.2705895, -0.7110412, 1.8873982, 0.2458842, -0.0035180, -0.1135123, -0.3796096,
    -0.1127998, 0.0579660, -0.2771514, 0.2620998, 0.1538280, -0.2511703, 0.2070187, -0.3730474,
    0.2303941, -0.0196913, 0.5290708, -0.1086552, 0.7991201, -0.0023615, -0.2996829, 0.3212789,
    0.6067002, -0.8124747, 0.1612489, -0.0168951, 0.1729812, 0.2688229, -0.1511597, -0.4519508,
    0.5046597, 1.0509291, -0.6623198, 0.4569688, 1.1814809, 0.1718318, 1.2186846, -0.5415616,
    -0.0638641, 0.1542907, 0.3504946, 0.3733103, -0.0146666, 0.5027570, -0.0340842, -0.0594171,
    1.6194502, 0.4697226, -0.1553074, -1.3611069, 0.2158660, 0.7191539, -0.0252157, 0.0796908,
    1.3948818, 0.1943111, -0.7073249, -0.3127837, 0.5847579, 0.0811042, 0.3955003, -0.3568902,
    -0.2620944, -1.0190519, 0.1613155, 0.3703417, -0.8306423, 0.6071254, 0.5607169, 0.0072345,
    -0.5884852, -0.0594944, 0.6671733, 0.3571020, -0.3960296, 0.2840234, 1.1070294, -0.5341096,
    -0.1460816, -0.4500850, -0.1361118, -0.6453790, 1.1656383, -0.6357362, -0.1004582, -0.0069618,
    0.2436742, -0.2694315, 0.1437168, -1.1250342, -0.3860111, 1.0737624, -0.6061767, 0.3586418,
    -0.2221000, -0.2328157, -0.3872501, -0.4207566, -0.2053391, -0.1518749, 1.1577251, 1.4983410,
    0.1335008, 0.0447205, 0.8561029, -0.9865299, -0.1869430, 0.3597251, -0.2900960, -0.4239443,
    0.2809571, 0.8146367, -0.2302184, -0.3781985, 0.5942947, -0.5994883, 0.1663124, 0.5028886,
    -1.1738946, 0.2410227, -0.1284456, 0.4008878, 0.4035749, 1.1455508, 0.0338369, 0.8254107,
    0.6369618, 0.6396891, 0.4064032, 0.8009289, -0.0552412, 0.6991239, 0.4730977, -0.7332795,
    -0.4254327, 1.2697622, 0.2476963, -0.8023515, 0.3599429, -0.4696324, 0.2037673, 1.0803818,
    1.5155751, 0.1647814, -0.5943370, 0.7632529, 0.3221334, -0.1399407, -0.1106895, -0.0941284,
    0.4900894, 1.6991940, 0.3498457, -0.4811129, -1.5697136, -0.1532073, -0.0280286, 1.5257185,
    -0.2787286, -0.0225473, -0.2543360, 0.0261197, -0.4636126, 0.1782338, -0.8045456, 0.1854698,
    0.0852816, -0.2585505, -0.4460143, -0.5578002, 0.2621710, -0.1354611, 0.3166775, -0.5720600,
    1.0346556, -0.1664120, -1.1675950, -0.7315642, -0.5615315, -0.1962361, -0.9286899, 2.4298425,
    0.4990766, -0.3629308, -0.2934544, -0.1157731, 0.2439806, 0.4392975, -0.0718314, 0.5032606,
    -1.0881455, 0.1322363, -0.2121496, -0.7393855, 0.2874261, 0.2146550, 0.1368583, 0.2880192,
    -0.3229570, -0.2081411, 0.8979047, 0.1785679, -0.4300223, 0.1987910, 0.2375841, -0.4889773,
    0.0678902, 0.9992983, -0.3654563, 0.5916756, -0.7839470, -0.4724991, 0.7387275, -0.4338810,
    -0.4327896, -0.0458379, 0.2303095, 0.0123232, -0.1046293, 0.0618363, 0.6410091, -0.4118101,
    0.2138931, 1.1427164, 0.0209373, -0.1481746, -0.7058804, 0.0774884, 0.7812180, 0.4492663,
    -0.4557052, 0.1451841, -0.3834211, -0.5472806, 0.9851685, 0.1038266, 0.0426137, 0.7625291,
    0.3150514, -0.9263099, -0.5700886, 0.0619297, 0.1470686, -1.0073972, -0.3681082, -0.0646876,
    -1.3770262, -0.1547602, -0.0541453, 0.5548342, -0.3235388, 0.4811443, -1.1041414, -0.9577094,
    -0.1272028, -0.0490061, -0.4497154, 1.3320841, -0.4378025, 0.9495041, -0.2475811, -0.2621926,
    1.9873477, 0.2765223, 0.4147850, -0.0857891, -0.4075544, -0.0565232, -0.9148742, 0.9979342,
    1.3101097, 1.1884092, -0.6887096, 0.2148183, 0.0554315, 0.4446043, -0.2269725, -0.5629963,
    0.1345526, 0.5856732, -0.3048292, 0.1042486, 0.1090116, -0.3037508, -0.2775162, 0.5557715,
    -0.2453816, -0.2768572, 0.7155868, -1.1159976, -0.2689029, 0.0266581, -0.8645225, 0.3638754,
    0.0176660, 0.4364428, -0.0751684, -0.7400557, 0.8360252, -0.4805457, -0.0876732, -0.4611894,
    -0.0651237, 0.8860073, -0.9675353, -1.1636128, -1.1052992, -0.1173974, -0.7726824, -0.1762546,
    -1.0724612, -0.3392823, 0.1318385, 0.1730220, 0.2045456, 0.0944202, -0.0108954, 0.0472189,
    0.3242682, 0.1647767, 0.2516155, 0.4026848, -0.3046327, 0.4813262, 0.2358616, -0.4374723,
    0.6913824, 0.3297905, 1.6936109, 0.5575861, -0.1695907, -0.0637918, -0.0305657, 1.1195939,
    -0.8830035, -0.7324854, -0.4362325, -0.7797002, 0.1799476, 0.5300525, 1.0669724, 1.4271312,
    0.3824661, -2.0803885, 0.3858899, 0.9672024, 1.1767430, 0.9139997, -0.0359815, -0.1441501,
    0.3730506, 0.2815368, 0.4285345, -0.4971391, -0.3243481, 0.2156878, -0.2802398, -0.0200750,
    0.0716506, -0.3095179, -1.1832368, 0.1684478, -0.2286952, -0.1377949, 0.8001944, -0.3090228,
    0.1488731, 0.4419937, -0.2331093, 0.0115803, -1.6223823, 0.0762975, 0.2088036, 0.4902563,
    -0.4585364, -0.1528879, 0.6655304, -0.1493070, -1.1767671, 0.6652032, -0.0922784, -0.1700581,
    0.7235767, -0.0973587, 0.4511245, -0.7217979, -0.0912177, 1.5618831, -1.4014947, 0.3103853,
    0.1444572, -0.5337003, 0.3105842, -0.1295847, -0.1086708, -0.0258078, 1.0572225, -0.5594072,
    0.6936613, -0.8993327, -0.0523853, 0.3763280, 0.4135708, -0.2012113, -0.0290460, 1.1186267,
    -0.2131917, -0.4332105, 0.2653438, -0.3373874, -0.3513352, -0.6721096, 0.1401746, 0.0132248,
    -0.1365004, 0.1912516, -0.0510566, -0.4684228, 0.2863161, -0.2080305, -0.4560565, 0.0920899,
    0.0870688, -1.5235075, 0.5288375, -0.5337437, -0.2052942, 0.6559373, -0.1218249, -0.0736509,
    0.6750516, -0.0937407, -1.5739206, 1.0129547, 0.0148440, -0.2559186, -0.1890326, -0.0467555,
    0.1331710, 0.0266776, 0.0571006, -0.3489420, -0.8626849, 0.3782201, -0.2823983, 0.7895302,
    -0.1051624, -0.9579583, 0.0183740, 0.1686283, -1.1747817, 0.0203690, -0.1832847, -0.4088964,
    0.0961333, -0.2182897, 0.2070772, -0.3587458, 0.0543731, 1.9015535, -0.1385613, -0.4763833,
    0.4209715, -0.6202717, 0.0713255, 0.5421689, -0.1319376, -0.1533122, 0.3127805, 0.7105895,
    -0.6057963, -0.3384807, -0.1240550, 0.1019815, 0.4958520, 0.5531883, -0.0571062, -0.3857815,
    -1.3881928, 0.8819802, 0.0336991, 0.2658777, 0.0406050, 0.5077252, -0.8627638, 0.1079595,
    -1.3589737, -0.4124652, -0.0961001, 1.1777521, -0.3516448, 0.3032953, -0.5419556, 0.8500615,
    -0.5943382, -0.3151938, -0.3021529, 0.7078698, -0.6264409, -0.0592815, -0.2704864, 0.0778280,
    0.2195545, 0.2390248, -0.9209227, 1.9929533, -0.2434614, 0.5456988, 0.1231607, -0.3783471,
    0.5328057, -1.6071016, 0.1555086, -0.4508198, 0.3154693, 0.5551471, -0.2379471, 1.4438038,
    0.4916652, 1.7681999, 0.9865988, -0.1691799, 0.2737871, -0.2482920, 0.1287038, 0.0111018,
    0.1187776, 0.1454871, 0.9404454, -0.4517332, -0.4206564, -0.7357672, -0.3319640, -0.1038389,
    0.5405939, -0.6014147, -0.2686001, -0.6226976, 0.1823750, 0.3176487, 0.2180889, 0.2306862,
    0.4438323, -0.7007437, -0.2613841, -0.8918383, -0.0481619, -0.8766701, 0.4594121, -0.2117439,
    0.3707358, -0.2937441, -0.4907198, 0.1721694, 0.3160041, -0.6973022, 0.5488557, -0.7816539,
    0.1077749, 0.7131546, -0.1045421, 0.0591972, -0.5506908, -0.5861056, -0.1595137, -0.3877583,
    0.8764256, -0.1197395, -0.5886745, 0.5403581, 0.0701965, 0.7639936, -0.2529723, 0.0810192,
    0.5173721, -0.5079322, 0.1314047, -0.1596883, -0.1617451, 1.0371547, 0.6254986, -0.2055206,
    0.4569703, 0.1945076, 0.6529881, -0.1330242, -1.3287708, 0.2452901, -0.7773751, 0.5112119,
    0.5914468, 1.7694145, -0.5563330, -0.2869447, -0.4800619, 1.6911546, 0.1577202, 0.5195637,
    0.5311341, 0.0295652, -0.9156603, 0.3534208, 0.1811696, 0.6222984, -0.6061689, -0.7332199,
    -0.0964220, 0.0618232, -0.6799359, 0.3371353, -0.7922802, 0.1881446, 1.4379449, 0.0418036,
    -0.6945719, 0.5561602, 0.7736604, 0.2591488, -0.0939951, 0.1994813, -0.0989159, -0.3621365,
    -1.1518147, 0.9296724, 0.4915816, -0.5619642, 0.1162053, -0.9394175, -0.4102604, 0.3126153,
    -1.8297535, 0.1380582, 0.8416119, -1.1342347, 0.1217026, -0.2625949, 1.1710087, -0.6571282,
    -0.1201042, 0.2856425, -0.0469802, -0.3368951, -0.1450911, 0.4206936, 0.0138508, 0.6417871,
    0.8753623, -0.1791694, -0.0703045, 0.5224775, -0.0891660, -0.3910205, -0.1834155, 0.5046654,
    0.1974212, -1.2207929, -0.0611399, -0.0560048, -0.6093311, -0.1592436, 0.1656414, -0.0650100,
    -0.1188601, 1.1005706, -0.1994366, 0.4941679, 0.5287415, -0.7986165, 0.0755429, 0.3745461,
    0.7885025, -0.0756729, -0.0096582, 0.0957341, 0.1926078, 0.0351754, 1.9851086, 0.1558065,
    -0.4277749, -0.2113342, 0.0954532, -0.3177412, 0.4070121, 0.1706902, -0.8146935, 3.0988138,
    -0.0348816, -0.0944090, -0.8266014, -0.3840431, -0.4462002, 0.5181027, -0.3362266, 0.8812208,
    -2.8105769, -0.6358529, 0.2721863, 0.5727885, 0.2012468, 0.1114405, 0.1443194, -0.2715805,
    -0.4399902, -0.0470431, -0.7768688, -0.0072582, -0.7844968, -0.0103916, -0.1076381, -0.0542598,
    0.5026418, -0.0225581, 0.1263172, -0.4182793, 0.4230791, -0.0892690, -0.1948936, 0.1147117,
    -0.4086750, 0.2458752, -0.4248655, 0.5423617, 1.0914704, -0.0933670, -0.2410952, 0.2508407,
    0.1940697, 0.1052935, 0.1863639, 0.1889562, 2.3443956, -0.1821962, 0.3073027, -1.7087995,
    -0.0273180, 0.7255751, 0.1009114, 0.2569447, 0.7818355, -2.6389158, -0.4009498, 0.8385567,
    -0.6875483, -1.0205394, -0.3284498, 0.4999583, -0.0090605, -0.4226630, 1.7643161, 0.3269938,
    -1.0212920, 1.1327274, -0.1816598, -0.1748983, -0.1298338, -0.0747887, 0.9882072, -0.0236588,
    0.1292820, -0.1109401, -0.9738880, 1.0008868, 0.2603375, 0.3572010, 0.1710163, 0.0908964,
    -0.1779201, -0.5833125, 0.4057012, -0.1950043, -0.1010149, -0.7022810, 0.2930492, -0.2677610,
    -0.7347304, -2.1720235, -0.3839485, -0.3743542, 0.0267229, 0.4400433, 0.2233160, 0.3159785,
    0.1756843, 0.4854215, -0.4104837, -0.1549731, 0.1821629, -0.3499496, -0.6917220, 0.1197928,
    0.2100726, -0.0594828, 0.2406904, 0.9612265, 0.2696164, 0.1543420, 0.3334736, -0.3283792,
    1.0125504, -0.0346650, -0.8995693, 0.8582366, 0.5116987, -0.2092895, -0.5097740, -0.9537304,
    -0.2488435, 0.0775918, -0.2952425, -0.1007057, -0.2348833, -0.4049583, -0.1236995, -0.1536056,
    -0.3584116, -0.5402297, 0.0120509, -0.0332816, 0.1815763, 0.5074374, 1.0794215, 0.0655303,
    0.3644083, 1.3922714, 0.0017490, 0.4424106, -0.1874793, -0.2225592, 1.0909745, 0.1054413,
    0.8908800, 0.1348097, 0.5386931, -1.0282966, 0.5465032, -0.7939643, 0.1949367, 0.5139711,
    0.3760400, -0.5809640, -0.6030264, -0.1164176, 0.1386265, 0.2376726, -0.4353875, 0.6404498,
    -0.3562456, -0.4540102, -0.7525067, -0.2822519, -0.1009691, -1.0304242, -0.6441797, 1.1047730,
    0.6393325, -0.6939068, 0.2293679, 0.1815044, -0.3002103, 1.4082036, 1.1906292, -0.8145928,
    -0.2030552, 1.1614306, -0.5724629, -0.0695947, 1.1390984, -0.0698654, 0.8580682, 0.6224633,
    0.9295357, 0.6183311, -0.0200676, 0.3165565, -0.8645329, -0.4716309, -0.2386433, -0.2206849,
    -0.5480452, -0.3644018, 0.1783509, 0.0783538, -0.4965321, 3.7170799, 0.0078473, -0.3597198,
    -0.5996613, 0.2073323, -0.2006129, 0.4950905, 0.3327950, 0.0261229, 0.2431515, -0.1435127,
    0.0629184, 0.1493048, 0.5378245, -0.3793286, -0.0966791, -0.0672543, -0.9612525, -2.0433388,
    -0.2565258, -0.1164318, 0.0453442, -0.2944111, -0.3644296, 0.6213988, -1.0036466, 0.3952140,
    0.1973552, -0.7811808, 0.0118546, -0.0667462, -0.0931757, -0.9360929, 0.1385335, 0.4921369,
    0.1933471, -0.0039163, -0.1074185, -0.1283847, 0.0500594, -0.4584134, -0.0186858, 0.9678857,
    -0.0368436, -0.2316442, 0.3482378, -0.3787495, -0.0491662, 0.2291483, 0.4919867, -0.3438123,
    -0.2301277, 0.7118264, -0.0451586, 0.8208575, 0.3784536, -0.0112721, 0.5564876, 0.4521837,
    0.8534096, -0.4047890, -0.9071482, -0.7492281, 0.2297176, 0.2191667, 0.0228287, 1.0820106,
    -0.0315652, 0.0685550, 0.0623164, 0.0244818, 0.2352072, -0.2236926, -0.8001344, 0.3587216,
    -0.9437689, 0.7981209, 0.3158939, 0.6874087, -0.6309246, -0.4347268, 0.8106548, 0.1175916,
    0.0177773, -0.0287050, -0.1845945, -0.8305283, -0.2630973, 0.9516370, -0.2881845, -1.0479021,
    0.1753494, -0.9589109, -1.1053613, 0.3524222, 0.3053041, -0.3156100, -0.8213444, -2.3526151,
    1.0607967, -0.1095466, -0.9877930, 0.2882968, 1.4563224, -0.9668233, -1.0472006, 0.9825854,
    1.3375337, -0.5957550, -0.4909846, 0.1986320, -0.0319867, 0.5065174, 0.1493589, 0.0766546,
    0.0317054, 0.5281152, -0.2998026, -0.3686238, 0.0574862, -0.1529996, -0.0876946, 0.6426157,
    0.2773614, 0.1906563, 0.0914444, -0.7005998, -0.9362277, -0.0717611, 0.0780282, -0.2246266,
    1.0978017, 1.1595316, 1.5472467, -0.0701453, -0.0472845, -0.8942118, 0.5102051, 0.5573050,
    -0.4436690, 0.0767868, 0.3750944, 0.5300181, -0.5527939, -0.5445178, 0.1952077, 0.3780346,
    -0.2794263, -0.1826282, -0.0992175, -0.8877067, -0.1674504, 0.1176615, 0.4551338, -0.0204501,
    -0.2973070, 0.5212413, -0.0990653, 0.9828561, -0.2332897, 1.0765910, -1.2350758, -0.7569672,
    0.0661423, 0.0148881, 0.2875190, -0.1420986, 0.8985750, -0.6231141, 0.8959518, -0.0357553,
    -0.0492608, 0.9572605, 0.7987230, 1.0753675, 0.0879947, 0.2404693, 0.2265495, 0.6201896,
    0.4129535, 0.4867753, -0.4244995, 0.0838678, -0.0921779, 0.5217083, -0.7850554, -1.8708740,
    -0.8151521, -0.2994511, 1.3433769, 0.3238016, -0.8433021, -0.9309664, -0.3364294, 0.2971239,
    -1.1633434, -0.8761247, -0.1302732, 0.0220973, -0.0424716, -0.4059795, 0.4432567, 0.9768762,
    0.0632014, -0.0400796, -0.4380471, 0.6379126, 0.0506833, 0.5223946, -0.1285577, -0.0213680,
    -0.8132123, 0.4962549, -1.0348303, 0.3321840, -0.4878762, -0.5087990, -0.0538614, -0.8063456,
    1.5183389, -0.4500964, 0.0880440, -0.4242210, -0.2379967, 0.2094526, -0.6090168, 0.0763027,
    -0.3129821, -0.2905348, 0.2145696, 0.4498271, 0.9785717, -0.0630186, 0.0051668, -0.6004710,
    -0.6063856, -0.0312071, -1.3324586, 0.9882883, 0.3590041, -0.2434553, -0.0430577, -0.3654265,
    -0.8549070, 0.7852120, 0.4260387, -0.0189841, -0.3339067, 0.2417928, 0.1819799, -0.5059503,
    0.1934189, 0.3652850, 0.5114788, -0.4275277, -1.5047061, -0.1506475, -0.7911292, -0.3170042,
    0.4011903, 0.0716204, 0.3572016, -0.3703956, -0.6330185, 1.0211389, -0.2827483, -0.9820197,
    0.6258492, -0.4165040, 0.2747497, 1.0423282, -0.8839794, -0.1774566, -0.1493111, 0.3267258,
    0.3678657, -0.3110088, 0.1231859, -0.7269776, -0.5749112, -0.1605129, 0.1586148, -0.6833696,
    0.0488616, -0.3826495, 0.1741928, -0.2234198, -0.5733308, 0.7814270, 0.1339672, -0.1915986,
    -0.0964316, -0.0354873, 0.4925251, 1.6240877, 0.8978906, 0.6082669, 0.4008391, 1.1953943,
    0.8740771, 1.2207677, -0.1774492, -0.1956451, 0.4578592, 0.2803780, -0.9770526, 0.6719969,
    -0.0928115, 0.6242935, 0.7020522, 0.7469980, 0.5906600, 1.1619531, 0.6858517, 0.6984651,
    1.0840896, -0.5727736, 0.6324601, -1.1102599, 0.3519925, -0.7984978, -1.2003396, -0.2201183,
    0.5187379, -0.2410164, -0.7223439, -1.0085453, -0.7147405, 0.4606842, -0.0052691, 0.1930714,
    0.4891520, -0.6077481, 0.6431939, -0.7265864, 0.5623826, 0.0990804, 0.0719392, 0.4769743,
    0.5916858, 0.7517449, -1.2321060, 0.4515244, 0.2131653, 0.8544182, 0.2754387, -1.1077049,
    0.5384704, -0.0336475, 0.4815040, -0.2406202, -1.5004004, -0.3165259, 0.4015127, 0.5076732,
    -0.3685014, -0.5789925, 1.2234943, 0.1869339, 0.4906583, -0.4920619, -0.3495378, -0.8621826,
    -0.5482730, 0.8104649, -0.1791478, -0.3682195, -0.2708986, 0.0071204, -1.0668257, 0.1821322,
    -0.3788942, 0.1206973, 0.1692947, 0.5283131, -0.2375601, -0.5613589, -0.0536702, -0.5499318,
    0.3370199, -0.3506548, 0.8927331, -0.0653588, -0.8598707, 0.4904812, -0.4425785, -1.2982162,
    0.5189842, -0.4371021, 0.6086386, -0.0976292, 0.0412775, 0.2236292, 0.6844501, -0.1023490,
    -0.4163715, 0.5577068, -0.7281809, -0.2078089, 0.5671756, -0.9314831, 0.9267544, -0.3598956,
    -0.2435345, -0.2648983, 0.4522314, 0.7077507, 0.9783937, 0.2898058, 0.4315476, 0.6586301,
    0.0244767, 0.7614771, -0.2420998, -0.3968877, 1.1862191, -0.9161600, 0.5543406, 0.4757443,
    0.1495519, 0.7208175, 0.5888163, 0.2059356, -0.2266054, -0.1714655, 0.3440793, -0.5318245,
    0.3608049, -0.0082267, -1.7325923, 0.3865336, -0.0626613, 0.9731609, -0.4507368, -0.0913822,
    2.1691012, 0.6048865, 0.5283343, -0.0192893, -0.4076660, 0.2520060, 0.5831227, -0.3457310,
    0.0635115, 0.2246049, -0.4327250, -0.2575861, 1.1888092, 0.3587447, 0.1135687, 0.2487376,
    1.0483121, -0.5831051, -0.8765916, 0.0158814, 0.1601334, 0.5853773, -0.0852219, 0.0525409,
    -0.8024926, -0.5236516, -0.2633744, -0.2163590, -0.0680905, -1.1523000, 0.4020420, 0.7808326,
    -0.8974242, 0.0448389, -0.0676887, -0.3076975, 0.5805228, 0.2327283, 0.5868489, -0.1015422,
    -0.2105409, -0.1866003, 0.0972543, 0.6481415, 0.4344747, 0.5939025, -0.6118563, 0.1537464,
    0.4622816, -0.0937274, -0.3731611, -0.2626413, 0.1884517, 0.1840813, 0.3006464, -0.1908651,
    -0.5356016, -0.3435108, 0.2583506, 0.2682160, 0.4503169, 0.3239391, 0.6916652, 0.4951041,
    -0.0371019, -0.4043767, -1.0252707, -0.2199469, 0.5196781, 0.1178442, -0.0616614, -0.3814976,
    -1.4955854, -0.3786592, -0.4689574, 0.3152519, -1.0284276, 0.3985186, 1.2445695, 0.1277664,
    0.5320109, -0.1893411, 0.0677510, -1.0790344, 0.6608639, -0.2205525, 0.8781695, -0.3856836,
    0.1418768, -0.3660501, -0.4792106, 0.2533913, -0.2098821, -0.3712516, 0.2558690, 0.6748561,
    1.1924868, -0.3055027, -0.9911581, -0.9627633, 0.1345334, -0.7204275, 0.2376274, -0.5769001,
    -0.4926924, -0.1147263, 0.6657656, -0.7669685, -0.7592373, 0.1360730, 0.3763964, -1.0580661,
    -1.1628670, 0.2344646, 0.4498427, 0.2241897, 0.1483843, 0.1812511, -0.3553828, 1.1252205,
    -0.6667311, -0.2744370, -0.8728513, -0.6337848, -0.1021510, -0.5542882, -0.8654495, -0.7484347,
    -0.6317856, -0.1798049, 0.3103486, -0.5876873, -0.3921719, -0.2946485, 0.2523201, -1.0927285,
    0.9002626, -0.6092299, -0.6774571, -0.0454384, 0.2899261, 0.9616385, 0.1073911, -0.3586196,
    -0.5499491, 0.0573643, -0.4651836, -0.7022712, -0.9239243, 0.4410946, -0.4405081, 0.3582014,
    0.0975262, 0.1465339, -0.0009308, 0.3710051, 1.4187393, -0.5087954, -0.3883252, -0.7187919,
    0.0829355, -0.0179526, 0.4617828, 1.0146536, 0.0202852, 0.3431699, 0.1504939, 1.2493089,
    1.8147782, -0.7393914, 0.3669547, 0.8103567, -0.2525705, -0.5930300, -0.1704283, 0.4458030,
    -0.0305849, 0.2554944, 0.5486968, -0.6577055, -0.7363170, 0.2216484, -0.6204507, -0.8944566,
    0.5024465, 0.4105083, 0.9535899, -1.0674654, -0.3795580, -0.8215483, -0.4137751, -0.8231984,
    0.5653639, 1.1773233, 0.7733319, -0.0767541, 0.4201501, -0.4055703, 0.1621083, -0.0178536,
    0.8433175, 0.8684376, -0.2943904, 0.0664768, -0.3359341, 0.2445707, 0.7252950, 0.6212686,
    0.6267297, 0.5383571, 0.3604317, 0.5987763, 0.3525782, -0.5429596, -0.1858214, 0.8753572,
    -0.3984276, 0.7192922, -0.5892058, -0.3383302, 0.5879157, 0.2307934, 0.8375785, 0.7374110,
    -0.6963507, -0.5224774, 0.0567280, 0.3956949, 0.7856122, 1.3664879, -0.1267418, -1.0288038,
    -1.9695995, 0.6629933, 1.3640916, 0.6847180, 0.9918321, -0.5595158, 0.0937984, -0.7039940,
    -0.2703998, -1.0872476, 0.2045077, 0.5677382, 0.2235598, -0.2829710, 1.5091482, -0.0433263,
    -0.1555758, -0.2660192, 0.4251069, -0.4855382, 0.3451589, 0.9012799, -1.2243671, 0.7593805,
    -1.4440473, 0.8868313, -0.9931893, 1.6016651, -1.3145164, -0.7196282, -0.5841053, -0.8019971,
    0.3306021, -1.2455819, 0.3402122, -0.2719635, 0.2745128, -0.4307548, -0.7285222, -0.6876431,
    0.0814015, -0.1644283, -0.4000818, -0.5371224, 0.3152460, 0.0651440, 0.4639424, -0.4353769,
    -0.4915746, 0.8785725, 0.6109231, 0.5149745, -0.4044929, -0.0489617, -0.9365146, -0.2152772,
    -0.1228169, 0.9647155, 0.7502280, 0.6546798, 0.8328970, -0.1993524, -0.4025409, -0.4917462,
    -0.2135592, 1.1604300, 1.1733822, -0.1192203, 0.0689979, -0.0864787, 0.6222629, -1.7218807,
    0.3536950, 0.1995995, -0.2480302, -0.5216852, -0.4865218, 0.6551894, 0.4186924, -0.4587395,
    0.9601323, 0.1187404, 0.3899522, -0.1250045, -0.5327342, 0.2662311, -0.3193178, 0.2371793,
    -0.5065331, -0.0966428, 0.3609893, 0.1436387, 0.0991405, -0.0605388, 2.1643641, -0.9491165,
    2.1628814, -0.3021335, 0.5515902, -0.6460062, 0.0028952, 1.3862816, 1.6056110, 0.1666884,
    -0.5439163, 1.1020360, -0.9290128, -0.6052513, -0.5716380, 0.4915320, -0.0106165, 0.1192688,
    -0.8170112, -0.9784173, 0.1321145, 0.4087338, -0.3914958, -0.3525444, 1.3606129, 0.5264271,
    1.0007293, 0.4779348, 0.5346389, -1.2176242, -0.1584745, -0.6129838, 0.2869852, -0.0293219,
    -0.2480759, -0.4880110, 0.5476480, 0.8649703, 0.3760773, -0.1303497, -0.4268268, -0.5618700,
    0.9031606, 0.8213925, 0.2729405, -0.2114981, 0.1072597, -0.4387146, -0.8377199, 0.6561073,
    0.8293786, -0.2774683, -0.4653414, -0.2307328, -0.3249842, -0.4516448, 0.2726603, 1.7623527,
    -1.2612040, -0.9114259, 0.0870488, 0.0546189, -0.3702257, -0.5753248, 0.4630993, -0.2416609,
    -0.0011458, -0.4462834, 0.0082552, 0.5052646, 0.5129475, 0.7034888, 0.7917559, 1.0943455,
    0.1626209, -1.5267972, 0.2765350, 0.3868411, 0.4754909, -0.9075064, 0.8268636, -0.5431336,
    0.8776258, -0.5112843, 0.2127399, 0.2898019, 0.6787214, -0.8724508, 0.0697122, -1.4061674,
    0.2028401, 0.9432876, -0.0511426, 0.8029299, -0.7029033, 0.0442287, 0.5592598, -0.2999770,
    -0.5491686, -0.6934992, -0.6517603, -0.7884864, -0.0453763, 0.6377099, 0.3523775, -0.5181584,
    -0.9679155, -0.6457301, -0.5061908, 0.5926909, 0.9269586, 0.2825715, 0.2888734, 1.0883334,
    -1.1492183, -0.3837064, -0.3396572, 0.8452886, -0.1666454, -0.3233407, 0.5116834, -0.4465460,
    -0.4828766, 0.8181901, 0.7553954, 0.0835897, -0.5836756, -1.0701680, -0.5401578, -0.3024532,
    -0.0126312, -0.1842605, -0.1180335, -0.6480823, -0.5032103, -0.1281196, 0.1092818, -0.1008027,
    0.0463064, 1.0429276, 0.3823643, -0.0350847, -0.1853646, 0.2212560, -0.2939220, -1.3687539,
    0.8612494, -1.4974936, 1.2373770, 0.3113543, -0.3751527, -0.9041871, 0.1053675, -0.7051819,
    -0.1396754, -0.7784095, -0.2712355, 0.3209975, -0.1312447, 0.0121125, 0.4328953, 0.4413242,
    -1.0035214, -0.4766558, -0.8203495, 0.2354663, 1.2669144, 0.4221376, -0.3930388, 0.3498358,
    -0.9624072, -0.0247129, -0.1977199, -0.3793333, 0.0903867, -1.0270352, -0.7486478, 0.7819929,
    0.8662331, -0.2534804, 0.1444000, -0.4118013, -1.1690685, 0.9936946, 0.2006551, 0.6747223,
    -0.8465677, 0.3250870, -0.7621266, 0.8882427, 0.4958565, -0.5510454, -0.7089401, -0.7975976,
    1.2404869, 0.5472220, -0.0484409, -0.1621522, 0.2694399, -0.1987287, 0.0718202, -0.7875852,
    0.2888752, 0.1681184, 0.4652835, 0.4109668, 0.4414298, -1.3536603, 0.1110414, -0.4949779,
    0.3991528, -0.2425867, 1.2046772, -0.8143950, -0.0605635, 0.1074191, 0.3195864, 0.6653923,
    0.0013556, 0.2292309, -1.1118171, 1.6585596, 1.1260809, -0.8781412, -0.9062690, -1.3308800,
    0.2767297, 0.7171532, -0.4297291, 0.2113735, -1.0968602, -0.2824994, 0.3637858, 0.7582772,
    1.1876777, 0.7813999, 1.4638273, -0.7095686, -1.0857646, -0.4907537, 0.6489766, -0.3225096,
    0.3209153, -0.7585667, 0.1658272, -0.6023171, 0.4147380, 0.5688828, 0.3681789, -0.3295049,
    0.6536410, 0.7695899, 0.9922671, -0.1779037, 0.1888602, 0.1051456, -0.4164473, -0.9137644,
    0.2280107, 0.2995429, 0.0952375, 0.0242408, -0.1807194, 0.6418409, -0.0882886, 0.2022269,
    -0.7094884, -0.7935892, -0.4382593, 0.3544725, -0.7849766, 0.8485198, 0.4057587, -0.0434324,
    0.4787637, -0.2745888, -1.1867990, 0.4382391, 0.0313896, -0.1815130, -0.2302924, 0.3003538,
    -0.6023697, -1.2711420, 0.1021633, 0.5197222, 0.2484084, 0.2172539, -0.0702660, 0.0582226,
    -0.0973205, 0.0431084, 1.0975856, 0.5642198, 0.5988810, -1.0926203, 0.5893459, -1.8549486,
    -1.7064556, -0.6836507, -0.3761717, 0.7476528, 0.6924453, -0.3111540, -0.0675753, -0.3121476,
};

static float para_enh_features_upconv3_3x3_bias[32] = {
    0.0270916, -0.1493021, -0.0090850, -0.0085078, -0.0761827, 0.0050085, 0.0201143, -0.0114396,
    -0.0175399, -0.0160507, 0.0671123, -0.0027480, -0.0244240, -0.0281414, -0.0628794, 0.0709486,
    0.0440683, 0.0958413, -0.0352027, -0.0275731, -0.0309604, -0.0681820, 0.0374915, -0.0083624,
    0.0099524, -0.0158434, -0.0325999, -0.0016114, -0.0907052, 0.0016619, -0.0802727, 0.0810700,
};

static float para_enh_features_upconv3_1x1_weight[512] = {
    0.0447944, 0.0307273, 0.0056088, -0.0062421, -0.0113987, 0.0586965, 0.0991170, 0.0472186,
    -0.0474004, -0.0483850, 0.0247188, 0.0055798, 0.1012954, -0.0374036, 0.0524643, -0.0080678,
    0.0013357, -0.0638581, -0.0388996, -0.0397843, -0.0023517, -0.0188392, -0.0633930, 0.0029478,
    0.0742548, -0.0395902, -0.0446885, 0.0274869, -0.0527238, 0.0582559, -0.0213937, 0.0011583,
    0.0155424, 0.0064173, 0.0012802, 0.0123514, -0.0266612, -0.0050152, -0.0062523, 0.0126252,
    -0.0214493, -0.0173978, 0.0074840, -0.0120818, 0.0100606, -0.0443764, 0.0667765, 0.0334121,
    -0.0037064, -0.0102480, 0.0203830, -0.0135431, 0.0391902, -0.0358707, -0.0000772, -0.0153430,
    -0.0176050, 0.0196640, 0.0451744, -0.0211327, -0.0352165, 0.0090899, 0.0232206, 0.0202730,
    0.0023147, -0.0293788, 0.0217663, -0.0384628, 0.0327441, -0.0507711, 0.0613444, 0.0023583,
    0.0214911, 0.0162218, 0.0023527, -0.0368820, -0.0114302, -0.1189588, -0.0275863, 0.0623200,
    0.0200680, 0.0205887, -0.0378657, -0.0416989, 0.0348530, 0.0312416, -0.0295002, 0.1505079,
    -0.0140899, 0.0252399, -0.0528280, 0.0260647, -0.0495875, -0.0545456, -0.0209358, -0.0581336,
    -0.0676173, 0.0302420, 0.0223518, 0.0171467, -0.0451286, -0.0272610, -0.0106512, 0.0067491,
    -0.0406628, 0.0165262, -0.0120891, -0.0256505, -0.0387131, -0.0322707, -0.0626380, 0.0216919,
    -0.0038687, 0.0171735, -0.0237555, 0.0309564, 0.0825569, -0.0304051, -0.0518250, 0.0369625,
    0.0154946, -0.0053912, -0.0271381, 0.0322098, 0.0471840, -0.0148876, 0.0722271, -0.0169617,
    -0.0914694, -0.0040346, 0.0447856, -0.0187916, -0.0128394, -0.0149765, 0.0260557, -0.0389643,
    -0.1058589, 0.0403470, -0.0163107, 0.0352663, -0.0499061, -0.0431564, -0.0233167, 0.0572631,
    -0.0061602, 0.0589909, -0.0479498, 0.0710206, 0.0943143, 0.0643313, 0.0334504, 0.0374632,
    -0.0264602, -0.0236520, 0.0285334, -0.0705599, -0.0012273, 0.0375168, 0.0407431, 0.0495427,
    -0.0194145, 0.0211404, 0.0107593, 0.0060222, 0.0049004, -0.0106036, 0.0297109, 0.0032880,
    0.0313751, -0.0130657, 0.0253721, 0.0031575, 0.0033067, -0.0443343, 0.0188135, 0.0034236,
    -0.0516914, -0.0347570, 0.0334879, 0.0404163, -0.0468289, 0.0095401, 0.0063536, 0.0339137,
    0.0202096, 0.0013497, 0.0490901, -0.0486324, 0.0528621, -0.0382483, -0.0015442, 0.0046381,
    -0.0160146, -0.0981633, -0.0157094, 0.0087231, -0.0267802, 0.0039343, 0.0096218, 0.0061799,
    -0.0187207, -0.0028990, 0.0795292, 0.0086999, -0.0127509, 0.0302987, -0.0158874, -0.0226400,
    0.0286772, 0.0459669, 0.0265239, 0.0248229, -0.0320655, -0.0257229, 0.0181119, -0.0401276,
    0.0269461, 0.0321601, -0.0142912, 0.0052124, 0.0004767, -0.0482921, -0.0126838, 0.0433556,
    -0.0319169, 0.0499136, 0.0106637, 0.0727763, 0.0656439, -0.0579721, 0.0655144, 0.0015476,
    -0.0272347, -0.0040052, 0.0006459, -0.0149691, -0.0248495, -0.0331646, 0.0369359, -0.0696368,
    0.0519706, -0.0396660, 0.0216111, 0.0210422, 0.0116621, 0.0121014, -0.0318934, 0.0111349,
    0.0192796, 0.0057509, -0.0100439, -0.0485146, 0.0353600, 0.0213352, -0.0161964, -0.0492085,
    0.0601082, 0.0131857, -0.0685291, -0.0553438, -0.0388973, -0.0734661, 0.0079202, -0.0187671,
    -0.0042718, -0.0397300, 0.0362864, -0.0815488, -0.0127131, 0.0215053, 0.0047703, 0.0559253,
    -0.0267880, 0.0392001, -0.0279375, 0.0293166, -0.0029370, -0.0194323, -0.0500224, 0.0457070,
    0.0301791, -0.0418294, 0.0547011, 0.0267704, -0.0653475, -0.0196390, -0.0372343, -0.0007883,
    -0.0752002, 0.0006776, -0.0101124, -0.0146213, 0.0106476, -0.0105738, 0.0130161, 0.0745570,
    -0.0821240, 0.0780776, 0.0231974, 0.0125623, 0.0284093, 0.0022849, 0.0534670, 0.0008142,
    0.0061877, -0.0824645, -0.0191361, 0.0205238, -0.0565807, 0.0345098, 0.0102162, -0.1134244,
    -0.0038883, -0.0153113, 0.0575744, 0.0825537, -0.0020156, -0.0267637, 0.0195759, -0.0471848,
    0.0097922, -0.0145812, 0.0225688, -0.0171237, -0.0034781, -0.0333782, -0.0295656, 0.1340266,
    -0.0383715, 0.0809794, 0.0125184, 0.0715059, -0.0292573, 0.0032165, 0.0349125, 0.0660502,
    -0.0046349, -0.0082321, -0.0057310, -0.0266520, -0.0320749, -0.0320606, 0.0364285, -0.0123705,
    0.0916328, 0.0922844, -0.0452666, -0.0110859, 0.0000359, 0.0409432, -0.0517190, 0.0059896,
    0.0005483, -0.0162676, 0.0335261, -0.0587974, -0.0197371, -0.0028473, 0.0190109, -0.0096704,
    0.0368502, -0.0222478, 0.0339826, 0.0228080, 0.0269716, -0.0352381, -0.0527146, -0.0436561,
    -0.0204812, 0.0205546, 0.0168975, -0.0207468, 0.0008015, 0.0432468, -0.0249947, -0.0163489,
    -0.0076313, 0.0438673, 0.0238854, -0.0008928, -0.0001683, 0.0071194, 0.0275530, -0.0192339,
    -0.0097968, -0.0332498, -0.0076444, 0.0212256, -0.0598030, -0.0048506, -0.0176845, 0.0307801,
    -0.0222411, -0.0016400, 0.0246937, 0.0643887, -0.0033151, 0.0337929, 0.0261268, -0.0322875,
    -0.0189565, -0.0115517, -0.0155159, -0.0170035, -0.0283363, 0.0060687, -0.0246631, 0.0331474,
    -0.0323527, 0.0024759, 0.0102763, -0.0000249, -0.0065410, 0.0552045, -0.0283853, -0.0160253,
    0.0650169, 0.0125941, 0.0655192, 0.0068760, -0.0232004, -0.0007192, 0.0111972, -0.0200993,
    0.0576993, 0.0220859, -0.0134787, -0.0280896, -0.0398739, -0.0459913, 0.0321579, -0.0358442,
    0.0216272, 0.0379300, -0.0353226, 0.0094179, -0.0190437, -0.0303100, -0.0046761, 0.0080097,
    -0.0116226, -0.0095674, 0.0294981, 0.0289193, 0.0503128, 0.0358595, -0.0457400, 0.0757722,
    0.0147042, -0.0167266, -0.1231982, -0.0095124, -0.0247951, 0.0551931, -0.0001139, -0.0176862,
    0.0254493, -0.0274756, 0.0731141, 0.0168758, -0.0674384, 0.0245697, 0.0726922, 0.0740885,
    -0.0600913, 0.1535006, 0.0441797, 0.0315700, -0.0459219, 0.0723891, -0.0303467, -0.0066203,
    0.0192385, -0.0270704, -0.0024449, 0.0173544, 0.0544093, 0.0440664, 0.1030438, -0.0050716,
    -0.0517623, 0.0357200, -0.0178001, 0.0032929, 0.0207472, 0.0564326, 0.0120921, 0.0432543,
    0.0606959, 0.0722592, 0.0501928, -0.1041318, 0.0082091, 0.0440160, -0.0763335, -0.0135710,
    0.0562990, 0.0331120, -0.0589639, 0.0362920, -0.0154342, -0.0052586, 0.0196990, -0.0107564,
    0.0378940, 0.0183602, 0.0381870, -0.0030960, -0.0331529, 0.0340698, 0.0231879, -0.0529901,
};

static float para_enh_features_upconv3_1x1_bias[16] = {
    -0.0141975, -0.1787709, 0.1461601, -0.1678079, 0.5803145, 0.4786698, -0.0358162, 0.3223166,
        -0.0763541, -0.1381742, 0.3141904, -0.0055874, -0.1177132, -0.2431477, -0.1423639, 0.7369699,
    };

static float para_enh_features_upconv3_3x3_1_weight[2304] = {
    0.0240215, 0.0385788, 0.1114721, 0.0603602, -0.1286997, -0.0336360, 0.1031074, -0.0295014,
    0.1219806, -0.0103006, 0.0348623, -0.0977975, 0.1171797, 0.0251780, -0.0227297, 0.0776611,
    -0.0171391, -0.0277823, -0.0294660, 0.1594819, -0.0387628, 0.0267120, -0.0779159, -0.0744527,
    0.0089247, 0.0567990, 0.0109918, 0.0192996, 0.0147424, -0.0601916, -0.0725173, 0.0686579,
    0.1577489, -0.0481140, -0.0471793, -0.0010338, 0.0247735, 0.0692090, -0.0776551, 0.0447772,
    0.0292954, -0.0082752, -0.0042665, -0.0725308, -0.0262310, -0.0021215, -0.0643706, -0.0438176,
