#ifndef __NET_PARAM_PARA_QUALITY_H__
#define __NET_PARAM_PARA_QUALITY_H__

static char para_ver_quality[32] = "verquality92_20230508_v1short";

static short para_quality_conv3x3_pre1_weight[36] = {
    -4019,
        3619,
        4088,
        -1236,
        800,
        -12419,
        9086,
        8563,
        -337,
        -28786,
        -3166,
        10805,
        17021,
        16305,
        -27320,
        14558,
        16479,
        -18538,
        -8086,
        11679,
        16384,
        -1555,
        5754,
        -20270,
        22534,
        -32757,
        2131,
        1803,
        2199,
        2087,
        45,
        550,
        2676,
        -135,
        -122,
        -276,
    };

static short para_quality_conv3x3_pre1_bias[4] = {
    -32758, 15107, 18532, -31539,
    };

static short para_quality_conv3x3_pre2_weight[144] = {
    14237, 11870, 259, -4566, -10098, -13493, 6840, -11891,
    -4833, 6704, 4964, -11489, 13500, 3235, 12179, 22098,
    9829, -3533, -17588, 26468, 14375, -9989, -13986, -237,
    -3287, 11514, -23069, 4385, 9643, 1908, -4963, -5142,
    8559, 12477, -15994, 15850, 2600, -2615, 11788, 2814,
    13146, 4194, -1708, 9470, -2099, 5817, -95, -16329,
    9110, -7192, -16376, 7813, -14062, -17677, 14646, 1964,
    3120, 9977, -1659, -9913, 19625, 6065, 10854, -4177,
    -9850, 5953, 1568, -9390, 23543, -24522, 5882, 4841,
    -7391, -2682, 672, 3150, -4303, -4418, -4557, -5710,
    -2278, 3095, 1660, -960, 9284, -194, -34, 7093,
    4786, 5534, -485, -3886, -166, 536, 4773, 9695,
    -6078, 4104, -1123, 4346, -3879, -1481, -943, 1947,
    -2780, -5990, -1939, -2990, -7092, 1839, -24331, 22090,
    -18904, -32759, -9221, 6167, 11076, 8009, 3964, -289,
    -12578, -23124, -16086, -4231, -14298, -1754, 842, 5448,
    -4445, 26157, -1233, 20784, 17657, -3680, -12390, -24082,
    13416, -6108, 25298, 13595, 6261, 7778, -20202, -2780,
};

static short para_quality_conv3x3_pre2_bias[4] = {
    -22538, 11295, 2510, 32760,
    };

static short para_quality_conv3x3_ds1_weight[288] = {
    -19555, -1755, 1077, -5641, -10647, -4363, -2761, -7297,
        1876, -3871, 5883, 19702, -5611, 4619, 12493, 15643,
        7216, -6845, -4333, -4215, -995, -8533, -2396, 8311,
        -11500, -7606, 2441, -5561, -13798, 3484, -18908, -5217,
        6890, -11560, 2528, -9591, 14827, 2739, -42, 999,
        -2942, 10122, 8697, 3944, 5275, 1188, 4812, 7321,
        -4514, 11321, 5521, 11862, 5691, 647, 4783, -6115,
        1880, 5322, 7336, 595, 2461, -2856, -3479, -443,
        -1920, -749, 273, -6715, -5034, -12283, -5245, -4133,
        -5450, 2173, 3851, -1819, 7454, -6668, -2483, 7239,
        -2935, -13056, -11393, -2163, -5124, -11395, -2318, -4597,
        -6645, 4147, -3790, 2126, 1709, 1612, 3361, 3118,
        1154, 3675, 1053, 2147, -10524, -5226, 1407, -5301,
        -6919, 5574, 358, 2344, 6762, 580, 5063, 3052,
        -10299, -758, 9648, 2848, 4540, 14622, 4869, -4618,
        11675, -7385, 11521, -1037, 2767, 579, 2458, 261,
        -15216, 2442, -4240, -3397, -2168, -6870, 1561, -1668,
        8734, -2011, 9406, 2751, 1904, 5047, -245, 10563,
        -6693, 5926, -1833, -10731, 96, -1418, -3627, 4246,
        -3344, -8928, 23263, -7321, -1864, -4062, 8317, 5848,
        4673, 9077, 3076, 5596, 1747, 8368, -3723, -935,
        6100, -6647, -9057, -13824, -22753, 726, -15190, -2872,
        8830, -7360, 12445, 9960, 4496, -4483, -1756, 9225,
        -12406, -15613, -987, 20248, 4770, -3324, -17496, 1066,
        -6249, 5739, -1963, -7866, -3443, -23695, 5870, -2614,
        11314, -281, -8874, 919, 22219, -2379, -4552, 8295,
        25, 158, 8504, -12055, -205, 364, -4244, -19664,
        17800, -3476, -9636, -20812, 7844, -14934, -12682, -4680,
        20347, -3579, -11613, -2718, 1465, -1802, 19954, -9522,
        24893, 10631, 11920, 3443, -608, 6094, -2539, -4489,
        -21187, -3083, -7143, 32760, -14239, 5837, 5238, -17709,
        2331, 16478, 6851, -4086, -2554, -2151, -3823, 2095,
        1536, 2355, 4092, -3132, 466, 5608, 8738, 4956,
        -8818, 13077, 531, -11874, -9721, 9233, 24454, -4648,
        -9738, -5147, -3468, 709, -15615, -9949, 15195, 20298,
        -397, 2527, -14118, -4083, -4089, -17249, -9205, -5527,
    };

static short para_quality_conv3x3_ds1_bias[8] = {
    30131, -11428, 32760, -24363, 13378, 30591, -13721, 15321,
};

static short para_quality_conv3x3_ds2_weight[1152] = {
    -20594, 284, -9953, -2243, -1601, -2849, -7501, -10053,
        1786, 6872, -5521, 13877, -5347, 2646, -7087, 14639,
        -11134, 10322, 1523, 1391, 10053, -19301, -8517, 7058,
        15565, 7029, 13147, 3975, 6215, -14110, 3763, 7391,
        5441, 15616, 4807, 3799, 2515, 2565, 810, -6689,
        -7830, 7813, 11381, -5173, 2792, -23300, 2125, 2677,
        -2949, -465, -124, -2453, 16012, 105, -3843, 2379,
        -3742, 1856, -1069, -6943, -7015, -12216, -143, -7076,
        -7476, 17036, 4491, 10607, 12621, -2683, 11290, -7342,
        -4476, -973, -1535, -3895, 3651, -2761, 6568, -4387,
        -1134, -1713, -3024, 14447, 1302, 4913, 3879, -10842,
        16636, 8017, -541, 955, 4766, 9719, 7904, 121,
        11402, 827, 5254, -663, -765, 3651, 412, -1416,
        4378, 4752, 5857, -10183, 10084, 5138, -3024, -11,
        -19891, -9664, -7592, 1495, 4197, -5408, 6373, 1101,
        6000, 6473, 17458, 12055, 32760, 18303, -6848, -7465,
        -523, 2170, -1725, 2013, -1791, 712, 1394, 1468,
        4589, 11352, 3964, 6540, 2721, 13813, 4121, -10229,
        3572, -2589, 10176, 2371, 1123, 3385, 7658, 5285,
        4126, 515, 7321, 6076, 3856, 3493, 6955, -1567,
        1288, 1232, -11301, -7041, 702, -2067, -9014, 9915,
        -7597, -5532, 1548, 4894, 5678, 1878, -1058, 3462,
        -7811, -2693, 9153, -5469, 10918, -6180, 5380, 1606,
        -135, -892, -1548, -5237, 6028, -2271, 5170, -6555,
        -12796, -136, 5085, -3194, 6261, -5854, -8109, -9111,
        -4239, -4715, -6596, 1984, -1019, -5444, -3091, -1006,
        -7987, -506, -7552, -9887, 13243, -1397, -1086, 5203,
        -7171, -485, -15843, 264, 11695, -3797, 13160, -1190,
        -8804, -14799, 1956, 899, -5758, 1868, -8826, -8424,
        -6022, 6, 6772, -6485, -5963, -1458, -1315, 12509,
        -3469, 953, 4121, 1009, 2162, -2447, 15663, -13494,
        356, 6674, 484, 4027, -10271, -1409, -6935, -14887,
        302, 1893, -16149, 10794, -1419, -4583, 444, 6,
        1420, 6145, -5625, -11396, -12360, -26551, 3984, -15406,
        273, 7664, -7034, 3695, -1383, -9723, 8096, -7931,
        4960, 15447, -700, 20701, 19072, -1601, 7907, 847,
        5418, -3781, -64, 2358, 2453, -6796, 3817, -1980,
        -4823, -9450, 820, 3232, -12154, -11007, -1801, -13219,
        -4333, 1319, 6300, -1361, 2252, -1128, -1492, 5895,
        6032, 12790, -4973, 4935, -3638, -7034, -3511, -2427,
        -5598, -3225, 1045, -6684, 2936, -12425, 5455, -7432,
        -4293, -4087, 4127, 2877, -4949, 2788, 1500, -6183,
        4576, -7877, -3717, -638, 2826, -125, 4664, 1085,
        3550, 10970, -1471, 343, 1793, -2615, -5495, -12784,
        498, -4275, -2163, -2999, 6738, -6831, 4754, -4549,
        3243, -2925, -12494, 3446, -12861, -17842, -1827, -9034,
        -4654, -13763, 12090, 10083, -20851, 3904, 10106, 445,
        3284, 5786, 12123, -4290, -7651, -3448, -2083, 5364,
        -4019, -9938, -4493, -5603, -1671, -2051, -2955, 8066,
        7628, 3049, 1350, 12367, -18581, 2449, 544, -416,
        8808, 6347, 8043, 142, -6268, 9530, 2673, 11719,
        -1479, -20049, -5236, 5635, 2491, 1732, 3997, -8655,
        -3214, 2204, -10946, 5911, -505, -1202, -5384, 2823,
        5379, 1701, 5899, -9243, 7750, 933, 10353, 5503,
        -2513, -9502, -11327, -10579, -7491, -15616, -666, -925,
        -5722, 11398, -5372, -1026, -3339, -10518, -451, 2587,
        -2728, 1963, -3835, 19806, 5858, -5544, 16356, -4952,
        -12689, 2879, 13586, 884, -7297, 354, -10128, 7206,
        527, -12116, -1494, 2996, -8407, 9639, 16177, -17428,
        -4422, 4847, -11542, -4252, 17601, -3907, -6127, -11664,
        4913, 562, 2320, -797, -9692, -8102, 11175, -2063,
        -5616, -5390, -10603, -13937, 3400, 17449, -2440, -6492,
        16740, 13094, -4549, 10673, 4897, 5399, 10846, 5887,
        17392, 5435, 2012, 1926, -2160, -13014, -14959, 5100,
        8006, 19931, -1033, -5146, 4298, -113, 4032, 22103,
        3268, -399, 6288, 6327, -10932, 5692, -2463, -11061,
        9744, 51, -9996, -10986, -18317, 7014, -1601, -14077,
        5931, -3883, 872, -711, 4933, -6786, 12116, 1382,
        -4705, 4191, 15785, -84, -5141, -10212, 6903, 474,
        -13305, -11148, -13359, -10171, 742, -8532, -4969, -7688,
        13, 1191, 4646, -417, -11324, 8523, 560, 3109,
        -4193, 152, -3212, 4167, 5178, -287, 4500, -1162,
        -7887, -14256, 12684, -3991, -5771, -14815, -3093, -1663,
        -4048, -2136, 11785, -285, -516, 18633, -2426, 4451,
        1214, 5932, 3559, 17198, 10431, -5452, 16122, 3931,
        14937, 4015, 464, 7506, 1380, 7941, 3558, 2917,
        9581, 6004, 16140, 10214, -5292, 15485, -4288, -2918,
        10410, -1967, -7616, 2458, 11417, -2562, 46, 2773,
        -1189, 8132, 12365, 5556, 3523, 978, 4808, -4618,
        12526, -307, 2047, 2173, 7172, 6898, -4040, -2239,
        2842, -5415, -6247, 6312, 5591, 4883, 6729, -6515,
        -13342, -11514, -12461, -3275, -3983, -20059, 5385, -15656,
        -9255, -1017, -2659, -3610, -7299, -5613, -1939, 10616,
        536, -3490, -2556, -13335, -2422, 8804, 15830, 8985,
        749, -5750, 9579, -7840, 5660, -3354, -7147, 2512,
        -3063, 8181, 4032, 4357, 12837, 5842, 1248, 5503,
        2959, 13744, 4447, 10936, 9700, -7733, -6396, 220,
        -8691, 7290, 6264, -4692, -7211, -25309, 7463, -6941,
        15758, -2973, 2970, 5793, -5003, 12242, -854, 11027,
        8833, 11815, 7545, 12056, 17813, 3788, -4005, -484,
        -7174, -2193, 4519, -4409, -2097, 6300, -5343, -4097,
        -712, -930, -4221, -6731, -5577, -13794, -6937, 646,
        -8017, -1450, -5317, 7782, 4531, -5329, 17028, 12901,
        5043, -6254, -13659, 3557, 7450, -11012, -198, 7981,
        1580, -387, 7766, -3799, 9304, -23520, 5232, 7094,
        -6532, 8192, 5420, -3918, -2931, 1003, 3216, -1154,
        -20244, -17583, -19723, -6647, 495, -3640, -13292, -11596,
        -9258, -4506, -3404, -5663, -8878, -18613, -11713, 9650,
        6003, 25005, 12333, 12462, 8294, 637, 14466, 12048,
        -6657, -5320, 3598, 11529, 6367, 670, -8249, 795,
        -6084, -1156, -2951, 2366, -8645, 1857, -10590, -256,
        -1629, -12776, -5343, 2311, 6199, -2112, -7282, -4348,
        5653, 983, 7370, 509, -9662, -11273, -11742, -11935,
        -9665, -9764, 1064, 8580, -4286, 6877, -2839, -14106,
        -2951, -12686, -4818, -7378, -10655, 117, -3125, -2037,
        2160, -7143, 5143, 1579, -591, 8806, -9423, -9456,
        -5121, 5088, -4777, -10556, 9334, -4386, -8781, 7910,
        -3899, -13453, 226, 1621, -5455, -5785, -3816, 11207,
        19120, 17188, 13606, -3504, 12474, -5467, 6098, 14340,
        -12396, -1896, -3725, -4292, -4064, 6890, -1592, -13257,
        9141, 5288, 1581, -12065, 7648, -12595, 4917, 9419,
        -1973, -3459, 2602, 16213, -13322, -11024, 1573, -26929,
        -10499, -11104, 2181, -10641, 1197, 8038, 3223, 12361,
        3571, -5912, 7128, 573, -14689, 852, -14699, 2566,
        5614, -14112, 9491, 120, -7788, 379, 4593, -2086,
        -8547, -7611, 8647, 2336, -3121, 4280, -3671, 4722,
        4453, 6373, 3936, 15228, 112, -3693, 13007, -7603,
        24439, -7315, 8242, 4092, -14369, 3549, 2692, -12694,
        4547, 2636, 9061, 6708, 8486, -1005, 1338, 4668,
        11363, -11512, 970, -20348, 4792, 5043, -5899, -3794,
        10452, 531, 1064, -5509, 87, -2705, -14439, 5250,
        -9375, -784, -3611, -8200, 7251, 8942, 2138, -4768,
        -1998, -13004, -5217, 6035, -1800, 1405, -17419, 13501,
        -1781, 1515, 12907, 1057, -11892, -2690, -4393, -1521,
        -2426, -3953, -4896, 5394, -7066, 11461, 6993, -8358,
        -5790, -493, -6847, 28660, 11718, 20843, 7400, 21184,
        1578, -2102, -10917, 1125, -7626, -3282, -1555, 1771,
        -5354, -13116, 292, 10954, -3509, -1856, -7298, 15603,
        -2161, 3487, -7614, 9311, -6077, -933, -9119, -13205,
        -1585, -14311, 1177, -5810, 2972, -5145, 5664, 8878,
        -5664, 9015, 10522, 20263, 1620, 1315, -507, 4844,
        -4984, 4971, -24307, -6313, 1642, -11549, -5999, -1876,
        -5992, 12636, -17515, -2357, -1949, 2473, 5716, 16750,
        6275, 9290, 7253, -3116, -3912, -4127, -5476, -3726,
        -2223, -2798, 12030, 4431, -2650, 5690, -6032, 8626,
        8379, 2591, -9228, -9134, -7132, -10382, 1741, 7328,
        -5047, -2724, 15922, -8297, 5677, -3543, -12180, -12071,
        9419, -7742, -7736, -6367, 496, 8043, 507, -612,
        -4442, 14551, -1931, 3622, 4062, -7704, 3703, -4513,
        10296, 4608, 7936, 5640, -15204, 14503, 4805, -5084,
        11882, 5566, 11876, 26672, 7069, 11672, -4789, -8946,
        6307, -7164, 2754, 11065, -12521, 4988, -14991, -18596,
        3002, -8279, 3789, -1840, -2472, -6331, -2643, -6474,
        9725, -1337, 612, 25507, 5471, -10656, 687, -2689,
    };

static short para_quality_conv3x3_ds2_bias[16] = {
    -11220, -25538, 1166, 11934, 14465, 836, 2742, 2460,
        -30553, -6112, 9305, 32759, -2994, -5419, 9488, -6738,
    };

static short para_quality_conv1x1s1_di_1_weight[640] = {
    -5749, 6571, -9, 3029, 3597, 1392, -2173, 765,
        5498, 7128, 13475, 16185, -4154, -8179, 11131, -3873,
        -5682, -6814, -7205, 5259, 9748, 7687, 1122, 1349,
        -237, -11116, 1613, 5314, -5807, -8991, -2780, 161,
        3645, -354, 15, -3928, -2104, 11867, -1843, -5393,
        10376, 3121, 10171, 3096, 455, -5348, -1296, 3707,
        8497, -7305, 23945, -8544, -9762, 13072, 6948, -3410,
        -20183, -11215, -14501, -22693, -17705, 1562, 1870, -8988,
        2983, 6019, -6411, 2068, 368, 11384, 8981, 3902,
        11123, 14230, 6882, -1874, 7605, -3418, 5650, -204,
        -2706, -9699, -2795, 2034, 7074, -5080, -2173, -4316,
        -3697, -2836, -3195, 7450, 3962, -5045, 1192, -3639,
        11050, -1662, -467, 9986, -14076, -652, 85, -7083,
        1799, -2857, -1970, -24381, 10845, 1324, -5498, 5107,
        9009, -269, 154, 3741, 4320, 8607, -7063, 2237,
        -11619, 765, -16937, 4228, -8254, 133, 13844, 4458,
        -4113, -7694, -1943, 4785, -11802, -4954, -336, 5762,
        -9551, 3582, -7594, 2228, 7574, -4690, -4441, -3780,
        7182, -2834, -16640, 8308, 1723, 9212, 4073, 2788,
        -17639, 3574, -4241, -9785, 6408, -7440, 12719, -13818,
        3178, -8765, 4988, 2948, -10766, -4987, 4865, 12638,
        -881, -2663, 8626, -2851, 2260, -1556, -9771, 1643,
        -5347, -4586, -4941, -1254, -14315, 16260, 9885, 10223,
        7888, 1803, -15021, -3597, 1372, -3564, -7052, 4785,
        -2072, -18033, -1875, -7878, -8410, 8685, -4509, -5216,
        4177, 5007, -6225, 10536, 7889, 2264, 72, 4171,
        -6559, -1893, -5586, -1256, 7566, -5087, -6962, 714,
        -8574, -4794, -453, 886, -6588, -5013, -1896, 613,
        -4241, -2123, -3422, 2254, -11155, 16565, 1194, 5021,
        14104, -2450, -2599, 412, 1669, 322, 1383, -393,
        15273, 5352, -5312, 8933, 12772, 20197, 7320, -7577,
        -6327, -5901, -20773, 6567, 6526, -2371, 2230, -9434,
        729, -441, -6838, 3720, 152, 2816, 2487, -36,
        12375, 6750, -12602, 7756, -2782, 4975, 1344, 6482,
        2616, -3560, -14172, -4110, -10711, -4311, -12364, -830,
        3221, -115, -18242, 1429, 1216, -19018, -2661, -6400,
        5064, -6091, 5670, 9666, -1547, -1706, 5378, -1946,
        5561, -21439, 13916, -8319, 6299, 14315, -7601, 5970,
        -14520, -6793, -13587, -7942, 5138, -11581, -15763, 10950,
        9352, -2751, -9565, -9388, 1714, -3914, 7005, -5765,
        5312, 206, -1633, 1092, 1462, 3866, 2286, -2170,
        8444, 6396, 3666, -7618, 1412, -1217, 2997, -1186,
        -7202, -4103, 8722, -2683, -5753, -1116, -8637, 4031,
        1265, -1063, -11067, 1547, 3107, -1755, -467, -3010,
        -3077, -1931, -15912, -5232, -7781, -4911, 1382, 4625,
        -4604, -8248, 3724, -5393, 23536, 552, -4972, 4527,
        -1163, 11194, -9549, 6192, -6482, 13800, -3057, -8271,
        -1902, 5963, -8293, 2120, 7660, 2493, 1702, 7493,
        -14653, 12609, -1925, -1485, 9209, -2396, -9266, -1291,
        -9759, -8644, 2848, 1607, -1468, -1938, 200, -7556,
        -993, 5690, 6461, -6562, 4776, -9625, 444, -4835,
        -7192, -420, 6678, 6419, -1823, -3823, 1958, -6560,
        1161, -5061, 9760, -4160, -2191, -2201, 4085, -14948,
        -3154, -614, 10065, 8231, 8046, -6919, -10244, 6942,
        -5966, -2073, 10251, -8815, -7542, 11897, 19877, 18984,
        -15866, -1088, -2579, -118, -20685, 15152, 17283, 7528,
        -20778, 4492, 5712, -378, -9214, -3078, 5139, -4363,
        -10214, -12624, 2627, -4595, -7027, -17677, 8355, -5937,
        -3673, -116, -2406, -1747, 3146, -3586, -1243, -13637,
        -4005, -2778, -624, 4109, -888, -2353, -3717, -212,
        -4480, -2838, 4144, 3499, 4122, -1996, -1345, -537,
        -4134, 1190, 3342, 7651, 13699, 11409, 4111, -10340,
        11422, 29607, -26424, -15360, 13282, -9315, -351, 1377,
        2999, -19336, -10185, 1442, 15474, 7257, -229, 4976,
        3755, 5745, -385, 3899, 3429, 10664, 11104, -4803,
        824, 2069, -9288, -18816, -1609, -1716, 1618, 2230,
        7571, -3210, -3491, 11677, 5684, -2938, 4597, 656,
        1010, 7081, -967, -16486, -7701, -5718, 1296, 8544,
        -972, -3906, 9193, -4447, 5274, -3493, -1366, -3742,
        4391, -7086, -5623, -5391, 7997, 37, -4848, -7660,
        3590, -1318, -10117, 6061, 8158, -4586, 8118, -6496,
        8116, -2224, -11432, 273, -5337, -3669, -5631, 1339,
        -7695, -6207, 1994, -1377, 12849, 11338, 4499, -3380,
        -23196, 4485, 14190, -12379, 1377, -11873, -9899, 32759,
        -5596, 16740, -3812, -2742, 61, -5699, 3225, 6253,
        5036, -4993, -6302, 446, 11663, -4003, -7610, -11937,
        -4923, -5871, 9479, 2286, -5637, 162, -557, 1222,
        -6723, -13936, -2749, -448, 3132, 2369, -2296, -1206,
        5873, -6462, -4197, -1907, 1218, 9971, 3634, 3204,
        7129, 7217, -1386, -3975, -1439, 3586, -14784, 4444,
    };

static short para_quality_conv1x1s1_di_1_bias[40] = {
    -21921, 7585, -8344, 27061, -20707, 11286, 12088, -1324,
        15264, 5467, 4710, 6580, 5304, 18080, -6662, -11141,
        -9502, 32760, -1941, 24702, -4963, 11412, 10865, -11035,
        11106, 4967, 5678, -16491, 25096, 14330, -9055, -1522,
        335, 3536, 12613, 6661, -1796, 4937, 10470, -2354,
    };

static short para_quality_convdw3x3s2_1_weight[360] = {
    -4647, -3326, -6794, -7094, -8796, -4182, -5758, 3398,
        -4798, 1826, 2009, 7741, 2149, 4802, 2138, 8185,
        480, -3832, 12001, -7753, -6653, 1207, 6572, 10720,
        1181, -5508, -7939, -2970, 2117, -190, -769, -5906,
        -4812, -812, 1329, 412, 6220, 1494, -5366, 9096,
        4382, -5116, -2116, -1040, 2475, -3273, -4179, -3858,
        -3527, -10874, -3957, 3793, -6678, -4982, 2340, -4749,
        1616, -805, -8427, -4851, -3157, -900, 702, 9354,
        4502, 3356, 6048, 2891, -2234, -2387, -450, -583,
        -619, 9259, 4563, 5977, -7024, 5414, 3899, -8807,
        5928, 931, 1942, -12156, 1800, -7061, -3848, 3489,
        -4303, -2732, -1083, 4004, -1367, 3541, -2433, 3354,
        2794, 6055, 2331, 4957, 59, 5497, 3720, -2096,
        2854, -1516, -2636, -2685, -3994, 4990, 1535, -3888,
        3570, -5419, -10875, -3307, -9499, 7084, -15472, 5849,
        -2813, 1822, 17940, 2564, -9393, 4687, -11658, 5524,
        -3492, -8, 1496, 495, 1427, 2306, 5089, -671,
        6036, 3498, 4469, 7127, 634, 368, 2897, 1419,
        834, -6468, 5249, 4944, -2609, 350, -1753, -5866,
        4494, -2177, 2582, 1168, 6623, 9038, -391, 12825,
        5510, -7085, 600, 661, -7807, -1532, -319, -1475,
        494, -2938, -4618, -863, -2314, -1716, -4348, -9713,
        -3732, -869, -6082, -2045, -889, 4935, 4228, 8381,
        -12654, 8017, -9000, -20110, 2225, -3376, 6798, -8229,
        -2446, 16759, 11736, -667, 3819, -9970, 10037, -7570,
        2519, 4020, 13899, -16529, -15945, 15070, -12531, -7433,
        -6366, -6251, 7526, 2004, -4656, 3395, 876, -4700,
        -8129, -2226, -6022, -4396, -1445, -6391, -1695, 3946,
        -3174, 7051, 9533, -13529, 5837, 14827, -3468, -15353,
        6766, -7761, 1266, 3302, 3953, 3073, 12247, 5648,
        -1000, 4767, 3636, 3918, 2170, 3544, -9920, 4336,
        6437, -18162, 2395, 3117, -1181, -10268, 6945, 12346,
        -10096, -1420, -5369, -3633, -6948, -32760, 9732, 15250,
        -10779, 13868, -1110, -8864, -14392, 11370, -5775, -1335,
        5335, -688, -8922, -1252, 5884, -5581, -6682, 2806,
        2073, -1117, 1906, 6311, 211, -3674, 3937, 3993,
        1825, 2438, 362, 3949, 5535, 427, 2333, 2641,
        -607, 1185, 2709, 2975, 2521, 3496, 421, 3112,
        -646, 361, 3473, -571, 6289, 15574, -330, -11332,
        14530, -3039, -7049, -7278, 15936, -10008, 5327, 960,
        34, -1271, -907, 46, -8775, -2012, -78, -1105,
        254, 1352, -556, 261, -1483, 962, -4037, -4321,
        -7128, -6688, -3247, -3471, -4165, 1518, -1651, 14810,
        -15852, 24754, -5670, -16668, 6632, -29007, 9517, -528,
        -10195, 203, -2234, 12250, -8069, -4548, -512, 629,
    };

static short para_quality_convdw3x3s2_1_bias[40] = {
    18569, -20193, -15467, 7915, -18406, 32760, 15234, -23673,
    -12586, 4561, -8376, -20605, 18594, -8062, -2874, -14349,
    -18515, -14032, 13251, 26431, 5217, -7042, 1204, 3784,
    15311, -16623, -28850, -8695, 11213, 4079, 16398, -13133,
    -15711, -24872, -6553, -15551, 7795, 22520, 9577, 1997,
};

static short para_quality_conv1x1s1_dd_1_weight[1280] = {
    1545, -6028, -10307, 8897, 6084, 5735, -2860, -4111,
    -10988, 5356, -5174, 3931, -3051, -3619, 12145, 8200,
    -4447, 17303, 19381, -13982, -7359, 9347, -3674, 7130,
    1101, 10882, 513, -1877, -8484, -3167, -3867, 5318,
    -8816, -4497, 329, 10204, 3992, -25617, 5255, -4006,
    7992, -12188, -1296, 7323, -9731, -15328, 4561, -4460,
    -2337, 2463, 4163, 1637, -6844, -3872, -8868, 1793,
    -311, 3567, 340, -8946, 3885, 224, -1006, -4124,
    1484, 11618, -576, 486, -5720, 11252, -4743, -5800,
    -7400, 416, 4195, 4695, -797, -668, 237, 3413,
    -9004, -3017, -28307, 4985, 5307, -18433, -479, 10520,
    9791, -6042, -8944, -2773, -11492, 1318, -11176, 8978,
    195, 7821, 7786, 11623, -12058, -6800, -8701, -25466,
    -7939, 5915, -3568, 2152, 10408, -6697, -27630, -4130,
    -7473, 3994, -3392, 1799, -11867, -10414, 5181, 976,
    -12840, -10190, 5882, -1663, 9849, -20199, 3793, 11811,
    7862, -9609, 7668, 2753, 1468, 7126, -14703, -9832,
    -10145, 2952, 9139, 1772, -5013, 7305, -581, -4853,
    -17828, -7871, -6078, 17363, -424, 6265, -3779, -1944,
    6984, 16159, 8391, -22300, -4823, -11203, -5423, -3815,
    3004, 2356, -1236, -4905, 2295, 6571, -2076, 2466,
    -15682, 1900, -4238, -3186, -7710, -687, -2428, 11524,
    -1712, 917, 6213, 6729, -8296, -8551, -2747, -3037,
    -2021, 10132, -7751, -3603, -3418, 235, -812, -6281,
    -2367, 5838, -460, -11140, -1352, 4227, 2393, 3844,
    677, -1195, -4176, 8, 3006, 5359, -872, 2504,
    -2671, 1618, 6671, -3085, -3934, 3506, 878, -3155,
    -3625, -1526, -688, -5201, 2568, 9311, 3088, 5456,
    -1689, -6025, -1395, 6506, 3400, 4185, 234, -3769,
    1568, 374, 10182, -718, 5868, -12155, -1918, 7019,
    -4913, -11606, -431, 11348, -5953, -12561, -9094, -2118,
    11768, 791, 3252, -4786, -4969, 5236, 4546, -8701,
    -6940, -10026, 8777, -6473, 2678, 4165, -2720, -9,
    -12400, 4345, -8290, -42, -7810, -3618, -10143, -4118,
    5790, -1731, -2573, -4341, 1268, -10376, -7999, 5902,
    -8823, 1999, -3088, 2529, 2016, -13546, 7621, -2270,
    12268, -9410, 6131, 2292, 2987, -5553, -2032, 4630,
    1688, 6444, 7038, -11021, 2414, 7435, 4735, -2197,
    462, 3177, -2455, 383, 5785, -390, -8821, 5290,
    -11236, -6822, -1923, -839, 2921, -13400, 13891, 12651,
    10232, -1415, -2535, 7288, 2328, -1933, -3218, -784,
    -7342, 11609, 2108, 526, 9818, -1146, -2185, -1113,
    -7475, 7386, 8961, -7843, -12224, -11473, 16766, 6975,
    6772, 9498, 6835, -12036, 17396, -7310, 6851, 155,
    -3111, -3784, -11610, -1946, -11128, 69, 10974, 1854,
    3327, -3473, -509, -2984, -4370, -14179, 12502, 3594,
    3552, 6264, -21222, -4883, -6686, 4834, -3735, -1224,
    443, -6637, -649, 1715, -5340, -8055, -8675, 274,
    3607, 2633, -5846, 10071, 5792, -2869, -7891, 10240,
    -8847, -2679, -7031, -6463, -811, -1018, 1022, 1686,
    -3757, 1761, -2696, 7606, 1228, -6819, 17854, -3434,
    -3442, 11040, 1056, 2537, -6007, 6041, -2210, -6426,
    -2120, 9302, 7660, -12441, -2986, -2058, 3904, -2281,
    -13401, -5121, -5162, 3952, 642, 6941, -3223, -1606,
    586, -6571, -4729, -5544, 15974, -13990, 11496, -94,
    -3219, 4947, -2630, -1650, 5399, -3445, 10242, -1678,
    2698, 435, -12804, -17, 1589, 6287, 897, -2268,
    -7469, 6880, -4875, -7090, -3628, -9679, 4338, 7700,
    -1524, 10309, 2273, 2496, -1898, 3877, -8825, -5411,
    9460, -761, -6631, -585, 642, 4705, 8512, 1597,
    -7120, 23796, -23328, 274, 781, 3917, -15439, 15973,
    -1895, 3730, 12382, 16775, 8471, 333, 15253, -385,
    -24325, -871, -10014, 153, 6072, -2427, -17241, 7066,
    3040, 14773, 8191, -8935, -20248, 6609, 11221, -13755,
    -14567, 2827, 9489, 9219, -7916, -9214, 17711, -3143,
    -3165, 10387, -16633, 1637, 10429, -205, 6547, 10047,
    -11981, 1059, -2134, 17145, -8431, -5491, -9469, -4320,
    -4923, -3781, 2040, 6301, 4799, -5901, 70, 2624,
    -9763, -4117, -2208, -2993, -12632, -8897, 9264, -895,
    487, -2747, -3118, -9059, -5734, 4069, 2943, 8259,
    2086, -801, 1345, 11003, 9441, -11738, -2538, 13066,
    7786, -11528, 3289, 6840, -4299, 7117, 6597, -5553,
    -5330, 22416, 5142, -13188, 5415, -6696, 7248, -1846,
    -6295, 6201, -3530, -2700, -697, 8752, 399, 12989,
    -4071, -1524, 10251, 2965, -1612, -2839, -5355, 7161,
    5369, 4173, -9260, -12917, 1566, -5081, 138, 1554,
    6215, -2835, -837, 4086, 9040, 8890, -685, 1875,
    -5409, 15592, 1758, -10844, 7557, -3197, -1647, -190,
    156, 7119, 7597, 839, -7857, 3585, -9345, 1812,
    -3236, 6199, -1334, -5846, 2034, -13861, 382, -1135,
    -12863, 5403, -7305, 182, -1054, -19217, 21058, -4974,
    3215, -11850, 575, 3547, -3792, -3266, 8572, 4824,
    -13824, 7815, -12357, 532, 28386, 11526, 13986, -3608,
    68, 3547, -4686, 114, -2672, 6331, 17642, 1833,
    -6085, 7639, -8565, 533, 11990, -17125, -2261, 749,
    -12912, -4746, -3200, 597, 6254, 583, 4574, -16345,
    2769, -6949, 7172, 5018, -15997, -2035, 11539, -13843,
    -11026, 1875, 11782, 23569, 12616, 4592, -8046, 8410,
    -635, 9661, 19396, 6926, 10577, 3874, -3449, -4256,
    -6029, -3675, -7179, 6138, 445, 13333, -3766, -16468,
    2603, 8866, 3094, -22209, -4520, -3962, -1235, -6670,
    -9160, 5807, 6221, 10320, 16350, -4583, 3998, 4587,
    5814, -11123, -1725, -13686, -9903, -12384, -16686, 7004,
    5779, -2290, -9159, 4384, -1396, 6734, 13631, -10686,
    9028, 3428, 491, 1329, -7632, 9784, -1186, -3036,
    2063, -8927, -3594, -1556, -7619, -793, -7306, -10202,
    5646, 11036, 4044, 8693, 2488, -8146, -3607, 2800,
    -7082, 5670, -349, 9300, -3618, 8727, 3270, -2130,
    4574, -3057, 905, 5282, -4611, 4452, -2863, -1033,
    1366, 10103, 11516, -3015, -6200, -13688, 4870, -2504,
    8721, 16721, 3919, -14550, 2860, 7709, -399, 17267,
    4095, 7636, 5711, 13404, -1166, 16821, 3200, -7605,
    -2073, -5461, -1097, -4069, -11421, 1038, -1974, -9458,
    3123, 6863, 388, -12089, 11729, -14580, -1204, -3442,
    11118, -306, 14658, -4404, 3347, -1118, 362, 2996,
    -12698, 4492, -7526, -8399, -8429, -17949, -2920, 2287,
    3374, 3054, 3080, -588, 7775, 2227, -552, -6378,
    -2017, 2472, -3454, -11, 915, 3978, 2424, 10820,
    -85, -804, -2042, -322, -9433, -5407, -5027, -5261,
    -3214, -3276, 2649, -6286, 274, 3392, 1893, -4945,
    -5683, -4334, 4496, -502, -8684, -6654, -551, 2643,
    -513, 7128, 5248, 2167, -866, -1476, 675, -9802,
    2304, -2616, -2080, -23364, 5928, 6702, -1059, 8658,
    -7887, 8213, -10160, 4157, 2169, -10370, 2940, 4990,
    2698, -4027, 4666, -5696, -3767, 4220, 2702, -3138,
    204, 5800, -607, 8479, 10813, 4259, 126, 4451,
    189, -1636, -7362, 1359, -3745, 11825, 1665, -11537,
    -5218, -11032, -260, 10094, -916, -11932, -11766, 11531,
    14019, 10019, -3177, 2372, -17866, 9653, 78, 1290,
    13511, 7816, 11139, -4640, -858, -5055, 10451, -5943,
    2950, 2048, -6669, 16168, 4077, 2734, -2211, 3256,
    -6023, 15159, 3823, -148, -4634, -8933, -1257, -8141,
    106, -5910, 13787, -10452, 11993, 8420, -3746, 4614,
    -130, -840, 6801, -4038, 1503, 1114, -1965, 2,
    -18948, -3471, -1281, 5623, -6153, -14659, -56, -4612,
    2513, -9859, 17674, 16332, 5310, 8417, 1303, -4512,
    -8820, 10287, -4657, 20656, 915, -11898, -2876, 11453,
    -10549, -3481, 5154, -4064, 463, 7820, 5662, -1665,
    -7909, 8382, -7415, 9350, -25633, 5072, -1237, -16844,
    -8873, -1880, -2222, 11308, 9344, -3403, 4454, 13339,
    8258, 7726, -3308, 564, -2569, -7758, 17301, 4592,
    -6227, -823, -183, 2007, 2678, 5617, -4671, 9477,
    10835, 1643, -5890, -1745, -2831, 873, 2213, -3329,
    15509, -1410, 7809, 4475, 7736, 2477, 10726, 929,
    2429, -9567, -13926, 10186, 15, 611, -5223, 7993,
    999, -8171, 2505, 6829, 7981, 4770, 5466, 121,
    -7423, -1825, -3045, 3697, 3132, -1841, 2226, 4233,
    -54, -5271, -2202, -788, 7857, -1050, 4319, -5095,
    2523, 2810, -3073, 1413, -3921, -5970, 2019, -255,
    9522, 817, -6345, 4949, 406, -4622, -144, -1118,
    5299, 2581, 2570, -12325, -2725, 8457, -3503, -7842,
    392, 10595, 4830, -6949, -12350, -8344, -3072, 6374,
    14435, -6766, 1925, -8449, -166, -2128, -1280, 515,
    -80, 3120, -774, -778, 3008, -4232, -786, -3612,
    -6351, 1247, 11807, -235, -1231, -1934, -8473, 5935,
    4787, 2568, -5197, 15024, 2504, 17657, -16185, -1322,
    4605, 13981, -1837, 5052, -10204, -7675, -740, 11074,
    -32760, 2956, -7730, 14237, -2273, -2656, 7297, -4051,
    13339, -5517, -1941, -14318, 5433, -3149, -8108, -2874,
    -6142, 6784, -9915, -9806, 6262, 14598, 1244, 6414,
    -6923, -1758, 17198, 5153, 7374, -2828, 2514, 9259,
    9283, -6273, -2893, 293, 3963, 9403, 14090, 10481,
    8203, -428, 5566, -8526, 1261, -4505, 6729, -7045,
    6548, -6345, -794, 2291, -4136, -2909, -2704, 200,
    9677, 4378, -3337, -1829, 936, -10899, 3938, 4095,
    -6900, -15876, -1055, 12530, 18953, -7939, 23169, -12437,
    1601, -3266, 14485, -3291, -11889, -2789, -10328, 5212,
    -8177, 11516, -4914, -3319, 8688, -7458, 2946, -10111,
    -22043, -7012, -3935, 9898, -1376, 12927, -7304, 6089,
    -9525, -8834, -7344, -12622, 10054, -4165, 828, 4175,
};

static short para_quality_conv1x1s1_dd_1_bias[32] = {
    7628, 18384, 28683, 7340, -1987, -681, 32760, 609,
    -4509, 25718, 11600, 2976, -10943, 1574, -13286, 4921,
    -2572, -22237, 17399, -10796, -15527, 17937, 18687, -9215,
    13189, 16110, -11266, -1954, 7009, -30224, 1875, 9342,
};

static short para_quality_convdw3x3s1_2_weight[288] = {
    492, -3611, -4259, 1714, -13832, -1510, -2129, -10141,
    6096, -2724, -19420, 16001, 4413, -1557, -1991, -9334,
    -9765, 20446, 1076, -1037, 6267, 4268, -130, 3130,
    -783, -1127, 8253, -8405, 12455, 2209, -12281, 3952,
    -126, -15599, 19036, 7818, -8579, -14361, 7074, -3188,
    5009, 4665, -246, -10882, -1878, 1098, 1929, -2186,
    2693, -12600, -2487, 4522, -8491, -5119, -1134, 1236,
    3798, 830, 5464, 8899, 299, 2223, 4737, 6300,
    -5013, 179, 1372, -9713, -7916, -4129, -2531, -3874,
    6097, 2197, -8486, -2189, -16508, -4272, -3152, 4322,
    1356, -4757, 14224, 586, -7604, -4507, -8732, -7460,
    1738, -907, 2725, 5041, -4556, 1497, 6210, 5217,
    708, -1369, 9654, 6706, 6498, -6450, 3476, 7602,
    1189, 2824, 4761, -3687, -4566, 942, -6915, 11933,
    -10827, 15707, -4898, -3573, -2229, 5093, -4515, 11420,
    3212, 8453, 5107, 439, -11433, -3888, -6708, 13112,
    2298, 2679, 4096, 1935, -10262, 2653, 13935, 180,
    3681, 6774, 500, 10306, -785, 4977, 6074, -3752,
    -2177, -4787, 7402, 5597, 8232, 142, -4465, -2051,
    13056, -1279, 15363, 7874, 3153, -4815, 6805, 1324,
    -627, 1543, -6183, 2460, -2074, -3972, -5138, 603,
    802, -5006, -10990, -1645, 2302, -82, 8898, 5012,
    6948, 1831, -1758, -363, -14451, 4081, 24234, 8918,
    13753, -21035, -16110, -6267, 10184, -12223, -9276, 16698,
    3698, -7774, -4481, -10803, 16600, -12839, 767, -8826,
    -1420, -5622, -3949, -734, -1785, -8012, 1686, 1660,
    -12368, 2905, 32760, -5013, -13793, 4425, -8323, 3145,
    1937, 4662, -7476, -4442, -24995, 12719, 1222, -8423,
    4546, 9947, -6130, 4005, -6610, -463, 13903, 7197,
    -15962, 3765, -2921, -2485, 4238, 4375, 5076, 2201,
    3231, 3945, 10897, 5590, 8957, -1451, 8587, -631,
    6546, 5149, 6904, -14179, 7349, -1239, 353, 4229,
    8770, -833, -8555, 4964, 10600, -2415, 6659, 688,
    4577, 3043, 7595, 922, 269, 3864, 7256, -4681,
    -4360, -6373, -11055, -5675, 6039, 321, -7891, -4561,
    -2458, -2256, -1206, 698, -6240, -1769, -209, -7155,
};

static short para_quality_convdw3x3s1_2_bias[32] = {
    16814, 24699, -3294, -763, 5016, 3198, 14262, 12976,
    4396, -2449, 18633, 16802, -11627, -7238, 32760, 17609,
    12651, 13740, -4783, -4887, -15890, 2717, 12297, -26012,
    16090, -7328, 6143, 17124, 7926, 3108, 11378, 13610,
};

static short para_quality_conv1x1s1_dd_2_weight[1024] = {
    -8765, -7219, -5835, -1123, 6791, -21128, 9808, 5264,
        -3176, 4370, 12054, -822, 6415, -5606, 9216, 11812,
        9106, 2402, -1860, -4794, -3117, -1039, -9579, 2405,
        10277, -876, 2344, 4586, -3481, -2018, -9115, -3536,
        -6064, -2041, 2601, 15028, 21611, 5394, 5028, -1500,
        561, -1927, 8443, -8312, 11046, -1040, 290, -2335,
        15776, -4384, -723, -7634, 9769, 15045, -2492, 3655,
        -1556, 11518, -698, -13238, -267, -7442, 3192, 4293,
        895, -1695, -1093, 3303, 8270, -9317, -6210, -8582,
        3311, 2357, -1140, -14931, -2118, -5724, 16070, 1548,
        6437, -3339, -6337, 2480, -8161, 1355, 2391, -6862,
        -7743, 4155, -3362, -5121, 4991, 4846, -450, 5081,
        5965, 2262, 2798, 12582, 5809, 3476, 21300, -10646,
        -207, -15390, -2794, -3806, -10413, -4455, -585, -14074,
        9406, -5642, -1638, -2230, -9630, 5259, 8841, -13144,
        -2903, 6561, -5929, 9149, 5244, 7071, 11043, 5175,
        12279, -6233, -5901, 2374, -4700, 13253, 723, 7847,
        12367, 11988, 5649, 631, -9101, -7619, -8121, -1453,
        4475, 15429, 908, -11422, -1816, -13421, 9399, 10289,
        -146, 5655, -3007, 11113, 445, 13312, 3027, -1765,
        9502, 5799, -5843, -3827, -13675, -7007, -9951, 917,
        41, -2298, 4578, 12418, 3560, -3109, 4440, -10818,
        7561, 16306, -1985, 3073, -8843, -9582, 6357, 6745,
        -17174, -11332, -4636, -1434, -7266, 443, -2794, -10053,
        3312, -3708, 21360, 12092, -6583, -6934, 12144, -12020,
        -735, 12244, -799, -4074, 14456, -1547, -6764, 568,
        13163, 1447, -14733, -17865, 2835, 11954, -6368, -7090,
        9504, 16234, -1585, 2284, 439, -11577, 8666, 26505,
        -999, -6035, -2898, -6230, -15796, 23635, 9225, -3088,
        9331, 3508, -1176, -10763, 1379, 9771, -24649, 5417,
        -17346, -4089, 857, -2448, -427, 8226, -9400, -5237,
        -16823, -10021, 14912, -408, -5707, 5360, 10637, 7692,
        -8591, 9233, 8550, -12574, 4047, -5563, -12241, 5069,
        -5665, -8088, -1444, 8320, 4438, 3460, -11834, 632,
        -1934, -9028, -6722, 3854, 2098, 13575, -2856, -12560,
        -5929, -8328, 13966, -22434, 1646, 3641, -1475, -2823,
        -6799, 10921, -2140, 6212, -3494, 1706, -6186, -6489,
        -4051, 7650, 10393, 3245, -4476, -3670, 3055, 1534,
        -4064, -7132, 3048, -171, 4426, -680, -6854, 7469,
        4171, 6236, -3847, -5462, 5451, -15905, 67, -2419,
        1583, -4258, 1184, 8198, -3991, -9316, 1730, 2402,
        -15539, -3087, 4685, -5261, -2645, 3113, -4630, 1248,
        5344, -760, -5445, 643, -3443, 7839, -4979, -2013,
        7227, -11559, -12398, 21199, 10309, 4866, 9413, 7562,
        -12346, -3517, -19213, -8732, 993, -22398, -1470, 6575,
        1435, -9145, -7583, -4649, 67, -1714, 14269, 6776,
        1192, -8754, 6724, -4570, -18255, 8995, -4505, 3727,
        699, 2437, -11670, 3805, 3933, 19635, -5004, 8759,
        6690, 1957, -9042, -1446, -461, -1007, 11216, -1936,
        -5837, 1105, -9307, -3682, 4081, 5908, 16067, 11776,
        8664, 5842, -6615, 5131, -752, -6984, 3235, 12098,
        1592, -14644, -10619, -4135, -6701, -7349, -2954, -5921,
        1360, -5436, 9126, 5287, 9673, 1006, 1537, -7418,
        -8429, -7504, -24573, -9713, -2016, 2734, -5134, -12471,
        8831, 13090, -17491, -553, -10923, 16116, -9841, -15168,
        3163, 64, 6365, -251, -5884, -13336, -10689, 1082,
        2290, -4094, 10624, -11728, 3497, 31651, -5776, 10588,
        18108, -10533, 5480, 8863, -5148, 14157, -29222, 21591,
        -16653, 16382, 21156, 10838, 4820, 1727, -12953, -10366,
        -10263, -3606, 11726, 23747, 5927, 16181, 12097, -6017,
        5165, -5614, -119, 3355, -4630, -4052, 8859, -7238,
        3338, 1708, -1897, -8215, -881, -8585, 3193, 4547,
        -5156, 1073, 4671, 11194, -1324, -1352, 645, 3907,
        10391, -3289, -6550, -1769, 5466, 3687, 4513, -4338,
        10118, 3861, -6951, 619, -2332, -7510, -13186, 2851,
        3699, -4833, 12098, -9219, -7285, -88, 2979, -2254,
        17338, 15297, -12511, -536, 3516, -313, 10931, 606,
        5968, 3757, -3126, 1649, 4578, 11090, 832, 7380,
        -18189, -7419, 1357, -2516, 17542, -22343, 161, -12069,
        -2768, 6160, -24592, -3749, -2040, -30687, -22636, -10860,
        32759, -31917, -2723, -4861, -8054, -7415, -3326, 5090,
        7057, -56, -2910, 7350, -19344, 12416, 8251, -11643,
        10726, 7819, 272, -9219, -1519, 7372, -13980, 2157,
        290, -5411, 398, 5089, -2701, 5030, 1228, 3374,
        13943, 1900, -244, -5076, -5825, 6133, 828, 1132,
        5740, 1966, 7925, -11582, 974, -5811, 6299, 2980,
        7320, -17242, -6407, 4745, -2347, 2685, -76, -3335,
        -876, -13739, 394, 7218, 8914, -7594, -8399, -11726,
        8826, 3944, 5752, 15928, -12745, -9716, -6263, 138,
        -6233, 4087, 14316, -2617, -6149, -10227, -8466, -7376,
        -1673, -6905, -4019, 14143, -11345, -8965, -17438, 10979,
        7300, -4453, -12992, 4167, 4323, -2785, -936, 1939,
        -6553, 8427, 13438, -4377, 2362, 325, 7656, 15518,
        -3392, 1285, 5153, -1775, -8655, -1206, 7678, -10306,
        -2824, -5582, -5106, -324, -5094, 11763, 293, -1266,
        -7592, -11542, -16049, -10822, 13271, 6924, -3388, -3623,
        -2809, 267, -3756, 3437, -2368, 8098, 4762, -3611,
        16096, 7244, -13770, -5539, 2431, -1332, 10014, 9886,
        1966, -5008, -6611, -90, -2245, 435, 1183, 7351,
        -1739, 3449, -2971, 1487, -1378, -411, -2536, -5374,
        -394, 2223, -4231, -4798, 1820, 1917, 466, 1920,
        4082, -3105, 4857, 6806, -2647, 2656, 697, 5686,
        -7636, 6867, -3698, -4492, 197, -6269, -7887, 4690,
        1797, 6789, -4792, -8185, -8071, -2798, 3733, -11057,
        16331, -19192, 4196, 11793, 128, -4856, -9234, 510,
        15876, -3769, 201, 11470, -3812, -12352, -13651, 5317,
        1789, 7635, -6997, 271, 8615, 3046, 6553, -6929,
        4009, -994, -2633, 11628, -13650, 9949, 10537, -5119,
        -2903, 11983, -9070, -4124, 2880, -5244, 6177, -469,
        -5813, 4765, -5296, 15136, 19223, 3937, -2499, -2161,
        4971, -1067, -12116, -9082, -3543, 2933, -8618, 1286,
        8637, 4134, -7285, -6033, -9189, 1391, 7046, 5403,
        -9193, -172, -5262, 2018, -1716, -2070, -3578, -471,
        5212, -3979, 12268, 11788, -3115, 6888, -4463, 8865,
        -4173, -1312, 148, 1237, 1559, 4369, -2457, -8219,
        -7, -6550, 6752, -6251, 8235, -5214, -2341, 7806,
        1929, 6702, -2552, -2732, -1581, 7717, -1077, 3526,
        -6737, -1270, 2425, -9114, 15017, -5545, 2422, 7211,
        -525, -5038, -1777, 391, -2303, -10139, -4555, 7543,
        -5358, 1945, -739, 2394, -1848, 4301, -958, -3089,
        -3530, 881, -566, -1420, 5918, 1858, 8750, -8473,
        -2928, 2022, 381, -811, -6341, 5446, -2259, 6911,
        -4397, -19015, -8569, -2743, -3594, 3435, -6649, 9728,
        -2110, -5810, 2329, 14108, -19679, 10074, 1497, -5880,
        -11027, 5643, 7395, -10128, 3528, 3538, -3755, -19937,
        -878, 1846, 1527, 425, 12546, 7986, 806, 546,
        -12373, 570, 498, 8033, -3870, -6115, -1439, -9342,
        3668, 7080, 922, -1908, -7242, -780, 13248, -2959,
        -1329, 1013, 4861, -4333, 19106, -6568, 2488, -12042,
        -7432, 13909, -8917, 2089, -1666, 2079, 12465, 1855,
        -14269, -2649, 9559, 2423, -7198, 4956, -5929, 4017,
        4669, -23224, 5780, 14521, 3156, 9410, -3208, -10097,
        829, -4270, -5464, 2405, -752, 2747, -720, -6442,
        -4642, -1817, 7133, -697, -149, 5174, -9703, -3024,
        -8741, -2062, 6463, 15780, 603, 685, 6699, -7223,
        -2087, -5129, 9245, 4907, 11671, 8541, 13090, 6121,
        1901, -1221, -6649, 2580, 2453, 6196, -6981, 7476,
        535, 9567, -11433, 3513, -3925, 2798, -5974, -19191,
    };

static short para_quality_conv1x1s1_dd_2_bias[32] = {
    -5609, -4115, 3001, -5960, -17612, 5503, -8003, 11518,
        14103, 5640, -7206, -312, -3333, 21399, -24970, -538,
        -12216, 32759, -9350, 13203, 4808, 9139, -2097, 10067,
        -11105, -1742, -1044, -790, -385, 438, 7478, -1653,
    };

static short para_quality_conv1x1s1_dd_se_2_weight[256] = {
    -29447, -9725, 23506, 18073, -14202, 31293, -20309, 16475,
        -15143, 12526, -17842, -32311, 12174, -6008, 9686, 8272,
        17941, 2762, -5548, -7757, -1270, -15183, -10324, 12652,
        -18410, 6582, 3577, -179, 11834, 12948, 11425, 7914,
        11812, 5899, 4212, 9147, -20772, -22631, 7782, -2063,
        1015, -3951, 2843, 13155, -3823, -10172, -3286, 4027,
        -10403, 5558, 717, -572, -4528, -19972, -7283, -8616,
        15027, 9559, 11859, -1835, 67, 6769, -5539, 9429,
        8610, -5013, 565, 2442, -5400, 948, -8821, -3299,
        3572, 8611, -8322, -5200, 14661, -2014, -5176, 1806,
        -366, 3720, 2176, 14981, -2224, -5871, -6067, -2073,
        2724, -5914, -3982, -8739, -4880, -2559, 2999, -2957,
        -19467, -1941, -5019, -9076, -9138, 2400, -2593, 1296,
        -23293, -13365, -3265, -2692, -17493, 6301, -3411, 207,
        -16017, 6969, 10301, -3409, 7151, 21709, 4879, -4720,
        -2628, 5563, -10890, 10013, -2453, 1478, -518, -16201,
        -2763, -5710, 12398, 13394, -22241, 3830, -282, -3296,
        4104, 19355, -3994, -653, 12876, -1212, -11083, -1877,
        -12902, 2130, -9485, -1358, -2101, 5290, 76, -5013,
        -9879, -3135, 10926, 4937, -3324, 2137, 1284, 5864,
        742, -26302, 462, 6287, -26359, -13268, -3399, 2971,
        -27386, -1805, -12573, -18898, 3254, 30085, -9616, 8921,
        -15469, 17257, 1992, -12351, -20215, 13184, -6517, 10400,
        12038, -19641, -15026, -20518, 22752, 9820, 27128, 18052,
        -2844, -15845, -32760, -9938, -4085, -7453, 4391, -12902,
        6153, -8956, 4154, 9570, 2060, -677, -7418, -18735,
        11392, -616, 153, 13498, 5512, -7921, 11584, -10536,
        -12982, 8927, -1075, -8552, 9036, 6589, 14302, 5141,
        2914, -1476, 12866, 626, -12909, -2961, -11890, -13293,
        -1722, 26697, -18417, -19267, 3720, 7032, 2071, -14704,
        -12644, 1622, -2375, 6263, 3285, 5251, 1569, -7073,
        2553, -25825, -11343, 8127, -14375, -11430, 4747, -8178,
    };

static short para_quality_conv1x1s1_dd_se_2_bias[8] = {
    -7854, 13443, -16648, 15689, -13446, 32760, -6334, -12508,
    };

static short para_quality_conv1x1s1_di_se_2_weight[256] = {
    1607, 4841, -701, -2066, 2994, -1591, 2724, 1397,
    -4632, -3326, -2080, -4252, -5194, 8562, -300, -5867,
    1409, 1901, 910, -3092, 7946, -8855, -6632, -8345,
    2998, 5391, -3751, -2029, -4981, 276, -3044, 2565,
    -1957, 2595, 1870, -1562, 1897, 3278, 325, -519,
    -4042, -5371, -755, -1184, -6975, 659, -940, 3020,
    -2025, 4111, 547, 5063, -1589, 558, 3461, -1447,
    -9374, 5407, -15111, -12331, -11221, -13891, -133, 12517,
    4555, -635, 3140, 2521, 2336, 4281, -2300, 1290,
    -10164, -3952, -6688, -15810, -1645, -1904, 7574, -1857,
    10198, 890, 4169, -1369, 237, -3971, -2141, -2689,
    -525, -2367, 4574, 3130, 86, -3204, 2071, 2554,
    2390, -1279, -41, 1307, -2344, -2476, -721, -2966,
    2543, -2313, -5744, 4013, 1154, 1226, -724, 2046,
    5489, 1430, -2475, -3148, 5057, -752, 1153, -720,
    1944, 8880, -3519, 3007, -3867, -7619, -5001, -3918,
    -1778, -1872, -1991, 7668, 2760, -3463, -8954, 2029,
    -3787, -3380, 4436, -3795, 4440, 4952, 7625, 848,
    -5429, 812, 2062, 2216, -1293, 529, 2073, -2829,
    -4258, -7461, 1825, -3691, 2700, -3595, -3439, -6468,
    1756, 4055, 1424, 12226, 1045, 3578, 2452, 1851,
    8002, 6202, 5769, 7969, 14100, -6826, 3984, -2386,
    1974, -8780, 336, 4555, 2032, 1743, -8105, 2525,
    695, -337, 13112, 743, 369, 580, 7742, 2587,
    5312, 874, -1702, 1284, -7139, 3994, -817, -4031,
    6526, -2670, 10023, 12034, -3593, 6373, 3483, 12808,
    -4198, -647, 386, 1798, -2545, -2259, 1307, 163,
    4403, -225, -6563, -5867, -35, 2787, -2071, -8798,
    5755, -5550, 161, -6765, -1909, 2034, 6458, -2178,
    -1933, -3495, -2639, 789, 941, -2009, 1809, 76,
    415, -3711, -3124, -3383, -7363, 1086, 2142, 827,
    -7387, 11434, 9073, -10937, -32758, 3198, 6638, -326,
};

static short para_quality_conv1x1s1_di_se_2_bias[32] = {
    -5569, 10053, 11438, 414, -4532, 11113, -9455, 32758,
        -10981, 28849, -681, -3226, 4540, -1684, -1417, 3656,
        580, -5358, -325, 19056, -23061, -22910, 2161, -14378,
        329, -32322, 3558, 11928, 6726, 4892, 10761, 14188,
    };

static short para_quality_reconv1x1_weight[64] = {
    -8911, -7021, -7965, 7704, 8492, -12033, 4015, 5885,
        -15542, -7939, 3831, 8501, 8346, -4984, 9801, -11472,
        -11598, -1382, 3745, 8376, -8050, -9848, -10196, -5034,
        -13114, -10252, 11641, 32760, 9236, 6303, -10269, -8949,
        14237, -3881, -13793, 14530, -12561, 13128, 6870, 8047,
        -13954, 15786, -357, -4505, -9180, -4245, -2980, 208,
        2345, 24781, -14389, 3324, 1342, 18740, -10133, -14176,
        -28382, -9991, -31477, -6013, -15795, -1713, -1233, 11799,
    };

static short para_quality_reconv1x1_bias[2] = {
    -32760,
        0,
    };

static int para_quality_magnification_factor[24] = {
    1474,
    9746,
    52253,
    39643,
    38199,
    30322,
    56242,
    17115,
    22637,
    14369,
    10712,
    40251,
    31244,
    51585,
    21890,
    83861,
    27161,
    25750,
    77915,
    120274,
    3837,
    6784,
    52572,
    681949,
};

#endif

