#ifndef __NET_PARAM_PARA_MISTOUCH_6191_H__
#define __NET_PARAM_PARA_MISTOUCH_6191_H__

static float conv1_weights[1 * 8 * 9] = {
    -1.751289, -6.280781, -0.135025, -0.792002, -5.794448, 1.263774, 6.504016, -2.385859, 7.797596,
        -1.567324, 4.662855, -3.382426, -4.255044, 6.829572, 2.384623, -1.551053, -7.948761, -0.694115,
        10.439029, -1.453493, -6.018651, 12.026718, -0.628437, -8.075013, 3.851916, -3.702622, -5.752448,
        13.427169, 14.320473, 3.414498, 0.271674, -0.263094, -5.180638, -10.817805, -13.448429, -1.212725,
        3.165612, 2.666477, -4.368456, 8.059178, -4.488941, -6.250145, 7.359396, -4.475872, -3.135420,
        10.191504, 4.748702, 4.312842, -8.459625, -19.060535, -13.016870, 12.225682, 4.742918, 4.192328,
        0.859536, 0.838264, 0.554220, 0.041304, -0.540669, 0.445492, -1.296221, -0.414176, -1.966577,
        3.133944, 4.584324, 15.389846, -4.691338, -2.289680, 2.141135, 0.242504, -14.658207, -3.995528,
    };
static float conv1_bias[8] = {
    0.380580, 0.709948, 0.459000, 0.040069, -0.020923, 0.153891, 1.511172, 0.558528,
};
static float conv2_weights[8 * 16 * 9] = {
    0.041485, -0.041539, 0.029797, -0.007316, 0.075052, 0.091399, -0.293054, -0.386194, -0.441195,
    0.115860, -0.163181, -0.129641, -0.014946, -0.213555, -0.330411, -0.023728, -0.003249, -0.131589,
    0.277504, 0.161661, -0.002143, 0.037139, 0.099471, -0.062526, -0.024931, 0.015238, 0.017233,
    0.047637, 0.241832, 0.122482, 0.013275, -0.000347, -0.023174, -0.007849, -0.033070, -0.033346,
    -0.121122, -0.173884, -0.027571, -0.069324, -0.121246, 0.048178, -0.155654, -0.109777, 0.076595,
    0.023386, -0.013570, -0.111249, -0.035269, 0.016608, -0.048723, -0.202583, -0.171887, -0.165629,
    0.014376, 0.153929, 0.182755, -0.024474, 0.024750, 0.108926, 0.173111, 0.147047, 0.203377,
    0.043855, 0.183212, 0.126425, -0.124229, -0.054430, 0.022566, -0.073228, -0.077115, -0.070811,
    0.012303, -0.072393, 0.104967, -0.014660, -0.124600, -0.036240, 0.013839, -0.112955, -0.028823,
    -0.023115, 0.094012, -0.182111, -0.071319, -0.018104, -0.247310, 0.119923, -0.018708, -0.102529,
    0.104070, -0.532928, 0.007228, -0.025167, -0.086031, 0.050405, -0.106597, 0.117678, 0.081406,
    0.006151, -0.256738, 0.051537, -0.069877, -0.215220, 0.100057, -0.071654, 0.000258, 0.102994,
    -0.048348, 0.143688, -0.001303, 0.041182, 0.143411, -0.104670, 0.038561, -0.079552, -0.159213,
    -0.018029, -0.265935, -0.041974, 0.011841, -0.216854, 0.027372, -0.097437, -0.018963, 0.053736,
    0.068654, 0.019183, 0.014351, -0.020908, -0.100564, -0.012325, -0.089688, -0.032399, 0.040836,
    0.003077, -0.092450, 0.030491, 0.004680, -0.044505, -0.024980, -0.031230, -0.177683, -0.079219,
    0.036136, 0.040054, 0.131810, -0.038179, -0.034973, -0.039811, -0.048813, -0.092666, -0.026549,
    0.058061, -0.051106, -0.084182, 0.024158, -0.064801, -0.075052, -0.082263, -0.005593, -0.085641,
    -0.077761, -0.028710, -0.080425, -0.214084, 0.097555, 0.031098, -0.049203, -0.038720, -0.279888,
    -0.081180, -0.405619, -0.011805, -0.007811, 0.049946, 0.012035, -0.005320, -0.017735, -0.092857,
    -0.085981, 0.052876, 0.074316, -0.080066, -0.021819, -0.094107, -0.209003, -0.016226, -0.013822,
    0.055579, -0.059872, 0.001110, -0.067044, -0.020221, -0.000683, 0.284788, 0.032513, 0.055472,
    -0.000834, 0.017656, -0.042087, -0.019233, 0.028910, -0.047354, -0.107216, -0.035070, -0.077523,
    -0.158558, -0.015118, 0.029603, 0.053133, 0.038518, -0.034955, -0.083474, -0.024865, -0.009216,
    0.041044, 0.031228, 0.018060, -0.163665, -0.084228, -0.151578, -0.174392, -0.087422, -0.052504,
    -0.048504, 0.007554, -0.028465, -0.038713, -0.047819, -0.061407, 0.045946, 0.014934, 0.082040,
    -0.000083, 0.029430, 0.006815, -0.077981, -0.040339, -0.007752, -0.067402, -0.080556, 0.012532,
    0.036196, 0.065620, 0.026678, -0.018524, -0.060943, -0.020719, 0.032751, -0.349748, -0.246967,
    -0.097706, -0.028452, -0.014544, -0.120239, 0.038652, 0.028757, -0.099640, 0.106401, 0.082312,
    0.011000, 0.005291, -0.025000, 0.177961, 0.081593, 0.035566, 0.171309, -0.027036, -0.037267,
    0.003678, 0.027585, 0.057404, -0.068368, -0.041986, 0.008803, -0.168496, -0.193327, -0.104508,
    0.005340, 0.052608, 0.016286, -0.067110, -0.058424, -0.110692, -0.194996, -0.284672, -0.322536,
    0.001906, -0.238273, -0.136487, 0.015437, -0.003080, 0.105824, 0.197699, 0.203256, 0.334172,
    -0.006573, 0.021620, -0.166845, 0.001959, 0.030509, -0.083129, 0.075131, 0.098792, 0.023373,
    0.014366, 0.017520, -0.021304, 0.098575, -0.096004, -0.185438, -0.006964, -0.078081, 0.016849,
    -0.000796, 0.085372, 0.040210, 0.009887, 0.008014, -0.084786, -0.115643, -0.113188, -0.059200,
    -0.038547, -0.000879, 0.137114, 0.004214, 0.076723, 0.110733, -0.030118, 0.033476, 0.195671,
    -0.137629, -0.217894, -0.184661, 0.000035, 0.016244, -0.114226, -0.027245, -0.014583, -0.032848,
    0.145728, 0.203063, 0.135199, 0.104676, 0.126260, -0.016405, -0.173326, -0.222943, -0.168142,
    -0.008359, 0.073812, 0.021237, -0.030570, 0.028066, -0.008492, -0.045817, -0.212840, -0.073830,
    0.037410, -0.059068, -0.198521, -0.022029, 0.037024, 0.002538, -0.066121, 0.012259, -0.062816,
    -0.058017, -0.064161, -0.165116, 0.009569, 0.028269, 0.080036, -0.151539, -0.040466, -0.105282,
    0.007456, -0.169252, -0.066255, -0.107628, -0.065311, -0.117392, -0.075882, -0.147586, -0.176843,
    0.038056, 0.046200, 0.093115, 0.008468, 0.007018, -0.015274, 0.001124, 0.056470, -0.078721,
    0.188193, 0.033677, 0.089993, 0.115788, 0.105320, 0.104029, 0.097300, -0.015901, 0.094327,
    -0.140332, -0.241802, -0.219292, -0.307543, -0.077154, -0.002959, -0.221777, -0.244564, -0.340729,
    0.022983, -0.103936, -0.077817, 0.004978, -0.085630, -0.038675, 0.016324, -0.100391, -0.105839,
    0.005368, -0.002313, 0.100128, -0.001934, -0.012640, 0.058842, 0.033198, -0.037336, -0.075346,
    0.015907, -0.048247, -0.050869, 0.073162, -0.045613, 0.007652, 0.014202, 0.089477, -0.043379,
    -0.008997, 0.036650, -0.330684, 0.003926, 0.125495, -0.295606, 0.065814, 0.138023, 0.024208,
    0.049758, -0.002735, -0.233665, 0.058819, 0.019521, -0.041194, -0.027883, 0.101787, 0.028527,
    0.006596, -0.110502, -0.101618, 0.021028, -0.564961, -0.210122, 0.028628, -0.025696, 0.014223,
    -0.133649, -0.014521, 0.089740, -0.155611, -0.028509, 0.058478, -0.061378, -0.001318, -0.033022,
    0.031710, 0.040306, 0.045336, -0.056086, -0.072212, 0.031011, -0.156444, -0.048497, -0.050030,
    0.006674, 0.192503, 0.117256, -0.049811, 0.003005, 0.002105, -0.089925, -0.057614, -0.020279,
    -0.012160, -0.004387, -0.016705, 0.002109, -0.502032, -0.024036, -0.018294, -0.010546, -0.032849,
    -0.057917, -0.044507, 0.139715, -0.008391, -0.376165, -0.061580, 0.024780, -0.332676, 0.090097,
    -0.055188, 0.009135, -0.071415, -0.020198, -0.037471, 0.159645, 0.058690, -0.040314, -0.184985,
    -0.076742, -0.089108, 0.146445, 0.072542, -0.642078, 0.151552, 0.177296, -0.447693, 0.005745,
    0.007214, -0.010640, -0.046197, -0.016655, 0.036429, 0.016313, -0.023399, 0.041780, -0.052280,
    0.057467, 0.154902, -0.280200, -0.179467, 0.259055, -0.189235, -0.283438, 0.316762, -0.021641,
    0.049374, -0.090075, 0.015240, 0.072700, -0.316192, 0.007733, 0.069519, 0.057336, -0.017123,
    -0.059191, 0.010820, 0.001581, -0.095428, 0.070556, 0.005054, -0.176885, 0.105382, -0.041120,
    0.059025, 0.088559, -0.249743, 0.009011, 0.106824, -0.128591, 0.013191, 0.027608, -0.022674,
    0.045296, 0.024994, -0.025000, -0.005800, -0.048010, -0.197274, 0.100737, -0.028562, 0.017252,
    0.030398, -0.037907, -0.196167, 0.116626, 0.028781, -0.101882, 0.086407, 0.033940, -0.101947,
    0.164573, 0.111276, -0.390582, 0.076117, 0.046016, -0.307666, 0.213927, -0.000506, -0.389609,
    -0.017668, -0.092450, -0.184698, 0.028152, -0.007513, 0.025373, -0.017284, -0.053980, -0.014486,
    -0.208552, -0.120554, 0.319179, -0.216502, -0.134901, 0.334841, -0.295689, -0.121289, 0.351342,
    -0.056180, 0.000805, -0.290065, -0.000500, 0.003333, -0.147283, -0.001334, 0.098414, -0.256253,
    -0.080886, -0.013288, 0.108270, -0.079932, -0.020816, 0.109246, -0.120595, -0.105531, 0.029121,
    -0.317644, -0.002499, 0.051577, -0.041549, 0.012448, 0.012992, -0.041490, 0.054959, 0.042643,
    0.021165, -0.022426, -0.048445, -0.063446, -0.131252, -0.053495, -0.116326, -0.141962, -0.024361,
    0.038342, -0.084789, 0.103387, 0.015756, -0.079168, 0.229174, 0.044011, -0.079511, 0.132011,
    -0.018912, 0.098336, 0.056658, -0.105505, 0.040809, 0.023434, -0.043879, -0.011103, 0.035986,
    -0.213343, -0.211072, -0.055579, 0.009396, -0.143481, -0.019220, -0.068024, -0.206957, -0.005903,
    0.103287, -0.017588, -0.057514, -0.000280, -0.009311, -0.058347, 0.130253, -0.003752, -0.032907,
    -0.065116, -0.043005, -0.001785, -0.196024, -0.067120, -0.001782, -0.048259, -0.040635, 0.015939,
    -0.120621, -0.151732, -0.071261, -0.095803, -0.170351, -0.104496, -0.093689, -0.145530, -0.053804,
    -0.017660, -0.265474, -0.156173, -0.016294, -0.175809, -0.102945, -0.283660, -0.234955, -0.127279,
    -0.010623, -0.031403, 0.074964, -0.012382, 0.010418, 0.014163, 0.087109, -0.008125, -0.025869,
    0.097141, 0.068938, 0.012597, -0.003286, 0.020670, -0.074552, 0.018128, 0.020529, -0.008640,
    0.022772, -0.023647, -0.140635, 0.105120, -0.019780, -0.186336, 0.136529, 0.011766, -0.137780,
    0.015219, -0.041675, -0.059263, 0.021080, -0.031836, -0.021336, 0.006896, -0.057789, -0.058837,
    -0.094993, -0.081682, 0.007335, -0.084151, -0.069435, 0.015688, -0.079118, 0.009079, 0.024550,
    0.034836, 0.108103, -0.004820, 0.057506, 0.075900, -0.023836, 0.121288, 0.067412, 0.003829,
    0.051480, -0.066030, 0.075447, -0.024043, -0.106070, 0.057604, -0.048498, -0.103010, 0.051313,
    -0.077468, -0.018110, 0.017281, -0.043757, 0.032234, 0.101229, -0.051330, 0.025625, 0.093076,
    0.030200, -0.010959, -0.096829, 0.025276, -0.009716, -0.101960, -0.088832, -0.038800, -0.125385,
    0.082057, -0.011412, -0.024801, -0.016102, 0.010552, -0.086028, 0.005909, 0.129191, -0.006567,
    0.079478, 0.071764, 0.057649, 0.141559, -0.018352, -0.165027, 0.086092, -0.004087, -0.146587,
    0.003370, 0.033069, 0.018622, -0.022287, -0.002609, 0.027469, -0.008284, -0.047038, -0.038615,
    -0.275663, 0.019756, 0.005979, -0.281409, -0.057953, -0.005552, -0.387128, -0.042488, -0.058254,
    -0.032629, -0.025253, -0.225375, -0.036347, -0.026981, -0.197536, -0.058383, 0.021041, -0.036417,
    -0.123080, -0.027006, -0.083222, -0.047489, 0.021131, -0.024586, -0.009053, 0.046407, 0.006065,
    0.035731, 0.053756, 0.084261, -0.046410, -0.034162, 0.043057, -0.088635, -0.019149, 0.027122,
    0.026042, -0.172866, -0.233491, -0.075548, -0.053313, 0.205933, -0.009159, -0.262395, -0.187166,
    0.004512, 0.102750, 0.026143, -0.138416, 0.101901, -0.062489, -0.228315, -0.179093, -0.608654,
    0.159082, 0.175493, -0.161575, 0.030468, -0.652581, 0.162515, 0.026404, 0.173182, 0.211908,
    0.076209, 0.186938, -0.193727, 0.073494, -0.563698, 0.073761, -0.091658, 0.019427, 0.290578,
    -0.398201, -0.172011, 0.252755, -0.043370, 0.247795, -0.067010, -0.029196, 0.235391, -0.518340,
    -0.146789, 0.281812, -0.005023, 0.043514, -0.153747, -0.147568, -0.053403, -0.189733, -0.008954,
    -0.018640, 0.119315, 0.045405, 0.018383, -0.017782, -0.041967, -0.061275, 0.010911, -0.064851,
    0.066448, -0.051839, 0.112483, -0.091296, -0.065418, 0.024887, -0.061125, 0.080212, -0.137659,
    -0.100463, -0.140249, -0.021276, -0.041831, -0.155610, -0.159641, 0.014690, -0.177946, -0.158826,
    -0.018392, -0.221518, -0.358129, -0.063799, -0.109033, -0.435624, 0.022189, -0.188656, -0.301059,
    -0.126159, -0.119519, 0.029078, -0.139826, -0.085152, 0.022276, -0.194505, -0.019150, 0.020393,
    -0.229159, 0.120547, 0.089392, -0.083650, 0.074814, 0.083014, -0.082404, 0.103902, 0.112623,
    0.016702, 0.086104, 0.002327, -0.046997, 0.017189, -0.052179, -0.148267, -0.112947, -0.113634,
    0.149996, 0.096019, 0.024013, 0.164903, 0.110263, 0.049796, 0.036085, 0.030214, 0.061793,
    0.083584, -0.052002, -0.199684, 0.066520, -0.080137, -0.129280, 0.124286, -0.035171, -0.038680,
    -0.052376, 0.133707, 0.195305, -0.012791, 0.063453, 0.061920, 0.022488, 0.062811, 0.069615,
    -0.100282, 0.042559, -0.023987, -0.165939, -0.013274, 0.061490, 0.070843, -0.108018, 0.070320,
    -0.007397, -0.250143, -0.260007, 0.034825, -0.401460, -0.157542, 0.145959, -0.332711, -0.149863,
    -0.047705, 0.085874, 0.076516, 0.051366, -0.076686, 0.135468, 0.247952, -0.014944, -0.074075,
    -0.052549, -0.039620, -0.092428, -0.107774, 0.102909, 0.040540, -0.094389, -0.122864, 0.020408,
    0.076143, 0.018279, -0.153691, -0.067616, -0.032661, -0.093445, -0.165442, 0.081530, 0.044562,
    -0.126024, -0.113173, 0.009648, 0.114514, -0.068919, -0.053410, -0.005790, 0.176470, -0.000582,
    0.054362, 0.038337, 0.031392, -0.036284, 0.049702, 0.027509, -0.135039, -0.131547, -0.056666,
    0.071235, -0.167748, -0.075245, 0.082246, 0.203513, -0.090997, -0.683326, 0.029022, 0.073958,
    0.020499, 0.006135, 0.007003, -0.058203, -0.068746, -0.052185, -0.336001, -0.244373, -0.020731,
    0.183446, 0.065568, 0.008394, 0.041757, 0.002401, 0.045592, -0.088648, -0.210159, -0.055075,
    -0.055152, -0.074832, -0.059444, -0.039930, 0.183090, -0.008532, -0.060742, -0.080378, -0.041311,
    -0.223965, -0.554912, -0.021270, -0.006314, 0.109763, -0.023274, 0.033635, 0.129124, 0.008978,
    0.077671, 0.130772, 0.112518, -0.035031, -0.066972, 0.038441, 0.035037, 0.012532, 0.097217,
    -0.038301, -0.045691, -0.030079, -0.652356, -0.097089, -0.011545, 0.039525, -0.094339, -0.015369,
    0.069867, -0.012125, 0.022915, -0.027821, -0.064703, -0.094123, -0.040762, -0.013782, -0.103203,
    -0.500896, -0.153615, 0.075792, 0.119652, -0.091344, -0.047678, 0.048208, 0.051341, -0.003625,
};
static float conv2_bias[16] = {
    -1.469856, 1.245305, 1.760382, 1.337378, 0.348142, 1.824130, 0.870521, 1.082670, 0.885718, 2.362807, -0.145999, 1.123087, 0.044547, 0.152643, 0.486671, 1.026230,
    };
static float conv3_weights[16 * 32 * 9] = {
    -0.023051, -0.133193, -0.009220, 0.159306, 0.149991, 0.130319, -0.104744, 0.176945, 0.054603,
        -0.200485, -0.169282, -0.158802, -0.316222, -0.566955, -0.146448, -0.384381, 0.075929, -0.193452,
        0.042003, 0.582149, 0.321247, 0.322194, 0.981195, -0.070539, 0.154663, -0.173339, 0.166074,
        0.111583, 0.160600, 0.151412, -0.233623, -0.588727, 0.340898, 0.015623, 0.338534, 0.156587,
        0.170815, 0.315206, -0.006194, 0.035323, -0.043825, -0.093441, -0.072301, -0.271560, 0.128603,
        0.386142, 0.006044, 0.151098, -0.014612, 0.096368, 0.228241, 0.386257, 0.025073, 0.052963,
        -0.203582, -0.709546, -0.245247, -0.395160, -0.015366, 0.089792, 0.161062, 0.159384, -0.101609,
        -0.182059, -0.065111, -0.041516, 0.094410, -0.207170, -0.085712, -0.041153, -0.207402, -0.065335,
        -0.104475, -0.165943, -0.137416, 0.092548, 0.107638, 0.341050, -0.365785, -0.259385, -0.028337,
        -0.226353, -0.205667, 0.004180, -0.593318, -0.407085, -0.031934, 0.089883, -0.341063, -0.103312,
        -0.533148, -0.264540, 0.058994, -0.149439, -0.278330, -0.070749, -0.721875, -0.466789, 0.001287,
        0.069672, 0.337306, -0.042721, 0.292417, -0.031476, -0.142886, -0.031713, 0.415152, -0.013264,
        -0.005741, -0.056980, 0.086163, 0.286653, 0.163921, -0.125873, 0.399998, 0.397250, -0.142789,
        0.021851, -0.038617, 0.016460, -0.567731, -0.248096, 0.003679, -0.437522, -0.359437, 0.120511,
        0.443485, 0.817089, 0.016946, 0.131991, 0.112244, 0.181485, -0.065446, 0.060142, 0.138305,
        -0.039248, -0.209713, 0.311416, 0.196807, 0.969517, 0.180236, 0.256769, -0.309315, 0.095827,
        -0.330225, 0.385834, 0.022577, 0.051396, 0.079974, 0.103460, 0.050351, 0.262857, -0.030475,
        0.076076, 0.085252, -0.000652, -0.438279, 0.018753, 0.478135, -0.419777, -0.163035, 0.205478,
        0.573970, -0.009615, 0.052500, 0.074450, -0.019455, -0.173782, -0.032451, -0.334848, -0.167084,
        -0.554990, -0.249058, -0.145537, 0.150130, -0.100729, 0.043517, -0.537520, -0.533628, -0.019067,
        -0.068505, -0.252045, 0.226309, 0.109018, -0.216411, -0.045302, -0.002432, -0.197786, -0.078400,
        -0.055978, -0.085329, -0.011038, 0.042519, -0.046628, -0.117269, 0.022946, -0.475268, -0.076057,
        -0.125797, 0.183503, -0.077764, -0.069578, -0.293485, -0.059267, 0.115432, -0.148758, -0.072773,
        -0.175417, -0.111230, 0.420446, -0.510318, 0.154872, 0.500019, -0.074747, 0.044144, 0.195905,
        0.575624, 0.127975, 0.200928, 0.366660, -0.671818, -0.041688, 0.305608, -0.313909, -0.037561,
        0.357737, 0.391577, -0.404546, 0.132360, -0.018211, -0.278139, 0.312682, -0.070192, -0.079040,
        -0.279167, 0.060597, -0.084001, 0.064455, -0.112664, 0.025273, -0.286606, -0.200481, -0.300073,
        -0.285448, -0.222476, -0.142894, 0.333965, -0.079141, 0.121229, -0.109356, 0.089435, 0.162425,
        -0.248930, -0.341748, -0.015675, -0.177658, -0.127174, 0.147072, -0.185099, -0.065491, 0.167431,
        -0.415698, -0.176675, 0.088576, -0.212020, -0.212584, -0.047851, -0.078963, 0.246023, -0.349375,
        0.363138, -0.183019, 0.144634, 0.516628, 0.090978, 0.177808, -0.425063, 0.017504, 0.038413,
        0.131668, 0.252062, -0.132867, -0.288522, -0.069641, 0.061980, 0.139835, 0.271533, 0.148957,
        -0.118843, 0.190005, -0.046555, -0.094065, -0.073977, -0.591911, -0.539886, -0.074897, -0.258707,
        -0.047713, 0.153998, -0.217846, 0.135879, 0.398837, -0.180754, 0.116761, -0.210370, 0.868620,
        -0.191901, -0.217161, -0.223904, -0.235986, -0.319876, -0.343102, -0.023853, -0.117005, -0.134655,
        0.061334, 0.019205, 0.220418, -0.013351, -0.138363, -0.085546, -0.243884, 0.177318, -0.081234,
        -0.005362, 0.178147, -0.166030, 0.082216, -0.107504, -0.133553, -0.071417, -0.044065, 0.043740,
        -0.245906, 0.036148, 0.022642, 0.027147, -0.445732, 0.016669, 0.254342, -0.100371, -0.198874,
        0.012999, 0.334933, 0.367503, 0.257883, -0.347284, -0.322847, -0.240579, 0.504374, 0.261965,
        0.002244, 0.253216, -0.017727, 0.010006, -0.120839, 0.419746, 0.155444, 0.269679, 0.192337,
        0.021784, -0.155051, 0.000432, 0.050878, 0.026129, 0.073080, 0.090544, 0.131532, 0.051884,
        -0.057000, 0.179900, 0.311627, -0.111176, -0.138119, -0.289729, 0.008561, 0.089363, -0.292742,
        -0.045464, 0.005715, 0.042211, -0.149023, -0.265862, -0.055823, -0.408911, -0.597670, -0.443898,
        0.439106, 0.347775, 0.210929, 0.108794, 0.343435, 0.141462, 0.254355, 0.607160, 0.173361,
        0.053013, 0.101375, -0.123090, -0.013920, 0.005995, 0.118490, 0.068669, 0.120526, 0.132360,
        -0.103174, -0.717953, -0.090220, -0.320449, -0.143780, -0.314882, -0.376268, -0.231137, -0.386239,
        -0.047518, -0.327766, -0.222508, -0.229008, -0.036297, 0.179211, -0.145965, -0.678892, -0.251042,
        -0.130371, -0.047170, 0.193913, 0.006319, -0.115468, -0.109029, -0.072527, -0.012114, 0.142950,
        -0.049209, -0.199582, -0.032264, -0.069417, -0.028728, -0.192989, -0.116996, 0.218139, -0.084581,
        -0.347223, 0.093632, -0.325005, -0.189951, -0.263493, -0.124686, -0.382725, -0.521188, 0.029689,
        0.045323, 0.085962, 0.165466, -0.020802, -0.343065, -0.087926, 0.104868, 0.008685, -0.127175,
        -0.292621, 0.040235, 0.003401, -0.020600, -0.024171, -0.017943, 0.123017, -0.185061, -0.032304,
        -0.131920, -0.261333, -0.103518, -0.152214, -0.126069, -0.209352, -0.150403, -0.154466, -0.268956,
        -0.046800, -0.061360, 0.080510, 0.257911, -0.246743, 0.042209, 0.033484, -0.004446, -0.208128,
        -0.466085, 0.255978, -0.259719, -0.194983, 0.330468, -0.257040, 0.143023, 0.086966, 0.017785,
        0.679247, -0.449634, 0.352972, 0.596350, -0.230067, 0.381892, -0.279254, 0.656081, 0.013229,
        -0.338275, 0.299980, -0.239886, 0.277738, 0.145733, 0.063699, 0.776293, -0.396906, 0.043297,
        0.160481, 0.103160, -0.084348, -0.112367, 0.187776, -0.139621, 0.013841, -0.030376, -0.046715,
        0.237402, -0.083124, 0.083856, -0.121249, 0.077989, -0.110593, -0.438482, 0.132504, 0.023674,
        0.064686, 0.307905, -0.149332, 0.149688, -0.053422, 0.138473, 0.198505, -0.141624, 0.395380,
        0.007365, -0.263635, -0.314487, 0.022688, -0.132084, -0.170535, -0.140521, -0.280397, -0.134894,
        -0.091218, -0.353689, 0.043801, -0.096703, -0.209759, 0.034434, -0.083018, -0.127645, -0.037926,
        0.087361, -0.022390, -0.085466, -0.044149, -0.393554, 0.015964, 0.066390, -0.296803, 0.272317,
        -0.325003, -0.058829, -0.231683, -0.220609, 0.147486, -0.051847, 0.022062, 0.116373, -0.009482,
        -0.273895, -0.131113, 0.090866, 0.092539, -0.066620, -0.310420, -0.094906, -0.201032, -0.151662,
        -0.346154, 1.208436, -0.193995, 0.660384, -0.373103, 0.357671, 0.456479, -0.137528, 0.428885,
        0.126417, 0.018342, 0.086773, -0.221391, 0.011463, 0.369763, 0.118551, 0.006977, 0.412968,
        0.131659, -0.529917, 0.134910, -0.151747, -0.317657, 0.196347, -0.244082, 0.236138, -0.072268,
        -0.062675, -0.012486, -0.080691, 0.131870, -0.159331, -0.445361, -0.051011, -0.299563, -0.137807,
        0.246467, -0.004807, 0.184024, -0.298978, -0.440490, 0.069115, -0.200039, 0.270254, 0.036265,
        -0.111059, 0.020389, -0.160110, 0.199710, -0.618872, 0.054154, -0.132302, 0.014736, -0.144188,
        -0.376377, -0.053848, -0.036199, 0.117463, -1.230820, -0.035240, -0.312065, -0.167469, -0.549716,
        0.149954, -0.340042, 0.193976, 0.532047, 0.157078, -0.069103, -0.674025, 0.242285, -0.111443,
        -0.116374, 0.323041, -0.558253, -0.008607, 0.021364, -0.079829, -0.053479, 0.021075, 0.151117,
        -0.204118, 0.175933, -0.176021, 0.163944, -0.156396, 0.126435, 0.035140, -0.400604, 0.022561,
        -0.070368, -0.479854, 0.045722, -0.013283, 0.295485, -0.235329, 0.035689, 0.246624, -0.249239,
        -0.067867, 0.541938, 0.365353, 0.575454, 0.200130, 0.122364, 0.269055, -0.032508, -0.239624,
        0.210598, 0.206293, -0.061768, -0.185068, -0.433167, -0.212798, -0.095806, -0.207798, 0.081544,
        -0.307760, -0.083881, 0.078841, -0.082002, -0.160162, -0.038966, 0.209472, -0.090295, -0.007925,
        -0.500720, 0.227749, -0.151016, -0.122278, 0.187005, -0.232686, 0.117348, -0.406015, 0.194735,
        0.061586, -0.586840, -0.184227, -0.200119, -0.355074, -0.194321, 0.091795, -0.262980, 0.078863,
        -0.030988, 0.334100, 0.153512, 0.195144, 0.200365, -0.108460, -0.067091, 0.171555, -0.023986,
        0.051872, 0.194264, 0.210925, -0.208600, 0.075301, 0.300830, -0.137264, 0.248160, 0.068850,
        0.295685, -0.015223, -0.054028, 0.413323, 0.359339, 0.438499, 0.577646, 0.377779, 0.241132,
        0.107157, -0.334244, 0.465206, 0.051447, 0.187190, 0.368778, 0.206314, 0.350968, -0.070900,
        -0.135352, -0.675384, -0.006163, -0.280062, -0.383719, 0.143406, -0.040408, 0.123663, -0.324840,
        0.350292, 0.151837, 0.310050, 0.373440, 0.405184, 0.534287, 0.496972, 0.366909, 0.234746,
        0.126477, 0.214522, -0.045632, -0.043782, 0.332918, 0.084573, -0.058204, -0.176012, 0.004433,
        0.287129, 0.075268, 0.206611, 0.208661, 0.121331, 0.211978, -0.012940, -0.141205, 0.025346,
        -0.253425, -0.213373, -0.216638, -0.050052, 0.109486, 0.072443, 0.023459, 0.216450, 0.266509,
        0.009978, -0.336112, -0.222393, -0.198655, -0.106782, -0.353900, -0.080928, -0.132071, 0.180081,
        0.079319, 0.148191, -0.379495, -0.323601, 0.133168, 0.020061, -0.355387, -0.499223, -0.237583,
        0.137159, -0.003526, -0.071684, 0.074755, 0.085325, -0.011277, -0.116024, -0.289100, -0.066917,
        -0.235194, -0.149424, -0.098485, -0.022207, -0.208003, -0.067649, -0.098674, -0.354798, 0.193440,
        0.149727, 0.194119, 0.015040, 0.558680, 0.476215, 0.371575, 0.133102, 0.166619, 0.162014,
        -0.092367, 0.062060, 0.109117, -0.068871, 0.034606, 0.106062, 0.041635, -0.047649, 0.004250,
        -0.026443, 0.014709, 0.056000, 0.130524, 0.085150, 0.114951, 0.096615, 0.097451, -0.019359,
        0.100493, 0.137579, 0.238561, -0.219287, -0.345510, -0.193000, 0.010405, 0.071072, 0.079267,
        0.107444, 0.493807, 0.297030, -0.226218, -0.314381, -0.314981, -0.292258, -0.038225, -0.125050,
        0.226945, 0.058005, 0.161559, 0.458351, -0.174039, -0.073557, 0.222834, 0.713153, 0.475001,
        0.016407, 0.018479, 0.134554, 0.002959, -0.147322, -0.052730, 0.128655, 0.170766, -0.100198,
        0.047382, 0.125143, -0.144881, 0.273050, 0.076229, 0.245393, 0.090695, 0.258289, 0.016833,
        0.400576, 0.501814, 0.295762, -0.293207, -0.346116, -0.440649, 0.208898, 0.184142, 0.267447,
        0.075462, 0.023515, 0.219965, -0.067196, -0.099398, 0.003144, -0.447054, 0.048741, -0.139933,
        -0.105027, 0.007502, -0.085476, 0.095543, -0.376258, -0.186048, -0.136647, -0.526505, -0.384573,
        0.038101, 0.398844, 0.391570, 0.027405, -0.095253, -0.166059, 0.278751, 0.333575, 0.242074,
        0.005181, 0.027911, 0.029258, 0.052760, -0.097266, 0.009987, -0.370273, -0.119649, 0.089120,
        -0.196514, -0.019957, -0.136609, -0.136985, 0.138856, 0.041872, -0.099497, 0.244986, -0.100143,
        0.266510, -0.083732, -0.016842, 0.124785, -0.097040, -0.117271, -0.244869, -0.201899, -0.144378,
        -0.149804, -0.010112, -0.264097, -0.210805, -0.052621, 0.089352, -0.107955, -0.252834, -0.364362,
        -0.034238, 0.072343, 0.058372, -0.202395, -0.310163, -0.183065, -0.302122, -0.053875, 0.058424,
        0.131935, 0.101219, -0.030024, 0.003589, -0.228062, -0.072785, 0.171001, -0.029246, 0.208360,
        0.266929, -0.083603, -0.203095, -0.186946, -0.014081, -0.191914, -0.308424, -0.308111, 0.060126,
        -0.349532, -0.162282, 0.059950, -0.017781, -0.073372, 0.100788, -0.186085, 0.218225, -0.280282,
        0.001057, 0.039905, 0.103021, 0.064602, -0.005833, 0.007663, 0.005180, 0.129848, 0.156468,
        -0.553030, -0.142454, 0.048532, 0.306668, -0.843636, -0.027511, -0.011117, 0.061347, -0.177252,
        0.011880, -0.284307, -0.216470, -0.059191, -0.148179, -0.138619, 0.019836, -0.221947, -0.127182,
        -0.034764, -0.271563, 0.254572, 0.614347, 0.096534, -0.116456, -0.170032, 0.494068, 0.122454,
        -0.123375, 0.873090, -0.092825, 0.029232, -0.408151, 0.403351, 0.251125, -0.122063, -0.029369,
        0.227679, -0.610373, -0.136620, -0.313261, 0.965342, -0.111825, -0.197718, -0.566760, 0.260722,
        -0.595068, 0.031408, 0.014846, -0.077678, -0.771228, 0.037354, -0.169496, 0.048720, -0.486843,
        -0.325700, 0.322293, -0.051054, -0.207800, -0.244961, 0.230948, 0.233474, 0.051980, -0.191705,
        -0.009433, 0.003790, 0.046232, -0.283307, -0.276246, 0.029578, 0.166536, -0.239393, -0.099256,
        0.152830, -0.172542, -0.048570, 0.137560, 0.078368, 0.053415, -0.112655, 0.473635, -0.179981,
        -0.241678, -0.130417, -0.307938, -0.197035, 0.134238, -0.421691, -0.029819, 0.095368, 0.185799,
        -0.118010, -0.220805, -0.064288, -0.027934, -0.193170, -0.100994, -0.180170, -0.038233, 0.268669,
        0.088894, 0.655130, 0.188921, -0.015130, 0.438668, 0.265650, 0.150796, -0.001169, -0.106793,
        0.170725, 0.341227, -0.322190, -0.279148, -0.130272, 0.446808, 0.026841, -0.200966, 0.116090,
        0.022347, -0.241538, -0.212801, -0.134125, 0.060082, -0.147568, -0.139102, 0.153628, -0.159521,
        -0.027527, 0.587762, 0.031130, 0.042406, 0.887372, -0.025493, 0.170534, 0.652539, 0.324378,
        0.271269, -0.010433, 0.035417, 0.114056, -0.207037, -0.077242, -0.053743, -0.054106, 0.024687,
        -0.104250, -0.118078, -0.067323, -0.191643, -0.371384, -0.203331, -0.199412, -0.304100, -0.067367,
        -0.021341, -0.082982, -0.225924, 0.069329, 0.058271, 0.001350, -0.000793, -0.116372, -0.280478,
        -0.159103, -0.035186, -0.380959, -0.277602, -0.412707, -0.045931, -0.096670, -0.115759, 0.007352,
        -0.145859, -0.190166, -0.230598, -0.154816, -0.206179, -0.137308, -0.120538, -0.398792, -0.139213,
        -0.054312, 0.432537, -0.365047, -0.175635, 0.610290, -0.177072, 0.071608, 0.281352, 0.040335,
        0.162793, 0.511062, 0.472669, 0.120321, 0.428352, 0.506158, 0.510038, 0.265853, 0.609146,
        0.341511, 0.116762, 0.224940, 0.065194, 0.131971, 0.103784, 0.062917, 0.369418, 0.174532,
        -0.100263, -0.036972, -0.286058, -0.207646, 0.189475, -0.408901, 0.080438, -0.119000, -0.115029,
        -0.286547, -0.107818, 0.217229, 0.092261, -0.189205, 0.397708, 0.099121, -0.136924, -0.050230,
        -0.268544, 0.189369, -0.374105, -0.011033, 0.260721, -0.238060, -0.015376, 0.070115, -0.056886,
        -0.270591, 0.035243, 0.046046, 0.047038, 0.026466, -0.039400, 0.098462, -0.044311, -0.107307,
        0.060051, -0.189133, 0.045517, -0.047338, -0.204733, 0.011257, -0.046575, -0.119596, -0.058639,
        -0.539906, -0.369240, -0.457956, -0.621046, -0.079295, -0.269625, -0.319632, -0.105827, -0.407102,
        0.250192, 0.137280, -0.068921, -0.109512, 0.112513, -0.000778, -0.283695, -0.487652, -0.218990,
        0.246747, -0.087459, 0.015917, 0.152514, -0.181967, -0.034285, 0.180670, -0.138529, 0.092277,
        -0.053007, -0.025641, -0.161736, 0.203599, 0.208255, 0.160076, 0.041910, 0.073876, 0.065257,
        -0.175075, -0.059223, -0.048286, -0.180442, -0.038840, -0.154438, 0.311559, 0.466246, -0.007526,
        0.029638, 0.197777, 0.226142, -0.087815, -0.076161, 0.231242, -0.015807, -0.065647, 0.178191,
        0.366297, -0.413788, 0.132932, 0.173302, -0.184438, 0.193387, -0.134676, -0.029695, 0.049173,
        0.202719, 0.230772, 0.246288, -0.238004, -0.201713, 0.083227, 0.217767, 0.081150, 0.050002,
        0.202371, -0.047022, -0.282703, 0.285306, 0.065504, -0.257412, 0.114975, -0.037229, -0.058758,
        0.544654, -0.268701, 0.418354, 0.390818, -0.234868, 0.289358, 0.120849, -0.004964, 0.117951,
        -0.059881, 0.182640, -0.075871, -0.318656, -0.319065, -0.378146, -0.247239, 0.138292, -0.218590,
        -0.357117, -0.247072, -0.584268, -0.149191, 0.015360, -0.133684, -0.056346, -0.040763, -0.092311,
        0.082952, -0.090635, 0.478533, 0.131230, -0.036632, 0.328303, -0.062554, 0.184268, 0.103341,
        0.043938, 0.003321, -0.116275, 0.050650, -0.351153, -0.031311, -0.086087, 0.016753, 0.185724,
        -0.176398, -0.270957, -0.069261, -0.328800, -0.284488, -0.147971, 0.008696, -0.093070, -0.080816,
        0.094048, -0.110386, -0.030353, 0.024011, -0.185105, 0.043156, 0.129706, 0.206718, 0.031792,
        0.144506, 0.296318, 0.171085, 0.043895, 0.093158, 0.175435, 0.150064, -0.010356, -0.128053,
        -0.019991, -0.037865, -0.217852, 0.032096, -0.066944, 0.022971, 0.067291, 0.034350, -0.034970,
        0.036984, 0.214124, 0.259497, -0.090946, -0.006488, 0.124269, 0.127958, -0.016574, -0.018538,
        -0.144880, 0.030190, -0.022075, -0.029791, -0.030551, -0.056654, 0.217998, -0.156211, 0.097978,
        -0.048777, 0.359886, 0.220475, -0.092585, 0.107942, -0.001745, 0.006334, -0.410020, -0.327174,
        -0.127255, -0.144014, 0.003544, -0.088066, -0.349932, -0.208104, 0.072638, -0.334277, -0.096027,
        -0.356454, -0.084663, 0.066537, 0.213065, 0.212416, -0.241737, -0.006301, -0.108712, 0.163810,
        0.245709, 0.665927, 0.261455, -0.087266, -0.120140, 0.192633, -0.547425, -0.705144, -0.291809,
        -0.167322, -0.159656, 0.007778, 0.043213, -0.119144, -0.046013, 0.031614, -0.135782, 0.032723,
        -0.108337, -0.199221, -0.148149, 0.306128, 0.117775, 0.375736, -0.030205, -0.065798, -0.057468,
        0.418561, 0.513949, 0.148081, -0.087090, 0.144146, 0.458327, -0.185968, -0.809312, -0.406126,
        0.015553, -0.064223, -0.192015, 0.145496, 0.148937, 0.155380, -0.309329, -0.340824, -0.138919,
        -0.218190, -0.219436, 0.125924, -0.198354, -0.502522, -0.289984, 0.141139, 0.131992, 0.022648,
        0.245383, -0.136348, -0.163921, -0.114051, -0.349977, -0.319056, -0.175106, -0.295903, -0.088432,
        -0.176227, -0.318511, 0.133890, 0.017440, 0.117504, -0.152524, 0.056165, 0.304817, -0.155911,
        0.159622, 0.198968, 0.131518, 0.042801, -0.349208, -0.025013, -0.046896, -0.345568, -0.273946,
        -0.036634, 0.475065, -0.095190, 0.055543, 0.023829, 0.086925, -0.309617, -0.154356, 0.000857,
        0.103878, -0.184936, -0.048919, -0.663396, 0.212948, 0.158845, -0.409936, -0.736866, -1.067899,
        -0.345775, -0.168945, 0.044369, -0.085667, -0.002401, 0.087294, -0.248800, -0.241926, -0.102332,
        0.129477, 0.236985, -0.248798, 0.163835, -0.080330, 0.297685, 0.020261, 0.327696, 0.275833,
        -0.064554, 0.742121, 0.752769, 0.372558, -0.097979, -0.140771, 0.025167, 0.488045, 0.284699,
        0.039993, -1.066494, -0.901140, -0.136551, -0.080473, 0.562039, 0.097396, -0.325082, -0.147177,
        -0.076027, 0.796043, 0.146690, -0.187991, 0.045400, 0.031995, -0.225309, 0.363302, 0.011269,
        0.137959, 0.145452, 0.353852, 0.114556, 0.191722, -0.257036, 0.181587, -0.400610, -0.063151,
        0.006483, -0.560506, -0.338194, -0.095735, -0.260661, -0.013272, -0.019456, -0.747935, -0.409162,
        -0.421213, -0.689722, -0.168315, 0.041467, 0.249173, 0.340026, -0.025213, -0.829037, -0.158463,
        0.235435, -0.050637, 0.123826, -0.079400, -0.170159, -0.267842, 0.084914, -1.026495, -0.323364,
        0.003956, -0.453587, -0.014583, 0.046120, -0.257693, 0.083007, 0.017454, -0.070705, -0.041137,
        -0.033131, 0.068330, -0.016285, 0.057153, 0.240294, -0.063183, -0.044310, 0.056253, -0.006248,
        0.069011, 0.106897, 0.056925, -0.181097, 0.472266, -0.065046, -0.292103, -0.232145, -0.073191,
        -0.127897, -0.278060, 0.332341, -0.433354, -0.943544, 0.443488, -0.146126, -0.725932, 0.024599,
        -0.154156, -0.271077, 0.031270, -0.158751, -0.004530, -0.012562, -0.061530, -0.111049, 0.021357,
        0.170480, -0.102686, -0.303835, 0.073457, 0.575290, 0.667919, -0.133694, 0.090270, -0.088163,
        0.385508, 0.042568, 0.157390, 0.048073, -0.641767, -0.188649, 0.105654, -0.055178, -0.222475,
        -0.230293, -0.122409, -0.093552, -0.138673, -0.063402, 0.454928, 0.044995, -0.025602, -0.238687,
        -0.008464, 0.462666, 0.542945, 0.554195, 0.084387, 0.450628, -0.250343, 0.028019, 0.179461,
        -0.292567, -0.182314, -0.092305, -0.338971, -0.554254, -0.536471, 0.212698, -0.066998, 0.049353,
        -0.113672, -0.410551, -0.490915, -0.135976, -0.549419, -0.262144, 0.375880, 0.117766, 0.611775,
        0.000509, 0.003122, 0.433952, 0.242249, 0.614850, 0.471670, -0.402813, 0.089330, 0.323969,
        0.320868, 0.015650, 0.183712, -0.215257, -0.455424, -0.305447, 0.121235, -0.626061, 0.083813,
        -0.184017, -0.392791, -0.304206, -0.505141, -0.732288, -0.420061, -0.048421, -0.020494, -0.065868,
        -0.051999, 0.159023, 0.467317, -0.652171, -0.489414, -0.392841, 0.218435, -0.007149, -0.016691,
        0.068792, 0.266885, 0.174220, -0.072250, 0.629039, 0.558198, -0.447119, -0.363529, -0.225522,
        -0.133659, -0.257950, -0.007121, -0.256367, -0.507444, -0.595719, 0.019822, -0.631856, -0.431293,
        -0.100207, 0.080820, -0.120151, -0.134777, -0.352667, -0.533959, 0.343273, 0.082626, -0.131415,
        0.277886, 0.093228, -0.128202, 0.247931, 0.200316, 0.189798, 0.312520, -0.248604, 0.209463,
        -0.003815, -0.057890, 0.350188, -0.754106, -0.877747, -0.079098, -0.124885, -0.450143, -0.199782,
        0.481064, 0.466474, 0.455766, 0.506547, 0.348633, 0.289612, 0.328715, 0.207839, 0.154099,
        0.029590, 0.385740, 0.298883, 0.190293, -0.624420, -0.324451, 0.054213, 0.001055, -0.357042,
        -0.202417, 0.056099, 0.059672, -0.047715, -0.038112, 0.078230, 0.003224, 0.062332, -0.130432,
        0.201383, 0.181792, -0.029290, 0.179478, -0.098452, -0.119821, -0.168286, -0.122766, -0.142294,
        -0.074405, 0.185771, 0.070767, 0.324178, -0.068435, 0.068900, -0.026391, -0.042789, 0.008434,
        0.034901, -0.146607, 0.057030, -0.068585, -0.317630, -0.139668, 0.001994, -0.009192, 0.140432,
        0.026755, -0.330065, -0.300374, -0.287272, -0.236193, -0.104177, -0.192026, -0.372561, -0.117826,
        0.162073, -0.195774, -0.121408, 0.069795, -0.182307, -0.210426, -0.558313, -0.194113, -0.035917,
        -0.041755, -0.015739, -0.155241, -0.070220, -0.157320, -0.118592, 0.113344, -0.292553, 0.198165,
        -0.039261, 0.167765, -0.068230, -0.064997, 0.143478, 0.041338, -0.046953, 0.137744, 0.247142,
        -0.186670, -0.113280, -0.129311, -0.072326, 0.328354, -0.050073, -0.185442, -0.294921, -0.144626,
        0.091753, 0.362259, 0.080884, -0.168271, -0.406258, -0.197684, -0.303487, -0.566744, -0.161357,
        0.023001, -0.119974, 0.000961, -0.034802, -0.018582, 0.032230, 0.037831, -0.260315, -0.075354,
        0.032536, -0.182643, -0.026447, -0.169390, -0.215295, 0.028040, 0.078096, 0.411451, 0.217111,
        0.119111, 0.115296, -0.050023, -0.023217, 0.137526, 0.024517, -0.045311, 0.012144, 0.205477,
        0.294010, 0.226489, 0.087531, 0.090727, 0.305215, -0.190265, 0.110422, 0.243210, 0.018796,
        -0.041114, -0.015888, 0.006746, 0.133332, -0.038618, -0.025108, 0.154847, -0.195632, -0.020558,
        0.034204, 0.190098, -0.008219, -0.107122, -0.256495, -0.258639, -0.124788, -0.252208, -0.171324,
        -0.080254, 0.189806, -0.055147, 0.024396, 0.017494, 0.183445, 0.251647, 0.298988, 0.051886,
        0.254840, -0.129499, 0.258487, -0.064756, -0.699154, 0.007168, 0.275570, -0.183146, -0.132817,
        0.127701, -0.198765, -0.027955, -0.079137, -0.300298, -0.271308, -0.489682, -0.594424, -0.517276,
        -0.217942, 0.075871, -0.000036, 0.036806, -0.093737, -0.095608, -0.010433, -0.102299, -0.093576,
        -0.039318, -0.680769, -0.113864, 0.119291, -0.158374, -0.261547, -0.224741, -0.220692, 0.063495,
        0.557596, -0.200944, 0.295781, 0.175558, 0.042769, -0.056780, 0.181531, -0.050500, 0.397369,
        -0.196738, -0.177507, 0.096189, -0.399181, 0.030235, 0.071066, -0.210342, 0.009848, 0.053806,
        -0.009293, -0.556741, -0.313444, -0.204133, -0.544620, -0.278269, 0.276775, 0.056026, 0.121103,
        -0.232963, 0.125266, 0.021227, -0.304025, -0.152858, -0.176250, -0.019345, 0.015750, 0.029248,
        -0.156053, 0.028107, -0.237814, -0.074478, -0.280647, -0.594495, 0.119929, -0.271948, -0.523637,
        -0.053682, -0.113236, 0.111792, 0.110942, -0.364807, -0.095811, -0.000197, -0.306824, -0.088396,
        -0.084157, 0.210130, 0.254237, -0.045897, -0.164974, 0.368384, 0.166699, 0.638052, 0.590370,
        -0.098134, -0.140324, -0.123319, -0.020709, -0.329697, -0.215892, 0.068140, 0.234973, -0.082036,
        -0.286323, -0.005480, -0.426889, -0.243579, 0.141280, -0.113075, -0.115186, 0.144293, 0.026545,
        -0.068103, -0.129617, -0.077052, -0.382063, -0.088432, 0.116866, -0.110329, 0.042821, 0.000925,
        -0.097168, -0.449741, -0.137700, 0.005168, -0.318012, 0.055658, 0.057599, 0.087981, -0.035014,
        -0.081213, 0.236377, -0.251805, -0.200999, -0.374324, -0.089707, 0.081778, 0.087264, 0.017221,
        -0.302541, -0.026084, 0.054456, 0.177647, -0.024848, -0.032650, 0.278292, -0.050540, 0.021412,
        -0.106920, -0.306901, -0.093963, -0.209251, -0.139742, -0.186470, -0.277945, -0.152570, 0.026636,
        0.213002, 0.268268, -0.102827, 0.235574, -0.229005, 0.195500, 0.935460, 0.473967, 0.562780,
        -0.044986, -0.163505, 0.089065, 0.147213, -0.451257, -0.034147, -0.080508, -0.055836, 0.007852,
        -0.068505, 0.257721, 0.448796, -0.195302, -0.066934, -0.084356, -0.109741, 0.146944, 0.046742,
        -0.118488, 0.053842, -0.296024, -0.168147, -0.106482, -0.136332, 0.353270, 0.091038, 0.379938,
        -0.268944, -0.052200, -0.031552, 0.015373, 0.014795, -0.196065, 0.145367, 0.078714, 0.164928,
        -0.148245, 0.124226, -0.234488, -0.066338, 0.027216, -0.172861, 0.262591, -0.112674, 0.275179,
        0.057214, 0.153565, -0.044766, 0.198791, 0.426022, -0.087327, 0.156511, 0.118150, -0.014353,
        -0.181551, -0.010364, 0.222983, -0.630298, -0.408205, -0.094152, 0.026199, -0.152961, -0.437081,
        0.113615, 0.831931, 0.078943, 0.305431, -0.208835, 0.149069, 0.451948, -0.119514, 0.206871,
        -0.312497, 0.062629, -0.099797, -0.253359, -0.357934, -0.567903, -0.163634, -0.365412, -0.258283,
        -0.081791, -0.104384, 0.010435, -0.046448, -0.274525, 0.051194, -0.212235, -0.010915, -0.022994,
        -0.368424, -0.338629, -0.329344, -0.420158, -0.807382, -0.349587, 0.168927, -0.218175, -0.218401,
        -0.164246, -0.206589, -0.114785, -0.212637, -0.388190, -0.007207, 0.008997, -0.577643, -0.030620,
        0.052013, -0.080622, -0.008368, -0.046598, 0.061664, -0.241356, 0.099072, -0.239125, -0.155702,
        -0.162578, -0.055708, 0.215009, -0.167751, 0.040443, 0.384802, -0.103150, -0.024845, 0.168326,
        -0.127432, -0.051053, -0.040283, 0.141197, 0.382676, 0.298395, -0.133273, 0.051200, 0.009171,
        0.101996, 0.004420, -0.160631, -0.017184, -0.021065, 0.233314, -0.460903, -0.308009, -0.149577,
        0.223662, -0.408499, -0.260271, 0.252999, -0.484929, -0.112068, 0.182642, -0.387426, -0.130612,
        -0.057870, 0.117301, -0.056685, -0.123112, 0.312508, 0.064576, 0.065607, 0.119492, 0.133435,
        0.197675, 0.020952, -0.152753, 0.303749, 0.058623, 0.084149, 0.206281, 0.096507, 0.098839,
        -0.159413, -0.170277, -0.008272, -0.186892, 0.067297, 0.024086, -0.021762, -0.140806, 0.159913,
        0.081972, 0.039642, 0.065818, 0.087665, 0.030699, 0.093035, -0.084723, -0.106062, 0.117091,
        -0.101207, 0.079516, -0.222948, 0.030403, 0.092731, -0.043674, 0.054837, 0.243689, 0.047296,
        -0.123015, -0.190536, 0.083130, -0.219001, -0.048587, -0.059397, -0.466471, -0.584316, -0.142488,
        -0.061771, -0.030955, -0.020722, 0.041228, -0.087346, -0.162227, 0.087597, 0.240962, 0.192144,
        -0.265517, -0.325465, -0.424757, -0.318780, -0.462411, -0.302985, -0.490469, -0.633318, -0.502349,
        -0.206618, -0.110713, -0.060917, 0.043392, -0.105747, 0.131313, -0.451892, -0.449031, -0.097949,
        0.070542, -0.338861, 0.012661, -0.140632, 0.068992, 0.076805, 0.080690, 0.267139, 0.128814,
        -0.378663, -0.184867, -0.332299, -0.114744, -0.079167, -0.029505, -0.076363, -0.066505, -0.143602,
        0.099963, 0.340691, -0.121037, 0.121717, 0.190302, -0.183736, -0.026795, -0.187751, 0.064610,
        0.165190, 0.492214, 0.203134, 0.072268, -0.251878, 0.300976, 0.194487, 0.601504, 0.190218,
        0.048988, 0.097322, -0.135733, 0.401795, 0.038633, 0.080260, -0.038620, 0.307413, 0.229248,
        0.459065, -0.176698, 0.195814, -0.214848, 0.194437, 0.136207, 0.187481, 0.136859, -0.234820,
        0.011149, -0.076531, -0.205916, -0.092032, -0.167902, -0.055682, 0.210857, -0.013706, 0.051530,
        0.106205, -0.259827, 0.245566, -0.213928, 0.236474, 0.072153, -0.059035, -0.191439, 0.260226,
        0.557222, 0.187852, 0.059223, -0.262922, -0.194068, 0.528265, 0.362752, 0.792335, -0.167279,
        -0.272004, -0.414734, -0.262536, -0.472770, -0.209016, -0.244804, -0.299386, -0.320494, -0.050240,
        -0.414732, -0.506005, -0.352111, -0.525860, -0.417172, -0.111990, -0.225494, -0.322301, -0.211918,
        -0.150528, -0.027891, -0.177373, -0.350771, -0.168146, 0.352700, -0.282220, -0.221432, -0.144806,
        -0.054754, -0.173696, 0.183454, -0.110514, -0.011525, 0.001389, -0.294622, -0.109862, -0.011294,
        0.006758, 0.137491, 0.066511, 0.033463, 0.222082, -0.198912, 0.198695, -0.403268, -0.096589,
        0.168924, 0.383470, 0.033819, 0.294821, 0.185825, 0.206526, 0.169723, 0.336005, 0.097271,
        -0.166707, -0.165265, -0.159674, -0.173309, -0.108140, -0.184436, -0.013659, -0.100590, 0.134116,
        -0.179120, -0.318692, -0.177976, -0.384755, -0.474623, -0.168187, -0.250474, -0.311015, -0.149277,
        0.015753, 0.055046, -0.010411, 0.268283, 0.143712, -0.146248, 0.055556, 0.122194, 0.037877,
        -0.202887, -0.192526, 0.197806, -0.045006, -0.044423, -0.238038, -0.276528, -0.249639, -0.030354,
        -0.023099, 0.019481, -0.122990, -0.264009, 0.048490, 0.003585, 0.030716, -0.376085, -0.108307,
        -0.006431, 0.095321, -0.017057, 0.234575, -0.120612, -0.013783, -0.129741, -0.054117, -0.243538,
        0.016138, -0.262272, -0.327007, -0.307864, 0.381893, -0.112983, 0.227546, -0.407087, -0.040586,
        -0.134901, -0.265453, 0.058265, 0.074164, -0.332928, -0.191736, 0.100336, -0.060690, -0.016116,
        0.127995, -0.074686, 0.408139, 0.179841, -0.148277, -0.035476, -0.029851, -0.324096, -0.160086,
        0.203506, -0.181028, 0.434971, -0.054612, 0.746009, -0.147169, -0.168689, 0.093684, 0.368866,
        -0.135230, 0.399294, 0.057144, 0.268537, -0.052457, 0.416529, 0.087288, 0.537558, 0.182935,
        -0.357217, 0.093587, -0.103849, -0.204125, 0.001263, -0.407070, 0.100641, -0.014333, -0.356265,
        0.118217, -0.428881, 0.275769, 0.022155, -0.045036, -0.074924, -0.066161, -0.111792, -0.110343,
        0.079336, -0.211643, 0.071865, 0.069537, -0.341229, -0.168089, -0.185295, -0.556302, 0.090568,
        -0.092495, 0.411776, -0.088208, 0.066388, 0.006292, 0.283585, 0.335408, 0.474141, 0.162692,
        -0.573864, -0.423201, -0.488408, -0.668173, -0.868754, -0.408986, -0.674673, -0.692756, -0.475038,
        -0.027842, 0.089767, 0.126222, 0.006828, -0.087022, 0.032967, -0.196455, -0.111958, -0.006768,
        -0.067800, 0.477809, -0.008593, 0.163991, 0.338399, 0.383062, 0.452763, 0.052300, 0.274583,
        0.113423, -0.095756, 0.188613, 0.248710, 0.360538, -0.186347, -0.197227, -0.016261, 0.139787,
        0.075137, 0.018578, -0.181268, -0.030287, -0.041536, 0.171185, 0.168764, 0.236685, 0.171410,
        0.317244, 0.274047, 0.130999, 0.262402, 0.163724, 0.142391, 0.136496, 0.079347, 0.144311,
        -0.086376, 0.014454, 0.391227, 0.050645, 0.249900, 0.547496, 0.140908, 0.116833, 0.126097,
        -0.068649, -0.155340, -0.113253, -0.083225, -0.097993, -0.290697, -0.262281, -0.458745, -0.088771,
        -0.255790, 0.160330, -0.175925, -0.124710, 0.165845, 0.094569, -0.170933, 0.190737, 0.000581,
        -0.178146, 0.372473, 0.657400, -0.158739, 0.229483, 0.469178, -0.351635, 0.276840, 0.475418,
        0.271371, 0.009206, 0.000786, 0.094921, 0.363236, -0.002184, -0.144767, -0.039922, -0.016386,
        0.176028, 0.357928, 0.060892, 0.367166, 0.234187, -0.115835, 0.129364, 0.132642, 0.155247,
        0.375855, -0.053533, -0.238341, 0.090757, 0.137384, 0.090919, 0.379223, -0.084315, 0.048468,
        -0.448032, -0.384155, -0.528979, -0.048084, -0.079512, -0.112265, -0.137171, 0.051299, -0.081628,
        -0.108383, 0.067388, 0.102858, -0.098942, -0.147896, -0.144667, 0.201787, -0.141905, -0.382264,
        0.006596, 0.291145, 0.343090, 0.061914, 0.020013, 0.261353, -0.015791, 0.134799, 0.132807,
        0.083166, 0.185882, 0.044275, 0.181820, -0.086943, -0.182646, -0.047741, -0.196853, -0.065093,
        -0.259698, 0.265119, 0.250475, -0.251878, 0.106648, 0.229643, -0.281000, 0.073655, 0.219414,
        -0.179741, -0.143033, -0.251419, -0.072520, -0.349722, -0.308430, 0.068516, -0.242613, -0.077520,
        0.037868, -0.037513, -0.196548, 0.235376, 0.286285, 0.253441, -0.079484, -0.013258, 0.238067,
        0.050376, -0.506073, 0.097817, -0.397426, -0.513926, -0.008218, -0.350801, -0.726006, -0.341570,
        0.081072, 0.237052, 0.086916, 0.300267, 0.194274, -0.126434, 0.082804, -0.216691, 0.204158,
        0.472429, 0.447326, 0.065090, 0.468794, 0.602943, 0.153955, 0.148143, 0.208658, 0.035463,
        -0.117576, -0.275117, 0.103856, -0.201923, -0.068151, 0.094468, 0.101667, -0.025787, 0.233720,
        -0.182392, 0.104950, -0.197310, 0.004121, 0.101313, -0.151248, 0.126262, -0.192538, -0.406150,
        -0.230861, -0.197531, -0.033001, 0.101436, 0.273170, 0.001920, -0.126989, -0.355202, -0.054876,
        -0.092470, -0.028739, 0.033387, -0.227769, -0.227520, -0.099267, 0.076097, -0.167647, -0.156760,
        0.487648, 0.488238, -0.488448, 0.492591, -0.089930, -0.146913, 0.146471, 0.365957, -0.024598,
        -0.491843, -0.222360, 0.166805, -0.228223, -0.087023, -0.171497, 0.127594, -0.177141, -0.158151,
        -0.091062, -0.421633, 0.104114, -0.568195, -0.382360, -0.099188, -0.158955, 0.215079, 0.155726,
        -0.440751, -0.830781, -0.046390, -0.238739, -0.895873, 0.136188, -0.195651, -0.600611, -0.153277,
        -0.150152, 0.491122, 0.078833, 0.001407, 0.719770, -0.027485, 0.186503, 0.080743, 0.141665,
        0.214503, 0.319642, 0.173564, 0.207550, 0.178393, 0.265441, 0.075576, 0.223411, 0.093958,
        0.264109, -0.418162, 0.052361, -0.194639, -0.380360, -0.331028, -0.120377, -0.381234, -0.084739,
        0.063428, 0.449313, -0.036407, 0.215375, 0.529786, 0.280092, 0.236082, 0.435974, 0.380145,
        -0.129528, -0.787367, -0.242914, -0.051046, 0.001114, -0.001937, 0.043709, 0.092422, -0.242049,
        0.474684, 0.431911, 0.383737, 0.254497, 0.188387, -0.030629, 0.207496, -0.240733, -0.182355,
        -0.366122, -0.343651, -0.138973, -0.294271, 0.004398, 0.103596, -0.141201, -0.205528, -0.260394,
        0.043893, -0.228844, 0.022525, 0.271824, 0.193964, 0.234187, 0.275560, 0.283893, 0.551165,
        0.412342, 0.103585, 0.102802, 0.117700, -0.068420, -0.033414, -0.087970, -0.353530, -0.046245,
        0.086634, -0.198517, 0.145655, -0.202017, -0.833780, -0.505764, -0.241039, -0.702793, -0.246810,
        -0.151056, -0.205748, -0.107796, -0.630609, -0.437800, 0.031571, -0.518824, -0.102775, -0.304112,
        0.289219, -0.110839, 0.127851, -0.065190, -0.311577, -0.432313, 0.104997, -0.379854, -0.328956,
        -0.052580, -0.078152, -0.025404, -0.067489, -0.169802, 0.128579, -0.034796, -0.201262, -0.119054,
        -0.026413, -0.340479, 0.123536, 0.112351, 0.159517, 0.329714, 0.506966, 0.540809, 0.260941,
        -0.221263, -0.077798, -0.375728, -0.323948, 0.371760, 0.416131, -0.352243, 0.182302, 0.138296,
        -0.043962, -0.504352, 0.080397, -0.371758, -0.385448, -0.357204, -0.088545, -0.362502, -0.402149,
        0.161964, 0.129050, 0.188713, 0.206681, -0.171811, 0.175194, -0.019905, -0.268236, -0.148297,
        0.234567, -0.029268, 0.086415, -0.046606, -0.220483, -0.456142, 0.045702, -0.095541, -0.273662,
        0.223845, 0.312568, 0.204867, -0.046510, -0.158388, 0.149591, -0.307841, -0.473221, 0.031781,
        -0.009486, -0.148281, -0.088514, -0.071439, -0.191247, -0.116045, 0.183091, -0.153546, -0.041749,
        0.057512, 0.257034, 0.210804, -0.090124, -0.653876, -0.735693, -0.340650, -0.727808, -0.836808,
        -0.105271, 0.077656, 0.075299, 0.217474, -0.001891, -0.059169, 0.031445, -0.026089, 0.058127,
        0.162973, 0.130929, -0.196952, -0.027602, 0.265185, -0.023041, -0.184272, 0.187202, 0.290261,
        0.114856, -0.121627, -0.021658, -0.005699, 0.056885, 0.144019, 0.235214, 0.024317, 0.093441,
        0.245970, -0.059103, -0.232249, -0.022693, 0.105209, -0.216656, -0.139908, 0.003484, 0.003256,
        0.185104, 0.308874, -0.046852, -0.189092, 0.185886, 0.052694, -0.171941, -0.026231, 0.012316,
        -0.174456, 0.479378, -0.372374, -0.593551, 0.218758, 0.049391, -0.182928, -0.282589, -0.049804,
        0.450430, -0.045864, 0.203229, 0.326995, 0.121335, 0.024134, 0.030629, 0.389230, -0.017065,
        -0.252326, -0.017469, 0.203519, -0.238680, -0.049708, 0.140977, 0.216177, -0.109484, -0.172757,
        0.191109, -0.078416, 0.030723, 0.073892, 0.153712, -0.000553, -0.120668, -0.017037, 0.098138,
        0.140065, -0.098416, 0.099370, 0.247489, 0.119301, 0.165837, 0.113572, 0.194175, 0.055010,
        0.010198, 0.279645, 0.041600, 0.020394, 0.187582, -0.056938, -0.002743, 0.172850, 0.127269,
        -0.181943, 0.246637, -0.174863, -0.086255, 0.084839, -0.118428, 0.121447, -0.095130, 0.062103,
        0.064514, 0.155983, 0.100054, -0.199650, -0.019149, 0.106830, -0.279567, -0.269518, -0.150802,
        -0.121338, -0.040107, 0.014319, -0.166040, -0.179021, -0.057692, -0.082734, -0.259952, -0.093704,
        -0.088115, -0.287003, 0.039679, 0.027553, -0.081206, -0.119469, -0.028116, 0.220490, -0.049285,
        0.056365, 0.102612, 0.024795, -0.235594, 0.089442, -0.014511, -0.247994, -0.085215, -0.032374,
        -0.600806, -0.146942, 0.286147, -0.181900, -0.270150, 0.192139, 0.032819, -0.380884, 0.135218,
        0.318515, 0.141161, 0.083529, 0.348147, 0.127737, -0.104140, 0.141113, 0.009654, -0.285376,
        0.216843, 0.386720, -0.170058, 0.163109, 0.587016, 0.073612, 0.028900, -0.020854, -0.076890,
        -0.142248, 0.108947, -0.287410, 0.076687, 0.059306, 0.171450, -0.043243, -0.064054, -0.194253,
        -0.015992, -0.341615, -0.011698, -0.030013, -0.336754, -0.094994, -0.174729, -0.254064, -0.166651,
        0.249022, 0.328083, -0.241111, 0.304161, 0.407419, -0.477335, -0.165343, -0.082860, -0.217019,
        -0.201082, 0.020611, 0.118975, -0.017622, -0.302820, -0.123500, -0.213446, -0.277787, 0.134697,
        0.023927, -0.028856, 0.199402, 0.130540, -0.369478, -0.571781, 0.247412, -0.227451, -0.101850,
        -0.084010, -0.186561, -0.132633, -0.279052, -0.414733, -0.251210, -0.270126, -0.539603, -0.174674,
        -0.106242, 0.710037, 0.147168, 0.111018, 0.464874, 0.211057, -0.015367, -0.292648, -0.029076,
        0.038097, -0.074875, -0.116529, 0.149179, -0.249986, -0.392728, -0.147713, -0.349023, -0.206692,
        -0.167526, -0.225034, 0.207824, -0.186666, -0.573843, -0.144004, 0.103441, -0.456891, 0.330094,
        0.307461, 0.165435, 0.181308, -0.015629, -0.191421, 0.042664, 0.047933, 0.071551, 0.523492,
        -0.106643, -0.185189, -0.108101, 0.094509, -0.225174, 0.103169, 0.047180, 0.004583, 0.071055,
        -0.597451, -0.424869, 0.347649, -0.184058, -0.563535, 0.009721, 0.143504, 0.045039, 0.089576,
        0.032181, 0.051607, 0.042216, -0.090883, -0.335113, -0.201264, 0.134697, -0.171905, -0.404936,
        -0.037269, 0.314021, 0.174093, 0.011708, -0.052286, 0.103175, -0.214691, -0.583765, -0.008755,
        0.143079, -0.111613, -0.353314, 0.000170, -0.036358, 0.008008, 0.010626, 0.085728, 0.403314,
        -0.041710, 0.003930, 0.172087, -0.041142, -0.298374, -0.097526, -0.107139, 0.006479, 0.149512,
        -0.469370, -0.300901, 0.061639, -0.040077, -0.103857, 0.055781, -0.144575, 0.113669, -0.210283,
        0.105121, -0.032779, -0.033873, -0.007099, -0.075964, -0.108733, -0.121627, 0.208169, -0.091086,
        0.101601, -0.218617, 0.018176, -0.389808, -0.059098, 0.171396, 0.156730, 0.498695, -0.180572,
        -0.142334, -0.539837, -0.136392, -0.164559, -0.057418, -0.042356, 0.014868, 0.407233, -0.025483,
        0.043320, -0.218748, -0.169270, 0.048194, 0.174077, -0.039130, 0.055969, 0.152261, -0.020816,
        0.076107, -0.233883, 0.057358, -0.122588, 0.253312, 0.122856, 0.011060, 0.166911, -0.108946,
        0.092744, -0.403056, -0.445959, -0.078145, 0.022464, 0.093206, 0.100321, 0.333916, 0.262074,
        -0.068618, -0.127379, 0.024210, 0.059297, -0.115183, 0.022830, -0.115872, -0.351648, 0.078218,
        -0.117290, -0.076950, 0.046905, 0.337984, 0.217129, 0.086167, 0.186775, 0.148224, -0.139833,
        0.253966, -0.162728, -0.420828, -0.241906, -0.571967, -0.278735, -0.123133, 0.072550, 0.380915,
        -0.052847, -0.075074, -0.130153, -0.012824, -0.002813, -0.005493, 0.003455, 0.030083, 0.104560,
        -0.259511, -0.256661, -0.165913, -0.169438, -0.182202, -0.148869, -0.052236, 0.060382, -0.107104,
        0.114509, 0.094148, 0.170641, 0.094889, -0.283992, -0.071900, 0.076001, 0.085358, 0.071778,
        -0.143331, 0.117108, 0.065027, -0.050737, 0.156286, 0.011892, -0.151594, 0.011446, -0.112869,
        -0.209982, -0.372221, -0.015265, -0.127389, -0.132803, -0.092915, -0.200885, 0.069223, 0.014068,
        0.197437, 0.385493, -0.023245, 0.051960, -0.261640, -0.141027, -0.069124, 0.112591, -0.310997,
        0.398020, -0.374600, 0.042996, 0.077821, 0.600701, 0.265496, 0.190784, -0.015704, 0.206491,
        -0.081107, -0.044288, -0.094053, 0.105869, -0.050865, 0.062168, -0.088289, -0.105645, 0.047379,
        0.072614, -0.182471, 0.213956, 0.036724, -0.069414, 0.077632, -0.048045, -0.408483, 0.078139,
        0.188481, -0.026783, 0.276955, 0.371544, 0.273853, 0.174539, -0.010930, 0.593875, 0.328337,
        -0.027321, 0.079390, 0.066288, -0.114881, 0.003946, 0.123608, -0.098558, -0.201125, -0.228180,
        -0.422963, -0.821536, -0.318225, -0.330531, -0.032264, -0.231913, -0.367073, -0.269552, -0.206535,
        -0.407107, -0.657535, -0.506491, -0.104221, -0.157814, -0.260437, 0.040048, -0.389896, -0.174250,
        -0.060624, -0.135530, 0.105602, 0.010209, -0.115999, -0.046470, -0.005796, -0.236155, 0.118179,
        0.150916, -0.124186, -0.206328, -0.131299, 0.682284, -0.002218, 0.036143, -0.115571, 0.061416,
        -0.202277, -0.231343, -0.275741, -0.383274, -0.131143, -0.475081, -0.398722, -0.051242, -0.405217,
        -0.261597, 0.041737, 0.086615, -0.010193, 0.068802, 0.145960, -0.005571, -0.042639, 0.016508,
        -0.430856, -0.444410, -0.080706, -0.234157, 0.349000, -0.024437, -0.042437, -0.197135, 0.094260,
        -0.019501, 0.501444, 0.274494, 0.178903, 0.233344, 0.364798, 0.020354, 0.442746, 0.202338,
        -0.233497, -0.105922, 0.094147, -0.589347, -0.295353, 0.259345, -0.499868, -0.349379, -0.040304,
        0.183557, 0.181443, 0.161447, -0.006738, -0.139648, -0.174553, -0.135123, -0.201520, 0.182145,
        0.579351, 0.244817, -0.142362, 0.559520, 0.548098, -0.025075, 0.399544, 0.141458, 0.079019,
        -0.210206, -0.138405, -0.028885, -0.115944, 0.200944, 0.150507, -0.143888, 0.227746, -0.063367,
        -0.427550, -0.652242, 0.080937, -0.336899, -0.482921, 0.351419, 0.042868, -0.121345, 0.205320,
        -0.154292, -0.070332, -0.129091, 0.302218, 0.197474, -0.024241, 0.179197, -0.168232, 0.068155,
        -0.147958, -0.027969, 0.143016, -0.273731, -0.050339, 0.320190, -0.162529, -0.079354, 0.037366,
        -0.221473, 0.128101, 0.239530, -0.088734, -0.092552, -0.040795, -0.152784, 0.067602, 0.261658,
        0.038738, 0.147021, 0.187313, 0.085002, 0.264717, 0.199738, -0.090084, 0.071500, 0.095596,
        0.236524, -0.160659, -0.200062, 0.301179, 0.262071, -0.358825, 0.046900, 0.112347, -0.091132,
        -0.350698, -0.377035, 0.001629, -0.333685, -0.150082, -0.226552, -0.008505, -0.070535, 0.004730,
        0.217071, 0.223036, -0.000180, 0.016403, 0.020057, 0.003426, 0.252776, 0.471276, -0.011022,
        -0.184674, 0.083623, 0.253070, -0.487698, -0.165716, 0.124720, -0.244830, 0.134679, 0.131305,
        0.198106, 0.443268, 0.361401, 0.117736, 0.395200, 0.069440, -0.129521, 0.197868, 0.269087,
        0.054110, -0.121156, 0.128189, -0.080440, -0.346106, 0.054941, -0.013452, -0.210262, -0.325680,
        -0.514119, -0.211027, 0.400053, -0.580748, -0.140998, 0.354151, -0.167273, -0.220715, 0.133644,
        0.356755, -0.086500, -0.245110, 0.341690, 0.241085, -0.276276, -0.106652, 0.095678, 0.143682,
        -0.042675, 0.144602, -0.054781, -0.072656, -0.078492, 0.018847, -0.217849, -0.318436, -0.102849,
        -0.011676, 0.065250, 0.087248, 0.138265, 0.014263, 0.254755, 0.347848, 0.109711, -0.069531,
        0.158322, 0.278107, -0.089951, -0.147472, 0.057107, -0.312130, -0.468633, 0.150871, 0.219450,
        0.085780, 0.175337, -0.045606, -0.080998, 0.188604, 0.006590, 0.046716, -0.524307, -0.000105,
        -0.107608, 0.327501, 0.346240, 0.256817, -0.031332, 0.097752, 0.268034, -0.565599, -0.033951,
        0.233792, 0.068406, -0.373041, -0.060593, 0.116287, -0.064982, -0.262321, 0.089928, -0.026355,
        0.099915, 0.029035, 0.289831, 0.020426, -0.744267, -0.358915, 0.288920, -0.564722, -0.161856,
        -0.087333, 0.395396, -0.060421, -0.084722, 0.188784, 0.071630, -0.252993, 0.139874, -0.106481,
        0.186357, -0.038341, 0.004369, 0.298609, 0.072054, -0.375569, 0.164769, 0.298411, -0.170287,
        -0.091290, -0.059981, 0.009284, 0.094887, -0.351667, -0.045223, -0.083895, -0.055821, -0.027972,
        -0.213379, 0.214777, 0.112076, -0.112491, -0.061416, 0.011795, -0.237115, -0.359082, 0.214829,
        0.066534, 0.037412, -0.264890, -0.391243, 0.155793, 0.240750, -0.302132, -0.063165, 0.205999,
        -0.064348, -0.017886, 0.143751, -0.121362, -0.246491, 0.079979, -0.294338, -0.256426, -0.080597,
        -0.202358, 0.151134, 0.086483, -0.100296, 0.432050, -0.076116, -0.139768, 0.258374, 0.175964,
        -0.079764, 0.032538, -0.282816, -0.168480, -0.175736, 0.187030, -0.031922, -0.314870, 0.104600,
        -0.090808, 0.152738, -0.002456, -0.181346, 0.190478, 0.089489, 0.136176, -0.094971, -0.085782,
        0.403175, -0.246107, -0.073117, 0.126826, -0.376299, 0.018145, -0.615036, -0.349290, 0.470436,
        0.521856, -0.266227, 0.140569, 0.255439, 0.237479, 0.178095, -0.083377, 0.057414, 0.252051,
        -0.219080, 0.200613, 0.067769, -0.018386, 0.158210, 0.030467, -0.174637, 0.051996, -0.116025,
        -0.351187, -0.143944, 0.371146, -0.147336, -0.044660, -0.112324, 0.143610, 0.163826, -0.182741,
        -0.046046, -0.374358, 0.265898, -0.041792, 0.193095, 0.151642, -0.031582, 0.724886, -0.233419,
        -0.336375, -0.039436, 0.387901, -0.291950, 0.192911, 0.223915, -0.075561, 0.011079, -0.207928,
        -0.120871, -0.340113, 0.292782, -0.194013, -0.015099, 0.000604, 0.072027, 0.177305, -0.008236,
        -0.322231, -0.079685, 0.142346, -0.311032, -0.105485, 0.084886, 0.087761, 0.221241, -0.037667,
        0.197050, -0.266772, -0.256932, 0.122664, -0.143829, 0.081513, -0.226600, -0.035544, 0.309511,
        -0.128675, -0.027654, 0.089090, -0.081018, -0.167467, -0.144432, -0.006985, -0.328263, -0.244504,
        -0.150292, 0.242226, 0.085729, -0.104822, 0.296088, -0.182672, 0.362717, 0.242787, -0.231806,
        -0.068233, 0.335299, -0.043074, -0.228634, -0.033375, 0.128210, 0.031617, -0.102335, 0.133381,
        0.038225, -0.095073, -0.118044, -0.045118, -0.016352, 0.015806, 0.217603, -0.290888, -0.044591,
        0.189772, 0.320145, 0.213288, 0.236713, 0.132589, 0.039133, 0.103114, -0.180878, -0.081485,
        0.042582, -0.091386, 0.294238, -0.181450, 0.046778, 0.113763, -0.000330, 0.006831, -0.322288,
        -0.317545, 0.122610, 0.234374, -0.108142, -0.133373, 0.017053, 0.281119, 0.242422, -0.089453,
        0.104557, 0.128745, -0.203538, -0.160820, -0.053743, -0.049424, -0.000773, -0.229919, -0.266592,
        0.047320, 0.085108, -0.041480, 0.192696, 0.568124, 0.176699, 0.163301, -0.032780, 0.303360,
        -0.269317, -0.105929, 0.015528, -0.198004, 0.065358, 0.023312, -0.287203, -0.110001, 0.038700,
        -0.044068, -0.034568, -0.031892, 0.039344, 0.264318, -0.307115, -0.248893, -0.085572, 0.020989,
        -0.043684, 0.099269, -0.532294, 0.138640, 0.335545, -0.473038, -0.054187, 0.338817, -0.316831,
        0.052115, 0.006312, 0.150607, 0.114926, 0.206824, 0.079354, -0.212998, -0.240970, -0.082206,
        0.114533, 0.419212, -0.181503, -0.101952, 0.147336, 0.274523, -0.194530, 0.116823, -0.116138,
        0.103673, 0.122211, -0.250787, 0.214620, 0.248980, -0.244504, 0.184626, 0.036915, 0.054522,
        -0.493138, -0.164497, 0.269409, -0.360527, -0.204660, 0.186434, -0.518621, -0.682575, 0.054091,
        -0.273999, 0.191151, -0.127387, -0.417832, 0.031965, 0.019920, -0.570570, -0.401148, 0.161108,
        0.307640, -0.309810, -0.150367, 0.320858, -0.539506, -0.185303, 0.056504, -0.159093, -0.223030,
        0.146939, 0.149910, 0.375324, 0.184103, 0.052532, -0.018739, 0.152020, 0.145976, -0.073499,
        0.113883, -0.014365, -0.604143, -0.157063, -0.092028, -0.239768, 0.029366, 0.273260, 0.076556,
        0.135199, 0.047124, -0.243121, -0.069150, -0.341410, -0.196378, 0.066288, 0.050997, 0.045606,
        0.115048, -0.063172, -0.080645, -0.087000, -0.015353, -0.050827, 0.034753, 0.058695, 0.088526,
        -0.319195, -0.585368, -0.428229, -0.467263, -0.537308, -0.082725, -0.054397, 0.151516, -0.056037,
        -0.118188, 0.172284, 0.199668, -0.048092, -0.020585, 0.172366, -0.139843, -0.158924, -0.055347,
        -0.010437, 0.179819, 0.171793, 0.049141, -0.160830, 0.069729, -0.188235, -0.106995, -0.238484,
        -0.110543, -0.077874, 0.044247, 0.494917, 0.570089, 0.240809, 0.108726, -0.017607, -0.163195,
        -0.236637, -0.354069, -0.416136, 0.010777, -0.022679, 0.101259, 0.149395, -0.027740, -0.084399,
        0.025368, 0.201199, 0.367914, 0.097768, 0.053542, -0.237471, -0.220070, -0.433798, -0.355024,
        -0.069282, -0.059162, -0.063758, 0.251173, 0.393490, 0.411961, 0.419566, 0.114847, 0.104517,
        -0.126778, -0.093957, 0.097600, 0.036858, 0.015976, 0.173947, 0.062567, 0.086868, 0.135694,
        -0.026447, -0.171758, 0.100232, -0.107084, 0.192184, 0.003617, 0.097453, 0.101492, 0.006110,
        -0.084686, 0.160040, 0.067200, 0.092811, 0.145761, 0.123821, -0.106064, -0.533901, -0.590528,
        -0.194514, -0.262180, -0.068411, -0.084368, -0.138565, 0.048387, 0.265972, 0.064576, -0.043943,
        0.198267, 0.085837, -0.058654, -0.117374, -0.049532, -0.123488, 0.049716, 0.137075, 0.139790,
        -0.119352, -0.094168, -0.041212, -0.102856, 0.226819, 0.081441, 0.357394, 0.251133, 0.262356,
        -0.033142, -0.020773, -0.052545, 0.098099, -0.143767, 0.038441, -0.183226, -0.124008, -0.215280,
        -0.015114, -0.210719, -0.011639, 0.332999, 0.210883, 0.058534, -0.285820, -0.156589, -0.130153,
        -0.477443, -0.666498, -0.300748, -0.258864, 0.028675, 0.145562, 0.263484, 0.505549, 0.255845,
        -0.266418, 0.088693, -0.150765, 0.323908, -0.002427, -0.264781, 0.142080, -0.094523, 0.039473,
        -0.215267, 0.046673, -0.008314, -0.305205, -0.176959, -0.409458, -0.063212, 0.061662, -0.066020,
        0.248626, 0.382418, 0.242246, 0.116261, 0.142672, 0.215975, 0.498570, 0.136371, 0.577771,
        -0.086266, -0.188789, -0.178100, -0.509126, -0.786650, -0.403174, -0.364776, -0.133166, -0.523228,
        0.032666, 0.130382, -0.027477, 0.103978, 0.029169, 0.055496, -0.186629, -0.446900, 0.602639,
        -0.235269, -0.076678, 0.092348, -0.620400, -0.589727, -0.291046, 0.467632, 0.178146, 0.016890,
        -0.370011, -0.304348, -0.207832, -0.189196, -0.379758, -0.529116, -0.221779, -0.114207, -0.245741,
        -0.040792, 0.337456, 0.020695, 0.123985, -0.132267, -0.089224, -0.081872, 0.009446, 0.094927,
        0.157182, -0.067407, -0.141603, -0.268726, 0.086101, -0.000755, -0.067914, 0.243526, -0.018801,
        -0.409224, -0.145584, -0.134149, -0.485986, -0.478809, -0.322818, 0.357210, -0.087849, 0.258029,
        -0.227058, -0.142490, -0.350489, -0.201625, -0.174062, -0.302154, 0.195051, -0.402493, -0.103454,
        -0.095947, -0.166334, 0.350035, -0.481697, -0.634362, -0.224655, -0.585042, -0.554830, -0.616025,
        0.224529, 0.214126, -0.143266, 0.026203, -0.143342, 0.326827, 0.117484, 0.410300, 0.451187,
        0.104311, 0.154756, -0.053239, 0.459114, 0.065532, 0.280108, 0.447137, 0.486442, 0.245023,
        0.192315, 0.199605, 0.192348, 0.467235, 0.274574, 0.125544, 0.061356, 0.222586, 0.336835,
        -0.278159, -0.409959, -0.231068, 0.048437, -0.092825, 0.048639, -0.157001, 0.310138, -0.088073,
    };
static float conv3_bias[32] = {
    -1.671460, 0.540817, -0.801990, 0.255636, 0.527843, -2.152729, -1.590184, -1.127329, -0.253812, -1.778068, 1.040577, 0.219991, -0.404540, 1.098635, 1.790594, -0.376294, 1.638082, -0.322687, -1.917936, -3.925595, -3.125913, 1.590894, -0.699052, 0.661999, 0.132212, 0.187257, -2.420435, -0.248413, -1.753074, 0.394579, -0.239562, 0.925171,
    };
static float conv4_weights[32 * 64 * 9] = {
    0.033291, 0.011797, 0.036037, -0.015556, 0.091767, 0.034524, 0.044575, 0.088543, 0.086738,
    -0.045375, 0.016134, 0.000430, 0.036326, -0.004166, 0.039362, 0.025452, -0.002269, 0.104956,
    -0.017214, -0.102625, -0.058403, -0.010402, 0.002457, -0.015705, -0.067742, 0.010559, -0.018847,
    0.061823, -0.143149, -0.114229, -0.078292, -0.209850, -0.185545, -0.111873, -0.163357, -0.145914,
    0.131116, -0.071710, -0.124958, -0.063480, -0.216770, -0.100303, -0.018911, -0.219230, -0.079026,
    0.130050, 0.042952, 0.080394, -0.075221, -0.069036, -0.019013, 0.007012, -0.080422, -0.061580,
    -0.042763, 0.047330, -0.060833, -0.149309, -0.047331, -0.128733, -0.213767, -0.047017, -0.221366,
    -0.040959, -0.023681, -0.003940, 0.037424, 0.020742, -0.035686, 0.034509, -0.052589, -0.059578,
    -0.053943, -0.153734, -0.067392, -0.024229, -0.105834, -0.023692, -0.064945, -0.090152, 0.072011,
    -0.032303, -0.088884, -0.037203, -0.069828, -0.068117, -0.060666, 0.057747, 0.022876, -0.034167,
    -0.083423, -0.110555, -0.018793, -0.105836, -0.164633, -0.109930, -0.157083, -0.154067, -0.094948,
    -0.080229, -0.009662, -0.041434, -0.036382, 0.151906, -0.024750, 0.051797, 0.118343, 0.023413,
    -0.102207, -0.028126, 0.047374, -0.002718, 0.000489, 0.027420, -0.056950, -0.052059, -0.122308,
    0.000960, 0.009647, 0.005533, 0.016279, -0.012406, 0.015668, -0.095573, -0.030011, 0.029406,
    0.013950, 0.005800, 0.025198, 0.088823, -0.021808, -0.000616, -0.058649, -0.023677, 0.018933,
    -0.102661, 0.032189, -0.061766, 0.182056, 0.031700, 0.017384, 0.070757, -0.007924, -0.055834,
    -0.032832, 0.092033, 0.054831, 0.017924, 0.118753, 0.033994, 0.011910, 0.052560, 0.010096,
    -0.053832, -0.136961, -0.200051, 0.001505, 0.020379, -0.006667, 0.156244, 0.079848, -0.042886,
    -0.029952, -0.022789, 0.003872, 0.139418, 0.114702, -0.004913, 0.013003, 0.113350, 0.020119,
    0.019515, -0.023106, 0.021981, -0.013403, 0.000681, -0.034335, -0.019554, -0.019340, -0.076199,
    0.092494, 0.090666, 0.070275, 0.018895, 0.069584, -0.014474, -0.006063, 0.071622, -0.012656,
    0.011910, -0.019710, 0.038603, 0.109861, -0.104747, -0.076506, 0.013949, -0.091005, -0.005951,
    -0.018880, -0.238896, -0.033734, -0.005548, -0.283272, 0.027815, -0.003009, -0.282880, -0.005084,
    0.151797, 0.067446, 0.073030, 0.023604, -0.036427, -0.009494, -0.008899, -0.136837, 0.020932,
    0.030899, -0.039505, 0.009332, -0.094225, -0.143055, 0.102755, -0.069198, -0.183947, 0.007153,
    -0.167011, -0.102905, -0.077930, -0.060630, -0.006115, 0.008767, -0.031137, 0.032501, 0.015956,
    0.011648, 0.033917, 0.154726, -0.082892, -0.060370, -0.039942, -0.072124, -0.043063, -0.009872,
    0.102878, -0.019045, 0.045449, 0.036950, -0.010227, -0.084821, 0.006360, 0.026738, 0.015787,
    0.057206, 0.073407, 0.138401, 0.079498, 0.006092, 0.086604, -0.112432, -0.013238, 0.106896,
    0.144846, 0.104791, 0.105139, 0.061314, -0.001754, 0.031259, 0.061680, -0.015036, 0.024633,
    0.132550, 0.005633, 0.025163, 0.028738, 0.064080, 0.078906, -0.074243, -0.078841, -0.023638,
    -0.118974, -0.054567, 0.012969, -0.125622, -0.066609, -0.037421, 0.029499, 0.013817, 0.035233,
    0.056276, 0.038650, 0.077444, -0.010565, -0.002650, -0.075069, 0.002027, 0.052441, -0.028171,
    0.066072, 0.016373, 0.121538, 0.010288, 0.123011, 0.036983, 0.052824, 0.165896, 0.056391,
    0.059006, 0.007494, 0.065693, 0.126514, 0.169569, 0.083486, 0.200148, 0.267140, 0.141888,
    -0.010249, -0.049613, -0.046992, 0.011561, -0.046280, -0.087386, 0.000711, -0.004275, -0.004948,
    0.011554, 0.012629, 0.016922, -0.024841, 0.031186, 0.030398, 0.026467, 0.047252, 0.034953,
    0.060286, 0.103846, 0.041278, -0.038852, 0.022003, 0.044022, -0.110713, -0.117004, -0.010376,
    0.040525, 0.181005, 0.035316, -0.097753, -0.000989, -0.121882, -0.066967, -0.124800, -0.081728,
    -0.087860, -0.003131, 0.029929, -0.100651, -0.018132, -0.030006, -0.125296, -0.087374, -0.093340,
    -0.034823, -0.020120, -0.027148, -0.001808, 0.033094, -0.008632, 0.038767, 0.014740, -0.023662,
    0.050185, 0.062533, 0.024424, -0.055699, -0.040426, -0.063573, -0.121434, -0.053936, -0.104264,
    0.039557, 0.012958, 0.084351, -0.007984, -0.068804, -0.058959, -0.028845, -0.093896, -0.037708,
    -0.049811, -0.052625, -0.016712, -0.030049, 0.003372, 0.008780, 0.020079, 0.006045, 0.054816,
    -0.144519, -0.090653, -0.094515, -0.088083, -0.000157, -0.032365, -0.007338, -0.010304, 0.016806,
    -0.123267, -0.117828, -0.103117, -0.087374, -0.201553, -0.098139, -0.062142, -0.081914, -0.117921,
    -0.003724, -0.050293, -0.059709, -0.075079, -0.119352, -0.043423, -0.000285, -0.016108, 0.113618,
    0.068576, 0.129087, 0.044815, 0.027741, 0.038919, 0.080290, -0.059301, -0.096555, -0.079143,
    0.033644, 0.030051, 0.004169, 0.030908, 0.043861, 0.034887, 0.018876, 0.037713, 0.002896,
    -0.012198, 0.003909, -0.045493, 0.018210, 0.006294, -0.033701, 0.002081, 0.001135, 0.002442,
    0.013318, 0.077313, 0.029653, 0.046879, 0.040753, -0.014125, 0.033317, 0.086427, 0.021962,
    0.040653, 0.002892, -0.121615, -0.010045, -0.031956, -0.090236, -0.074118, 0.032025, -0.116956,
    -0.083993, -0.010465, -0.010023, 0.069300, 0.119064, 0.036329, -0.024221, 0.030764, -0.063195,
    0.106149, 0.037262, 0.001820, -0.026715, -0.016152, -0.031051, -0.013392, 0.041097, 0.016293,
    -0.037434, -0.019077, -0.013682, 0.000266, -0.023691, 0.023963, -0.106557, -0.123042, 0.018717,
    -0.058494, 0.108702, -0.041759, 0.042903, 0.011770, 0.028427, 0.015043, 0.053536, 0.082949,
    0.107913, 0.076618, 0.072965, 0.028178, -0.060113, 0.024368, -0.081165, -0.151860, -0.043135,
    -0.013284, 0.074841, 0.003407, -0.157785, -0.095785, -0.167852, -0.086436, -0.043863, 0.011202,
    0.059566, -0.029878, -0.074871, -0.034338, -0.009704, -0.085507, 0.030767, -0.005651, -0.047042,
    -0.080796, 0.084458, 0.038703, -0.055734, 0.008233, -0.029347, -0.083297, -0.022121, -0.006640,
    -0.079031, 0.016761, -0.078867, -0.056393, -0.098910, -0.065637, -0.111325, -0.062524, -0.100413,
    -0.133920, -0.085631, -0.049232, -0.004414, 0.036618, -0.064645, -0.035322, -0.044523, 0.005275,
    -0.038886, -0.099826, -0.066319, -0.044026, -0.110938, -0.111743, -0.088928, -0.154119, -0.113312,
    -0.067418, -0.086089, -0.067300, -0.007956, -0.003223, -0.002823, 0.056845, 0.042806, 0.035481,
    0.038493, 0.085857, 0.049559, 0.022362, 0.012813, 0.064206, 0.043930, 0.067349, 0.042670,
    -0.017740, 0.029024, 0.000586, -0.024796, -0.090979, -0.112560, 0.014354, -0.007748, -0.017841,
    -0.006673, 0.041839, 0.081222, 0.124236, 0.079135, -0.027311, -0.004092, 0.045037, 0.014469,
    0.066818, 0.032564, 0.062501, -0.030271, 0.062274, -0.024440, -0.049167, 0.046471, -0.023018,
    -0.014964, 0.039033, -0.003007, 0.005553, 0.075918, -0.032986, 0.006454, 0.024339, 0.003729,
    -0.019390, -0.083248, -0.011536, 0.015296, -0.025133, 0.031203, -0.078560, -0.042938, -0.110655,
    0.005112, 0.000857, 0.021225, 0.050826, 0.112856, -0.052724, 0.030322, -0.045049, 0.006607,
    0.006854, 0.035368, -0.007729, 0.024906, 0.047323, 0.009632, 0.020244, -0.025032, -0.048388,
    -0.053424, -0.006771, -0.012425, -0.003887, 0.063008, -0.020727, -0.029927, -0.048424, -0.032396,
    0.040036, -0.086566, -0.000290, 0.021889, 0.061490, -0.002574, 0.009674, -0.079293, -0.000659,
    -0.055253, -0.080387, -0.031655, -0.003938, -0.100891, -0.013012, -0.084526, -0.105030, 0.028742,
    0.030243, 0.051602, 0.033276, 0.097831, 0.057824, 0.078485, 0.097744, 0.073545, 0.040959,
    0.025832, 0.091643, -0.036718, -0.019298, -0.036850, -0.047087, 0.060936, 0.053487, -0.009396,
    0.020113, -0.008639, -0.041912, -0.021418, -0.095217, -0.032733, -0.121320, -0.107438, -0.063730,
    0.055029, 0.088794, 0.072949, -0.022466, 0.043376, 0.076479, -0.021550, -0.057437, 0.066742,
    -0.108196, -0.093946, -0.035225, 0.014957, 0.027599, 0.033948, -0.139075, -0.184871, -0.054832,
    -0.000029, 0.025474, 0.013140, 0.018206, 0.022709, 0.011929, 0.036334, 0.003126, 0.018531,
    -0.053785, -0.062583, -0.053970, -0.022172, -0.018229, -0.048963, -0.014323, -0.082171, -0.051280,
    -0.101321, -0.087901, -0.039112, 0.010207, 0.004600, -0.000664, -0.107911, -0.070302, -0.054171,
    -0.077556, -0.055280, -0.114051, -0.081896, -0.122226, -0.034266, -0.067540, -0.084983, 0.000911,
    0.094851, 0.133075, 0.074832, 0.002402, 0.141444, 0.016321, 0.118476, 0.202776, 0.075323,
    -0.127310, -0.150886, -0.207409, -0.056046, -0.034761, -0.048001, -0.052630, -0.112098, -0.094823,
    0.050398, -0.086000, 0.029709, 0.094417, 0.013507, 0.091519, 0.052460, 0.008605, 0.039664,
    0.009152, -0.061249, 0.016476, 0.024028, -0.093992, -0.016565, -0.111707, -0.136755, -0.014785,
    -0.061667, 0.075597, 0.081383, -0.003538, -0.061550, 0.023612, 0.025371, -0.006190, 0.027134,
    -0.063383, -0.090888, -0.047309, 0.005369, -0.047427, 0.023667, -0.052991, -0.040697, -0.060774,
    -0.028309, -0.057232, -0.017985, -0.071060, -0.018964, -0.006414, -0.043403, -0.012331, -0.037723,
    0.001849, 0.044995, -0.054787, 0.016076, 0.062406, -0.027669, 0.007529, 0.060961, 0.013965,
    0.002648, -0.011302, 0.031414, 0.035247, 0.031482, 0.060445, 0.040381, 0.096822, -0.017328,
    -0.031304, -0.039184, 0.025354, -0.087903, -0.074646, -0.062082, -0.015897, 0.001632, -0.024989,
    0.006998, -0.098444, -0.024871, 0.002595, 0.052103, 0.041577, -0.066219, -0.036829, -0.045155,
    -0.034619, -0.063632, -0.049984, -0.055692, -0.083797, -0.070441, 0.066680, 0.007775, 0.024261,
    -0.031871, 0.061139, -0.040889, 0.024816, 0.047300, -0.060842, 0.047749, 0.047559, -0.018023,
    0.036473, 0.021619, 0.006251, 0.033893, -0.002801, 0.027736, -0.052974, -0.057301, -0.031840,
    0.054995, -0.036374, -0.117280, 0.114164, -0.038407, -0.087664, -0.000449, -0.021739, -0.098761,
    0.060119, 0.087214, 0.036236, -0.004482, 0.015075, -0.007957, -0.076263, -0.084019, 0.005405,
    -0.015081, -0.079830, -0.084272, 0.016772, 0.035559, -0.023788, 0.041718, 0.029777, 0.013804,
    0.035818, -0.023939, -0.013238, 0.009232, -0.008608, 0.044463, -0.018526, 0.031375, 0.034131,
    -0.115027, -0.065631, -0.196231, 0.039378, 0.020505, -0.113185, 0.048090, -0.009133, -0.036583,
    -0.060106, -0.018314, 0.021769, -0.006291, -0.063379, -0.038443, 0.010030, 0.058842, -0.057372,
    -0.022111, -0.010339, 0.022499, -0.031707, 0.014265, 0.007708, 0.019688, 0.007329, -0.038352,
    0.033022, 0.013744, -0.089095, -0.009151, -0.006244, -0.036647, 0.004606, 0.011183, -0.082858,
    -0.070549, -0.012880, -0.012192, -0.069298, -0.027798, 0.038225, 0.044655, 0.044078, -0.003633,
    -0.092288, -0.078504, 0.010863, -0.049738, -0.007455, -0.018241, -0.091229, -0.034220, 0.018288,
    -0.003620, 0.011371, -0.073565, -0.035365, 0.036924, -0.021822, 0.046609, -0.000630, 0.013294,
    -0.062537, -0.030100, 0.006352, -0.026128, 0.019286, 0.064047, -0.029811, 0.010773, 0.038413,
    -0.016731, 0.001373, -0.044896, -0.041840, -0.013964, -0.031242, -0.023814, 0.045594, 0.016563,
    0.035931, -0.073218, -0.032798, 0.048012, -0.019293, -0.070291, -0.009989, -0.084910, -0.065592,
    0.033686, 0.019214, 0.104963, 0.003956, 0.058437, 0.008891, -0.021311, 0.046972, 0.119563,
    -0.082584, -0.088921, -0.067945, 0.067015, -0.048837, -0.061748, -0.020927, -0.074644, -0.092285,
    -0.015525, -0.075905, -0.035504, 0.084084, -0.035857, -0.017682, -0.038257, -0.055921, -0.046518,
    -0.021770, 0.057331, -0.065473, 0.000101, 0.036414, 0.005515, 0.017249, -0.038470, 0.061792,
    0.057467, 0.052244, -0.000579, -0.019712, 0.010507, 0.009337, -0.052287, 0.046720, 0.008214,
    0.029922, 0.028505, -0.088044, 0.001296, 0.077861, -0.098371, 0.043514, 0.013993, -0.037828,
    0.007306, 0.013978, -0.050420, 0.064436, -0.024570, -0.090407, -0.002445, -0.036773, -0.043447,
    0.018276, 0.058688, -0.017511, 0.017233, 0.001063, 0.018414, -0.027737, 0.046604, 0.023297,
    -0.003423, -0.024342, -0.073716, 0.021034, 0.039345, -0.075342, -0.007477, -0.026719, -0.022286,
    -0.067012, -0.070965, -0.107870, 0.063928, -0.024214, -0.091528, 0.026197, -0.064626, -0.093023,
    0.036698, 0.094032, -0.049577, -0.073239, 0.003804, -0.012990, 0.027426, 0.020705, 0.008937,
    0.088314, 0.103253, 0.027856, -0.023528, -0.028476, 0.030510, -0.052486, 0.003586, 0.007198,
    -0.044416, -0.013412, -0.089910, -0.017376, -0.007744, 0.010825, 0.044115, -0.000715, 0.052369,
    0.029074, 0.143755, 0.077636, -0.002184, 0.034495, -0.035508, -0.005528, 0.005397, -0.044803,
    0.046262, 0.110444, 0.029836, 0.009779, 0.006024, 0.007726, -0.108052, 0.092170, -0.013807,
    0.071117, 0.088173, -0.033052, 0.010169, 0.043967, 0.007677, 0.022944, 0.025776, 0.033492,
    -0.044458, -0.078897, -0.019556, 0.098233, 0.093274, -0.000674, -0.009996, -0.045307, 0.028016,
    -0.059114, -0.109725, -0.048077, -0.087527, 0.036534, -0.004265, 0.001671, -0.005026, -0.089250,
    0.084607, 0.050429, -0.041400, 0.012472, -0.072660, -0.039353, -0.069583, -0.048257, -0.070867,
    0.073022, -0.040085, 0.059985, -0.052169, -0.128568, 0.110939, -0.042599, -0.160016, -0.089154,
    -0.016643, -0.014124, -0.010332, -0.013036, -0.022682, -0.079244, -0.088429, -0.033948, -0.120551,
    -0.001266, -0.013640, 0.023170, -0.104793, 0.009200, -0.080752, -0.060180, 0.009420, 0.012228,
    0.111072, 0.080741, -0.011859, -0.118505, -0.140948, -0.002200, -0.108788, -0.115511, -0.025646,
    -0.067086, -0.009559, -0.021653, -0.019427, -0.125148, -0.010497, -0.062580, -0.123758, -0.174078,
    -0.080291, -0.091541, -0.010214, -0.080104, 0.015342, -0.059499, -0.176904, -0.104865, -0.115943,
    0.003216, -0.000615, -0.017542, -0.084115, -0.043336, 0.043504, -0.188930, -0.164976, -0.196978,
    0.007784, 0.065785, -0.008840, -0.005954, 0.025655, 0.027759, 0.000282, 0.018716, -0.005225,
    -0.039080, -0.017535, 0.029947, -0.048030, -0.033977, 0.056636, -0.005805, -0.011074, -0.082313,
    0.039693, 0.081737, 0.110241, 0.044267, -0.060651, 0.151770, 0.105060, 0.067310, -0.028238,
    0.084072, 0.079342, 0.027496, 0.062136, 0.060926, 0.062746, 0.076604, 0.078653, 0.110837,
    0.117763, 0.075442, 0.082216, -0.034448, 0.018365, 0.004366, 0.086654, 0.107682, 0.081626,
    0.094988, 0.107121, -0.003827, -0.009371, 0.131731, 0.082982, -0.030895, -0.045756, -0.011089,
    0.012204, 0.014764, 0.020995, 0.030340, 0.114115, 0.025842, -0.029544, 0.030278, 0.016324,
    -0.034387, -0.032941, 0.004104, -0.040124, 0.000259, -0.012013, -0.069570, -0.131774, -0.120555,
    0.034888, -0.017824, -0.108135, -0.031552, 0.012123, -0.019417, -0.179609, -0.105606, 0.010664,
    -0.012480, 0.066408, -0.011567, 0.015475, -0.176288, -0.000543, 0.064081, -0.076376, -0.025994,
    -0.026605, 0.001605, -0.036281, 0.047832, 0.030348, 0.128396, -0.038153, -0.134708, -0.130831,
    -0.009241, -0.047221, 0.047362, -0.035034, -0.037441, -0.020690, 0.006370, 0.076514, 0.019144,
    0.073031, 0.040440, 0.011786, 0.052163, 0.065216, 0.004684, -0.126127, -0.072132, 0.037504,
    -0.014000, -0.006428, 0.083209, 0.038070, -0.027012, 0.044285, 0.063645, 0.089072, -0.018412,
    0.111717, 0.032370, 0.072914, 0.003571, -0.009638, 0.066199, -0.109036, -0.198721, -0.095391,
    -0.008997, 0.052298, -0.021221, 0.046221, 0.024438, -0.005326, -0.065621, -0.046300, -0.070145,
    0.012032, 0.073827, -0.028037, 0.068489, 0.016451, 0.016613, 0.049652, 0.124220, 0.100416,
    0.080303, -0.079915, -0.031532, 0.045172, 0.076478, -0.047483, -0.127538, 0.035496, -0.101300,
    0.096214, 0.005121, 0.101391, 0.045463, -0.044747, -0.034897, -0.088781, 0.042658, 0.062699,
    -0.075286, 0.001008, -0.046227, -0.028495, -0.068511, -0.029505, 0.000319, -0.003925, 0.057604,
    0.033471, 0.043016, -0.002987, 0.027002, 0.085225, 0.024779, 0.012073, 0.010284, 0.005667,
    -0.201286, -0.274120, -0.276070, -0.026776, -0.029718, 0.004594, 0.049502, 0.130990, 0.053871,
    0.074171, 0.051518, -0.012498, -0.070380, 0.034586, 0.065619, -0.052124, 0.000243, -0.034450,
    0.154299, -0.108717, -0.076493, -0.019327, -0.047341, 0.031619, 0.007366, -0.057152, 0.128300,
    0.135063, 0.031015, 0.059634, 0.002121, 0.014888, 0.029267, 0.013631, 0.069212, 0.054297,
    0.026558, 0.009028, 0.062678, 0.211532, -0.064852, -0.066411, 0.073766, -0.108513, -0.207657,
    0.151501, 0.065985, 0.043501, -0.009417, -0.020461, 0.011210, -0.073884, -0.002196, 0.014242,
    -0.076158, -0.049306, -0.160858, 0.105580, 0.006505, 0.022072, -0.517961, -0.365997, -0.143510,
    -0.040173, -0.069800, -0.120602, -0.002740, 0.055881, -0.014312, -0.044178, -0.015926, -0.057511,
    0.127308, 0.051624, -0.006129, 0.030600, 0.001818, 0.038942, -0.001856, -0.024032, -0.167528,
    0.046964, -0.024770, -0.106504, -0.078475, 0.001183, -0.047565, -0.184579, 0.024663, -0.133839,
    -0.071791, -0.143661, -0.000560, 0.031363, 0.058928, 0.029101, -0.027928, 0.054009, -0.067621,
    -0.190816, -0.138957, -0.071663, 0.162359, 0.084291, 0.015475, 0.047935, -0.042579, -0.052795,
    0.088611, 0.024893, 0.022972, -0.063045, -0.048647, -0.013921, 0.115265, 0.088980, 0.050555,
    -0.107675, -0.013456, -0.121147, -0.107498, -0.110040, -0.162310, -0.045483, -0.064532, -0.059926,
    -0.106310, -0.087311, 0.019897, 0.038001, 0.118204, 0.041311, 0.021365, -0.059558, 0.030656,
    -0.005192, -0.133341, -0.035697, 0.082549, -0.004782, 0.080642, -0.044966, -0.042298, 0.017652,
    0.123847, 0.120621, 0.048293, -0.007728, 0.055465, -0.022305, 0.079329, -0.015297, -0.002766,
    -0.122008, 0.035533, 0.020769, 0.000903, 0.073751, -0.002905, 0.214736, 0.143664, 0.229820,
    0.068100, 0.115145, 0.080449, 0.029483, -0.088457, 0.021733, 0.034650, -0.045177, -0.060476,
    0.136499, 0.146268, 0.091141, -0.036573, -0.095932, -0.070617, -0.029036, -0.126580, -0.010557,
    0.097804, 0.071351, -0.031968, -0.140800, -0.015424, 0.062901, 0.016631, 0.113606, -0.048009,
    -0.051863, -0.043565, 0.018192, 0.087437, 0.034229, -0.045184, 0.044530, -0.022242, -0.083258,
    -0.036389, -0.042328, 0.106021, 0.220504, 0.042424, 0.069137, -0.251416, -0.243739, -0.091182,
    -0.091483, -0.193898, 0.019981, 0.068292, -0.012679, -0.022879, -0.138693, -0.156136, 0.038504,
    -0.058470, 0.025692, -0.042220, 0.004801, -0.011455, 0.036825, 0.042573, 0.058772, 0.088132,
    -0.084576, -0.008879, -0.051758, 0.084109, 0.036631, 0.049672, 0.065475, 0.052399, 0.110016,
    0.132855, 0.024484, 0.066413, -0.014408, -0.001826, 0.068214, 0.025179, 0.021476, -0.086882,
    -0.045801, -0.020504, -0.171762, -0.039015, -0.043208, -0.011326, -0.056296, -0.045568, -0.119290,
    0.019118, -0.191179, 0.121242, 0.201892, 0.033720, -0.105215, -0.015181, -0.114165, -0.089410,
    0.090997, 0.010008, 0.033299, -0.031613, 0.107716, 0.034107, -0.216667, -0.051028, -0.082104,
    -0.145940, 0.123863, -0.081259, -0.023501, -0.090621, -0.140343, -0.135826, -0.117461, -0.199428,
    -0.025564, -0.020641, -0.017286, 0.150609, 0.017283, 0.010662, -0.188010, -0.176948, -0.166098,
    -0.096398, 0.000737, 0.020141, -0.026813, -0.063651, 0.007476, 0.116563, 0.101832, -0.012392,
    -0.073880, -0.222767, -0.183539, 0.086767, -0.069181, -0.014947, 0.004084, -0.027362, -0.022796,
    0.027351, 0.042996, 0.048345, 0.019425, -0.019889, 0.057636, 0.084096, 0.139942, 0.114837,
    0.132039, 0.027647, 0.089299, 0.059422, 0.168195, -0.001355, 0.134025, 0.076465, 0.023825,
    -0.097347, -0.074531, -0.030723, -0.054619, -0.144862, -0.183346, 0.031067, -0.026967, -0.108699,
    -0.077228, -0.078895, -0.192712, -0.095291, -0.101580, -0.024800, -0.006097, -0.172788, -0.008839,
    -0.102638, 0.023047, -0.063265, -0.054497, -0.073437, -0.028234, 0.147440, 0.063823, 0.054152,
    0.029173, -0.103976, -0.070548, 0.022619, 0.032870, -0.010203, 0.129880, -0.027563, 0.036582,
    -0.060594, -0.033534, -0.125836, -0.051713, -0.156356, -0.046210, 0.018905, -0.063207, -0.025219,
    -0.017240, -0.086527, -0.042409, 0.043021, -0.140564, -0.034475, -0.025645, -0.163907, 0.015520,
    -0.020702, -0.078997, -0.138692, -0.018922, 0.021234, -0.000394, 0.063664, -0.063811, -0.151927,
    0.083905, 0.090328, 0.018373, -0.095354, 0.040658, 0.022694, 0.005440, 0.030628, -0.010796,
    -0.046737, -0.029717, -0.004218, -0.239341, -0.082892, -0.034369, -0.268105, -0.197048, -0.094513,
    -0.036391, -0.057498, -0.091352, -0.066180, 0.100277, -0.068563, -0.060154, -0.017480, -0.047480,
    0.012258, -0.015425, 0.037566, 0.022190, -0.044361, -0.051111, 0.032644, -0.064707, -0.004220,
    0.014865, 0.045814, 0.140499, -0.002803, -0.073179, 0.012205, 0.037443, 0.001510, 0.008704,
    0.150446, 0.141018, 0.165446, 0.077647, 0.092720, 0.074766, 0.154319, 0.090881, 0.054279,
    0.062211, 0.059472, 0.023234, -0.018606, -0.025102, 0.062098, -0.049280, 0.035841, 0.081855,
    -0.002182, -0.050270, -0.096649, 0.101949, -0.026505, 0.045157, 0.038259, 0.005091, -0.011519,
    0.056212, 0.008562, 0.016951, 0.103142, -0.123045, 0.070952, 0.004645, -0.095119, -0.010636,
    0.011998, -0.002863, 0.008811, 0.058014, 0.065612, 0.022722, 0.060308, 0.073810, 0.027825,
    0.041442, -0.110235, -0.034075, 0.033381, -0.134551, -0.144190, -0.129747, -0.156529, -0.149692,
    -0.077428, -0.069462, -0.065117, -0.146236, -0.101539, -0.090134, -0.122195, -0.148446, -0.111218,
    0.001032, -0.054352, 0.025119, -0.108546, -0.218199, -0.078021, 0.070105, -0.075280, 0.034264,
    0.079912, 0.162428, 0.084020, -0.011513, 0.165444, 0.103765, 0.104230, 0.155255, 0.117455,
    -0.049304, -0.015546, -0.103084, -0.017670, -0.027678, 0.030091, -0.009782, -0.033786, 0.007552,
    -0.050709, -0.086189, -0.052623, 0.090992, 0.027761, 0.034475, 0.074814, 0.004109, -0.033218,
    -0.089814, -0.010462, 0.058865, -0.191297, -0.092002, 0.054157, -0.192839, -0.027612, -0.004226,
    0.105753, 0.119773, 0.097004, 0.032976, 0.027032, 0.116724, 0.123180, 0.068713, 0.043173,
    -0.035327, 0.133653, 0.021468, 0.105499, -0.090753, 0.066891, 0.037596, 0.055131, 0.048444,
    -0.097951, -0.027339, -0.036080, -0.016959, 0.070572, 0.001071, -0.022066, 0.072481, 0.089669,
    -0.062937, -0.061692, -0.026968, -0.003207, -0.072727, -0.001764, -0.189030, -0.031815, -0.134157,
    -0.116433, -0.084511, 0.084786, 0.036369, 0.030090, 0.042996, 0.026449, -0.056054, 0.050251,
    -0.122996, -0.116639, -0.032339, -0.007999, 0.041854, -0.011312, -0.022562, 0.059485, -0.008394,
    0.067742, 0.124770, 0.090368, -0.062623, -0.061870, -0.006987, 0.044977, -0.040691, -0.105417,
    -0.072937, 0.020500, 0.080953, -0.009301, -0.026675, 0.007827, -0.108140, -0.017831, 0.077516,
    0.190433, 0.168322, 0.106740, 0.077364, 0.021381, 0.014517, -0.090019, -0.304956, -0.344166,
    -0.009740, -0.060356, -0.058013, 0.066452, 0.043167, 0.012065, 0.008110, 0.093728, 0.003219,
    0.104668, 0.147332, 0.103460, 0.044214, 0.115691, 0.002165, -0.042934, -0.125534, 0.000549,
    0.010253, 0.005799, -0.082105, -0.069127, 0.010171, -0.069456, -0.023933, 0.027300, 0.005496,
    -0.106577, -0.145398, -0.067764, -0.050351, -0.103691, -0.071119, -0.145129, -0.107289, -0.011017,
    -0.001408, 0.053975, 0.086668, 0.014703, -0.060767, 0.021090, -0.040525, -0.076655, -0.149175,
    -0.085943, -0.127288, -0.067859, -0.022771, -0.039611, 0.102011, -0.012284, -0.021165, 0.035233,
    0.066150, -0.052813, 0.011322, 0.015491, 0.006428, -0.001102, 0.043199, 0.055083, 0.046716,
    -0.256619, -0.229813, -0.142358, 0.029200, 0.062659, 0.030262, 0.055856, 0.165656, 0.103411,
    -0.017525, -0.056140, -0.091632, -0.013711, -0.027518, -0.028485, 0.025712, 0.013815, -0.029314,
    -0.094646, -0.058024, -0.028118, 0.040126, 0.010591, -0.039328, -0.092753, -0.046472, -0.069028,
    0.013036, 0.085658, 0.203559, 0.003832, 0.064391, 0.022061, -0.118432, -0.074189, -0.087535,
    0.098495, 0.118772, -0.017802, 0.058447, 0.074429, 0.023047, 0.038097, -0.006787, -0.099427,
    0.004565, 0.060428, 0.004349, 0.042409, 0.029199, 0.086844, 0.008042, -0.049321, -0.014792,
    -0.083020, -0.202697, -0.170956, 0.072621, 0.110680, 0.071291, -0.086733, 0.106821, 0.091883,
    -0.083388, -0.024152, -0.001654, -0.024771, 0.007896, -0.022481, 0.083129, 0.034401, 0.136532,
    0.079479, 0.046382, 0.058996, 0.009222, -0.063867, 0.065879, 0.071602, -0.032127, -0.159429,
    -0.019226, 0.085113, 0.074741, 0.108691, 0.030611, 0.067381, 0.000518, -0.045254, -0.115129,
    -0.124740, -0.055586, 0.019571, 0.014425, 0.006836, 0.051225, 0.123072, -0.063057, -0.192063,
    -0.094748, -0.079523, -0.053295, 0.002407, -0.036824, 0.000499, 0.063511, -0.123973, -0.060485,
    -0.126113, -0.008371, -0.058845, -0.040843, 0.085891, -0.001145, 0.036036, 0.007713, -0.031825,
    -0.088173, -0.100152, 0.030780, 0.001984, -0.026259, 0.026638, 0.026221, -0.060285, -0.024580,
    -0.137955, -0.120606, -0.070191, -0.099224, 0.007690, -0.017044, -0.105664, 0.070664, 0.001654,
    -0.038545, 0.048243, 0.078087, -0.058097, 0.013631, 0.008302, -0.088300, -0.102742, -0.121528,
    -0.051487, 0.042198, 0.002546, -0.027615, -0.001375, 0.019484, 0.032302, -0.189260, -0.293640,
    -0.079472, -0.085552, -0.184832, -0.120830, -0.124292, -0.102571, -0.101070, -0.122576, -0.098442,
    0.063209, 0.012567, 0.064204, 0.024758, 0.083929, 0.029409, -0.031482, -0.067142, -0.102257,
    -0.008377, -0.047784, 0.026937, 0.000592, 0.091211, 0.005335, -0.050295, 0.029884, 0.010640,
    -0.147533, -0.165428, -0.098759, -0.024069, 0.117597, 0.056902, -0.031217, -0.063838, -0.000425,
    -0.127175, 0.030682, -0.066695, -0.112830, 0.007233, 0.082255, -0.083609, 0.010711, -0.021083,
    -0.029259, 0.012328, -0.013418, -0.048216, 0.007717, -0.005321, -0.220270, -0.149762, -0.000763,
    0.083410, 0.051216, 0.128520, -0.019615, -0.020898, 0.108542, -0.091108, -0.051179, -0.002596,
    -0.005876, 0.092316, 0.005320, -0.020013, 0.059463, 0.019465, -0.008871, -0.028119, -0.045872,
    0.059473, -0.031648, 0.069436, -0.017456, -0.145222, 0.099412, -0.021849, -0.020161, 0.023834,
    -0.044917, 0.136760, 0.016046, -0.021226, -0.070260, -0.176627, -0.008656, -0.077522, 0.191202,
    -0.011553, 0.090866, 0.082055, -0.049650, 0.000248, -0.024876, -0.043335, -0.077343, -0.057994,
    0.034561, -0.095299, 0.061574, -0.028147, -0.021567, -0.134330, 0.028993, 0.159025, -0.001475,
    0.011178, 0.027124, 0.037067, -0.051131, -0.012291, 0.090627, -0.087587, -0.134817, -0.056565,
    0.083501, 0.015170, 0.042986, 0.109479, 0.103683, 0.067039, -0.007172, 0.143298, 0.075728,
    0.052233, 0.027266, -0.034430, 0.039162, 0.027523, -0.054930, 0.007509, 0.179234, -0.005479,
    0.047665, 0.086826, -0.019969, 0.078316, 0.087427, 0.054559, 0.106933, -0.099423, -0.079367,
    0.011989, -0.064975, 0.058192, -0.029178, 0.062403, 0.014999, -0.021130, -0.217285, 0.012876,
    0.122568, -0.062307, -0.063558, -0.044360, 0.044393, -0.023642, -0.055175, 0.038667, -0.074625,
    -0.265829, -0.122155, -0.108939, -0.038978, -0.134509, -0.101460, -0.044004, 0.095203, -0.080711,
    -0.015607, 0.044473, 0.055503, -0.133903, -0.116793, -0.036296, 0.015251, -0.083192, 0.041787,
    0.088730, 0.062317, 0.093989, 0.076557, -0.028936, -0.036649, 0.022673, -0.064761, -0.053173,
    0.162342, 0.186192, 0.165616, -0.098709, -0.037987, -0.027492, -0.084687, -0.108636, -0.101825,
    0.018626, -0.033275, 0.080241, 0.079818, -0.095611, 0.006285, -0.044910, -0.023870, -0.183853,
    -0.015183, -0.071911, -0.148894, -0.133397, -0.156326, 0.099900, -0.050871, -0.021736, -0.149653,
    -0.106060, -0.003800, -0.080572, -0.024545, -0.084465, 0.002566, 0.007854, 0.125827, 0.080032,
    0.149931, 0.111281, 0.053672, -0.036466, 0.088562, 0.048079, -0.060822, -0.027461, -0.169705,
    0.039977, -0.020031, 0.064491, 0.091632, 0.054977, -0.062772, -0.117096, -0.022484, -0.014654,
    0.065314, -0.101630, 0.026148, -0.093596, 0.149924, 0.107214, -0.027565, 0.195241, 0.175116,
    0.018737, -0.126746, -0.119853, -0.125807, -0.196899, -0.035471, -0.053699, 0.051404, 0.072577,
    0.081984, 0.098751, 0.161661, -0.045428, -0.033555, 0.002202, -0.028800, 0.013400, -0.050918,
    0.179948, 0.079624, 0.051449, 0.154182, 0.077580, 0.171642, -0.023913, 0.027305, 0.025847,
    -0.185148, 0.105433, -0.006178, -0.012557, 0.140273, 0.046024, 0.073050, -0.055696, 0.054392,
    -0.001308, 0.007515, 0.100390, -0.091448, -0.062635, 0.054709, -0.023819, 0.051587, 0.150763,
    -0.160164, 0.072863, -0.096065, -0.082743, -0.102788, -0.114547, 0.074684, 0.074058, 0.035361,
    -0.014714, -0.060470, -0.274229, -0.102444, 0.066841, -0.013734, 0.043518, 0.150718, 0.053345,
    0.031017, 0.055453, 0.052064, -0.074566, -0.021131, -0.128858, 0.043443, 0.028966, 0.069258,
    -0.026302, -0.021329, -0.106664, -0.145612, -0.012714, -0.128578, -0.236044, -0.177787, -0.214345,
    0.043898, 0.058128, 0.071423, 0.092376, -0.005914, -0.007539, 0.033045, 0.053382, -0.058945,
    -0.004033, 0.039771, 0.073343, -0.007744, 0.062081, -0.021494, 0.038997, -0.053924, -0.124231,
    -0.004765, 0.049727, 0.018260, 0.011467, 0.019576, -0.004732, -0.072172, 0.033459, 0.035083,
    0.018775, -0.031555, -0.000885, -0.001279, 0.020046, 0.059363, -0.132122, 0.022025, 0.011191,
    -0.035224, 0.091271, 0.007518, -0.060368, 0.078381, 0.007815, 0.026761, 0.020507, -0.077938,
    0.052400, 0.036334, 0.125455, 0.045229, -0.032542, -0.045755, 0.141603, -0.002310, -0.006248,
    0.058207, 0.064200, -0.013709, 0.000851, 0.036036, 0.024944, -0.239268, -0.064619, 0.030365,
    0.023508, 0.070606, -0.006431, 0.056320, 0.054543, -0.003343, 0.029088, -0.002863, -0.006939,
    0.038903, 0.007346, -0.004213, -0.095663, 0.019800, -0.052777, -0.079125, 0.025179, -0.040270,
    0.047420, -0.034933, 0.087607, -0.019478, 0.060991, -0.009504, 0.032505, -0.024737, 0.116771,
    -0.028125, 0.086117, 0.064924, 0.186726, 0.050575, 0.010123, -0.000507, -0.035936, 0.080540,
    -0.089628, 0.010192, 0.062273, -0.051002, -0.050769, -0.117159, 0.056029, -0.028259, -0.083463,
    0.030252, -0.105742, -0.088632, -0.105680, -0.016098, 0.067139, -0.078604, 0.098401, 0.133430,
    0.078274, 0.090798, -0.039857, 0.068191, -0.005052, 0.005420, 0.076699, 0.007115, 0.003770,
    -0.093186, -0.078155, -0.121393, -0.007906, 0.021958, -0.157994, -0.015902, 0.040636, -0.069714,
    -0.009469, 0.044005, 0.074040, 0.078297, 0.078953, 0.064497, -0.064216, -0.006707, -0.028344,
    -0.143620, -0.016562, 0.069510, -0.073701, -0.022402, 0.028980, 0.030110, 0.041687, 0.023764,
    0.022199, 0.028723, -0.019097, -0.088886, -0.002968, -0.043072, -0.059416, -0.073080, -0.003503,
    -0.049120, -0.060736, 0.027623, 0.031335, -0.009607, 0.022170, -0.071622, -0.093373, 0.075384,
    0.133551, 0.024831, -0.115139, 0.070071, 0.083058, 0.085212, 0.034189, 0.025507, -0.034590,
    -0.034765, 0.028821, -0.128964, 0.036309, -0.053438, -0.128187, -0.051991, 0.029965, -0.020842,
    0.097144, 0.072973, 0.012846, 0.016804, -0.028942, -0.003158, 0.044419, 0.016371, -0.047303,
    0.256852, -0.118350, -0.033085, 0.077560, -0.067337, 0.155464, -0.009557, -0.059790, 0.052875,
    0.022881, 0.035192, 0.040790, -0.052549, 0.101472, 0.091684, 0.106013, 0.046465, 0.059196,
    0.066076, -0.004546, 0.004894, 0.074935, 0.033771, 0.073106, -0.014650, -0.025924, 0.022001,
    -0.082442, -0.115763, -0.061800, -0.052793, 0.036304, 0.062095, 0.013578, 0.003164, -0.068078,
    -0.007167, 0.029755, 0.005336, 0.043604, -0.032134, -0.017465, -0.025632, 0.089655, 0.053721,
    0.010913, 0.022688, -0.065813, 0.001120, -0.065462, -0.027467, -0.067394, -0.067011, -0.032964,
    0.027263, -0.088096, -0.036409, -0.155751, 0.174739, 0.025462, -0.121986, -0.026644, -0.000762,
    -0.073788, -0.029595, -0.045239, -0.059890, 0.016322, 0.061518, 0.036216, 0.111293, 0.062384,
    -0.078031, -0.156228, -0.208618, 0.071422, -0.066418, -0.128469, 0.024194, 0.026457, 0.040824,
    -0.019559, -0.112467, -0.049002, -0.089761, -0.044796, -0.062793, -0.079069, -0.024702, -0.069733,
    -0.015354, 0.030387, 0.086337, 0.026718, -0.032591, -0.013581, -0.033166, 0.057777, 0.016862,
    0.088171, 0.106290, 0.126825, 0.139801, 0.084127, 0.125450, 0.151726, 0.207687, 0.058497,
    0.006204, 0.006595, 0.038419, -0.026437, -0.029704, -0.034261, 0.016909, 0.037745, -0.006203,
    -0.022095, 0.046961, 0.031615, -0.003376, 0.052914, -0.055167, -0.068861, 0.024190, -0.013937,
    -0.028132, 0.007490, -0.003027, 0.026015, 0.001934, -0.034687, -0.029318, -0.025304, -0.068032,
    0.013510, 0.009328, -0.039954, -0.178171, -0.051571, -0.115139, 0.033807, 0.062162, -0.017687,
    0.055209, -0.080180, -0.050182, -0.083875, -0.054145, -0.028932, -0.031187, -0.038703, -0.071947,
    0.019930, 0.019736, 0.006981, -0.020574, -0.011247, -0.048940, -0.011760, -0.000834, -0.002729,
    0.072016, 0.063057, 0.018342, 0.032694, 0.033588, -0.051847, -0.008158, -0.008525, -0.043621,
    -0.016499, -0.123037, -0.067231, -0.077051, -0.076605, -0.064759, -0.114661, -0.063806, -0.065004,
    0.051873, 0.064435, 0.008477, 0.026064, 0.055201, -0.019343, -0.018639, 0.093817, -0.010971,
