#if 1
static short para_similarity_conv3x3_pre1_weight[72] = { 
402, 17957, 7795, 1447, -10781, -4150, 2514, -12695,
-258, 4187, 10795, 9406, -161, -4382, -5610, 2247,
-13860, 292, -2304, -3566, 2757, 1029, 4945, -1598,
-22314, 1113, 6023, -2110, -1413, 2676, 1026, 1535,
461, -21237, 2115, 4810, -4145, 8878, -3972, 9834,
32759, -6054, -9132, -5262, -1002, 3094, -10586, 6514,
-14807, -31806, 7872, 7252, 916, -535, 1951, -23082,
217, 2285, -28089, -4672, 486, 10623, 963, -1166,
12179, 8063, -1917, 17610, 3973, -3485, -3907, -5139,
};

static short para_similarity_conv3x3_pre1_bias[4] = { 
-6097, 32760, 19467, 29208,
};

static short para_similarity_conv3x3_pre2_weight[144] = { 
-1699, 21952, 15986, 11899, 8243, 11953, 9492, 15517,
27778, 4509, -3273, 7268, -7016, -7973, 4198, -1819,
-25731, -7313, 1551, 3107, 6361, 2011, 4228, -5593,
-987, -839, 7507, -316, 4436, 2130, 2951, -3251,
-4388, -6047, 7881, 5282, -62, 3738, -5952, 1342,
1665, -2071, -16, -1843, -2640, 460, -11396, -12529,
65, -2894, -1561, -614, 4328, -3053, -6389, 8125,
3732, 932, 6520, 16502, -7344, 17558, 4896, 4910,
9294, 7551, 6259, 2836, -12499, 15899, 3920, -7750,
-8760, 330, -482, -12961, -16844, 9530, -21655, 417,
5581, 5433, 26986, 26370, -6606, 27283, 32760, 2086,
-6277, -10422, 1388, 1084, -1956, -153, -220, 1257,
214, -2386, -1383, -538, -2587, -2263, 2759, 427,
963, -2965, 543, -1575, -456, -3006, -5771, -111,
-2478, 2012, -7036, -1620, -4413, -3188, -5106, -8873,
511, 2409, -3981, -4212, -1287, 5001, 2452, 4228,
13168, 9113, 9700, -28484, 8469, -2934, 15399, -2340,
-4083, -10147, -6472, 9427, 2383, -5335, 18161, 15422,
};

static short para_similarity_conv3x3_pre2_bias[4] = { 
-32760, -2299, 10199, 9760,
};

static short para_similarity_conv3x3_ds1_weight[288] = { 
4275, -1849, -3470, 202, -1723, -1833, -2652, -1465,
962, 2360, 7737, 2873, 5064, 10759, 5615, 3654,
6636, 6553, -3560, 248, -745, -2256, 1100, -1993,
-4810, -2555, -6225, -2537, 1439, 244, -882, 3579,
-114, -170, -1981, -380, 11623, -3934, -5530, 17530,
-1566, -11581, 10465, 2165, -9149, -211, 2658, 2149,
4481, 4224, -1181, -911, -2315, 635, -4616, 13717,
5704, 456, 8384, 3125, -10864, -10437, 241, 1043,
2783, -788, 472, 2585, -283, -807, -2834, 387,
891, 379, -3037, 1367, -1516, -1130, 1071, -2116,
-790, -577, -4297, -2082, 1387, -351, -1113, 2067,
-1681, -1516, -269, 423, -3926, -3921, -1859, -4059,
-4769, -1608, 1455, 9104, 2794, 448, 10034, 6596,
3715, 4887, 4785, 4706, -4986, -3856, 2769, 13922,
7029, 8641, -5357, -5400, -10593, 4346, -3932, 3461,
-3591, 2462, 1934, -237, 8518, 666, 4976, 3502,
3886, 5009, -2137, 6757, 5043, -1166, 11171, 2562,
3380, 2490, -2897, -6032, 6408, -263, 1757, 2075,
-1598, 4110, 3125, 1527, 5599, 4105, 324, 2919,
3304, 3065, 438, 2896, 1421, 3907, 6212, 942,
2263, 3714, -762, 833, 723, 4019, -16, -2908,
3172, 224, -3716, 2008, 3492, 4944, 1548, 5213,
6327, 1790, 6142, 3307, 2767, -413, -4375, 1242,
-1677, -1209, -1531, -1467, 2255, -3065, -3093, -4598,
-4460, -9761, -8371, -2722, -6017, -5436, -4566, 831,
-4215, -4729, 382, -6137, -4025, -1239, -6264, -3264,
-5996, -5423, -1571, -8581, -9057, -2897, -5649, -4834,
-5142, -7053, -1048, -7870, -8922, 806, -7668, -3958,
2698, -2337, 2175, 1558, -1632, 958, 489, -1448,
-775, -442, 1413, -953, -5519, -2142, -1831, -2546,
-3957, -929, -1507, -4499, 1313, 1987, -1754, 511,
1259, -691, 3329, -521, -17055, -1886, 14932, -17186,
-10064, 11118, -4357, -3489, 7881, -800, -3945, -5008,
-837, 186, -4046, 2434, 6057, -142, -11339, -17310,
-32759, -3267, 12712, -5635, -3643, 21307, 22781, -592,
-2485, -3044, 3386, 1880, -4739, 1099, 2052, -159,
};

static short para_similarity_conv3x3_ds1_bias[8] = { 
6991, -5985, 3655, -15476, -7230, 32757, 11080, 5746,
};

static short para_similarity_conv3x3_ds2_weight[1152] = { 
-2295, 2731, 3069, 1787, 7782, 5805, -1195, 868,
-1881, 2708, -1070, -10580, 4000, -3679, -12309, 6030,
-48, -7677, -1895, 5307, 4844, 583, 7969, 6178,
285, 2092, 2131, 53, 1625, -2, -2340, 2286,
2790, -5701, -6188, -3006, -6848, -8242, -4344, -3671,
-4749, -5364, -409, -2192, -623, -347, 2769, 1379,
2878, 992, 203, 4057, 3227, 3189, 1491, 5478,
-854, 4071, 4788, -4466, 3426, 6234, 287, 4020,
16681, 12824, 5235, 18597, 14179, -1515, 5793, 6637,
8098, 4649, -1314, 6341, 1062, -3631, 7686, 4938,
-6121, 3428, 1967, -1468, 3116, 4898, 8997, -6249,
6447, 5916, 1380, 3067, 1669, 3077, 1466, -834,
1107, 3134, -3850, 438, -7454, 1070, -6420, 74,
11155, 3170, 12760, 14890, 13801, -322, -13148, 15407,
-6505, -25124, 13098, -2940, -21422, 13945, -1812, -174,
14571, -2273, -12389, 14093, 1889, -17332, -21820, -2400,
15828, -19446, 1127, 16576, -13902, -1564, 7159, -1667,
-3511, -266, -10575, -1858, -596, -9792, 3203, 286,
-2688, -1961, -197, -3039, -5437, -4721, 2069, 616,
1440, 3121, 3756, 148, -142, 10595, 4738, 1710,
9045, 9362, -425, -2011, 554, -2124, -5635, -6015,
180, -2891, 578, -787, -2008, -5669, -6279, -12711,
-15586, -846, -3194, -11034, -4129, -2404, -1654, -1465,
5868, 7610, 492, 7076, 9912, -5517, -2303, 327,
-1047, -4921, -2743, -3795, 3240, 7218, 3008, 5082,
-4440, -760, -2038, -3966, -6075, -9290, -6170, 3654,
9248, 8819, 4465, 7348, 4401, 164, -7609, -3890,
-134, -4007, -782, -1345, 737, 791, 1002, -1311,
2743, -164, 1605, 2659, 492, -2136, -3133, 2614,
-4582, -2908, -1572, -6838, -252, -2414, -6867, -846,
-1334, -3703, 2601, -336, -429, 1292, -3807, 4431,
1031, -3867, 8038, 7144, 20, -4810, -2996, -309,
-2763, -2887, 3105, -486, 2705, -3986, -1837, -5126,
-1595, 281, -1156, -860, 4935, 3000, -1584, -7808,
-5478, -5783, -19050, -13469, -2985, -12675, -5936, 2294,
952, -881, 6368, 6825, 4943, 7014, 7059, 1585,
226, -7634, -8014, 1119, -3400, -5939, 2438, 1309,
419, -3166, 1208, 5383, -4130, -943, 5337, -817,
6699, 7342, 1733, -7810, -9915, 889, -6181, -7070,
1476, -2418, -1169, 231, -5095, -5790, -2012, -4747,
-8085, 6553, 5905, -2534, 1731, -3706, -1639, -596,
-4528, -3281, -91, -270, 1195, 1791, 4627, 8826,
-47, 5943, 7183, -1316, 1834, 4317, -305, -1056,
381, -5605, -2736, -3390, -1625, 3846, 4515, 4088,
1072, -768, -1380, -2314, -358, 443, 580, 3314,
3597, 6472, 5775, 7269, 3415, -13043, 398, 146,
-10918, 4498, 6171, -1241, 2880, 5447, 4742, 7097,
6531, 1596, 61, 1170, -222, 2491, 1424, -8310,
3281, 4424, -7677, 2619, -4837, -4879, -7521, -891,
599, -11494, -1467, 2450, 3882, 4301, 3284, 2317,
1022, -8031, -6338, -1680, -309, -6652, -4882, -1345,
-8574, 2469, 17918, -9727, -4428, 15274, 3544, 2932,
-8098, 1942, -48, -2131, 7222, -3096, -6497, 3352,
6620, 3054, 3110, 594, 50, 459, -1727, -1058,
2085, -6443, -16281, 9511, 5907, -585, 8464, 9107,
1496, -3350, -9246, -8468, 2108, -1390, -11677, -1106,
6592, -2549, 1617, -2958, -6793, 4563, -367, -5680,
7712, -712, -4515, -2473, -2851, -14425, -4202, 5063,
4879, 5820, -7523, 412, -1142, -5181, -13955, 5755,
2057, -9189, 9199, 3651, -2730, -3456, 3108, 9641,
-5899, 741, 50, -12754, -8852, 3116, -1693, -7325,
-10257, 4908, 1648, -15175, 4173, 13101, -9964, 229,
-6899, -8226, 1145, -6102, -3039, 6732, 3651, -2050,
-93, -1009, -8637, -1664, 30620, 10062, -4456, 1221,
-9388, -516, 1717, -927, 3912, 3766, 2336, 3853,
5817, 3036, -6904, -1997, -6284, -6800, 18555, 4059,
-7685, -742, -5631, -1395, -4953, 2995, 2467, -4911,
3886, 418, -1564, -6280, -3891, -5717, -4928, -4291,
13968, 4656, -5779, -2577, -746, 6046, 6067, 13223,
4900, -32760, -2535, 7173, -1361, 11295, -552, -285,
-2582, 2466, 3490, -2186, 702, 668, 14, 319,
1153, 505, -3726, 3478, 356, -2830, 916, 1229,
-550, -3019, -2140, -964, -5575, -4296, -5768, -5915,
-3775, -2917, -1400, 907, -1603, -1466, -2550, -2253,
-638, -1853, -291, -1114, 253, 253, -3872, -2739,
-3836, -2509, -1725, -5026, -4807, -7647, -8147, -16482,
-6754, -3178, -11385, -7094, -3529, -2170, -3478, -4771,
-1445, 344, -5817, -3557, -451, -3077, -1246, -3595,
-397, 1105, -2304, 3118, 8349, 1371, -3139, -1539,
-2264, -3369, -5939, -3465, -5003, -8575, -6173, -380,
-3591, -2116, 1252, -4860, -5677, -3432, -6870, -5780,
-3641, -4977, -3862, -10743, -8416, 3466, -4796, -1256,
1570, -4228, -3850, -781, -10016, -8836, -10974, -5973,
-9941, -12522, 8310, 6029, -2253, 11089, 5388, -1000,
6001, -2995, -7675, 2144, 1581, -3977, 430, -3631,
-10033, -28, 1376, 1733, 2931, 1549, -4850, 871,
622, -4212, 1033, -3871, -3277, -4057, 917, -2016,
-2449, 1327, -2247, 3580, 4475, -5071, -19, 4300,
-3438, -5434, -3619, -1982, -3153, -806, -4108, -4486,
-8099, -4335, -4188, -4741, -3659, -1858, -1212, -2803,
-5016, -860, 3350, 130, -14102, -1051, 6512, 2563,
-2575, 414, -6670, 787, 3703, -6171, -16542, 15343,
-445, -6203, -7681, -1958, 4150, 1845, -10485, -7809,
9486, 5319, -3223, -1031, 6802, -12166, 7956, 3823,
-6409, -2710, 2323, 2756, 4427, 2839, 14938, -3771,
2019, 8420, -15567, -12615, -2242, -2790, 4092, 14230,
-5927, -16032, 5590, 12447, -3217, 1122, -3864, 4066,
1552, 4246, -2137, 5184, 14859, 7109, -251, -3184,
-83, 5320, -1475, 678, 3942, 8987, 7412, 3049,
-6111, 6916, 10857, -7954, 607, 5106, -2964, -9457,
-801, 3037, 2450, 1401, 2413, 5851, 2641, 257,
5799, 4831, -4263, 7934, 8459, -5918, 3717, 3428,
2284, -8437, -4812, -3553, -6422, -7822, -5870, -6633,
-4477, -9491, -3508, -5633, -2679, 5283, 5483, -9251,
-3947, 4018, -1913, -8667, -2730, 7629, -9739, -6831,
12084, -524, -7825, -1758, 6183, 60, -4726, -2416,
2066, -6359, -2275, 2929, 1201, -1217, -285, 1905,
-625, -44, -2439, -4345, 546, -2570, -7528, -6513,
13980, -7952, -5524, 7444, -14197, 5155, 18422, -23648,
-1495, -193, -6933, 2800, 839, 1003, 2076, 6904,
1682, 965, -1874, -12480, 10060, -8689, -8990, 29572,
-49, -11734, 20726, -7103, 7698, 9889, -12437, -8828,
-6892, -643, 9273, -6840, 6784, -7473, -5145, -145,
-3588, 7672, -1341, -7951, 8096, -11198, 16590, 1980,
-7887, 16277, -20810, -10121, 23382, -8081, -1709, 1837,
-4329, 6642, -1492, -9729, 2685, -2182, 456, 425,
-4401, 4448, 1129, -10253, 249, 223, -7138, 1836,
-511, 6068, 6781, 2741, 8542, 4562, 675, 5423,
3227, -3187, -1439, 1662, -3298, -4606, -1020, -5408,
-8974, -2004, -1068, 4883, 6520, 488, 6834, 6170,
-62, 3992, 2032, 8032, 5500, -3140, 6388, 3817,
-6551, 7210, 7129, -1098, 115, 1068, 3246, 1911,
5576, 3008, -865, 2340, 2150, 627, -695, 2854,
-1388, -1763, 1956, 1854, -214, -1012, 1486, 415,
2129, 3242, 5523, 6219, -164, 5250, 5410, 51,
2166, 1938, 1154, 4359, 115, -371, 1455, 2087,
4679, 8775, 3818, 5261, 7856, 4807, 8022, 9547,
1217, -2908, -5103, -4026, -5484, -7840, -5876, -2200,
-5399, -1585, -1408, -3967, -1473, -6043, -18108, -7579,
-1395, -5526, -4288, 2238, -686, -8675, -7229, -15078,
-15490, -4707, -6836, -10035, -944, -4539, -4187, -23,
-6492, -7825, 1756, -1829, -1372, -734, -92, -657,
3226, 909, -1849, 4014, -702, -5172, -5487, -5009,
-3220, -7642, -7011, -3963, -5303, -5796, 802, 2686,
2617, 1368, -312, 1572, -1711, 1090, 227, -362,
-3136, -4382, 4476, -12483, -14187, -1779, -5204, 17447,
10464, -862, 1642, 423, -6432, -1918, 1596, 1504,
4367, 1145, -1445, -2256, 4424, -8851, -3279, -620,
2501, 15371, 8180, -4947, -5971, -2746, -1018, 5005,
3932, 4051, -1540, 3675, -5992, -2862, 2777, -9586,
-7422, 820, -3048, 11974, 10194, 8017, 3410, -2475,
9448, 8013, -1939, -4130, -21071, -2422, -2298, -6910,
-3556, -7211, 1571, 5765, 6712, 6118, -193, -8407,
-1860, 1711, -6058, -7182, -1233, -7551, -1494, 4432,
};

static short para_similarity_conv3x3_ds2_bias[16] = { 
-4832, -9862, 17908, 13717, 6017, -279, 7317, -9937,
32758, 16041, -6770, 5706, -1768, -27697, 12515, 3408,
};

static short para_similarity_conv1x1s1_di_1_weight[640] = { 
-6490, 1134, -3081, -5760, -10461, 6642, -12574, -3303,
12724, -650, 1860, 6626, -1627, 1539, 3523, -10392,
-2040, -1452, -54, -2617, 1487, 112, 10149, -1640,
4183, -6307, -5698, 944, -2347, 2713, -2337, 1065,
-1350, -264, -1615, 9109, -2188, -1620, -706, 239,
-3005, 680, -1723, 781, -258, -47, -1449, -68,
-1688, -536, 5000, 7054, -10522, -11908, -11738, -5121,
6382, -8493, 8050, 16024, -2294, 4846, 655, -7126,
-833, 1712, 1404, 1702, -4791, 140, 1087, 2032,
-4624, 198, -122, -317, 748, 3626, -294, 160,
-2068, 511, 626, -2481, 439, -2804, -2908, -4063,
4293, -2346, 1202, -2587, -5138, -4588, -2440, -4053,
4955, 6225, 4875, 23256, -4360, -2680, 1371, 1049,
-1546, 2818, 310, -1211, -153, 6398, 2340, 340,
-665, -317, -1819, 1970, 556, 2305, -7173, 3465,
1148, 2256, -1118, -2764, 3621, 2921, 2160, 4479,
-876, -2205, -2342, 133, -764, 787, -1557, -997,
901, 165, 1387, 268, 749, -2313, -1261, -549,
-675, 1457, 9584, -10300, 547, 2163, -5156, 3857,
-3273, 2451, 10485, 2949, 1070, -18554, 1653, 614,
1220, -593, 395, -1035, 2639, 5008, -907, -614,
1437, 3549, -717, -10032, -160, 1232, -1957, -2911,
4315, 2917, -1386, 6303, -4471, 4441, 7517, -1956,
952, -102, -2554, 343, -3528, 17889, -10097, 2388,
86, -1208, -3274, 294, -978, -4721, -2870, -1677,
-699, -696, -751, -4146, 1218, -1377, -100, -3351,
735, 2524, 1427, 2171, 1406, 4202, -2828, 5903,
-1497, 687, 1309, 2766, 4011, -2381, -4529, 1171,
1550, 3576, -1357, 4125, 275, -2237, 3138, -1270,
-753, 6836, 3190, -1089, -3728, 9213, -3188, 2041,
-1042, 2976, -4966, 2959, -4367, 3167, 327, -620,
-9968, 3044, 938, -1620, 1621, 9046, 3569, 1675,
3873, -1337, -4448, 5841, -3779, 2832, 1657, 4307,
-4508, 2882, 592, 87, -967, -998, 3826, 1771,
-37, -9, -9, -32, -128, 10, -25, 31,
-23, 13, 14, -30, -2, 38, 20, -1,
1139, 639, 749, -1087, 5482, 743, 984, -1462,
2870, -1183, 247, -463, -38, -3044, -397, 115,
-272, -1427, -5470, 971, -2627, -1824, 5770, 3108,
-1410, -761, 4657, 2637, 2225, 3119, -1697, 4747,
-84, -191, 48, -9, -204, 24, 56, 25,
145, -81, -7, -57, 57, -91, 45, -3,
670, 5981, -1201, 8264, -2128, -1484, -367, -153,
-2162, 1753, 3335, 997, -2435, -263, -1777, 175,
-5346, 1193, 8102, 1355, 1908, -549, -1443, -52,
329, -3509, -3549, -971, 1626, 1979, -2318, -944,
8713, -139, -4437, -2444, -1651, -4913, -1078, -7356,
-11458, 710, 3907, -2447, 2745, 7532, -876, -6744,
708, 1524, 239, -2278, -10745, 448, -391, -6624,
-3192, -3097, -3741, -2997, -3626, 7430, -4437, 1524,
-231, -9333, -5676, 44, 2348, 14269, 5858, 9113,
-3398, 16812, 192, 14412, 987, 4543, 11360, 7256,
-678, -344, -415, 137, 346, 55, 369, 480,
421, 162, -307, 268, -28, -387, 412, 110,
3521, 98, 4003, -8512, -3821, -801, -2209, 588,
-13317, -3083, -1053, 231, -85, -6222, 1966, -1037,
2512, 1620, -1325, 2426, -971, -268, 907, 1038,
-1479, 2267, 643, -224, 2592, 3333, -1050, 302,
1765, -3685, -2030, -2085, 145, 5373, 4863, 4925,
-765, -1742, -22482, 8731, 1177, -1253, 676, 3877,
-1069, 2159, -1831, 1026, 9917, 4018, -656, -150,
10669, 1868, 2530, 1817, 1679, -6412, -68, -595,
8744, 334, -2355, 6961, 1421, 8315, 3693, 9561,
2965, 2666, 1776, 7977, 3183, -677, 2017, 6757,
-3447, 13207, 13901, 11935, -11402, 28096, -13638, -6196,
19804, 7357, 3775, -16401, 3515, 14098, 9395, 32758,
-1415, -1550, -808, -1118, 359, 738, 39, 1114,
664, 413, -340, 1203, 1188, 38, 90, 447,
-1383, 24, 1632, -282, 2571, 8092, 5715, -6816,
46, 4545, 712, -12325, 38, -7155, -3015, -9358,
1864, -13214, -1094, 3417, 2213, -1811, -1458, 1778,
-562, 5534, -2410, -714, 559, -4768, 29288, -175,
6530, 1113, 2273, -1759, 8186, 5139, -692, 5519,
8635, -4414, -6814, 3214, 2367, -842, -4954, 4345,
1338, 562, 338, -317, 3688, 1171, -9, 98,
2600, 876, -462, -614, -428, -1699, -712, 151,
48, 185, 128, 200, -65, 139, 377, -83,
-10, 422, -259, 461, 60, 1061, -87, -83,
-2384, -4386, 619, -3381, -836, 4198, -718, 12502,
-7119, -8533, 2880, 3095, 10485, -4855, -2790, 4054,
};

static short para_similarity_conv1x1s1_di_1_bias[40] = { 
14551, 351, 294, 1718, 9805, 9447, -21864, 1453,
7422, -258, 2932, -13086, 8773, 3530, -3006, 13039,
-2326, 20257, -1017, 2302, 10114, 7753, 3662, 9372,
8435, -21540, 7531, 10822, 612, 1870, -7556, -24240,
-32759, 12031, 6826, -11143, -13854, 905, 5879, 10714,
};

static short para_similarity_convdw3x3s2_1_weight[360] = { 
88, 325, 195, -283, -600, -375, 40, 179,
147, 151, 463, 217, 238, 449, 400, 109,
209, 367, 1658, 3081, -4566, 1650, 687, -2073,
-2828, -3446, 6085, 456, 419, -52, 396, 434,
359, -94, 291, 412, 202, 936, 787, -772,
-1320, -1035, 346, 811, 486, -158, 133, 252,
-18, 798, 797, 82, 509, 393, -303, -449,
-310, -519, -915, -895, -136, -490, -382, -459,
-839, -284, -877, -1518, -1155, -625, -852, -759,
-1624, -1728, -1339, -1474, -992, 676, 1738, 1576,
626, -37, -332, -308, -190, -639, -508, -196,
-399, -393, -814, -1416, -829, -914, -903, -191,
-83, 474, 789, -204, -249, -120, -488, -494,
-237, -169, -272, -141, -11, 260, 165, 25,
1130, 1376, -240, 635, 969, 190, 634, 657,
925, 1218, 951, 342, 695, 484, 253, 64,
-164, -482, -948, -696, -722, -984, -626, 107,
368, 373, -489, -71, 696, -339, -431, 42,
-707, -621, -452, -628, 107, 15, -802, -258,
-191, -1335, 82, 923, -8089, -31350, -26801, 6813,
-9418, -19306, -294, -721, 199, -781, -1480, -873,
1068, 2265, 819, -549, -909, -598, -338, -983,
-1045, 310, -80, -391, 5755, 3641, -6567, 19097,
27482, 8268, 17818, 32743, 14486, -126, -169, -61,
36, 464, 424, 56, -153, -137, -84, -499,
-467, -625, -1009, -648, -418, -642, -367, -25,
202, 134, 179, 519, 413, 188, 256, 180,
63, 335, 358, 272, 594, 490, 328, 321,
216, -144, -260, -124, -316, -563, -379, -257,
-411, -249, 315, 1881, 1859, 1087, 3931, 4269,
1104, 3046, 4992, 2, 209, 169, 157, 736,
591, 117, 532, 459, -89, -823, -535, -834,
-2044, -1266, -303, -866, -695, -48, 218, 239,
320, 637, 439, 197, 426, 282, -303, -621,
-223, 413, 1032, 404, -251, -448, -216, 122,
362, 240, 391, 750, 577, 246, 480, 356,
21, 84, 71, 73, 154, 72, 14, 28,
37, 733, 1487, 1021, 1437, 3022, 1311, 602,
1081, 205, 141, 220, 218, 393, 610, 232,
245, 328, 113, 118, 264, 106, 307, 474,
229, 196, 257, 150, -172, -355, -292, -321,
-360, -404, -116, -244, -233, -117, 283, -284,
2611, 852, -2092, 1380, -40, -1724, -6709, -5576,
-943, 2671, 8006, 3799, 1556, 2713, -532, -32,
22, -35, 158, 375, 276, 282, 395, 256,
};

static short para_similarity_convdw3x3s2_1_bias[40] = { 
-149, -37, -175, -104, -195, 4, 18, 381,
33, 36, 107, 101, -131, -509, 98, -205,
98, 32597, -51, 178, -16899, 21, 239, -334,
-82, 57, -2151, 3, 318, -147, -123, 147,
72, -1802, 12, -134, 182, -114, -422, -131,
};

static short para_similarity_conv1x1s1_dd_1_weight[1280] = { 
1401, -979, -37, -1025, 2057, 936, -1013, 409,
-6761, -12497, -194, -8422, -8690, -2803, 1426, 5413,
2969, 587, 353, -1920, -2066, 3274, 807, 5810,
238, -2550, -3781, -15551, 6904, 2180, 22, -4173,
-2303, -5891, 1527, 3056, -6051, 4138, 1744, -127,
4659, 4697, 2606, 2616, -1433, 9048, 367, 1009,
-1399, 1196, -9260, -5132, -6284, -8552, 2142, 4665,
-1606, -2632, 3846, -7845, 6985, 4175, -9541, 105,
12248, -4460, 2565, 6554, -2227, 9896, 3327, 15693,
-592, 364, -1005, -2680, 3830, -5941, -649, -3068,
7742, 6225, 497, 4239, 287, -11134, -4618, 6954,
-2352, 10619, -3093, -14847, -2652, -2678, -5182, 7135,
-10409, -1773, 3100, 1917, -4815, -8365, -4517, 3580,
-3977, -120, 13491, -9891, -10153, 760, 8106, -8663,
5059, -4293, -3905, 96, -7425, -5788, -308, 6320,
21773, 3474, 3727, 6185, -207, 10817, -11554, -4519,
12149, -18317, 5583, -26522, -14157, -2269, -9875, 15374,
-11000, -25498, -2469, 4162, 24651, 4393, 20590, -4167,
-3073, -14233, 11670, -10702, 13413, -2197, -4052, -15525,
3383, -6331, 2117, 1928, -14531, -2808, 7684, 22147,
-4003, -2488, -315, -2021, -1750, -4626, -6741, -1307,
-1763, 7604, -1322, -458, -811, 7971, 1209, -1350,
4953, -2292, -3397, -5861, 1446, 5624, 9739, 3937,
-656, -8724, 3073, -3163, -1861, 4062, -2119, -6992,
274, 10408, 2311, 4853, 10218, -4195, -3744, 3636,
803, 6422, 339, 1469, 791, 1983, -1477, -6521,
2348, 2431, -1629, -7605, -3273, 1062, -2245, 492,
2391, -260, 3385, -2242, 1883, -4175, -6137, -1854,
-2868, -6251, 3420, 2349, 9467, 3713, -2769, -5476,
1460, 6274, -440, 1456, 105, -3951, 1422, 7632,
-5356, -359, -648, 1702, 2184, 4769, 5143, -1196,
1929, -1999, 2503, 6215, -1941, 3087, 11, -1289,
11343, 18866, 5387, -3830, -8318, -3600, 6297, -3755,
-2442, -9020, 5674, -881, -2346, -2499, -4251, 5814,
3504, -653, 2609, 5792, 1383, 2385, -2622, -11662,
2239, -2717, -1007, -4315, -1223, 6053, 1531, 5698,
1349, -5446, -2737, -2032, -5164, -1423, 3955, -4516,
-8131, 5319, -2765, 7191, 2356, 2000, -54, 910,
-3664, -7352, -1379, -2452, 2360, 2020, 1184, 2951,
-7219, -2744, 5340, -1221, -1508, 2568, -2006, -95,
7639, 6260, 3721, 5473, 1600, -1811, 3551, -1773,
1775, 183, 6817, -727, -1354, 2046, -7696, 8375,
-695, -3496, 3446, 782, 7678, -597, -3171, -4860,
2878, -1413, 260, 6176, -3193, 4220, 36, 6755,
-3558, -3646, 1174, 3008, 3424, -3049, 7455, -975,
5523, -6589, 440, -3962, -1968, -14968, 3388, 2270,
-2051, 16839, 63, 6870, 48, -9477, 1778, 2413,
159, -16765, -3209, -141, 8864, -1047, -8156, 4343,
-2401, 4612, -1560, 13588, -1717, 10193, 3841, -6443,
-1834, -1910, -5370, 2188, -5302, -2310, -519, -11709,
-2549, -358, 378, -560, 653, 3576, 8080, -1540,
1983, -4383, -4884, -350, 3795, 26, 3378, -1745,
-4574, -5790, -5338, 6834, -29, -2586, -6017, -9906,
3839, 2731, -2796, 11683, 11617, 2961, -9007, 1345,
317, 760, -1632, -4358, 7533, -57, 3562, 3313,
5784, 7130, 24145, 2777, 8031, 14776, -6553, 1128,
-10040, 15859, 14717, -15581, -527, 9245, -7878, -6282,
-2643, -4573, 7544, 2908, 8731, 12133, 8943, 3546,
7284, 7334, -1556, 169, 1882, -658, 1601, -8848,
3743, -2751, 8272, 5453, -891, 16354, 2644, 7389,
32676, 7726, -3304, -9595, 23779, 8242, -13412, -7371,
1590, 15046, -12815, -7344, 3090, 4782, -5151, 4584,
13617, -4113, 8333, 263, 9729, 14323, 6192, 8701,
-11180, -5751, -4690, -7204, 2729, 6215, 9844, -5828,
4680, -3745, -15569, 3137, 12840, -20395, 6796, 2178,
13122, -968, 9464, -7349, 4917, -13514, -4403, 3380,
5500, 299, 14691, -3324, 6034, 814, -3269, 2561,
7020, -4922, 399, -9534, 4419, -8615, -3862, -1369,
-7855, -4285, -31, 11446, 4922, 9312, -1279, -754,
3524, -2578, 12439, 189, 968, 9116, 15488, 1204,
-481, 1184, 281, -1912, -4761, -18228, 6935, 1857,
-2161, -8541, 5550, 4385, 17089, -3825, 1313, 2497,
8823, 3283, -2701, 3255, -11241, -5068, 2238, -1666,
-6189, -4968, -7056, -3379, 8048, -9352, 5243, 1901,
-2123, -10892, 6482, -9904, -18860, 777, -2185, -985,
18569, -2643, -1827, -396, 3193, -6336, -1782, -8389,
12173, -6591, -7511, 5709, -1524, -4193, 3304, -9196,
2754, -4842, 4287, -3360, -5472, -5182, 6729, 3278,
-2046, -8864, 3528, 245, 4755, -1510, 1749, 17984,
1511, 15016, -3404, -501, -1491, -6684, 3931, 4187,
9135, 8132, 3172, 267, 2843, -1170, -10035, 1329,
7028, -12482, -646, 3227, -11329, -2470, -4002, 871,
2273, -3858, -1428, -14071, -3173, -5029, 3398, -6602,
6202, -1251, -14788, -3861, 630, -5999, 3444, 5639,
2906, 15787, 4309, 4251, 1347, 6998, 8500, -2301,
792, -1840, 132, -4836, 214, 1551, 1544, -1504,
-1946, 16303, -7654, 19142, 9157, 4132, 12300, -8728,
3621, 2292, 5566, 7450, 6174, 1974, -4447, 815,
3555, 5119, 3097, 11895, 411, -7833, 1468, 2924,
-6888, 4201, -8273, -7199, -3203, -11217, -5348, 3296,
276, 3994, -3820, 5784, -6934, 10644, 9854, 300,
-2125, -6124, 9286, 5697, 6209, 449, 2539, 8662,
-5217, 17962, -3679, -45, 1136, 5026, -8341, 10329,
3177, 3160, -3034, -2590, 10590, -6547, 3109, 7888,
-6331, 7440, 6658, 3693, 4216, -4240, -772, -1697,
-6232, 3939, -3002, 283, 1696, -6833, 1138, -3458,
1994, 128, 5799, -723, -815, 788, -2499, 987,
1979, 2784, -1558, -2261, -1178, 11773, 3621, 2553,
-3212, -6102, -11893, -7342, -16017, -301, -5105, -3375,
993, 3346, 6827, -3427, -7875, -1477, 3131, 1609,
12745, 4388, -10541, -10128, 485, -3711, 2166, -7835,
5511, 3122, 6552, 5772, 18232, 2239, 10493, 281,
1107, -5178, 5196, 12055, 1313, 508, 2704, -2927,
10924, -1601, 3281, 5091, 9265, -9053, 12952, 4170,
-14147, -1025, -6113, 226, 8028, -5895, -1985, 318,
-456, -12955, 915, -14426, -3071, 11051, 6116, -4250,
-90, 873, 7966, -1676, -5144, 3368, 9930, -16065,
-2769, -1885, 3860, -328, 1932, -6004, -7966, -2089,
5969, 2423, -4270, 4540, 782, -1551, 1854, -1242,
8481, -708, 2647, 46, -1393, 8980, -1249, -2696,
2679, 3026, -2219, 3278, 1060, 1189, 7041, -2793,
6547, 25, 195, -7577, -3449, -2940, -3121, 2522,
-5512, -1865, -1594, 917, -407, 2133, -4942, -3576,
-2979, -12579, 1971, -3316, -3363, 10102, 2066, 1818,
3608, -5887, 5266, -2490, -4340, -4055, -321, 1913,
-3042, 2969, -970, 1555, -538, -2873, -744, -3157,
-312, -2697, -5220, -1704, -9696, 1132, 3073, -4751,
-4094, 2473, -1776, 6061, 69, -7082, -5758, 1557,
-1526, -1428, -1981, 9431, -1243, 4514, -6305, -498,
3298, -35, -3009, -551, -7672, -5754, -588, 11590,
-6209, 5133, 905, -1921, -52, 4625, -726, -8625,
-5037, -13582, 1145, -1384, -2747, -3453, -9167, 2749,
3490, 2461, -4704, -9860, -1039, 2976, -1418, 7745,
-14380, -5710, 2861, -8391, 82, -4763, -4230, -4188,
-284, 1754, 4837, -4846, -3757, 4011, 7911, 3246,
7216, -1290, -383, 811, 5251, -3719, 8414, 5864,
4746, -6789, 3065, 2956, -10572, -346, -166, 4070,
-3984, -5013, 2130, 7234, -5526, -4835, -2044, 2659,
595, 7070, 8274, -2525, 12035, -12239, 3628, 1052,
-915, -7191, -665, -7380, -10266, 1736, 4682, 393,
3352, 9246, -161, 4616, 5958, -1740, -7644, -5048,
8382, -1044, -171, -2519, 2167, -4043, 937, 5207,
-4840, -4700, -2416, -5420, -2546, -3047, -686, 3800,
-8195, -5207, 3665, 3983, -3370, 5410, -743, -2244,
9163, -310, 4548, -8452, -549, -1446, 7454, 7193,
-3683, -2355, 2785, 1065, -1217, 3114, 2088, 3662,
2886, -572, 5331, -1637, -2047, 3364, 1820, -1234,
3363, 8516, 2169, -307, -4480, -5736, -4244, -2092,
2559, 4109, 5440, -1225, 2406, 1802, -2854, -2687,
1514, 3609, 2879, 4247, -7950, 3798, 2480, 1152,
8919, 1865, -3431, -3478, -1729, -2706, 3732, 6261,
-8772, 2469, 588, 8378, 7314, 9133, -2275, -2453,
8619, 984, 2164, -7009, 12667, -4426, 11976, -5154,
17479, 1580, -4360, 682, -7009, -8137, 2708, -2458,
-3680, -2131, -3223, -863, -3645, -9255, -1059, -2399,
3915, 2254, 870, 3565, -1020, 13108, 8302, 2615,
-5674, -12069, 3743, -845, -6047, -2514, -1631, 1161,
-109, 5395, 8622, -570, -2217, -8934, -1002, -2410,
-1770, 7685, -1646, 2302, -676, -4370, 1220, 822,
6974, -233, -1107, 6961, -1574, 3600, 1525, -9190,
-259, -10524, 1206, -4373, -1383, -13034, -4662, 7012,
633, 32759, -2944, 941, 9943, 10987, 20240, -14905,
15880, 51, 12268, -6255, 8710, -7761, 7572, -18756,
7982, 12765, -16621, 22099, 4444, 9414, 3895, -1341,
1801, -17394, -5578, 239, 10555, -4382, -7291, -2577,
-12984, -6291, 435, -139, -6579, -2133, 2160, 4008,
-6573, 3929, 545, 8133, 2083, 3258, 4528, 1280,
-896, -459, -3720, 795, -2360, -2760, 1587, 1643,
5655, 8864, -2906, 2172, 10648, -722, -4019, 789,
-8162, 3843, 5463, 1875, 7018, 4604, -6273, 2673,
};

static short para_similarity_conv1x1s1_dd_1_bias[32] = { 
17630, -15125, 27465, 32760, -4391, 3252, -11287, 5120,
-1562, 11092, -14487, -5148, 7887, -549, 15380, 2362,
6595, -9429, -17461, 2375, -2984, -6535, -2000, 444,
10164, 9557, 3891, 699, -3968, -7350, -13254, -13228,
};

static short para_similarity_convdw3x3s1_2_weight[288] = { 
330, -3218, -2387, -9960, -21753, -13205, 1302, -757,
-1172, -243, -2301, -3318, -2584, -6728, -3447, -2782,
2401, -3396, -1070, 3663, -6480, 5317, 17259, 12403,
-11417, -3745, -3422, -1572, -5169, -9577, -3371, -1384,
-1114, 1230, -2041, -1750, 7832, -9542, 1147, -3767,
-29184, -9765, 2646, -11634, -1759, -15356, 1601, -15327,
22102, 15489, 6455, 10030, -9260, -3277, 763, -2389,
8764, -18220, -685, 13415, 12060, -16305, -126, -3295,
-6536, 8394, -32758, 28824, -4458, -5082, 2292, 1423,
8675, -234, -2255, -2289, -12371, -10282, -8683, 6653,
8709, 1944, -1437, 1962, -2198, -19438, -4881, 3309,
-3364, -19, -10677, 17369, -6123, 13542, 25701, 14847,
5321, 2909, -3911, 2408, -2712, -2062, 1670, -9464,
-9933, -1811, -14538, 2452, 3556, -6001, -1393, -5909,
-15937, -10194, 1688, -5020, 1001, -1988, 1984, -1671,
-10190, 12941, 4466, -2105, -11790, -3404, 743, 9663,
6859, 10486, -26453, -9748, -1767, 1424, 17712, -180,
1151, -1297, -6515, -8066, -10999, -3300, 3, -2546,
4168, -1975, -204, -1604, 23324, -7322, -940, 5099,
6246, 5563, 3251, -5905, -13941, 801, -12590, 6346,
3493, 3638, 554, 8309, 5444, 6724, -5055, -7296,
-6046, -6744, -3653, 4770, 1091, -6108, 5894, 23531,
-7118, -4716, 5897, 1001, -2581, 5516, -2199, 3620,
15353, 2697, 416, 2325, -864, 7885, -346, -4655,
8242, 14851, 16075, -4142, 3191, 4711, -5600, 2297,
1349, 5487, 13243, -545, -2204, 2384, -3071, 274,
1747, 478, 1924, 5143, 2615, 1591, 1918, 221,
-2055, 3595, -465, -7429, 5501, -1519, 10963, 20593,
19252, 240, 1498, 2738, 6371, 21274, 10625, 1517,
5187, 4776, 1473, 3490, 4289, 3523, 4438, 3509,
2245, 4986, 2308, 2232, -1572, -13059, -17093, 23406,
-10747, 4125, 7362, -9687, -1300, 3278, 1006, -3030,
-14793, -14153, 4594, -1095, -5493, -259, 1066, -4302,
8623, 16548, 4627, -6810, -1007, -8823, -4451, -8067,
-6269, -1902, -1445, 2055, 2028, 3444, 4796, 7767,
-18233, 7261, 23310, -10754, -12972, -857, -17173, 10645,
};

static short para_similarity_convdw3x3s1_2_bias[32] = { 
7340, -2174, -19363, 6950, -16359, -19993, -10696, -32759,
1850, 18440, -9194, 5904, -29748, -16349, -17143, -12212,
-11941, 1545, -10216, 17267, 1566, -14662, 3091, 2644,
-22641, -1493, -2161, 1890, -19154, 14324, -426, -14186,
};

static short para_similarity_conv1x1s1_dd_2_weight[1024] = { 
-6578, -11164, -12719, 8270, -5072, 4150, -16379, -2887,
12045, 5749, 3040, 3329, -9542, 1723, -13041, -24186,
8943, 6121, -10551, -18302, -12816, -6727, 18483, 12591,
23719, -8957, -24300, -3134, 8225, -15687, 1256, 12458,
-7003, 709, -1747, 13557, 19825, -9970, 3970, 1164,
7947, 11066, 4837, -252, 13870, 9320, 10713, 6153,
-3786, -7722, 10035, -127, 16246, 12374, -15740, 10445,
-3717, -5435, 8443, 10294, 408, 8112, -7167, -14466,
11898, -487, -5996, 2233, -23074, 21078, -8867, 2551,
-9870, -8560, 5103, 6908, -11651, 10394, -5609, -3704,
12526, 16014, -5653, 5971, -15797, 9269, 15642, 3637,
-8723, 5530, -2685, -10847, 4294, -18387, 9669, 2892,
6917, 13259, -8201, 17771, -27113, 11099, -11172, 8334,
-3177, -1236, 7830, -16497, -7696, 16385, -7049, -5205,
12743, 17559, -1231, 16157, -11009, -22665, 4687, 14841,
1472, 2943, -13013, -20418, -2858, -16047, 3312, 11863,
-4557, -8377, -7673, 14677, -8275, -1893, 6662, 7094,
-13739, 1615, 14367, 12252, 9771, 3328, 5380, 4005,
-6899, -12480, -20369, -14243, 11992, -2998, 1328, 9766,
-6804, 1273, -6873, 603, 12947, -5552, 4602, -6189,
6390, 17479, 21664, -8447, -5043, 8646, 11229, 13939,
-10153, -4364, -6152, -7276, -6853, -5430, -447, 20322,
1086, 9773, 6805, 16605, 3952, -8784, -3190, 10081,
-17715, 12549, -11368, 3912, -5653, -4224, -8353, 8157,
4102, -6847, -2641, 15358, -9319, 5671, -22884, 2423,
2854, -3288, -7869, 9720, 1896, -2869, -12303, -11272,
13532, 6546, -25076, 3580, 18897, 461, -4100, 12992,
3408, 9117, 7984, 22497, 17575, -3408, -9478, 2223,
-18821, 537, -3424, -8428, 4702, 4348, 1987, -3009,
-5792, -2710, 6611, 2814, 26, 5711, 709, -3697,
-5386, -8506, -4485, -11774, 1254, 3239, -4549, -868,
15632, -8146, -1571, -13635, 3160, -10523, 9654, -1221,
2987, -4445, -3952, 5426, -1439, -1703, -695, 5906,
7342, -3015, 3383, -285, 1392, 2519, -1588, -4096,
3435, -268, -5292, -3159, 1618, -572, 5538, 8653,
-105, -2873, 2814, -5124, -3317, 3144, 2973, 4232,
10897, 6048, 2873, 6853, -7231, 10027, 4663, -9121,
3954, 395, -3315, -10198, -5467, -1302, -5484, 2140,
-12248, -14178, 8871, 655, -12370, -7478, 13483, 5060,
-2907, 8362, -5990, 257, 9102, -7189, 1353, -7755,
208, -10357, 11773, -5569, 30450, -7100, 22370, 5933,
-1223, -17627, -10608, -6193, 4777, 9789, 4648, 3627,
-8513, 1995, 20295, 4275, -14129, 16288, -4259, 7780,
-7404, -14041, 1866, 12680, -3964, 329, -13452, -2996,
-6923, 8774, -9359, 11552, -15012, 6930, -5214, 13744,
19334, 15752, 7482, -13527, -4574, 5291, -13346, -23806,
8949, 14962, -3812, -6452, -5931, 5905, 24269, 30563,
11255, -9027, -20561, 3150, 5958, -17606, -3443, 15031,
-2446, -2170, -8602, 6429, 1835, -8591, -11518, -636,
11542, 9704, -8147, 4279, -4747, 6350, -7764, -10236,
-4283, -185, -11777, -6196, -1866, -3172, 1464, -168,
-162, -14336, -4261, 6259, -5545, -4490, -2755, -1637,
-501, -33, -360, 793, -7380, 865, -4610, 2689,
-3685, -2856, 3350, -1932, -4556, 2030, -3206, -2309,
986, 2070, -2568, 598, 742, -5266, 3854, -921,
1739, 580, -981, 130, -3206, -4344, 1565, 2829,
2708, -3634, -956, 5184, 2288, -11660, -4973, -8771,
1697, -4047, -3504, 1993, 2878, -8268, -3076, -4453,
-8962, -4249, -9176, -5075, -4536, -2015, 1959, 2320,
377, -2977, 2498, 8827, -3137, 3530, -2492, -5725,
17713, 16486, -5883, 1074, -16025, 11955, -6087, 2860,
23102, 1460, 10238, -16192, -15573, 9010, -16420, -1489,
7146, 10391, -1815, 6311, -9305, -3240, -2608, -11450,
17747, -8054, -23458, 13180, 23611, -11540, 13925, 11300,
6777, 10592, 6759, 454, -14015, -1630, 1881, 5602,
7230, 12785, 8189, -12806, -2024, 9194, 59, 3630,
-1139, 5821, -2498, -5062, 5920, 9254, -6089, -13527,
-4368, 3465, -660, 5077, -6181, 2320, -3498, -5514,
-2578, 7768, -3997, -8115, -4646, 3330, -2203, -422,
-5263, -11085, -1861, 2448, -1552, 1036, -1371, 1381,
-890, 2966, -4478, 8726, -1382, -1070, 981, -5825,
-1140, 72, -2453, -5431, 2131, -12344, 9056, 201,
2864, -5408, 9583, 957, 10993, -4324, -643, -5703,
5413, 5053, -11015, 4176, 14636, 4558, 7900, -837,
-4934, -3290, 4066, -2919, 2688, 7269, -19269, -23050,
8833, 5954, 18655, -3640, -25145, 17677, -13425, -4219,
7497, 15399, 20949, -12643, 1937, -2823, 12628, -1468,
-8287, 11856, -9643, -2152, 10882, -473, 18472, 10249,
-12703, 3974, 32758, 15209, 9230, 19886, -3219, -15830,
-15142, 4380, 9290, 14128, -6926, 7129, -10170, -8842,
4445, -8341, 5013, -2009, 2262, -3477, 6708, -5238,
-14237, -8635, -755, 1078, 309, 3640, 1053, 322,
-5848, -4611, 2426, -3703, -5990, 3579, 56, 12828,
-2859, -1545, 3652, 4606, -4915, 2040, -3972, -9037,
-7028, -3443, -337, -5649, 340, -3270, 2290, 3991,
3708, -647, 4118, -6890, -3606, -1832, -2033, -2779,
4989, 5679, 4048, 3912, -5805, -2795, 4102, 4710,
648, 3598, 1235, 6345, 1946, 7309, 153, 1134,
1162, 5810, -1697, 864, -3490, 1442, -6184, -297,
-1926, -1938, 153, 1319, 1718, 1924, -192, -203,
2454, -339, -3833, 2156, 1133, -1695, 1312, -2082,
1233, -962, 1439, -2429, -1854, -5326, 1573, -1675,
2171, -1546, 3903, -5919, -8275, 2088, -2655, 4470,
-3117, 3075, 1221, -5974, -5470, 1756, -1786, 5102,
1056, 1086, -2869, 2908, 4880, -6321, -157, -720,
1011, -920, -472, 5265, -189, -817, -699, 811,
2035, 5046, 233, 15648, -7345, 8306, -6680, 13767,
8732, -4594, 14797, -6969, -9586, -5226, -12661, -5314,
2812, 11081, 3992, 7314, 7281, -6936, 4454, 1051,
3256, -5902, -16027, 7681, 4940, -7477, -5238, 6977,
-8287, -11693, 8972, -11772, -4709, 103, 9508, -11929,
-29947, -25739, 3477, -14373, 14350, -5003, -1658, 5127,
-15698, -7483, 9311, 14502, -24181, 24562, -8381, -10972,
-5982, 30378, 8816, 25853, -3892, -11499, -5646, -13061,
3535, 7518, -1836, 1323, -18392, 6936, -5863, 1177,
-9408, -1938, -1412, -3621, -6283, 6785, -1402, -3131,
5470, 4751, -28, 3866, -8596, -8468, 2389, -3901,
415, 189, -6458, -4570, -571, -3915, -1030, 1827,
801, -2248, -4140, -1359, -4176, -36, -5054, -3126,
-2240, 792, 260, -1511, -1101, -1259, 1047, 1020,
2861, 1894, 1543, 3287, -1169, -2038, 462, 3163,
227, -4163, 876, 1975, -2897, -2105, 123, -528,
-275, -12114, 17011, -10969, 2974, -12819, 11424, 2970,
-8830, 2762, -4203, -9869, 5454, -9173, 16423, 7502,
-15750, 9805, 31501, 17401, 27511, 5791, 4173, -8622,
-14384, 19667, -867, 11022, -21489, 7072, -17428, -9637,
-15046, -6571, -12022, 4856, 7666, -3187, -1159, -412,
8480, -3383, -5735, 7273, 1947, 775, -4524, -11405,
-1592, -6946, -11447, -8661, -4475, -4534, -6821, 2936,
1094, -6010, 6394, -1385, 896, 5402, 1249, 88,
24310, 10892, 9681, -11574, 2053, 8394, -12384, -9677,
18409, 11820, -3114, 7977, -11772, 24338, -2787, -7923,
-2390, 2246, 7567, 6941, -8807, -8538, 4408, 443,
11229, 2394, -6777, -21201, -7270, -10731, -4363, 4857,
-13467, 6151, 6779, -1821, 18616, -7123, -220, -76,
-5247, 3310, 5107, 6435, 4958, 6427, 4531, 11836,
-6720, -9912, -2457, 1756, 19324, 3528, -16124, 4614,
-2648, 979, 19770, 11487, -10447, -11891, 4034, -12273,
};

static short para_similarity_conv1x1s1_dd_2_bias[32] = { 
27238, -19041, -9552, -17829, 16482, -9649, -18222, 32249,
901, -6149, 24389, -8297, 11584, -3616, 295, -3708,
-8913, -3461, -17088, -32759, 8907, -6746, -1582, -4374,
3106, 9300, 2376, 514, -9446, 15087, -12218, 4310,
};

static short para_similarity_conv1x1s1_dd_se_2_weight[256] = { 
-351, -15058, -6071, 2539, 1451, 14234, 9476, -31479,
1732, -1193, 9163, -7219, -32304, 13360, -9393, 2416,
-3505, -4661, 3095, -2844, 12432, -1318, -9171, 3010,
7582, 10909, -7082, -277, 8579, -25571, 7732, -14833,
15236, -10886, 2040, 22613, -5894, 3258, -3314, -73,
-4345, 5538, -1084, 7474, 2086, -5156, -12762, 13758,
-1690, 22847, -5657, -11968, -4615, -3176, 2068, 12394,
12786, 3973, 10915, -2813, 3085, 6368, 747, -22015,
6872, -24705, 2284, 11330, -14104, 5885, 707, -12294,
-4464, -914, -9286, 13188, 5181, 2658, -14358, 5325,
-8930, 10531, -12694, -11257, 992, -5915, 7066, -12168,
13396, 5371, 2483, -13987, 5827, -5436, 412, -20779,
8327, -7477, -989, 10644, 11050, -13240, -7049, -12333,
14110, -9869, 10785, 11863, -5588, 25739, 6458, 20446,
-10914, 32760, -2366, -3179, 16270, -11455, 21890, 12899,
10115, -6695, 5359, 32604, -1870, 710, 11510, 73,
5539, 1222, -5501, 393, -19068, 9411, 251, -2002,
-23809, 6123, 9276, -4093, 13558, 5975, -1576, 25260,
9518, -15612, -10904, 8969, -4695, -1687, -3143, -559,
19338, 273, -14513, -2075, -5424, 9637, 1516, 16148,
11060, -8044, -1268, -1191, 2868, -20402, -4018, 3321,
1856, 10322, 2662, 5619, 5560, -5596, 6975, -3102,
-6737, -14616, -165, -3748, 7649, 693, -5564, -8888,
-15094, -8278, -9417, 2266, -3130, 2043, 6852, -12183,
-4596, -560, -6496, -4014, 2221, 16605, 4413, 2458,
-15259, 6605, 12575, -7225, 7895, -3939, 18814, -2886,
-7734, 3943, -9239, 7911, 7054, -6506, -532, -9707,
-3745, -10537, 1273, -13381, -2315, 11511, 3905, -1162,
2026, 16814, -14451, -26606, 6781, -7361, 6241, -117,
2061, 8307, -585, -5867, -10995, 16911, 7032, -8823,
2103, 10215, 6379, 8441, -1886, 15278, 3690, -1356,
-4741, -3403, -18835, 2552, 10074, -15, -1929, 11056,
};

static short para_similarity_conv1x1s1_dd_se_2_bias[8] = { 
19027, 32760, 15917, 27531, -13477, 16331, 5145, 15234,
};

static short para_similarity_conv1x1s1_di_se_2_weight[256] = { 
2396, -5564, 9606, -961, 2063, -3783, 1000, 3995,
809, -3163, -13911, -5645, 2142, 6146, -2643, -4717,
5033, -5255, -13672, -286, -911, 6586, -361, -11906,
1988, -9518, -4364, -3800, -1788, 3970, -2876, -10174,
10071, -8204, 32750, -15806, 2493, 4378, 11998, 1335,
-660, -349, 1735, 2501, 555, 345, -379, -880,
252, -89, 1556, 421, -4111, 389, 1169, -2413,
279, -170, -5, -709, -244, -45, -352, -320,
144, -1350, -54, 183, -478, 2577, -610, -3345,
475, 2033, -171, 2055, 2210, -1791, 635, -1703,
1853, -15566, 7529, -826, 7738, -8559, -26952, -1947,
4130, -9112, 5951, -8894, -2925, 7542, 3926, -7895,
1571, 2210, 2602, 658, -453, -2843, -1847, 1679,
-1192, -10373, 1286, -424, 501, 3246, -1064, -6877,
-725, 549, -3641, -3173, -71, 4134, -3094, -658,
10970, -2855, -250, 1158, -1745, -5063, 2668, -2271,
5910, 266, 85, -1707, -1819, 3814, -7790, -369,
2925, -3969, 3580, -751, 2534, -2115, 330, 3807,
10515, -17133, 5438, 10518, 3083, 6167, 5598, -2472,
7050, -16351, 8797, 52, 8177, -4313, 840, -4225,
-3786, 16068, -6636, -19867, 2758, 1162, -47, -1749,
1792, 1177, -1637, 3573, -166, -289, -1159, -1730,
-3460, 2279, 434, -7718, -5241, 919, 2607, -1792,
292, 1713, 1136, 928, -895, -752, -1263, -138,
9516, 733, -3727, -1456, 1098, 3236, 7253, -2263,
10915, 837, 2049, -10128, -8315, -7760, -539, 4444,
-909, 1051, -4368, -3066, 436, 2272, -837, -5173,
-2724, -1265, 3535, 217, -3343, 399, 291, -726,
2658, -16805, 6373, 5268, -779, -1166, 932, -3905,
-434, 3641, 1043, 876, -4598, 2418, -3341, 820,
-8271, 8246, -9437, 8053, -11227, -15539, 578, -308,
-4420, -11098, -295, -3890, -4491, 3414, -3029, -8869,
};

static short para_similarity_conv1x1s1_di_se_2_bias[32] = { 
-4752, 17621, 14540, 21195, -17110, -3017, 1353, 2164,
1051, -2748, 32755, 8809, -4944, 15826, 5440, 615,
771, -2414, -7323, 12981, 10872, -2393, 4500, -4528,
-7088, 4905, 9365, -3, 9211, -7049, 9272, 23326,
};

static short para_similarity_cls_conv1x1_weight[64] = { 
17172, -27767, 22755, 29687, 17232, -2532, -14779, -9651,
-294, 12674, -21408, 25231, -17939, 16184, 8384, 21221,
16101, -13130, -27344, -20356, -8790, -12322, -2282, -5675,
3665, -23390, 24850, -2835, -15591, -14137, 14663, -542,
-14281, 20630, -32759, -25626, -14001, -6006, 15980, -4105,
-2953, -15110, 20161, -24435, 14566, -3652, -1007, -23772,
-19803, 18738, 27327, 24041, 15322, 7068, -3159, 1176,
-20987, 23307, -26175, 2721, 20011, 13758, -21390, 8438,
};

static short para_similarity_cls_conv1x1_bias[2] = { 
32690,
-32760,
};

static short para_similarity_reconv1x1_weight[32] = { 
-7537, 2355, -223, -213, 5, 14234, 7562, 28510,
31058, 4790, -224, -624, 8089, -27632, 11193, 421,
-2051, -12393, -326, -604, -6378, 18743, -32760, -27236,
-521, 628, 24473, 23674, 3298, -9987, -93, 5426,
};

static short para_similarity_reconv1x1_bias[1] = { 
32760,
};

static int para_similarity_magnification_factor[26] = { 
8862,
26737,
56933,
42783,
26672,
8285,
38790,
10073,
11147,
6786,
1140,
142,
35952,
22568,
16393,
27569,
17139,
19657,
79773,
37506,
2707,
3480,
16860,
82832,
183713,
237836,
};

#endif
